116 64
85 0.049243968 -0.016314687 0.029553615 -0.029668637 -0.08654524 -0.29537728 0.11517674 0.1118388 -0.10462561 -0.2839287 0.116627805 -0.26064792 0.06315963 -0.21491317 -0.08765512 -0.059675314 0.050257806 -0.04852615 0.026828729 0.34574616 0.08184339 0.17139827 0.20552073 -0.24437298 0.08899843 0.14919585 -0.41221315 -0.0013633575 0.014735362 -0.0038616527 -0.2921473 0.057049192 -0.12691407 -0.007993718 -0.053386457 -0.08465037 -0.23313718 -0.03735763 0.1260829 -0.046280447 -0.3131657 0.12593825 -0.15046048 -0.13887756 -0.10350842 -0.043392047 0.022841817 -0.2787366 -0.08270169 0.0002681637 0.060653932 -0.07751967 0.074238025 0.32186428 0.13247895 0.06097211 0.20105948 -0.24708413 0.089733735 0.041878786 0.15996334 -0.34291297 -0.042479753 0.02206052
13 0.1670601 -0.11340675 -0.019353533 0.05137951 0.078248985 -0.14406495 0.19110152 0.11233911 0.1337388 -0.15615797 -0.06378042 -0.2652632 0.03434683 -0.120766945 -0.072806984 0.22645271 -0.0663538 -0.013208867 -0.07596352 0.37155983 0.21934311 0.271175 0.19854298 -0.11579924 -0.15165684 0.11034247 -0.21580733 -0.007475827 0.036413915 -0.0019065224 -0.070044965 0.08004459 -0.15987338 -0.07550932 -0.09262695 -0.06332093 -0.048100453 -0.10174041 0.26403567 0.07794767 -0.00092603103 -0.0024800121 0.16270193 -0.08297368 -0.23102793 -0.059654657 0.29436338 -0.14008589 -0.13756445 0.12373178 0.31926942 -0.23377825 0.20591651 0.24265873 0.09184613 0.21692207 0.109598964 -0.082026705 -0.13884999 -0.18418881 0.05576258 -0.21116364 0.039450746 -0.116488405
8 0.108857006 0.11536952 0.40532985 -0.19478682 0.07244036 -0.3556185 0.00583017 0.07879562 -0.026048556 -0.10646988 0.28099915 -0.12794092 -0.015550565 -0.29646772 -0.13067095 -0.105633 -0.09678049 0.11537472 0.09079741 -0.0417937 -0.17437024 0.21685496 0.4079004 0.07676699 -0.112092294 0.23935461 -0.34600502 0.096732974 -0.19216387 0.10054848 -0.011899119 0.086388245 -0.21364805 0.20176026 -0.072844245 0.10339137 -0.07793181 0.09969786 0.18728714 -0.11843368 -0.21465284 0.24515891 -0.037860293 -0.2644249 0.08608877 0.05218363 0.2707352 -0.24343503 -0.14179043 -0.25112405 0.18288279 -0.26898187 -0.076301806 0.5005643 0.1646033 0.08229194 0.23597871 -0.046506092 -0.09769591 0.03326646 0.056053992 -0.18366629 0.20827956 0.17034476
11 0.11218271 -0.0128427725 0.080949984 -0.07823916 -0.02264589 -0.27439705 -0.031967226 0.0063621174 -0.0694819 -0.2689733 0.14150237 -0.3102547 -0.02117576 -0.051675238 -0.23844261 0.026842369 -0.16806999 0.10271994 -0.0034185357 0.230669 0.23207726 0.2293902 0.36526826 -0.078610584 -0.057894096 0.40879443 -0.34489954 -0.04579196 0.20000914 0.04120463 -0.21110947 0.15854865 -0.108778976 -0.11637567 0.063097864 -0.18860663 -0.11332402 0.026383277 0.059054546 -0.0897085 -0.1612732 0.21616903 -0.03324144 -0.15621118 -0.02459294 -0.059110355 0.007138877 -0.24368115 -0.11552261 -0.021920122 0.20851873 -0.16949596 0.06519005 0.39765862 0.23098285 0.27262002 0.02374714 -0.29068163 -0.1667974 0.01697026 0.11587479 -0.35764644 0.057121426 0.07252023
51 0.10982719 -0.17944087 -0.23981997 0.046295602 0.12499443 -0.1844355 0.3413673 0.060446277 -0.023522062 0.1811269 0.07549576 -0.17511922 -0.082903855 -0.26358172 0.011397438 0.548058 0.24694878 -0.07131106 -0.12599671 0.38384554 0.13541336 0.39283305 0.16047968 -0.20832433 -0.027779192 0.108732216 -0.061771207 -0.10320399 0.10905319 -0.021059655 -0.013488325 -0.007567938 -0.17692104 0.003543657 -0.10681319 0.14877899 -0.12307798 0.023840355 0.15952696 0.13598879 -0.1062234 -0.0027399191 0.42647868 -0.23586845 -0.21301655 -0.05315963 0.2342645 -0.17223531 -0.07906736 0.35454738 0.25630498 -0.11086085 0.3705731 0.11796254 0.2201933 0.2517935 0.19619872 -0.106425144 -0.05694329 -0.123319015 0.11855959 -0.09276511 -0.065313436 -0.10830883
49 0.21047379 -0.2750637 -0.14659414 0.0040611047 -0.01570922 -0.057006404 0.43009394 0.016966702 -0.08380176 0.08786304 -0.040544786 -0.06966932 0.058332838 -0.21673663 0.13515149 0.5938265 0.24908563 -0.062177144 -0.23160148 0.4461629 0.24939163 0.23092356 0.05691064 -0.22412428 0.066390365 0.2033698 -0.10046724 -0.21336903 0.14735107 -0.002604097 -0.08039948 0.072940595 -0.39213702 0.026143603 -0.2702567 0.14619102 -0.12513094 -0.06262958 0.20176159 0.13750018 -0.12767175 0.0072306246 0.20333719 -0.16361688 -0.24600449 -0.1442644 0.008419767 -0.06728982 -0.06583662 0.3746163 0.10249187 -0.17018156 0.42780197 0.18134776 -0.05472994 0.26543564 0.14570469 0.0046242047 -0.00880229 0.094377734 -0.042549446 -0.11856792 -0.055608544 -0.09767864
10 0.16608779 0.07021203 0.11713459 0.116559304 0.052588806 -0.26408064 -0.13769573 -0.07969291 0.018070027 -0.19399156 0.12504369 -0.33263022 0.015738063 -0.17064174 -0.2322217 0.074457526 -0.34466574 0.050352834 0.1652824 -0.009138973 0.28585818 0.43134084 0.45141917 0.027658187 -0.28077412 0.028924424 -0.41655153 0.07426643 -0.13142353 0.12770087 -0.0036225095 0.13419965 -0.18113767 -0.110622466 0.13906524 -0.17891017 0.030530917 0.003075966 0.36985904 0.106322825 -0.2483767 0.060506944 0.12530746 -0.08413609 -0.19767024 0.10330298 0.3425683 -0.17565718 -0.09939542 -0.14829199 0.25389835 -0.17629075 0.055375576 0.48053154 0.20483069 0.2550664 0.12661715 -0.21149766 -0.25551882 -0.014654732 0.11594964 -0.20522544 0.08718388 -0.041247897
84 0.21857813 -0.08805429 0.2742513 -0.05653329 -0.114316076 -0.14614755 -0.06385891 -0.1347501 0.0053666364 -0.22790274 0.07814561 -0.14906073 -0.06672628 -0.3424694 -0.0559963 -0.039237287 -0.20800275 -0.008413358 0.05607157 0.19084379 -0.036340736 0.08588749 0.3459098 0.10424803 -0.011699213 0.20954469 -0.34023932 -0.1291264 -0.056245252 0.08757699 -0.02714809 0.07108119 -0.17774437 0.019926416 -0.03877368 -0.06191088 -0.029365718 -0.06986671 0.26433623 -0.09039477 -0.15041722 0.107458234 -0.056822073 -0.20110679 0.108067855 -0.084989615 0.24132387 -0.24607216 -0.09816393 -0.14330956 0.09286896 -0.27562812 0.06786284 0.2487631 0.05070878 0.116186865 0.1582356 -0.025794778 -0.0074620866 0.21491128 -0.051577955 -0.23893176 -0.07244936 0.12570943
18 -0.029544605 -0.10488075 0.38279036 -0.17540373 -0.068650305 -0.33579206 -0.06482716 -0.005522414 -0.18938357 -0.3252821 0.2599092 -0.19854967 -0.19160786 -0.14789721 0.098359585 -0.22484194 -0.17823093 0.20691061 0.094170675 0.2719817 -0.122608334 0.15146124 0.28942245 0.023723083 -0.035271782 0.116830766 -0.34618166 -0.056009788 0.25263184 -0.1825253 -0.15024664 0.1726638 -0.1357422 0.044907615 -0.14551997 -0.03554279 0.12844579 -0.09035947 0.123419106 -0.13169718 0.25484052 0.28870922 -0.1486572 -0.1944866 0.3530648 -0.12869678 -0.077444166 -0.2064517 0.04100023 0.07556472 0.17839484 -0.08939116 -0.065257266 0.20814371 0.09015359 0.10909739 0.05785565 -0.022444136 0.09227076 0.5226637 -0.028121622 -0.264753 0.008989406 0.28344536
56 0.25208902 -0.120148145 -0.0013237044 0.3091646 -0.006210015 0.05693157 0.44644955 -0.18657388 0.058106046 -0.11326143 -0.1190443 -0.1539586 -0.25794372 -0.32666036 0.078608565 0.40569285 -0.05161285 -0.102463484 -0.025067478 0.35384327 0.0080472985 0.37745506 0.22522753 0.0125179095 -0.07990352 0.06803883 -0.16369931 -0.40874246 -0.09897822 -0.11471461 -0.06139885 0.09859831 -0.3289837 -0.14566903 0.07997047 -0.14067534 0.19680433 0.088317 0.25491092 -0.0040656026 -0.25498965 0.03606903 0.1216805 -0.2106517 -0.04402864 -0.114291854 0.21983366 -0.14963396 -0.07520449 0.23326395 0.2782468 -0.25275058 0.3567116 -0.009643119 -0.20998025 0.3139779 0.16126981 0.10663834 -0.14075811 0.06377995 -0.20948423 -0.25531808 -0.024793558 -0.18960738
24 0.3545181 -0.04154967 0.18486929 0.00055312284 0.08185789 -0.031358622 0.05807451 -0.21164249 0.076041 -0.30333078 0.1076 -0.17179127 -0.22012195 -0.31496087 -0.14391714 0.071315534 0.19401304 -0.33037382 -0.0941037 0.32123291 -0.2230977 -0.04660316 0.39801508 -0.10762144 -0.080983356 0.34297922 -0.3378343 -0.26442033 -0.1615748 0.056914188 -0.11981229 0.15504652 -0.22985503 0.1857376 0.16663907 -0.2208599 -0.046270717 0.2503797 0.073074795 -0.08157735 -0.3612948 0.12373209 0.1183179 -0.062757306 -0.04376691 -0.08548284 0.2532388 -0.36756963 -0.28159094 -0.014461356 0.13447453 -0.3246006 0.15858419 0.12289906 0.037300684 0.16708809 0.26404312 -0.19171977 0.13433644 0.15015154 -0.027279908 -0.22244073 -0.10268851 0.18499973
64 0.011293166 0.11653837 0.6316745 -0.3224941 -0.18214053 -0.28153908 -0.127215 -0.04821773 -0.06512519 -0.22712016 0.25556353 -0.14437674 -0.12536243 -0.25884697 0.049360618 -0.41475567 -0.039330143 0.041129492 0.010345587 0.19299534 -0.0742237 0.14454217 0.30794668 0.11393671 -0.07502574 0.27983424 -0.27844477 -0.046610054 0.23106128 -0.035266675 -0.118993625 0.030440483 -0.16270608 0.11792911 -0.19964896 0.044247612 -0.07029631 -0.19966546 0.23877583 0.04745804 0.19544782 0.061548796 -0.24321032 -0.2281963 0.23306948 -0.24164678 0.1987128 -0.209453 -0.032421365 -0.08291881 -0.042456128 -0.15763675 -0.11141816 0.23051555 0.04439127 0.19780156 0.06887311 0.040961355 0.15418865 0.42059645 0.087373026 -0.24394874 0.10652761 0.23784307
81 0.18398161 -0.009979436 -0.009961417 -0.0766568 0.08243741 -0.2928324 0.09863982 0.055319197 0.18445829 -0.24818562 0.179202 -0.36625856 0.04107471 -0.1656456 -0.3373677 0.05994355 -0.13033162 0.02113868 -0.11351153 0.26295987 0.03190111 0.20400251 0.32737345 -0.032564294 -0.14929517 0.3059148 -0.30787393 -0.018650476 0.052616723 -0.037904214 -0.11103862 0.013444973 -0.20464696 -0.07325875 0.076659955 -0.09889095 -0.07340905 0.09672897 0.2772039 -0.076815486 -0.29123762 0.119262196 0.043957427 -0.18468755 -0.059028346 0.117312245 0.24994282 -0.3114304 -0.06387833 0.037206836 0.21203764 -0.1840057 0.039154068 0.42618984 0.15227659 0.033262435 0.121171534 -0.190511 -0.19734262 -0.17051955 0.13149227 -0.3737831 0.10989424 -0.09002604
19 0.06216066 0.15491474 0.19140473 -0.30151036 -0.22879402 -0.24987142 -0.024984568 -0.120823674 -0.2730017 -0.14803028 0.24191883 -0.3319259 -0.09601041 -0.31666198 -0.082035325 -0.118581586 -0.0068041612 0.19058341 0.12696797 0.27946186 -0.16373628 0.115013584 0.31573763 -0.1957043 0.15248547 0.28205904 -0.195752 -0.1158355 0.12513037 0.027288415 -0.022838851 -0.048708394 -0.17274632 0.020687817 -0.16589174 0.008152704 -0.12934883 -0.13334091 0.072653644 -0.11876484 0.15555593 0.028717961 -0.38869938 -0.18245538 0.2242355 -0.22079727 0.029809963 -0.40526214 0.09955071 -0.056583464 -0.00045656954 -0.072187334 0.057211496 0.14356336 0.14540496 0.03568989 0.039454464 -0.17729776 0.023685338 0.23545016 0.17083526 -0.38758186 0.08154203 0.30053094
82 0.17556237 0.08085873 0.1517295 -0.13613334 0.051260922 -0.22079149 -0.18913725 0.010325688 -0.058365747 -0.2308948 0.3074676 -0.29799733 -0.25687602 -0.12948157 -0.35325655 -0.002826386 -0.16208984 -0.024074815 0.0028741793 0.41450155 -0.0072908043 0.07119727 0.46869597 -0.18956102 -0.06543678 0.15898156 -0.29155296 0.017293666 0.040423207 0.102466 -0.19243129 0.11047178 -0.018536985 -0.05527754 0.13723738 -0.3474908 -0.13465339 0.0056790076 0.030647615 -0.10654575 0.12666036 0.105192736 0.18623023 -0.031151045 0.090793535 -0.0853217 0.07012729 -0.32011053 -0.11308065 -0.07569938 0.2782459 0.043733187 0.30642056 0.33198595 0.4834416 0.23687392 0.11704743 -0.31741965 0.016774883 0.14698349 0.097998135 -0.31036672 -0.08718645 0.060484648
22 0.15024173 -0.00364909 0.521814 -0.046826903 -0.17224546 -0.07039269 -0.13899964 -0.23353852 -0.025918275 -0.35937512 0.033348925 -0.15022604 -0.35312805 -0.34274894 0.048260983 -0.07885072 -0.031049743 -0.14121115 0.14151026 0.22581755 -0.14118777 0.12880614 0.33633336 -0.04140208 0.0050104354 0.17637022 -0.31026348 -0.18160483 0.0128719015 0.24340943 -0.23353456 0.21136384 -0.24920571 -0.09234957 -0.008336396 -0.3652051 -0.01967482 0.019194648 0.055676833 -0.009745631 0.040568557 0.011482737 -0.06536465 -0.18085894 0.08609967 -0.2397154 0.19959305 -0.24349897 -0.14057048 -0.10860027 0.14235178 -0.25548145 0.19787326 -0.03413694 0.06609265 0.47176945 0.13106221 -0.012445282 0.2192867 0.34766412 0.020977132 -0.25816905 -0.10299526 0.087164335
47 0.21209726 -0.22079062 -0.13327321 -0.050680596 0.2505108 -0.21458194 0.30289945 0.15676016 -0.1738082 0.19645831 -0.005266658 -0.18564953 0.148934 -0.29496264 0.21296622 0.502197 0.48323464 -0.029059524 -0.00713264 0.49268156 0.24912775 0.24081764 0.0701449 -0.25170806 -0.05034248 -0.10925641 -0.11602818 -0.002125517 0.054375887 -0.022905035 -0.016484782 -0.053704638 -0.21378317 0.14447655 -0.26988757 0.1450226 -0.3039139 -0.05567817 0.24294335 0.29211 -0.22932853 -0.073654145 0.2558475 -0.16444093 -0.266996 -0.2160017 0.21826604 -0.03410673 -0.18191111 0.4650252 0.06524099 0.051879995 0.39855787 0.16941142 0.026268033 0.09568426 0.22259572 -0.01690934 0.07186304 0.05033321 0.115162246 -0.08254908 -0.091787666 -0.066821516
23 0.03452664 0.059274655 0.553961 -0.017612025 -0.30846226 -0.18220899 -0.09379274 -0.2154956 -0.11615524 -0.34176588 0.37915215 -0.15392144 -0.38944888 -0.34076276 0.1889671 -0.2690594 0.112881616 -0.0691072 0.22311424 0.29007605 -0.13987213 0.1706928 0.22183348 -0.27689576 0.019745499 0.1622827 -0.31690457 0.0035594692 0.057321377 0.1218638 -0.2671013 0.24241169 -0.023678405 -0.08057205 -0.08145686 -0.44440904 -0.014572675 -0.11563688 0.06954574 -0.049479604 0.15317115 -0.027206052 -0.20850259 -0.03654879 0.14239258 -0.2650703 0.036968194 -0.2842775 -0.04693641 -0.15857916 0.16761914 -0.20523871 0.12010491 -0.028228136 -0.023612602 0.44196615 0.23906285 -0.044248056 0.29626152 0.2999274 0.1124556 -0.1218104 0.020191617 -0.1453994
32 0.025079656 0.07133546 0.12562616 -0.041252796 0.14013317 -0.15639922 0.20150523 0.056571987 0.1587817 -0.0023442272 0.22431989 -0.28468043 -0.11651017 -0.11761463 -0.08641583 0.17075159 -0.14671776 0.027179686 -0.25832945 0.08298751 0.1888193 0.18537875 0.28017747 0.0034947423 -0.2223486 0.315796 -0.22082417 0.15998064 -0.11649915 -0.020609548 0.0063334573 0.09521105 -0.20240836 -0.032023318 -0.0014948951 0.03392129 -0.0012295996 0.09827112 0.3865937 -0.075848386 -0.30401027 0.24753055 0.087199 -0.24061105 -0.09020017 0.24393351 0.43744236 -0.09829395 -0.03702725 0.14661793 0.13933308 -0.022031818 -0.009424719 0.46016613 -0.0857308 0.23097344 0.3483107 -0.087272406 -0.29484293 -0.14392918 0.058067463 -0.31808722 0.47138995 -0.23876223
33 -0.016142914 -0.019636218 -0.07781441 -0.08127004 0.008921477 -0.22692142 0.16384767 0.20622353 0.021143975 0.08481858 0.1838106 -0.4205471 -0.057565846 -0.034546997 -0.37856716 0.09891686 -0.23690923 0.15604447 -0.14437608 0.19839393 0.21358614 0.25063312 0.2407355 -0.067904934 -0.1512276 0.29400045 -0.32244927 0.1206345 -0.061076913 0.022802087 0.042773794 0.016506525 -0.14942755 -0.05407169 0.009528675 -0.032543525 -0.07072773 -0.08503553 0.3097952 -0.027448274 -0.15952061 0.09445777 0.050084926 -0.11119573 -0.2071317 0.121331 0.34146327 -0.24995826 -0.059301946 0.12212893 0.17966774 -5.558002e-05 -0.015047396 0.5303917 0.11369147 0.074261904 0.21617521 -0.34334853 -0.19293395 -0.09485928 0.14001928 -0.47604385 0.34489202 -0.20393649
12 0.20911045 0.025297377 -0.018749462 0.046655606 -0.0036078508 -0.071831726 0.25986806 -0.10905813 0.086275384 -0.20149684 0.10435108 -0.33527082 0.00020916126 -0.17700678 -0.14740835 0.23079665 -0.18059672 -0.028301092 0.083015956 0.2148507 0.19155258 0.3905161 0.26041904 0.014967869 -0.2723434 0.05411938 -0.29863074 -0.29487762 -0.111525446 -0.14070027 -0.11161597 0.21295972 -0.31304383 -0.1308295 0.13258398 -0.023474574 0.1984633 0.07475421 0.3153102 0.0021068987 -0.1841905 0.05989566 0.040044937 -0.27930933 -0.0638448 0.007353583 0.06715085 -0.22894032 0.020572906 0.2340312 0.20068371 -0.23608716 0.1687414 0.2924162 0.0838889 0.13614137 0.0950676 0.057033136 -0.28757355 -0.07565698 -0.08750797 -0.2102102 0.0021354118 -0.2817339
55 0.29921928 -0.2721506 -0.09362956 -0.040840678 0.23080562 -0.084308 0.19302318 0.06303705 -0.02523661 0.11866633 -0.08800741 -0.22515707 -0.086893596 -0.23149437 0.20063658 0.4873857 0.5571213 -0.17982067 0.036001068 0.4363309 0.25586852 0.22328256 0.076343164 -0.21838021 -0.15198408 -0.12913325 -0.19862287 -0.11444903 0.06484621 -0.045247793 -0.023137165 0.08011721 -0.2013223 0.157701 -0.09464213 -0.051146064 -0.1297402 0.01473669 0.23160356 0.23698665 -0.15200551 -0.122776486 0.33793706 -0.115228705 -0.3041069 -0.31207836 0.33898586 -0.076833546 -0.12980287 0.42403305 0.15849076 -0.056775503 0.34987405 0.037428267 0.100449584 0.18849193 0.17309761 -0.06349341 0.20191161 -0.028012048 0.16591544 -0.06769251 -0.18724164 -0.10128294
36 -0.16933505 -0.05483455 0.39284018 -0.22239661 -0.23223568 -0.35339972 -0.06654403 0.009415164 -0.1903369 -0.13868551 0.20366901 -0.3588857 -0.2746337 -0.2557709 0.08907938 -0.35937828 0.064493485 0.18664308 0.12732068 0.3390395 -0.05638584 0.1777462 0.15970807 -0.18094082 0.006321926 0.1806984 -0.27081966 0.034407757 0.34648576 -0.055037167 -0.044378776 -0.08192913 -0.08005605 -0.09272098 -0.15656546 -0.19790603 0.051491078 -0.23743543 0.15273122 0.051627845 0.27959567 -0.10695722 -0.35561106 -0.124829374 0.32471886 -0.18986547 0.28693 -0.35164124 -0.025243698 0.26488495 -0.08053911 0.10415431 -0.18561044 -0.055107854 -0.081251614 0.111526 0.053227223 -0.06803622 0.17782435 0.42163602 0.19360362 -0.42909262 0.16340938 0.057873957
54 0.2098237 -0.25553018 -0.26751825 -0.031904325 0.2106188 -0.23406792 0.3710943 0.16594955 -0.23301992 0.22791263 0.058730163 -0.16556816 0.054049347 -0.30095944 0.28693983 0.6304716 0.5184094 -0.1669435 -0.054915212 0.37555504 0.22793351 0.23374188 0.12101193 -0.23920666 -0.02907988 -0.07995195 0.0046255635 -0.072809 0.06988549 0.012085806 -0.06420685 0.031301793 -0.224271 0.18862526 -0.32083422 0.34887612 -0.102680326 0.06474571 0.24247669 0.23955417 -0.05032095 -0.048357643 0.37208226 -0.20342897 -0.24731943 -0.27451238 0.24640411 -0.106383316 -0.15294296 0.4437915 0.074193485 -0.12289606 0.47883177 0.17248869 0.18915007 0.108870335 0.24053012 -0.047940526 -0.020880667 0.0072416626 0.05016367 0.03127388 -0.20096774 -0.0030500125
83 0.16749084 -0.17484868 -0.16921778 -0.0954428 0.18697567 -0.12174525 0.16980319 0.22857226 0.01729777 -0.017832477 0.0035565402 -0.26900804 0.011677073 -0.13256007 -0.1863123 0.19356692 0.14055468 -0.041798882 -0.08674093 0.2965996 0.29480302 0.2629365 0.1549782 -0.008226148 -0.18551414 0.15249242 -0.2488831 -0.15431729 0.107327096 -0.09715147 -0.13248765 0.09172506 -0.24761324 0.023981119 -0.095015034 0.08463223 -0.1295427 -0.12280919 0.18761899 0.096793324 -0.005823621 -0.0059643644 0.17903748 -0.2500478 -0.3205545 -0.056798324 0.16887136 -0.20011322 -0.099783525 0.20826389 0.21544525 -0.06718987 0.14570451 0.30129343 0.13105069 0.088982135 0.10676657 -0.27668244 -0.062376786 -0.07425216 0.24063244 -0.28744727 0.096368514 0.0685836
6 0.059339408 -0.007357387 -0.024979858 0.09250603 0.0930562 -0.09098123 0.079702616 0.06796357 0.11073367 -0.029352948 0.012152948 -0.3687647 -0.162371 -0.11425309 -0.2048803 0.12251793 -0.25769246 0.06489099 0.067695394 0.08702664 0.2703695 0.44441003 0.44769818 0.1541699 -0.3405073 0.172157 -0.1787996 -0.13951068 0.008013895 -0.070598036 -0.012882955 0.034134064 -0.27521446 -0.057808097 0.123713784 -0.23598424 0.016291814 0.022500526 0.22304916 -0.03257976 -0.30543396 0.043789517 -0.008991507 -0.1545955 -0.09508567 -0.024897818 0.45434096 -0.1574651 -0.12514879 0.14044574 0.16250932 -0.21355279 -0.027735243 0.41762272 -0.0669401 0.19780321 0.11485012 -0.20385313 -0.28052062 -0.02598328 0.10633214 -0.23664723 0.35191327 -0.013894758
50 0.25033358 -0.24093331 -0.25225323 0.018569931 0.1702694 -0.14289187 0.5727271 0.16858043 -0.118752584 0.22619411 0.030935027 -0.17139842 0.10077674 -0.4023174 0.1775598 0.50260746 0.48724005 -0.07852053 -0.11389775 0.2688737 0.1696135 0.3189625 0.05255337 -0.20312487 -0.13218911 -0.025877737 -0.016610866 -0.12235684 0.118237615 -0.044661015 0.0019565995 0.14138497 -0.31909996 0.046470884 -0.32540554 0.19406588 0.018776324 0.06632675 0.28392625 0.20812047 -0.027798845 -0.15631317 0.24979271 -0.2198785 -0.28856945 -0.23701109 0.24785306 -0.084404975 -0.08273119 0.5306152 0.1360969 -0.15360215 0.37475938 0.1133773 0.081278 0.17929459 0.27042225 -0.020642644 0.023447733 -0.13435088 0.10296797 -0.015673378 -0.15775211 -0.15966372
45 0.24006808 -0.3295461 -0.14069016 -0.06859906 0.14278653 -0.22734842 0.41535532 0.26290736 -0.075440034 0.18189646 -0.023386385 -0.10212495 0.1450775 -0.36403897 0.24876669 0.47463006 0.41507494 -0.13260257 -0.13302411 0.40797842 0.18821266 0.15713622 0.03595959 -0.14255702 -0.00027808803 -0.028734986 -0.0797474 -0.038695797 0.22062446 -0.029739114 -0.071501404 0.055349275 -0.31354368 0.1203926 -0.3881952 0.17065507 -0.11436685 -0.025328709 0.2673557 0.18075496 -0.12931073 -0.090003714 0.28544635 -0.13485979 -0.23454373 -0.18204531 0.27352414 -0.058891468 -0.1576106 0.38410416 0.1203163 -0.10657033 0.39297375 0.20247911 0.05786473 0.13288246 0.25826505 0.023727458 0.092315145 -0.047219027 0.10796443 -0.07414143 -0.11364325 -0.031143472
80 0.22658686 -0.09964666 -0.011397804 0.16376624 0.21691512 -0.080554776 0.10239099 -0.11368715 0.066209264 -0.22390084 0.06999563 -0.232366 -0.008238863 -0.154045 -0.31373444 0.27667433 -0.20319848 0.07592814 -0.06901713 0.31441987 0.14174625 0.24435538 0.40374607 -0.09006301 -0.21156278 0.32187843 -0.2602795 -0.16080716 0.046212103 -0.036795553 -0.050815266 0.09990297 -0.29940534 -0.09770118 0.05453624 -0.055464573 0.12242981 -0.0044794017 0.253756 -0.09022468 -0.15664199 0.1908788 0.14475644 -0.18282713 0.016494479 0.17798115 0.105114184 -0.24591495 -0.00054043223 0.111865975 0.23186448 -0.050737545 0.038875964 0.22411866 0.060484108 0.24781959 0.1472985 -0.19711532 -0.15119089 -0.08091087 0.03525188 -0.37871552 -0.047498632 0.051937994
65 -0.12206962 0.048991587 0.45440224 -0.20250678 -0.2658147 -0.4135911 0.010690385 -0.00044031354 -0.26868805 -0.000876658 0.26038527 -0.3326472 -0.13942873 -0.33325842 0.26999173 -0.35258684 0.044149406 0.27723327 0.13613804 0.30301642 -0.014604994 0.20308045 0.15187024 -0.09274744 0.06252328 0.23653664 -0.20400137 0.20694791 0.33620188 -0.06431406 0.057193853 -0.07727555 -0.003927084 -0.05757327 -0.2832149 -0.08959919 0.079058774 -0.24222021 0.24377476 0.031336367 0.09344526 -0.06613112 -0.40547156 -0.04552901 0.4029059 -0.11229901 0.29320952 -0.20484523 -0.044301428 0.18574241 -0.12587515 0.004385914 -0.10276769 -0.006877764 -0.19841772 0.07614581 0.11099428 0.05696129 0.041821957 0.37070483 0.095922366 -0.3046975 0.21400952 -0.018488264
14 0.14469858 -0.061408084 0.15708382 0.16974229 0.025577541 -0.035368744 -0.0062626014 -0.1195635 -0.0061218906 -0.027388606 -0.05324114 -0.32970664 -0.16099162 -0.19412869 -0.14200859 0.21792763 -0.39053765 0.0221405 0.2149323 -0.13778156 0.27462086 0.5124735 0.47563097 0.28815466 -0.33426735 0.034859147 -0.2472962 -0.30777398 -0.17210323 0.027917847 -0.01276095 0.14517285 -0.29114607 -0.061416283 0.06831681 -0.065898776 0.37979078 -0.033952374 0.36713153 0.108899474 -0.14084756 -0.044159267 -0.06567413 -0.21561481 0.083869 -0.14621887 0.23643589 -0.06786698 -0.028729368 0.044308808 0.14990565 -0.2676226 0.05298675 0.28402743 -0.041613303 0.3815553 0.14204086 0.042379852 -0.26989862 0.24079245 -0.10238191 -0.14324197 0.21683536 0.008717892
46 0.26994848 -0.24532786 -0.09577006 -0.2657919 0.20784903 -0.25124452 0.26348943 0.26385447 -0.22121264 0.38083836 0.081044436 -0.2649544 0.102217235 -0.22972454 0.13003162 0.47040638 0.51888126 -0.03718676 -0.08444966 0.38447735 0.3126413 0.122775175 -0.06090602 -0.21305132 -0.10132491 0.021045137 -0.08565118 0.034129884 0.087372094 0.029733606 -0.026658285 0.045217488 -0.25413567 0.05321747 -0.40556133 0.26168564 0.052382946 -0.034626596 0.28782976 0.27333668 0.0022191925 -0.20018794 0.18337299 -0.08858741 -0.25321445 -0.1762198 0.23924397 -0.23038195 0.047004215 0.42244154 0.065706864 0.10374552 0.367056 0.15889195 0.17186353 0.12679967 0.13154349 -0.0116120605 -0.002251371 -0.08536746 0.22613503 -0.14389706 -0.1800454 -0.28513741
30 0.22095507 0.0046674362 0.19054522 -0.0812704 0.10598985 -0.2597345 -0.061822116 0.12959024 0.14292762 -0.17797486 0.13129209 -0.3105565 -0.12923917 -0.04125555 -0.23759714 0.053320043 -0.19119233 0.013966047 0.0122775445 0.30479208 0.13088106 0.1873222 0.37720782 -0.11642283 -0.241714 0.11873747 -0.43138087 0.12623394 -0.117408626 0.09175172 -0.14870328 0.14349928 -0.1241714 0.08281176 0.13818611 -0.26328924 -0.12278767 0.02198344 0.21973091 -0.09638619 -0.27679065 0.23411211 0.08079742 -0.018022794 -0.17005606 -0.0011843538 0.33434257 -0.25169533 -0.12981348 -0.14036603 0.35440996 -0.20799911 0.071978286 0.50435174 0.29464447 0.20530616 0.035101105 -0.23974133 -0.090430304 -0.12582947 0.09034759 -0.26158747 0.14135684 -0.05905746
48 0.3045051 -0.22962423 -0.058257964 -0.26915783 0.2566445 -0.22697519 0.4247346 0.29297373 -0.123941965 0.20500448 -0.028905027 -0.16203341 0.10307083 -0.10458244 0.15314537 0.5001883 0.46719512 -0.06898162 -0.07717437 0.4612242 0.28720757 0.1944723 0.011624746 -0.20572656 -0.16742572 -0.029585533 -0.12280133 -0.01181845 0.09818621 -0.063363895 -0.0952272 0.04817829 -0.2482018 0.19767386 -0.33865982 0.21467301 -0.14981502 -0.03749562 0.21494739 0.28095442 -0.14321363 -0.062537305 0.25445268 -0.22225323 -0.2629511 -0.30342638 0.1666855 -0.108058415 -0.14407429 0.48115185 0.12234489 -0.1481462 0.29920253 0.2687809 0.12274309 0.1430781 0.12112083 0.07555285 0.037736032 -0.059681065 0.0077237836 -0.01743244 -0.18085794 -0.16780499
5 0.058540307 0.022400346 0.13264136 -0.2410591 -0.32318258 -0.43779957 0.05976226 0.014616531 -0.21096459 -0.1666415 0.19441776 -0.39948803 -0.00829469 -0.2111992 0.00686961 -0.09665858 -0.26432 0.07359989 0.1304053 0.4268855 -0.18531527 0.15435654 0.24258037 0.04534321 0.20484655 0.23816873 -0.27929595 -0.025446113 0.15852569 -0.12064827 0.023103341 -0.09361445 -0.13920344 0.004291666 -0.295311 -0.036611002 0.12866127 -0.20193858 0.25641257 -0.08602487 -0.07623156 -0.020691616 -0.33859828 0.06627637 0.3459556 0.021937624 -0.1010223 -0.3100102 0.096335374 -0.027216509 0.0081693595 -0.2079707 0.059939843 0.30234665 -0.04566471 -0.1609386 0.07439102 -0.02385104 -0.09488322 0.34427562 -0.08841476 -0.36570698 0.21972083 0.23455022
62 0.16062665 -0.0010008011 0.022863954 -0.08351319 0.09458011 -0.2123099 -0.016815377 -0.0041451994 0.06348698 -0.2085391 0.23546408 -0.36617115 -0.024162319 -0.062098548 -0.29388767 0.08722044 -0.22885159 0.009505612 -0.05618362 0.1543832 0.08505701 0.2163779 0.36624205 0.0075015863 -0.15061915 0.26085833 -0.39433458 -0.065718345 -0.09006622 0.05745259 -0.058067936 0.07318896 -0.2284308 -0.09338308 0.10424689 -0.09128633 -0.1833113 0.13137013 0.22614409 -0.0877768 -0.22273263 0.21133798 0.17506732 -0.26301202 -0.13518788 0.14659797 0.24817292 -0.24680394 -0.03427692 -0.0027813336 0.2574563 -0.061801158 0.0625735 0.44675952 0.221763 0.08146556 0.13919215 -0.24001452 -0.16777964 -0.025937129 0.18703404 -0.38730842 0.05740051 -0.068465695
44 0.16304085 -0.26085618 -0.1512355 -0.18955949 0.23091301 -0.12697838 0.3273099 0.32582894 -0.048825596 0.30944088 0.027028918 -0.14416575 0.08434366 -0.30164427 0.22016823 0.5034489 0.48161152 -0.0845065 -0.11998145 0.4088778 0.23355924 0.17241134 0.05242307 -0.2203336 -0.1699309 -0.03829364 -0.053879645 0.039216325 0.17057125 -0.07689985 -0.09007409 -0.036938094 -0.24514012 0.157731 -0.3196452 0.3116369 -0.021717757 -0.11865967 0.3388636 0.2110249 -0.02569027 -0.15633813 0.2677025 -0.11894003 -0.2829493 -0.20608692 0.30733445 -0.21516445 -0.093254425 0.44258147 0.09612183 0.039055973 0.32741404 0.25249296 0.12368364 0.0122234095 0.22860959 0.029634604 0.043272637 -0.0981206 0.040801167 -0.15139996 -0.15577923 -0.24638343
63 -0.053499658 -0.02685139 -0.08722888 -0.0028694868 -0.0020393888 -0.24980778 -0.033947207 0.09603523 -0.15343411 0.23331167 0.11594886 -0.37955183 -0.09184994 -0.14919348 -0.3133753 0.11880136 -0.2255016 0.15862113 -0.028733691 0.15618704 0.28537998 0.3471495 0.30937245 -0.11273138 -0.11332403 0.16557099 -0.2503265 0.17923228 -0.016843958 0.07889745 0.07155064 0.040548306 -0.11049071 -0.027085809 -0.11556249 0.015946249 -0.09978882 -0.25082085 0.36752716 0.14248559 -0.027262889 -0.016229674 0.05558328 -0.08279068 -0.14703877 0.06629049 0.25705767 -0.105879225 -0.0044549983 0.05915241 0.0816745 0.098997444 0.009439392 0.45013955 0.103049725 0.15745157 0.07890513 -0.5184848 -0.13114828 0.085926324 0.28595075 -0.33358976 0.45220536 0.105232276
9 0.10307226 -0.03189375 0.102829635 -0.08780588 0.12209887 -0.38616356 -0.03201297 0.011967314 0.023379434 -0.23172185 0.15719296 -0.38774374 -0.07130471 -0.018772323 -0.15727113 -0.08995287 -0.1681579 0.092791244 0.07852566 0.2538141 0.105635464 0.34389725 0.2108573 0.045822274 -0.069318816 0.27010193 -0.40296835 0.11141622 0.085977845 0.014736014 0.043988094 0.12268359 -0.10256674 0.03093742 0.047037747 -0.1800932 -0.33980167 0.014455307 0.20408176 -0.072317064 -0.2628157 0.19909245 0.13293266 -0.1185185 -0.1418909 0.084922224 0.32160574 -0.118761934 -0.08230587 -0.12576942 0.29268777 -0.17408319 -0.0705748 0.47582746 0.07390586 0.11965988 0.16705032 -0.31696358 -0.10285616 0.014551165 0.2774843 -0.3170301 0.34059668 0.19516966
43 0.23245414 -0.26726636 -0.08064277 -0.22982264 0.22443064 -0.114849634 0.3709521 0.28212482 -0.19800298 0.22821344 -0.073231414 -0.20507266 0.10411065 -0.21450448 0.27464315 0.5583611 0.44014025 -0.08038861 -0.09867491 0.41757932 0.23327656 0.22348616 0.01593115 -0.12814155 -0.12300665 -0.05355447 -0.07014324 -0.049041502 -0.002921736 -0.06300735 -0.08429138 0.08320003 -0.37537026 0.116240814 -0.41188946 0.26874602 -0.11315006 0.0022299138 0.20317432 0.22494176 -0.108807564 -0.037237216 0.2487869 -0.19593978 -0.23315744 -0.1623027 0.18276657 -0.05706586 -0.08728981 0.494808 0.07945252 -0.07579605 0.4028545 0.2408786 0.04424674 0.117082894 0.2241418 0.08258647 0.045406777 0.027323097 0.03132679 -0.020428907 -0.11126681 -0.17513837
89 0.32780322 -0.25037748 0.090478435 0.0055144373 0.11348389 -0.0501228 0.43259636 0.06195157 -0.047555193 -0.00882385 -0.07861062 0.06091508 0.124591134 -0.44023046 0.3646635 0.40599564 0.21585375 0.035974354 -0.10054784 0.37663844 -0.0036238001 0.1905089 0.15065758 0.21129577 -0.039641224 0.086092636 -0.08740933 -0.19013163 0.089627825 -0.01027993 -0.15554884 0.16555841 -0.3824719 0.034070063 -0.31681356 0.045532558 -0.22406211 0.17125784 0.18638957 0.046869077 -0.3412429 0.08015523 0.32400924 -0.21139656 -0.008682401 -0.13240944 0.18455258 0.05635383 -0.38477018 0.29969323 0.043675553 -0.30677772 0.5738486 0.2547505 -0.11845654 0.16442163 0.34673566 0.31765956 -0.03762738 0.09097791 -0.11759475 0.06487059 -0.15942527 -0.17030622
53 0.047743898 -0.2514812 -0.20773004 -0.05102704 0.07759744 -0.20899904 0.33232233 0.28344646 -0.38950935 0.29062167 -0.018435141 -0.10606224 0.17383945 -0.18262476 0.3395585 0.49834278 0.586383 -0.029822689 -0.11557731 0.39456552 0.3792994 0.14826505 0.119364955 -0.26230067 -0.032901585 0.12050679 -0.1291213 0.011510965 0.05531958 -0.01754482 -0.19121537 0.1204721 -0.18868487 0.23919755 -0.47209993 0.32352614 -0.1309553 -0.15217417 0.073926926 0.18315001 -0.24073188 0.019471545 0.24109595 -0.13297623 -0.34232232 -0.35323566 0.14355546 -0.17334682 -0.290367 0.32043296 0.06874237 -0.19880892 0.4228769 0.25440976 -0.03027813 0.04630886 0.13643402 0.08157774 -0.09596643 0.13371903 0.133071 0.055608273 -0.118958615 -0.023270981
97 0.38034818 -0.23451442 -0.067912325 -0.16696794 0.10792419 -0.22800042 0.36713234 0.05708371 -0.03596714 0.13153899 -0.012574226 -0.21979345 0.15682495 -0.3981899 0.27539736 0.56958467 0.42746612 -0.13463718 0.032559 0.53980803 0.0706603 0.27139455 0.108523235 -0.034349907 -0.07409012 -0.03892152 -0.09920241 -0.15686736 0.108049445 -0.1239076 0.021177879 0.14565879 -0.25385633 0.1018566 -0.21977147 0.12709169 -0.12766331 0.078051135 0.16724429 0.21792635 -0.2592728 -0.040877093 0.46369672 -0.10014294 -0.09518581 -0.07084082 0.1265441 -0.049554426 -0.22218207 0.53765184 0.22023554 -0.27482 0.49031165 0.15860856 0.12280751 0.15742691 0.26382744 0.21376826 0.0016027559 -0.10631553 -0.0004668805 0.15157738 -0.12385515 -0.13953345
99 0.27736014 -0.299507 -0.08186064 -0.0076411227 0.17560093 -0.22516173 0.4000101 0.05896783 -0.20932606 0.044407576 -0.051400382 -0.17393161 0.040422782 -0.3684044 0.21387611 0.6022259 0.36633492 -0.06301982 -0.06820302 0.539409 0.008934885 0.24361889 0.1056157 -0.13384692 0.02983514 0.030459315 -0.070153706 -0.16266799 -0.025665443 0.012712756 -0.02940756 0.16239639 -0.22844703 0.05155757 -0.24088824 0.20514566 -0.12407325 0.1396571 0.07684291 0.1499995 -0.22990446 0.08213285 0.43948683 -0.114305966 -0.06498398 -0.03614712 0.025411062 -0.050000064 -0.18792093 0.43887016 0.17389886 -0.21121742 0.49676955 0.15596141 0.07696992 0.22257966 0.32086393 0.11021592 0.028640678 0.03745286 -0.054827753 0.10476616 -0.17868853 -0.07252679
42 0.2765628 -0.22965893 -0.11253322 -0.21679364 0.27548984 -0.32338887 0.4651006 0.26134884 -0.19106056 0.2580728 -0.017333534 -0.27686095 0.067630924 -0.21073292 0.1835383 0.535794 0.62789804 -0.018536806 -0.12378742 0.38976306 0.14325313 0.2928737 -0.038714655 -0.22651158 -0.10284193 -0.11934134 -0.08263134 -0.023302171 -0.0038341258 0.00946258 0.0087197935 -0.013929133 -0.27316365 0.12415793 -0.3703429 0.23676988 -0.11831601 0.031132603 0.25897923 0.2884388 -0.05563416 -0.17199767 0.24176596 -0.19673179 -0.32756862 -0.30366313 0.3185565 -0.0716428 -0.077007465 0.55115086 0.10417075 -0.05945891 0.38383257 0.15626508 0.085399374 0.03446916 0.13964416 0.08144313 0.0010550383 -0.023182442 0.14505967 -0.009580417 -0.1081879 -0.17827143
87 -0.00972516 -0.087550156 0.24426766 -0.2413811 -0.26481405 -0.17708643 -0.24083248 -0.03830757 -0.29596674 -0.13685693 0.19770153 -0.3311874 -0.18132985 -0.28698862 -0.23117502 -0.09757822 -0.066153236 0.03593375 0.12772375 0.39280927 -0.040465135 0.024440816 0.34077293 -0.1730429 0.1001353 0.291924 -0.35482857 -0.15160152 -0.009142372 0.12674157 -0.13829224 0.100182734 -0.24391897 -0.08725627 -0.16924378 -0.1162867 0.07218149 -0.2653205 -0.0027824542 -0.04955241 0.27776667 0.022674402 -0.21593054 -0.11905458 0.20966049 0.031578854 -0.06343728 -0.39622208 0.13646775 0.07750105 -0.0784964 0.15358782 0.00316397 0.15609714 0.24461475 0.11046701 0.051805403 -0.268073 0.24020258 0.42379597 0.21285574 -0.38931414 0.020096332 0.14690459
98 0.36031103 -0.24919333 -0.12035348 -0.0731774 0.35188076 -0.2791131 0.44102156 0.20140694 -0.16255921 0.2755012 0.0114373155 -0.17330098 0.07762733 -0.43208712 0.19127138 0.5174737 0.5922786 -0.13659759 -0.119044356 0.42469263 -0.0043498157 0.2352184 0.14633884 -0.048562326 -0.10693561 -0.011691197 -0.051934205 0.008392495 -0.029161157 -0.0902874 0.10819009 0.016178265 -0.19419585 0.22912686 -0.3364834 0.28803512 -0.13313663 0.037088994 0.2201548 0.19217806 -0.21253127 -0.085772544 0.4043625 -0.10854523 -0.19427013 -0.13115959 0.328893 -0.04710751 -0.20243737 0.40668848 0.15525426 -0.1542155 0.4572609 0.16983244 0.0707961 0.041683402 0.36811957 0.08283373 0.081565134 -0.040268876 0.06474084 0.08793234 -0.08840196 0.043782704
29 0.05191551 -0.030275436 -0.09773597 -0.13227022 0.017504845 -0.21587646 -0.048532844 0.06613884 -0.22216317 -0.30242965 0.3954906 -0.2753484 0.011747973 -0.26338366 -0.3371307 -0.017184807 -0.24832864 0.09137345 -0.04994468 0.3538957 0.06843815 0.1313132 0.5269133 -0.26320118 -0.067357205 0.2562233 -0.1278753 -0.0698865 0.3895817 -0.043332055 -0.2784467 0.06348173 -0.18269952 -0.08535011 -0.24538067 0.0777516 0.10802152 -0.25875747 0.27827978 -0.12343008 0.41665655 0.04420881 -0.19236052 -0.115338184 0.27837783 -0.0469013 -0.3301 -0.3619637 0.25861856 -0.025911996 0.012092603 0.06392156 0.09460869 0.36839065 0.35633144 0.004131366 0.08269975 -0.40360755 0.09330041 0.18914011 0.07206912 -0.5090282 -0.20869885 0.07100654
0 0.39823857 -0.053916678 0.24628486 0.2051156 -0.035079792 0.04257999 0.19420348 -0.17359881 -0.07264136 -0.08622255 -0.18561623 -0.03356397 -0.23422104 -0.45613763 0.037903175 0.3260205 -0.075426616 -0.17652336 -0.02462748 0.17531745 -0.14502616 0.30765948 0.42265445 0.2069496 -0.073776595 -0.12435822 -0.19401765 -0.36207506 -0.3064453 -0.028019065 -0.07144916 0.18109241 -0.35118487 -0.048421517 -0.11125162 -0.14686023 0.30689 0.08546726 0.19996071 -0.017627891 -0.1476433 0.030580614 0.16714372 -0.064699896 0.094887 -0.123115085 0.23546667 -0.039400548 -0.018126776 0.026586883 0.28624296 -0.35835782 0.51930416 0.06590509 -0.02072636 0.36084008 0.27634773 0.29183176 -0.010087462 0.15459996 -0.14854749 -0.023910338 -0.16604647 -0.039671343
111 0.20023493 -0.048559267 -0.118481785 -0.101317056 0.25665942 -0.12430326 0.38058004 0.2102245 -0.19410303 0.14640288 0.1650389 -0.17439856 -0.05077576 -0.24494597 0.21404716 0.4642311 0.5838907 -0.15434363 -0.011071859 0.39299396 0.2381915 0.30492625 0.14884135 -0.30042404 -0.23796627 -0.24851243 -0.0807836 -0.037528563 0.0875117 -0.14681722 -0.103102714 0.076929726 -0.18179806 0.1750279 -0.16217357 0.02394331 -0.11811288 0.046410527 0.12185637 0.2633347 0.03984529 -0.031111851 0.39393392 -0.16039816 -0.2534063 -0.3555069 0.13972242 -0.042226747 -0.17609426 0.6033429 0.18297301 0.07453106 0.4096912 0.16736099 0.27383846 0.1627907 0.19440512 -0.06021621 0.1108859 -0.02254593 0.095900446 0.042553373 -0.21832895 -0.21861817
61 0.024941726 0.14894496 0.16708766 -0.23758285 -0.20379584 -0.47192755 0.043625798 -0.007640913 -0.08231373 -0.2986228 0.43848988 -0.31166792 -0.031032495 -0.33714154 -0.024350638 -0.29258877 -0.10141024 -0.037360378 0.10949539 0.25500917 -0.17263918 0.23157123 0.31295747 -0.08377774 0.054108568 0.18960223 -0.20558453 0.113506205 0.20993558 -0.14702925 0.05781363 -0.18873672 -0.04225612 0.024196718 -0.27610746 -0.15284145 -0.06667234 -0.290292 0.37863553 0.09510333 0.11213682 -0.18399101 -0.37726116 -0.05937922 0.23812722 -0.09838252 0.11426415 -0.26199773 -0.020411415 -0.030467832 -0.08617192 -0.10713597 -0.06523857 0.35490218 -0.004789062 -0.17236899 0.16512327 -0.097829185 -0.078235805 0.32519406 0.037315957 -0.26571694 0.39689565 0.25345623
60 -0.0066805985 0.20583408 0.42427248 -0.2651279 -0.07475683 -0.45071486 0.22812463 0.05053388 -0.16578254 -0.20807813 0.30456123 -0.29094052 -0.117463574 -0.28054902 -0.1193083 -0.4628634 -0.043829553 0.22084245 -0.01525621 0.29358295 -0.38073236 0.3425711 0.4568653 0.13851376 -0.10641174 0.28633758 -0.14590648 0.04828878 0.25673538 -0.28569973 0.030361198 -0.030239949 -0.009081646 0.08760816 -0.15086885 -0.17709675 0.053421207 -0.16142444 0.124553844 0.032416552 0.20564777 0.13232556 -0.25305033 -0.19565484 0.30294675 -0.1964214 0.06883837 -0.103708915 -0.21539572 0.21211071 0.054268315 -0.16779093 -0.22016741 0.24158007 -0.026288003 -0.065021254 0.026044577 -0.028387861 -0.08820351 0.46895477 -0.1140944 -0.22944441 0.26661006 0.33145633
112 0.23720372 -0.17988037 -0.20793006 -0.120585494 0.18533164 -0.17436285 0.43299624 0.2227245 -0.19318144 0.28228274 0.08090857 -0.226017 -0.033577777 -0.34292385 0.2753532 0.6004229 0.538523 -0.11905651 -0.07524449 0.520755 0.14402156 0.20323914 0.10544282 -0.18632047 -0.08755018 -0.12792628 0.001490282 -0.04481305 0.15169059 -0.098512195 -0.046451166 0.050209012 -0.20889059 0.1201916 -0.30232245 0.15122394 -0.044912066 0.04282878 0.16791955 0.16019447 -0.10324362 -0.08540001 0.38422808 -0.06506046 -0.1704009 -0.23232172 0.20116071 -0.113903776 -0.16018146 0.5509119 0.15358087 -0.026997592 0.5646107 0.09494075 0.14961088 0.08272884 0.2548917 0.039073363 0.043092296 -0.01093272 0.01787964 0.00395811 -0.21177487 -0.17283621
52 0.22879702 -0.2564526 -0.116346136 -0.11514301 0.21674544 -0.16519101 0.44727388 0.2985424 -0.053502154 0.22907189 0.025456361 -0.09369152 -0.012245672 -0.32698816 0.10174743 0.47265935 0.5158822 -0.13228849 -0.14995763 0.36564097 0.21877243 0.08534199 0.026018208 -0.19296472 -0.10304027 0.057292975 -0.12874267 -0.010229709 0.18189807 -0.019144384 -0.09073158 0.11134033 -0.2932855 0.12268352 -0.23653409 0.09758002 -0.011985531 -0.048993662 0.18738805 0.13191533 -0.10545079 -0.08868967 0.21683362 -0.05758305 -0.26559463 -0.2580574 0.19926088 -0.17906521 -0.16524677 0.3296383 0.17255676 -0.058159973 0.3867754 0.19009997 0.06895238 0.22095907 0.17555584 -0.07003578 0.05661995 -0.059576016 0.06559218 -0.17933567 -0.015499276 -0.0014205836
58 0.21213274 0.011894945 0.4029705 -0.22395025 -0.1349122 -0.24670073 -0.100385904 -0.037214357 -0.0068592774 0.024114925 -0.17053229 -0.37747902 -0.22369027 -0.27334884 0.15794784 0.012106213 -0.35612386 0.06950203 0.3705521 0.3065695 0.039816994 0.2681764 0.43444106 0.36608264 -0.20241901 0.17208126 -0.17889866 -0.040028132 0.24132751 -0.113120645 0.11870499 0.065732196 -0.16448885 0.20971014 -0.065177344 -0.20591149 0.29185382 -0.23209365 0.29299864 0.09200209 -0.37461412 0.031766463 -0.27586415 0.17762952 0.3526223 -0.1579725 0.31931388 -0.16888936 -0.28074798 -0.052538816 0.10079751 -0.46561435 -0.10836532 0.26977584 -0.17993844 0.21482825 0.042215526 0.059914537 -0.22428648 0.34558102 -0.33457464 -0.12431497 0.50002074 0.5146503
4 0.0419313 0.02621229 0.4400414 -0.27941903 -0.18743636 -0.29487574 0.0835908 -0.012456477 -0.00124664 -0.119401604 0.27193573 -0.12522388 -0.07217896 -0.5068914 0.22522393 -0.28728595 -0.16033463 -0.19504759 0.023327589 0.06852308 -0.32628155 0.15547922 0.40641385 0.3769683 -0.09425744 0.20950548 -0.23286612 -0.09916762 0.24614908 -0.19358334 0.052542903 0.22298783 -0.32108346 0.23396936 -0.098090336 0.081619196 0.06217167 0.11020085 0.24634902 0.0028754887 -0.35799527 0.22067142 -0.10010293 -0.18165042 0.22861235 0.03778293 0.2826156 -0.15585679 -0.32310894 0.037235487 -0.12508522 -0.44453922 -0.12391219 0.39042225 -0.11882783 -0.006320153 0.24138455 0.04933121 -0.007983678 0.5409213 -0.23183943 -0.054345258 0.2574699 0.4965913
20 -0.006465287 0.07678974 0.81816655 -0.34328777 -0.18252203 -0.15230395 -0.04358971 -0.057807356 -0.26686323 0.056342117 0.10390631 -0.18035147 -0.28183153 -0.4010071 0.04781741 -0.331513 0.06644031 0.21119592 -0.071545355 0.06760763 -0.1716929 0.14411247 0.20229577 0.14287992 -0.06196958 0.32873377 -0.23705818 -0.030957526 -0.014309535 0.1556292 -0.04793154 0.26407474 -0.40154704 -0.09830807 -0.300281 -0.026538434 0.15969545 -0.09229618 0.07604317 0.047796514 0.24278407 0.09270327 -0.28442413 -0.32515725 0.26493928 -0.06550759 0.31727698 -0.17096698 0.13042489 0.09642769 -0.069767274 0.0384991 -0.046088662 -0.02095128 -0.093953036 0.5061217 0.034323342 0.15001197 0.1659182 0.39428645 0.26246673 -0.25808907 0.22840913 0.03566458
37 -0.082315154 0.09635889 0.45254168 -0.2654471 -0.15389366 -0.3369518 -0.06986722 -0.048784338 -0.40704736 0.19737037 0.17957053 -0.47293577 -0.24106154 -0.24734373 -0.0074586254 -0.17188308 0.28563753 0.2578632 -0.11823302 0.17779471 -0.069819845 0.15892874 0.2938547 -0.11927828 -0.032280084 0.30590296 0.023514371 0.22839178 0.03447295 0.11765601 0.29774746 -0.06713627 -0.3033035 -0.23217992 -0.50040495 -0.13736905 0.21821663 -0.13806121 0.054013666 0.042905293 0.64724714 -0.13130714 -0.33728853 -0.15179978 0.2444047 -0.037151042 0.6577937 -0.18803927 0.22201666 0.4528677 -0.15342346 0.20435677 -0.03885974 -0.27514988 -0.02066279 0.15343075 -0.0891587 0.04609499 0.13263163 0.2929659 0.4685934 -0.19204351 0.12202969 -0.08294361
31 0.24392512 -0.011903239 0.289113 -0.043423794 0.08992757 -0.28987482 -0.21561855 0.049954016 0.0484155 -0.21985671 0.106555134 -0.2549618 0.03888373 -0.21414213 -0.26713157 -0.012137512 -0.12869327 0.017918838 0.055097785 0.12776388 0.032210767 0.16178614 0.42706487 0.047265276 -0.110481426 0.11364682 -0.5464651 0.061450496 -0.14605707 0.21813431 -0.089610994 0.12494057 -0.16784967 0.035137188 0.15786776 -0.22865205 -0.24543366 0.06601071 0.15948726 -0.13712491 -0.36484224 0.1781418 0.11745792 -0.029814785 -0.1799069 -0.013812956 0.41254467 -0.28746465 -0.16250221 -0.3066463 0.30450055 -0.17675117 0.12844953 0.5256091 0.32978725 0.1810834 0.17982018 -0.18919012 0.03994669 -0.014077773 0.26364025 -0.29646826 -0.06017159 0.11643867
7 0.08559705 -0.04251113 0.03364549 0.01458249 0.16897409 -0.3836015 -0.0010757153 0.118902 0.038229894 -0.01117499 0.2376129 -0.29273137 -0.035254475 -0.17026119 -0.24038883 -0.006353788 -0.26362568 0.2225511 0.10591246 0.06320458 0.3355915 0.38086623 0.24960867 0.024321942 -0.20296927 0.28771874 -0.32999817 0.15849932 0.15861498 0.030877193 -0.0016362584 0.032704934 0.020553356 0.032629155 0.09464232 -0.03269412 -0.12975593 -0.08973404 0.35388228 0.005902139 -0.3333967 0.087016664 0.02342896 -0.12321304 -0.031941395 -0.027995454 0.34730956 -0.21066873 -0.08804297 -0.16729793 0.23546284 -0.15593012 -0.09469313 0.5834636 0.1599649 0.25411674 0.20394619 -0.3406592 -0.26134452 -0.114365876 0.17017657 -0.32468727 0.35804537 0.0522988
67 -0.08974542 -0.15797348 -0.037776653 -0.13098833 -0.016052121 -0.21132928 0.357286 0.25773838 -0.2594158 0.39198154 0.1121985 -0.1571657 -0.00031805033 -0.2633436 0.32053658 0.40358374 0.48521537 0.13905382 -0.13642953 0.28261447 0.22821037 0.10670488 0.08263075 -0.32816476 -0.10171676 -0.092359096 0.015013092 0.14294264 0.11641307 0.05803504 0.024680452 -0.08817596 -0.3382207 0.049520973 -0.4200832 0.228941 0.1113135 -0.048096772 0.17946728 0.19679047 0.15195811 -0.116227195 0.07883313 -0.12652281 -0.18761104 -0.2225195 0.42223206 -0.20967524 -0.14849372 0.56372917 -0.06692481 0.10162079 0.27311534 0.02126175 -0.11827867 0.070467785 0.047820147 0.124265715 -0.06550387 0.13799086 0.073508084 -0.06177408 -0.07742041 -0.25535268
96 0.24286571 -0.07773583 -0.09260416 0.059285805 0.17680596 -0.3341062 0.24436705 -0.122596756 -0.40832832 -0.1758232 -0.046928894 -0.3017031 -0.092350796 -0.13632715 0.29950973 0.4786376 0.38678682 -0.14340968 0.07593984 0.5461451 -0.08593759 0.430379 0.1648408 -0.24778485 0.0976601 -0.51610786 -0.17430377 -0.13849688 -0.2721414 0.045355376 -0.01675852 0.12206436 0.036596566 0.23983736 -0.26441008 -0.048107415 -0.41327503 0.15172327 0.18373111 0.4049021 0.0044488013 0.09758748 0.5900278 -0.14786279 -0.320011 -0.36355567 0.15832612 0.25367352 -0.23721386 0.40864527 0.31030124 -0.23463066 0.5319617 0.020005243 0.20478953 0.08166128 0.22228892 -0.117816046 0.10061092 0.36218712 0.06898472 0.25888178 -0.21272713 0.11927526
3 -0.40957037 0.13784815 0.15842712 -0.12088089 -0.3240148 -0.24282259 0.019613441 0.088461496 -0.39753696 -0.08103337 0.38143072 -0.42673683 -0.08743023 -0.28215984 0.056227464 -0.35777417 0.053624243 0.21982159 -0.010903466 0.3234909 -0.052156664 0.19339669 0.35029924 -0.31280598 0.06850465 0.20739478 -0.14195651 0.1959147 0.03974367 -0.08045664 -0.052468378 -0.13049196 -0.10799961 -0.13394079 -0.29933193 -0.02226182 -0.02084882 -0.33508503 0.09581586 0.025679437 0.51697665 -0.00036624714 -0.39371285 -0.20019616 0.11453579 -0.0536093 0.16821676 -0.28809035 -0.059681598 0.28131884 -0.16211529 0.33931687 -0.03622468 0.15380988 -0.100874 -0.19128343 0.10637547 -0.17535552 0.043790117 0.49950287 0.18741514 -0.41222814 0.27380103 -0.022378108
66 -0.3584457 0.028838808 0.04688663 -0.11235442 -0.1511086 -0.16021183 -0.019048534 0.2711174 -0.4181414 0.5008893 0.13611817 -0.4415845 -0.2767731 -0.25804242 0.08131086 -0.03327586 0.24748783 0.058599733 -0.08760032 0.26496696 0.1279823 0.14792015 0.2912904 -0.2296342 -0.15412448 -0.15195575 -0.0740453 0.28790912 -0.14462489 -0.045504335 0.14191844 -0.17295672 -0.14870429 -0.0050454005 -0.55250394 0.06865137 0.22328474 -0.2962208 0.2902279 0.33823836 0.3934553 -0.2652222 -0.20479634 0.018885352 -0.103063725 -0.11943855 0.55086833 -0.23120783 -0.09944842 0.455143 -0.22206032 0.40119213 0.1371771 -0.024030065 -0.13390325 -0.061044067 -0.04895569 -0.15060547 0.10290211 0.471698 0.26138115 -0.19300047 0.24330275 -0.06676369
79 0.24108657 0.028230133 0.051642023 -0.22355925 0.22828443 -0.31059545 0.045982532 0.02112355 0.11387147 -0.11019216 0.0990922 -0.3817512 -0.010196173 0.054293543 -0.37924778 0.16788207 -0.1564278 0.15950327 -0.09333928 0.106633015 0.28386366 0.39429078 0.17820783 -0.008030631 -0.24245818 0.28513253 -0.33012518 0.04099611 0.06786437 0.12689878 0.023537342 0.12913218 -0.23421305 -0.13745336 0.007176044 -0.06867205 -0.11987994 0.017902631 0.27372167 0.04497094 -0.1381395 0.05871372 0.13013557 -0.23556288 -0.22199489 0.07714687 0.37074375 -0.18633667 0.095805936 0.021795224 0.33075786 -0.20246832 -0.030996544 0.38653618 0.21972883 0.3225297 0.02663217 -0.18822056 -0.30839685 -0.27967378 0.3100885 -0.29095513 0.16005905 -0.07141888
104 -0.14593187 0.06314365 0.21994653 -0.33681148 -0.3260391 -0.17434312 -0.2877227 -0.16293046 -0.4622534 0.14305136 0.38901493 -0.4526994 0.03493843 0.16384043 0.6118342 0.13886338 0.2177092 0.22081326 -0.090225436 0.33731768 0.46530667 -0.05110939 0.3476771 -0.35171038 -0.030600345 0.502064 -0.08637168 0.3787399 0.16577575 -0.057864845 0.3017969 -0.18220457 -0.14526176 0.19817859 -0.7557994 0.38851652 0.12737846 -0.34370896 0.20304126 -0.21404792 0.4215537 0.10881399 -0.29876179 -0.12782532 0.0961039 -0.13814531 0.5121553 -0.368559 0.3006411 0.3045994 -0.08864265 -0.12630081 0.028352497 -0.14343049 -0.36371627 -0.30036995 -0.07935667 0.30724657 -0.1825268 0.3119253 0.21499126 -0.12329581 -0.0551703 -0.270717
72 0.28312084 -0.13543871 -0.08157442 0.39243135 0.31999916 -0.114248686 0.48563406 -0.2810581 -0.24993125 -0.1595312 0.4031369 -0.22825502 -0.19863401 -0.21247064 -0.15473497 0.18968499 -0.07832551 0.21723357 0.24910729 -0.066429354 0.22843695 0.57471806 0.3026486 -0.039574 -0.45809296 0.14738972 -0.1479145 -0.31216177 -0.14375108 -0.13414648 -0.100782834 0.35774055 0.097380355 -0.08985607 0.0043410906 -0.016108468 0.5169312 0.12643592 0.39555085 0.10635832 0.19641675 0.07502953 0.027420219 -0.47815725 0.19755225 -0.38702038 -0.3304055 0.04782024 0.09967842 0.30935124 0.30224642 -0.27536258 0.07281703 0.15067312 0.06225507 0.34558633 0.20341693 -0.07075124 -0.25318742 0.15598448 -0.23034105 -0.027216183 -0.2966529 -0.4453286
34 -0.13332559 -0.06489363 0.4187683 -0.054924116 -0.09707965 -0.31631136 -0.19950639 -0.12503661 -0.34951746 0.35410994 -0.040639702 -0.45549887 -0.35547787 -0.25863716 -0.19641834 -0.0010893951 -0.03795518 0.33413398 -0.15772901 0.2991993 0.17315845 0.117624246 0.35514262 -0.26784968 -0.06844936 0.019470694 -0.19153419 0.2593956 -0.24707489 0.21229918 0.28672585 -0.10432559 -0.14593409 -0.1445097 -0.34194228 0.031995304 0.28569216 -0.28299755 0.37163708 0.2894532 0.48147961 -0.10729522 -0.15189493 -0.08511096 0.17443809 0.13712628 0.53972083 -0.14779149 0.13751994 0.32540447 -0.17984699 0.41190287 -0.080056936 -0.062231757 -0.105608486 0.30231184 -0.13944106 -0.22383685 0.03404279 0.42944294 0.25207874 -0.24867931 0.30851483 -0.06962008
39 0.021894539 -0.0236994 0.37446156 0.29397595 0.041549206 0.0063910806 -0.15532714 -0.31653 -0.19629578 -0.35259327 0.2840996 -0.039837535 -0.4387272 -0.3048051 0.09022033 -0.15085718 0.2881902 -0.19499145 0.27221805 0.09016492 0.11224715 0.32969594 0.22447804 -0.37082297 -0.18222599 -0.0068739653 -0.45580173 -0.19896244 -0.0049661193 0.25710115 -0.24793833 0.24183092 -0.071020074 0.0313919 0.102945834 -0.33774006 -0.1420169 0.00025053255 0.18670887 0.14265218 -0.020141846 -0.016199585 0.07479791 -0.13263811 -0.21092379 -0.40356207 0.14411825 -0.24709287 -0.1262406 -0.10067639 0.14724998 0.0019905865 0.04037406 -0.1275545 0.031923726 0.5356267 0.20710634 -0.28613195 0.5140565 0.41829118 0.30343002 -0.19344583 -0.33866122 -0.07126794
91 0.26365086 -0.097083986 0.32052502 -0.108770534 0.09024569 -0.26392555 0.14564939 -0.032090083 0.16586284 -0.14677538 0.036231063 -0.0033028251 -0.059955746 -0.35403103 0.16387154 0.24879104 0.08186382 -0.10465695 -0.043548465 0.3135112 -0.22895488 0.23474814 0.31107205 0.16163465 -0.12655523 -0.008498797 -0.1681697 -0.09671354 0.076271854 0.08204671 0.039645128 -0.083705895 -0.20303565 0.14362249 -0.11117074 0.14367615 -0.104573175 0.108959585 0.21948338 0.07338211 -0.29077074 0.012821595 0.404118 -0.119192764 0.09189962 -0.033269253 0.39932 -0.15809973 -0.28013638 0.12199821 0.079304576 -0.41252357 0.20975742 0.21419209 0.096262895 0.13196449 0.26957056 0.39387578 0.045074284 0.076724716 -0.29620275 0.15080103 -0.23502514 -0.012578
108 0.20725407 -0.5077385 0.07035297 0.3485692 0.09639848 -0.6082873 0.2745855 -0.08324065 -0.54246336 0.0332355 -0.047504563 0.0035445252 0.096177675 -0.11640933 0.7739379 0.6292369 0.31937268 0.22009875 -0.21241078 0.2969366 0.2536661 0.16278379 0.075815834 -0.34420633 0.3255056 -0.12925336 -0.17254274 0.23924255 -0.24522547 0.1555944 0.11779192 0.23767947 0.13764301 0.3359386 -0.6410628 0.35798135 -0.14182058 0.076101534 0.30634323 0.12772307 -0.042611383 0.32879373 0.41582885 -0.10861751 -0.12272969 -0.33458903 0.39195156 0.3171728 -0.22165832 0.112203635 0.23840144 -0.4944056 0.644379 0.10777171 -0.16454929 0.19042404 0.22774424 0.25061578 -0.2523418 0.37242112 0.038495436 0.39644986 -0.058923002 0.026296182
92 -0.120304145 0.24283643 -0.06919991 -0.054114 -0.4249384 -0.15280327 -0.34117946 -0.30185503 -0.43335727 -0.28837425 0.4314381 -0.4403391 0.14162406 0.037485354 0.5821793 -0.021329867 0.14448099 -0.111113034 0.16013314 0.26911268 0.37626803 0.112765335 0.6035863 -0.2600208 0.04144714 0.52233785 -0.112939276 0.0763526 0.18045372 -0.1628735 0.0973776 -0.27880523 0.069597006 0.30177948 -0.40761194 0.27879038 -0.08199847 -0.3573219 0.047238003 -0.24738242 0.0862373 0.098657526 -0.3137077 -0.07412982 0.053288512 -0.4415245 0.51446635 -0.50444645 0.018172836 -0.10091839 -0.0014831818 -0.5412379 0.10728969 -0.026858332 -0.22185852 -0.53994524 -0.037204716 0.2567367 -0.28069955 0.28832775 0.21357349 -0.0271835 -0.19542663 0.0797091
93 0.0049651405 0.18861386 0.37206528 -0.31018963 0.006913383 -0.2739928 0.07323545 -0.04701044 -0.123769306 -0.42304045 0.43024203 -0.11159082 -0.039750148 -0.23940545 0.5306771 -0.122300334 -0.099663705 -0.06732919 -0.18779378 0.0010054394 -0.373888 -0.14635862 0.51053345 0.19825691 -0.051929172 0.17381772 -0.10282605 0.14762051 0.032167222 -0.07207744 0.1452727 0.027416514 -0.31857714 0.26740754 -0.42906296 0.085987955 -0.15399122 0.31345415 0.17321526 -0.3173348 -0.017065918 0.44222888 -0.015598882 -0.29150212 0.30411783 0.060885917 0.5009826 -0.017691936 -0.29645696 0.0706977 -0.08720827 -0.36324722 0.018530412 0.34209773 -0.16092369 -0.17282607 0.3806672 0.22868769 -0.18737805 0.38748467 -0.09598059 0.02193302 0.24314049 0.3818506
25 0.26556623 0.048382595 0.16097291 0.0744527 -0.0986773 0.032696813 -0.14488687 -0.42285126 -0.042062875 -0.4184351 0.23384087 -0.26239687 -0.47222647 -0.22841729 -0.14953655 0.048029806 0.18809864 -0.29606456 0.17099655 0.4091373 -0.18261322 0.23993246 0.35868093 -0.33624384 0.011222191 0.30245546 -0.39327413 -0.46806157 -0.21579756 0.06244877 -0.16871336 0.1106316 -0.07976234 0.16331947 0.2634467 -0.3807516 -0.2808864 0.023827769 -0.034042444 -0.10287622 -0.13576934 0.066092886 0.14476915 -0.1419598 -0.11894196 -0.25741163 0.055693563 -0.38726804 -0.03872052 -0.1442228 0.3247764 -0.25831407 0.20374528 -0.06263015 0.14163962 0.28396118 0.17514735 -0.37625012 0.27104765 0.2574051 0.2453224 -0.24761082 -0.07293677 0.14997272
21 -0.026713254 0.06765433 0.7832184 -0.30316445 -0.16978219 -0.06236515 -0.17868635 -0.26142484 -0.16581494 -0.29538926 0.40496466 -0.21003625 -0.53431296 -0.2571466 0.34894922 -0.42674783 0.16659348 0.02406398 0.18460445 0.080549255 0.014330926 0.0862404 0.07035166 -0.100424826 -0.2198705 0.1833791 -0.35001737 0.014008048 0.3470076 0.17300127 0.028332073 0.20916222 -0.31160453 -0.052681707 -0.24932137 -0.3620722 -0.006625374 -0.04256277 0.21504344 -0.1011189 0.40729997 -0.097819515 -0.27822262 -0.20921405 0.2447013 -0.41576594 0.4079489 -0.23262192 0.09054964 0.05467395 -0.019363934 -0.05185462 -0.16306537 -0.17983767 -0.16512619 0.48542288 0.105362855 0.057545308 0.5035845 0.5216401 0.29688996 -0.216785 -0.033738054 -0.13819873
105 -0.055637375 0.2328092 0.7198066 -0.39054382 0.022977933 -0.36029306 -0.025118561 -0.094202824 -0.4140381 -0.20991352 0.33568168 -0.25833294 -0.26961535 0.032710556 0.32802013 -0.23513567 0.15245257 0.42757654 -0.09067166 -0.046729945 0.10328853 0.014036418 0.38718897 -0.1569695 -0.26019776 0.2729896 -0.085228644 0.34537998 0.20148863 -0.015096202 0.15920033 0.16442153 -0.22078978 0.04695263 -0.47071573 -0.0879658 0.122217156 0.052093923 -0.08342522 -0.21865557 0.774661 0.41774207 -0.33195895 -0.47927767 0.33668414 -0.29551208 0.5052032 0.022840384 0.124756485 0.39049765 -0.0404 -0.05295537 -0.2889438 -0.08347182 0.13215029 0.32921797 -0.078095734 0.12892841 -0.0025054286 0.29822072 0.26952583 -0.047883864 0.05687266 0.14163108
17 0.2489452 -0.12813959 0.20144813 0.33469006 -0.014898281 -0.019200949 -0.07203476 -0.42115927 -0.17137218 -0.25251886 0.29914567 -0.22821553 -0.5681168 -0.3558626 0.074519984 -0.049801067 0.30510515 -0.22093727 0.2582705 0.41151708 -0.02041099 0.3235502 0.2602373 -0.26774228 -0.070303015 0.24045967 -0.33297202 -0.24498183 -0.1646325 0.0920365 -0.24040969 0.45198858 0.15034959 -0.0068623777 -0.0077227564 -0.44833875 0.0052016443 0.026690798 0.13217704 -0.066347174 -0.22790843 0.026806338 0.030391894 -0.01208773 -0.0033269431 -0.20794284 -0.07712929 -0.15811221 0.055281624 -0.1623052 0.30133042 -0.28758195 0.23936899 -0.24051434 -0.12362638 0.5063832 0.25733304 -0.29620945 0.3569237 0.16926715 0.22011864 0.02656111 -0.14683786 -0.22369526
73 0.21905589 -0.02299183 -0.05190305 0.49389875 0.27295345 -0.09518219 0.42941293 -0.14605395 -0.19700989 -0.2008335 0.41949767 -0.269635 -0.2802778 -0.22366334 -0.03952368 0.0069215326 -0.20493346 0.22818124 0.3093364 -0.22966966 0.4149252 0.69285613 0.41500488 0.06664505 -0.5802595 -0.006568229 -0.102805756 -0.163582 -0.027143877 -0.31273365 -0.083737776 0.37058243 0.08006618 -0.034606326 0.03255164 -0.22272867 0.5527443 0.05123986 0.45138803 0.031618804 0.09128059 0.037074126 -0.16621067 -0.41101122 0.18673234 -0.45118663 -0.099438086 0.13498381 0.14626874 0.2616484 0.22246845 -0.31442973 -0.018367298 0.3060177 -0.065078765 0.3243835 0.3704105 -0.15369183 -0.21580869 0.121713705 -0.17331898 0.02135245 0.0910313 -0.39807642
35 -0.15728074 -0.05629571 0.19666056 -0.18561058 -0.035902765 -0.36034408 -0.12595746 0.029080063 -0.15569492 0.11939021 0.23845483 -0.4395541 -0.16713573 -0.36107796 0.006310184 -0.27243483 -0.033465203 0.27991444 0.08829096 0.19307809 0.018035192 0.3325635 0.16873018 -0.13343115 -0.13767196 -0.019812757 -0.23514351 0.26162338 0.09114078 -0.2244528 0.15597205 -0.084217995 -0.08500693 -0.21203716 -0.21395314 0.041040007 0.10820128 -0.2533346 0.5040083 0.22630748 0.2828772 -0.16862857 -0.2985717 -0.24696566 0.16864015 0.19309838 0.43880016 -0.25688258 0.16318871 0.22900453 -0.09504349 0.3480185 -0.22727178 0.13747087 -0.14876142 -0.11137141 0.100831226 -0.14845023 -0.10894242 0.21113074 0.3159297 -0.35123122 0.46325928 -0.034282066
2 0.1523326 0.056273215 0.76947767 -0.35930943 0.14033999 -0.49938148 0.06779884 -0.031384822 -0.09529873 -0.14703253 0.36283675 -0.04130678 -0.20408724 -0.34369376 0.048582446 -0.36031443 0.094960675 0.27822936 -0.09385243 0.124639496 -0.39380258 0.08030513 0.32041126 0.1505978 -0.1113413 0.4068732 -0.23392802 0.14253677 0.1289718 -0.14455827 0.066220954 -0.12817897 -0.14232348 0.2739073 -0.2872786 0.2677016 0.10893924 -0.043220002 0.38974383 -0.10459476 0.121321246 0.2596021 -0.20812173 -0.3441844 0.5031841 -0.006997969 0.28515375 -0.2619832 0.0967789 -0.039269745 -0.07064507 -0.13344821 -0.40028784 0.19563124 -0.059761282 0.00074181374 0.22267777 0.16924162 0.14953369 0.30334157 -0.10554418 -0.25504693 0.06465679 0.11414032
1 0.24714223 -0.37715256 0.44369823 -0.057754315 -0.18394275 -0.17996313 -0.16429137 -0.12855847 0.14411864 -0.07070611 -0.523756 -0.41799074 -0.13151856 -0.23811015 0.09113972 0.3440018 -0.37339815 0.02660867 0.33680832 0.32666174 0.039565735 0.23753999 0.36922914 0.26214266 -0.10954451 -0.16630189 -0.2060649 -0.38156277 0.075192325 0.15536025 -0.007280309 0.18369895 -0.53467256 0.09620021 -0.015796326 -0.05221253 0.51069456 -0.13980494 0.37633088 0.09733175 -0.059045795 -0.010600624 -0.17036013 0.09222993 0.18500844 -0.07557056 0.1793672 -0.14719649 0.055209644 0.19411148 0.042477936 -0.4141347 -0.093350105 0.0643093 -0.083467916 0.3110104 -0.07251947 0.1378585 0.189484 0.42140487 -0.31297314 -0.19344506 -0.029901408 0.25056827
86 0.07687109 -0.035889994 0.36322653 -0.06988606 -0.15137604 -0.24923626 -0.1585988 -0.1743104 -0.032341193 -0.36775285 0.28862455 -0.13057905 -0.3051887 -0.24055383 -0.1834939 -0.09960726 0.028887507 0.009932225 -0.0614287 0.32546976 -0.28195602 0.17447169 0.40766588 -0.1914507 0.04748184 0.40338963 -0.41983867 -0.1501029 0.05175878 0.20841143 -0.27421302 0.11333527 -0.23490651 -0.023313552 -0.002756728 -0.1588563 -0.119588055 0.06577099 0.0861502 -0.21484512 -0.11541924 0.2666881 -0.019170973 -0.15141734 0.060554262 0.07286018 0.050206672 -0.44990152 0.018354284 -0.20090611 0.13319388 -0.22383235 -0.021743724 0.082304865 0.137377 0.24064857 0.048709936 -0.1853297 0.26034686 0.223183 0.1271598 -0.26705456 -0.20003349 0.019912727
78 0.12489745 0.0215724 -0.13321973 0.15387428 0.027381526 -0.19129972 0.38362744 -0.1432717 0.08398174 -0.15998098 0.12720217 -0.23826976 -0.049393237 -0.2867602 -0.2491795 0.25194615 -0.13830982 0.10285545 -0.04805558 0.14198697 0.09614182 0.5931527 0.30258757 -0.022389181 -0.12595837 0.35215977 -0.17282578 -0.25699008 0.033001352 -0.17998639 -0.0060947197 0.07670818 -0.24150842 -0.09522418 0.0447988 0.09526921 0.07737447 0.0072057457 0.2570876 -0.08040557 -0.25328633 0.13995083 0.061570026 -0.37509078 -0.029546924 0.16117053 0.10526882 -0.17699204 0.1101901 0.15178819 0.184543 -0.31496376 -0.008740629 0.2061022 0.019655766 0.20021819 0.18502188 -0.12338202 -0.29764134 -0.20679338 0.04198894 -0.22370927 0.15672964 -0.11262496
76 -0.0064558075 0.13052303 0.88994795 -0.49964717 -0.38107377 -0.23446028 -0.1278034 -0.20662084 -0.2370611 -0.0838142 0.16567336 -0.43028352 -0.3079689 -0.10760143 -0.02440939 -0.2741336 0.09220889 0.14740701 -0.015505922 0.33351633 0.06677854 0.21901263 0.08889728 -0.21917236 -0.0716402 0.41610345 -0.18102142 0.008966125 0.3382177 0.14956361 0.1427522 0.11855688 -0.42150185 -0.12772952 -0.3564921 -0.16862816 0.14857021 -0.23560664 0.12270838 0.1406553 0.73353696 -0.06758083 -0.38121256 -0.15537208 0.21372356 -0.19374557 0.29426083 -0.19022155 0.35843384 0.4116172 -0.103423275 -0.036724396 -0.2535176 -0.21880637 0.0043789926 0.55074424 -0.20670047 0.027821658 0.39205533 0.35861868 0.32181254 -0.31796718 0.13491137 -0.16393293
88 0.27502748 -0.12484144 0.5447176 -0.027235465 0.12466887 -0.31439227 0.115975074 0.008247405 -0.0019383525 -0.15856113 0.0977972 0.19748917 0.05893814 -0.6311926 0.031984724 -0.1588733 0.1742799 0.098413564 0.0378656 -0.14304404 -0.46919045 0.16117671 0.48189816 0.28938147 -0.13024758 0.31327438 -0.24526305 -0.16135871 -0.12897748 0.10130113 -0.036544036 -0.08805433 -0.29532596 0.32427096 -0.30782655 0.31361717 0.14354074 -0.001721057 0.27970055 -0.14540318 -0.2907083 0.023317652 -0.22526577 -0.31987295 0.3368481 -0.23765348 0.33757168 -0.31318206 -0.14956073 -0.3721747 -0.06836674 -0.59239644 -0.16437614 0.26964444 -0.113123015 -0.02391386 0.342284 0.38136247 0.17870587 0.21045631 -0.15395491 -0.02044749 -0.23667775 0.2801441
110 0.5059262 0.14206111 0.016887484 -0.24970597 0.23678409 -0.1507225 0.015972553 -0.06475138 -0.18705352 -0.19805846 0.08811498 -0.44342422 -0.037056625 -0.1040035 -0.18763766 0.23039544 0.36136177 -0.23881467 0.13943653 0.27952692 -0.013887958 0.38348308 0.18852137 -0.14414637 -0.096406534 -0.06533328 -0.29628345 -0.044716936 -0.3169762 0.017868804 0.16645773 0.12877965 -0.036577962 0.019895285 0.003158259 -0.23187922 -0.37843972 0.031051252 -0.037261106 0.12183474 0.13636997 -0.18934323 0.33855176 -0.106789 -0.36274293 -0.36945736 0.27407262 -0.07092322 0.00071573316 0.12425943 0.4503963 -0.19618197 0.45034146 0.21509017 0.53179723 0.04320169 0.15071917 -0.12237974 0.16141614 -0.068812475 0.37739533 0.08301569 -0.1505848 0.02970081
16 0.06387384 -0.11628707 0.3564861 0.081596136 -0.17297041 0.07480499 -0.087937504 -0.29022565 0.11202402 -0.2911338 0.22294194 -0.15191804 -0.58673394 -0.32764044 0.07465736 -0.04228408 0.18407935 -0.309055 0.16320807 0.2773002 -0.23791982 0.26781663 0.2009099 -0.16885774 -0.15337297 0.2789852 -0.4258518 -0.3030258 -0.08855404 0.17800473 -0.27205333 0.394001 -0.25168347 -0.057702415 0.15854679 -0.44351265 -0.06838821 0.13319206 0.07351676 -0.10499988 -0.22609569 0.038653582 0.15856588 -0.16984259 -0.08342168 -0.16500604 0.1286737 -0.34375852 -0.09619141 -0.11517949 0.24618752 -0.2784596 0.20001374 -0.095583856 -0.022926733 0.49023375 0.1629396 -0.11066532 0.3777676 0.29595876 0.15781416 -0.18172638 -0.1119231 -0.2155093
57 0.16211535 0.012581387 -0.051217165 0.030592838 0.30004716 -0.45559928 0.17943427 0.15240823 -0.033424016 -0.01876042 0.23733966 -0.56673133 -0.121212125 0.06939906 -0.31535363 -0.19698036 -0.32575 0.08871591 0.22416481 0.36371988 0.29561713 0.46301854 0.23896976 0.067736626 -0.44309106 0.04704794 -0.28005198 -0.031861648 0.06964627 -0.2053978 0.052244905 -0.021878783 0.28446272 0.07861465 -0.04587628 -0.23525897 0.2589844 -0.21113992 0.54187745 0.34581038 -0.26523718 -0.23710634 -0.18310964 0.046222243 0.05219817 -0.23371093 0.20162302 -0.13521847 -0.1598596 0.030120214 0.32986584 -0.2319725 -0.16335543 0.34259737 -0.23573187 0.096731715 -0.0697813 -0.22063287 -0.46291664 0.11045671 -0.084087275 -0.28340665 0.45103562 0.07296445
27 -0.30030712 -0.17315958 -0.16651666 0.09477047 -0.119571954 -0.3269942 -0.07479665 0.1304435 -0.28731143 -0.25510332 0.32224587 -0.27752018 0.024192845 -0.34118414 -0.1870931 -0.077230096 -0.2683915 0.15514506 0.06535806 0.34220546 0.04156502 0.22603752 0.533517 -0.33454293 0.084373154 0.1669496 -0.29216963 0.09469646 0.33079034 -0.19646032 -0.19137038 -0.025105394 -0.13531482 -0.11984336 -0.16567396 -0.04867588 -0.004113616 -0.27422416 0.17063853 -0.08516663 0.23411222 0.14573482 -0.07632412 -0.18790817 0.25963983 0.16049744 -0.2921151 -0.26638848 -0.05811461 0.1554454 -0.029458135 0.2714786 -0.04230947 0.48635113 0.21317565 -0.10926782 0.19682813 -0.5154273 0.09759792 0.5100905 0.05342534 -0.46800733 0.042150665 0.2502338
40 0.1487508 0.0101567255 0.1550753 0.37066624 -0.0051924284 0.242733 0.062968224 -0.31156147 -0.022773338 -0.21755683 0.4960267 -0.44310516 -0.461795 -0.381037 0.03824386 -0.21575442 -0.2340154 -0.058084868 0.542351 -0.0911876 0.35332778 0.53362834 0.23278366 0.047134873 -0.5973473 -0.22014993 -0.41400754 -0.240781 -0.26385716 -0.058307864 0.0096117705 0.57253546 0.018195285 -0.28835532 0.1443026 -0.4868648 0.29674575 0.080354184 0.48646066 -0.016825698 0.12181297 -0.29092282 -0.084816776 -0.35692677 0.07358059 -0.4506775 0.14951015 0.01273395 0.043724082 0.11195706 0.17162019 -0.15626018 0.24569266 0.13487783 -0.06918329 0.37110236 0.31435743 -0.08830178 0.11583166 0.22203964 0.07700439 0.011082051 -0.05923154 -0.6998497
15 0.18680115 -0.2753402 0.27246305 0.059156947 -0.06708186 -0.076455645 -0.12134914 -0.12601073 0.04567977 -0.05662624 -0.46731806 -0.3973049 -0.15479662 -0.25754207 0.120802626 0.46210074 -0.42517325 -0.09208245 0.26283365 0.14884834 0.054926954 0.29554757 0.5376714 0.3807856 -0.14395346 -0.14894935 -0.19189665 -0.34509525 -0.19626103 0.049351282 0.116746105 0.12184264 -0.45067486 0.15273668 -0.00203243 0.0041324426 0.49670208 -0.05951046 0.34346047 0.13577607 -0.24705267 0.049040042 -0.081583686 0.06478693 0.2466347 -0.05173888 0.27774084 -0.032290474 -0.114360325 0.16920058 0.0639847 -0.38574198 0.09331556 0.27618948 -0.12483724 0.28455207 0.10559236 0.16782403 -0.11640846 0.52221346 -0.41939512 -0.08379092 0.31135616 0.40655494
59 -0.00016023773 -0.013375271 0.08517857 -0.22523715 -0.1803521 -0.44693702 0.13652183 0.095353685 -0.27168247 0.12344398 0.15432532 -0.43098032 -0.11523521 -0.36944604 0.10969995 -0.23625852 -0.11887216 0.19668329 0.46323732 0.17746869 0.13971049 0.49275792 0.14009501 0.1685133 -0.010846239 0.24584341 -7.2908064e-05 -0.024561688 0.56717104 -0.2858917 0.025011042 -0.0013619518 0.10644869 0.20926695 -0.22516091 -0.07511033 0.10851024 -0.37497756 0.24759251 0.21076462 -0.13570268 -0.21373393 -0.5631079 0.044195313 0.3551053 -0.51238316 -0.04321903 -0.14547381 -0.026733099 0.031661246 -0.021126287 -0.30321357 -0.2064313 0.34669697 -0.0735533 0.1342626 0.11779959 -0.28552812 -0.09006709 0.3588587 -0.038286813 -0.2016608 0.5896954 0.48686767
74 0.20404924 0.08696137 0.38515875 0.12712872 0.38516536 -0.17758213 0.6024809 -0.012119402 -0.3618482 -0.087297365 0.7485422 -0.22192365 -0.4166131 -0.26245692 0.12754959 -0.0023865865 -0.329129 0.690088 0.089021236 -0.07029273 0.04968495 0.2218459 0.48777303 -0.20903842 -0.40372118 0.19218975 0.19720075 0.12407943 0.3592382 -0.23064396 -0.012025281 0.17923264 0.08577275 0.25913396 -0.16238497 0.161149 0.6567783 -0.06471873 0.29737744 -0.5156847 0.5752948 0.36720937 -0.37022516 -0.52958006 0.9251425 -0.53096014 -0.22466937 0.038407184 0.3466856 0.4154548 0.0389809 0.04506015 -0.10764428 0.23777129 0.1954383 0.356423 0.509671 -0.041293547 -0.042102344 0.22583869 -0.53057635 -0.25954726 -0.17761679 -0.17804423
102 -0.2900153 -0.014006801 -0.009384021 -0.050360963 -0.29642263 -0.14417748 -0.3364428 -0.03089013 -0.56947833 -0.04094559 0.36334896 -0.4213361 0.15031995 0.021144535 1.0199562 0.39398187 0.21786824 0.17777944 0.07847728 0.23010844 0.4497311 -0.044932365 0.5183583 -0.32817078 -0.03738426 0.30146492 -0.22442248 0.27699938 -0.26297373 0.115981825 0.0030675917 0.071514666 -0.14825594 0.3163414 -0.8932099 0.6685924 0.0843999 -0.14879781 0.09418317 -0.4471891 -0.07615908 0.45138434 -0.14314555 -0.14772452 -0.09495303 -0.07128095 0.5979893 -0.47540843 0.033997267 -0.012800302 0.13858986 -0.5432571 0.30405205 -0.12663701 -0.5217979 -0.40431592 0.14198862 0.5982343 -0.35430455 0.18405308 0.24384876 0.2791039 -0.2274895 -0.31582713
106 -0.3043558 0.059236772 0.43238387 -0.4532484 -0.11738739 -0.10228299 -0.04463389 0.26010802 -0.3023796 0.3796696 0.2755128 -0.2845355 -0.23197453 0.027951641 0.31593066 0.0064276885 0.30864596 0.24388975 -0.24785636 0.11559168 0.14807788 0.024703788 0.21298274 -0.18831842 -0.31235343 -0.102561355 -0.066151865 0.3281113 -0.030214174 0.09964178 0.086043105 -0.0652092 -0.48200166 -0.052990068 -0.51555437 0.13096131 0.22538179 -0.06919103 0.23847017 0.13635148 0.5787991 -0.09081617 -0.15960512 -0.22827712 -0.1138875 -0.08453088 0.73497266 -0.21038209 0.038427826 0.57358575 -0.20056958 0.28755954 0.014285062 0.009409158 -0.22859553 -0.016445614 -0.09766007 0.28530732 0.007344816 0.3742458 0.20975831 -0.13300227 0.09464894 -0.4404801
71 -0.004232394 -0.3155349 -0.26732793 0.39857644 0.3867619 -0.12632866 0.3023405 0.27992523 -0.34238446 -0.3808786 0.4808916 -0.3662038 -0.32603037 -0.029300066 0.013900116 0.36597937 -0.56055194 0.5707062 0.24223188 0.33592546 0.15634921 0.36405945 0.75353485 -0.26011038 -0.39829317 -0.2249246 0.09455394 -0.031235453 0.38281307 -0.16940784 -0.26488534 0.1785109 -0.10668542 0.048085798 -0.20564036 -0.13929026 0.6131635 -0.10981294 0.12389264 -0.5501305 0.7260315 0.40036255 -0.008636933 -0.23016669 0.6686904 -0.38376537 -0.38463587 -0.058300324 0.17161061 0.49793464 0.306257 0.04013609 0.21313044 0.33847636 0.37878332 0.023595015 0.3569811 -0.20418653 0.02087362 0.4095689 -0.4878149 -0.31489137 -0.5141866 -0.05664083
38 0.071157366 -0.16440973 0.6041982 0.3998772 -0.087485425 -0.052065033 -0.1450795 -0.44801185 -0.19826286 -0.33301726 0.20274352 -0.010828476 -0.43213952 -0.4286145 0.21605854 -0.252887 0.1736959 0.043694105 0.4605612 -0.15266557 0.28324315 0.42858714 0.1280273 -0.21043697 -0.22353286 0.32422012 -0.4829972 -0.16613576 -0.09786151 0.3258679 -0.2728248 0.50494105 -0.019644469 -0.011651595 -0.033132277 -0.15256643 0.06658281 -0.10115844 0.20318954 0.050525635 -0.06871668 -0.060481317 -0.17564233 -0.30580467 0.0063992683 -0.3939613 0.08092079 -0.20716146 0.022799345 -0.34423906 0.05029878 -0.39140993 -0.018941786 -0.11106184 -0.08443897 0.82825994 0.34269676 -0.13245963 0.40119883 0.31209144 0.27920943 -0.09338992 -0.20349553 -0.16729377
28 0.14840604 -0.23893744 -0.15019894 0.06123875 0.31384376 -0.34025744 0.15459843 0.14508884 -0.42328146 -0.35453093 0.3784846 -0.4125429 -0.12640208 -0.16759019 -0.23470397 0.25777334 -0.47712085 0.6086987 0.11341656 0.42532125 -0.057602026 0.15686424 0.7343306 -0.29425243 -0.019877724 0.1884571 -0.026720809 0.053714704 0.42908055 -0.07236044 -0.09187747 0.040493637 -3.317083e-05 0.14329953 -0.2314926 0.13994986 0.2639479 -0.18965977 0.064100266 -0.64098775 0.5309137 0.44781908 -0.16671157 -0.20876685 0.8127089 -0.18514802 -0.4994697 -0.18062781 0.3350713 0.22318618 0.11689862 0.10132038 0.110930465 0.47680277 0.6230217 -0.001605365 0.38895205 -0.4696083 0.21484879 0.28126082 -0.30067128 -0.48090684 -0.4704016 0.37055248
100 -0.20249048 0.0005253273 -0.1929672 -0.12063815 -0.55728006 -0.22158572 -0.5686833 -0.1434371 -0.62948614 -0.24506693 0.34358302 -0.603031 0.36648566 -0.018786244 0.83639026 0.2825284 0.1505822 0.10667135 0.07257908 0.43191952 0.40845948 0.012367982 0.7024292 -0.4164041 0.20587294 0.4360018 -0.24425213 0.24943231 -0.065052986 0.08814574 0.0838368 -0.34504274 -0.19255875 0.071257524 -0.8808587 0.55013895 -0.08443169 -0.33101732 0.10338368 -0.46801254 0.11701805 0.12932038 -0.2712545 -0.09495493 0.03259134 -0.0667743 0.6694126 -0.73350585 0.16851172 0.018973118 -0.03473021 -0.5126878 0.39055482 -0.10405496 -0.2721117 -0.76553035 0.010766594 0.5352525 -0.24360348 0.17779735 0.42002118 0.06244094 -0.49257073 -0.3322473
90 -0.2500482 -0.063046664 -0.2944945 0.1620611 -0.1434188 -0.3144082 -0.34814286 -0.06649572 -0.5504463 -0.024670476 0.41973266 -0.5320525 0.31777734 -0.05767483 0.82374996 0.31350082 0.3609887 0.20347574 0.17264019 0.32172945 0.49705306 -0.10429505 0.623656 -0.4009209 0.01761226 0.23472005 -0.28113732 0.45525408 0.03273891 -0.07111185 0.26648325 -0.35066804 -0.022096924 0.32404423 -0.8350651 0.33514407 0.024633221 -0.121277146 0.10731289 -0.43319824 -0.12331513 0.1331471 -0.21559544 0.092622176 -0.018163256 -0.20913859 0.8747671 -0.4743413 -0.039784636 -0.032017626 -0.022562148 -0.32604843 0.377563 -0.052897904 -0.39161414 -0.7499758 0.097584486 0.42490888 -0.24272053 0.1806572 0.3656266 0.06883549 -0.5178364 -0.109171934
109 0.1304176 -0.7140143 -0.17672727 0.5133171 0.042651292 -0.16156496 0.35128218 0.010419463 -0.012516614 -0.24385141 -0.31896576 -0.15186983 0.14574657 -0.49098167 0.30501354 0.64446425 -0.024305848 0.14858322 -0.01940647 0.39684287 -0.06625072 0.3015702 0.12699954 -0.0700685 0.1339535 -0.026250489 -0.2557882 -0.3229383 -0.20373908 0.16392483 -0.24437228 0.2575064 -0.47122273 -0.25738597 -0.22764803 0.22361425 0.22310396 0.14350882 0.26329374 -0.0987922 -0.32567 0.10068921 0.21778761 -0.18151774 0.08687694 0.17206585 0.05601626 -0.19223663 -0.1300975 0.2970628 0.17130718 -0.34625688 0.5338907 0.037673064 -0.21794473 0.2032589 0.31706893 0.29703793 0.0033248148 0.15116915 -0.20769985 -0.046286702 -0.33078805 -0.29251826
41 -0.075223714 0.13851501 0.03252983 0.56288755 0.039919116 -0.047240954 0.16733283 -0.3933487 -0.34078634 -0.12515783 0.5822691 -0.2562295 -0.5635145 -0.43240458 -0.022654986 -0.24279684 -0.053912338 0.086022235 0.4670902 -0.26122284 0.13263889 0.7900304 0.38131058 -0.10703774 -0.430047 -0.12971644 -0.19278248 -0.416661 -0.31591812 0.005827159 -0.16455317 0.37139133 0.21131083 -0.12879613 0.11082555 -0.20345199 0.37510973 0.08880313 0.42700693 0.25975138 0.10065879 -0.13104993 -0.15574843 -0.48409268 0.13367511 -0.5625789 0.06816818 -0.11604065 -0.047190174 0.10203891 0.09802824 -0.15719244 0.07921522 -0.11478517 -0.017541226 0.49877074 0.19761339 -0.2137126 -0.10394148 0.44632795 0.06575477 0.11937036 -0.106438406 -0.2940723
103 -0.21418387 0.23183286 0.44085813 -0.19579566 0.09523091 -0.4314881 -0.2295664 -0.018986885 -0.29328915 -0.43907693 0.59366035 -0.24415867 -0.084318794 0.23717324 0.85432965 -0.042442616 -0.06206256 0.18095428 -0.26525986 0.0159399 0.23715135 -0.0022462157 0.5943551 -0.10262061 -0.1877113 0.21221882 -0.11325156 0.57251 -0.030293956 -0.08262389 0.08629173 0.013748133 0.021769352 0.30056512 -0.57001823 0.44564733 -0.11609039 0.088145144 0.2110877 -0.38530645 0.43700597 0.8074833 0.09198679 -0.4569317 0.22592764 -0.0022588023 0.9874737 0.023549821 -0.110890806 -0.045068726 0.21746325 -0.39159155 -0.054478317 0.16457348 -0.06382951 -0.2909232 0.13665143 0.42640904 -0.4945546 0.09005315 0.21010862 0.17952502 0.13628018 0.05024557
68 0.19050266 -0.16921633 0.40279558 0.035710778 -0.40235737 -0.09862872 -0.22227092 -0.20146298 -0.2097383 0.17123133 -0.5354218 -0.5284164 -0.2543699 -0.19155441 -0.15254796 0.3198334 -0.64488375 -0.241145 0.216401 0.14429763 0.2303125 0.45716193 0.50822663 0.36057264 -0.1229798 -0.36598518 -0.271858 -0.5535457 -0.46334618 0.050064683 0.054459054 0.16058128 -0.53364205 0.04356942 -0.1946391 -0.037112337 0.66791403 -0.28806508 0.6749665 0.6722105 -0.044610538 -0.24303482 -0.22680517 -0.002387369 0.0155894 -0.15867673 0.078111164 0.0537254 0.021419913 0.25298297 -0.073314905 -0.28966296 0.094473496 0.2578996 -0.28447133 0.39194426 -0.26169938 -0.05486235 -0.20145093 0.90834063 -0.36292347 -0.105123386 0.58457494 0.328291
70 0.03535938 -0.33809212 -0.119418696 0.27262747 0.6386459 -0.16387619 0.24800189 0.34518886 -0.3106091 -0.39437512 0.5362881 -0.24419369 -0.3821935 -0.030480856 -0.13739182 0.3167514 -0.54208094 0.3960837 -0.09165896 0.26605684 -0.033796977 0.08169764 0.84099394 -0.2200151 -0.42176652 -0.16623348 -0.022114856 0.1312672 0.17408876 -0.19425598 -0.34243834 0.3014936 -0.19908752 0.13265754 -0.30082166 -0.080761775 0.6140325 0.06930024 0.21951582 -0.6435755 0.69188434 0.58824044 0.12934697 -0.35112625 0.6966819 -0.123006135 -0.32725945 0.017922593 0.31263223 0.33397624 0.28504577 0.18400213 0.082473576 0.5782417 0.49224865 -0.011574117 0.45730168 -0.33142018 0.15699494 0.43256342 -0.36931297 -0.4010085 -0.42751062 -0.059527166
114 -0.46625358 0.4284606 -0.12148143 -0.35977653 -0.97306263 0.055961948 -0.40073457 -0.27125427 -0.6572531 -0.29494593 0.8144248 -0.8228692 0.14308271 -0.03622982 0.8999963 -0.019164044 0.33726233 -0.2022919 0.08872443 0.37740675 0.41053346 -0.1484063 0.5312535 -0.5401172 0.088423185 0.6557204 -0.48789725 0.2038624 -0.14966817 -0.15859346 0.058955804 -0.22562204 -0.26429093 0.10220942 -0.7725699 0.28938013 0.028932847 -0.13444763 0.0007108102 -0.42722815 -0.033817258 0.04135274 -0.68035036 -0.00041806424 -0.094103046 -0.18480515 0.5892043 -0.9515638 0.09995997 0.12498945 -0.21287456 -0.41472134 0.42312565 -0.013527163 -0.5227074 -0.75810486 -0.008997186 0.40856352 -0.20939474 0.53064096 0.3157835 -0.18302406 -0.22158924 -0.5372167
69 -0.1584359 -0.35471603 0.21900657 0.05289924 0.07522214 0.03759838 -0.48438534 0.25395983 -0.17611146 0.57562035 -0.40403685 -0.519789 -0.40243745 -0.3057791 -0.0106270015 0.43118867 -0.31694967 0.19667436 0.11684456 0.16818036 0.37549138 0.14735706 0.5420257 -0.04008762 -0.3543456 -0.35815272 -0.21286803 0.28527692 -0.18981065 0.12022881 0.29808816 -0.098691285 -0.46098673 -0.09772122 -0.2630349 -0.146383 0.6192531 -0.34123915 0.48998195 0.24453947 0.1801782 -0.20152608 -0.027961738 0.23516877 0.03515945 0.3066277 0.77167636 -0.13035397 0.032431494 0.32746166 -0.15502448 0.5952548 0.03437871 0.20500042 -0.07650856 0.22974204 0.079131074 -0.31035358 0.08330476 0.53055346 0.040715415 -0.3876481 0.3767274 0.10322087
94 0.3211536 -0.526338 0.23071261 0.11800483 0.4429372 -0.98097485 0.043418743 -0.044146724 -0.7039818 -0.25345314 -0.09117781 -0.4348061 -0.1715789 0.12728196 0.6535923 0.5607322 0.4337431 0.24911226 -0.072312325 0.7236577 -0.31387618 0.22945978 0.06240942 -0.2673379 0.35753867 -0.621459 -0.4187475 0.2968223 -0.8121684 0.31184414 0.07293218 0.43209544 0.17274383 0.1995171 -0.7962555 -0.0023894722 -0.42512676 0.5671429 0.16497567 0.087214395 -0.17132744 0.5822906 0.7772355 -0.08945195 -0.12521195 0.018416712 0.42910588 0.44346955 -0.15033601 0.1620594 0.5966319 -0.46956715 0.7177283 -0.032428667 0.014967505 0.08159943 0.2223719 0.2115771 0.015802542 0.46553537 0.32177642 0.59543526 -0.24012004 -0.047502372
95 0.2552124 -0.5888572 0.03738069 0.32477593 0.18123947 -1.0168718 -0.025029726 -0.23838726 -0.94291437 -0.031888645 -0.08952736 -0.35799676 0.003154646 -0.18749672 0.62925464 0.52340937 0.49659264 0.23287179 0.13844746 0.57452244 -0.15982482 0.51448005 0.047843352 -0.3459853 0.5186454 -0.5593926 -0.38487157 0.055411298 -0.7348689 0.2491791 0.075970866 0.37533292 0.3212904 0.27276233 -0.83255404 0.26622736 -0.4866326 0.3001713 0.32616678 0.39788952 -0.27717564 0.25228393 0.57984734 -0.19230604 -0.13038139 -0.15057743 0.15090364 0.4100254 -0.10738739 0.09408541 0.29310235 -0.46148965 0.7504379 -0.003860112 0.02001751 0.13016407 0.26326498 0.05163798 0.067434214 0.6542318 0.44070414 0.70253634 -0.23908874 0.055294335
101 -0.12607566 0.40723133 0.7089102 -0.55410165 -0.07874639 -0.14562432 0.070095375 -0.052921087 -0.1595898 -0.23301242 0.97733897 -0.08753635 -0.3132116 0.18161389 0.8015015 -0.15734409 -0.045773692 0.050051548 -0.45386565 0.033590943 0.27071965 -0.2607989 0.3279393 -0.034080774 -0.27424493 0.7717674 -0.122373916 0.45423 0.24650581 -0.16770707 0.0408482 0.23451538 -0.051284086 0.46173984 -0.5736737 0.544801 -0.016469358 0.0010418103 0.33264354 -0.490793 0.2888736 0.8157264 -0.14842243 -0.5293586 0.29427996 -0.09953362 0.42084113 -0.10574775 0.10774477 0.03248038 0.07192818 -0.41077003 -0.15847653 0.2212171 -0.25213408 0.08796499 0.2574741 0.27805302 -0.3506463 0.25267562 -0.10314449 -0.10094455 0.3819503 -0.14628194
75 0.17760605 0.13312693 0.049705423 0.42169386 0.34026662 -0.0144021595 0.49701104 -0.29319277 -0.31627417 -0.3722791 0.6189063 -0.41148803 -0.5366128 0.058500506 0.05138606 0.15970986 -0.4512315 0.4592506 0.24099573 -0.095463715 0.25733453 0.67474616 0.56965286 -0.02179163 -0.67849046 -0.07768531 -0.006624681 -0.2775547 -0.15671876 -0.32957447 -0.004930426 0.5313923 0.06599814 -0.026207553 0.0712836 -0.1733753 0.6964014 0.22349112 0.2838544 -0.25193354 0.5345125 0.48590258 -0.030117704 -0.6824951 0.3972191 -0.49151212 -0.15540038 0.21837802 0.20274518 0.53988564 0.42591116 -0.28022546 0.023785425 0.10411903 0.0726919 0.381478 0.17353494 -0.027986042 -0.47376066 0.28455296 -0.36447126 0.013753813 -0.07019332 -0.33970156
115 0.18164194 0.21730153 0.4722693 -0.031429954 0.09709028 -0.08856762 0.05012275 -0.32568702 -0.068169735 -0.19104788 0.26833323 0.092574045 -0.050286453 -0.6622258 0.06761386 -0.2993802 0.09580421 0.1531035 -0.12237636 -0.00015278312 -0.44697922 0.09994855 0.75007665 0.41367972 -0.15639995 0.6696438 0.0054035266 -0.09917971 0.20793362 -0.09381044 0.23141716 -0.18327664 -0.24073094 0.18472867 -0.048236612 0.05909517 -0.34269074 0.055955064 0.16860439 -0.1479618 -0.06416499 0.25811988 0.06263224 -0.46446842 0.22076136 -0.11724696 0.59539974 -0.1617406 -0.42104217 -0.059639797 -0.26455972 -0.20793776 -0.05053714 0.25465748 -0.15125498 -0.14533395 0.28580558 0.07031424 -0.1424505 0.37016222 -0.026987629 -0.22189063 0.12694755 0.5313409
113 -0.2435426 0.19360615 -0.20992291 -0.22552468 -0.90529746 -0.18785284 -0.48692873 -0.4414435 -0.7297453 -0.515821 0.5211428 -0.6828894 0.40299085 -0.14877687 0.7878359 0.0668096 0.27519873 0.0049605505 0.2960729 0.46680465 0.26211503 0.12438327 0.6057042 -0.5973074 0.41147107 0.67755234 -0.2836065 0.017086085 0.12268655 0.014060733 0.09839078 -0.35994688 -0.25101775 0.11179247 -0.7449928 0.36964098 -0.31781894 -0.30160236 -0.015568443 -0.35468182 0.10395994 -0.02201425 -0.56159335 -0.06667609 0.002572697 -0.2284283 0.30965108 -0.83677816 0.22039735 -0.035799135 -0.18500102 -0.5955979 0.3651192 -0.087814786 -0.2983261 -0.6571644 0.06617961 0.21975534 -0.07823221 0.39344093 0.4199512 -0.13376035 -0.40918654 -0.0667018
26 0.2482934 0.036829043 0.49606347 -0.3368412 0.024088252 -0.49168664 0.2945711 -0.12025311 0.22688045 -0.43519312 0.28955698 -0.0846871 -0.19301099 -0.21710317 -0.009690644 -0.041875545 0.1542955 -0.25315568 -0.21343406 0.393435 -0.7005837 0.19789098 0.24788122 0.15324445 0.043853648 0.35202605 -0.2696952 -0.18872014 0.0853249 -0.011509441 -0.03251704 -0.003125082 -0.34219503 0.26973733 -0.027879542 -0.13152084 -0.17495021 0.25944275 0.087422505 -0.07923698 -0.444547 0.22081023 0.11368481 -0.11798753 0.19367467 0.044492565 0.16033971 -0.20335299 -0.1969343 0.061772402 0.091443285 -0.55985236 -0.07315256 0.28545877 -0.036509275 0.012970295 0.22515507 0.2813145 0.15010972 0.309821 -0.26995167 -0.012424632 0.21991275 0.25622395
107 -0.050814692 -0.19394518 -0.07366523 0.058701742 -0.19748138 -0.23190631 -0.11255028 0.011824011 -0.28577083 -0.24669486 0.26069725 -0.3499353 -0.09854033 -0.4468777 -0.3910429 -0.057841294 -0.22794934 0.16621329 0.21455576 0.4369365 -0.1523368 0.21243894 0.59140724 -0.25036415 0.17881043 0.47765154 -0.3478053 -0.10567398 0.10001143 -0.04348837 -0.23051272 -0.1276469 -0.024580149 -0.045115203 -0.030486675 0.036437854 0.026264442 -0.30549285 0.124002025 -0.19680423 0.009924486 0.066379756 -0.23078762 -0.15717952 0.3983943 0.09518039 -0.39913914 -0.5870341 -0.011151202 -0.063337386 -0.078812875 0.10630748 0.043737873 0.37032342 0.26300815 -0.14088905 0.3002124 -0.50504583 0.24069372 0.39507174 -0.102658756 -0.62140673 -0.18942775 0.13229516
77 -0.026647447 0.2194743 1.0269812 -0.5847941 -0.23000057 -0.23023339 -0.11167665 -0.14644256 -0.29384378 0.077050745 -0.026376707 -0.39282677 -0.43400303 -0.1623197 0.10203338 -0.22654879 0.30337697 0.29318175 -0.13768291 0.23601517 0.051141966 0.04681567 0.25612947 -0.137542 -0.16598652 0.45280772 -0.13864593 0.1657783 0.3312632 0.24307792 0.23765518 0.025617452 -0.5829609 -0.078449845 -0.3062852 -0.30185118 0.15659584 -0.27394226 -0.06822285 0.060108133 0.6314317 -0.056949332 -0.41613197 -0.17627852 0.21560541 -0.31955916 0.7891767 -0.25454247 0.12039636 0.4215255 -0.0979558 0.123243675 -0.30829418 -0.27295884 -0.17082976 0.6018422 -0.17790787 0.09764859 0.25616002 0.48297325 0.41912454 -0.3811318 0.33110937 0.23121221
