116 64
84 0.16144548 -0.013086708 0.103468984 0.19118132 -0.04694595 -0.33640698 -0.026231024 0.025759032 -0.18804447 -0.2203755 0.18425436 -0.45969006 -0.023390228 -0.3266518 -0.01136247 0.12641238 0.12618592 0.115379766 -0.011741808 0.15310256 0.0101496605 0.27543098 0.19422272 0.08488868 -0.22161871 0.10355692 -0.29080468 -0.24434307 0.029656079 -0.050605442 -0.24901554 0.06439462 -0.21833828 -0.33666882 0.071766175 0.0016920788 0.10772153 -0.04296612 0.35853577 -0.06246397 0.14845887 -0.22333497 0.119588 -0.10081373 0.04599476 -0.07977439 -0.14527391 -0.19060789 0.14033264 -0.041596055 0.16176884 0.024989452 0.25900093 0.17745659 0.18562791 -0.09993016 -0.011831963 0.031688806 0.0685676 0.07385742 0.100532316 -0.13350885 0.113724254 0.065917335
85 0.16072384 -0.104841776 -0.033016827 0.22392565 -0.020479692 -0.24807248 0.051111374 0.098390035 -0.20810106 -0.078242466 0.243522 -0.26828206 -0.064475514 -0.3221338 -0.05810358 0.13210152 0.16001204 0.12642834 -0.015730167 0.12752476 0.02725855 0.28152043 0.17277548 -0.1178939 -0.22923535 0.009480845 -0.26344422 -0.17152835 0.17822185 0.16978687 -0.06479524 0.19030645 -0.14560224 -0.262554 0.04881436 -0.048510972 -0.007153182 0.013185462 0.38367665 -0.01701086 0.23924468 -0.2964455 0.12703316 -0.0027629598 0.15429975 -0.13543001 -0.1303742 -0.11509227 0.07292577 0.10252128 0.034110967 -0.01846039 0.2870507 0.23347354 0.16894345 0.10660003 0.06362123 -0.038377497 0.046516854 0.06584506 -0.01686619 -0.01946917 0.055358246 0.118393645
14 0.28245756 -0.09708195 0.20163015 0.062132347 -0.09263611 -0.34251058 0.29625374 -0.20921111 0.009879818 -0.33558187 0.06145839 0.02650368 0.08431133 -0.12822165 0.07720478 0.115609124 0.15147226 -0.11243598 -0.1285495 0.18334092 0.254592 -0.048053235 0.40584067 -0.034979373 -0.07565821 0.42498875 -0.25954583 -0.05910641 -0.060509384 -0.13134357 -0.11994613 0.02933583 -0.09098861 -0.023764662 -0.011769055 -0.24591093 0.234486 0.14776854 0.3960298 0.1351655 0.34216008 0.115828335 -0.12799735 -0.22688329 0.2204961 -0.29939413 0.09118147 -0.120927036 -0.030426892 -0.07043033 -0.03499661 -0.014736991 -0.1050698 0.34372258 0.17800552 0.11172404 0.07342807 -0.0096127065 -0.086859345 -0.16158009 0.011646565 -0.27631593 0.16679847 0.014207133
15 0.23568076 -0.049427327 0.27743164 -0.11214886 -0.049008127 -0.34893054 0.10734552 -0.3097349 -0.020401161 -0.22441839 -0.01073763 -0.0931022 0.033888653 -0.015762081 -0.06317524 0.08843609 -0.05355235 -0.31714654 -0.06481955 0.3053764 0.24128237 -0.11723667 0.26098806 0.067518234 0.037171934 0.48518237 -0.23074786 -0.38851148 -0.001935804 -0.42671406 -0.14986087 -0.037424818 -0.10925019 0.028969351 -0.011503275 -0.1682566 0.03483604 0.11893592 0.21615653 0.22492085 0.13116376 0.19642052 -0.19783588 -0.2609397 0.15470433 -0.27592224 0.20639852 -0.16420576 0.05050719 -0.09534846 -0.16157728 0.036134183 -0.032730002 0.38027903 0.29410976 0.2763651 -0.0589296 0.11376483 -0.07986096 0.015802434 0.055679336 -0.31230995 0.12351076 -0.026519278
54 -0.015825093 -0.18528518 0.12352665 0.24989748 0.042439252 -0.0015250025 0.23017062 0.12663643 0.0047933045 0.14785185 0.22742008 -0.098736174 -0.29663557 -0.4181618 0.059037074 0.09760252 0.16104487 -0.03646165 -0.026669873 0.28202063 0.14423804 0.5900521 -0.033963762 -0.37662297 -0.14120811 -0.31207493 -0.3154346 0.03654608 0.26716432 0.07806605 0.014730005 0.17185256 -0.2540768 -0.060578614 -0.19031069 -0.029193548 -0.03478513 0.03943211 0.29501483 -0.04507211 -0.096325845 -0.3197776 0.34154534 -0.22627234 0.064796716 -0.12655576 0.052474387 -0.18999285 0.16176553 0.39873812 -0.034564316 -0.13394797 0.40063876 0.27379408 0.15025753 0.567782 0.1811103 0.03468312 -0.043840546 0.07711404 0.027952235 -0.071768306 -0.23047937 -0.12375113
5 0.16474609 -0.016388083 0.19910245 0.093199894 -0.010568278 -0.25675157 0.107789315 -0.09786853 -0.14128532 -0.09855365 0.12220091 0.02811878 0.112524465 -0.14751488 -0.19642815 0.06791778 0.076016374 -0.1437541 -0.30280656 0.16114785 0.3104314 -0.21802272 0.51817864 -0.035669595 0.1585069 0.44948882 -0.13209121 -0.19868618 -0.1391372 -0.31654707 -0.026166126 0.11361407 -0.20934932 0.00466878 -0.15503395 -0.21768571 0.21868825 -0.024683923 0.17087473 0.05582478 0.19429453 0.16791621 -0.22135599 -0.21826443 0.207098 -0.26149663 0.019743223 -0.043659166 0.052404992 -0.005753872 -0.11555957 0.21062076 -0.06668242 0.30120337 0.15688078 0.34712127 -0.012545735 0.0704626 -0.28129208 0.15817519 0.083003886 -0.3668305 0.23705088 0.054413307
6 0.23788917 -0.13994223 0.22038335 0.21616128 0.05273817 -0.16380048 -0.09736077 -0.28301817 0.07569264 -0.22419387 -0.0456904 -0.12842825 -0.07486051 -0.25646302 0.021370212 -0.07094621 0.025232334 -0.12825204 -0.025590034 0.07345738 0.33659348 0.039924685 0.38867736 0.29133555 -0.24150759 0.4145583 -0.24724624 0.055198535 -0.08381261 -0.27993575 -0.13835359 -0.03117714 -0.01920631 0.16589397 -0.020824358 -0.2699334 0.34266067 0.011628797 0.3341999 0.15993571 0.23526779 0.07901488 -0.06867371 -0.3296604 0.043390367 -0.26120213 0.20048854 0.0155614875 -0.19858652 -0.23751685 0.10128066 -0.28257436 0.040482596 0.38103548 0.17033125 -0.020491235 -0.069600314 0.017009119 -0.15521206 0.12053692 0.19846292 -0.19493556 0.16616039 -0.066744566
90 0.18246937 -0.23683548 0.027676627 0.27617234 -0.058978017 -0.17596386 -0.047294755 -0.14513633 -0.2965149 -0.12399825 -0.035571456 -0.4714127 -0.09673476 -0.2677168 0.20974034 0.18876056 0.010073845 0.13569337 -0.012332353 0.07837863 -0.030417683 0.43549642 0.01846019 -0.075132295 -0.04382407 0.06406923 -0.26035967 -0.020897638 0.09036084 0.046613276 -0.06947578 0.050804287 -0.22999078 -0.20929593 -0.019312367 -0.014933032 -0.09805075 -0.074885055 0.15643933 -0.15754649 -0.06565054 -0.40962085 0.21855146 -0.07707485 -0.10252802 -0.17121716 -0.13145842 -0.18823458 0.18767077 0.13013513 0.13277543 -0.15099925 0.4663625 0.18887983 0.12951708 0.081242934 0.029416578 0.012007189 0.07473343 0.2514599 -0.020398822 -0.16575058 -0.014271769 -0.06923033
32 0.16351658 -0.09292935 0.32124156 -0.16502507 -0.0027903838 -0.3259938 0.23624742 -0.13336013 -0.022773318 -0.37782532 0.025455259 -0.03469376 -0.08049111 0.028206661 0.15823692 0.0056165536 0.17098667 -0.3081994 -0.067380056 0.18912312 0.23709582 -0.23871519 0.37302804 0.01611409 -0.054326706 0.483463 -0.28544757 -0.09383594 -0.017793577 -0.30876672 -0.11452914 -0.10315945 0.006979588 0.153744 -0.10613155 -0.21814762 0.14880173 0.085770056 0.17726877 0.10056482 0.31596357 0.21187082 -0.068703204 -0.17931885 0.25731537 -0.46782786 0.19619536 -0.24455802 0.020136273 -0.07242497 -0.105475515 -0.06815514 -0.073100865 0.4062413 0.23743874 0.20173359 0.05621018 -0.04119761 -0.02658043 -0.08827773 -0.026845317 -0.24879476 0.24462731 -0.0071938876
62 0.2521951 -0.25408947 0.18382382 0.18388475 -0.106583215 -0.32168406 0.12179459 -0.41447043 -0.021893524 -0.23237893 -0.16168961 0.063416354 0.036275093 -0.1630215 -0.02458196 0.22144155 -0.14522423 -0.26833338 -0.0022272074 0.26174608 0.19519198 -0.05913975 0.23449637 0.11008373 0.09170427 0.41695276 -0.28358433 -0.3335938 -0.041822895 -0.2899798 -0.091307096 -0.021066789 0.0063108443 0.18316036 0.13087742 -0.07558816 0.019705044 0.11537756 0.19888821 0.2585515 0.053598184 0.18879625 -0.08752325 -0.29627597 0.06954247 -0.22560331 0.13940778 0.072434306 -0.08117745 -0.016726384 -0.2348973 -0.16514638 0.01959535 0.39217025 0.35563815 0.26615328 -0.017970197 -0.07189533 -0.04088916 0.052969925 -0.029056925 -0.36280194 0.065850735 -0.09451637
12 0.3063526 -0.028703528 0.2595148 -0.05675147 0.020682916 -0.14003892 0.122940496 -0.37878996 0.03702034 -0.19534625 0.06554118 -0.05541831 -0.074739374 -0.10824571 -0.069148034 -0.04012985 -0.121618524 -0.2578486 -0.124415584 0.21787153 0.34302408 -0.19447763 0.30806938 -0.054789953 -0.16154973 0.36269853 -0.37853736 -0.22054926 -0.08344875 -0.26371014 -0.027386148 -0.05230565 -0.033391975 0.11828219 -0.06925427 -0.2799255 0.038358837 0.02651676 0.21349576 0.09015658 0.077740796 0.037919167 -0.16599265 -0.25151622 0.17029786 -0.41490477 0.38906977 -0.13848928 -0.19361146 -0.18414052 -0.11001353 -0.12245158 0.048983432 0.4035764 0.23625943 0.17126608 0.029663706 0.13689002 -0.110598415 -0.02135414 -0.021853875 -0.18290672 0.08775096 -0.16344345
0 0.18731648 -0.069531545 0.066101365 0.09439445 0.011456944 -0.23103763 -0.07179301 -0.16565593 0.0016306659 -0.1994243 -0.07463259 -0.025226366 0.0500712 -0.15378119 -0.3416027 0.00051653245 -0.018030876 -0.28619218 -0.318807 0.008410993 0.23745696 -0.11345779 0.39246422 -0.07440008 0.03287653 0.5458311 -0.20795968 -0.24917068 -0.20105833 -0.39244065 -0.02851965 -0.08963331 -0.1979393 0.059568416 -0.21868213 -0.13340127 0.16720451 -0.0037281518 0.13478352 0.013971423 0.067184925 0.049378954 -0.250347 -0.24435459 0.30560955 -0.2588893 0.104981475 -0.044627402 0.007124911 -0.096099526 -0.19447307 0.15163739 -0.017927304 0.38451836 0.3031298 0.39650327 -0.004335212 0.008585249 -0.22288962 0.087296635 0.10863708 -0.2572131 0.18023106 0.020834984
8 0.33937082 -0.09112024 0.121427245 0.20536774 0.061240267 -0.26229474 -0.01577847 -0.33940083 -0.032596864 -0.18493629 -0.016342986 -0.137443 -0.05015596 -0.32994622 -0.34944358 -0.049535792 0.04899274 -0.160435 -0.10225488 0.2576694 0.41663265 0.004532677 0.37145144 0.13776037 -0.15448977 0.42635837 -0.15277368 -0.12795886 -0.21043476 -0.21096604 -0.094750375 0.03985758 -0.15000933 0.10218772 -0.023532609 -0.23252222 0.22453952 0.003781341 0.28076684 0.19200586 0.10141387 0.11710904 -0.3266071 -0.29409793 0.18644005 -0.23432943 0.25715545 0.16041943 -0.29970098 -0.0034132274 -0.065115824 -0.039525494 0.01710211 0.2565269 0.16630529 0.11971471 -0.044972572 0.025277762 -0.20354053 0.052674707 0.22268583 -0.30923155 0.13274847 -0.109586954
56 0.25572777 -0.06476439 0.24153769 -0.073495835 0.038438022 -0.24587904 0.05082014 -0.24782285 -0.00430945 -0.28482217 0.014303026 -0.046635296 0.017099189 0.011686191 -0.11766049 0.020790434 0.056318182 -0.36658448 -0.13101237 0.1644991 0.30574033 -0.18622875 0.37689173 -0.10034789 -0.018408496 0.48631474 -0.17826962 -0.28376725 -0.16452473 -0.43447527 -0.053239815 -0.05955707 -0.15949579 0.10890156 -0.09790684 -0.2533542 0.1829235 0.071950816 0.096930146 0.15342735 0.08968358 0.16173021 -0.19133791 -0.27504945 0.19182 -0.4005251 0.110745214 -0.14566208 0.07396037 -0.09663716 -0.098971635 0.06099054 -0.051085487 0.38441092 0.27266222 0.35595575 -0.006324328 0.07156568 -0.17558324 0.08436693 0.11531708 -0.277983 0.1693727 -0.054106615
57 0.22116409 -0.06481133 0.21446268 0.025257187 -0.018489324 -0.2962624 0.10005354 -0.3303589 -0.07076608 -0.15639573 0.021031367 0.008107064 0.065920316 -0.0886286 -0.18227325 0.016063977 -0.027994374 -0.29592615 -0.10668487 0.2286558 0.33944806 -0.21646702 0.33461627 -0.05044628 0.024033131 0.45552203 -0.26761967 -0.35754207 -0.0571023 -0.39419496 -0.085120946 -0.008436731 -0.08264786 0.09265602 -0.0083888285 -0.18552655 0.116051376 0.050946537 0.10592187 0.21068466 0.10583885 0.15347923 -0.19562133 -0.29276103 0.13620126 -0.29436156 0.19352105 -0.08000201 -0.06822241 -0.10993391 -0.16896427 0.058304343 -0.0048021185 0.3979129 0.26516128 0.27086782 -0.042736348 0.09929605 -0.19226983 0.11698157 0.103934266 -0.3056055 0.18090263 -0.058402263
36 0.14367785 -0.2270345 -0.06754073 0.25917348 -0.06316168 -0.15535247 -0.0090658385 0.1430391 -0.3103876 -0.06895943 0.33447844 -0.36032337 -0.08413853 -0.35020363 0.0006408806 0.10297945 0.21961969 0.05763337 0.0064633363 0.033676714 -0.053112578 0.38898826 0.32759213 -0.1464299 -0.22735105 -0.020868799 -0.25612622 -0.060196165 0.2629349 0.24867024 -0.10268515 0.33165544 -0.107917815 -0.2586965 0.13747673 -0.020360792 0.112097606 -0.10727825 0.3883282 -0.14984635 0.33323714 -0.5676745 0.16914368 -0.15670381 0.07151198 -0.1910557 -0.42547527 -0.10769043 0.27043715 0.18880309 0.1490536 0.034806103 0.3337269 0.21754238 0.038954277 -0.052793894 0.19754998 -0.088104255 -0.035296805 0.046574526 -0.042310655 -0.08940619 0.1518457 -0.038486674
50 -0.10376797 -0.12403366 0.09214603 0.225089 0.089412324 -0.068566754 0.12450956 0.16715737 0.043866035 0.15268324 0.29042628 -0.069679454 -0.2959522 -0.5735657 -0.32411107 0.09664216 0.34067348 -0.20290817 -0.0024497567 0.28851664 0.036068168 0.6161995 0.035993 -0.4375293 -0.30198932 -0.15286784 -0.22263747 -0.035667155 0.21625559 0.2512157 0.079789616 0.1956833 -0.2254203 -0.030549742 0.05025948 -0.015738308 -0.08147495 0.12238899 0.18235056 -0.09212967 -0.11831965 -0.17635119 0.13474199 -0.1289162 0.32038656 -0.21750274 -0.042321883 -0.001676767 0.07918735 0.41215643 -0.05140816 -0.19479851 0.2837421 0.31747064 0.22308826 0.51220804 0.18433858 -0.1680433 -0.009942596 0.11629944 0.101404615 -0.06481968 -0.17864425 0.0016711823
81 -0.05198627 -0.026743857 0.39845675 -0.2454267 0.01355734 -0.24547693 0.08038675 -0.05656378 0.18373181 -0.1406533 0.000768843 -0.009464715 -0.13512737 -0.14127176 -0.20414738 0.13045058 0.3261229 -0.29120925 0.14014392 0.24160211 0.14595702 0.030394658 0.056960307 -0.28825223 -0.14263578 0.17056388 -0.42119697 -0.25927866 0.11381938 -0.117967926 -0.12122093 -0.12042978 -0.17212322 0.26112783 0.024276454 -0.17260201 0.09784446 0.0446986 0.04843247 0.20857371 0.06961973 0.205641 0.025565332 -0.08226417 0.2993384 -0.4103817 0.22695743 -0.2538106 -0.04415385 -0.024079027 -0.14813808 -0.14886807 -0.14164007 0.23350826 0.38232562 0.34032774 0.0032670018 -0.03868106 0.018760206 0.05401436 -0.0234452 -0.22428854 0.08527436 -0.03410647
33 0.27012113 -0.05542368 0.17364524 -0.009479432 -0.065608606 -0.27961326 0.25033265 -0.33265984 -0.03247641 -0.21375483 -0.09439709 -0.10219015 0.024397168 0.057913527 0.06554728 0.2899105 -0.10136975 -0.3315709 -0.1838112 0.25969088 0.16061907 -0.12263998 0.269871 -0.028261386 -0.10316622 0.5054868 -0.31299126 -0.43918526 -0.1366724 -0.26566994 -0.12617947 -0.121935464 -0.035696015 0.08335202 0.014258201 -0.120416686 0.011791928 0.06853473 0.15736581 0.15045205 0.16929047 0.08901727 -0.16021532 -0.19435267 0.10037095 -0.42240855 0.11367356 -0.1550553 -0.08103568 -0.13789472 -0.07549605 -0.016734678 0.062188856 0.38267964 0.3300979 0.1944721 0.02604818 0.01254606 -0.03112267 -0.0027131727 -0.10714758 -0.26325527 0.20870635 0.019300062
1 0.2136928 -0.024952173 0.24297501 -0.08142931 -0.048848417 -0.33150285 0.028301261 -0.20962591 -0.043674067 -0.19837688 -0.015272297 -0.08192822 -0.00095928134 -0.02155314 -0.21096058 0.08295195 0.07509472 -0.387303 -0.16495603 0.13180864 0.17748551 -0.23637448 0.39538997 -0.030324034 0.020087782 0.47939068 -0.24287073 -0.28026164 -0.15550356 -0.46931142 -0.017253827 0.014018147 -0.21086623 0.16574349 -0.042602774 -0.19221392 0.1801469 -0.07910251 0.097417556 0.13030873 0.07655056 0.14510168 -0.14673327 -0.26064765 0.07872501 -0.31536406 0.023188831 -0.08418363 0.10042303 -0.03994221 -0.11027515 0.1093027 -0.10241718 0.35524553 0.31399578 0.38778207 0.014774713 0.010626801 -0.06556353 0.13641642 0.076977946 -0.30523416 0.20818718 -0.06535261
65 0.016762871 -0.12533486 0.064954 0.18665966 0.06122376 -0.014649446 0.2343922 0.2465597 -0.1635178 0.17197642 0.43775806 -0.05597404 -0.1330693 -0.25954685 0.10501894 0.12909803 0.25347385 -0.09704914 0.060264543 0.075808704 0.057630695 0.41335446 0.090047166 -0.31450376 -0.28503567 -0.1140708 -0.16304255 -0.20129913 0.28143877 0.21078818 -0.0064646443 0.2461477 -0.15334764 -0.08558836 0.0786628 0.019448146 0.050438624 0.20730571 0.17539527 -0.03971681 0.1793437 -0.25511274 0.22186793 -0.19361636 0.097508565 -0.28511864 -0.21562526 -0.21012205 0.2033915 0.25072634 0.0594231 -0.099222355 0.33672008 0.3866614 0.1056397 0.27787453 0.17036328 0.016692642 -0.21251781 0.13870947 -0.020772347 0.022650177 0.06894846 0.06696509
58 0.301853 -0.08038356 0.25260994 -0.0477985 -0.06301089 -0.41478384 0.05699057 -0.28888488 -0.06600929 -0.24587949 0.05465271 -0.046318922 0.14629486 -0.04288123 -0.27997458 0.15504992 -0.033285614 -0.32010204 -0.124746256 0.19312276 0.24285333 -0.25113362 0.4534247 -0.1112222 0.20121323 0.3710059 -0.19443043 -0.33039603 -0.11999158 -0.37312284 0.10197888 0.09307591 0.02104502 0.07216834 -0.0520641 -0.19258857 0.050841525 -0.07233401 0.09070574 0.10959627 0.09752406 -0.03737447 -0.16076261 -0.1893456 0.17656219 -0.28661907 0.098670945 -0.017633313 0.099868946 -0.025751244 -0.29694778 0.124937154 -0.03854185 0.28940114 0.27052388 0.31304374 0.049069107 0.0012055907 -0.2481146 0.05310722 0.05267898 -0.4451759 0.20230877 0.054680057
18 0.25737256 -0.17503206 0.14421035 0.10627057 -0.028328916 -0.23650613 0.01591857 0.13822134 -0.010379249 -0.12870717 0.36140436 -0.023770068 0.08789722 -0.2644214 -0.078659974 0.13349976 0.04698398 0.014896355 -0.113189116 0.08800657 0.0796417 0.17340676 0.36410806 0.010902966 -0.05418208 -0.04785971 -0.13817616 -0.15771933 0.19647159 0.0135084465 -0.019003095 0.33295608 0.08090447 -0.14567895 0.041519422 -0.13910022 0.30798525 0.13259815 0.4932004 0.041047797 0.35173738 -0.17790176 0.09135247 -0.3166996 0.24208884 -0.16017814 -0.18117198 -0.07353327 0.27038625 0.057070892 0.08699431 -0.075694844 -0.09766988 0.29935142 0.0999822 0.23745616 0.18407877 -0.07858858 -0.3232664 -0.06744707 0.15151915 -0.19669457 0.09667084 0.09462316
67 0.05510807 -0.2138823 -0.07660792 0.23226915 -0.027956076 -0.11316423 0.0033899816 0.25715035 -0.14822938 0.033389915 0.27903935 -0.31990558 -0.069241405 -0.3187771 0.009781638 0.22851956 0.1866404 -0.13001134 -0.011341654 -0.04142581 -0.02908864 0.49769893 0.11281887 -0.30126518 -0.17953074 -0.07243927 -0.3163859 -0.054134868 0.21830359 0.1696243 0.015663126 0.274071 -0.20116833 -0.21836229 -0.008796376 0.05448519 0.12943971 0.0560374 0.23035698 -0.18479176 0.15864715 -0.532961 0.2884015 -0.08337843 0.021800641 -0.18228571 -0.33500087 -0.18649414 0.34345838 0.24377787 0.14843461 -0.087740354 0.3663021 0.25632846 0.23559624 0.19254102 0.26949832 -0.05162503 -0.053003997 0.12278644 0.023502227 -0.07773138 0.063834414 -0.019222677
11 0.22098364 -0.19531491 -0.009858062 0.27349663 0.017002337 -0.23316301 -0.11640241 0.12439943 -0.08839216 -0.13319956 -0.05692225 -0.27190208 -0.11805588 -0.37865838 -0.037401907 0.06894674 0.20615955 0.079422034 -0.013906929 0.09722122 0.17845364 0.11449535 0.35226664 0.3354938 -0.17609297 0.14107183 -0.3106413 0.010701888 0.041154042 0.06482009 -0.23074444 0.3207043 -0.15263957 -0.00022973288 0.015447965 -0.10246735 0.41986024 -0.13885222 0.46359545 0.15494056 0.4881177 -0.081384026 0.016285833 -0.2291361 -0.024164798 -0.18280198 -0.036854383 0.04497761 -0.118088886 0.028265527 0.10606823 -0.113552324 0.07192984 0.19692197 0.15246633 -0.0794711 0.122591294 -0.038488667 -0.08232579 -0.047516476 0.09010116 -0.2677976 0.37227368 -0.06590464
38 0.0063058967 -0.1855893 0.12266697 0.29057902 0.05523694 0.03595034 0.09891915 0.26510322 -0.05031188 0.11290184 0.2606944 -0.26784244 -0.23845938 -0.43317407 -0.023293238 0.17503338 0.08663977 -0.22877364 -0.054979805 -0.028365826 0.06221156 0.58206743 0.13080028 -0.19361743 -0.14455295 -0.014854466 -0.29812932 0.11251311 0.12552632 0.13306509 0.082689635 0.15130168 -0.18992169 -0.20485374 0.012967623 0.12302047 0.09165002 -0.0945167 0.18194312 -0.3472017 -0.03542742 -0.5501558 0.28571972 -0.16127768 0.0019323884 -0.18283165 -0.16422851 -0.2425482 0.2788636 0.22874615 0.17692344 -0.18756187 0.45863286 0.34898418 0.2777945 0.10900608 0.21129411 -0.0712347 -0.24542952 0.081691526 0.10531936 -0.2035964 -0.012925015 -0.08404402
37 0.015615367 -0.11161726 -0.066232346 0.2738122 0.101687156 -0.07090472 0.094632864 0.24253136 -0.108878724 0.02924761 0.3893697 -0.356975 -0.09135366 -0.34337285 0.0024487302 0.01651462 0.1839271 -0.17671908 -0.20607619 0.0841398 -0.07437041 0.5965656 0.10537752 -0.27177224 -0.19841015 -0.02767349 -0.28158644 0.06467945 0.24186875 0.1818353 -0.024535257 0.18112011 -0.21501568 -0.30710545 -0.116072886 0.05663701 -0.062080055 -0.040170282 0.32885176 -0.32744023 0.060598325 -0.5845056 0.28002864 -0.20823865 0.03336635 -0.18510059 -0.2757891 -0.21693707 0.39807087 0.18711528 0.23738988 -0.03562598 0.50919956 0.29719618 0.06911056 0.114975505 0.15855063 0.0043435646 -0.11424656 0.10176397 0.05653371 -0.079132505 -0.014734145 -0.04563516
19 0.26351342 -0.11656929 0.13663602 0.19942465 -0.041750412 -0.24217807 0.08236585 0.1675866 -0.05609998 -0.1605172 0.4177701 -0.09665164 0.020833207 -0.340122 0.064007446 0.14488357 0.08214249 0.13584186 -0.08213149 0.19340263 0.05445278 0.22261707 0.38165224 0.1313783 -0.094068706 -0.06977771 -0.14970155 -0.12128333 0.16044013 0.09978817 -0.08005041 0.39997327 -0.024655797 -0.21942689 0.11036464 -0.14251575 0.2456572 0.06571488 0.5055384 -0.01987197 0.32550937 -0.094310716 0.10200084 -0.3181638 0.1422189 -0.09815377 -0.18060195 -0.030088073 0.260153 0.115163885 0.15319921 -0.056334432 0.004829293 0.31229445 0.029011803 0.12436589 0.20557164 -0.018026924 -0.20398068 -0.031045984 0.12798578 -0.19178776 0.16295743 0.083701245
59 0.27356905 -0.051103182 0.19368118 0.04452909 -0.010558733 -0.30320346 0.07877322 -0.34369665 -0.11823336 -0.24172232 -0.012299077 -0.01815925 0.17273429 0.035475146 -0.15851852 0.0992336 -0.10364203 -0.24939649 -0.24628522 0.23465477 0.2461793 -0.13377273 0.4204589 -0.10559799 0.20453472 0.49739707 -0.12420159 -0.25595883 -0.15714847 -0.44408932 0.05655533 -0.01960138 -0.11334705 -0.035030175 -0.12496838 -0.27435923 0.07069031 -0.046167452 0.10703522 0.114168316 0.040203422 0.07204673 -0.23167998 -0.31169963 0.19319694 -0.2644559 0.1526911 -0.05266948 0.09847085 -0.15571047 -0.13382101 0.19556089 -0.029443845 0.35126722 0.20813295 0.39285234 0.0071776593 0.09909668 -0.27315044 0.14992866 0.08633003 -0.4278516 0.16343926 0.04763075
66 0.07203026 -0.15355152 0.0496601 0.10823441 0.0037879187 -0.13716878 0.067378536 0.19112301 -0.32475355 0.119678766 0.2838955 -0.24831039 -0.103533596 -0.2836401 -0.05677755 0.16340774 0.24849837 -0.059004404 0.007701298 -0.03429186 -0.10084805 0.34344453 0.29574183 -0.2330968 -0.07064992 0.07529922 -0.20251893 -0.05317173 0.3253434 0.17160124 0.02886525 0.2572548 -0.18498544 -0.19392046 0.01634236 0.14540586 0.07642212 -0.0014969347 0.2525418 -0.23840603 0.25435707 -0.54656106 0.16219333 -0.115272015 0.06588843 -0.20760013 -0.2861283 -0.20077029 0.26991752 0.13773228 0.06191332 -0.048051596 0.39621088 0.296738 0.05111025 -0.017720195 0.17739122 -0.049904823 -0.28793555 0.01901257 0.04590924 -0.20667247 0.084771514 0.02352116
92 0.14445329 0.02083226 -0.00085461035 0.033050966 -0.21807559 -0.39739427 -0.18640248 -0.2063784 -0.439798 -0.22742672 0.011871746 -0.64989865 -0.01575895 -0.173292 -0.09597876 0.24726492 0.030316848 0.21241245 -0.16134338 0.20085496 -0.115867086 0.39633292 0.2682095 -0.05443739 0.20419501 0.16554077 -0.17119724 -0.37016743 0.1253947 -0.15940286 -0.20149474 0.13161698 -0.24456802 -0.2955381 -0.20081767 -0.05603212 -0.14036201 -0.096506886 0.26792285 -0.1921912 0.094410345 -0.3590334 -0.0842979 0.10353674 0.047033697 -0.16152719 -0.23588231 -0.19363846 0.18531716 0.12861636 0.011282239 0.18765193 0.26890427 -0.14563304 0.0641627 0.0029662366 -0.15064205 -0.07694911 0.113642976 0.35781586 -0.030572202 -0.20082344 -0.011529046 0.0774099
47 -0.07881051 -0.30316764 0.08776846 0.32864568 0.09064423 0.09093742 0.22264884 -0.06545021 -0.10209505 0.18183568 -0.042025447 -0.122103326 -0.49134946 -0.25961953 0.061848283 0.010023056 0.1354827 -0.15412486 0.033751782 0.30421734 0.19712994 0.7057479 -0.054106034 -0.441533 -0.10286201 -0.21679129 -0.27748987 0.14758222 0.32992095 0.029146934 0.14705977 0.0081608845 -0.11411087 0.10614169 -0.2303566 -0.12599818 -0.11941099 -0.042682912 0.06744524 0.06711321 -0.17668314 -0.3589532 0.361607 -0.25531325 0.037101217 -0.21548362 0.1900725 -0.13694201 -0.05890481 0.3819882 -0.09952476 -0.24427988 0.500468 0.33247846 0.12947746 0.62291926 0.11652893 -0.016707597 -0.07616236 0.2671121 0.031918164 -0.08948375 -0.29119524 -0.18251167
55 -0.033450723 -0.2575843 0.12640029 0.20548308 -0.04227037 -0.056107894 0.13868225 0.11378044 -0.11856582 0.18473373 0.03483968 -0.16372044 -0.35188586 -0.43520382 0.016635196 0.02831545 0.27646792 -0.1608006 0.009609673 0.06455644 0.24808158 0.6997776 -0.081761755 -0.4056593 -0.0002760009 -0.20648982 -0.31372908 0.33346686 0.35813963 0.20795786 0.10353954 0.27319005 -0.3105271 0.012258277 -0.1997749 -0.14914826 -0.08018027 0.039189275 0.11633042 -0.08743804 -0.18012175 -0.3527178 0.2090003 -0.105497904 0.060732715 -0.2505302 0.13191408 -0.15914588 0.11282049 0.55539775 -0.12710619 -0.284012 0.36227033 0.2667042 0.22917025 0.5623355 0.22216715 -0.13708872 -0.12602875 0.12985173 0.058480605 -0.2367586 -0.15385856 -0.18466812
7 0.3806992 -0.112227574 0.1570773 -0.022357238 -0.023055812 -0.37038895 0.029496098 -0.28394374 -0.034006383 -0.3310574 -0.0697107 -0.06908815 0.15034695 0.07446409 -0.14486814 0.040355798 0.0024914274 -0.36753476 -0.10647865 0.05945133 0.34559703 -0.14379221 0.31206852 -0.13789564 0.1749344 0.48225215 -0.26438108 -0.28630775 -0.11494869 -0.401588 -0.07925306 -0.03097547 -0.10914174 0.09643432 -0.040562477 -0.3150951 0.14214936 -0.034725342 0.06660116 0.23240288 0.008076346 0.05086309 -0.18742575 -0.2779182 0.07190027 -0.37744275 0.06878036 -0.1288444 0.11966382 -0.02160773 -0.12484367 0.13722675 -0.06145414 0.31186178 0.29268298 0.3729397 -0.041205235 0.060350154 -0.2883795 0.13669272 0.05654413 -0.37712777 0.24987903 -0.08047583
89 0.19268109 -0.106186025 0.07152239 0.067881286 -0.023613915 -0.3443733 -0.16004199 -0.327972 -0.25766915 -0.2703394 -0.056598175 -0.39462942 0.1731993 -0.08189877 -0.043648414 0.11124511 -0.11257938 0.08456306 -0.16388018 0.3360691 0.13439965 0.13669638 0.17512423 0.01162898 0.24527588 0.29918206 -0.048386738 -0.28506193 -0.047207847 -0.3315795 -0.16201057 0.01524247 -0.21114655 -0.16355896 -0.3597984 -0.17246927 -0.12946437 0.010510359 0.1947722 0.011709209 0.030001994 -0.12776597 -0.16910654 -0.08641258 0.115512185 -0.1333419 -0.022543013 -0.10819719 0.28924105 0.10041447 -0.1488371 0.22466317 0.26257995 0.006447938 -0.015636615 0.2544453 -0.19317007 0.113071315 -0.018994741 0.20933115 0.11226256 -0.27728257 -0.03056274 0.022479149
63 0.3548218 -0.016040454 0.1510655 -0.09247177 -0.03017674 -0.3032473 0.22240132 -0.22569238 -0.054702424 -0.2481013 -0.018936433 -0.089482255 -0.0016300819 0.0659683 -0.07306159 0.17609648 -0.00977859 -0.36551154 -0.10455487 0.2621924 0.17660066 -0.234343 0.31450322 -0.11107824 0.21033114 0.4342225 -0.4013373 -0.4475356 -0.18078476 -0.3349581 -0.12204638 -0.024459641 -0.07775158 0.15555206 -0.048716154 -0.26251262 -0.010875345 -0.15739591 0.08532696 0.22124693 0.0104698045 0.092171855 -0.10444782 -0.14143659 0.031230636 -0.4108922 0.25418055 -0.10986388 -0.070427775 0.0037963109 -0.07296115 0.10990455 0.015710954 0.2269024 0.3239219 0.2856727 0.039821796 0.1307831 -0.1506022 0.094505474 -0.13044025 -0.42888454 0.32217282 -0.066038616
9 0.31274816 -0.03631979 0.09420432 0.05570848 -0.08433003 -0.38170284 0.051448114 -0.4011989 -0.18268892 -0.23858339 0.06640617 -0.09147037 0.15141039 -0.15960065 -0.12514965 0.041407175 0.001948557 -0.25457984 -0.18289816 0.08321041 0.2040756 -0.15736395 0.4836271 -0.009569895 0.10071878 0.5519324 -0.24141927 -0.22948976 -0.22027993 -0.31071606 -0.121385604 0.062344514 -0.11761396 0.06627175 -0.07445179 -0.16933998 0.16751373 -0.052171163 0.26535207 0.039044537 0.16265824 -0.053512022 -0.29772687 -0.18269932 0.050017897 -0.32376465 0.04712384 -0.023527823 0.026457112 -0.041623503 -0.11744041 0.16634083 0.010564343 0.2592469 0.19507042 0.037236784 -0.018814022 0.019286176 -0.16592252 0.10766181 0.05277902 -0.3291788 0.2512597 -0.12177169
29 0.26533598 -0.013716218 0.07338747 0.28729588 -0.12555717 -0.27339283 0.07154359 0.043811157 -0.023441007 -0.28849125 0.2539936 -0.34850353 0.01501612 -0.24285758 0.3349617 0.3257309 -0.08811271 0.30102468 -0.08970815 0.1501567 0.048705198 0.21717025 0.28787553 0.20640428 -0.21195659 -0.06669113 -0.44436434 -0.09714418 0.016355079 -0.11515665 -0.22462471 0.24117963 -0.020939533 -0.2810673 0.036152963 -0.1592876 0.20620134 -0.0011433351 0.6396992 -0.025551843 0.38485578 -0.2559271 0.236578 -0.115432575 0.0049039843 -0.13864455 -0.028565457 -0.16883877 0.077016406 -0.014141041 0.26274326 -0.10835626 0.17056815 0.12934563 0.20916301 -0.14449702 0.09273935 0.053385306 0.024497073 0.040963903 0.0071741673 -0.14217205 0.20318863 0.04978745
34 0.18933335 -0.030746559 0.33486778 -0.026268428 -0.026912179 -0.28056967 0.30952156 -0.20619401 -0.09220628 -0.3039479 0.3223654 0.20669289 0.21119393 -0.07776674 -0.011591697 0.03616583 0.030150501 -0.20512524 -0.06910057 0.30134022 0.2251383 -0.0830114 0.4458263 -0.07065113 0.1509846 0.45648324 -0.1573387 -0.3188164 -0.050183818 -0.2923975 -0.047385257 0.059862413 -0.0163739 -0.05124295 0.099037364 -0.32172754 0.10284478 0.25514987 0.20769642 0.06016686 0.17049569 0.27281842 -0.15058862 -0.37716535 0.32687414 -0.33331025 0.06566485 -0.097694665 0.1714361 -0.12068152 -0.008108826 0.014156606 -0.21493185 0.46545243 0.09310854 0.21163148 0.08991942 0.024788642 -0.30065262 -0.0306174 0.0703721 -0.42378443 0.15771289 0.041008744
78 0.15637504 -0.089605875 0.32463238 -0.20578381 -0.057808194 -0.31855202 0.21943952 -0.21484192 0.026598519 -0.2953646 -0.108404346 -0.044917073 0.012555731 0.13740262 0.06647304 0.059092257 0.14245024 -0.41642934 -0.0867765 0.20291477 0.25933442 -0.0723177 0.21991916 -0.07179799 -0.07233974 0.4723495 -0.3770352 -0.26625508 0.09597453 -0.30250832 -0.12755702 -0.16676335 -0.02595395 0.10538569 -0.027492017 -0.20437607 0.0043718033 0.07965078 0.16307385 0.21472678 0.2576225 0.1388713 -0.064347774 -0.24709487 0.22888795 -0.47219676 0.2431079 -0.2691303 -0.0005976093 -0.2687058 -0.1264808 -0.07998888 -0.10420642 0.42010924 0.34654176 0.20051229 -0.01781441 -0.054999202 -0.0072042397 -0.08257625 -0.05754102 -0.3230695 0.16968617 0.070003875
88 0.09159538 -0.18850315 -0.1543488 0.26270542 0.018834569 -0.27811188 -0.098947115 -0.43371207 -0.48859736 -0.13172567 -0.15381849 -0.2632568 -0.019229341 -0.29394877 -0.3101943 0.053960886 0.09208707 0.08683225 -0.13962968 0.2375209 0.16510957 0.06523623 0.3870299 -0.09553978 0.14325033 0.65870523 0.060920626 -0.42932352 -0.06754693 -0.16161121 -0.2772061 -0.065385565 -0.17459089 0.112736724 -0.301949 -0.10917476 0.065025635 0.12156486 -0.018643335 0.07192155 0.16411196 -0.026253415 -0.38244432 0.10929389 0.2914646 -0.2839737 -0.061763916 0.0055844146 -0.16920999 0.17791939 -0.2067522 0.2009396 0.24785933 0.03715331 -0.17166725 0.16133536 -0.166782 0.012277624 -0.09126983 0.32029933 0.17339723 -0.14121476 0.17709745 0.028810816
46 -0.21265462 -0.22929491 0.06372284 0.207373 0.0054534487 0.06400942 0.28722534 0.11131443 -0.06468182 0.29253387 0.14499757 0.02870465 -0.45503226 -0.53991085 -0.13557294 0.14833403 0.3689171 -0.28986877 0.024835685 0.061812885 0.07573138 0.6167486 0.039367184 -0.5026711 -0.07984465 -0.04014884 -0.30792534 0.087696746 0.29791248 0.16350794 0.06391031 0.15521373 -0.269145 0.17139499 -0.22015038 -0.016984724 0.06602868 0.12436805 0.07284957 -0.088579215 -0.124970555 -0.3316514 0.2757088 0.009626049 0.19643632 -0.26048324 0.07089734 -0.2199877 0.028826406 0.5089358 -0.09841397 -0.2870057 0.31562403 0.33073372 0.18739551 0.54975206 0.3062559 -0.09908742 -0.1162309 0.022151252 0.10275343 -0.18381496 -0.14662713 -0.13255732
111 0.03913274 -0.1335856 0.3597438 0.14033909 0.075105816 0.041205272 0.10493458 -0.20164758 0.24013995 0.066248804 0.080772705 -0.17843084 -0.509265 -0.45748755 -0.102384165 -0.02802666 0.063064136 -0.058662836 0.124620475 0.3252023 0.39326766 0.49497885 0.13602346 -0.41184214 -0.109048285 -0.3288186 -0.46481952 0.2694698 0.26709482 -0.10503299 0.17614186 -0.008765579 -0.0048792893 0.28844485 -0.40538448 -0.2938209 -0.08695835 -0.1498212 0.19703344 0.024476653 -0.36140585 -0.28940645 0.32004073 -0.24818927 0.10786568 -0.22876494 0.502897 -0.18948726 -0.24732576 0.36264122 -0.13456412 -0.4241462 0.33827665 0.23066592 0.09894876 0.5369238 -0.0002466676 0.078555495 -0.071104884 0.18628259 0.06339346 -0.07433445 -0.43893942 -0.2778827
22 0.103884496 -0.15840894 -0.0209801 0.21650863 -0.062039603 -0.35128853 0.037834313 -0.03435945 -0.34453884 -0.13273597 0.32989118 -0.32123798 -0.086951315 -0.31440532 -0.004171488 0.06661524 0.11780504 0.12548721 0.0445409 0.17726201 0.034345772 0.3201157 0.23872812 0.0051100207 -0.28354684 -0.06915809 -0.17429966 -0.05242045 0.35701835 0.12643893 -0.17013107 0.32278958 0.04575387 -0.2437353 0.016262406 -0.03662246 0.1427821 0.178097 0.51667476 0.08031255 0.5111718 -0.3601554 0.102960825 -0.114401124 0.15132922 -0.14359017 -0.21602207 -0.12509035 0.1495577 0.18352614 -0.04435698 -0.06259096 0.15824665 0.19394898 0.020341802 -0.097361766 0.0741855 -0.14544067 -0.02750815 0.025482401 0.0799217 0.039676845 -0.035101153 -0.0032865524
80 0.2459013 -0.040137257 0.3443329 -0.15149711 0.070692964 -0.26319137 0.20769714 -0.1097586 0.06857631 -0.31303787 -0.037820805 -0.06754699 0.0053722635 0.14092118 0.092062056 0.03589494 0.16681163 -0.36477843 -0.037357572 0.17869124 0.31022453 -0.08933452 0.17943908 -0.079163 -0.10008187 0.4199176 -0.35006985 -0.33550653 -0.030018821 -0.3253506 -0.11307978 -0.19290824 -0.035790294 0.1290638 -0.018301167 -0.24667758 0.07221039 0.054058746 0.07958553 0.1980747 0.14217022 0.14082263 -0.08081804 -0.26931572 0.20396799 -0.52157444 0.25890464 -0.2702948 -0.07547936 -0.2578178 -0.046000857 -0.05364867 -0.037107907 0.40063944 0.3470524 0.2371564 -0.009530608 0.04649906 -0.15174834 0.007134226 -0.0072551975 -0.27833244 0.24744062 0.0714658
61 0.27608553 -0.059029292 0.009166261 0.15411906 0.00585046 -0.37950012 0.1656749 -0.3003748 -0.20084691 -0.16899696 0.081022106 0.0056366427 0.09404018 -0.05888852 -0.3259291 0.08889619 -0.065415256 -0.3705808 -0.22033954 0.2550049 0.27370572 -0.27182955 0.54732 -0.14027838 0.2334126 0.47900936 -0.15317921 -0.2843186 -0.23890471 -0.23524006 0.042994533 0.14948174 0.071173936 0.153301 -0.08245239 -0.28004092 0.11271338 -0.051294196 0.005860285 0.15052526 0.17213114 0.03434365 -0.3239434 -0.21294145 0.13192265 -0.36838344 0.05354183 0.1604266 -0.09666036 0.17722952 -0.2339305 0.20664646 0.008221607 0.24856192 0.15054545 0.27734742 0.045555435 -0.029423933 -0.3588817 0.26642594 0.034287453 -0.3993481 0.3537837 -0.0036303112
39 -0.11108733 -0.102458164 0.06231606 0.16283904 0.19557942 -0.028766096 0.11366478 0.4462262 -0.054263126 0.0779315 0.32889634 -0.3247401 -0.26577145 -0.25326586 0.14638525 0.111738 0.3246616 -0.31132054 0.05837183 0.1102059 -0.013115165 0.4213428 0.109583415 -0.1811389 -0.38856652 -0.08738169 -0.36118495 0.0057185325 0.18713863 0.07399965 -0.09850938 0.1268627 -0.13871074 -0.007359056 -0.047094464 0.17038622 0.076478094 -0.040935267 0.18848681 -0.13847585 0.1976544 -0.35529593 0.3432118 -0.20326939 0.030801006 -0.30834472 -0.17136241 -0.23075755 0.3168821 0.2344078 0.13527182 -0.07695926 0.4697231 0.31630924 0.22402778 0.13511229 0.17732248 -0.041593626 -0.037761923 0.10135937 0.033608615 -0.023836227 0.18571524 -0.009944049
69 0.3345232 0.027108226 0.24531513 -0.112649165 0.012624635 -0.3858375 -0.1319165 -0.36577508 -0.07100532 -0.23973139 0.18712914 -0.22879711 0.115722634 -0.23789029 -0.4535524 0.03630777 0.032442078 -0.10722898 -0.14163433 0.20914438 0.12801865 -0.21215475 0.57890123 -0.24115846 0.16853978 0.45037085 -0.14101751 -0.38147616 -0.14988843 -0.36036834 -0.11557463 0.010879758 -0.19534221 0.00090780226 -0.16177481 -0.204859 0.10437693 -0.2639813 0.22747113 -0.054981645 -0.08030039 -0.06606809 -0.2802132 -0.091362834 0.15883344 -0.17125168 0.0145248035 -0.11131771 0.17625067 -0.009586592 -0.09602534 0.2604139 0.096838 0.112366 0.06586823 0.1530733 -0.23887663 0.2019265 -0.23433428 0.16270238 0.20411688 -0.28563148 0.068620026 -0.033350926
97 0.18659623 -0.21580012 0.14251806 0.3350856 0.21264692 0.26312712 0.099782735 -0.18944837 0.10849736 0.04209919 -0.015426584 -0.21809554 -0.4838565 -0.30715415 0.06870669 -0.07059181 -0.14722493 -0.034452897 -0.14424105 0.34419918 0.18341354 0.5051933 0.23210993 -0.28766966 -0.10682644 -0.20116921 -0.4274433 0.33461338 0.06247712 -0.06781656 0.21443188 -0.12233629 0.019847197 0.061117224 -0.3329481 -0.25993124 -0.12111498 -0.3240413 0.21597125 -0.20779213 -0.3115088 -0.5037609 0.3027604 -0.45954347 -0.07144035 -0.21064024 0.44475994 -0.068004735 -0.23209193 0.08184572 0.17936037 -0.3533195 0.65698415 0.31453276 -0.029178448 0.32344925 0.084104896 0.20269218 -0.24437614 0.23049188 0.03175609 -0.08460965 -0.3176488 -0.2997673
44 -0.09768014 -0.1256588 0.18713862 0.08038293 0.044352405 -0.1708018 0.21335988 0.23295943 0.048054274 0.19712956 0.31759265 0.025406342 -0.26206216 -0.6944069 -0.32603234 0.06705242 0.5238427 -0.21840607 0.016712463 0.2089897 0.06202722 0.61174965 0.01592329 -0.3858961 -0.16514385 -0.029941272 -0.27496147 -0.067965865 0.31750938 0.31196654 -0.046020918 0.14479767 -0.3496545 0.038859043 0.014120491 0.09751614 -0.13764168 0.16472335 0.23740229 -0.1484884 -0.106868416 -0.14198291 0.15955561 -0.017705128 0.3291555 -0.20368667 0.0017589667 -0.11107456 0.08713775 0.37665856 -0.10482232 -0.22317208 0.28544652 0.31949568 0.19294189 0.3561775 0.12951778 -0.18870449 -0.10502273 -0.0825533 0.08075665 -0.17979689 -0.12730409 -0.0050372626
21 0.06115305 -0.22768146 0.0326482 0.14720629 0.01662882 -0.07076518 0.07702848 0.3357676 -0.10736979 -0.023375377 0.31972814 -0.13894032 -0.13924374 -0.4086831 0.1297478 0.15650365 0.23818439 -0.053416893 -0.057516932 -0.06064242 -0.037340816 0.43975753 0.17371343 -0.15155607 -0.15164596 0.019828387 -0.2737557 0.088621326 0.26216522 0.23208083 -0.04224258 0.24433967 -0.21980761 -0.20089725 -0.008496982 0.089167446 0.06437167 0.12867793 0.39345613 -0.29239818 0.2326876 -0.4198958 0.22549388 -0.08128603 0.20067103 -0.21841416 -0.18108742 -0.2251358 0.33303216 0.19988325 0.10876426 -0.19223072 0.3375371 0.37771207 0.16557193 0.08931611 0.2937672 -0.091624536 -0.15174915 -0.15254559 0.0009154365 -0.14565022 0.11758607 0.010550536
60 0.20311996 -0.14249276 0.091014296 0.1121025 0.10403287 -0.1259155 0.07033317 -0.1336945 -0.16684507 -0.19307289 0.05245099 0.071819976 0.011673175 -0.17585337 -0.39659065 -0.024573788 0.21545352 -0.17300962 -0.32717627 0.1632303 0.25278875 -0.10967389 0.60732377 -0.13565804 0.18225896 0.65549403 0.032829247 -0.1274322 -0.2354482 -0.07526832 0.07543446 0.11424615 -0.13442795 0.05528899 -0.050558627 -0.362377 0.32403305 -0.007803609 0.00041579505 -0.047271688 0.16823344 0.12576957 -0.41204324 -0.14590526 0.3848266 -0.4057929 -0.051726498 0.12300161 -0.098010875 0.028306069 0.017112957 0.123350926 -0.09983433 0.29646122 0.022329709 0.3490139 0.087537035 -0.026663948 -0.47829357 0.21482493 0.17844674 -0.49771512 0.33302224 0.1179346
40 -0.09706718 0.14374633 0.42379674 -0.06432837 0.15316649 -0.12996897 -0.08959103 0.27844876 -0.076657474 -0.044929545 0.0868761 -0.49373555 -0.33599418 -0.16781723 0.27094567 0.10365626 0.11709473 -0.09328448 0.040719874 0.17041045 0.17839326 -0.08902522 0.29986867 0.25599352 -0.39178216 0.12907292 -0.25524363 0.18771453 -0.12120327 -0.14836636 -0.028232226 -0.0023579826 -0.23239139 -0.121508576 -0.12198213 0.11346042 0.28613564 0.07091324 0.12640983 -0.19739439 0.39751884 -0.006512141 0.14587234 -0.14386106 -0.10437025 -0.28464478 0.2786558 -0.34560296 -0.21520144 -0.32487968 0.23136541 -0.22682373 0.3940944 0.32867354 0.35774833 -0.2701597 0.07955932 0.07866521 -0.06887119 0.13646963 0.15425546 -0.10541353 0.3157009 -0.017862184
87 0.212302 -0.12627977 0.03130129 0.23682466 -0.023010075 -0.24450088 0.025869146 0.24055819 -0.11365915 -0.15968354 0.34114105 -0.329162 0.07361449 -0.23889157 0.22407149 0.14420144 0.13493593 0.050527245 -0.0081481 -0.043358386 0.18016969 0.3486353 0.22608654 -0.023488563 -0.22410804 -0.077717 -0.31646797 0.17785144 0.29073432 0.15492335 -0.0910295 0.3463916 -0.10765356 -0.3380786 0.0054978114 -0.0391528 0.3071769 0.17669363 0.44417393 -0.08611666 0.35165358 -0.38712826 0.24136549 -0.27723482 -0.015723225 -0.2153178 -0.22439556 -0.18506561 0.38607883 0.022217862 0.2120046 -0.18897377 0.27100784 0.334213 0.10133627 -0.07776977 0.17284556 -0.026944606 -0.22919603 -0.006660522 0.09959555 -0.14135142 0.16799897 -0.0019529818
13 0.29645583 -0.028580165 0.36166626 -0.18879145 -0.06325148 -0.35750297 0.21945757 -0.25344166 0.03546849 -0.31756675 -0.094816566 -0.12994865 -0.0161844 0.08863548 0.058402177 0.024501022 0.08986536 -0.43217376 -0.018035084 0.19316167 0.31727996 -0.13541369 0.14741041 -0.11428196 0.0079578 0.42542934 -0.44746667 -0.23478848 0.032017536 -0.27691242 -0.08987614 -0.10796057 -0.13495854 0.13870722 0.012946266 -0.22029471 -0.014271282 -0.05524122 0.13492925 0.24780156 0.026851114 0.12064456 -0.10186682 -0.17833982 0.077944584 -0.4686388 0.3314839 -0.24352498 -0.06251769 -0.15585625 -0.18908428 -0.00094524643 -0.011335356 0.33280623 0.41344768 0.24535741 -0.0555299 0.050110463 -0.031906724 0.00022984938 -0.12750246 -0.3164322 0.20312782 -0.09550429
20 0.05522773 -0.17625542 -0.11018224 0.24832128 -0.07092645 -0.24676721 0.19405767 0.1624703 -0.2960915 -0.0064222817 0.36993462 -0.13676383 -0.021343557 -0.3294126 0.014696455 0.06217385 0.10743572 -0.24913085 -0.11341513 -0.04290198 -0.07381513 0.56039166 0.0769199 -0.22914529 -0.15025781 0.0013632427 -0.28981233 0.038875 0.37569132 0.33899724 0.053221237 0.3498 -0.16459174 -0.27776465 0.13282573 0.122910015 0.032183927 0.2693994 0.31000853 -0.18199524 0.22939399 -0.4778591 0.22849904 -0.20812659 0.0837638 -0.25204402 -0.3060382 -0.09559568 0.3824592 0.1926212 0.028797615 -0.17201594 0.2576414 0.4191298 0.19692896 0.08174322 0.3571535 -0.30259338 -0.14625911 0.0063108187 -0.015222746 -0.10172397 -0.016678905 -0.11531121
76 0.053734563 -0.15762517 0.0075623817 0.0647647 0.14190842 -0.1152437 -0.05861361 0.20794882 -0.37206036 -0.06559733 0.15200074 -0.51873636 -0.12079384 0.0028483302 0.15851948 -0.0033037143 0.2982779 0.0017552671 -0.034538038 0.107380465 -0.054992706 0.35936767 0.15270846 -0.25222975 -0.110562645 0.08496705 -0.16395666 -0.061614808 0.2288893 0.16173694 -0.07315256 0.096359335 -0.26087955 -0.20321243 -0.09433401 0.049832653 -0.09427109 -0.1955544 0.0072808284 -0.23431396 0.099422194 -0.38927004 0.14571694 -0.20190565 -0.03321449 -0.35615173 -0.3120178 -0.25854382 0.39617318 0.065127075 0.16090082 0.08041297 0.583172 0.26805043 -0.06026264 0.011735129 0.003439263 0.10132578 -0.056428835 0.24028784 -0.07142891 -0.1358426 0.16195744 0.027029643
68 0.32413578 0.025935516 0.23830482 -0.029791372 -0.03906696 -0.3967741 0.007946963 -0.17636485 -0.17429654 -0.18993326 0.04914431 -0.15716484 0.12556559 -0.0771528 -0.14693421 0.09317916 0.09525511 -0.08638836 -0.20535077 0.13359456 0.30808997 -0.14874883 0.38198 -0.07127029 0.16579679 0.41499922 -0.10750426 -0.21637137 -0.09441366 -0.19864793 -0.009693091 0.17150787 -0.25005236 -0.07084395 -0.12826703 -0.20532939 0.013970445 -0.13458622 0.15535916 0.042278994 0.09222202 0.11248554 -0.2806201 -0.07943501 0.14087242 -0.28227836 0.12208741 -0.047442142 0.089953266 0.025547104 -0.1599055 0.18840343 0.047127213 0.19290212 0.21197021 0.27390662 -0.063985266 0.06225887 -0.16296054 0.0851515 0.06050123 -0.42046684 0.29436848 0.07923644
3 0.36996707 -0.03408559 0.4110321 0.030303586 -0.05160872 -0.29026774 0.22099547 -0.07246295 -0.16757898 -0.2339305 0.30274525 0.035039946 0.2761615 -0.030415991 0.10049054 0.05811098 -0.06775246 -0.045290798 -0.12775145 0.2520586 0.34523895 -0.021140244 0.33389777 0.044795185 0.27637318 0.19626856 -0.05676062 -0.22094944 -0.07134498 -0.2639921 0.053221606 0.31488 -0.07688728 -0.3279812 0.14614023 -0.35863233 -0.0022830903 0.10230554 0.21073782 -0.021118034 0.07815866 0.15935494 -0.205748 -0.4480007 0.10831655 -0.23071614 0.040531892 -0.086184345 0.26748312 0.039607666 0.042409107 0.11142447 -0.091665834 0.38988918 0.11982557 0.3053063 0.06512542 0.089002155 -0.46966857 0.059070814 0.12955756 -0.5809289 0.21124755 0.13808307
51 0.008260473 -0.1470225 0.02358038 0.20320855 0.07479861 -0.11886692 0.07190132 -0.027299479 -0.03190155 0.1495425 0.008682242 -0.016469728 -0.35876954 -0.6744436 -0.38526985 0.02265241 0.36335889 -0.3183205 0.029083015 0.12386845 0.1774688 0.6012079 -0.13838246 -0.4917048 -0.1608053 -0.0150273675 -0.26318228 0.040207162 0.17404594 0.38124803 0.13920005 0.09667116 -0.34519538 0.15995182 -0.15824518 -0.0052355365 -0.1846909 0.19090012 0.022236023 -0.043834645 -0.31270218 -0.07580342 0.07504454 0.026909698 0.3083695 -0.3247919 0.26322675 0.03806648 -0.10921653 0.38234895 -0.23856963 -0.34843263 0.32992095 0.36076072 0.3408567 0.6212046 0.21622217 -0.2183662 0.049671695 0.03595602 0.04924072 -0.13402389 -0.18721485 -0.16605495
64 -0.014551179 -0.18138158 0.05465145 0.09213034 0.05111738 -0.061726227 0.15560018 0.18750261 -0.17776069 0.14194776 0.4176886 -0.02496659 0.0021160953 -0.300024 -0.17736478 -0.03611544 0.32217643 -0.17453438 0.0068797567 -0.052709028 0.23314652 0.4195487 0.20093822 -0.45104495 -0.11983994 0.057235844 -0.13034451 0.011333042 0.3794088 0.27922702 0.0043181446 0.15315251 -0.16253133 -0.014893219 -0.091057695 0.06337109 0.26264283 0.2787716 0.07472252 -0.09508548 0.14435427 -0.35622132 0.049171343 -0.28781188 0.25733367 -0.35995674 -0.20782459 -0.21701707 0.35606727 0.19619565 -0.02650853 -0.04655345 0.20263101 0.34922308 -0.10710412 0.14562069 0.13536318 -0.09186806 -0.51689684 0.07124908 0.17674215 -0.108067475 -0.00015219838 -0.08893242
35 0.30207443 -0.0028499162 0.34816748 -0.12731089 0.020329615 -0.37227672 0.21523294 -0.22882774 0.05046675 -0.2753437 0.0805863 -0.010961181 0.09471191 -0.0029610812 -0.15412809 0.08461628 0.078362994 -0.31379145 -0.1097991 0.29508367 0.27413914 -0.19633254 0.3476118 -0.100352794 0.09644695 0.4190702 -0.28326958 -0.30279216 -0.106323875 -0.36707994 0.033483803 -0.08605404 -0.061349194 0.07608826 -0.0763777 -0.28408957 0.033458535 -0.019284522 0.13359168 0.17538002 0.08888429 0.15646255 -0.11093051 -0.30270395 0.25890628 -0.3420608 0.25302207 -0.12368915 0.019024722 -0.18070503 -0.106359996 0.04877074 -0.09666758 0.37383968 0.27237296 0.3485643 0.007721462 0.079665825 -0.2509917 0.0348629 0.031880457 -0.39319545 0.18040344 0.08512883
41 0.009258501 0.020878864 0.34549546 -0.19649537 0.11166002 -0.31489983 -0.21586905 0.32066473 -0.121659614 0.024734097 -0.19394323 -0.6224942 -0.28206742 -0.029050995 0.26642188 0.3193324 0.17943178 -0.14699116 0.17589538 0.22720759 0.16870157 -0.1688158 0.08124745 0.23998846 -0.38698146 0.016870461 -0.31500503 -0.06941573 -0.029670486 -0.08222281 -0.11260783 0.10499968 -0.32463747 -0.0076220483 -0.086744286 0.15692501 0.1183985 -0.072803 0.108540304 0.030533345 0.4914491 0.01175491 0.06547618 -0.012458825 -0.13146101 -0.3601023 0.1409108 -0.31685266 -0.059922945 -0.09017192 -0.035878785 -0.1164511 0.3766307 0.26125562 0.569499 -0.014453278 0.06048823 0.06902849 0.22828104 0.059332903 -0.11236292 -0.121297345 0.35925257 0.03297728
28 0.24725664 -0.1843178 -0.2048748 0.23596956 -0.074023604 -0.31489062 -0.11645982 -0.12208651 -0.19917099 -0.15954378 0.0039092535 -0.22469364 -0.08267231 -0.23305911 -0.05438117 0.105034895 0.0071542305 0.029052379 -0.044399206 0.25696415 0.08382925 0.08609726 0.26911822 0.20745152 -0.26955435 -0.044328153 -0.2584877 -0.19116914 0.17878151 0.08908427 -0.10933191 0.3423109 0.13499287 -0.016989484 -0.03650401 -0.12609878 0.13676347 0.12925336 0.51198053 0.2924726 0.56917083 -0.10386863 -0.0473134 -0.26083738 0.11658045 -0.20866956 -0.002075176 0.17094956 -0.13490403 0.091527194 -0.1952781 -0.052610897 0.077566914 0.20072456 0.18335204 0.16509308 0.17820731 -0.14900193 0.20699292 0.0026531292 -0.07601669 0.010508695 0.14039035 -0.055800542
45 -0.13134947 -0.17142497 0.21928449 0.060760323 0.019728832 -0.02246881 0.15145801 0.17183979 0.06789087 0.17775373 0.07141994 -0.018398155 -0.3798445 -0.56685776 -0.23357289 0.064938314 0.46923316 -0.27031836 0.13542546 0.16834171 0.25744116 0.6335469 -0.1617349 -0.5274539 -0.08934648 -0.08484058 -0.3964257 -0.02538704 0.2728346 0.32223415 0.03983007 0.0816717 -0.38081217 0.17781632 -0.12516308 -0.004480732 -0.1482394 0.090671524 -0.058664776 -0.08090817 -0.28591874 -0.01640883 0.19698548 -0.05707613 0.23204581 -0.34989738 0.19991678 -0.15968771 0.014870654 0.41804484 -0.10400114 -0.31612042 0.28808936 0.28254268 0.3143803 0.5571041 0.19483684 -0.1174482 -0.015200873 0.02247663 0.025158906 -0.27420315 -0.13052684 -0.14229758
104 -0.023424106 -0.14704068 -0.079878464 -0.039345212 -0.079506665 -0.3544742 -0.3468768 -0.15892284 -0.5980267 -0.14529188 0.07606552 -0.61640257 -0.007885726 -0.10484678 -0.15439062 0.051807925 0.089522734 0.096454635 0.016316839 0.09860767 0.011537309 0.3724039 0.26885644 -0.12862772 0.122601844 0.33954212 -0.13446525 -0.33830878 0.30765653 0.11792602 -0.193884 0.12274129 -0.09846608 -0.020556174 -0.29338303 0.1655069 -0.14219847 0.027424728 0.06372818 -0.286063 0.28455725 -0.3953811 -0.20446518 0.02148085 0.17603037 -0.3913536 -0.3031297 -0.15074952 0.29948184 0.10510687 -0.119275615 0.10825165 0.34715706 -0.024612745 -0.108579226 -0.24745335 -0.10731313 -0.16531697 0.036447693 0.27335396 -0.0034277977 -0.16803548 0.06822571 -0.11593722
31 0.4030033 -0.22922783 -0.07142488 0.4460295 -0.02684776 -0.30862388 0.024415895 0.004128433 -0.2035772 -0.04359899 0.08519532 -0.2680465 0.024191434 -0.41741627 0.11320958 0.1680475 0.062454704 0.10543413 -0.120172456 0.026547676 0.20328979 0.20753247 0.22441071 0.29565006 -0.18268974 0.10272402 -0.2839086 -0.03006263 0.06341498 0.18362075 -0.2796711 0.36925676 -0.07863218 -0.15913445 0.096143745 -0.09851243 0.3607496 -0.0488152 0.59530693 0.19249026 0.44451782 -0.20759888 0.0011439815 -0.1973905 -0.15967622 -0.19149868 -0.09628362 0.020906707 -0.10833963 0.09554796 0.20030126 -0.13939935 0.21647878 0.21239488 0.15553366 -0.09160662 0.07951759 0.030412817 -0.20582406 0.030171126 0.050648738 -0.19596525 0.33117354 -0.040529657
25 -0.048148498 -0.28375167 -0.18544887 0.21644431 -0.03418044 -0.30097255 -0.1446043 -0.48539594 -0.25837415 -0.24706489 -0.019363439 0.005959707 -0.12102849 -0.32882336 -0.4175821 -0.11955913 0.09968918 -0.015474861 -0.023790754 0.33717933 -0.1228877 0.110749684 0.24078292 -0.2439397 -0.22343624 0.18493779 -0.079961605 -0.13180017 0.29426083 0.10716506 0.25621197 0.02472814 0.12301734 -0.017328272 0.07992066 -0.20929518 -0.17685616 0.23565154 0.12297136 0.15211771 0.27188686 -0.11594526 0.0054566306 0.00979641 0.53274614 -0.15767454 -0.11194976 0.19427817 -0.09301547 -0.10013944 -0.53147256 -0.16668944 0.05091424 0.41940916 0.14241384 0.37326327 0.07767485 -0.32512662 0.3097546 0.35033622 -0.13059482 0.15239562 -0.28491443 0.11785866
43 -0.10767795 -0.07980196 0.13977508 0.23256885 0.031176046 -0.044822928 0.17112108 -0.014664576 -0.015067758 0.15817301 0.20673315 -0.042282548 -0.41064206 -0.49798363 -0.23249803 0.081647575 0.2582671 -0.1986795 0.1408831 0.23750204 0.24119976 0.67851204 -0.023706818 -0.6397713 -0.07565655 -0.29848307 -0.34746835 0.09282592 0.19107068 0.26943102 0.19319199 0.22357601 -0.24792367 0.20035331 -0.17778942 -0.17436509 -0.05828886 0.053965617 0.05445491 0.010849519 -0.32586837 -0.14230244 0.28595397 -0.054902423 0.08333507 -0.32228285 0.12313984 -0.052823585 -0.026047727 0.54087156 -0.09237516 -0.27687213 0.24580827 0.1885542 0.26139092 0.664353 0.18281984 -0.1640482 0.010872915 0.34476614 0.081889786 -0.13133599 -0.28428322 -0.2248963
99 0.10616975 -0.29688087 0.013884149 0.44292516 -0.022326142 0.07502104 0.00039973386 -0.14660166 -0.20852457 -0.018544324 -0.1852656 -0.39432937 -0.39708558 -0.06847461 0.24827676 0.23109151 -0.356707 0.19219327 0.043285552 0.19047852 0.19259672 0.53042084 -0.024483774 -0.3037726 0.22563729 -0.3886604 -0.39147285 0.02375939 0.2950948 -0.17267862 0.27079296 0.08451715 0.11901913 0.04862474 -0.42872322 -0.20108426 -0.24407317 -0.05901179 -0.08350094 -0.023736548 -0.23672137 -0.5172274 0.48248675 -0.19852065 -0.16387594 -0.22776343 0.2661978 -0.08432063 -0.16621447 0.36014307 -0.20531811 -0.31108305 0.6840281 0.13918637 0.18112707 0.5753552 0.10637405 -0.0025850325 -0.13805263 0.5753269 -0.17171885 -0.14570914 -0.21472254 -0.20418644
112 0.24627985 -0.24742381 -0.099767245 0.35140324 -0.17266089 -0.3202942 0.060013086 -0.41277063 -0.45901278 -0.38882157 -0.334208 -0.54544276 -0.10796622 0.20954365 0.43192622 0.32410663 -0.37014833 0.2235835 -0.057070997 0.15758292 0.007508731 0.2768746 -0.024134694 -0.21443425 0.35260606 0.06776714 -0.5021257 -0.23288324 0.10461081 -0.22906426 0.027256628 -0.1060968 0.08437758 -0.03594353 -0.19741306 -0.07363915 -0.4199576 -0.14531048 -0.06652756 0.004496797 -0.107718766 -0.46621737 0.38872802 0.07856175 -0.27609247 -0.26555887 0.10328743 -0.071023285 -0.16013022 0.090802565 -0.1375061 -0.10683966 0.66594493 -0.003704415 0.19059235 0.18878086 -0.030183474 -0.05416544 0.14053757 0.582509 -0.32941338 -0.16128571 0.053346056 -0.13512279
100 -0.09755685 0.09341137 0.037721835 0.14354561 -0.06574843 -0.31399867 -0.14626169 -0.3925533 -0.5649738 -0.3798048 0.24004947 -0.7066118 -0.12198084 -0.10607664 -0.21017115 -0.007781558 -0.051208444 0.1604761 0.09331001 0.48299116 -0.13694143 0.51052684 0.38599145 -0.30008924 0.21852155 0.29273835 -0.1483899 -0.50683695 0.093910225 -0.046188932 -0.18126827 -0.03299615 -0.030285861 -0.16516712 -0.20122798 -0.0046727243 -0.33362427 -0.1622161 -0.10443594 -0.330603 -0.07475755 -0.39323056 0.04266358 -0.04220266 -0.033770427 -0.30381733 -0.31023595 -0.19694702 0.14269133 0.040305525 0.05636675 0.13747393 0.43286476 -0.10458705 -0.26633477 -0.27147454 -0.2728074 -0.015244935 0.068423614 0.6814899 0.07318557 -0.12983689 -0.041741107 -0.04316499
23 0.118696116 -0.15152635 -0.14566985 0.14420791 -0.10388023 -0.376188 -0.03825366 0.034871355 -0.2442821 -0.21628599 0.09816466 -0.37766024 -0.09940881 -0.3180992 -0.011460362 0.24262129 0.14469326 -0.06303127 -0.17817804 -0.048744235 -0.22169937 0.5201591 0.19087826 -0.13936363 -0.13636102 -0.015043264 -0.1288716 -0.02629852 0.19653904 0.17419507 -0.03649341 0.2552103 -0.21566658 -0.11919836 -0.12833627 0.16121262 0.08946663 0.16504869 0.40784553 -0.15295488 0.28701812 -0.4777018 0.13982852 -0.012714961 0.16993447 -0.18942255 -0.37312785 -0.059333112 0.34888607 0.3461083 -0.087778024 -0.048455976 0.17352828 0.1682747 0.14194417 0.1881758 0.27529514 -0.36880517 0.04765674 -0.019143833 0.016786724 -0.06321204 0.04721987 -0.06771228
102 0.016309999 -0.16564709 0.032675743 0.1370853 -0.03308245 -0.26795492 -0.24617511 -0.3362128 -0.6041224 -0.24258628 -0.0834305 -0.6245934 -0.04669773 -0.14120468 -0.15745375 0.11624659 0.055403188 0.20273109 0.17146441 0.20554073 0.018110739 0.48329705 0.23091683 -0.13514547 0.30697966 0.4553887 0.012367836 -0.5304493 0.10089299 -0.22787902 -0.26561168 -0.13061513 -0.16502929 -0.058827344 -0.2082434 -0.01500385 -0.22151582 -0.010110806 -0.20101008 -0.22955626 -0.06851893 -0.31969032 -0.14480004 0.06935215 0.105042994 -0.32748368 -0.2861687 -0.19870842 0.17307553 0.19000658 -0.036258873 0.073376626 0.45155656 -0.10309942 -0.093035676 -0.12567218 -0.33988288 -0.06139959 -0.1293697 0.5703845 0.09550699 -0.2544575 -0.08552 -0.0323163
53 0.13283603 0.0004117312 -0.046009477 0.07311611 -0.09277812 -0.35386685 -0.05496483 -0.24197502 -0.40539515 -0.41331756 -0.12297422 -0.59273416 -0.08573467 -0.10114219 -0.0016915248 0.041458607 0.090697885 0.24256155 -0.16543949 0.32273582 -0.015678735 0.46012855 0.07864125 -0.1479086 0.17032085 0.25541973 -0.11112111 -0.27826545 0.063270636 -0.034233224 -0.21270677 -0.050748345 -0.34621894 -0.2828379 -0.28749076 -0.12705451 -0.21407568 0.013172691 0.11951529 -0.15722896 0.029204093 -0.22515076 -0.082380876 0.09983412 0.099150725 -0.25191417 -0.150322 -0.18614075 0.14196996 0.08671828 -0.033657562 0.2628654 0.29941732 -0.1108769 -0.041464675 0.2120673 -0.15356743 -0.051528413 0.22047189 0.37682286 -0.0667805 -0.08977078 -0.013927191 0.0066630733
52 0.15417795 0.029608099 0.08026523 0.13070832 -0.04491356 -0.3921392 -0.15940182 -0.044935502 -0.30863443 -0.043071643 0.14551313 -0.43828794 0.012576632 -0.24424468 -0.020922123 0.08591652 0.11624222 0.047877178 -0.14955531 0.14186776 0.3306167 -0.15371642 0.4187992 0.085607864 0.040425055 0.13488995 -0.118281595 -0.11167742 -0.15992323 -0.280615 -0.16559112 0.3713149 -0.1302679 -0.05148946 -0.33629125 -0.19060947 0.15601902 -0.12568936 0.19727209 0.02782102 0.2407222 0.012194108 -0.23861054 0.013193879 -0.057657395 -0.14649685 0.024558287 0.004573031 -0.035456866 0.41481048 -0.08774768 0.21694419 0.20052025 -0.02542907 0.065433204 0.13720457 -0.12468781 0.14173079 -0.026826248 0.24768491 0.14465053 -0.20390138 0.34840244 0.09622454
48 -0.14769937 -0.14385188 0.14467351 0.090783335 -0.014441759 -0.046809673 0.11439381 -0.0035268425 0.0038015172 0.18135363 0.019412808 -0.04210442 -0.44126314 -0.5311849 -0.30716512 0.08042286 0.32469368 -0.36117807 0.04482514 0.15325157 0.15883882 0.5894766 -0.0029538332 -0.5517589 -0.0471022 -0.08023966 -0.34417564 0.03933111 0.22296016 0.20503052 0.16932353 0.10843352 -0.29401258 0.26610407 -0.20510465 -0.065117255 -0.18877354 0.052613676 -0.0655921 -0.09568846 -0.33081725 -0.14524642 0.17415322 -0.017559912 0.21598095 -0.3452569 0.19468324 -0.075793035 -0.071207814 0.4580406 -0.2424303 -0.30551934 0.26775625 0.27481776 0.31689245 0.64080256 0.22966284 -0.23174883 0.074153654 0.15196414 0.005747167 -0.20239437 -0.2107216 -0.19379145
10 0.399245 -0.15474634 0.011098405 0.13342911 -0.12378304 -0.36956847 -0.00541736 -0.10055006 -0.18371718 -0.29318866 0.038985256 -0.24726747 -0.054875206 -0.08399866 0.10248881 0.11890673 0.13826877 0.08735111 0.02557986 0.18061724 0.2203175 0.13847542 0.41312397 0.22276172 -0.19593646 0.07134965 -0.15143141 -0.13658829 0.16949101 0.1150569 -0.21406353 0.39987054 0.114021145 -0.04631728 0.11043885 -0.31332317 0.3201063 0.027481364 0.47320387 0.27309275 0.5942253 -0.011408883 -0.089606255 -0.21273994 0.046051793 -0.3787372 -0.13197 0.025873046 -0.04899507 0.097786896 0.064933985 -0.119018875 -0.10888959 0.167443 0.070018604 -0.053248893 0.11276325 -0.14081162 -0.031985335 -0.0067777475 -0.005570188 -0.16339606 0.2879055 -0.015590318
98 -0.005272554 -0.29477495 0.16298056 0.24866761 0.029588673 0.08879461 0.014800515 -0.21228789 0.08160033 -0.06196074 -0.26193663 -0.14878736 -0.3074479 0.027341392 0.16697466 0.19077651 -0.33737683 -0.07023212 0.122973226 0.2370712 0.2567207 0.3029452 0.040791776 -0.25732172 0.25095218 -0.1512278 -0.4457359 -0.0016207122 0.24376996 -0.4334682 0.0876995 -0.120054185 0.14253557 0.24345659 -0.39255342 -0.24977295 0.04436922 -0.08679373 -0.06746109 0.19271915 -0.15989813 -0.3003775 0.4291424 -0.28547743 -0.11428401 -0.15656583 0.28390113 -0.22847123 -0.007903131 0.18256712 -0.16938889 -0.2089435 0.34988332 0.20333092 0.17414528 0.56922835 0.05262734 0.14846277 -0.2800911 0.37006178 -0.013379697 -0.23225474 -0.17541048 -0.24008861
73 -0.17019053 0.04843295 0.6077863 -0.21959426 0.0993282 -0.2720279 0.18169549 -0.008333217 -0.059835076 -0.16101474 0.012849799 -0.10351496 -0.14560838 0.08379332 0.30754828 0.13611068 0.18109842 -0.3206373 0.16310593 0.25940683 0.2684586 -0.32035366 0.2639319 0.102943495 -0.1519515 0.43647552 -0.3291308 -0.27434164 0.044847153 -0.5304883 -0.1035786 -0.20463906 -0.034688205 0.25402516 -0.15695179 0.08958858 0.11759395 0.21952115 -0.05086504 0.114319645 0.41835797 0.3185466 0.10574538 -0.2096065 0.20637816 -0.44201988 0.32752767 -0.42555672 -0.079246886 -0.33686745 -0.19051407 -0.16534229 0.08935337 0.47627035 0.34773403 0.060794726 -0.06941361 0.063591756 -0.053950332 0.10246755 0.033128027 -0.2659398 0.29663542 0.18568884
82 0.38852757 -0.19358708 0.27124915 0.10328629 -0.22221717 -0.48077816 -0.11218629 -0.27357873 0.046625074 -0.2744017 -0.1638676 -0.37242782 0.046262424 -0.19091792 0.24013111 0.36952564 -0.101598814 0.01710755 0.22328703 0.18363515 0.12449589 0.06627482 0.023689954 0.31436807 -0.07727261 -0.043790027 -0.31365028 -0.33709416 0.15183935 -0.3170466 -0.17899917 0.15322408 0.029801216 0.020787993 0.11286858 -0.08360081 0.044672493 0.053687237 0.37526828 0.35757288 0.18482639 -0.03481969 0.16871233 -0.13149542 -0.12451366 -0.09792743 0.044913445 -0.07819742 0.06412243 0.014340254 -0.20430127 -0.25637478 0.09748402 0.19088571 0.45395905 0.14317845 -0.085093506 -0.053993914 0.18095054 0.13074388 -0.06919546 -0.19427904 0.042997092 0.058332194
93 -0.03618756 -0.2107227 -0.19437325 0.06652648 -0.01253837 -0.28899887 -0.37417048 -0.22790866 -0.4935117 -0.305476 0.02636389 -0.6140573 -0.12934314 -0.16428083 -0.26992056 -0.045673132 0.17093027 0.1733904 0.05578718 0.32954568 -0.09700787 0.38044402 0.26574856 -0.14966807 0.024076447 0.18415491 -0.281483 -0.3398325 0.34586006 -0.03936726 -0.28200418 -0.013519313 -0.06613966 -0.014526056 -0.27466765 -0.075700186 -0.06933091 -0.06937825 0.23114629 -0.018168015 0.20300761 -0.37564585 -0.021238277 0.00874402 0.1957566 -0.26574516 -0.3113553 -0.11200095 0.25449023 0.037818212 -0.11345739 0.14152768 0.32895097 -0.15163161 -0.068781145 -0.03273738 -0.2648996 -0.16054882 0.32638088 0.47300526 -0.08564703 0.046168987 -0.22102462 -0.11197307
42 -0.23426622 -0.16050461 0.266688 0.20742239 0.024002163 -0.015633931 0.21328562 0.14598763 0.09900257 0.19731887 0.1358414 0.044530258 -0.45464632 -0.66590136 -0.21962124 0.08659267 0.34688908 -0.20249191 0.22531784 0.31613523 0.20667256 0.7319382 -0.041106902 -0.38989094 -0.113508806 -0.19952042 -0.41565603 0.026107209 0.3265582 0.19325703 0.003970727 0.14350536 -0.22639757 0.23101386 -0.0764887 -0.042358946 -0.07103162 0.10702758 0.07328626 -0.014143897 -0.23890916 -0.016430795 0.3205884 -0.19184972 0.20136234 -0.22566846 0.22924025 -0.12494396 -0.063585296 0.47239232 -0.10404728 -0.42621595 0.22937106 0.26890743 0.2644593 0.49467313 0.14769647 -0.17683724 -0.06095453 0.11774179 0.13158497 -0.24595454 -0.22790472 -0.14407794
49 -0.25305945 -0.078114115 0.17031707 0.20086221 0.034832396 -0.071682274 0.01839881 0.08258203 -0.0093191415 0.31089222 0.13906284 -0.041044492 -0.38603482 -0.6429618 -0.47368154 0.040876728 0.2447468 -0.21418862 0.13587263 0.30878988 0.27943638 0.54331666 -0.07479237 -0.46601552 -0.10900692 -0.17610262 -0.35207447 -0.12730119 0.3188032 0.17329453 0.09642111 0.1276115 -0.25995156 0.2507854 -0.24433587 0.045314923 -0.15425749 0.11860975 0.04244781 0.023421785 -0.27317882 0.00558033 0.16161035 -0.06535488 0.24531822 -0.19077227 0.27653742 -0.01624758 -0.13109201 0.45832887 -0.3264834 -0.2636902 0.2850312 0.23214506 0.27078277 0.64426756 0.06876979 -0.10118286 0.058028955 0.20119323 0.102573015 -0.12824371 -0.23790856 -0.13761592
4 0.21888174 -0.09416104 0.09336347 0.27417254 0.09212068 -0.06416287 0.115327515 -0.071612604 -0.2120226 0.030875603 0.33713502 0.15975742 0.15604222 -0.37831637 -0.31892663 0.093191974 0.09043138 -0.0013652574 -0.2818486 0.23698746 0.29654482 -0.023462856 0.58341 -0.03491556 0.06505419 0.31736344 0.039079547 -0.27542987 -0.2778541 -0.163285 0.054684207 0.30024186 -0.06016591 -0.059265103 -0.04607603 -0.36983064 0.42137465 0.122900136 0.19610007 0.025597641 0.236343 0.10930411 -0.340497 -0.30029655 0.39917505 -0.2724766 -0.012505075 0.12230809 -0.046059184 0.055587582 0.15548956 0.0653464 -0.1506607 0.27680483 -0.0050705266 0.32630584 0.14682655 0.104819156 -0.47224075 0.16264191 0.2618305 -0.41635898 0.23178342 0.16407423
109 0.06982697 -0.24281995 0.1004587 0.3150743 0.05406249 0.19300453 -0.03565469 -0.02548702 0.012086296 0.013507976 -0.08377964 -0.329007 -0.4966053 -0.24017271 0.14122525 0.114749394 -0.31639898 -0.033678398 0.08152639 0.30637753 0.18832894 0.57474554 0.09968396 -0.21401708 0.2467552 -0.41692963 -0.5094878 0.21234128 0.25178656 -0.160454 0.18568672 0.15794237 0.07267791 0.11242338 -0.39238325 -0.3052186 -0.06885397 -0.22946857 0.06987833 -0.07650201 -0.34257528 -0.43607315 0.40665844 -0.3841496 -0.21071585 -0.22533654 0.36039782 -0.12915072 -0.05470377 0.40904924 -0.02954743 -0.3614524 0.538867 0.20128433 0.17925377 0.52000284 0.16455303 0.08846633 -0.1979271 0.40021133 -0.11328088 -0.22414185 -0.25773266 -0.36259985
86 0.111581996 -0.13651565 0.0898797 0.2859167 0.053112064 -0.008773749 -0.079103 0.18484096 -0.007630342 -0.12889303 0.13349056 -0.34233963 -0.18101136 -0.09312203 0.3684907 0.1677112 0.17050649 0.06924773 0.08591851 0.023072619 0.19827628 0.26211855 0.25482073 0.076581426 -0.2973653 0.0104971565 -0.2510252 0.16309488 0.034030486 -0.13015132 -0.11394344 0.13119343 -0.090011224 -0.0491027 -0.028779045 -0.22525193 0.45479107 0.043877732 0.21972467 -0.014781606 0.22464292 -0.07435321 0.2573706 -0.2781777 -0.10512511 -0.2696353 -0.16660337 -0.18824647 0.10215474 -0.025405278 0.41852495 -0.25869313 0.24312651 0.24877487 0.158789 0.03715445 0.06641609 0.11118578 -0.08298715 0.30609944 0.14918059 -0.021320319 0.20202288 -0.014813846
79 0.17254774 0.014284105 0.3713581 -0.15870269 0.22860081 -0.060915448 0.15515225 -0.14392795 0.11278617 -0.092072606 -0.039819527 -0.18391646 -0.21476182 0.24394241 0.22001132 -0.015394618 -0.016932275 -0.24949206 0.06737477 0.46210065 0.36658505 -0.21453485 0.16228136 -0.11726679 -0.26285416 0.0022401758 -0.3483536 -0.31622976 0.042655338 -0.49922574 -0.023241328 -0.16682948 0.02232307 0.25875843 -0.30443677 -0.3015488 0.07200021 -0.049499672 0.1504885 0.41971433 0.14076793 0.12570915 0.098399185 -0.41672072 0.06255818 -0.46201977 0.5255863 -0.27194667 -0.24967673 -0.23282036 -0.07711759 -0.11224809 0.1827994 0.3863882 0.22844458 0.4418019 -0.10893763 0.36514494 -0.06849614 0.11743576 -0.110126294 -0.085335955 0.064893395 -0.03861131
101 -0.039871894 -0.19915818 0.04141666 0.035422973 -0.041329533 -0.35889876 -0.4084193 -0.20836715 -0.55857754 -0.17996632 0.11926886 -0.645599 -0.05980706 -0.24250686 -0.46346655 0.042120993 0.23624356 0.13792382 0.2157355 0.31493023 -0.04409631 0.41769674 0.3370263 -0.25617373 0.18525109 0.32006574 -0.009132111 -0.57213384 0.20403928 -0.04256651 -0.21231206 0.0071228333 -0.09502512 -0.10247233 -0.023630092 -0.066907324 -0.18139145 -0.12293803 -0.16711196 -0.18962711 -0.018892294 -0.3021443 -0.15576288 0.05445486 0.22849248 -0.27557358 -0.45998195 -0.14751983 0.26636997 0.18739212 -0.020390894 0.11511298 0.32726368 -0.03340834 -0.10916984 -0.11104687 -0.3210675 -0.09548697 0.00815772 0.5397539 0.08982105 -0.20440164 -0.070469715 0.052455563
110 -0.1460951 -0.22656378 0.15567736 0.2572351 -0.036854707 0.21705449 0.18581396 -0.14806455 -0.10338156 0.18148668 -0.04733459 -0.18829428 -0.3452773 -0.18877508 0.14679086 0.0023876026 -0.28037357 -0.22314915 0.021034477 0.21827012 0.39565322 0.538253 0.030975755 -0.32975516 0.13860355 -0.2201764 -0.5340987 0.116297685 0.31785566 -0.1207357 0.17871337 0.034558356 0.07599176 0.25280628 -0.44398648 -0.1771511 -0.19661257 -0.007779419 -0.053572398 -0.06605259 -0.26585093 -0.36042994 0.2665612 -0.3959591 -0.065228395 -0.39478278 0.43367943 -0.1749531 -0.10706779 0.35325506 -0.20783748 -0.2999494 0.432259 0.19882636 0.109808326 0.44042128 0.12810843 -0.018068967 -0.10658357 0.2763172 -0.13371022 -0.19760856 -0.33305195 -0.46227512
30 0.17784394 -0.13311055 -0.22628371 0.5258208 0.015256835 -0.21741065 0.042867992 0.11018352 -0.42654604 0.061519723 0.09484294 -0.12943861 -0.051699437 -0.58800554 0.0093166735 0.1258348 0.2640669 0.3421074 -0.048353516 0.17551453 0.2938703 0.24846284 0.38653675 0.33595514 -0.14265405 0.16083208 -0.16279301 -0.15484948 -0.031107139 0.2851138 -0.38882178 0.5873176 -0.25539532 -0.00037389356 -0.021037923 -0.22633931 0.45372924 0.13242868 0.63724875 0.22549748 0.688547 0.06766885 -0.28424367 -0.019446662 0.124177225 -0.28111467 -0.013346953 0.20355241 -0.45003766 0.4153358 0.1306018 -0.022625435 0.061266776 -0.01505918 -0.025948137 -0.105237424 0.1599186 0.014076709 -0.21864754 0.045493204 0.081433564 -0.2817997 0.46961865 -0.06431419
105 -0.117582776 -0.31366372 0.040180184 -0.06840214 -0.053191636 -0.20678325 -0.4150746 -0.31811133 -0.6879216 -0.10994439 -0.052671798 -0.6373495 -0.04669423 -0.13796334 -0.21913211 0.13162379 0.088790074 0.18925022 0.1643505 0.20891176 0.016468175 0.47031853 0.22152635 -0.20489681 0.20447977 0.46686965 0.039166432 -0.5711093 0.28835273 -0.10253122 -0.30939946 -0.1034698 -0.1345443 -0.050871283 -0.29225382 0.12688716 -0.16231991 0.05992495 -0.11603741 -0.27285475 0.1557327 -0.47042033 -0.32049713 0.104744725 0.34511444 -0.4061537 -0.27798027 -0.31538925 0.27600926 0.06573024 -0.12470432 0.10526626 0.4101356 0.0015892846 -0.15614179 -0.25871918 -0.24863976 -0.04849831 -0.06838743 0.3177499 0.12532848 -0.20161377 -0.09015113 -0.042789437
96 0.06515959 -0.20427622 0.21448784 0.28497145 0.037477672 0.21143976 0.1967435 -0.1508462 -0.003722451 0.101938955 -0.030771337 -0.20759368 -0.4333436 -0.24544112 0.23592824 0.11117782 -0.14737938 0.121263504 0.022581879 0.29168016 0.27656168 0.44835058 0.12595978 -0.43032578 0.11897315 -0.39356917 -0.44442636 0.18740919 0.24691536 -0.28390503 0.17160138 0.013993302 0.042063132 0.18508503 -0.6051152 -0.23947933 -0.0677984 -0.15429206 0.15197118 -0.02075129 -0.26023367 -0.5119158 0.41142806 -0.27382633 -0.0189741 -0.21301518 0.4403845 -0.23240454 -0.13754734 0.37333432 -0.15379278 -0.2582153 0.53083575 0.11038263 0.05864859 0.63689286 0.07333013 0.17100118 -0.15270555 0.27051333 -0.0724141 -0.10297708 -0.42416176 -0.28349587
114 -0.17506866 -0.1364411 0.1963038 -0.15780355 0.06362749 0.000983226 -0.35061905 0.11593121 -0.6119103 -0.0751271 0.13689314 -0.77631986 -0.3586978 -0.22142255 -0.18793732 0.057592683 0.19570981 0.16374153 0.11505818 0.3988004 -0.12218882 0.3624515 0.5559245 -0.34193087 0.17424393 0.32060254 -0.16481438 -0.44012555 0.21950707 0.0969055 -0.2943836 -0.0467521 -0.2904392 0.0353604 -0.37075245 0.23868787 -0.092643216 -0.40419427 -0.038169395 -0.5661007 0.09872014 -0.48789793 -0.1278906 -0.060198426 0.082770705 -0.3842667 -0.31444427 -0.44027647 0.2451193 0.034405816 0.11734043 0.31879905 0.59037733 -0.10530987 -0.3385654 -0.28636196 -0.16923353 0.10365298 -0.015179476 0.3345949 0.005726254 -0.15041988 0.07365981 -0.08209714
77 -0.05303951 -0.28276482 0.035147734 0.036797855 0.1566131 -0.03961226 0.008459386 0.252551 -0.36307606 0.0021912472 0.15534788 -0.47322273 -0.28178492 0.03042592 0.18343994 0.027940972 0.31899077 -0.19026314 0.0656589 0.1922935 -0.03977477 0.39163494 0.16095349 -0.09956522 -0.35143852 0.11460834 -0.13971102 -0.033193298 0.25537312 0.089835085 -0.14324443 0.034429062 -0.14803942 -0.19987978 0.11717882 0.091259696 -0.008838311 -0.15537894 0.14718951 -0.13915353 0.41258037 -0.44959283 0.077632084 -0.22175719 0.054828547 -0.37200084 -0.3252435 -0.2789606 0.27540705 0.101080075 0.17741457 0.064378284 0.5053782 0.34922704 0.10046513 -0.12649843 0.0670006 0.030926794 -1.2760545e-05 0.10934168 -0.12418238 -0.018063972 0.11948281 -0.06016752
27 0.24748287 -0.124194354 -0.16694458 0.35305372 0.2357681 -0.19369544 0.13289204 0.1239591 -0.5250761 0.024208978 0.105849735 -0.11994102 -0.116183765 -0.18069363 -0.13080612 -0.120997876 0.39429224 0.2526089 -0.1619558 0.19032079 0.63684267 -0.104251325 0.5638595 -0.019640129 -0.041184258 0.33704498 0.1761973 0.06777848 -0.17296015 0.17254728 -0.15571755 0.40597862 -0.31207323 0.030195346 -0.32428864 -0.43583626 0.5200967 0.00934715 0.14007454 0.22443561 0.6979164 0.16136664 -0.4888866 -0.0915524 0.21412434 -0.47089446 -0.0058341622 0.10632267 -0.37888017 0.46138513 0.020013249 0.33714202 0.11581433 0.08968571 -0.20968916 0.24909347 0.08434675 0.17121066 -0.58207434 0.24359828 0.10108933 -0.24399486 0.46643612 0.027854925
83 0.42690137 -0.19107132 0.06444368 0.17506714 -0.060830016 -0.33612698 0.051817436 -0.20977099 -0.14986658 -0.3028774 -0.32418185 -0.4662355 -0.09812024 0.07022507 0.44134116 0.35448998 0.11710322 0.10991889 0.07406013 0.3197943 0.093525134 0.09639601 -0.007027577 0.1175475 -0.36763188 -0.027698755 -0.15922877 -0.17434931 0.023848267 -0.09114776 -0.08979754 0.05484966 -0.06316157 -0.26187003 0.052945297 -0.11189255 -0.03733548 -0.056583013 0.23648563 0.32838404 0.46748632 -0.24487683 0.11447135 -0.02277248 -0.033621993 -0.23519677 -0.0024159844 -0.1374781 -0.037068464 -0.069527596 -0.15010935 -0.009798611 0.34462234 0.19799933 0.4204723 0.20321786 0.020528423 0.013639674 0.34483352 0.14679131 -0.17777577 -0.00094093365 0.12204172 0.22818115
24 0.06799356 -0.3170299 -0.0635562 0.34309095 -0.33143067 -0.39821082 -0.2024346 -0.26814798 -0.4106638 -0.1798271 -0.26677907 -0.31682172 -0.07498081 -0.20664388 0.24074242 0.49039924 -0.17262493 0.13740484 0.13654517 0.13272159 0.017768875 0.31785184 0.06648614 0.29217887 -0.35430086 0.0074716755 -0.12861958 -0.27865338 0.31292593 0.16572101 0.061178334 0.3018088 0.11734886 -0.124060035 0.24952552 0.18722229 -0.03609013 0.392152 0.27443108 0.1816526 0.509017 -0.04886073 0.0921744 -0.05387948 0.19992132 -0.18893291 -0.18581274 0.17431276 -0.04789 -0.006362463 -0.41329885 -0.3708944 0.12072926 0.44193506 0.47145802 0.09709233 0.2681156 -0.4822538 0.47957063 0.08234312 -0.14053014 -0.1498043 0.05742038 0.12120215
95 -0.06397946 -0.07385412 0.19606116 0.16060598 0.052770223 0.23504211 -0.03924905 -0.333999 0.16322833 -0.00079768355 -0.15686005 -0.1427268 -0.34294632 -0.09798072 0.04396762 -0.041803155 -0.38329306 -0.27632907 -0.20780787 0.05368644 0.47331366 0.23161985 0.44048953 -0.16665757 0.025669562 0.16767415 -0.60360885 0.40320805 0.05821237 -0.27774525 0.06685342 -0.20652443 0.11011996 0.3293848 -0.5299382 -0.28643778 0.34120342 -0.062254433 0.11383195 -0.093624204 -0.12084839 -0.22984223 0.11074771 -0.49427566 -0.053495098 -0.39768812 0.59322864 -0.27610898 -0.34863088 -0.19468725 0.12525475 -0.39367956 0.15925924 0.25669917 0.120394535 0.05928388 0.10663298 0.07825925 -0.3169088 0.17510156 0.18495022 -0.23604938 -0.10745478 -0.51040286
103 -0.3869599 -0.27370977 -0.20149055 0.22397424 0.09654934 -0.24611318 -0.32225612 -0.3759869 -0.9542828 0.12926275 0.0038905463 -0.35418424 -0.106224336 -0.23045515 -0.54203355 0.034274872 0.1772498 0.35034013 0.018136144 0.31829768 0.024366232 0.13102566 0.49302372 -0.28384 0.0954112 0.6560395 0.12635285 -0.5671735 0.3578631 0.16807017 -0.045144934 -0.03338957 -0.07463812 0.20952906 -0.3606343 0.19451883 -0.09003509 0.3095985 -0.2706642 -0.1855329 0.4635112 -0.15141638 -0.4205681 0.1806943 0.53172314 -0.41393396 -0.25473323 0.061463304 -0.2164633 -0.12386526 -0.43492445 0.088059545 0.49657625 0.13676216 -0.3372731 -0.20551085 -0.2763637 -0.18838258 -0.16070218 0.62967193 0.09641422 -0.019101102 -0.069128715 0.084060065
113 0.2229245 -0.26217034 -0.11771082 0.23599353 0.038001228 -0.17642745 -0.30995876 -0.23170337 -0.4082121 -0.44550282 -0.17826778 -0.65909433 -0.12205749 -0.12415546 0.10038091 0.06556034 -0.00938248 0.40048984 -0.050193723 0.35632202 -0.14001006 0.49354413 0.06620182 -0.26895323 0.3219396 0.08466365 -0.2599701 -0.33214805 0.008224138 -0.1470596 -0.1378 -0.11420291 -0.30235073 -0.19014062 -0.38646373 -0.18942064 -0.37626696 -0.24362493 0.046338864 -0.23571868 -0.31697494 -0.3870637 0.20067881 -0.0019867239 -0.014691352 -0.20012103 -0.118782066 -0.14478391 0.21679208 0.08641647 0.0632535 0.05818682 0.64863837 -0.08712252 -0.038190357 0.3236815 -0.17418417 0.079870544 0.24533162 0.54323107 -0.11005325 -0.094282314 -0.2156181 -0.091559686
2 0.40269774 0.1594426 0.15540501 0.14018635 0.053341568 -0.33957154 0.33206022 0.024299722 -0.18910597 -0.2548173 0.59586084 0.1098503 0.32803476 0.051032245 -0.0028054824 -0.07395889 0.0054010656 -0.10384656 -0.30486816 0.23649758 0.30324584 -0.105294265 0.54517466 -0.13815284 0.0646845 0.07317898 -0.019890998 -0.111767136 -0.0842171 -0.15637761 0.19391224 0.43456265 0.08408554 -0.32824773 0.0025093493 -0.43858913 0.20397933 0.16626541 0.37878534 0.12309272 0.30363208 0.06610326 -0.12724784 -0.52969825 0.24379143 -0.3531754 -0.019575056 0.039807662 0.18766381 -0.072830655 0.11147274 0.1649005 -0.21897812 0.3782919 0.005719382 0.36671516 0.16918458 -0.0037665071 -0.51665735 0.12953925 0.14442633 -0.30569494 0.21769892 0.25694352
72 -0.36222088 0.19876596 0.53606343 -0.1551524 0.22662134 -0.11308265 -0.1679855 0.4969144 -0.011712301 -0.0866405 0.18748046 -0.28248987 -0.23309708 0.060103726 0.35948628 0.35368833 0.13463964 -0.18691525 0.24661942 0.20194508 0.089975566 -0.36722577 0.27887577 0.079941645 -0.35349295 0.1856205 -0.39621955 -0.48283243 -0.11596482 -0.38703433 -0.004482884 -0.09662289 -0.114782386 0.20602472 -0.0806204 0.39875397 0.078948095 0.21487096 -0.15539508 -0.115815416 0.3511924 0.43264383 0.38444224 -0.15515561 0.05983247 -0.43575394 0.18730806 -0.32831347 -0.1038634 -0.54754245 -0.0033403886 -0.2491144 0.4020115 0.5498444 0.59529465 -0.049703084 0.0029704466 0.036125403 0.052528527 0.35162926 -0.0066618165 -0.1736289 0.5427141 0.3200504
26 0.04713215 -0.22650747 -0.24251285 0.51883686 0.15591763 -0.19662425 -0.1107273 -0.1226973 -0.67711127 0.30939758 0.08316345 -0.052587427 0.11488629 -0.2840945 -0.4019099 0.052761644 0.1685582 0.036351137 -0.10145803 -0.010631302 0.56775445 -0.17751391 0.58989316 -0.033613328 0.06420635 0.521268 0.2032972 -0.4747326 -0.06301033 -0.18641406 -0.26368737 0.20289102 0.0219341 0.28598312 -0.44342718 -0.06956401 0.57440627 0.22261824 -0.071144685 0.33836317 0.5891273 0.018841628 -0.46553037 -0.15309535 0.22260246 -0.43115404 -0.14928906 0.09500777 -0.3054504 0.36482605 -0.21717502 0.19101544 0.17789887 0.12360595 -0.18730117 0.15470065 -0.22418319 0.07899733 -0.6767352 0.4775068 0.30209586 -0.12343259 0.423388 0.10549638
94 -0.21452759 -0.019542646 -0.041753694 0.37995496 0.13409257 0.2652263 -0.04791452 -0.42459258 0.164378 0.011101934 0.031477552 -0.07027814 -0.3858319 -0.15422189 -0.23524785 -0.0005734705 -0.19480827 -0.18349864 -0.2909029 0.17158353 0.2011143 0.08440608 0.61541605 -0.24962628 -0.3430198 0.19363244 -0.5203529 0.34403205 -0.15208869 -0.34566584 0.11961223 -0.11762419 0.2308309 0.48570475 -0.48893553 -0.40577272 0.5782092 -0.18009283 0.2552624 0.024864918 0.09408484 -0.16900362 0.1408415 -0.37075314 0.12780297 -0.37304023 0.24319981 -0.01895929 -0.4348139 -0.24679184 0.33085573 -0.32113713 -0.052117936 0.17722757 0.10453014 0.16932194 0.063278966 0.06730562 0.030299554 0.45317647 0.22622554 0.038553037 -0.16306779 -0.346259
108 -0.104766615 -0.17857724 0.3243385 0.38146535 0.059167627 0.3017722 -0.07855618 -0.084366806 0.34959078 0.11180481 0.059842575 -0.29280543 -0.4071603 -0.36348212 0.25958702 0.1854299 -0.22451659 0.12759374 -0.013448752 -0.017153073 0.50478905 0.14398737 0.23983233 -0.15991972 -0.23174153 -0.22197047 -0.6577659 0.43901163 0.21721588 -0.602989 0.21800523 -0.1789232 0.23675029 0.2632257 -0.6991356 -0.16611917 0.27410278 -0.08364689 0.16916676 -0.11317167 -0.17211606 -0.430939 0.57521534 -0.2879024 0.07621108 -0.07825723 0.558259 -0.35997754 -0.17764254 0.0027957135 -0.026286859 -0.5235788 0.5476718 0.35624564 0.2544936 0.4233808 -0.0224869 0.32668713 -0.12132308 0.32395536 0.18153465 -0.035929974 -0.30534092 -0.15415289
75 -0.46969077 0.2240863 0.56898266 -0.15648778 0.24163115 -0.09717983 -0.15313318 0.50132114 -0.3047718 -0.14333758 -0.034916136 -0.45367208 -0.44971377 0.14991432 0.704921 0.38818687 0.24736725 0.0028426778 0.15869166 0.14429773 0.045105282 -0.34217215 0.36091816 0.17091468 -0.37982967 0.31158376 -0.24166736 -0.13852787 -0.12690288 -0.33552682 0.0875847 -0.038807534 -0.24110095 0.111750685 -0.25532383 0.33990765 0.10140126 0.3372033 -0.26281568 -0.30263248 0.5517325 0.4220355 0.32128793 0.023528174 0.04910383 -0.5346113 0.19530843 -0.40703067 -0.2544824 -0.5323709 -0.014169339 -0.28183743 0.5440889 0.5256247 0.5248752 -0.04946557 0.11503403 -0.07135863 0.1640272 0.4519476 0.0008982087 -0.184377 0.6416576 0.3688917
74 -0.46108255 0.4150919 0.93412 -0.39854607 0.3605909 -0.15686207 -0.2754876 0.6028056 -0.17669298 -0.7454197 0.19579603 -0.32504863 -0.7016638 -0.09854428 0.5597778 0.04650608 0.35850173 0.41857976 0.3700036 0.74691707 -0.21728685 -0.2561447 0.8030593 0.19448103 -0.11792327 0.10958363 -0.30290177 0.04757585 -0.22694293 -0.07791987 0.21625763 0.08383671 -0.37550187 0.111753695 -0.265329 0.13403523 0.0041346257 0.23708689 -0.014580826 -0.6605243 0.41597247 0.85008234 0.51821554 -0.24347347 0.2919516 -0.5475319 0.25370094 -0.2660761 -0.16571991 -0.7856437 0.113323644 -0.44467252 0.22631298 0.5642011 0.29912573 -0.008075755 0.23673101 -0.25881392 0.36778405 0.42407027 -0.089324266 -0.32675725 0.37167946 0.27782106
17 -0.10096713 -0.44626877 -0.47204646 0.805145 -0.1052807 -0.18444377 -0.37204555 -0.66668755 -0.68173105 0.22653486 -0.2981014 -0.14848723 -0.09734841 -0.51892215 -0.3375788 0.58342755 -0.26452196 0.35417104 -0.35305157 0.3563804 -0.3537101 0.054321907 0.35391682 0.16324048 -0.60469705 0.30081457 0.1900119 -0.732318 0.24655902 -0.23456742 0.27496934 0.15621147 0.3028548 0.04071451 -0.16416058 0.32755744 -0.15079728 0.5473114 0.3808346 0.23178412 0.7300182 -0.28544152 -0.2158596 0.0610382 0.7770892 0.010825512 -0.21106358 0.4763688 -0.4779276 -0.19883078 -0.8746162 -0.18894978 0.47797176 0.5516295 0.34325203 0.5237929 0.022381173 -0.39305085 0.5612312 0.4178422 -0.015695846 0.34100744 -0.26540986 0.42449412
71 -0.7844358 0.53322244 1.0125597 -0.19218831 0.3073364 -0.28670034 -0.725498 0.70071363 -0.9299114 -0.89876956 0.30125582 -0.4527225 -0.81920415 -0.16327365 0.6854428 0.35329932 -0.08709673 0.7211254 0.2085721 1.0306977 -0.4410393 -0.5283179 1.4239079 0.32496497 0.33436516 0.2865838 -0.23102808 -0.16857475 -0.2497644 -0.15018956 0.7512976 0.676101 -0.64815754 0.12185876 -0.54121184 0.49578407 -0.30797723 0.44011703 -0.21539214 -1.17721 0.56354773 1.1504595 0.65050304 -0.40950397 0.21393053 -0.5826291 -0.017719314 0.13998911 -0.036626913 -1.0361028 -0.46144155 -0.42942402 0.5987729 0.9474434 0.4794534 0.30175668 0.5835279 -0.6932599 0.60090274 1.1701164 -0.23803253 -0.69974333 0.66928756 0.3057518
70 -0.613037 0.31282976 0.95404935 0.11393384 0.32372168 -0.26654384 -0.9164817 0.49489465 -0.9772903 -1.198616 0.06225855 -0.5071531 -1.0023268 -0.44680434 0.84172344 0.42930233 -0.003948447 1.3679904 0.37976107 1.3378676 -0.59109914 -0.26559857 1.3873296 0.49957213 0.07381647 0.15076795 -0.21995099 -0.43697366 -0.27006486 -0.2538825 0.6492241 0.5255187 -0.56178445 0.028707994 -0.50991297 0.22573556 -0.32212046 0.6003448 0.051349763 -1.0183486 0.67432666 1.3258611 0.7733096 -0.37555006 0.62361324 -0.5830641 0.13342233 0.23827378 -0.3309854 -1.1807084 -0.45576075 -0.69594747 0.6206576 0.98979235 0.58308566 0.5737777 0.4879895 -0.69926435 1.0187674 1.2334553 -0.29250032 -0.49158308 0.38037395 0.52030385
16 -0.055516962 -0.48056418 -0.3843932 0.68605024 0.044579946 -0.16044413 -0.48880857 -0.63950884 -1.0974133 -0.16895577 -0.01267233 -0.20589924 -0.12418816 -0.5182863 -0.46583375 0.2038683 0.049335085 0.7754224 0.09130784 0.6382316 -0.36618286 0.48692375 0.5574442 0.03453606 -0.28335357 0.48704287 0.5314524 -1.0605379 0.39127946 0.14669652 0.032649264 0.11565256 0.25794438 -0.16616064 0.10086478 -0.024584677 -0.3022396 0.5233494 0.117523015 0.016010394 0.63924444 -0.067577586 -0.3394229 -0.004925173 1.0021008 -0.32626563 -0.5497589 0.41659236 -0.24425425 -0.15976861 -0.5555848 -0.1576176 0.38164032 0.41234064 -0.14525527 0.26214063 -0.15840235 -0.43071806 0.2394046 0.717831 -0.017040905 0.19986428 -0.33899525 0.4725132
91 0.36986697 -0.40016583 0.020499941 0.43263716 -0.107578866 0.032301787 -0.14178088 -0.53743905 -0.27412087 -0.42636457 -0.51828325 -0.47926167 -0.3441565 -0.122595794 0.46923697 0.27272213 -0.38265604 0.6060168 0.1289078 0.45914263 -0.0007029734 0.61993396 -0.0021425744 -0.11764651 0.31155595 -0.29255357 -0.2603214 -0.16661577 0.1614013 -0.30021134 0.08159598 -0.14931257 0.029087357 -0.045125525 -0.41483337 -0.2999233 -0.3278802 -0.08486148 0.14143947 0.05872435 -0.2901564 -0.43504518 0.4353677 -0.16929485 -0.07166738 -0.13438393 0.27640325 -0.08334939 -0.14854227 0.10077168 -0.16929404 -0.35466906 0.6340712 0.03276116 0.07056672 0.5541107 -0.0398423 0.023063427 0.16326837 0.5173828 -0.2449211 -0.106446296 -0.49147063 -0.15418231
106 0.06253924 -0.08021585 0.016760739 0.03529783 -0.02502511 -0.36881238 -0.38640353 -0.22261572 -0.61857367 -0.46781367 0.20479283 -0.8303715 -0.019333648 -0.19621417 -0.17026517 -0.020614658 0.025670817 0.4033741 0.052166373 0.4703952 -0.17797153 0.48420453 0.3461739 -0.21297885 0.43868467 0.2686519 -0.21295191 -0.4594569 0.1545324 -0.0057275994 -0.23436129 -0.03549387 -0.3082671 -0.29018375 -0.30527368 -0.035074826 -0.39355022 -0.25827643 0.04971957 -0.51195115 -0.14313658 -0.4391777 0.00096381514 -0.04564623 0.007810585 -0.23117971 -0.32125738 -0.2327654 0.41137102 -0.013383635 0.09225097 0.25770012 0.5832591 -0.121752016 -0.25076133 -0.23659271 -0.23823217 0.09863084 0.112806305 0.5340145 -0.03173753 -0.24687155 -0.08784993 -0.10473432
115 -0.12342834 -0.3334408 0.108858325 -0.15823191 0.01788378 -0.27953404 -0.46572173 -0.0814427 -0.78413147 -0.18821561 0.021166768 -1.0875862 -0.24193057 0.0918855 -0.25312576 -0.045592174 0.13408142 -0.0008237568 0.22227576 0.29944307 0.10343505 0.5546217 0.4331563 -0.29576448 0.40899846 0.39746284 -0.18453863 -0.29756856 0.46720383 -0.020071324 -0.28007978 -0.085821025 -0.1244028 -0.02684302 -0.3515659 0.07816728 -0.22436546 -0.42534286 -0.2503464 -0.3864368 0.10966077 -0.72159225 -0.18635333 -0.1250381 -0.06769472 -0.50062424 -0.44661957 -0.45117253 0.40358734 0.20979597 -0.0018588011 0.29822615 0.7359959 -0.14275391 -0.31702828 -0.4689574 -0.3787072 0.017884446 -0.26805365 0.6043224 -0.04652391 -0.32811272 0.018404774 -0.25798833
107 0.014512027 0.013851209 -0.01002414 -0.014402991 0.012329044 0.008457564 0.01082924 -0.0045935735 -0.008170569 -0.0071375966 -0.013021855 0.00918165 -0.005399581 0.01349036 -0.008881664 0.015050076 -0.0070345253 0.013535889 -0.008452198 -0.011732044 0.011971412 -0.015272066 -0.013721183 0.007736258 -0.015237814 0.008251777 0.0057073403 -0.010968717 0.004918212 0.0022719204 0.013503389 0.0045029093 -0.008004062 -0.00367352 0.01070323 -0.010341333 0.014523316 -0.0050031263 -0.0072637293 -0.006824488 0.004817106 -0.015385028 0.005034197 -0.007008994 0.0151060745 -0.0078551285 -0.012520587 0.005488692 0.014010366 0.0042928904 -0.0035439841 0.0054882746 -0.013939071 -0.0064693354 -0.0068548564 0.0029554293 -0.009856403 -0.0118612815 -0.010204395 0.008266648 0.004293831 0.013748212 0.0036264006 0.0082839355
