116 64
80 0.03204449 -0.03268075 0.24298465 0.018483726 0.012389734 -0.3281829 0.030638698 0.040612396 -0.2573018 -0.29508165 0.10062946 -0.08726621 -0.06410625 -0.022260988 0.11559555 -0.058707017 0.15059817 0.046825536 0.03259438 -0.050070327 0.10900599 0.24602988 0.24488728 -0.22704217 -0.043674417 0.05514299 -0.188921 0.1476275 -0.14022405 -0.090554506 -0.02842054 -0.024762245 -0.22707927 -0.04524456 -0.15550959 0.022770068 0.0692133 0.15991905 0.21997105 0.1583978 0.0058108857 0.09035611 0.12232293 -0.14649373 -0.01668075 0.0023770044 0.11846583 -0.19989285 -0.16739517 0.2309512 -0.0033512407 0.0023426353 0.019777894 0.29445294 0.08405542 0.060289383 0.028396212 -0.27810442 -0.18294898 0.13218541 0.34693992 -0.2494496 -0.08720888 0.2251513
13 -0.02847903 -0.091641776 0.15614149 -0.022809163 -0.05716891 -0.19074558 -0.010557124 0.04947554 -0.10787583 -0.28043878 0.11994511 -0.063613705 -0.18735656 -0.11320057 0.07972223 -0.10555911 -0.015366844 0.0655813 0.17335248 -0.1840641 0.076180875 0.20835128 0.24558401 -0.1801589 -0.09726319 0.08521186 -0.16717324 0.062193077 -0.014333044 -0.09791487 0.013572357 -0.10653467 -0.25286442 -0.27428007 -0.11368661 0.15489443 -0.094027296 0.1949869 0.3459203 0.08107646 0.086088054 0.031013342 -0.046953827 -0.23536779 0.06564569 0.0886631 0.11220033 -0.344453 -0.07356278 0.09363785 -0.1647211 0.12235296 0.19182408 0.43148914 0.15642308 0.14173512 -0.03558812 -0.26710752 -0.109055184 0.1834348 0.42234626 -0.22898939 -0.094720714 0.39509565
56 0.039981645 0.004022758 0.2809599 -0.02143399 -0.01689335 -0.31995162 0.016244508 0.034469668 -0.10045185 -0.28121492 0.2034334 -0.005972045 -0.08373927 -0.16898124 0.17361775 -0.09511114 0.1102096 0.11424195 0.13983022 -0.0900649 0.031057104 0.11779961 0.3207146 -0.16343534 -0.040184382 0.029569518 -0.20817919 0.13736033 -0.004560369 -0.042756703 -0.034203872 -0.06259152 -0.21401355 -0.07438748 -0.120408155 -0.0067699514 -0.01850346 0.25170606 0.34136957 0.24442947 -0.0632934 0.12699871 0.050999306 -0.18015152 0.06734176 0.0056958557 0.16360743 -0.17390235 -0.11854362 0.24764936 -0.21140523 0.05801047 0.06097188 0.32924435 0.11876659 0.20582494 0.003001651 -0.23899555 -0.07354308 0.27993888 0.24330175 -0.21684429 -0.09082126 0.32688406
82 0.08216361 -0.24785781 0.040044446 -0.14997937 -0.09446143 -0.24902073 0.0014568581 -0.070812896 -0.18846455 -0.015682796 -0.10339178 -0.22530451 -0.038214706 -0.045912184 -0.04017345 -0.18062337 0.0063815643 -0.0615922 -0.19298051 -0.01158956 0.0027966024 0.36237672 0.31252494 -0.37324068 0.08894644 0.016524471 -0.25965703 0.19569421 -0.0012849036 -0.09233446 0.09545846 -0.026978102 -0.22111365 -0.29316637 0.03887521 0.116658695 -0.012162043 0.24987817 0.36417323 0.16953613 0.08228124 -0.12842354 -0.19274533 -0.2533641 0.05482404 0.17947249 0.036029417 -0.3539301 -0.20301366 0.13369505 -0.091655545 0.24088693 0.02299426 0.38393748 -0.0748034 0.1450184 0.11587956 -0.35700208 0.000644309 0.21025088 0.18273118 -0.23653251 -0.090372786 0.30321056
84 0.09144645 -0.088615514 0.20481318 0.12270786 -0.072265804 -0.29152083 0.050358616 -0.008719232 -0.20076574 -0.13230413 0.110884555 -0.07364645 -0.03232155 -0.20132844 0.14686081 -0.025249194 0.11034441 0.0075130807 0.026283814 0.056035724 -0.035199404 0.04104288 0.41953713 -0.10648531 -0.018338813 0.11246565 -0.088397875 0.024542399 -0.15297092 -0.084045984 -0.050738037 -0.13682374 -0.24180582 -0.22106789 -0.27215314 0.0044070375 -0.11095866 0.14187238 0.24194837 0.14355601 0.107906796 0.17981498 -0.018997943 -0.19565743 0.035552718 0.10809491 0.15300804 -0.14184728 -0.063635595 0.09644839 -0.076947555 0.12151806 0.24555375 0.38575572 0.080459714 0.20555185 -0.04231576 -0.13467376 -0.038947135 0.29925308 0.26867157 -0.1414564 -0.14053951 0.5275438
85 0.12725452 -0.13142982 0.13135447 0.12682164 0.113299385 -0.3049152 0.11729989 0.15899919 -0.049366735 -0.1608729 0.13040559 -0.15577684 -0.1543599 -0.1900921 0.1131855 0.16960493 0.049964983 0.061298963 0.050388638 0.14608914 -0.06913379 0.029120743 0.16153412 -0.062007274 -0.06306591 -0.0891937 -0.15413332 0.03705228 -0.105738826 0.12739733 -0.046585966 -0.2063446 -0.23480254 -0.31450406 -0.22044921 0.006954859 -0.15865618 0.12000107 0.23884018 0.10680051 -0.08179975 0.14144056 -0.060080238 -0.06379079 0.017354898 0.067173935 0.16041479 -0.111305974 0.10292412 -0.03492548 -0.0034097948 0.027336067 0.26006976 0.43110344 0.17243184 0.0996988 -0.22936003 -0.112585254 -0.12533095 0.49122596 0.010641768 -0.12572782 -0.05824097 0.42729732
0 0.05540679 -0.013709895 0.36029768 -0.001376569 0.045280024 -0.38366336 -0.1059703 0.08595385 -0.13953191 -0.40817213 0.08659735 -0.009610513 0.028212022 -0.04665651 0.09467121 0.03230475 0.052452944 0.12348344 0.111230746 -0.08293493 0.13239771 0.3182076 0.22956951 -0.36542177 -0.06224166 0.08424384 -0.15768217 0.02309605 -0.18243523 0.02329615 -0.046895344 -0.22817288 -0.36136556 0.015300399 -0.20056866 0.18534733 -0.06151114 0.13254137 0.26836723 0.17271157 -0.0013621601 0.016845407 0.2474642 -0.1386731 0.013871375 -0.086288735 0.19604169 -0.16663744 -0.1336247 0.1378728 -0.16386423 -0.042361464 0.078764446 0.3268799 0.061052315 -0.0051163686 0.058922037 -0.19906287 -0.29386923 -0.035642117 0.3299496 -0.2529968 -0.08645893 0.1445142
35 0.073612764 -0.19621848 0.5234735 0.006435925 0.03832832 -0.108220175 -0.21851352 0.24364516 -0.09401047 -0.24727175 -0.049536914 -0.1869064 0.0628899 -0.15410602 0.23423432 0.120862134 -0.06657027 0.28297547 0.23533632 0.046491973 0.13533823 0.31833857 0.020729708 -0.16809614 -0.29776734 0.27389476 -0.33784357 0.15075634 0.058572523 0.15079282 -0.055688225 -0.17974742 -0.3591341 -0.06632846 -0.17417513 0.22086738 -0.1569093 -0.1285568 0.102810025 0.26475123 -0.19799659 -0.07316266 0.24584675 -0.12113157 0.07063795 -0.20591888 0.34490317 -0.2014373 -0.0074916673 0.019966334 -0.29769874 0.032403205 0.14301115 0.1300377 0.09444957 -0.016601272 0.089332245 -0.09780838 -0.13544837 -0.114582404 0.15250868 -0.42557287 -0.037327185 0.14192079
12 -0.030974364 -0.036079973 0.26772842 0.090846576 -0.005397359 -0.22035633 -0.061327226 0.06454785 -0.2552606 -0.14679289 0.21993628 0.057529483 -0.19825992 -0.15282738 0.16642563 -0.108924486 0.12709208 0.19296998 0.20113489 -0.2362813 0.015944079 0.19242993 0.26872113 -0.09583861 -0.08532077 0.057604924 -0.076298915 0.11276969 -0.077230915 -0.12375718 0.005832396 -0.16659173 -0.2284842 -0.12069071 -0.2549026 0.13968986 -0.070043 0.31280428 0.32947394 0.021512842 -0.017143076 0.16975175 -0.021501243 -0.20032118 0.09428174 -0.043945808 0.08744813 -0.17644699 -0.10992682 0.23313339 -0.09536018 -0.037588786 0.22069535 0.4671156 0.16501467 0.15197255 -0.16368933 -0.36277285 -0.11755906 0.3041313 0.42285144 -0.14197262 -0.0535122 0.41823122
33 -0.11982322 -0.121740915 0.1897358 0.031081598 -0.032111216 -0.08333721 -0.17203464 -0.025695542 -0.20429589 -0.43503487 -0.014332166 -0.034371205 -0.33551723 -0.04609936 0.2642377 -0.09593542 0.098959565 0.13951269 0.15716298 -0.299215 0.022387119 0.041701347 0.05333698 -0.15919161 -0.0644573 -0.04806839 -0.17474517 -0.032379113 -0.2479797 -0.11702054 -0.0088204 -0.23609939 -0.4668487 -0.18403211 -0.23817079 0.23569182 0.0671892 0.22760268 0.065404385 0.054381024 0.07285787 0.014751269 0.033089254 -0.11583105 0.029635144 -0.119388506 0.1869188 -0.38686055 -0.087095395 0.07685083 0.0017873195 -0.08553125 0.4215834 0.38499784 0.050209872 0.09504006 -0.046259306 -0.27525046 -0.35179392 0.21268612 0.2733747 -0.45339465 0.062311202 0.18728586
54 0.054142833 -0.37024543 -0.042372536 -0.05982851 -0.23774594 -0.008156899 -0.0531893 -0.40223193 -0.54462075 0.14006963 0.15240283 -0.37530902 -0.39391294 0.036701046 -0.1245058 0.063735984 -0.061058138 -0.14862804 -0.17626502 0.090291634 -0.089420974 0.16638365 0.68967545 -0.15343124 0.110669814 0.26139453 -0.22175135 -0.099996954 0.0654194 -0.37240806 0.14523338 0.32541966 -0.24071924 -0.14770824 0.14113002 -0.3493435 0.22781157 0.018476898 0.073044725 0.025257621 -0.008400377 -0.219862 -0.11399091 -0.23761213 0.20540345 -0.03952252 0.071624674 -0.19504029 0.0020257537 0.43454352 -0.13278757 0.20036529 0.02228189 0.2351624 -0.14167945 0.3963989 0.3170963 -0.18008044 0.13023813 0.5248794 0.17553836 -0.1593131 0.22158322 0.03906529
45 -0.06433619 0.032564454 0.3353645 -0.019465944 0.07492883 -0.29633674 -0.07747443 0.028874757 -0.037912346 -0.55801487 0.2407395 -0.081186965 -0.22766837 -0.11767459 0.206724 -0.07104521 0.007697549 0.18525133 0.21676773 -0.19503033 -0.0094018355 0.0540438 0.18758461 -0.017020548 -0.11558547 0.28156763 -0.31120804 -0.056827206 -0.08807407 -0.13363971 -0.1802518 -0.122424066 -0.24293517 0.08492578 -0.26642117 0.19955623 0.04375072 0.08042975 0.11163666 0.16162215 -0.11314021 0.13862339 0.053942617 -0.060351588 0.22844034 -0.10098523 0.08775857 -0.15780436 0.026035206 0.16579406 -0.36981508 -0.018935561 0.14075728 0.2873579 0.09367557 0.12706822 0.05922804 -0.0950473 -0.22497663 0.2060392 0.18742883 -0.27492002 -0.09022191 0.2532297
57 0.08477451 -0.077844374 0.2149466 -0.07680147 -0.013232261 -0.27848932 0.028997937 -0.052062888 -0.037846196 -0.4846958 0.08244536 -0.087692976 -0.16831426 0.08737388 0.123891406 0.062446676 9.9944e-05 0.039816387 0.085999876 0.019755607 0.0818844 0.13181353 0.17562681 -0.28360352 -0.19198638 0.007662471 -0.25845417 0.057948653 -0.13546002 -0.048867617 -0.11349706 -0.12602285 -0.34098724 -0.22504601 -0.12208423 0.06364111 -0.07012484 0.14435926 0.319109 0.20787378 0.0676927 0.026851824 0.13767834 -0.24583086 0.046135902 0.06792652 0.2899652 -0.24179739 -0.099322416 0.12181253 -0.12585653 -0.062109917 0.08131087 0.24869956 0.078585304 0.07304269 0.029091535 -0.13141161 -0.27165926 0.0934193 0.26485017 -0.33022052 -0.14739166 0.1186829
81 -0.03452037 -0.15990625 0.16088943 -0.0078074867 -0.0090143075 -0.08511406 -0.14618841 -0.028878966 -0.11742617 -0.25978932 -0.079608224 -0.12009494 -0.31279033 -0.08922542 0.17015716 -0.12222272 0.05687966 0.042687226 0.15752198 -0.2769101 -0.06227449 0.23295882 -0.009965436 -0.25216687 0.018449781 -0.19903071 -0.11939017 0.0060359286 -0.22537655 -0.03240086 0.09789616 -0.32351902 -0.41080704 -0.38994902 -0.22339389 0.28330734 -0.19211306 0.2640547 0.17149784 0.07801274 0.07002143 -0.032236174 -0.041588396 -0.23884454 -0.026522383 -0.11421945 0.13620378 -0.3998088 -0.0891054 -0.085614845 -0.026041692 -0.028187627 0.46601877 0.49872068 0.08961654 0.0718765 -0.14571229 -0.3290504 -0.3654903 0.2651286 0.37109286 -0.32467842 0.0373072 0.3221073
44 0.24277768 0.11907396 0.45644706 -0.000837528 0.048617586 -0.31235138 -0.05012541 0.10057954 -0.08225384 -0.51580733 0.19302967 0.007544563 -0.1566859 -0.23832892 0.41274294 0.116583556 0.14913213 0.15033261 0.1542205 0.13933228 -0.054342724 -0.10356562 0.22313482 -0.12380489 -0.2229336 0.24989009 -0.38718152 -0.085056506 -0.0132620875 0.061502922 -0.25316462 -0.036007736 -0.17523448 0.08489626 -0.16678254 0.071569204 -0.06336921 0.029303327 -0.015635554 0.37929127 -0.34370407 0.16116533 0.2907023 -0.08315903 0.2407744 -0.2546104 0.22900747 -0.03656561 -0.025035582 0.20444797 -0.4407307 -0.14106116 0.21404651 0.13356254 0.16111736 0.25841123 0.19020091 0.13213433 -0.1185216 0.0804863 -0.09979319 -0.30258352 -0.18258645 0.16708896
48 -0.051617343 0.01199347 0.3080984 0.1462048 -0.08025087 -0.2029761 -0.0936566 0.0182666 -0.09332025 -0.15210055 0.13150576 0.040957835 -0.031664222 -0.4587895 0.3869379 -0.08687035 0.22636206 0.1330114 0.15811422 -0.12720485 0.1332321 0.090021424 0.46287104 0.0059030047 -0.074086905 0.23521581 -0.28489327 0.09529431 0.07459985 -0.045091316 0.007134974 -0.12485594 -0.13117336 -0.08540877 -0.16423766 -0.08410744 0.060901154 0.25931722 0.1685035 0.2179205 -0.026108665 -0.07237997 0.06821123 -0.20137103 0.15113774 -0.16168725 0.031449854 -0.21204759 -0.16263351 0.121803954 -0.22504893 0.26391613 0.42019266 0.3958894 0.11391474 0.37489206 0.1953435 0.02773641 -0.06346002 0.17581484 0.04039313 -0.27615356 0.16097663 0.2670958
66 0.22209069 0.22533034 0.09205367 0.06332875 0.48605034 -0.29891983 -0.066826 0.15364645 -0.08425087 -0.25232276 0.23866124 -0.44016784 -0.025326934 -0.023066523 0.3084184 0.2989516 0.15159525 0.014367 -0.0557495 0.5355402 0.047614917 0.36738974 0.2976945 -0.08842015 -0.3787944 0.38605312 -0.15109289 -0.19186522 0.076040834 0.16201152 -0.41239777 0.048537616 -0.1918475 0.06722404 -0.35625398 0.036704943 -0.415417 -0.1477678 0.0050036055 0.0015834975 -0.31708765 0.2235183 0.116549425 -0.22819197 -0.013019123 -0.27720937 0.13069637 0.065689914 -0.07849063 0.20226353 -0.14770095 -0.31616879 0.25662297 0.05764777 0.07781628 -0.0048104795 0.14129643 0.14258893 -0.14819022 -0.13651901 0.15560493 0.05399647 -0.20073073 -0.05604795
22 0.17196192 -0.037163667 0.2777049 0.08875176 0.07336723 -0.11430948 0.44607237 -0.05842479 -0.029404026 -0.23862275 -0.064952806 -0.022652082 -0.10065338 -0.17674632 0.0700637 0.15245676 0.13932097 -0.021578647 0.002003807 0.16032945 0.12356261 0.3075447 0.35792592 -0.19843802 -0.16261943 -0.1450714 -0.03749191 0.0519171 -0.225587 0.016391845 -0.061165597 -0.22948335 -0.14044845 -0.42265683 -0.17432109 -0.21784271 -0.032165345 0.31535482 0.28420725 0.30353662 0.26013085 -0.04506398 -0.001084062 -0.4039264 0.04325094 0.28842375 0.21919711 -0.2762734 -0.17256346 0.16967545 -0.11634995 0.13960852 -0.08571332 0.38104934 0.06006845 0.35448232 -0.0033644252 -0.13018918 -0.10889193 0.23791762 0.2629125 -0.25763375 -0.23036227 0.33931223
2 0.3210439 -0.11138046 0.14289936 -0.0056078956 0.3136257 -0.22354893 0.01980067 0.2468154 -0.08811308 -0.21461383 0.13427986 -0.24625246 -0.12786287 0.103716664 0.4428038 0.22945988 0.089063585 0.07649331 -0.15031071 0.31530982 -0.012897169 0.62930095 -0.18336394 -0.2755054 -0.2630569 -0.01829552 -0.14757155 0.08247169 0.23820403 0.37538594 -0.25660333 0.115916245 -0.26694596 0.07742177 -0.23730332 0.14746092 -0.20743372 0.10406953 0.2366021 0.11275063 -0.20830327 0.1338974 0.43143955 -0.08621514 -0.10769233 -0.2755932 0.08573903 -0.021387516 0.03908176 0.27482972 0.1140394 -0.34316844 0.118155494 0.09524679 0.028305259 0.1770476 0.17495288 -0.23334433 -0.2811828 -0.2508882 0.077952944 -0.21376362 -0.004274022 -0.22322625
46 0.09144087 -0.253356 0.36499205 -0.16618931 -0.16919957 -0.06859552 -0.13843274 -0.108751364 -0.55675083 0.0045226477 0.291289 -0.19738275 -0.37991324 0.19009985 -0.13510251 -0.014905766 0.06659856 0.10992649 0.13270442 0.20078702 0.10250873 -0.038097005 0.56298405 -0.35638353 0.03193423 0.36334473 -0.51319426 -0.02391235 0.07680173 -0.25883776 0.045177285 0.4784377 -0.18259986 0.19970804 -0.07191763 -0.49134475 0.4351395 -0.3599905 -0.07326045 -0.24289417 0.01652134 -0.02531242 -0.039514616 0.1817491 0.03812133 -0.27738723 -0.037199248 0.02117358 0.033774298 0.36470556 0.25524902 -0.105048835 0.03401034 0.2878729 0.042256426 0.17374122 0.061350904 -0.17434607 0.1621639 0.55366874 0.07001479 -0.39743355 -0.12360384 0.08634675
86 0.070129 -0.051533896 0.23514424 0.12899604 -0.073264025 -0.20521058 0.3829756 -0.014896236 -0.099083565 -0.17045513 0.020478642 -0.0013471205 -0.017107997 -0.2565454 -0.026321616 0.173675 0.18056455 -0.016995331 -0.079212144 0.20317927 0.12752739 0.22053596 0.62169003 -0.22727953 0.052582707 0.041299645 -0.096724324 -0.05338341 -0.17996958 -0.10392225 -0.0500279 -0.09579608 -0.18351366 -0.28029382 -0.2178952 -0.19769667 0.11899095 0.23522237 0.23633535 0.17155038 0.2958856 -0.08077618 0.124106124 -0.24119972 0.10024571 0.40148324 0.007292726 -0.2998676 -0.11745008 0.3345379 -0.16854158 0.29365924 -0.026863517 0.46465012 0.00014501881 0.32866782 0.06633045 0.017682696 0.0246197 0.2290294 0.2005378 -0.15588824 -0.17292286 0.36445642
55 -0.007242271 -0.26685563 0.1363769 -0.05753332 -0.14892234 -0.10984005 0.046992272 -0.2028564 -0.5637684 -0.079348706 0.17633387 -0.29490906 -0.21456422 -0.018528622 -0.111101344 0.11538496 -0.028496727 -0.02439495 0.06095366 0.13817683 0.27995974 0.18713917 0.6838149 -0.17559318 0.11361085 0.2866215 -0.25526422 -0.13636471 0.013867004 -0.282427 0.07292352 0.32362667 -0.14973558 0.015282198 -0.048841555 -0.31588775 0.46519774 -0.0438486 0.12241557 -0.11687731 0.22686201 -0.13260536 -0.03431124 -0.02109671 0.1655316 -0.0062288125 0.05703563 -0.13612233 0.024186969 0.40197545 -0.051220875 0.09322297 -0.10006157 0.2541038 -0.09629067 0.15551995 0.28360862 -0.16409892 0.12602209 0.3529367 0.2843026 -0.26657 -0.010432248 0.072927415
34 0.19365016 -0.1963784 0.49999845 -0.0712711 0.081720434 -0.18800466 -0.08662361 0.19808824 0.031209728 -0.31571814 0.029021148 -0.0706345 -0.03033181 -0.10287758 0.3595487 0.20394078 -0.034190856 0.14664032 0.16239145 -0.01940892 0.06482615 0.43101463 -0.06938065 -0.31102064 -0.2813754 0.033157773 -0.35411593 0.072726816 0.08598225 0.16431728 -0.088017456 -0.09852442 -0.25999862 -0.07450807 -0.20247473 0.22925894 -0.13223787 0.06316309 0.22776538 0.37169507 -0.14760493 -0.057804916 0.4047199 -0.15159415 0.034955636 -0.20366049 0.2470613 -0.16671446 0.05413187 0.1393482 -0.28270414 -0.11228906 0.048472878 0.14629656 0.09610327 0.2489076 0.12830456 -0.10127476 -0.2778466 -0.09895257 0.17018469 -0.37628868 -0.10748931 0.058462184
3 0.25899023 -0.1922872 -0.15368824 -0.1676053 0.37438574 -0.18345448 -0.020648457 0.055599272 -0.07900605 -0.20675781 0.116933316 -0.5993487 0.056843746 -0.011692292 0.3156774 0.3758712 -0.10475906 0.005072405 0.06695181 0.37651175 0.1336418 0.57221603 0.028226119 -0.16334926 -0.32184306 0.16003959 -0.22346713 0.027347034 0.22596103 0.41956884 -0.22626764 0.03736249 -0.22780758 -0.15278968 -0.23404548 0.10370092 -0.40342113 -0.08629362 0.25693977 -0.12681624 -0.06489243 -0.012444378 -0.017017715 -0.11651628 -0.093178965 -0.16452867 0.21695197 -0.053016912 0.11949303 -0.004208203 -0.045460653 -0.28384745 0.14685138 0.07788636 0.081992954 -0.15665168 0.1865506 -0.09975364 -0.17734006 -0.124781705 0.10260055 -0.14671622 -0.10312758 -0.18293712
65 0.16705063 -0.027248962 -0.23696117 0.052823562 0.52935946 -0.18913403 0.09088436 0.21669602 -0.0120716365 -0.031269524 0.13949956 -0.6593665 -0.0111177275 -0.25129452 0.3116792 0.3364755 0.32398438 0.10149778 -0.19595423 0.5158997 0.018706964 0.35873604 0.06391135 0.08356604 -0.19136725 0.0929432 -0.123923376 -0.18090248 0.31882918 0.31058127 -0.3494628 0.09068867 -0.15781069 0.056710795 -0.33763453 0.101393424 -0.37884465 0.16168426 0.08342798 -0.073410906 -0.17643194 0.25558734 -0.035256457 -0.0039969655 -0.10493927 -0.052879605 -0.0050124275 -0.14712016 0.1424814 0.21420535 -0.06780159 -0.33741346 0.29707703 0.2421609 -0.018653927 -0.08606295 -0.055631768 -0.013845777 -0.035697024 0.22840662 0.04758109 0.0959505 -0.20290792 0.07764103
63 0.0045271595 -0.04641335 0.17064324 -0.0964935 0.17233141 -0.23729043 -0.058007926 0.04620444 -0.13803415 -0.4858272 0.0016068676 -0.25923756 -0.24552764 0.024518695 0.14956695 -0.029128328 -0.15041624 0.12701462 0.21834658 -0.1422184 0.12007939 0.16711235 0.002050257 -0.14567637 -0.17501903 -0.001358199 -0.14090061 -0.0044120187 -0.18191986 0.115858376 -0.11876059 -0.17855741 -0.32132402 -0.4039916 -0.2485368 0.17421274 -0.08220181 0.1200061 0.14780544 -0.105277725 0.15818213 -0.020269258 -0.24304985 -0.16537017 0.055211015 -0.040667977 0.21857794 -0.37448582 0.038400453 -0.16127199 -0.05471636 -0.18815209 0.2350897 0.31001475 0.18360013 -0.1803737 -0.12806477 -0.24757776 -0.37991527 0.20103686 0.30404663 -0.35898477 -0.22740994 0.2286303
4 0.3291106 -0.22964169 -0.4152689 -0.18421154 0.34133464 -0.16244775 0.04231533 0.028993739 -0.21580018 -0.3195094 0.12291619 -0.648835 0.025499444 -0.035088994 0.6136044 0.2825176 0.16929387 -0.033863697 -0.14551567 0.33704603 0.14899184 0.45862 -0.19244887 -0.04491011 -0.3708231 -0.08522224 -0.16645789 0.122889966 0.31594995 0.5727893 -0.3063056 0.09230932 -0.37461656 -0.19490281 -0.24103203 0.05298084 -0.2162718 0.30844843 0.31492075 -0.16608515 0.10676569 -0.0011917654 -0.07720765 -0.02094977 -0.0051561645 -0.2190283 0.18330728 -0.23448695 0.2932843 -0.015055163 0.26535076 -0.3992283 0.2563887 0.106793545 -0.0074278554 -0.30087048 0.22832833 -0.16775717 -0.27406743 -0.055951606 -0.06301149 -0.32336622 -0.100993514 -0.3866855
16 0.115509026 -0.17447092 0.25185058 0.10973502 0.017329214 -0.03323812 0.42057732 0.013645725 -0.14951724 -0.05449502 -0.04152177 -0.10224251 -0.14983355 -0.17534396 0.09685963 0.19830011 0.1382767 -0.094036005 -0.063207515 0.068945296 0.1985039 0.2902884 0.49087757 -0.09983588 -0.050070744 -0.049376115 0.031989433 0.02578734 -0.15012436 0.016302537 0.022160752 -0.18043612 -0.05372653 -0.4134501 -0.16095085 -0.2612622 0.1189829 0.29303455 0.15098526 0.25053662 0.29838216 -0.20999944 0.058026418 -0.3430928 0.11395386 0.25192767 0.2415647 -0.33964652 -0.13382334 0.27950302 -0.19032873 0.34429753 -0.041628264 0.38893497 0.014597187 0.44994384 0.18460804 0.08655361 -0.06851304 0.20772476 0.27537718 -0.2344742 -0.088642485 0.24958505
83 -0.048317634 -0.13882546 0.14275764 0.10350918 0.022348978 -0.12010494 0.3167677 0.023806056 -0.22375032 -0.2496898 -0.116514064 -0.12948297 -0.24410835 -0.20244186 0.07614209 0.081625044 -0.03424286 -0.018840281 0.04712239 -0.06627847 0.20598613 0.22356145 0.3545703 -0.015476602 0.017301384 -0.00892792 0.00069677585 -0.0025583336 -0.18022004 -0.077782325 0.077544175 -0.33399698 -0.17316122 -0.33621693 -0.2163163 0.0040429155 0.18310007 0.21733595 0.24550287 0.19830872 0.19063999 -0.09731044 0.0005414254 -0.18561456 0.07700606 0.27022883 0.39668337 -0.4950261 -0.19990613 0.20402016 -0.24053557 0.22581096 0.051195722 0.2801573 -0.027463138 0.30191204 0.08454443 -0.2247169 -0.041087866 0.21616577 0.32546267 -0.26404512 -0.0955042 0.39985907
29 0.109315366 -0.2228782 0.15022661 -0.060691413 -0.0070435274 -0.08341394 0.19258498 0.003923233 -0.023175305 -0.2664628 -0.054115646 -0.11751789 -0.15619832 -0.025398469 0.22158596 0.043369558 -0.027893754 0.12274871 0.21168034 -0.047388084 0.08717216 0.2728005 -0.02750613 -0.2853679 -0.2063365 -0.19324024 -0.28118145 0.17336525 -0.12844968 0.089085825 0.06943286 -0.34548602 -0.08974015 -0.37584123 -0.13809507 0.016947612 -0.09988566 0.21272953 0.3115716 0.22376467 0.06883859 -0.13310945 -0.09991967 -0.24769722 0.053434096 0.025643535 0.2717267 -0.18625629 -0.07503266 -0.06064847 -0.11159688 0.010126493 0.14069007 0.37770432 0.10241619 0.120612256 0.016792813 -0.19919504 -0.2511587 0.33777657 0.12732413 -0.38814095 -0.13913111 0.18408893
41 -0.021243451 -0.2453906 0.035471853 -0.06613556 -0.23132019 -0.08194884 -0.058327716 -0.17140454 -0.240797 0.062920876 -0.021948822 -0.24884042 -0.13898207 -0.118620776 -0.034853898 -0.089357436 -0.09967156 -0.11327824 -0.1347428 -0.09442581 -0.02916454 0.23482893 0.6284659 -0.1911703 0.17394204 0.19262578 -0.1129269 0.07476879 0.01589558 -0.20677924 0.088522844 -0.034205664 -0.39785868 -0.3697646 -0.059856128 0.054637443 -0.023462806 0.042861454 0.27350128 0.037621986 0.087741904 -0.15863955 -0.12995109 -0.3673578 0.0166373 0.21136913 0.07983246 -0.3907417 -0.22933426 0.19752768 -0.14035587 0.35107097 0.16161425 0.3420526 -0.06268127 0.2549431 0.1806669 -0.28756902 0.039420962 0.24702191 0.23521394 -0.24518168 0.12326556 0.34241396
23 0.14992945 -0.08993035 0.12563251 0.09466785 -0.04335012 -0.16265464 0.34312704 -0.016782966 -0.28370944 -0.039101865 -0.008477435 -0.021553231 -0.1695297 -0.055505123 0.029862022 0.04028691 0.17326173 -0.12883551 -0.1758829 0.07184029 0.046766736 0.2682788 0.5442946 -0.2829483 0.08162785 -0.07997419 0.080568604 0.018234128 -0.317546 -0.13977244 0.07470784 -0.1355409 -0.0891783 -0.3197081 -0.15774165 -0.1594835 0.047490273 0.20274517 0.20201384 0.15345672 0.18736203 -0.055271413 0.07262619 -0.36512837 -0.03218486 0.24053052 0.049393795 -0.2471168 -0.3008349 0.2891664 0.025824426 0.27501807 0.019128697 0.5032437 0.031161685 0.33418763 0.09390005 -0.20927697 -0.06902326 0.32401302 0.27712697 -0.14419131 -0.08823998 0.31177387
49 0.006496102 -0.11361438 0.31500846 0.01759627 -0.049478367 -0.22793363 -0.035882216 0.09687579 -0.05795822 -0.3052839 0.17968948 -0.10061491 -0.10317739 -0.02719462 0.19746897 -0.015326377 -0.061747815 0.1890743 0.2137755 -0.19004261 0.08674453 0.17448732 0.16105746 -0.08309055 -0.19480811 0.2582971 -0.25200957 0.17861572 0.014827037 -0.09646891 -0.063643545 -0.13824183 -0.24736162 -0.13986859 -0.17614609 0.1516605 -0.10156882 0.050378986 0.26459274 0.0038034697 -0.07566597 0.09467854 -0.029323677 -0.19727105 0.033415187 -0.032320093 0.12068486 -0.19217299 -0.03685215 -0.0020238955 -0.061709125 0.0013597633 0.18116292 0.4928445 0.2947678 -0.086230926 -0.114360474 -0.23384286 -0.23262212 0.2750209 0.28678793 -0.30940557 -0.03143771 0.3595789
62 -0.026156615 0.07007906 0.31083664 -0.06498497 0.0036309354 -0.19552109 -0.19763575 0.027710658 -0.20206358 -0.27761278 -0.14227012 -0.09755198 -0.07954685 -0.124029815 0.05245398 -0.080548115 0.1955269 0.14423056 0.2513574 -0.21680075 0.07294331 0.23100267 0.23981695 -0.27710754 0.10371741 -0.086709216 -0.13149235 -0.039876424 -0.31004217 -0.06888293 0.008213472 -0.2995083 -0.45247522 -0.22268878 -0.24154277 0.20381227 -0.14533137 0.3169176 0.14736885 0.16181013 -0.00879791 -0.051353447 0.047409978 -0.24029939 -0.015770312 -0.040429447 0.18202747 -0.40233326 -0.23944223 0.19662258 -0.37652928 -0.00947978 0.23682944 0.34829664 0.035321422 -0.021856107 -0.0716955 -0.2562958 -0.17088617 0.15099223 0.38093576 -0.2044889 -0.17022452 0.22594191
79 -0.012768186 -0.07500988 0.24127059 0.023183558 -0.07410626 -0.27885377 -0.19671305 -0.024070242 -0.06927208 -0.3080223 0.095618546 -0.13268141 -0.21089028 -0.17213579 0.11173359 -0.15077533 0.114001416 0.03640672 0.1421773 -0.27120683 -0.12435912 0.06964714 0.26952493 -0.09467137 0.061106857 0.075721234 -0.11681622 -0.14586543 -0.19064201 -0.18504125 -0.07576861 -0.105763584 -0.40521428 -0.17966223 -0.29464924 0.27335986 -0.091960296 0.26106465 0.24747229 -0.055666838 0.14479142 0.18617545 -0.052205134 -0.11320919 0.08549291 0.069989756 -0.067246936 -0.24328287 0.061513867 0.034583565 -0.12733616 0.03520243 0.34748843 0.52830285 0.090899296 0.12519132 -0.11696741 -0.22199808 -0.21130115 0.27210334 0.4251621 -0.2689864 -0.09616233 0.51927125
18 0.33993506 -0.21315494 0.10343087 0.045978773 0.27988455 -0.03940246 -0.19033855 0.2651945 0.027357124 -0.0761191 0.25074968 -0.38263845 -0.35375077 -0.025687272 0.43848887 0.39594612 0.22782739 0.100145094 -0.15643553 0.3762457 -0.31484622 0.388562 -0.1044872 0.03452592 -0.33335334 0.10255346 -0.33723912 -0.09035369 0.24951291 0.33748102 -0.38150227 0.11312414 -0.33384338 -0.0003328765 -0.19458628 0.31885383 -0.44254294 -0.049060445 0.050379135 0.30492342 -0.57659435 0.12841788 0.39737648 -0.07757601 0.1748234 -0.303228 0.0073646456 0.07321286 0.28664088 0.3037626 -0.19324164 -0.04516574 0.30188233 0.14821799 -0.0028329208 0.30019554 0.088005945 0.08492717 -0.08376557 -0.03479621 -0.23225956 -0.21632203 0.24568324 -0.18667752
32 -0.038748067 -0.08916804 0.19998853 -0.10072668 -0.10040519 -0.123806015 -0.36610052 -0.07398407 -0.37126657 -0.35381243 -0.1480732 -0.14264864 -0.20349121 -0.03766739 0.22913192 -0.23266278 0.22288918 -0.0066122776 0.21507107 -0.25026762 -0.06718579 -0.04833251 0.2844537 -0.18224688 0.1943208 -0.16354218 -0.028992286 -0.15970692 -0.57235545 -0.17138812 -0.023823591 -0.25417715 -0.50194407 -0.29955575 -0.4871269 0.20964943 0.07858057 0.2165634 0.056578413 0.041845348 0.24289367 -0.10132326 0.066730626 -0.0085724145 -0.09341984 -0.09671738 0.16817653 -0.39466172 -0.10193095 0.039544754 0.032849483 0.019262623 0.57930815 0.40785125 -0.094905645 0.087024555 -0.046547294 -0.21210401 -0.33607224 0.27975166 0.374478 -0.35464466 -0.025141688 0.26660088
1 0.17315276 -0.20647366 0.13126919 -0.11862955 0.02288173 -0.25718167 0.041338336 0.028347943 -0.025549384 -0.2524722 0.05990912 -0.13500883 -0.22256467 -0.04317786 0.14051835 0.121032454 -0.013359203 0.097951144 0.07893213 -0.12363108 -0.06714077 0.49507856 -0.20269154 -0.3224814 -0.087224394 -0.22717836 -0.36263254 0.19314541 0.051637277 0.2047494 0.09221488 -0.17640693 -0.3439589 -0.22681385 -0.077379845 0.22346233 -0.09257314 0.19698209 0.34101385 0.14266382 -0.1452761 -0.06987921 0.103607304 -0.14261188 -0.0067662382 -0.12908761 0.14564094 -0.20712407 0.051622823 0.07699383 -0.020452159 -0.11597236 0.0564375 0.33474135 0.1274198 0.012822532 -0.07447089 -0.49366844 -0.28678393 0.06292315 0.15035285 -0.40764996 0.013106167 0.0696446
50 0.14272158 0.18454161 0.22199047 -0.097144574 0.2498498 -0.50543976 -0.14589259 -0.08266977 -0.3906815 -0.16858165 0.23808679 -0.4241649 -0.13488458 -0.03729785 -0.039922953 -0.06447741 -0.011510689 -0.322697 0.04620196 0.25480986 0.1838597 0.33830383 0.5368764 -0.10818175 0.060828004 0.47189593 -0.2367737 -0.08300284 0.07421138 0.013476802 -0.05471149 0.27444735 -0.01384048 -0.0021598793 -0.23862225 -0.2665808 0.13757962 -0.16588348 -0.0027713529 -0.17301695 0.07264607 0.011482792 0.049679134 -0.089727044 0.035528004 -0.27282327 0.17502037 -0.15239333 -0.04354781 0.06926197 0.049019404 -0.019465532 0.021689633 0.08397848 0.09501255 0.08042313 0.16169097 -0.066674374 -0.024044592 -0.21924758 0.51005566 -0.02000076 -0.16820264 0.066145964
15 0.25576046 -0.2758201 0.4521994 -0.11118615 0.0745601 -0.052425995 -0.10377866 0.09981607 -0.00991846 -0.2752613 0.031181086 0.034365 0.18895707 -0.0009021468 0.29501858 0.17989595 0.07055205 0.19849779 0.06637025 0.0012415866 0.21995299 0.53503835 -0.026792953 -0.43914473 -0.3123792 0.020969437 -0.34894255 0.15051489 0.060309034 0.1568384 -0.11258932 0.0073904623 -0.2862866 0.0015768996 -0.064495094 0.07195919 -0.19871554 0.03614677 0.28072545 0.3933086 -0.02549699 -0.15234318 0.4104968 -0.20356315 -0.10717899 -0.26209903 0.13155329 -0.0883545 -0.057888016 0.14303865 -0.040246904 -0.004927209 0.047882203 0.25876182 0.053593375 0.08394495 0.20293447 -0.11966488 -0.29927045 -0.12074378 0.113287866 -0.49729443 -0.006088913 -0.059169024
25 0.17466426 -0.10057614 0.15608746 0.106383376 0.22306827 -0.12084505 0.46947673 -0.007482365 -0.27371353 -0.24706183 0.024590267 -0.10685424 -0.26056656 -0.033421654 0.06372717 0.06476563 0.24619862 -0.056531876 -0.11701205 0.104897864 0.14996107 0.37994078 0.29591584 -0.08116774 -0.21341257 -0.1770183 0.062202297 0.08795228 -0.3468328 0.05193755 -0.048135154 -0.2122841 -0.011655852 -0.31246755 -0.1492447 -0.22192588 -0.0058844816 0.34308004 0.24228509 0.30920357 0.23559888 -9.653997e-06 0.016546655 -0.2859972 0.10497903 0.16841532 0.26111788 -0.15820073 -0.22411028 0.33361033 -0.026794314 0.25064877 -0.08179236 0.36872238 -0.028562326 0.2745811 0.0076306905 -0.20134215 -0.13893002 0.16000666 0.3174792 -0.21068543 -0.06691366 0.18261778
87 0.07603212 -0.13397555 0.033669557 0.14245363 0.016295895 0.015219653 0.36247474 -0.025403159 -0.00044871133 -0.20128892 -0.0941326 -0.11037554 -0.16497056 -0.10344645 0.2033295 0.22725469 0.040354095 -0.07134599 -0.04115815 0.12209919 0.18539135 0.17194147 0.49258864 -0.11171417 -0.06569427 -0.13001531 0.13622792 -0.03321646 -0.20695901 0.0155735295 0.016594771 -0.27360243 -0.14018641 -0.4843772 -0.25446677 -0.21836594 -0.09019387 0.1785844 0.22477847 0.25878212 0.23401389 -0.17303707 0.065819226 -0.41653666 -0.047127753 0.30933425 0.3370252 -0.40179184 -0.16241708 0.14381883 -0.1983588 0.31516704 0.10693833 0.37625 0.025229841 0.4281119 0.15889639 0.09962897 -0.1211933 0.34143266 0.19899237 -0.22921337 -0.048068658 0.25862986
99 0.10073213 -0.3727538 0.14832467 -0.2778632 -0.021516725 0.25524607 -0.0018330101 -0.3282774 -0.32728258 -0.0941117 0.16167371 -0.4043299 -0.50832 0.21475153 -0.35571903 0.08806853 0.30498987 0.027121173 -0.010887667 0.42815873 0.16844517 0.24026862 0.5051107 -0.39100718 0.2564885 0.18292321 -0.44575146 -0.2884819 -0.0992027 -0.22826783 -0.017157698 0.19090818 -0.069569096 0.31870666 -0.15016831 -0.4980262 0.3787422 -0.47036317 -0.21603979 -0.065577105 -0.0017287704 -0.23085342 0.042010315 0.19357058 -0.029066158 -0.17437342 -0.25394502 -0.15324031 0.013559866 0.35199168 0.16753808 0.23810026 -0.057828523 0.4045447 -0.31046498 0.20770913 0.15772676 -0.21830803 0.30269524 0.78533494 -0.07373101 -0.2712125 -0.13264167 -0.15493587
52 0.1401853 -0.22828035 0.29578856 0.048169177 -0.0008316059 -0.30174154 -0.030557878 -0.008829097 -0.43575928 -0.08100678 0.18960588 -0.12647243 -0.21399693 -0.19044395 -0.079419166 -0.12211838 0.2666586 -0.10076957 -0.08045006 -0.06863308 -0.0122637795 0.1698376 0.40875936 -0.21711911 0.09740041 0.119391344 -0.27627456 -0.07843858 -0.16830586 -0.2522146 0.009766526 0.19917598 -0.11709409 0.09472306 -0.17372017 -0.03431314 0.39468822 0.21949166 0.112254664 -0.07423676 0.17599516 0.17001969 0.07410567 0.108129464 0.16632259 0.0063066855 -0.27724445 -0.04638376 0.03868102 0.4301522 0.21505411 0.11771483 -0.0081643965 0.5147111 -0.060500022 0.2806932 0.03501386 -0.35377085 -0.022484953 0.17021573 0.3110831 -0.26101345 0.060132038 0.37477314
67 0.23193076 0.29621965 0.011754757 -0.18856232 0.53348523 -0.17851318 -0.10369741 0.043535788 -0.1568533 -0.3231535 0.25076368 -0.45957568 0.038204405 0.08992571 0.38050488 0.16180474 0.266763 -0.13664353 -0.111677885 0.6633667 0.18312632 0.15073937 0.49880928 -0.17061631 -0.27341524 0.36100724 -0.13545242 -0.19923279 0.080396086 0.22527252 -0.3654636 0.048615996 -0.19218 0.1582588 -0.5406905 -0.18408875 -0.43293905 -0.3086885 0.021398002 -0.11919179 -0.098272115 0.14312413 0.051407218 -0.05837904 -0.10535555 -0.33799812 0.23794736 -0.007558869 -0.20201448 -0.030966772 0.017356822 -0.26457676 0.36292565 0.0068900445 -0.088374965 -0.0684773 0.16572031 0.34506 -0.03030553 -0.11581544 0.11199353 0.019712249 -0.39345607 -0.13817409
109 0.14826642 -0.5117549 0.114796385 -0.17258492 -0.40008992 0.25138712 0.059822932 -0.45944664 -0.284669 -0.27155653 0.19564068 -0.34271938 -0.4784256 -0.07688544 -0.15290229 0.105181165 0.15174963 0.08116232 0.18206537 0.102129005 0.11658833 0.0606383 0.62422645 -0.25774056 0.16440746 0.3168635 -0.4830229 -0.25923803 -0.14944562 -0.34070787 0.011463801 0.06409908 -0.0021105763 0.19441769 -0.101401225 -0.4243688 0.4565459 -0.3387123 -0.19059053 -0.07084449 0.03991771 -0.2082486 -0.12472051 0.057664856 0.24704002 -0.13115528 -0.12788421 -0.095465004 0.1004303 0.38597605 -0.07184622 0.22179511 -0.08352234 0.5179985 -0.10425024 0.24814248 0.39467248 -0.3086377 0.27972236 0.86531365 -0.16448149 -0.47859865 0.036955096 0.0018319713
19 0.2676355 -0.26076084 0.0481457 0.083508044 0.28875068 -0.3403604 0.052595343 0.33270213 0.010879017 -0.06072666 0.08194659 -0.4420639 -0.017910728 0.021009946 0.20938638 0.48748118 0.16385353 0.10395327 -0.097260535 0.37116906 -0.08542975 0.53149956 -0.20333293 -0.22091109 -0.25549293 -0.03466663 -0.2771455 0.06346152 0.11149306 0.25256547 -0.19254547 -0.10847785 -0.28444606 0.061623372 -0.10185939 0.29882565 -0.43626723 0.016162787 0.21223578 0.2468943 -0.4545609 0.14381786 0.31402072 -0.0030598834 -0.13611497 -0.13628359 0.08131479 0.023943786 0.107032366 0.23100242 -0.053871166 -0.20495182 0.20489006 0.27784324 0.1082205 -0.093964696 -0.09959482 -0.12958494 -0.21820039 0.16409941 -0.024142183 -0.119707085 0.07945112 -0.040190652
5 0.26122075 -0.19851209 -0.22877273 -0.16019945 0.33152586 -0.19815898 0.05005656 -0.07512316 0.04381696 -0.3552947 0.14179367 -0.6892019 0.13103253 -0.101968214 0.20185497 0.4999985 0.06461234 -0.062242642 0.10038255 0.33611366 0.20617963 0.44147125 0.06869886 -0.07871863 -0.35110226 0.04961311 -0.15649876 -0.101802416 0.086973146 0.41957045 -0.29989785 -0.085279316 -0.31424707 -0.3122579 -0.21468452 -0.0509193 -0.45521447 -0.0075385743 0.26623058 -0.12437038 0.15356067 -0.048586138 -0.07539566 -0.1810555 -0.11252206 -0.025348758 0.24048853 -0.19562915 0.2886255 -0.19208394 0.035739627 -0.23062696 0.17329562 0.19915052 0.12633647 -0.35738015 0.027807547 0.037400637 -0.29203278 0.105457105 0.23916262 -0.16968979 -0.18207133 -0.17993368
89 0.23438066 -0.095100984 0.296995 -0.03662649 0.11428436 -0.22679953 0.33921456 -0.028535802 -0.32943353 -0.033358295 0.005101531 -0.091834985 -0.27406618 -0.25632384 0.008364708 0.029768577 0.36398324 -0.17320918 0.019626254 -0.049711276 0.16296047 0.41978076 0.2663452 -0.21733427 -0.023687057 -0.22588137 -0.21132822 -0.046257906 -0.22468905 -0.034691535 0.06782965 -0.010575835 0.15216601 -0.14228298 -0.17141928 -0.13251865 0.33017805 0.36893076 0.27242932 0.19432935 0.2937782 0.0744097 0.09283481 -0.091162324 -0.02650164 0.10470246 0.04138177 -0.21050467 -0.17344852 0.34567988 0.08703454 0.023368955 -0.13173363 0.38636598 -0.02014628 0.44614026 0.032833274 -0.35973203 -0.05548603 0.18400648 0.48311514 -0.18015714 -0.22612995 0.41274828
64 0.060424585 -0.20657328 -0.076404795 0.14487024 0.35924673 -0.1258265 0.0062756054 0.47431102 0.1654784 0.11593845 0.18573911 -0.2657302 -0.2642317 -0.05717888 0.39838788 0.47550827 0.3637201 0.084321305 -0.19062425 0.32195204 -0.16070296 0.41995943 -0.0027454416 -0.006145876 -0.005498222 -0.05384258 -0.16869847 -0.061500784 0.32700664 0.16935799 -0.13914266 -0.2251928 -0.23655404 0.18263178 -0.3315574 0.33277875 -0.45296067 0.06365628 0.15203416 0.25676334 -0.6356734 0.07343735 0.45507938 0.14045347 -0.07273482 -0.17154387 -0.00015302586 -0.1402102 0.12523924 0.3961791 -0.257992 -0.006127237 0.49064556 0.4162239 0.038972188 0.24647063 -0.22919887 0.06789659 0.029425899 0.33592716 -0.22037922 0.059978187 0.20959462 -0.08453795
78 -7.4689626e-05 -0.10712826 0.13061272 0.076878116 -0.028638601 -0.33232832 -0.112641506 0.045974903 -0.17130513 -0.21861935 0.11149208 -0.19866101 -0.29858732 -0.17155612 0.16067234 -0.11193404 0.00307154 -0.055442885 0.05789012 -0.30773115 -0.025778828 0.10847607 0.36069474 -0.008729821 -0.019983597 0.19474225 -0.07110652 0.03303578 -0.05288824 -0.13679743 -0.031524073 -0.050537195 -0.2058465 -0.24658844 -0.21764232 0.17022428 0.009254945 0.19117789 0.21231477 -0.047513556 0.11754797 0.08649532 -0.16054665 -0.19056365 0.10463631 -0.003575204 0.04900906 -0.28142413 -0.056249235 0.11597815 -0.06576569 0.08552709 0.32547805 0.44122785 0.1715171 0.2112557 0.046099946 -0.17144696 -0.23447895 0.20782515 0.3700872 -0.22921441 0.14947389 0.4588298
21 0.119456835 -0.0026074916 -0.14475219 0.1400636 0.49984425 -0.045966424 -0.10462712 0.25134587 -0.008427921 -0.040638424 0.28716382 -0.4927954 -0.40593714 -0.17165276 0.74429834 0.1325339 0.33618924 -0.024678845 -0.14292283 0.28432146 -0.025312262 0.39429888 0.016917039 0.19416113 -0.34938666 0.21326664 -0.17047366 -0.0063129645 0.47160578 0.32130578 -0.18082878 -0.062081598 0.04754953 0.15244389 -0.22741838 0.08225721 -0.40881622 0.019191884 0.013517946 0.12791076 -0.5717092 0.16092254 0.13120256 -0.045657538 -0.050866872 -0.56488794 0.117842525 -0.01659332 -0.082042575 0.1377962 -0.08343273 -0.120270334 0.6879318 0.14638455 0.08561821 0.47588256 0.20631033 0.1087549 -0.11382165 0.14877702 -0.05654878 -0.037156742 0.31093884 -0.1095115
59 0.2648195 0.22471003 -0.25342783 -0.13613003 0.39404887 -0.37691996 -0.05751995 -0.13776733 -0.3139126 -0.27780974 0.11295405 -0.7696173 -0.094923116 -0.044063613 0.08736427 0.3320129 0.24316844 -0.24616428 0.032622553 0.5243659 0.11682585 0.43028146 0.29799533 -0.038337346 -0.32549402 0.1907816 -0.075493276 -0.13559467 -0.06256503 0.38844743 -0.3419643 0.019657826 -0.3760153 -0.3515795 -0.13058569 -0.18158233 -0.34228912 -0.025398128 0.036090657 -0.15115322 -0.011754089 -0.060465306 -0.14730026 -0.28868112 -0.09822074 -0.2194217 0.26684716 -0.30258638 0.008587595 -0.12756597 0.077390105 -0.31186604 0.3105739 -0.037692793 0.093581274 -0.3649648 0.13823359 0.022991875 -0.2157598 -0.1239954 0.35293478 0.072690986 -0.18801177 -0.2498962
60 0.27308905 0.035932764 -0.266578 -0.15908709 0.34759733 -0.44059232 -0.12779798 -0.008040068 -0.14961828 -0.24901584 0.055058353 -0.65656316 0.15860446 -0.20881948 0.27975035 0.19600949 0.2775839 -0.14379247 0.04542472 0.360754 0.074661724 0.35196483 0.14943764 -0.11160421 -0.2614992 0.072204985 -0.17424206 0.07186019 0.11573518 0.4583749 -0.26738915 0.03609034 -0.46049595 -0.26615947 -0.2505206 -0.060283236 -0.36848387 0.17751952 0.27239138 -0.1475042 0.099247165 0.012755577 -0.2217159 -0.049314614 -0.10962258 -0.15100354 0.14415397 -0.23832944 0.20317872 -0.20472999 0.13412789 -0.26304945 0.39914542 0.1547934 0.048677444 -0.31391042 0.05792152 0.051003538 -0.25701013 -0.052627828 0.20740935 -0.051419992 -0.14929092 -0.017136298
104 -0.113072924 0.022864856 0.002614734 -0.11841867 0.64583236 0.24144703 -0.18837467 0.29957205 -0.35652626 0.30846876 0.29473588 -0.4242051 -0.7456527 0.32219657 0.27514112 -0.10735822 0.28527534 0.35270798 -0.37443057 0.683304 -0.06880702 0.6035743 -0.016228303 0.064019844 -0.098705046 0.25200605 -0.044223003 0.21839361 0.73580533 0.5049598 -0.21305679 0.29168233 -0.5538398 0.05719388 -0.3552263 -0.020132802 -0.21368296 -0.10938103 0.11661665 -0.22997859 -0.29080236 -0.037713524 -0.20694019 0.05255796 0.13929653 -0.26290578 -0.36745358 -0.293229 0.116932444 0.11265817 0.0673112 0.18383662 0.5030083 0.029300934 -0.30173331 0.27236238 -0.14525469 0.028852982 0.17648748 0.35786614 -0.1533637 -0.085052796 -0.1355485 -0.25202435
105 0.07139385 0.17540236 -0.0511247 -0.075783044 0.6847528 0.018801486 -0.054369323 0.33325508 -0.33541122 0.2845596 0.37028772 -0.29922566 -0.45558786 0.0953698 0.4740762 -0.061126728 0.3640556 0.15955776 -0.41985062 0.69759434 -0.17282382 0.59095865 0.08322477 -0.021777391 -0.06287279 0.15497702 -0.013787981 0.13540445 0.66428244 0.5650119 -0.17233916 0.21793914 -0.36775818 0.04357359 -0.3347231 0.0251694 -0.3466137 0.10547581 0.1877642 -0.072793365 -0.3420113 0.08775319 -0.021282168 -0.03897717 0.16516899 -0.2925443 -0.28748387 -0.14386901 0.07004684 0.16976348 -0.0536316 0.15940998 0.49143225 0.039825503 -0.23974743 0.3305165 -0.05225103 0.116347976 0.18764026 0.16732466 -0.2020442 5.693485e-05 -0.27983904 -0.19920415
113 0.08438322 -0.0013949038 -0.06595713 -0.088365614 0.5134268 0.42309064 -0.2049046 0.13690756 -0.23744562 0.26374957 0.3057875 -0.34972677 -0.5296307 0.3912284 0.33688638 -0.1805088 0.33219072 0.26273906 -0.54782856 0.6887884 -0.316079 0.57427424 0.23563626 -0.102954105 -0.02050574 0.20397645 0.0916697 0.00806491 0.5063431 0.36865196 -0.26954335 0.24425203 -0.4660438 0.020863904 -0.42967698 0.048951093 -0.6084801 -0.19117446 0.070204586 -0.027004171 -0.29792634 0.05208146 -0.09916755 -0.23500034 0.1475207 -0.33937386 -0.34743884 -0.015422551 -0.01411059 0.17177084 0.014650312 0.3299743 0.50569147 0.16845967 -0.43853283 0.2944851 -0.056823675 0.08597468 0.2667465 0.22549191 -0.23494163 -0.074721605 -0.17661668 -0.24228361
96 0.20161526 -0.48607457 0.15539414 -0.20850345 -0.40734205 0.15800528 -0.048710253 -0.403545 -0.46914056 -0.066386476 0.21164377 -0.43287736 -0.5340619 0.061509367 -0.30976713 0.0324666 -0.005151702 0.005744241 0.026600754 0.29423064 0.010804664 0.21058114 0.64553285 -0.32847255 0.2355524 0.38155562 -0.48546624 -0.14076932 0.025547989 -0.19622447 0.07547132 0.21797362 -0.14145163 -0.00028579967 -0.043913495 -0.4524808 0.40088025 -0.4999778 -0.15665022 -0.06781159 -0.040615793 -0.33265907 -0.18260151 -0.004960778 0.32701463 -0.2117432 -0.060578294 -0.12172837 0.15541351 0.33545175 -0.051056225 0.33115888 -0.09661387 0.3541838 -0.11300108 0.21778604 0.31933078 -0.33966035 0.38213322 0.6710515 -0.1586504 -0.46103108 0.0066731027 -0.06013424
11 0.16690081 -0.2874299 -0.26333073 -0.09973032 0.11477207 -0.2011708 -0.038097013 -0.06762574 -0.06278611 -0.27359375 0.032594882 -0.5740548 -0.07501608 -0.10457077 0.21183021 0.23779137 -0.022313192 0.08151113 0.14840582 0.056703616 0.067880705 0.11729746 -0.035597023 -0.02316676 -0.30310455 -0.20702745 -0.21523738 -0.04917013 0.002737574 0.25460857 -0.13999853 -0.091931306 -0.440011 -0.5101709 -0.10480788 0.08466457 -0.2844689 0.27549323 0.32065368 -0.15350847 0.19933993 0.034709707 -0.37210006 -0.14265357 -0.0038857989 0.08702501 0.21828881 -0.28375298 0.31558546 -0.20188202 0.07177938 -0.22079617 0.29676023 0.35671994 0.094321996 -0.2834088 -0.05741595 -0.15370062 -0.31383362 0.36999398 0.15255865 -0.3586967 -0.08357145 0.15899254
20 0.17813317 -0.16884518 0.051531952 0.033644676 0.5273264 -0.101676166 -0.11489772 0.27139992 -0.052294888 0.2094724 0.2815204 -0.4062213 -0.30312487 -0.1837984 0.34719232 0.31323755 0.34847638 -0.08892761 -0.11897567 0.38605994 -0.07509643 0.50756437 0.04234 -0.0135913715 -0.1918005 0.094296455 -0.21560141 -0.12522495 0.3444865 0.3345675 -0.13631576 0.07815117 -0.020647142 0.21502432 -0.28859302 0.08934179 -0.37072554 -0.041712873 0.081746094 0.040043317 -0.3446506 0.22706479 0.31138226 0.14216602 -0.005317041 -0.31599492 0.016433964 0.0383735 0.14786057 0.18901712 -0.02063426 -0.105842866 0.3545435 0.1854432 -0.046668854 0.5178449 0.052515466 0.1519974 0.09146439 0.062436104 0.11670658 0.10703697 0.07436982 0.053422473
30 0.28726503 -0.2062556 0.19612649 0.11448243 0.21003994 -0.06072563 0.6595265 0.086713195 -0.19821227 -0.10873675 -0.093671665 -0.0708208 -0.2731792 -0.14509018 0.16027375 0.20456873 0.16992697 -0.14226519 -0.05921057 0.1843402 0.27012822 0.4145303 0.2627145 -0.17371653 -0.1343129 -0.36889452 0.008634622 0.10943504 -0.34460562 0.16800389 0.061551683 -0.314711 0.27669063 -0.47140992 -0.22686341 -0.25878558 0.1294869 0.2828299 0.22202487 0.34936732 0.24061245 -0.08560901 0.122501045 -0.3329761 -0.0025771286 0.25484127 0.40801582 -0.31351045 -0.27683097 0.27754968 0.008936084 0.23463306 -0.17926529 0.45877346 0.06339582 0.5388467 0.10544203 -0.23906423 -0.09259818 0.2839505 0.28162667 -0.2191424 -0.19709486 0.3416971
68 0.17529856 -0.120138295 0.58498865 -0.067397326 0.02405566 -0.16395327 -0.033251513 0.17828396 0.09076194 -0.32277107 0.11777612 0.0800871 0.06839471 -0.16131707 0.2540611 0.252588 0.0023202926 0.30021602 0.175084 0.16269174 0.005716501 0.45869282 0.02760329 -0.44855273 -0.17755596 0.12371362 -0.43553758 0.12856199 0.14579765 0.22993457 -0.1180811 -0.1403459 -0.32499972 0.029853877 -0.18170577 0.19723381 -0.2702577 -0.08645433 0.23585272 0.36425698 -0.28803524 -0.1358514 0.4848004 -0.17828736 0.12897885 -0.21857569 0.14715898 -0.04452956 0.024202399 0.11226496 -0.36865434 -0.047896773 0.058458738 0.22963019 0.14268705 0.05561029 0.09087421 -0.05432483 -0.17157514 -0.0791664 -0.03511896 -0.40051246 -0.17701955 -0.018135983
27 0.25223756 -0.06976293 0.03873274 -0.04464693 0.24450597 -0.10769111 0.54168403 -0.014531931 -0.09812102 -0.16358596 -0.11909076 -0.29803792 -0.21520197 -0.15746593 0.028721912 0.23830783 0.07166603 -0.15008084 -0.014229986 0.22582941 0.30631062 0.38373837 0.25169924 -0.17079325 -0.24124749 -0.35751775 -0.04892277 0.06729558 -0.34490317 0.3450074 -0.026033053 -0.3099428 0.06849522 -0.6536787 -0.1923386 -0.35570776 -0.047875308 0.12990528 0.23579283 0.19653432 0.30717957 -0.20776139 -0.18733832 -0.3782091 -0.066655576 0.21553962 0.46135402 -0.36910367 -0.23251621 -0.01850786 -0.052177545 0.14367801 -0.08450532 0.29431874 0.11037241 0.20242317 0.11574321 -0.102485344 -0.15844674 0.2769986 0.20844865 -0.19353145 -0.25393122 0.17916736
26 0.1859447 -0.048088156 0.24033147 -0.0473922 0.16534425 -0.101467125 0.44819593 -0.14373894 -0.1946312 -0.2510807 -0.12337717 -0.18357253 -0.3417032 -0.05246258 0.06652634 0.038755074 0.06795612 -0.120267205 -0.006060395 0.12576462 0.053741157 0.3967074 0.15083212 -0.14290957 -0.13705465 -0.27298412 0.0009705274 0.0007133265 -0.3942207 0.14379004 0.0077201445 -0.33063516 0.0050969794 -0.42179075 -0.19606216 -0.20099898 0.024213703 0.20467988 0.23229125 0.33137786 0.25827596 -0.097647645 -0.018800758 -0.3497864 0.06824622 0.117244445 0.40989983 -0.22499676 -0.2102266 0.07843555 -0.23295593 0.11651047 -0.05456455 0.16223542 -0.038205627 0.37941602 0.04271864 -0.22419767 -0.1730834 0.21623899 0.34240094 -0.25885084 -0.3521479 0.1778993
73 -0.07896261 -0.06876845 0.029358525 -0.045243006 0.022777058 -0.20788237 -0.2565022 0.029866247 -0.11655029 -0.3978863 0.044631403 -0.20108768 -0.27423054 -0.13935809 0.28016323 -0.29812947 0.22585732 0.03543963 0.0682257 -0.4675753 -0.0070758313 0.19504514 0.03903192 -0.031290017 0.17813693 -0.047424685 -0.18881279 -0.016521066 -0.26006287 -0.10830371 0.05174401 -0.43472332 -0.27334034 -0.12365703 -0.38866633 0.50051326 -0.02727703 0.2251038 0.08711593 -0.0027436966 -0.116991475 0.15809767 -0.0037097605 -0.110558495 -0.11206019 -0.14762463 0.115781136 -0.43070805 -0.22409713 0.010595594 0.09077722 0.05397085 0.4449603 0.64492685 0.10629247 -0.028956566 -0.12753181 -0.56592065 -0.3011031 0.22497697 0.3431067 -0.38121608 0.1163951 0.42206886
101 -0.02065653 -0.18163207 0.01465552 -0.1938421 0.5472383 0.2560016 -0.3330983 0.19507688 -0.18351236 0.29323056 0.28218755 -0.45542154 -0.46544182 0.35853615 0.17068303 -0.029478801 0.30376145 0.36406434 -0.25832957 0.47504827 0.07505385 0.7207011 -0.11667236 -0.1307414 -0.109601945 0.049168196 -0.2258038 0.19483694 0.6112676 0.5525279 -0.066973 0.14362256 -0.41315892 0.14959413 -0.41887948 -0.07603786 -0.25334832 -0.10134108 0.22208951 -0.12978701 -0.1436048 -0.16039936 -0.14567958 0.08442999 0.070714846 -0.38345855 -0.22438043 -0.11755329 0.28812334 0.07647597 0.07212267 0.25143117 0.3023742 0.08655493 -0.38599667 0.14502299 -0.117105745 0.08892602 0.13442118 0.30093363 -0.14922836 -0.19893628 -0.092197224 -0.47224778
47 0.15841943 -0.21374762 0.34585896 -0.21311264 -0.055560812 -0.11230219 -0.15172802 -0.14930058 -0.5360933 -0.10023439 0.20418157 -0.2906722 -0.20770285 0.16436394 -0.027657786 -0.14007111 0.23084931 -0.018775387 0.08701054 0.28310826 0.21048427 -0.01135466 0.60127395 -0.2928098 0.106411554 0.38680223 -0.5611457 0.016942395 -0.079123855 -0.23133612 -0.032140423 0.4722019 0.012570075 0.23555873 -0.24400347 -0.46469525 0.5091669 -0.42922893 -0.11927819 -0.025484549 0.12767655 -0.110457815 -0.03051525 0.20839575 -0.07918372 -0.3307764 -0.11834789 0.012759485 -0.12339165 0.2688924 0.40079522 0.16190538 0.09900501 0.3129596 -0.10013352 0.13297959 0.17087945 -0.04393123 0.09154726 0.4184535 0.009960658 -0.45242327 -0.03903988 0.07844379
38 -0.055027492 -0.36101705 0.030864837 -0.041521993 -0.29625788 -0.024802573 0.17220372 -0.1346064 -0.3128303 0.023015268 -0.019336032 -0.21618165 -0.1688784 -0.25097138 -0.07415696 0.05456497 0.07869105 -0.10272365 -0.087992735 0.124509856 0.18299328 0.1829463 0.7007599 -0.18767108 0.15852517 0.24210969 -0.21057649 0.053939212 -0.015611713 -0.16051875 0.11943206 -0.070236064 -0.19776003 -0.2117872 -0.06820237 -0.20652726 0.2888716 -0.062477853 0.13885924 0.13959658 0.19300015 -0.32224777 -0.07964414 -0.11507208 0.17847334 0.20559503 0.08206215 -0.3986917 -0.11332937 0.29077142 -0.20793124 0.5104353 0.09491072 0.3015011 -0.15264434 0.33264655 0.3299142 -0.049494036 0.23568755 0.38907358 0.011875761 -0.2470808 0.14307575 0.2141332
88 0.16232139 -0.0102146575 0.21246287 0.039171938 0.40729356 -0.31111288 0.30506608 0.14530618 -0.20959073 -0.0048731905 0.11306761 -0.09953579 -0.35153386 -0.16745692 -0.046217833 -0.044964805 0.40391874 -0.12081309 0.055597283 -0.0022139866 0.21205766 0.44138217 0.13038611 -0.12902135 0.03393459 -0.19984747 -0.12076288 0.03087452 -0.12839395 0.13278648 0.08563746 -0.0026439305 0.2590539 -0.059553694 -0.11158909 -0.12955575 0.20149201 0.28185806 0.24704486 0.13847175 0.15293847 0.11562559 0.03635594 -0.060224075 -0.12429463 0.084184006 -0.12020318 -0.21764366 -0.13093351 0.18194376 0.15257576 0.26938507 -0.023365684 0.47719538 0.11302727 0.39416802 -0.10012911 -0.23693801 -0.06983807 0.32510814 0.44743463 -0.12426179 -0.19075061 0.43595076
97 0.06832085 -0.43606678 0.12417942 -0.2128387 -0.40329102 0.17983133 -0.091519415 -0.41347885 -0.30964983 -0.17241915 0.32278022 -0.28141454 -0.32480225 0.10877491 -0.12916628 -0.006165051 -0.09856775 0.05264833 0.03017798 0.22677891 0.020866888 0.069236204 0.73776144 -0.45805842 0.23117825 0.3905394 -0.55738837 0.026915956 0.13633253 -0.35573325 0.1561197 0.25054422 -0.18955731 0.02866168 -0.10240882 -0.49475446 0.2839088 -0.44632304 0.025623905 -0.122022726 -0.052474935 -0.33830038 -0.1279665 -0.055829927 0.15624726 -0.18529779 -0.13340296 -0.11810696 0.059115544 0.22095807 0.10520987 0.35251135 0.028451083 0.5402871 -0.043041907 0.12652127 0.27161494 -0.23625202 0.26891574 0.8613202 -0.21148537 -0.5083933 0.01574632 -0.03358125
14 0.21207698 -0.1304601 0.34890866 -0.07604839 0.009837177 -0.23951387 0.0059570456 0.024847398 0.039274864 -0.39381087 0.1411879 -0.00423139 0.09250577 0.07705851 0.27565783 0.27861556 0.10185064 0.33175093 -0.065737665 0.13248065 -0.02510008 0.508007 -0.14389518 -0.47512737 -0.28206724 0.042210218 -0.39842045 0.14244267 0.08627004 0.15459684 -0.23473997 -0.01638016 -0.44957763 0.09505323 -0.10453827 0.18735835 -0.24066715 0.12900554 0.2306947 0.36775565 -0.20251192 0.014562737 0.43053204 -0.22687355 0.01080856 -0.1595928 0.055918835 -0.05924697 0.0036887627 0.22499041 -0.19299585 -0.32481387 -0.02384724 0.18572792 0.019678853 -0.06466756 0.11602461 -0.19797201 -0.33363435 0.0005903189 0.036142893 -0.25461927 -0.23507601 -0.1528028
58 0.2671234 0.24495715 -0.11485366 -0.15437317 0.37034616 -0.2969018 -0.10288174 -0.19065261 -0.18626799 -0.35511118 0.2507926 -0.5403441 0.035779826 -0.056859985 0.21451204 0.22790487 0.1871555 -0.27189285 0.0008673192 0.42218694 0.11777839 0.46152773 0.3262917 -0.20740153 -0.35250852 0.2273545 -0.1723452 -0.1005468 0.068293005 0.29309326 -0.31075376 0.10435137 -0.24628073 -0.22607952 -0.19350727 -0.20641835 -0.48802766 -0.044591572 0.083375126 -0.026336009 -0.054512337 -0.066279374 0.06251862 -0.3655664 -0.05557989 -0.35563272 0.3039683 -0.16704004 -0.048322856 -0.014639802 -0.024446992 -0.31409124 0.22878039 -0.008302898 0.09670712 -0.19881064 0.17527089 0.11048513 -0.25421804 -0.26719478 0.38923684 0.04663811 -0.17749913 -0.30583125
6 -0.06693774 -0.13952674 -0.0017783855 -0.0866375 -0.006269836 -0.4312232 -0.14029913 0.016916525 -0.22263372 -0.36446846 -0.00596931 -0.29565012 -0.14675303 -0.18241942 0.1683947 -0.12380275 0.030242179 -0.055823296 0.04714633 -0.22919887 -0.03053667 0.0664064 0.25339675 -0.08977518 0.031002048 -0.026601218 -0.08196422 0.020748975 -0.08069857 -0.049071442 0.0459942 -0.1920375 -0.4482774 -0.14662832 -0.24015632 0.2859795 -0.045392774 0.36786065 0.37220484 0.12669685 0.11484842 0.099319994 -0.077945635 0.029786682 0.08202981 0.027566137 0.2983902 -0.34575263 0.008700617 0.1525127 -0.25392723 0.008400703 0.3308032 0.29177424 -0.09656499 0.07936288 0.015572958 -0.23276445 -0.21459773 0.1798873 0.3261239 -0.20637845 0.06810076 0.3600638
61 0.22608192 -0.041862704 -0.33625 -0.10719744 0.41556868 -0.3570375 0.19071583 -0.16440402 -0.054694463 -0.49654815 0.07714201 -0.719127 -0.15396011 -0.05929542 0.19914435 0.47996065 0.2111 -0.042528912 0.07202604 0.35341772 0.08479233 0.4295792 -0.042741988 0.08608617 -0.4462165 0.09651578 -0.07952684 -0.09397016 -0.03788529 0.36697716 -0.3835154 -0.080555014 -0.3220104 -0.30881602 -0.09612446 -0.13163278 -0.37652752 0.3034896 0.16631429 -0.1983 0.1522416 0.07303707 -0.2305348 -0.18161461 0.0020355785 0.028166587 0.18165313 -0.20095941 0.31838545 -0.14006339 0.0006810388 -0.39900634 0.23245566 0.15907943 0.18327527 -0.36769527 -0.007453805 0.06208564 -0.4068394 0.24261977 0.2656767 -0.09263516 -0.1926677 -0.21222475
91 -0.07552898 -0.085427836 0.24983609 -0.08217704 0.4345843 0.2244901 -0.03463761 0.21512374 -0.43622038 0.06958561 0.2937576 -0.23133227 -0.6966154 0.6528253 0.027615804 -0.02899968 0.24523167 0.26592284 -0.39891398 0.56823343 0.17027855 0.4903631 0.20934875 -0.12104202 -0.011553303 0.2743023 -0.0043027317 0.12880497 0.27607447 0.24087857 -0.20136595 0.23378453 -0.32210723 0.21225 -0.34042242 -0.25445443 0.15833929 -0.33672386 -0.014110692 -0.09530648 -0.06599643 -0.12934656 0.01853249 0.10323213 0.06943086 -0.23915942 -0.3498706 -0.07561784 -0.02609432 0.25418523 0.23099168 0.41052166 0.14365765 0.08417393 -0.3754773 0.29178324 -0.022808583 0.13800745 0.12566628 0.43894675 -0.18651892 -0.19458185 -0.12299499 -0.43084338
43 0.0922879 0.22271952 0.2642081 -0.051949285 0.08852144 -0.4005925 -0.13281076 -0.06551657 -0.39336866 -0.26421648 0.3933994 -0.18631232 -0.04530714 -0.030327274 0.34296432 0.01899491 0.08840242 -0.12282564 0.15590143 0.15474257 0.23362826 -0.16209489 0.6614026 -0.07869943 -0.25613615 0.54841626 -0.40456563 0.116633125 0.16258001 -0.15864503 -0.09771729 0.39062443 -0.056617472 0.1123104 -0.20546845 -0.44098586 0.20563172 -0.12349224 0.018597802 -0.13582548 -0.01815693 0.1113714 0.024476144 -0.052722406 0.022153964 -0.30109596 0.11126354 -0.0959006 -0.08738523 0.14283402 0.14681853 -0.15622565 0.18176718 0.1397844 0.24808265 0.10572768 0.09456825 0.19282019 -0.08682292 0.12112544 0.21041499 -0.19653726 -0.103016235 0.10811671
92 0.028777568 -0.11904304 0.28931642 -0.20667562 0.42173052 0.5134104 -0.16817483 -0.08977746 -0.2392565 0.0544575 0.3770316 -0.3393279 -0.90413284 0.42894343 -0.03495177 -0.19432114 0.6212332 0.36047184 -0.38936546 0.63434744 -0.06779662 0.66458577 0.06326277 -0.16494747 -0.07514578 0.3062341 -0.17042333 -0.0785974 0.32699203 0.29672512 -0.42630035 0.345353 -0.40103602 0.33103833 -0.36798617 -0.24507706 -0.033273466 -0.2967172 -0.18094578 -0.13250242 -0.053215213 -0.027109934 -0.22307764 0.040923692 0.27412003 -0.4057468 -0.67453074 -0.021458013 0.097809546 0.25284263 0.19271842 0.30566722 0.21167041 0.185914 -0.47198552 0.3363027 0.019859634 0.035105474 0.22456627 0.52044415 -0.19051138 -0.25224093 -0.29406044 -0.40906212
111 0.14409344 -0.45023328 0.037754808 -0.19188374 -0.3614269 0.01752106 0.023307873 -0.4639181 -0.45471615 -0.19722976 0.16874674 -0.44615754 -0.5365983 0.03374935 -0.2979481 0.13691205 0.18054958 -0.0167031 -0.021236982 0.32859308 -0.024438605 0.05587931 0.66352475 -0.26784125 0.19569051 0.36568624 -0.5827751 -0.19057034 -0.045285027 -0.4168823 0.024687257 0.33285442 -0.20883423 0.11893092 0.1343775 -0.57403386 0.57169116 -0.26966304 -0.19842702 -0.0068301368 -0.08411832 -0.27014652 -0.015971992 0.07691731 0.19195808 -0.08624078 -0.19918758 -0.18248396 0.15671676 0.49008387 0.03477468 0.22367868 -0.013399589 0.3888702 -0.17516488 0.29269084 0.3786192 -0.26396894 0.24080926 0.836523 -0.21247141 -0.3794177 0.16908592 -0.13700765
31 0.15214781 -0.3072545 0.026278066 0.006019842 0.26405323 -0.17277467 0.24736701 -0.027537398 -0.037688848 -0.38757807 -0.18836385 -0.5020253 -0.27543226 0.09196299 0.0039825314 0.40043816 -0.05370215 0.018048715 0.18516102 0.25298056 0.1313157 0.35528278 -0.23504159 -0.11470106 -0.45026165 -0.22360922 -0.23731199 0.10883571 -0.18247488 0.21783172 -0.15246901 -0.09390001 -0.27848172 -0.58415973 0.039139625 -0.16961187 -0.12609258 0.24372867 0.22239332 0.14834939 0.24743792 -0.14896722 -0.09915853 -0.17973806 -0.041113365 0.20776065 0.30397257 -0.34871504 0.24093561 -0.15654397 0.112619914 -0.09646926 0.0791263 0.26955295 0.13585153 -0.06418869 -0.099937245 0.005628711 -0.51861817 0.25129697 0.34655288 -0.37321365 -0.015132023 0.015174389
24 0.21900503 -0.14290284 0.20776865 0.09496698 0.19072343 -0.2099027 0.63953084 0.061518203 -0.28554365 -0.21944787 -0.13023801 -0.069232486 -0.43168893 0.1270064 0.1188608 0.27210867 -0.07680346 -0.010894885 -0.013739576 0.2603531 0.14422017 0.32144535 0.07657414 -0.24268942 -0.17254734 -0.43044034 -0.026038535 0.10353913 -0.34700906 0.11210396 0.023357559 -0.27168778 0.028962364 -0.48267326 -0.1005807 -0.2440449 0.11355053 0.2705459 0.29843235 0.34652084 0.10040204 -0.0030276906 0.09736167 -0.32571802 0.03550389 0.34544015 0.5391019 -0.255262 -0.17682362 0.30816084 -0.2110477 -0.05453021 -0.2568867 0.16165413 0.07690996 0.5050454 -0.006887021 -0.2457628 -0.15295357 0.4260356 0.20505595 -0.20126031 -0.35509005 0.19446762
7 0.17666012 -0.20730746 -0.4199301 -0.17775413 0.33609384 -0.33018687 0.038302127 -0.116820015 -0.10170911 -0.3241436 0.027855834 -0.81820357 0.07576409 -0.19137907 0.22820587 0.46653605 0.07591592 -0.010219977 0.21605909 0.33174708 0.17396191 0.19553761 0.04319402 0.10895815 -0.28444666 -0.18116517 -0.1235848 -0.16506825 -0.02439757 0.41476405 -0.2531527 -0.09114506 -0.43243906 -0.4107686 -0.26675904 -0.124780774 -0.31490877 0.32996893 0.30832848 -0.23654547 0.28550848 0.024089726 -0.37881345 0.013916666 -0.07491314 0.10898506 0.3479358 -0.20361647 0.47866747 -0.10701294 -0.057501372 -0.37843046 0.275743 0.16457556 0.038211748 -0.41156828 -0.073693864 0.06628551 -0.23538701 0.40563613 0.17904586 -0.13116713 -0.2255103 -0.07973683
102 -0.19648243 0.031331327 0.23552015 -0.1364447 0.6368575 0.33211067 -0.15490115 0.31584823 -0.2742545 0.12981734 0.35227606 -0.115950644 -0.6124818 0.4746209 0.030220328 -0.06970117 0.32986826 0.5540775 -0.3222477 0.6115286 0.117137 0.6173012 0.08139706 -0.09088105 0.07564857 0.15122557 -0.0053778267 0.11145728 0.5092584 0.38676777 -0.21013093 0.11861616 -0.52510977 0.24116863 -0.5957949 -0.07362062 -0.052384123 -0.030400826 0.1993304 -0.25816554 -0.033165082 -0.06740138 -0.01447122 0.20475964 0.16171637 -0.099891506 -0.49413025 -0.17114453 0.21276289 0.29169267 -0.029850379 0.3287848 0.19138935 0.1754405 -0.4294002 0.15011823 -0.33846474 0.048776757 0.25331572 0.50685066 -0.19413717 -0.1314399 -0.3973459 -0.4009146
110 0.053992458 -0.32091483 0.11943175 -0.20863998 -0.2567563 0.0018110235 0.018100722 -0.34645295 -0.45404112 -0.18197593 0.27528292 -0.36851686 -0.5583141 0.14851302 -0.23022224 -0.044393532 -0.06932441 0.042717386 0.049604986 0.34626427 0.029516624 0.02139714 0.6578919 -0.30658278 0.32204798 0.403715 -0.4865823 -0.11736698 -0.0043927035 -0.35036993 0.060141474 0.22637756 -0.076861106 0.14663255 -0.11945614 -0.5534392 0.43139684 -0.5607227 -0.18519358 -0.1999631 -0.17477022 -0.1736847 -0.16911934 0.072074175 0.10715046 -0.18594941 -0.05899668 -0.124726735 0.02496351 0.32582802 0.07161463 0.15161422 0.015077998 0.3642503 -0.023868477 0.202609 0.1871666 -0.37637755 0.32588986 0.96732277 -0.18793651 -0.36225525 -0.06934923 0.008993878
93 0.016846633 -0.35660535 0.1982112 0.097536094 0.5190638 0.3202562 -0.15343511 0.4720586 -0.19894862 0.36665893 0.24155596 -0.529128 -0.6679526 0.37493163 0.14100929 0.17928284 0.32578132 0.28884023 -0.5238026 0.55923814 -0.029715203 0.7266386 -0.10972818 0.01956864 -0.12962389 0.24306136 -0.007217648 -0.117576115 0.38450575 0.3242184 -0.37696385 0.1712984 -0.3379434 0.2756506 -0.5723981 0.26610124 -0.26737383 -0.31563485 -0.08699809 -0.20214233 -0.21261911 0.21726224 0.010969495 0.100941844 0.07225518 -0.21610108 -0.3596565 0.076932326 0.19055839 0.39151165 0.13134262 0.15983583 0.23171079 0.20329493 -0.3414869 0.32649872 -0.14538279 0.054279916 0.1641658 0.2787082 -0.085467644 -0.10256543 0.032076787 -0.17965879
36 0.17054035 0.013997845 0.08154263 0.29226947 0.35648176 -0.20831943 0.03508823 0.3027282 -0.02807755 0.101104826 0.21744049 -0.44094664 -0.1493064 -0.34206676 0.41035062 0.32944074 0.22259891 0.09011766 -0.12464593 0.46295285 -0.24083436 0.32555228 0.098572776 0.038639467 -0.21326862 0.26846415 -0.1824587 -0.15443933 0.15786074 0.14884125 -0.2779179 -0.14251587 0.004894937 0.106360644 -0.40935123 0.26897827 -0.45253843 -0.10908601 -0.12252209 0.07102871 -0.6121481 0.2711383 0.096368 -0.15666988 0.087395586 -0.28285947 0.08753101 0.0060162903 -0.028579012 0.1629222 -0.1847759 -0.28420323 0.43960774 0.31748518 0.18084455 0.12181404 -0.06642633 0.030835195 0.008187397 0.20689128 -0.0063368296 0.1141201 -0.022286441 0.2777679
98 0.07010915 -0.36993644 0.12784769 -0.2717088 -0.18752116 0.19825186 0.09346875 -0.3590766 -0.30611607 -0.19993922 0.14862081 -0.40306675 -0.6034755 0.21277894 -0.3371683 0.060372077 -0.026000857 -0.017773975 -0.08073684 0.37290972 0.013194504 0.328081 0.54335743 -0.41249225 0.3858852 0.3339022 -0.4156831 -0.17575862 -0.053398456 -0.27120754 0.035810158 0.17293252 -0.042450015 0.1624128 -0.06899779 -0.38382936 0.37166005 -0.5622866 -0.2401826 -0.044466037 -0.17726684 -0.35638353 0.005739266 0.010875064 0.0866698 -0.18593198 -0.15951961 -0.21588379 -0.042834677 0.34933722 -0.036217913 0.2512674 -0.06617902 0.39478678 -0.16937004 0.19980097 0.27403545 -0.32577217 0.28391552 0.78413147 -0.17476593 -0.28212386 -0.028985923 -0.16533256
8 0.11901189 -0.11322777 -0.49780026 -0.1278937 0.20825487 -0.28553927 0.010006366 -0.12242732 0.06534283 -0.09115758 0.14178579 -0.69147563 -0.018387714 -0.26425153 0.21155131 0.37891167 0.40609503 -0.05598558 0.12578198 0.17021805 0.016762925 0.41227657 -0.03373948 -0.012760555 -0.29864237 -0.018063152 -0.1292492 0.0073360084 0.17701606 0.3972262 -0.18961456 -0.22845069 -0.46264368 -0.26706493 -0.12619257 -0.0012359002 -0.3750238 0.44135398 0.33801624 -0.30632645 0.09948238 -0.0075013363 -0.37997192 -0.14254718 -0.06692909 0.002481453 -0.06528151 -0.4128416 0.3437975 -0.2849682 0.11660609 -0.34859246 0.4947649 0.37256357 0.14722261 -0.3708427 -0.06378948 -0.03488369 -0.2336865 0.3963201 0.27401605 0.027264722 -0.1931366 -0.074636996
28 0.20624131 -0.3308109 0.09337435 -0.028913867 0.35928696 0.0071954625 0.5069418 0.26692146 -0.09695916 -0.22685958 -0.05321296 -0.09953254 -0.03930887 0.20853098 0.22610429 0.23849678 -0.08742537 -0.022877354 -0.021732472 0.19502784 0.4421522 0.51006204 0.108105585 -0.3897455 -0.22532013 -0.45827135 -0.08677361 0.14548416 -0.2177376 0.20881188 0.10453084 -0.33490133 0.18773247 -0.29355955 -0.23567583 -0.17924261 -0.023534216 0.033634737 0.41984475 0.41428554 0.12952593 -0.25460145 0.14955013 -0.1574305 -0.13095947 0.102657676 0.4559966 -0.0907522 -0.25873512 0.23744173 -0.01200425 0.23816796 -0.17017251 0.3503206 -0.013696377 0.28872174 0.083246954 -0.12022503 -0.16687772 0.20024334 0.02468415 -0.39196303 -0.14123283 -0.037634414
53 0.23154327 -0.06467358 0.1402201 0.03152624 0.15860811 -0.33039275 0.09656859 0.10510978 -0.5863057 0.042276055 0.25866863 -0.21625711 -0.09906926 0.11755217 -0.1132362 -0.0041952245 0.27088717 -0.16486241 -0.13403635 0.29210815 0.18858157 0.36284924 0.54167426 -0.3261278 0.22756344 0.15948161 -0.2818405 0.07433512 -0.08776392 -0.21860632 0.019491151 0.22813274 0.181695 0.14960691 -0.1507623 -0.26345882 0.35315326 -0.10902587 0.019492993 -0.020010814 -0.12730232 -0.02801045 0.11399508 -0.009629597 -0.037477713 -0.18210325 -0.28137502 0.036224023 -0.21080427 0.48557523 0.4015251 0.20671941 -0.14556241 0.5085195 0.04613475 0.04453783 -0.03620631 -0.38097808 0.074563265 0.27728754 0.10197311 -0.122344136 0.027128773 0.049791217
112 0.0021728484 -0.4712921 0.006133978 -0.2550447 -0.20175833 0.14333451 -0.14824589 -0.25504524 -0.3101525 0.025246387 0.2643555 -0.48646525 -0.42163688 0.1522381 -0.21269168 -0.032691948 -0.006845355 0.09262076 -0.0016339405 0.3376996 0.07390794 0.32490647 0.48132062 -0.3210651 0.32539356 0.3117385 -0.54919493 0.008013404 0.27653155 -0.10487543 0.1829069 0.22671416 -0.05153236 0.17829897 -0.115154035 -0.33613962 0.2779747 -0.44061235 0.026926313 -0.18605986 -0.07880146 -0.3604935 -0.21753225 0.17375602 0.14965189 -0.29496697 -0.23780246 -0.04433415 0.17895775 0.163486 0.03293374 0.4111201 0.09934828 0.465053 -0.18969956 0.058435123 0.23563376 -0.22570042 0.35158128 0.81534666 -0.2787399 -0.37029618 0.050181083 -0.17542885
9 0.3801679 -0.25207883 -0.44068283 -0.047692243 0.31436744 -0.23709407 0.16723791 -0.07903698 0.054066107 -0.40551943 0.1008154 -0.77132016 0.0673767 -0.211499 0.51197183 0.4603215 0.33742836 -0.06736703 -0.0025523624 0.39238504 -0.0027650117 0.19781093 -0.069498494 0.091162756 -0.5564726 -0.038247783 -0.20861243 -0.036011506 -0.04100131 0.42489406 -0.43434945 -0.0005951633 -0.34018406 -0.40685076 -0.23379403 -0.10672399 -0.45166355 0.2952164 0.25489786 -0.17203963 0.228899 0.21768013 -0.38591906 -0.07615291 -0.071337596 0.02823875 0.10015977 -0.054344635 0.40350005 -0.26648593 0.35744372 -0.37174013 0.3967765 0.40393397 0.16499239 -0.33429092 0.019692523 0.12797937 -0.4261514 0.39999676 0.016886443 -0.25804657 -0.10372192 0.010730676
94 0.1669452 -0.45247304 0.09722594 -0.3783275 -0.35607827 0.21260735 -0.01072322 -0.5802675 -0.2987102 -0.29270253 0.36677244 -0.44512504 -0.35963243 -0.13452053 -0.15885563 -0.031800132 0.19955768 0.07678627 0.18185654 0.07592141 0.16080911 0.41820812 0.5958752 -0.26965523 0.24735036 0.45089215 -0.63808376 -0.20073071 0.05024972 -0.3076355 0.05285145 0.12782069 0.23875335 0.24872378 -0.15798414 -0.29299203 0.4037877 -0.23091416 -0.024291968 -0.07827964 0.057492666 -0.24185415 -0.2755626 -0.00019807483 0.41675097 -0.25978905 -0.2367469 -0.027548911 0.12898058 0.38637456 -0.22672878 0.41074315 -0.27906916 0.6117853 -0.09928589 0.06435835 0.42639422 -0.44525394 0.44865012 0.7833495 -0.101358764 -0.44638923 -0.2006452 -0.042225063
70 0.17264327 -0.14055029 0.4809011 0.21756001 0.17819978 0.22902724 -0.043632284 0.27137247 0.03969385 -0.18332516 0.23345962 -0.112233505 -0.5046166 -0.2068696 0.595429 0.22409502 0.04138047 0.32199064 0.17058444 -0.008214325 -0.14068441 0.23949379 0.0484378 0.13691443 -0.42049032 0.30141842 -0.1448671 -0.1604938 0.123804666 0.12293 -0.2834645 -0.26447576 -0.055052444 0.03168901 -0.3192557 0.37356725 -0.31779206 -0.23272836 -0.07096011 0.24701051 -0.54191667 0.13587335 0.21468066 -0.2713906 0.32855165 -0.4030705 0.2097081 0.07899429 -0.03904557 0.23157872 -0.52924305 -0.008054109 0.3905198 0.18897153 0.174066 0.5229972 0.22542639 0.042464536 -0.07360785 0.05335719 -0.12934643 -0.33197576 0.060260974 0.12838879
39 0.1843427 -0.21511215 0.069231965 0.036430497 -0.37491277 -0.112055436 0.19566847 -0.15881771 -0.3399919 -0.04806306 -0.011226613 -0.18306307 -0.0058311084 -0.1292822 0.09414491 0.122043125 -0.101876765 -0.2307455 -0.13397385 0.21902843 0.15265875 0.07517271 0.95804906 -0.29955056 0.005183171 0.32496756 -0.020925533 0.11610874 -0.03076049 -0.18770203 -0.021091172 0.05909408 -0.20885447 -0.42967933 -0.14159454 -0.2466649 0.040605813 -0.16208364 0.22302441 0.093436226 0.2550496 -0.23852406 -0.09711552 -0.491912 0.11089126 0.21600945 0.24105306 -0.34383133 -0.2726548 0.17463277 -0.043937128 0.41396618 0.028843723 0.28373015 0.027373062 0.2414653 0.39314374 0.02078806 0.12060718 0.10237607 0.1518357 -0.2008249 0.074558325 0.28850228
103 -0.09527265 0.042570982 0.085757494 -0.26541057 0.6508 0.46976686 -0.080495164 0.1129269 -0.1660216 0.05722375 0.39469072 -0.28453183 -0.72159624 0.621024 0.0077347993 -0.10467366 0.45935 0.4014577 -0.51957864 0.80230653 0.024847466 0.7099544 0.084806904 -0.28578934 0.06830344 0.13167603 0.0059199003 0.031606082 0.48519954 0.43347758 -0.3487167 0.19383824 -0.50173795 0.20525666 -0.42708835 -0.16067971 -0.27790633 -0.34331354 -0.00650073 -0.18155177 -0.10747662 -0.13124166 -0.041720532 -0.052916665 -0.028851485 -0.24092121 -0.5807562 -0.28197035 -0.0150900325 0.16704285 0.20736487 0.30500394 0.2991998 0.22997595 -0.46332484 0.043638874 -0.16929342 -0.00030917936 0.22326522 0.5218479 -0.19693723 -0.06893444 -0.47061086 -0.48660153
100 -0.09963218 -0.101372875 0.121782236 -0.058891725 0.69362044 0.5357532 -0.22992663 0.33813462 -0.19789688 0.1721683 0.4136105 -0.32171136 -0.7326376 0.5248783 0.17517534 0.019901088 0.4020949 0.48016417 -0.390372 0.6474984 0.19254151 0.58094627 0.07871525 -0.022216406 -0.087637454 0.21724913 -0.0061032623 -0.020697271 0.51169 0.40515655 -0.3194665 0.17803656 -0.45063955 0.25877666 -0.6343707 -0.10434436 -0.18387736 -0.31684157 0.0026739007 -0.25554463 -0.07795059 -0.021850785 -0.008410293 0.12624855 0.039511703 -0.26714602 -0.5023229 -0.14516209 0.14472356 0.24521112 0.17975013 0.37189835 0.42738238 0.23509982 -0.42523932 0.25965202 -0.14420219 0.20362715 0.15324353 0.5052524 -0.20186625 -0.20852363 -0.2239179 -0.42483127
69 0.24940419 -0.030689487 0.62814486 -0.09057712 0.038520575 -0.25917333 -0.090842545 0.16869202 0.04382229 -0.52577484 0.16382405 0.0730958 -0.054814566 0.23164745 0.30781052 0.17815807 -0.083080195 0.26074624 0.16196689 0.09152427 0.08480561 0.48207352 -0.08308634 -0.44625002 -0.3183356 0.14178047 -0.41013157 0.20189054 -0.044315685 0.16067478 -0.2620136 -0.102109894 -0.33155486 -0.0056630983 -0.14948775 0.2519038 -0.18960889 -0.2130021 0.24125254 0.4036828 -0.3726893 -0.035969753 0.5336189 -0.30524594 -0.024099998 -0.2678489 0.24275103 0.038763613 -0.13738541 0.12706386 -0.246034 -0.1473913 -0.007829742 0.15336052 0.23338352 -0.02820491 0.14177991 -0.20218804 -0.39494365 -0.14402796 0.08299148 -0.5070312 -0.17907068 -0.14440592
108 -0.04727721 -0.4105868 0.17289959 -0.18460473 -0.061423015 0.29829776 0.12604557 -0.24491741 -0.5037921 -0.09135263 0.3485965 -0.5156189 -0.72957945 0.055964533 -0.17081316 0.10755229 0.095720045 0.43320456 0.19094378 0.2773924 0.33289716 0.43651813 0.26284835 0.061040528 0.09439877 0.46002188 -0.5776338 -0.11411699 0.26912168 0.013474397 0.095685184 0.014985812 0.29088768 0.29858625 -0.14295872 -0.36065176 0.6688139 -0.26428944 -0.22872537 -0.28956783 -0.12353641 -0.24101882 -0.38995978 0.2576828 0.58608705 -0.33922872 -0.14815435 -0.12215366 0.3348648 0.3489265 -0.3266873 0.29822686 -0.22332104 0.41992137 -0.085301735 0.041847005 0.159307 -0.39468703 0.49315542 0.99296063 -0.31627855 -0.46581388 -0.3202473 -0.18249226
51 0.20914622 0.4872791 -0.020188697 -0.15414327 0.55942994 -0.4498333 -0.28617993 -0.0465957 -0.41517007 -0.14325604 0.23283912 -0.7008106 0.24612887 -0.27532706 0.250359 0.0483018 0.20607442 -0.24643463 0.074361116 0.6922037 0.22556342 0.5015388 0.58453023 -0.21435891 -0.046022277 0.48156312 -0.2311591 -0.11383325 0.16816513 0.37833357 -0.24196169 0.035483725 -0.042709596 0.048943046 -0.48350078 -0.18324623 -0.3786751 -0.29568747 -0.07977553 -0.17186747 -0.26366612 -0.04372898 -0.0057184016 -0.23728131 -0.07582947 -0.5715816 0.37125325 -0.23320493 -0.22807543 -0.079368755 -0.12349838 -0.3667023 0.27826026 -0.10927496 0.064712875 -0.37312302 0.1660058 0.03625716 0.085486494 -0.35867938 0.4014105 0.23478554 -0.43997025 -0.1366649
90 -0.14665936 -0.20245725 0.30019486 -0.10855894 0.43761134 0.42710465 -0.12736174 0.1843536 -0.35124508 0.42836434 0.1479908 -0.51655173 -0.6133808 0.20897101 -0.26845798 0.11237219 0.26152143 0.4024767 -0.085821114 0.81846035 0.18973976 0.5419716 0.28549483 -0.12587878 0.25832984 0.24644904 -0.26304677 -0.07344428 0.38029298 0.39138806 0.070681475 -0.069108024 -0.25039023 0.25773758 -0.43657002 -0.33076218 0.09892031 -0.58097476 -0.20727411 -0.18894114 -0.22773801 -0.32936972 -0.13526571 0.2870527 0.13176376 -0.32597408 -0.2187189 -0.14440952 0.12393013 0.06685546 -0.19469836 0.48040575 0.25725216 0.163559 -0.41799974 0.19113062 -0.07090898 0.080580205 0.49848905 0.6929071 -0.30612618 -0.14112222 -0.32003507 -0.24387294
72 -0.18214889 -0.074035525 0.13292515 0.016555669 0.036926955 -0.29199865 -0.44515455 0.3641009 -0.7860472 -0.5186194 -0.3950657 -0.24344774 -0.18339981 0.15798293 0.4739396 -0.12519458 0.09027101 0.18186654 0.2548198 -0.109628245 0.14860739 -0.27267352 0.27271423 -0.037697475 0.39481345 -0.21444972 0.06697472 -0.09070861 -0.64690626 -0.19856559 -0.07024628 -0.3460669 -0.7094559 -0.2594512 -0.6696769 0.4545485 0.17550755 0.22533198 -0.06279195 0.064424954 0.012196673 -0.06609885 0.33214736 0.28577918 -0.24137168 -0.015676266 0.5814891 -0.616846 -0.26841635 0.3478777 -0.085736215 -0.18532147 0.6984905 0.22806987 -0.16583915 -0.18059506 -0.101068705 -0.3333497 -0.2603283 0.3355295 0.21379186 -0.36568838 0.046609387 0.2371133
37 0.21298024 0.48015988 -0.33723828 0.045184057 0.45331448 -0.5309713 -0.0615565 -0.010797327 -0.14216101 -0.34144616 0.5176089 -0.49196288 -0.18344158 0.04765356 0.5016576 0.14062713 0.1861473 -0.19558918 -0.16894223 0.67329746 -0.23365498 0.07730166 0.42229027 -0.017126119 -0.13786514 0.35804787 -0.18697469 -0.10096108 0.2540125 0.11358286 -0.3415065 0.09270959 -0.02550347 0.01712406 -0.2781518 -0.17478774 -0.64670175 -0.16218695 0.025549496 0.15195343 -0.7366286 0.31728554 0.12147471 -0.26445857 -0.0914463 -0.40191782 0.31428882 -0.14151207 -0.1474789 0.17877035 -0.13315679 -0.33843407 0.45309767 0.060946323 0.21859166 0.06934655 -0.03957442 0.053491246 0.042907167 0.34017843 -0.044263113 0.36782897 -0.2118996 0.0018401622
75 -0.030952543 -0.27544644 -0.011114068 -0.006914187 -0.1112093 -0.1177929 -0.1351763 0.16348234 -0.30685246 -0.59634894 -0.108861126 -0.2599443 -0.40186158 0.3762668 0.3051514 -0.15700018 -0.32667294 0.101868965 -0.083123334 -0.2809301 0.070295475 0.24187532 -0.035176825 -0.002662625 0.089367144 0.013705509 0.11537596 0.027431631 -0.30335245 -0.1835086 -0.23416285 -0.21765547 -0.5709822 -0.49335903 -0.33405197 0.6543669 -0.14252518 0.09799947 0.18402633 -0.1569524 0.048275117 0.21082203 0.12301799 -0.27759933 -0.10443381 0.2654132 0.32007664 -0.4621267 -0.18173526 0.2311839 0.09647147 -0.034603287 0.21536793 0.45796996 0.14405549 -0.21714963 -0.09516292 -0.72343254 -0.36840332 0.112368494 0.39101085 -0.46474203 0.12368778 0.2909615
76 -0.3587075 -0.09295631 0.4158647 0.13587196 0.09705615 -0.2908938 -0.551811 0.5329028 -1.0696263 -0.12776741 -0.7342871 -0.3582262 -0.3377651 -0.17927785 0.174022 0.0060289637 0.35994586 0.3305363 0.49138102 0.03093847 0.13146622 -0.27638474 0.21694046 -0.02746763 0.54898345 -0.5032198 0.05582207 -0.2262858 -0.72231203 -0.107857816 0.116454706 -0.5152196 -1.0359763 -0.20060778 -0.7034867 0.46233895 0.41637498 0.49605647 -0.20182042 0.22564456 -0.03908632 -0.22115926 0.39149135 0.61324805 -0.23874533 -0.10316227 0.60515994 -0.9234 -0.14016782 0.42500535 -0.35325265 -0.32647023 0.99004596 0.20629737 -0.36127603 -0.06873672 -0.3783235 -0.41515937 -0.17337906 0.5046941 0.3591177 -0.25806826 0.06645806 0.4314022
42 0.04059763 0.24555741 0.30903703 -0.0061989524 0.2136391 -0.35481504 -0.13812833 -0.05993422 -0.64621115 -0.23871237 0.5233482 -0.09961317 -0.055523742 0.30224964 0.4018852 -0.20370366 -0.23776338 0.0105378255 0.039924096 0.39163244 0.2344604 -0.09435207 0.7376889 -0.15235022 -0.2147073 0.67955345 -0.32171485 0.30948126 0.211174 -0.10451553 -0.10604898 0.58787125 0.03972781 0.12011026 -0.39801124 -0.58684903 0.30415863 -0.39678845 0.08913783 -0.1754963 0.030467613 0.011788485 -0.093429156 -0.056911394 0.04501813 -0.45669422 0.10853031 0.116227075 -0.15563788 0.032444075 0.38267043 -0.09104645 0.1177394 0.03617636 0.14793871 0.054107156 0.18636028 0.10798039 -0.079480514 0.24468994 0.06879599 -0.31190386 -0.23920403 -0.024722377
95 -0.0857644 -0.4061408 -0.19116874 -0.3241749 -0.3352224 0.31917202 0.06840006 -0.5640191 -0.35156292 -0.3104447 0.32486936 -0.6104979 -0.3138523 -0.1683176 -0.18215114 0.20953341 0.23256865 0.32266873 0.083950445 0.19835088 0.32376772 0.43633145 0.64286083 -0.1207252 0.27159545 0.60157424 -0.5452832 -0.26879206 0.22479576 -0.32831642 0.009967173 0.0732253 -0.022077195 0.32821912 -0.12526833 -0.32135117 0.44788364 -0.024495944 -0.1487201 -0.33948827 -0.0036169537 -0.25325218 -0.32456443 0.05566978 0.4920638 -0.06177325 -0.2336798 -0.2696111 0.24304132 0.58154964 -0.4447012 0.22497971 -0.24011843 0.53052354 -0.22089371 -0.21334544 0.40730882 -0.3790036 0.5557249 0.972818 -0.236597 -0.34422117 -0.25976977 -0.33884388
71 -0.06355746 -0.108336926 0.64447683 0.2704025 0.06381394 0.024619607 -0.38632175 0.3395813 -0.026555907 -0.077497765 0.19451961 -0.10024004 -0.19675288 -0.3862706 0.52107203 0.29738882 0.035590522 0.42332658 0.34033012 -0.12976208 0.09273413 0.24054007 0.14586626 0.17047969 -0.5646509 0.50346464 -0.3412035 -0.029797554 0.31311676 0.09269871 -0.08689404 -0.15711913 -0.34719205 0.07415763 -0.15664373 0.16849943 -0.12156354 -0.064098835 -0.024261966 0.34674788 -0.5206864 -0.015052942 0.39158925 -0.17599858 0.21242683 -0.43992925 0.30742586 -0.111846305 0.11807852 0.18869495 -0.6083619 0.01675167 0.42701387 0.0663004 0.18423024 0.44901827 0.170865 0.15854165 -0.1284705 -0.03934109 0.10610404 -0.33719015 0.28163105 0.072799884
10 -0.099075444 -0.07201532 0.3849136 -0.07715938 0.030263321 -0.14871806 -0.42830744 0.27635363 -0.59971213 -0.3151708 -0.5206246 -0.33935758 -0.08719738 -0.062064175 0.26483014 -0.216229 0.27277923 0.13361621 0.3876739 0.03833779 0.010251188 -0.2884744 0.25243536 -0.20289434 0.28564346 -0.4046457 -0.009979276 -0.12887888 -0.75980794 -0.02619198 0.017745148 -0.47599655 -0.6720597 -0.30172992 -0.73787165 0.3437036 0.026506333 0.11000918 -0.111479566 0.191804 0.1599721 -0.06408688 0.16885425 0.31989282 -0.29261172 -0.13222821 0.60752827 -0.58104926 -0.26320967 -0.011249383 -0.025482066 -0.19537176 0.74828184 0.2773808 -0.25343016 -0.11201814 -0.18020785 -0.29625773 -0.2152265 0.30112436 0.34249073 -0.3835246 -0.16685297 0.5633098
40 0.17092448 -0.49873766 -0.10309567 -0.068106525 -0.34398758 -0.13483067 -0.053902194 -0.2970545 -0.3155622 0.17586797 -0.29046157 -0.3992499 -0.0896734 -0.2532488 -0.23784918 0.21933377 0.020474182 -0.17189893 -0.20830868 0.08512183 -0.11809562 0.44137165 0.5640538 -0.39391097 0.29973948 0.08944322 -0.0693804 -0.30283034 -0.119212516 -0.24653982 0.08635278 0.11590956 -0.35985035 -0.24770172 0.025558272 0.2093684 -0.006108026 0.25119773 0.19664647 0.006087834 0.31699175 -0.18568783 -0.018157927 -0.23627873 0.0902079 0.3361006 -0.1620001 -0.33077765 0.022180028 0.32387838 -0.26301494 0.16287717 0.10261331 0.4220896 -0.21872777 0.30665845 0.35648277 -0.26237735 0.1243119 0.18328197 0.32714847 -0.064778626 0.09374924 0.30049217
114 -0.264803 0.15569438 0.047511842 -0.11276876 0.80262685 0.3261602 -0.1265212 0.24660279 -0.007459875 0.050795075 0.55598766 -0.411451 -0.75022894 0.23459019 0.2848094 0.014401693 0.3826822 0.35175875 -0.4014074 0.6466429 0.031242615 0.58922416 0.231649 0.12340733 -0.1628737 0.49561945 0.024162253 -0.06531565 0.80399615 0.41265547 -0.38633165 0.1720699 -0.5224982 0.32235113 -0.5426436 -0.018239535 -0.38568813 -0.13442525 0.10693869 -0.30271047 -0.22452651 0.106267005 -0.10743017 0.011604139 0.16161439 -0.21221408 -0.49403125 -0.2540648 0.14663681 0.1525326 -0.16520984 0.17822231 0.52983654 0.1546099 -0.36744055 0.35057294 -0.0751128 0.30337706 0.1910699 0.41658616 -0.024909467 0.048247058 -0.2693966 -0.2931909
74 0.4821966 -0.2558234 -0.29512313 -0.15921211 0.36707193 -0.24293756 -0.05386561 0.122077085 -0.0887158 -0.2792194 0.21066365 -0.5359174 -0.028439572 0.21630816 0.4372424 0.3710249 0.08544704 -0.07117214 0.07633643 0.46707988 0.05203297 0.4578355 -0.25024202 -0.2933687 -0.34156883 -0.2491376 -0.34161323 0.14752619 0.10924012 0.5108076 -0.1668308 -0.05109785 -0.27933437 -0.13954316 -0.2124505 -0.12094021 -0.3999849 -0.13676764 0.27647796 -0.014731811 -0.30113283 -0.02091587 0.122671075 0.022745864 -0.26519278 -0.36797208 0.30172864 0.024191871 0.28274494 -0.06569454 0.38487995 -0.36560765 0.2516744 0.15120237 0.14757827 -0.18068632 0.030418748 -0.21595472 -0.2556424 0.14921726 -0.10409145 -0.3096084 -0.002532841 -0.39105797
17 0.02140201 -0.12013005 0.21443509 0.24458233 0.19757123 0.17693928 -0.15306741 0.07643883 -0.0039479705 0.11030709 0.3353448 -0.115225226 -0.2440455 -0.47813597 0.5494483 0.050595652 0.20194988 0.2593898 0.024296695 -0.022480784 -0.24885082 0.19903149 0.38671058 0.19532895 -0.12720455 0.38543183 0.0604578 -0.32229662 0.35147756 0.037506603 -0.14316091 -0.089383334 -0.09785231 0.16367918 -0.39414608 0.25681776 -0.42130297 0.15559904 0.05129768 -0.0392079 -0.17515367 0.33344743 0.031969283 -0.14997198 0.33994254 -0.3099761 -0.065433875 0.14069833 0.07072149 0.19786933 -0.4466927 -0.0046191406 0.5777639 0.35053164 -0.03622436 0.5951859 0.21361038 0.20291331 0.09841993 0.19081327 0.03886683 0.0044228584 -0.005517506 0.3682385
77 -0.06718869 -0.26915008 0.0065983604 0.08588232 -0.041135456 -0.26141042 -0.60200745 0.5274214 -1.1365037 -0.3165045 -0.85964924 -0.5776021 -0.1815435 -0.09912629 0.70887905 -0.017950598 0.5762246 0.1218635 0.47990054 0.24345951 -0.0051037925 -0.7963083 0.44796383 -0.06654757 0.4405511 -0.79078263 0.03471965 -0.14304297 -1.0373411 -0.085016266 0.096928716 -0.62422734 -1.0782255 -0.5016804 -0.9455944 0.27847442 0.20106794 0.34937936 -0.16078351 0.40335414 0.022013564 -0.20034814 0.3324034 0.7186219 -0.5485767 -0.11688671 0.96079147 -0.88893163 -0.23807451 0.22996582 0.15981606 -0.27014297 1.4513841 0.34411782 -0.4038756 0.028348617 -0.20164058 -0.24329688 -0.23085268 0.7761975 0.03368488 -0.519792 0.24619085 0.61157537
106 0.18903874 -0.25492498 0.01524035 0.27536425 0.51093704 -0.2718386 0.029402642 0.61269706 0.054341596 0.20506097 0.2819061 -0.26854286 -0.25305876 -0.16444051 0.5883556 0.29162064 0.46510682 0.13578846 -0.34193045 0.35648817 -0.33374444 0.55192715 -0.22885217 -0.03359987 -0.12492307 -0.14260663 -0.13046753 0.07633726 0.3884815 0.40065208 -0.17832606 -0.16600536 -0.24698244 0.11609525 -0.29132584 0.5218896 -0.57806706 0.265869 0.22919369 0.3177947 -0.6386419 0.36867672 0.34078866 0.037798695 -0.036891628 -0.20134293 -0.10618584 0.024534706 0.124139175 0.37116405 -0.07475054 0.01956542 0.5972202 0.48566407 0.070322745 0.38677102 -0.17209437 -0.011067883 -0.04755865 0.2604394 -0.1615237 -0.009154649 0.22443601 0.26216212
115 -0.005955128 -0.0136730075 0.010160787 -0.009717831 -0.0009443369 0.002208529 -0.0018577054 -0.0063166805 0.0013458319 -0.0151112545 0.0021817796 -0.006523475 -0.009053608 0.0059569515 0.0022717211 0.0057023354 0.0014026929 -0.014864147 0.015595326 -0.0055194627 -0.0034264345 0.011159049 0.00012590922 0.004773356 0.0035281572 0.0037243888 0.010566061 0.014805414 -0.0008737426 -0.005353853 0.007119963 -0.013023801 0.013232395 0.0037508607 0.009374058 0.004379172 -0.002075769 0.0015028398 -0.007493116 0.0142000485 0.007862695 0.005640203 -0.007827086 -0.013506189 0.012398612 0.0046137385 -0.0066390727 -0.013547275 -0.0061932616 0.002201004 -0.01435902 8.330867e-05 0.0043756515 -0.0155347735 -0.0002308134 -0.009483827 -0.005636925 -0.002545502 -0.015588766 -0.005644733 -0.010973666 -0.011471197 0.0024876148 0.0036510564
107 0.014512027 0.013851209 -0.01002414 -0.014402991 0.012329044 0.008457564 0.01082924 -0.0045935735 -0.008170569 -0.0071375966 -0.013021855 0.00918165 -0.005399581 0.01349036 -0.008881664 0.015050076 -0.0070345253 0.013535889 -0.008452198 -0.011732044 0.011971412 -0.015272066 -0.013721183 0.007736258 -0.015237814 0.008251777 0.0057073403 -0.010968717 0.004918212 0.0022719204 0.013503389 0.0045029093 -0.008004062 -0.00367352 0.01070323 -0.010341333 0.014523316 -0.0050031263 -0.0072637293 -0.006824488 0.004817106 -0.015385028 0.005034197 -0.007008994 0.0151060745 -0.0078551285 -0.012520587 0.005488692 0.014010366 0.0042928904 -0.0035439841 0.0054882746 -0.013939071 -0.0064693354 -0.0068548564 0.0029554293 -0.009856403 -0.0118612815 -0.010204395 0.008266648 0.004293831 0.013748212 0.0036264006 0.0082839355
