116 64
54 -0.109587654 -0.19295825 0.09149892 0.2778342 0.40008897 -0.15623821 -0.16612428 0.1740529 0.1435908 -0.49133274 -0.12849414 -0.1818321 -0.23713359 0.0997608 -0.09602983 0.12485238 -0.11555718 -0.09980845 -0.100960895 0.055361673 0.30993074 0.44315508 0.1834883 -0.23017362 -0.036910433 0.07349567 -0.0045367703 0.09514429 0.06177334 -0.040783327 -0.34444055 -0.29284465 -0.033834513 -0.1874742 -0.073563375 -0.1852665 -0.1666163 -0.3445157 0.005977287 0.033163793 -0.22096494 -0.15858322 -0.14454502 0.017449152 0.27708635 0.1294214 0.09250777 -0.17117068 -0.28062984 -0.04174328 -0.51759124 -0.012256789 0.22152644 0.1893127 0.37743875 0.018930273 0.059599295 -0.25093302 -0.21975091 0.48616427 -0.34319216 0.0772899 -0.021757564 0.011691887
20 0.22610575 0.1516113 0.059146244 0.24712102 -0.37819162 -0.19973022 0.3285599 -0.31193992 -0.23724347 -0.49186864 0.2661537 -0.124148875 -0.15775518 -0.29723996 0.09297324 0.47368714 -0.15249865 0.050357405 0.11766722 0.39722192 0.042588353 0.18071134 0.27533847 -0.11385623 0.004202055 0.4269731 -0.30817038 -0.10373534 0.07407592 -0.08350389 0.41847423 0.034384187 -0.25169644 -0.27541417 -0.10109451 0.008536286 0.16075657 0.36152396 -0.12553503 -0.0028806217 0.18643443 0.019995866 0.13403538 0.036397588 0.10774104 -0.09042325 0.3279895 -0.62412286 0.1576554 0.19109437 0.15190735 0.03031791 0.19460525 0.3123692 0.12120458 0.26765108 0.41850775 -0.0012252431 -0.11732214 -0.077340044 0.12155008 -0.19801503 0.04297889 0.25097185
91 -0.33871073 -0.16471583 0.11536058 0.098809876 0.40192458 -0.15467687 -0.31820488 0.043842997 -0.0031865425 -0.13181998 -0.13747834 -0.23210533 -0.2805738 0.02240125 -0.09823664 0.010395131 0.04448907 0.20751578 0.11471187 0.32034922 0.21760863 0.2857333 0.14599526 -0.16948754 0.00081887556 -0.18456838 0.035623405 0.4359487 0.10216354 0.30335787 -0.23730327 -0.14082061 -0.24067336 -0.14286 -0.08303836 -0.18785302 -0.2592108 -0.34154052 0.21187283 0.118676655 -0.09693793 -0.13274644 0.010724042 -0.032110367 0.28919652 0.07468497 0.13075069 -0.21871176 -0.21825828 -0.058222644 -0.3743973 -0.15725651 0.1722954 0.3157836 0.30900908 -0.13445693 -0.14421517 -0.1749343 -0.19316982 0.5056091 -0.31253478 -0.14432763 0.21134594 -0.07827305
80 0.26032725 -0.18231785 -0.0027312483 -0.03129533 0.09723935 -0.3305516 -0.0009310531 0.00045392948 -0.29829627 -0.06610463 0.14389254 -0.47346374 0.03323333 0.05865817 0.014529197 0.096962884 0.068184115 -0.01699522 -0.30002862 0.06880154 0.54437506 0.3353279 0.20451729 -0.2055161 -0.0406315 0.63579994 -0.3804787 -0.28079337 0.07627327 -0.054699704 -0.26117125 0.08830707 -0.12832713 -0.14806448 -0.13808319 0.27968645 -0.19099832 0.010707762 -0.11595704 -0.18064547 -0.039652526 0.16174099 -0.22615433 -0.2896052 -0.035509985 -0.060946573 -0.0053917016 -0.21086553 -0.018392075 0.051779885 -0.045793556 0.15096918 0.38709998 0.09667499 0.055137992 0.17626938 0.15060468 -0.008173938 -0.03416923 0.2606363 -0.10593072 -0.105082415 -0.046483994 0.0033905238
83 0.16952483 -0.26432618 -0.042984314 -0.030915491 0.10762219 -0.3721603 -0.019228859 -0.14567022 -0.52734977 0.05499936 0.33456036 -0.35019344 -0.0020748547 0.06764447 0.121197745 0.030407906 0.3480289 -0.104078524 -0.19131956 0.18698204 0.42470425 0.27828565 0.30607885 -0.1502062 0.13191746 0.67803526 -0.2196824 -0.09524956 -0.098943956 0.036091626 -0.19980964 -0.016918505 -0.1523904 -0.101705305 -0.08120807 0.3457332 -0.09534319 0.006075585 -0.1180306 -0.1762568 0.10195289 0.26886338 -0.24230886 -0.27887955 0.04643873 -0.24276786 0.029457554 -0.14375009 0.15843184 0.007591201 0.13220617 0.13236873 0.35626006 0.19115774 -0.043938998 0.019679364 0.08621458 0.18380965 0.09778047 0.36666787 -0.1027694 -0.09313714 0.12161454 0.118271366
72 -0.12182952 -0.0216439 0.06802817 0.07140462 -0.078765035 -0.13107273 0.04811137 -0.20090216 -0.039000627 -0.37139317 0.32203558 -0.11296596 0.030900903 0.09338482 0.081413634 0.3865847 0.10260314 -0.16126204 -0.049119867 0.14738154 0.09689382 0.15075411 0.24700217 -0.21816157 0.20386651 0.4262952 0.06646937 0.028215982 0.033905406 0.021348061 0.10201743 -0.31730577 -0.11694053 -0.1418636 0.07172651 0.15033068 -0.012059756 0.30893767 -0.3574971 -0.2954498 -0.091048256 0.000230639 -0.02245687 -0.03317292 0.17337622 -0.18307638 -0.15770797 -0.3893956 0.09667471 0.027647475 -0.06481505 -0.013500635 0.2627886 0.45674753 0.15328088 -0.11253974 0.14807472 0.3954215 -0.00069457997 0.17575236 -0.33988467 -0.0119532645 0.037526492 0.09474343
92 -0.4528052 -0.06616309 0.17589569 0.5182075 0.18268299 -0.11260647 -0.09728161 -0.20967905 -0.0025390768 -0.3232456 0.070820786 -0.33180672 0.07265372 0.25760347 -0.116826005 -0.11805304 -0.30005106 0.58512324 0.10274234 0.635094 0.20877148 0.18144624 0.04735442 -0.17626552 -0.11051878 -0.059298936 0.17294669 0.5555294 -0.046635956 0.29311222 0.18817745 0.109919004 -0.1435826 -0.06139619 0.1058915 -0.22444937 -0.16236545 -0.20307396 0.09237412 0.1769911 0.13501419 0.087254085 0.071550995 0.03367302 0.19648609 -0.040846977 0.25664383 0.08988554 0.07328678 -0.38933402 -0.07424233 -0.07122551 0.07325207 0.48743096 0.11255285 -0.09101487 -0.06256896 0.028097391 -0.3709262 0.3583395 -0.124542765 -0.47751704 0.10109456 0.010496575
90 -0.46923348 -0.15065274 0.29028904 0.3527337 0.39075327 -0.05818522 -0.32450306 0.110367075 0.0808982 -0.349262 -0.06515814 -0.41470528 0.01840184 0.25603124 -0.19631435 -0.011888761 -0.17629014 0.32290828 0.23924308 0.41139498 0.288765 0.33736438 -0.08962374 -0.19969873 -0.19698834 -0.12846604 0.13165388 0.38332888 -0.103704624 0.3072191 0.0049232985 -0.16584167 -0.3411648 -0.26885834 0.23950817 -0.17915194 -0.16249317 -0.36055472 0.051261976 0.057927627 -0.12583885 -0.11292588 0.028718485 -0.05088457 0.3181155 0.119347095 -0.007115335 -0.048246156 -0.10521385 -0.2527049 -0.21118292 0.07335395 -0.026030345 0.5015724 0.27072844 -0.09944892 -0.16045883 -0.006181669 -0.22020707 0.6302705 -0.46437573 -0.35728753 -0.07406669 -0.075547025
10 0.10831947 -0.49902904 -0.12885617 0.040244646 0.22903037 -0.21479207 -0.16161129 -0.22173557 -0.20756765 0.0024506329 -0.008244935 -0.27988875 -0.15707824 -0.13684198 0.1679597 -0.030179033 0.29015648 -0.034905054 -0.02164277 0.23024496 0.4642698 0.13828254 0.13944528 0.15110394 0.05949561 0.6746559 -0.4040227 -0.047728404 0.216031 -0.24604242 -0.26315868 0.09542739 -0.10727978 0.19807678 -0.07638052 0.16220072 0.08728775 -0.22832002 0.0209116 0.07786169 0.20109458 0.4599344 -0.35690627 -0.04991621 0.38190433 -0.28583315 0.06367607 -0.16059664 0.016477622 -0.29452163 0.10577129 -0.066554196 0.2263763 0.2902277 0.2516047 -0.0021608635 -0.23236981 0.02361844 -0.10407011 0.14079994 0.019514196 -0.2464775 0.30278695 0.011361385
96 -0.2756166 -0.22781259 0.076350965 0.3655904 0.13086265 0.08467134 -0.214739 0.10736192 0.040480234 -0.5479953 -0.025734685 -0.21985306 -0.20929761 0.30611563 -0.15961593 0.10985652 -0.3382628 -0.053572524 0.20771861 0.23757611 0.33951014 0.19644417 0.27065086 -0.368278 0.06506399 0.03486787 0.17299052 0.17262755 -0.011351943 0.15332521 0.0020260157 -0.27773264 -0.06056557 -0.38095763 0.3063989 -0.08821649 -0.1175589 -0.1929617 -0.038941085 0.071798 0.047342073 -0.17164914 -0.10883793 -0.019292299 0.26446307 -0.27722445 0.15244228 -0.14167152 -0.09222271 -0.061728675 -0.24621832 -0.022165913 0.17605743 0.4397285 0.13048281 -0.0690407 0.16736682 -0.09195803 -0.22866888 0.39589173 -0.5610157 -0.08272384 0.008833899 0.13635121
32 0.086293 -0.2084695 -0.04280585 -0.11530696 0.09595363 -0.2476935 -0.2038543 -0.12072184 -0.19640812 -0.18072355 0.14707871 -0.19289489 -0.17228366 0.36996976 0.113556586 -0.05670879 0.123295195 -0.24417362 -0.1800055 -0.00964791 0.3593425 0.2296761 -0.07334005 0.033235986 0.077545114 0.54490364 -0.29355347 -0.1018062 0.14431554 0.11714379 -0.31643322 0.0072780624 -0.12160602 -0.06296877 0.046247274 0.17363255 -0.20908493 0.0041179373 0.075721465 -0.0051170136 0.11092073 0.30110636 -0.032872338 -0.109634876 0.16387929 -0.3373959 0.1524054 -0.22453518 -0.019984834 -0.0017929588 0.06863627 -0.28166133 0.27559707 0.17145525 0.31389576 0.024654532 -0.01833781 0.11273784 -0.13552701 0.44453707 -0.32761383 -0.24384049 0.09427723 -0.13911112
55 -0.14952086 -0.27328613 0.13374001 0.19237006 0.32597482 -0.08568669 -0.30071512 0.14225286 0.2444784 -0.36214694 -0.24322873 -0.24140015 -0.12714975 0.11773185 -0.15086275 0.002586651 -0.09476411 0.1539016 0.015719542 0.071363956 0.32483125 0.32914314 0.12723494 -0.061979335 -0.17188662 0.18119699 -0.010842304 0.19597033 0.051645722 0.0530712 -0.41933492 -0.08668806 -0.23743556 -0.17655496 0.04616769 -0.17817914 0.045049574 -0.2105416 0.1354223 -0.024885923 -0.07779357 -0.0034206326 -0.19184256 -0.04977658 0.3716652 0.12467494 0.07222744 -0.10051411 -0.09238462 -0.14422503 -0.38290906 -0.118146 0.008293919 0.35778305 0.4072443 0.062485076 -0.02728056 -0.020209549 -0.13381468 0.44813445 -0.28854895 -0.10396656 0.018307324 -0.029314911
99 -0.37301454 -0.12356417 0.12349205 0.1517613 0.44159153 -0.082443126 -0.23056804 0.17356 0.18882225 -0.3691854 -0.052056484 -0.25097612 -0.16685194 0.13135915 -0.0067824693 -0.041737586 -0.055592213 0.15174407 0.10209721 0.2042082 0.17093782 0.2809655 0.14921543 -0.24437657 -0.13919137 0.007874295 0.20051885 0.34574082 0.018917045 0.08647078 -0.23181786 -0.31089154 -0.24857537 -0.1486113 0.060235173 -0.17985323 -0.21067502 -0.3937057 0.09327206 -0.016765997 -0.24961706 -0.030584205 0.028548617 -0.1942972 0.21530952 0.36027318 0.13869004 -0.112118505 -0.11145641 -0.20676859 -0.41630775 0.072412975 0.08184578 0.42464978 0.3142419 -0.08936901 -0.040668316 -0.06272147 -0.15965177 0.5905249 -0.3317701 -0.18892978 0.123353064 -0.029004648
28 0.090962015 0.07304084 0.16889733 -0.07997963 -0.077579 0.043527193 0.08017029 0.021966292 -0.19263424 -0.26438797 0.36016756 -0.4926834 -0.31649378 -0.015527471 0.4046588 0.34380007 -0.07734887 -0.06971472 0.135128 -0.14203368 0.3411082 -0.13783574 0.2657681 0.012129118 -0.12065077 0.14765374 -0.25892332 -0.2986029 -0.016603285 -0.30599517 0.05746839 -0.23208387 -0.25366673 0.068341464 -0.06099426 0.13203913 -0.0729147 0.39944994 -0.16582635 0.021507433 -0.02291857 0.56553763 0.05967508 -0.4701275 -0.19282146 0.023168378 0.25864068 -0.2621968 0.005861291 0.09688136 -0.03731121 -0.19493242 -0.061271958 0.50369006 0.31794137 -0.11171972 0.13440983 0.03203946 -0.14877024 0.16163467 0.022521 -0.33606395 0.23901847 0.24778955
48 0.046603896 0.0923019 0.06653363 -0.0049620583 -0.20063965 -0.057463486 0.104978226 -0.082256004 -0.09099664 -0.28575343 0.13566062 -0.27806312 0.18524402 -0.28335634 0.12757984 0.35001045 0.041985586 0.09839301 -0.07252171 0.123521164 0.20117685 0.17371443 0.29029638 -0.2768774 -0.03760442 0.54084796 -0.19870411 -0.16360448 0.22597569 -0.15257896 0.018646136 -0.120170765 -0.35174757 -0.13180079 0.032543376 0.15683442 -0.07662933 0.22177881 -0.30409575 -0.14723189 -0.14672776 0.14074627 -0.091575086 -0.2992305 -0.01852865 0.05606719 -0.06828639 -0.4107326 0.15764192 -0.036844388 -0.11073265 0.084413186 0.33620328 0.41410106 0.074048966 0.021341015 0.23933268 0.24914217 -0.014675339 -0.024775587 -0.23966436 -0.33648962 -0.05426203 0.024306232
82 0.06450692 -0.07003758 -0.0026308282 -0.13452843 0.1714637 -0.14257668 -0.1907194 -0.23262855 -0.22583345 -0.1701723 0.24652469 -0.4754548 -0.32415462 0.03133025 0.42969897 0.040219236 0.13331991 -0.069897644 -0.16861562 -0.033946425 0.33160934 0.13125269 0.2261142 0.12514083 -0.002698034 0.4133662 -0.4982496 -0.45732945 -0.0022033993 -0.12275438 -0.25186595 0.05032305 -0.13043262 0.03976823 -0.023548724 0.4022762 -0.40445212 0.24390112 -0.15252958 -0.041731246 0.0976936 0.57082707 -0.015788838 -0.4944952 -0.06813779 -0.08498263 0.15591027 -0.16720076 -0.3211299 -0.07491607 0.13481572 0.03723635 0.31220293 0.22593118 0.159734 0.018316014 0.0075070146 -0.024289748 0.031283736 0.19570588 0.05186441 -0.29148617 0.19169202 0.12652114
84 0.19887519 -0.13723609 0.21035999 0.117919974 -0.06605787 -0.028246026 -0.11379674 -0.14230971 -0.18900336 -0.19966245 0.18431239 -0.3631733 -0.046757694 -0.10204412 0.030798951 0.19508213 -0.22640671 -0.03730027 0.028463587 0.41103464 0.21975721 -0.015455269 0.2705797 -0.21554309 -0.072056435 0.45249835 -0.2574277 -0.26671764 -0.0030060997 0.05857283 0.04565427 0.05230176 -0.14836347 -0.21605438 0.21804297 0.18265499 -0.16111767 -0.02006914 -0.26964837 -0.19325204 0.005474258 0.10556968 -0.17525662 -0.14589618 0.188093 -0.460722 0.08657106 -0.30365553 -0.06694577 -0.14519317 0.28908858 0.16241342 0.3035018 0.24277316 -0.04428879 0.012759023 0.29224655 0.25977856 -0.0827027 0.023706652 -0.37916052 -0.15223932 -0.006303206 0.20064066
97 -0.13003473 -0.1725794 0.076240785 0.5336949 0.42908236 -0.08770139 -0.27848262 0.16576876 0.13017903 -0.4174344 -0.01470097 -0.21681872 -0.33242217 0.54433817 0.010926807 0.16467422 -0.3178071 0.1834322 0.19346689 0.13987881 0.1700219 0.18779576 0.26771805 -0.06131155 -0.051774055 -0.13973802 0.26629168 0.31724402 -0.19101813 -0.03963588 0.0529051 -0.43489268 0.11539064 -0.31833515 -0.055339646 -0.13455802 -0.15344958 -0.25069514 -0.031194935 -0.040715076 0.19645402 -0.053536683 -0.20163137 -0.05285099 0.39125788 -0.022179285 -0.021983102 0.065442055 -0.17868358 -0.2857769 -0.474558 0.06596968 0.23039602 0.36765048 0.2758188 0.1397751 -0.011665837 -0.31746522 -0.3177079 0.5520589 -0.46559936 0.08183912 -0.20945732 -0.021274088
17 0.038629945 0.17887329 0.10562141 0.07246352 -0.07446134 -0.05143603 0.2936319 -0.1854346 -0.16040948 -0.2247091 0.4732943 -0.3288833 -0.20210521 -0.025025811 0.49544317 0.5373838 0.0831619 0.07827863 0.27946937 0.0069072316 0.00646037 0.025223305 0.20611255 0.12694098 -0.078445174 0.22883134 -0.33660263 -0.25972557 -0.058993466 -0.11452337 0.18155335 -0.29552856 -0.332419 0.122018866 -0.1432559 0.14285329 0.2659528 0.5583377 -0.10986266 0.03521376 0.035924356 0.45652777 0.39667606 -0.37969536 -0.18389216 -0.034084126 0.08665712 -0.42564338 0.16027598 0.29175863 0.16987504 -0.18919352 0.04396406 0.5794307 0.36322767 -0.008190987 0.15698126 0.12343047 0.015592554 0.14953293 0.11736673 -0.39866653 -0.096871465 0.036431413
2 0.128716 0.08596309 0.22452104 0.06678019 -0.27693212 -0.26253504 0.018619439 -0.02069645 -0.3919071 -0.23108336 0.2144537 -0.06498027 -0.2662247 -0.16752918 0.19196357 0.25309783 0.2294914 0.00021313464 0.31441644 0.27718338 -0.17683443 0.22051941 0.12391404 0.1687883 -0.28109065 0.4926369 -0.25141057 0.04911426 -0.18098867 -0.17461102 -0.008735871 -0.24153301 -0.45789835 -0.105670944 -0.15648763 -0.12059354 0.49878794 0.27329418 0.3251718 0.048809104 0.27006453 0.098933585 0.20407543 0.008891981 0.247563 0.023863157 0.39870158 -0.22584264 0.33145276 0.3269044 0.19767083 -0.111601144 -0.14906016 0.3020423 0.42411923 0.2289487 0.11670917 0.07300607 0.21043971 0.3216357 0.28904474 -0.33847842 -0.058144696 0.12902886
93 -0.3589769 -0.16179244 0.31402925 0.33682722 0.35541865 -0.07665251 -0.35628873 -0.023769999 0.061334405 -0.21010475 -0.24657977 -0.45637876 -0.106437095 0.06659916 -0.066447124 0.015851062 -0.089358725 0.4096681 0.37038806 0.35348934 0.2027233 0.36007857 -0.15317997 -0.19174217 -0.24200334 -0.22127117 -0.051077068 0.24163051 0.03201027 0.18756428 -0.008059213 -0.21492036 -0.31752595 -0.107563846 0.1903331 -0.25485542 -0.24005476 -0.3198969 0.12805061 0.08934369 -0.19479415 -0.18408322 0.18404123 -0.0062890262 0.30633628 0.038183928 -0.028446602 -0.24550614 -0.2914837 -0.33031616 -0.060203936 0.04797901 0.12237084 0.3354702 0.26731482 -0.102132164 -0.2878615 -0.065762505 -0.18404062 0.5321893 -0.34219837 -0.2773206 -0.11709699 -0.09626464
29 0.099039435 -0.10445 0.050617587 0.4824061 -0.14204812 -0.12153854 0.21548854 -0.25059357 -0.14612514 -0.26160136 0.39477146 -0.24563155 -0.23976134 0.11504644 0.20038338 0.508858 -0.27102926 0.2679544 0.08233234 0.2729611 0.41067114 -0.14162722 0.39772367 -0.114610314 0.14017954 0.25565642 -0.47883615 -0.25212547 -0.12789635 -0.17069048 0.31168342 0.28467542 -0.12615731 0.08832389 0.07487998 0.06274177 0.14121287 0.27378997 -0.21112509 0.0598107 0.3150768 0.6492804 -0.11899664 -0.18180974 0.08726108 -0.29003266 0.3407245 -0.26091486 0.22072865 0.17391583 -0.18123771 0.12013127 0.0029984124 0.43935114 -0.020662084 0.24489112 0.09862299 0.34810314 -0.19604811 -0.21485466 -0.0020142973 -0.49962592 0.28381202 0.017416194
22 0.20605962 0.028312804 0.33991554 0.105366126 0.000945975 -0.16957477 0.22058156 -0.14268501 -0.15691507 -0.27824676 0.5540625 -0.3499 -0.18302135 -0.08335743 0.40642962 0.40312293 -0.20259513 -0.09532868 0.11457171 0.099374205 0.21976379 -0.15554878 0.2565843 0.035739295 -0.23260127 0.21800546 -0.35447475 -0.25937083 -0.07136128 -0.20873745 0.11044962 -0.15113729 -0.066783726 0.14516115 -0.13611199 0.016833307 0.19267808 0.4152464 -0.11188328 -0.05313986 0.11009699 0.39324233 0.22640774 -0.25899696 -0.19860417 -0.16338542 0.3577814 -0.29063287 0.05998818 0.13198744 0.13493058 -0.14328754 -0.11280906 0.46428204 0.31092137 -0.040715903 0.16058674 0.13730553 -0.36936492 0.084932394 0.1012115 -0.33027348 0.06547867 0.050089452
81 0.3668584 -0.13725008 0.0021004719 -0.14752373 0.15753448 -0.3434786 0.017322268 -0.056486968 -0.31747139 -0.08417532 0.33941644 -0.35863468 -0.03272591 0.123833835 0.10418766 0.085522465 0.1982137 -0.3157605 -0.21690376 0.10102849 0.38183346 0.29893905 0.22085066 -0.035719883 -0.1702103 0.83302915 -0.3318965 -0.10640672 -0.070628986 -0.19644141 -0.1813643 -0.13793464 -0.10940652 -0.29052413 -0.15454899 0.2603603 0.032449275 0.014814843 0.029923286 -0.3166596 0.07056012 0.06720118 -0.29710746 -0.2379464 0.07264054 -0.060514897 -0.04716837 -0.14164712 -0.007828051 -0.046666898 0.13058504 0.22657311 0.30244365 0.19309112 0.16660568 0.1241756 0.18061206 0.026962949 -0.2006107 0.38257316 -0.029078614 -0.05357549 0.068911545 0.06743599
8 0.15243995 -0.35963362 0.137545 0.18471831 0.40457812 0.034839846 -0.098830864 0.11096636 -0.038945016 0.05858226 -0.45345813 -0.33233073 -0.28912404 -0.31485525 0.06220925 0.25667194 0.28098416 0.21717095 0.13216764 0.3241115 0.30316594 0.1809582 0.1677784 0.20597444 -0.12181989 0.022608034 -0.1577232 0.07202263 0.17103311 -0.019350924 -0.32911578 0.055536944 -0.25278357 0.1594013 -0.3119891 -0.26432717 0.05229398 -0.25620908 0.14408459 0.20405063 -0.062556475 0.02151466 -0.065290876 0.12038323 0.26338148 -0.1147442 -0.007325027 -0.2547536 -0.20272021 -0.12442448 -0.2990163 -0.39605248 0.18167144 0.31902066 0.35719594 0.038950235 -0.161334 -0.20167543 -0.2871601 0.15463755 -0.013421314 -0.22367512 0.28187373 0.0027742505
6 -0.014071938 -0.3480668 0.038769353 -0.043005932 0.3825319 -0.13469352 -0.3106264 0.019745745 0.07642971 0.053410385 -0.22275713 -0.23124056 -0.16718481 -0.12061167 0.0876623 0.28496936 0.30438453 -0.015205153 -0.042146858 0.077138975 0.3627937 0.25672114 0.13816674 0.2791677 -0.1251965 0.25788853 -0.13673912 0.05297204 0.00052410696 -0.09869119 -0.34865072 -0.072487876 -0.25573397 0.07831484 -0.2512268 0.14021555 0.14357966 -0.12618974 0.14930753 0.0039707487 0.086037025 0.11372522 -0.101610236 -0.014428549 0.2490708 0.101684794 -0.07154164 -0.25039908 -0.119234554 -0.123382494 -0.15026508 -0.34390152 0.11539762 0.33765724 0.39316806 -0.009997808 -0.3076707 -0.13489892 -0.16279192 0.2661032 -0.0033373954 -0.115493216 0.25826108 -0.086353056
47 0.007014321 -0.023530003 0.06693879 0.025577195 0.024204753 0.034868814 -0.09465817 0.3206526 0.17878658 -0.41921148 0.015567053 -0.5036306 0.11785349 0.04894667 -0.02510974 0.20162739 -0.23175718 0.026306411 -0.17614956 -0.09794879 0.36413032 0.3296712 -0.016147936 -0.20491344 -0.17958789 0.2864021 -0.0832028 -0.06717345 0.19646545 0.013866096 -0.28622392 -0.09343175 -0.4205534 -0.2755348 -0.09866254 -0.022236079 -0.099433675 -0.20536102 0.064786516 -0.16390684 -0.40483153 -0.0014942287 -0.029128248 -0.20342316 0.09718384 0.19208221 0.032393567 -0.37844297 0.21087812 0.017158004 -0.3508678 -0.2285855 0.05249505 0.25597325 0.2654515 -0.06242308 0.24468672 -0.022648053 -0.122491546 0.4391654 -0.2953303 -0.11136878 -0.10984167 -0.0039842045
15 0.014045418 0.0013411021 0.17734122 -0.030881641 -0.27024835 -0.41434115 0.028959915 -0.20805486 -0.40143222 0.034251973 0.5178891 -0.2331188 -0.064966425 -0.16867186 0.33803293 0.2115217 0.23395814 -0.0188481 -0.06734695 0.07215665 -0.03325878 0.4493025 0.4072118 0.22635156 0.017399013 0.2958361 -0.23643091 -0.11885247 -0.11925662 -0.039636713 -0.08774263 -0.11822925 -0.43521038 0.051587496 -0.40079135 0.14553866 0.29932585 0.3265698 0.2435637 -0.008562367 0.30463317 0.11324857 0.31414548 -0.43552855 0.12965699 0.15389211 0.25676453 0.008908013 0.29586342 0.2559046 0.26816538 0.0444198 -0.06052269 0.36805537 0.102122754 0.17738278 0.09365732 0.11450765 0.23749557 0.819817 0.17301765 -0.095372014 -0.25437993 -0.030844053
44 0.25230804 0.03970405 0.041262936 0.14314312 -0.2858355 0.07305527 0.05970792 -0.16895585 -0.021929046 -0.56907463 -0.1671441 -0.48783448 0.12041906 -0.22032012 -0.12648539 0.23733748 -0.22193977 0.02745443 0.23799016 0.10692522 0.2444802 0.08213295 0.22055538 -0.24898562 -0.18512216 0.6264786 0.053204443 0.09469874 0.24108027 -0.30972925 0.11895307 -0.38476717 -0.12834153 -0.44695234 -0.066221625 -0.11690344 0.10206853 0.18933439 -0.08295797 -0.271218 -0.26215497 -0.16102138 -0.17902863 -0.05665443 0.22112416 -0.0713136 0.017626163 -0.64323324 0.09955006 -0.16726498 0.05263189 -0.081370026 0.19610873 0.3134363 0.07014527 -0.10915966 0.3608681 0.10748036 -0.16843373 -0.022490583 -0.16257085 0.09219323 -0.12668557 0.4004246
35 0.29572403 -0.060461313 0.3015617 0.15679696 -0.37920478 -0.3596819 0.1151827 -0.33823746 -0.4413138 -0.11989882 0.24969329 -0.17617239 -0.37600014 -0.256479 0.23454456 0.30905238 0.023690915 0.10141236 0.39295453 0.22712496 -0.2711918 0.12693374 0.2245328 0.12288798 0.026997631 0.18720798 -0.44721648 -0.04650152 -0.03603845 -0.15207747 0.15943128 -0.12025203 -0.31046075 -0.08760999 -0.15982437 -0.22130889 0.34778902 0.46611243 0.14412008 -0.042432215 0.21986972 0.042741828 0.2396116 -0.13405858 0.32962933 -0.116620585 0.30855832 -0.32045513 0.25439307 0.30658612 0.23702896 -0.024478082 -0.07179587 0.19517356 0.24520342 0.20460987 0.1705913 0.101653785 0.19401397 0.41562706 0.26092222 -0.30074033 -0.34425426 -0.044496704
49 0.18592504 -0.07687186 0.14214265 0.008523307 -0.06328792 -0.0009128098 -0.08254824 0.12327027 0.008129036 -0.23072314 -0.23492621 -0.2779892 -0.008503117 -0.30650672 -0.12392707 0.24293755 -0.053726196 -0.08603188 -0.35034153 0.13052978 0.22868645 0.29185683 0.15186234 -0.006620963 -0.13151139 0.46025762 -0.20087421 -0.29023206 0.16825049 -0.06265056 -0.2909507 0.0129980175 -0.4064364 -0.29678276 -0.086225376 0.0779225 -0.049342025 0.0035916013 -0.06336185 -0.30802494 -0.15498482 -0.01461671 -0.08425066 -0.014091911 0.32077444 0.12234865 0.0816133 -0.44732645 -0.15362574 -0.16857463 -0.11352749 -0.13741474 0.15759511 0.15699992 0.2627956 0.09673134 0.33589402 0.073857106 -0.033319958 0.1731323 -0.40265328 -0.16495584 -0.12777458 -0.03888604
103 -0.28886202 -0.096669026 0.21672577 0.4279896 0.46474108 -0.085611686 -0.0882716 0.1657044 -0.05856959 -0.10718003 -0.18862058 -0.46070528 -0.28776607 0.4365191 0.015201544 0.059074014 -0.12517962 0.4670951 0.13286461 0.32267287 0.09432194 0.07671193 0.040524233 -0.15534385 -0.15684532 -0.46557334 0.17116943 0.32691038 -0.14331406 0.06676223 0.16855833 -0.2540766 -0.13815962 -0.09709905 -0.15094651 -0.19294712 -0.28582686 -0.11143701 -0.052465007 -0.040596876 0.101023026 -0.00192669 0.17071937 -0.0840187 0.20078708 0.15358801 -0.00045235257 0.07571479 -0.29237592 -0.22709821 -0.2917982 0.19608234 0.16507317 0.46062857 0.25952977 -0.0034645023 -0.1471717 -0.079694465 -0.26215708 0.6404596 -0.504849 -0.21478345 -0.29191765 -0.040723376
46 -0.15517606 -0.12851308 -0.20855044 0.16705352 -0.01797427 0.032686394 -0.16628069 0.20584324 0.22628674 -0.3954436 -0.2796354 -0.47440678 -0.18555477 0.07297041 -0.22745551 -0.033020917 -0.22084002 0.13937193 -0.22903235 0.005759939 0.5262469 0.3647089 0.04058963 -0.35219184 -0.24743424 0.11318594 -0.19877625 0.12142433 0.25168577 -0.033671945 -0.23970585 -0.09643578 -0.34082577 -0.22548984 -0.018306162 -0.123095386 -0.2541182 -0.17214108 0.1820202 -0.058140997 -0.29332417 0.10402475 0.04449329 -0.08955523 0.30283615 0.49038434 0.37521815 -0.24572964 -0.044755112 -0.10065088 -0.3579569 0.0015393954 0.04350616 0.39058045 0.26607865 0.07884553 0.08243122 -0.16648956 0.05581862 0.45171395 -0.2871166 0.016313415 0.09039977 0.2807595
53 -0.00837323 -0.20161316 0.06590119 -0.045190502 0.25763753 -0.0889376 -0.16272397 0.48072603 0.16685362 -0.26174122 -0.12577157 -0.2886423 -0.08358971 0.004791287 -0.12138004 0.290564 0.06405715 0.009059709 -0.049136594 -0.08147193 0.36549014 0.31123593 0.1778602 -0.17977168 -0.11492455 0.15395206 -0.07746391 0.049823076 0.11011362 -0.056875803 -0.42892107 -0.16042353 -0.34782088 -0.23338178 -0.044474527 -0.17098898 -0.073657274 -0.32961315 -0.063697055 -0.23697804 -0.3990856 -0.123267636 -0.23082078 -0.080256484 0.19810101 0.29438442 -0.107536554 -0.30404487 0.09884082 -0.011251436 -0.4887723 -0.11702883 0.041856654 0.44741383 0.34430107 9.5084746e-05 0.08716342 -0.059223276 -0.08559617 0.59673804 -0.32717428 -0.020678332 -0.0046419417 0.040148716
18 0.025418948 0.15460603 0.1731931 0.12172906 -0.3410568 -0.3562549 0.06396436 -0.32289252 -0.4209099 -0.18690893 0.32036024 -0.048958123 -0.41471434 -0.1378191 0.36299032 0.2380651 0.12180301 -0.07402515 0.20610848 0.38243592 -0.39275342 0.2383401 0.21728759 0.12824489 0.00855822 0.32905495 -0.2778957 0.018543312 -0.19871993 -0.02643937 -0.0035162303 -0.120912954 -0.30632582 0.0015108443 -0.26145777 -0.09786771 0.27468967 0.29498172 0.16306116 0.05990455 0.23441942 0.13439666 0.22014086 -0.11050973 0.2938524 0.068448104 0.3904822 -0.21399988 0.2533249 0.43264148 0.13064696 0.071300164 -0.0038406576 0.13328154 0.2500446 0.37298006 0.100844175 0.16756627 0.2585753 0.53835684 0.27963406 -0.31091836 0.0605355 0.20834744
30 0.10852223 -0.13046904 0.19805372 0.015851555 0.19731046 -0.13388349 0.182477 -0.12720454 -0.12796557 -0.17291933 0.18445289 -0.29432943 -0.31395802 -0.28736642 0.3717025 0.41394886 -0.061970413 -0.0781991 0.15131454 0.122566335 0.24761221 -0.26986444 0.33344504 0.057062577 0.13782743 -0.0023063396 -0.34569675 -0.052930076 0.20892918 -0.04501238 -0.18350145 0.031554416 -0.18186396 0.2698561 -0.2124328 -0.053947642 -0.028130883 0.2869015 -0.063210145 0.1576055 0.06645845 0.46276543 0.052788842 -0.17224324 -0.039886992 -0.25483873 0.28482077 -0.33278444 -0.021679373 0.104919486 -0.21072836 -0.4403134 -0.12349858 0.49966675 0.39256322 -0.24527954 0.0033895175 0.071637824 -0.36532223 -0.09271695 -0.17326976 -0.34708488 0.30845124 -0.06057247
14 0.14795007 -0.0835506 0.34658858 -0.09221505 -0.28189954 -0.48059326 0.017027508 -0.29658124 -0.31287286 -0.0256904 0.31672746 -0.27034366 -0.25724858 -0.24582031 0.37019193 0.29240805 0.14062884 0.11738068 0.14447844 0.0944656 -0.24473788 0.4115698 0.25822428 0.24688455 0.06765032 0.12287307 -0.36260116 0.005481275 -0.22699492 0.06582882 0.032265253 -0.10518829 -0.44552997 -0.0084899785 -0.34324548 0.0012470084 0.31432536 0.49062374 0.3118507 -0.044302713 0.20397525 -0.04533502 0.33505633 -0.35435823 0.1787743 0.07974424 0.3447176 -0.21378991 0.26891917 0.39016125 0.123109534 -0.004465535 -0.09468262 0.2672146 0.15646279 0.3109122 0.06502812 0.04014934 0.2431224 0.63449574 0.28811747 -0.25129402 -0.21232492 -0.17540854
3 0.12208735 0.0032792743 0.33481178 0.15316397 -0.32545987 -0.5016658 -0.023500416 -0.10753687 -0.32688814 -0.034589615 0.42827272 0.014715403 -0.23818868 -0.33745298 0.39359114 0.31941387 0.022748308 0.018935435 0.102997504 0.46299198 -0.3284879 0.319733 0.41378522 0.20683424 -0.08854399 0.3242154 -0.14886275 0.19942287 -0.19793902 0.016939525 -0.09028359 -0.06643308 -0.3356081 0.1794218 -0.36215505 -0.18115819 0.37481806 -0.015232946 0.24068595 0.035966486 0.17381305 -0.17099619 0.1293382 0.03281726 0.31893483 -0.048251312 0.51531214 -0.008741142 0.5340917 0.2068486 -0.019298643 -0.1182002 -0.09744337 0.25820023 0.114488654 0.38248393 0.08191756 0.01794164 0.12633698 0.5658732 0.2967413 -0.15758005 0.061965026 0.11305511
89 -0.109654605 -0.29709157 0.19720042 -0.03585768 0.289416 -0.0895785 -0.15774508 0.34460047 0.13251583 -0.23919426 -0.22044282 -0.30153903 -0.1625324 -0.26084846 -0.18993561 0.13510773 0.06313454 0.04363778 -0.08257304 0.15303746 0.36174446 0.37057087 0.04299594 -0.05574852 -0.14305678 0.108106755 -0.124211386 0.15953428 0.21169472 0.092051685 -0.38053194 -0.07745167 -0.39187813 -0.11642742 0.06675307 -0.33791268 -0.11006726 -0.31485724 0.050917037 -0.08150167 -0.34982508 -0.12611309 -0.05453977 0.08994447 0.37719807 0.15531659 0.20460403 -0.26626295 -0.011664083 -0.1122177 -0.41678736 -0.249229 -0.058841366 0.44415122 0.45340294 -0.014012415 0.059570927 -0.12150509 -0.053795163 0.36632967 -0.30578285 -0.1739907 0.22388396 -0.07365779
88 -0.12503177 -0.30991322 0.20694342 -0.10315593 0.42840186 -0.0040492583 -0.21107884 0.2948792 0.1250176 -0.2000163 -0.2958312 -0.31538993 -0.21144569 -0.21137857 -0.09357973 0.11912476 0.12719744 -0.0028603007 -0.12544052 0.10308551 0.30278 0.3127452 0.08479627 -0.10584321 -0.1046691 0.009103482 -0.14871979 0.11552285 0.22848412 0.068577856 -0.47128898 -0.14845076 -0.38012013 -0.07253978 -0.008892129 -0.27743003 -0.25816754 -0.2897504 0.053507894 -0.05036253 -0.37746567 -0.04673462 -0.036970064 -0.061533153 0.2944902 0.13763663 0.09968517 -0.28571624 -0.20884702 -0.19996814 -0.47564188 -0.27449286 0.085857905 0.42022902 0.45573935 -0.12868302 -0.040362086 -0.123977944 -0.09961356 0.41079718 -0.37444288 -0.1912139 0.14209487 -0.079558514
65 0.21290408 -0.12446181 0.08061615 0.16842593 -0.005734016 -0.09989277 0.030274576 -0.34474385 -0.4695081 -0.13790792 0.11188882 -0.36454767 -0.30018833 -0.2986464 0.34460023 0.17545913 -0.105709985 0.42737773 0.38973543 0.6061248 -0.11895226 0.2496212 0.38458136 -0.012029719 0.14623164 0.21877286 0.05494598 0.019321423 -0.040098704 0.10774813 -0.16929415 0.08166725 0.11285079 0.030089432 -0.54267997 -0.28338212 0.009567639 -0.27675533 0.22007482 0.147865 0.1073935 0.03887012 -0.33505186 -0.05691719 0.23607646 -0.22895835 0.1989483 -0.21598452 0.39047542 -0.0218589 -0.21165307 0.14692576 0.2154 -0.12403999 -0.19558515 0.18922833 0.07182386 -0.044364553 -0.15732314 0.33047947 0.51924086 -0.21183449 0.29935017 0.17011334
111 -0.3404534 -0.25455546 -0.017354105 0.28391597 0.27657178 -0.0019495697 -0.08160001 0.1699739 0.016431471 -0.28705892 -0.1555761 -0.20284078 -0.35623097 0.35131723 -0.16316062 -0.043855645 -0.08161356 0.24463552 0.097958565 0.15503332 0.289959 0.28365627 0.2454398 -0.33165756 0.10028196 -0.12941614 0.16699968 0.36635184 0.055250667 0.16555084 -0.09239935 -0.19413713 -0.18145964 -0.32690433 0.16159327 -0.2990079 -0.23393531 -0.27519405 0.13613582 0.020400025 -0.049589403 -0.023161247 -0.0040857075 -0.20045984 0.17277065 0.09248254 0.109861836 -0.066624254 -0.07196192 -0.20145018 -0.39974812 0.063016854 0.22842301 0.47512674 0.21173024 -0.0040525105 0.09038014 -0.09890946 -0.28712505 0.5835362 -0.4734556 -0.36013788 0.1635454 -0.08307402
56 0.1994507 -0.07406667 0.13605796 0.038292725 -0.30427375 -0.36509314 0.00021122495 -0.066748284 -0.21058407 0.14921352 0.08696918 -0.39704508 0.08773216 -0.1206118 0.21144699 0.33320335 0.24309283 -0.036458306 -0.27085623 -0.057369936 0.14725341 0.415721 0.33667067 0.040747575 -0.023477204 0.41109747 -0.24863473 -0.18477891 -0.019417208 -0.16950087 -0.11826721 -0.15871063 -0.5064654 -0.07029409 -0.5163417 0.31073564 0.25443316 0.18567558 0.066434264 -0.17392854 0.051489595 -0.13976468 0.23714465 -0.35050252 0.13119984 0.29056883 0.061649833 -0.35169432 0.12632129 0.33102563 0.08332033 0.10292751 0.033175673 0.13440637 -0.07003307 0.20218456 0.12695652 0.09800982 0.22302866 0.724899 -0.091712005 0.014285962 -0.35855144 -0.121413395
21 0.21617475 0.05783925 0.13601539 0.08085872 -0.30425102 -0.042384792 0.07997368 -0.19895463 -0.38953242 -0.3924445 0.14642647 -0.39826718 -0.13612194 -0.27415165 0.07378157 0.21485516 -0.14471638 0.036105014 0.3738828 0.29473847 -0.012661079 0.11068284 0.26747584 -0.2265476 -0.1324688 0.47562948 -0.09367971 -0.18380776 0.09679434 -0.28393736 0.29031083 -0.3223974 -0.1552113 -0.39604405 -0.14297852 -0.013791294 0.15122399 0.19385226 0.021030283 -0.023404378 0.11928958 -0.16375405 0.017958874 -0.18335377 0.1282352 -0.16010365 0.17495573 -0.48829955 0.20897906 -0.01883194 0.11514768 0.23577484 0.2517564 0.066069596 0.092338584 0.15330884 0.3219708 -0.022724384 -0.04646506 0.10563352 0.14089537 -0.08091488 -0.21053916 0.26234734
62 0.36662638 -0.357907 -0.02935192 -0.14480054 0.23451811 -0.34453595 -0.15207165 -0.14979136 -0.4248181 0.10274592 0.0995636 -0.45472115 -0.115873486 0.17053327 0.18790486 0.03753971 0.33621806 -0.1550958 -0.21775529 0.13317089 0.49616396 0.23721194 0.096858025 -0.000262018 0.059906036 0.72629374 -0.42920032 -0.2411096 0.032603927 -0.14676878 -0.32040182 0.044751436 -0.033125266 -0.046743415 -0.25123155 0.35620293 -0.16548353 -0.14701165 -0.02080517 -0.15381952 0.11715623 0.30275905 -0.40673873 -0.2409292 0.15556774 -0.2525895 -0.12491109 -0.28132942 -0.11487104 -0.03303249 0.102740146 0.105537064 0.39212236 0.055165235 0.06901612 0.029078688 -0.105336964 0.10259339 -0.16105181 0.36968386 -0.115433484 -0.2621879 0.068445444 -0.119869456
19 0.3206406 0.009322741 0.19288796 0.34495425 -0.3016092 -0.4649662 0.2596941 -0.25649497 -0.48116165 -0.17290269 0.40608874 -0.08120693 -0.4745739 -0.21563333 0.1696364 0.17490153 -0.16001475 0.061309714 0.23495278 0.47802612 -0.2928051 0.0922141 0.4131104 -0.04256568 0.098898664 0.3600157 -0.32004657 -0.093000226 -0.13957465 -0.21935815 -0.024101222 0.0050134114 -0.086946994 0.11821353 -0.3067186 -0.43700048 0.3322654 0.009378974 0.10124105 -0.010649354 0.15042295 0.1912074 -0.14263208 -0.043230638 0.45961785 -0.10633168 0.5007263 -0.044003338 0.50015694 0.23683035 -0.070052974 0.23921783 -0.065702155 -0.026739115 0.18163098 0.4937314 0.2824719 0.18945253 0.08618426 0.43589792 0.2877988 -0.19610232 0.03003418 0.18899705
33 0.27702513 -0.19502495 -0.09015533 0.00017983976 0.26459005 -0.52420616 -0.011036703 -0.24490678 -0.67500293 0.15450448 0.32753664 -0.24475552 -0.1857032 0.20017976 0.2612753 -0.11290438 0.595113 -0.47246975 -0.25533172 0.1267207 0.1359032 0.31925064 0.30612132 0.052543756 -0.0086933775 0.83065003 -0.25411868 -0.18397768 -0.14608087 -0.21800698 -0.40424997 -0.28026846 0.010060251 -0.08548608 -0.2270038 0.21233152 -0.10023138 -0.12373384 -0.08615391 -0.21461785 0.08595558 0.12808238 -0.12590978 -0.22226197 0.059440386 -0.24185364 -0.10450126 -0.06209373 -0.05910945 0.05597197 0.24281803 0.14210846 0.5839707 0.032865677 0.045418043 0.035095565 0.018190173 0.17718816 -0.0072840983 0.8134088 -0.09136395 0.061532166 0.043074865 0.119397916
63 0.3498819 -0.41648683 -0.012415286 -0.1284679 0.35794854 -0.32660016 -0.08361848 -0.28722703 -0.45218903 0.16203338 0.14581865 -0.40160832 -0.017704858 0.026956331 0.17389396 0.010944744 0.43106133 -0.19060606 -0.2244443 0.111087754 0.49195203 0.26407075 0.2737148 0.20715454 0.08283854 0.6745777 -0.3278674 -0.15850262 0.032114733 -0.060303867 -0.35984072 0.05423484 0.0293606 -0.064872436 -0.206779 0.26149905 -0.11740667 -0.04453666 0.018680023 -0.1751067 0.18111864 0.21776538 -0.34533548 -0.27321684 0.07227118 -0.3163608 -0.22481707 -0.06489069 -0.16850278 -0.23843667 0.1151887 -0.064325035 0.43863934 0.23865086 0.041886948 -0.09266411 -0.103743315 0.08931607 -0.3133358 0.48222765 -0.18842378 -0.22582175 0.099789545 -0.16100197
57 0.1494151 -0.17429687 0.30449507 0.05103933 -0.32322082 -0.36914468 -0.0034898056 -0.022266697 -0.36994562 0.08380156 0.1850244 -0.08828272 -0.30869508 -0.32359198 0.3826751 0.41882434 0.17183062 -0.080748074 -0.029164365 0.15743946 -0.21356978 0.36154345 0.3758998 0.2825634 -0.05847492 0.16030496 -0.2615982 -0.054043368 -0.30314824 -0.036452048 -0.018160298 -0.21241468 -0.4383088 0.114419945 -0.4385492 0.032246172 0.4738457 0.34890512 0.29964116 -0.11514166 0.30652657 -0.09300772 0.320225 -0.066138014 0.28474775 0.060824923 0.38952675 -0.14771882 0.20990214 0.32488322 0.1419475 -0.10605768 -0.07175882 0.37207234 0.15745182 0.36343744 0.110347226 -0.047906533 0.33606243 0.69599795 0.101283506 -0.009857526 -0.213708 0.046631422
60 -0.0010160164 -0.5052934 0.10433944 0.06078965 0.3500463 -0.1429234 -0.14863905 0.085647434 0.17398883 0.024688669 -0.39180598 -0.035660636 -0.19738257 -0.47501525 0.08549317 0.40392366 0.27440512 -0.005187173 -0.12561531 0.29165828 0.11032805 0.3156276 0.23001222 0.25604054 -0.030641347 0.215531 -0.08603423 0.18306081 0.12510751 -0.016355813 -0.39807606 -0.103463 -0.24599837 0.1655315 -0.33745357 -0.08999564 0.25975242 -0.20306894 0.12204098 -0.059415154 -0.002869653 -0.07282167 -0.060194355 0.28177023 0.50307614 0.11410451 0.119616225 -0.38050655 -0.13122328 -0.17295328 -0.17012842 -0.32508716 -0.021738078 0.45909938 0.42376885 0.0020811495 -0.11300095 -0.13704345 -0.050258305 0.2620857 -0.17549275 -0.109259844 0.18837139 -0.1550007
94 -0.28246483 -0.26070142 0.13293283 0.21458848 0.30479956 0.08192167 -0.18856356 0.13345924 0.23273563 -0.357406 0.20706153 -0.3069124 -0.16722226 0.27289262 0.03577161 0.2608219 -0.35639247 0.2700624 0.32225984 0.19029053 0.1679929 0.03848262 0.23011297 -0.18457338 -0.13159049 -0.1125441 0.20681424 0.31633896 -0.06487123 0.20485783 0.1209037 -0.294495 0.054171417 -0.19755873 0.2602176 -0.18730478 -0.046356037 -0.18025039 -0.013375098 -0.10844017 -0.071298786 -0.14979999 -0.055625685 -0.022871248 0.123909056 -0.20579547 0.03482645 -0.08968191 0.022068763 -0.2688078 -0.07505285 0.026634451 0.05721552 0.74217325 0.16536511 -0.21577637 0.10435907 -9.879275e-05 -0.37621087 0.42750928 -0.35797545 -0.089753285 0.17151974 0.11602723
98 -0.36341473 -0.20520791 0.06293754 0.25815526 0.33698013 0.066747494 -0.20171215 0.19623914 0.21202104 -0.33503157 -0.041239407 -0.3936419 -0.1867954 0.2851329 -0.1225215 0.11792241 -0.10253229 0.29244882 0.2025712 0.15706153 0.3186617 0.31351858 0.19926506 -0.27681693 -0.07372637 -0.12902066 0.10948113 0.3702447 0.01810845 0.16005301 -0.11957812 -0.2613122 -0.24536565 -0.3265121 0.13585688 -0.23332636 -0.09984876 -0.2983681 0.18539225 0.017424073 -0.19245246 -0.20873551 -0.04035719 -0.14400284 0.15637425 0.17550252 -0.08744215 -0.12232717 -0.09352737 -0.10017646 -0.43170127 0.09236325 0.15786152 0.5498035 0.19192073 -0.1128557 0.04464116 -0.10093507 -0.21549256 0.5933098 -0.3294253 -0.22618577 0.085235335 -0.049152154
34 0.3089917 0.05433152 0.19836147 0.04272696 -0.11189531 -0.31093323 0.07932454 -0.16474153 -0.29032922 -0.11906547 0.41965067 -0.23370714 -0.35235628 -0.18518035 0.3032539 0.33128366 0.11916721 -0.0032859882 0.35520878 0.08008108 -0.17277822 0.11839295 0.32956424 0.2370121 -0.14832202 0.25708127 -0.25059542 -0.012812022 -0.026327256 -0.25165275 0.06880109 -0.4429901 -0.13984835 -0.1166381 -0.2999739 -0.16050383 0.3580461 0.27429056 0.29535484 -0.05886847 0.08599553 -0.14147198 0.2299968 -0.070696756 0.06812891 -0.23512451 0.22356035 -0.2878813 0.1521311 0.105819345 0.21039715 -0.18760388 0.18288428 0.23121928 0.3873183 0.0019242425 0.22276895 -0.077311575 -0.11769428 0.28689 0.37916604 -0.06265162 -0.25295618 -0.017990423
45 0.2966527 -0.04782459 0.12986547 -0.052052546 -0.41459358 -0.05063648 0.054096345 -0.1761412 -0.21459831 -0.30514267 -0.23769552 -0.57014525 0.01737296 -0.43107036 -0.093508184 0.16088903 -0.031911317 0.27170148 0.16720769 0.09050588 0.15660466 0.1916942 0.26390868 -0.20700346 -0.09010072 0.4889232 -0.20589039 -0.097140916 0.25938463 -0.16733679 0.11830779 -0.13012476 -0.4225478 -0.45854744 0.009336018 -0.07559459 -0.030479118 0.38246018 -0.049813997 -0.2344171 -0.07110978 -0.105850585 -0.09996904 -0.28989857 0.18823375 -0.0107877785 0.07124788 -0.55380386 0.10907229 -0.1103873 0.08927413 0.04978044 0.20986685 0.23555371 0.025243647 0.06606023 0.30534372 0.08609961 0.10662475 -0.011901035 -0.066959366 -0.21344689 -0.3385967 0.17034622
4 0.20819205 -0.19646552 0.32049224 -0.11684328 0.34657344 -0.22899365 -0.011566496 -0.059427578 0.022852413 0.030074421 0.087118894 -0.19734117 -0.40167478 -0.17022188 0.24002439 0.31744003 0.25367072 0.107507214 0.18578355 0.26393437 -0.014675427 0.11398808 0.033476748 0.39971012 -0.083824374 0.11192931 -0.25870842 0.1930965 0.19584033 -0.01882538 -0.22061048 -0.03667 -0.093053244 0.21016103 -0.22899923 -0.27558422 0.19084874 -0.0656834 0.08531172 0.10327765 -0.09397798 -0.099047266 -0.052658435 0.17270859 0.3063233 -0.3176349 -0.011658937 -0.21734515 -0.093478374 -0.037390687 -0.12043134 -0.37753907 0.04603502 0.37366718 0.5824932 0.055471096 -0.058513995 -0.0011322874 -0.32941112 0.18983833 0.086106434 -0.1543055 0.30176172 -0.10770171
43 0.17391972 -0.112641245 0.16364427 -0.07300832 -0.1130017 -0.32095107 -0.11242973 0.11094417 0.047181208 -0.24475737 -0.0853617 -0.35073993 0.07563792 -0.23644441 -0.0529301 0.057308096 -0.22191642 0.026501715 -0.31800953 -0.015065667 0.25324476 0.31687436 0.2577429 -0.24653822 -0.08398928 0.41373885 -0.24400315 -0.027642567 0.100452155 -0.028358186 -0.15597647 0.032782964 -0.44261643 -0.22327073 0.044267114 -0.001384293 -0.27051967 -0.0018008349 -0.098093994 -0.37240443 -0.29766706 -0.0102847945 -0.11436666 -0.33286455 0.15751056 0.34318095 0.20189393 -0.33744293 0.069122344 -0.12637143 -0.28629467 0.10086794 0.100574955 0.24946536 -0.011376027 0.21557309 0.14767885 -0.036175173 0.10345596 0.30799305 -0.32255018 -0.04177839 -0.21009283 0.059332848
11 0.09586562 -0.42160273 -0.18361884 0.25577328 0.1182357 -0.11360635 0.03651481 -0.5127737 -0.35206586 0.10934761 -0.17126396 -0.45500037 -0.2636258 -0.247661 0.34088466 -0.05054638 0.22459774 0.3490685 0.26369348 0.54469573 0.022356197 0.21774802 0.44813186 0.05424291 0.3284317 0.34481403 -0.1335787 -0.16474397 0.2695375 -0.06684001 -0.23033306 0.15034303 0.031895652 0.36486262 -0.42988685 -0.20975854 -0.08647742 -0.35717618 0.056490567 0.31133413 0.14964557 0.252909 -0.20380625 -0.16031326 0.34466216 -0.4132317 0.043122925 -0.16626036 0.20837067 -0.20326889 0.017438881 0.16197313 0.3604869 0.036318682 -0.10798374 0.17792241 -0.23166236 0.06675608 -0.0599615 0.39361957 0.27370876 -0.22206159 0.3330955 0.15123636
85 0.14366011 -0.20761426 0.02757675 0.25110292 -0.037909355 -0.28262845 -0.051337264 -0.19100158 -0.57843846 0.004948941 0.13530095 -0.45042676 -0.19512497 -0.044584416 0.17272568 0.019579237 0.084143445 0.28569475 0.020129712 0.47466034 0.35828373 0.022560788 0.25691766 -0.20099227 0.2125025 0.42253312 -0.19642086 -0.1670572 -0.06796391 -0.049554836 0.025638394 0.29899028 -0.15306696 0.035368603 -0.23733294 0.1160782 -0.101870455 -0.2302977 -0.12888898 0.15404043 0.2584465 0.52927166 -0.3665425 -0.16084868 0.26933464 -0.2476172 0.42586076 -0.22389492 0.25595134 0.1699265 -0.06995708 0.19865209 0.023151744 -0.078119 -0.06432409 0.17288972 -0.03469236 0.20153052 0.055571903 0.17505972 0.06444637 -0.33767334 0.37079933 0.1451364
25 0.028705772 -0.075166024 0.10599965 0.19849627 0.10412864 0.06393685 0.26794136 -0.34135935 -0.103462845 -0.24212006 0.46412334 -0.48197103 -0.21552217 0.06169459 0.52763593 0.5023788 -0.22815813 -0.0080636125 0.0728398 0.0091149695 0.49431142 -0.21451114 0.2650187 0.08737075 -0.042928915 0.012484839 -0.6387905 -0.26629603 -0.011924583 -0.079226606 -0.04873784 0.14186342 -0.07242389 0.18616813 -0.07044029 -0.010144722 -0.035021055 0.47075027 -0.062882304 0.109522045 0.008986109 0.68735176 0.09770366 -0.46674 -0.4198106 0.014938633 0.14908405 -0.38491958 -0.08396322 0.20842414 -0.14933522 -0.1937868 -0.038125798 0.6766393 0.035554472 -0.14597993 -0.01378145 0.1875035 -0.52922237 0.17402534 0.11467299 -0.64261055 0.38180527 0.0565323
52 -0.15167762 -0.2400459 0.06049046 0.1203765 0.15477389 -0.08702286 -0.26785004 0.20576893 0.10171993 -0.372857 0.002717254 -0.23380506 -0.23961402 0.13280848 -0.34301406 0.13438474 -0.09238882 0.021344123 0.07519196 0.058762155 0.3944591 0.34150857 0.0021812404 -0.2147441 -0.002290661 0.031127825 -0.11886601 0.26517102 0.09853291 0.25093096 -0.21963707 -0.12014524 -0.26887414 -0.33679107 0.2926337 -0.2556193 -0.18764664 -0.28317848 0.03084982 -0.10905692 -0.33350572 -0.112531744 -0.12888318 0.08626825 0.4324059 -0.043613598 0.079059094 -0.21577406 0.06841894 -0.08048553 -0.35961637 -0.2651692 0.0810031 0.48200938 0.3557507 -0.05138882 0.14039078 -0.060746465 -0.054931886 0.5188913 -0.5019534 -0.08816141 0.079768635 -0.015843628
68 0.106783584 -0.09442082 0.22855414 -0.08385828 -0.31644052 -0.6000881 0.04637094 -0.24700218 -0.43880478 0.011468026 0.42304432 -0.056324124 -0.19919558 -0.2619506 0.28917533 0.11340717 0.14986646 -0.110676184 -0.036874738 0.17592339 -0.2217705 0.39793104 0.42353794 0.1600865 0.07196837 0.37804213 -0.16197316 0.14143759 -0.14884922 0.015460887 -0.12812684 -0.19583362 -0.33781227 0.10954098 -0.42200938 -0.055605564 0.3162854 0.19483015 0.32660502 -0.03646936 0.24429095 -0.07665759 0.21975416 -0.29520577 0.2845553 0.07519653 0.531028 0.0019067597 0.44178122 0.25035724 0.044123773 -0.005313744 -0.08601829 0.19233936 0.094756104 0.30735415 0.12750211 0.02543609 0.234714 0.85313845 0.11721107 -0.03978105 -0.12566426 -0.06800578
67 0.19725053 0.16715229 0.21644963 0.07925938 -0.25223297 -0.05969875 0.07065378 -0.4260478 -0.5207271 -0.263502 -0.06070628 -0.69089746 -0.1631283 -0.53647923 0.2640319 0.15365712 -0.05469488 0.5489253 0.51818734 0.5666131 -0.28895712 0.24765159 0.13959493 -0.040373243 -0.046620347 0.29141366 -0.006902165 -0.16916642 0.24743703 0.030288259 0.094476864 -0.011584067 -0.18845794 -0.20290981 -0.49879655 -0.31927866 -0.13985571 0.038042698 0.07918657 0.16336915 -0.13769558 -0.058960553 0.0717679 -0.13697536 0.107054725 -0.28912207 0.21573111 -0.600078 0.2980307 0.053345945 0.1278787 -0.18776965 0.31421858 -0.15769917 0.10723032 0.123054415 0.22599357 -0.012544891 -0.06478008 0.22952764 0.56149894 -0.17910974 -0.052106503 0.33728653
58 0.15680091 -0.3377782 0.21729825 -0.0061177886 0.31580302 -0.350713 -0.032447074 0.13812047 -0.008678487 0.105396435 -0.27510467 0.038116377 -0.3012531 -0.37870213 0.069540925 0.24322717 0.31909025 0.0025864418 -0.22696212 0.2204739 0.11232781 0.24185207 0.26741266 0.15865873 -0.13670288 0.1959799 -0.19780801 0.2999193 -0.036778256 -0.08999608 -0.22229844 -0.097624764 -0.3166525 0.0957358 -0.30846128 -0.084041744 0.25981444 -0.02147548 0.19244087 -0.12080621 0.167168 -0.012477787 -0.03525939 0.1301233 0.3512583 0.17652197 0.28088015 -0.2741751 -0.18946278 -0.035162877 -0.25449058 -0.14313619 0.0029330787 0.36697116 0.43729496 0.13833043 -0.06859191 -0.17139809 -0.119303614 0.10887003 -0.14407504 -0.16945219 0.22846298 -0.22644581
0 -0.06854239 -0.298216 0.05621784 -0.1239288 -0.18952721 -0.18146548 -0.12705944 0.06273646 -0.054118134 0.14146222 -0.076500855 -0.22305426 -0.14212006 -0.1454793 0.118728384 0.24227588 0.29080608 0.03746015 -0.08462886 -0.09941199 0.13528919 0.44125697 0.38985628 0.19397269 -0.065115035 0.22177054 -0.15369023 0.18141101 -0.13104974 0.047190003 -0.30574393 -0.17118312 -0.45073888 0.058607772 -0.33157796 0.08452851 0.36907598 0.25757408 0.32525307 0.015648527 0.197625 -0.12194253 0.17612885 -0.38368657 0.09903939 0.30553612 0.2054487 -0.031516396 0.25678736 0.19856487 -0.2997664 -0.12658134 -0.013514706 0.39820537 0.05394841 0.24922924 -0.11326326 -0.11473354 0.25815082 0.5725703 -0.004842522 -0.23023248 -0.068018265 -0.15135096
23 0.08196623 0.047160294 0.12580009 0.1327521 0.033609137 -0.09077443 0.3102583 -0.2518926 -0.13784796 -0.3270634 0.4393829 -0.29237303 -0.29906464 0.037508763 0.46571743 0.54050606 -0.13873231 -0.21345901 0.17356981 -0.062006008 0.28988364 -0.30406785 0.27066013 0.07095661 -0.025243735 0.037065435 -0.50918454 -0.14757283 0.05072198 -0.21877706 0.122162454 -0.098905064 -0.088509105 0.1031938 -0.10729435 0.06736265 0.047694713 0.57822526 -0.22681737 0.10305206 0.11857244 0.56214756 0.24090858 -0.39150214 -0.31705362 -0.047286026 0.17105575 -0.3703247 -0.1488826 0.2144774 -0.12368377 -0.3503536 0.032152206 0.6676227 0.35590804 -0.1428126 0.04593482 0.097212486 -0.5172027 0.088341005 -0.14656745 -0.47086373 0.07341966 -0.020013576
13 0.18248737 -0.3045005 -0.20679788 -0.13353004 0.07419243 -0.3884036 -0.18212791 -0.32122016 -0.33902714 0.059762336 0.24080442 -0.33378816 -0.22938839 0.22240812 0.20570603 -0.08592879 0.29156983 -0.25570357 -0.22735544 0.06725615 0.40375647 0.39748305 0.051028088 0.029891662 0.05469113 0.7463105 -0.4345328 -0.15078871 0.16671637 -0.14468394 -0.14054373 -0.042835135 -0.009424994 -0.052326664 -0.06377219 0.32706055 -0.23921578 -0.22059894 0.006893469 -0.05775733 0.22126171 0.28472915 -0.18511574 -0.29731593 0.24377608 -0.2609772 0.07524642 -0.18954673 -0.0055135684 -0.17114367 0.28150675 0.1665705 0.4107514 0.051813856 0.12009467 0.12008689 -0.08714512 -0.040696684 -0.114254914 0.5857131 -0.17838196 -0.102154985 0.30785778 -0.047589578
24 -0.07011544 -0.02247065 0.22868036 0.07876423 0.094703026 0.033540715 0.27578655 -0.13403773 -0.1709155 -0.26265293 0.31359583 -0.40624052 -0.24535732 -0.035980936 0.399246 0.41400898 -0.20162913 -0.054040026 0.198332 0.04599207 0.25969544 -0.33480686 0.2952715 -0.030561596 0.05034572 -0.07496732 -0.16322596 -0.08898592 -0.034758978 -0.069236726 0.10626114 -0.09869104 -0.117434256 0.11346737 -0.19793501 0.08482435 0.04752335 0.4970804 -0.1827566 0.11770656 0.16775586 0.54818076 0.128856 -0.43259588 -0.24628331 -0.0096957525 0.29312706 -0.27117938 -0.05055935 0.2097415 -0.17960823 -0.18529582 -0.19007607 0.54298115 0.22521013 -0.17859852 0.09220821 0.15199712 -0.33371013 0.09172928 -0.15881926 -0.3927454 0.23079193 0.075053625
50 -0.4566522 -0.046424355 -0.14636844 0.018285837 -0.28021255 0.3952504 -0.07598102 -0.4726071 -0.1720541 -0.42890233 -0.1973655 -0.7218313 -0.2702336 -0.23134933 -0.03865688 -0.1069963 -0.17533213 0.09340909 0.45199832 0.5937151 0.19270062 0.081882 0.18098845 -0.2901323 -0.18187225 0.24283922 0.07474512 0.15135042 0.21179548 0.0027819239 0.29613373 -0.28851885 -0.17338456 -0.45395556 0.10848161 0.034630377 -0.10881715 0.13141783 0.068268664 0.25228697 0.12022551 -0.0715035 0.22117636 -0.32905638 0.1703721 -0.015679102 0.37264004 -0.4300609 -0.1215978 -0.12346359 0.26610377 0.24952877 0.16086628 0.2972829 0.008173759 -0.09651403 0.110769175 -0.096271284 0.1545731 0.015735421 0.07795177 -0.1951781 0.36640134 0.52993363
102 -0.36200237 0.006799047 0.27334568 0.67744476 0.4909264 -0.24194318 -0.16449259 0.08006385 0.003842039 -0.2774706 -0.018748822 -0.4188889 -0.20956963 0.24768524 -0.00175737 0.18709451 -0.28988644 0.4653488 0.139784 0.5479449 0.14700495 0.21034577 0.124601655 -0.35458404 -0.12379021 -0.5553476 0.008686859 0.31412935 -0.2750005 0.14890152 0.35616365 -0.24384002 -0.20913373 0.07866248 -0.062420085 -0.050520055 -0.48315084 -0.2654649 -0.1400212 0.08863926 0.06452005 -0.08441482 0.2280738 0.13630499 0.26896083 0.22169377 0.13798262 0.10971521 -0.47785708 -0.4603766 -0.26274145 0.3923473 0.30882275 0.49041662 0.09079616 -0.025039528 -0.18497524 -0.28386804 -0.2145208 0.5552162 -0.5620386 -0.111449726 -0.39753732 0.07088473
66 0.17477864 0.15042104 0.30173773 0.015589599 -0.386824 -0.0033057602 -0.005380011 -0.36521706 -0.3522947 -0.36140138 -0.0704121 -0.48789325 -0.33508903 -0.4053031 0.13141657 0.14105736 -0.16005942 0.08731397 0.38190252 0.3621689 -0.2781142 0.14695346 0.18036103 -0.1821714 -0.17326821 0.33881325 -0.1361419 -0.22123408 0.20614465 -0.05581089 0.21844539 -0.32298818 -0.23249121 -0.47026446 -0.17290324 -0.1886573 0.02830932 0.36445996 0.021563372 -0.01904443 -0.052702915 -0.26549798 0.26972246 -0.22699763 0.17207415 -0.2782298 0.37151694 -0.77841717 0.013484372 0.22952501 0.16541068 0.05285099 0.28518844 -0.1232442 0.23987861 0.25027278 0.37153503 0.079200014 0.039654523 0.08404454 0.17521685 -0.19585925 -0.109354414 0.24739628
7 0.04473893 -0.62811345 -0.11529958 0.36885223 0.32180458 -0.1335405 -0.06310915 -0.14357097 -0.10787481 0.09197167 -0.32369328 0.06682585 -0.29210848 -0.2835423 0.22318071 0.36135954 0.19410945 0.049098767 -0.20810056 0.5730283 0.284977 0.36395562 0.272124 0.15284939 0.20362566 0.20849839 -0.22523166 0.09457944 0.059580706 0.07406939 -0.26518568 0.19409747 -0.07245322 0.3881296 -0.38645253 0.018573575 0.09499053 -0.41349018 0.17259715 0.19000284 0.30530608 0.17228417 -0.159785 0.40433922 0.50226164 -0.17777616 0.2072797 -0.13717139 -0.15598553 -0.35926107 -0.12670374 -0.13350716 0.29652864 0.27612814 0.10475161 0.14901884 -0.14335552 -0.22586973 -0.22956339 0.2581587 -0.13562906 -0.18087786 0.48885706 -0.090919286
73 0.21969979 -0.10992934 -0.16457151 -0.14670527 0.14867708 -0.46618977 -0.112081364 -0.43045357 -0.35650873 -0.26665023 0.41679507 -0.046174202 -0.23095575 0.28398168 0.12006749 0.09218487 0.3161101 -0.39745286 -0.109869376 0.015618296 0.19729157 0.35030928 0.1844263 0.10299964 0.1962444 0.7862928 -0.39882478 -0.059154645 -0.06191919 -0.18020372 -0.016072921 -0.26256913 0.21782444 -0.36877024 0.051504735 0.2468438 -0.2183849 -0.015719954 -0.19875096 -0.22097515 0.08755332 0.07956965 -0.34940538 -0.24726933 0.19304241 -0.122523114 -0.12997086 -0.3436042 -0.22445455 -0.0153861875 -0.08694857 0.15553714 0.56154233 0.040475972 0.08552533 0.06836675 0.04353364 -0.01044579 -0.22482643 0.52303857 -0.179034 -0.12402621 -0.005212323 -0.12871909
16 0.017309047 0.055101115 0.0068231323 0.010002327 0.13397664 0.012711664 0.21036339 -0.1849674 -0.2397862 -0.37620923 0.5143334 -0.52599764 -0.488202 0.052968442 0.68660015 0.42922026 -0.18212143 -0.19403854 0.026348278 -0.11393183 0.32530835 -0.17757414 0.40050563 0.06177055 -0.093141094 0.13291821 -0.410069 -0.43856633 -0.06119758 -0.3217248 -0.01167644 -0.20675674 0.060691323 0.13750619 -0.39574668 0.28871995 -0.08090109 0.5941842 -0.14595634 0.090727955 0.2078844 0.717109 0.17533605 -0.57702833 -0.39600444 0.04478169 0.4399945 -0.31570065 -0.13504842 0.3135929 -0.18690556 -0.08288203 0.08294074 0.4719882 0.23099416 -0.039169297 0.13546637 -0.070106156 -0.3357614 0.1385357 0.22103676 -0.31647396 0.35188633 0.2344185
36 0.32066277 -0.010487676 0.35358667 0.03618404 -0.36882588 0.09373557 -0.1006356 -0.39315704 -0.39274213 -0.2947938 -0.18663503 -0.7691436 -0.13993694 -0.55381095 0.20092079 0.20120186 -0.2945844 0.3785745 0.76218927 0.51781094 -0.2752116 0.062181402 0.27242914 -0.06993025 -0.08684195 0.32931682 -0.028589422 -0.24560429 0.14760105 0.009461748 0.0110342605 -0.13137224 -0.15141052 -0.22753322 -0.18468101 -0.3137436 -0.106357165 0.13574632 -0.040103674 -0.0129314745 -0.10491128 -0.21604957 -0.13456109 -0.23544459 0.21425082 -0.45692468 0.07516973 -0.5166143 0.25829157 -0.1444658 0.21836987 -0.116491005 0.1713054 -0.058045764 -0.061791003 0.04565575 0.20368853 0.013311308 0.0027042779 0.14313412 0.2643918 -0.2294254 -0.2556163 0.35327172
12 0.20261426 -0.22934023 -0.06939486 -0.027944617 0.20093697 -0.36474085 -0.1708335 -0.3328763 -0.345339 -0.07936334 0.2264772 -0.3492776 -0.12417631 0.30627185 0.20326124 -0.09293013 0.38075364 -0.3676876 -0.12992544 0.0009087849 0.4011235 0.2775969 0.06484612 0.16618045 -0.08278144 0.8664812 -0.40083066 -0.16189264 -0.0946495 -0.18229857 -0.28467858 -0.12816904 -0.06717974 -0.13263905 -0.031642083 0.28745815 0.008659683 0.012546901 0.034162164 -0.14771415 0.14905834 0.26416138 -0.17525141 -0.24616131 0.10691695 -0.23703486 -0.055434804 -0.18192482 -0.13181138 0.00443225 0.25260732 -0.0143421125 0.34938252 0.12281572 0.1785566 0.023563452 -0.12159744 0.18887426 -0.13467671 0.53413576 -0.06981864 -0.20653349 0.14488931 -0.017538527
26 0.016862227 0.10144581 0.39275295 0.07762891 0.12109342 -0.07228491 0.12707408 -0.21123746 -0.10726875 -0.3268537 0.35925573 -0.46177155 -0.21607965 -0.091502376 0.53605056 0.49059215 -0.17463268 -0.05051185 0.18798189 0.049079053 0.32202125 -0.31348786 0.30086032 -0.0001069344 -0.15638731 0.026886158 -0.4326396 -0.17793702 -0.051387228 -0.16108704 -0.03972759 0.018300302 -0.23308682 0.23158479 -0.13523695 0.11799386 0.0020280553 0.6232722 -0.2298493 0.037623536 0.056295913 0.6611461 0.18925175 -0.4775246 -0.2901182 -0.02089686 0.21551499 -0.34211916 -0.17063302 0.23979755 -0.1351843 -0.34987426 -0.1673963 0.62300926 0.36275598 -0.15637934 -0.07768813 0.24332368 -0.3457341 -0.07005729 -0.0026954291 -0.44129398 0.17132016 0.11609851
61 -0.09829228 -0.6690688 0.07876516 0.30127552 0.34526908 -0.053257946 -0.18824805 -0.15824229 0.08369427 0.10800189 -0.39044163 -0.06121797 -0.1547006 -0.44248033 0.17220369 0.33790398 0.31532297 0.008401819 -0.26118863 0.5584287 0.2712869 0.3779039 0.19957861 0.3458255 -0.018570608 0.2576424 -0.30597118 0.05697691 0.021127021 0.15586272 -0.3754023 0.21573502 -0.28384128 0.40272474 -0.23040497 0.07847728 0.22651933 -0.13639171 0.08184181 0.1227556 0.25954092 0.047275897 0.0535074 0.35292262 0.4018693 -0.1670191 0.17513485 -0.13881095 -0.32147852 -0.3791125 0.07234082 -0.34911832 0.16800131 0.48311386 0.17651714 0.04589874 -0.16891575 -0.13549331 -0.099212974 0.15594496 -0.11199995 -0.34741166 0.3074623 -0.14963275
110 -0.121803276 -0.1513969 0.12891288 0.44688013 0.2717109 -0.063000455 -0.23072942 0.21171142 0.023577271 -0.24534933 -0.16939044 -0.35526606 -0.19031763 0.21287519 -0.08550477 -0.0073186364 -0.22757216 0.25751528 0.116317116 0.108503856 0.25970867 0.2198575 0.2291056 -0.25305757 -0.37411383 -0.11200483 0.06602569 0.31512272 -0.0465226 -0.18874097 -0.043757893 -0.33893728 -0.079397514 -0.23693037 -0.017488074 -0.33339268 -0.13870503 -0.27342767 0.19329141 -0.13973984 -0.094154045 -0.19917755 0.009097922 -0.11608037 0.15854391 0.18310368 0.030992176 0.113550015 -0.14558062 -0.37328672 -0.38200435 0.015579773 0.33224127 0.42028275 0.13512325 -0.05907572 -0.040318083 -0.20686416 -0.35213697 0.63179845 -0.38644996 0.047750182 -0.22576901 0.04449348
31 -7.5240445e-05 -0.19162223 0.086279064 0.17047122 0.13436854 -0.19403876 -0.13366574 -0.2289674 -0.34972367 -0.062038116 0.32341176 -0.081153154 -0.34535158 -0.1789589 0.29319063 0.13079114 0.029754944 0.2637938 0.37403372 0.60383725 0.014487058 -0.03582729 0.10583683 0.0072623757 0.027255317 0.3339492 -0.32021505 0.028661173 -0.024311407 -0.18954325 -0.013101052 0.29614052 -0.04681914 0.2450217 -0.06256666 -0.08835458 0.094029844 -0.38815433 0.004326239 0.1530415 0.28337765 0.5836288 -0.40550044 -0.037841942 0.38315445 -0.12328626 0.2185957 -0.08442977 0.40936333 -0.23971725 0.076684065 0.1946176 -0.050390746 0.1958044 0.1838809 0.18022162 -0.1877159 0.15258463 -0.18015587 0.19862005 0.35312423 -0.4332804 0.56845874 0.19635466
71 -0.09932859 0.021497505 0.07680268 0.16093394 -0.022235798 -0.1304331 0.37977043 -0.15025495 -0.25707346 -0.13549273 0.40006223 0.010971469 -0.07922732 -0.24079688 0.39428836 0.29450056 0.21938404 -0.173446 0.039888006 0.0506648 -0.05509384 0.0016918109 0.59196156 -0.041689906 0.19687973 0.375298 -0.016581971 -0.16141003 -0.074197255 -0.18495029 0.13561858 -0.5669677 -0.33922887 0.27251962 -0.18072212 0.18523093 0.40309346 0.40425876 -0.05522221 -0.017160812 0.15668988 0.24570973 0.47282636 -0.32022935 0.010013364 -0.0317577 0.37658554 -0.23931931 0.21034904 0.013959411 0.09763844 0.07995674 -0.044268608 0.5399713 0.16341528 -0.07492605 0.32772624 0.23366213 0.11792265 0.32761216 -0.3424322 -0.16922262 0.00037813018 -0.019093595
1 -0.003438881 -0.18806359 0.29886302 -0.17985463 -0.4391809 -0.4225006 -0.17577082 -0.18525028 -0.2757712 0.09988049 0.27396244 -0.19670491 -0.09577443 -0.23894557 0.36800152 0.23133843 0.09867482 -0.066471994 0.18434885 -0.04976817 -0.15130627 0.3704216 0.34279424 0.21332349 0.06680144 0.21385126 -0.22650205 0.09339036 -0.18566976 0.13417558 -0.14937453 -0.26546162 -0.60718286 0.101041265 -0.2878853 0.08965995 0.4045901 0.43833584 0.39935926 -0.11690937 0.20417733 -0.038202412 0.36235836 -0.4397009 0.2632956 0.2345834 0.34955424 -0.1406945 0.45991737 0.3079837 0.15297188 -0.103845924 -0.25274557 0.37619612 0.048192002 0.18717015 -0.024669632 0.11825326 0.4971959 0.9836887 -0.00045674318 -0.092342004 -0.33402035 -0.124626294
79 0.14417766 0.051026087 0.23669772 -0.092219174 -0.12105946 -0.6542095 -0.10185654 -0.29582682 -0.39989462 -0.19962735 0.61760056 0.071609154 -0.273239 -0.06389105 0.1751795 0.015936865 0.07763634 -0.3006736 -0.019498007 0.27493986 -0.17114532 0.3041057 0.21623254 0.18416949 -0.08937966 0.5416434 -0.35668167 0.03370465 -0.122572735 -0.07586278 -0.297989 -0.031838402 -0.16647637 -0.06757926 -0.22785242 -0.06854448 0.3253478 0.076061495 0.2890685 -0.041505616 0.33697966 0.08017217 -0.030377619 -0.15585518 0.3725859 0.0020279223 0.396887 -0.06358029 0.38131997 0.28057337 0.09550763 0.07428718 -0.15200056 0.053189907 0.3070423 0.323855 -0.018211842 0.15963969 0.043897703 0.7897846 0.11205134 -0.08982021 -0.01121617 -0.04193085
42 0.009245146 -0.23631781 0.03207792 -0.012909266 -0.10148229 -0.07252774 -0.10297089 0.21664645 0.27101386 -0.3699113 -0.17624801 -0.344428 0.06896097 -0.31035253 -0.13278763 0.27622437 -0.2257433 0.077805 -0.10319782 -0.09691314 0.42059788 0.47766745 0.16558224 -0.14114553 -0.0512408 0.28099245 -0.23867795 0.011855561 0.3754757 0.025763907 -0.36454687 -0.08167861 -0.40704256 -0.10966744 0.0062309527 -0.26173195 -0.11384068 -0.25360352 0.034533378 -0.13221358 -0.51570535 -0.15142418 -0.07364793 -0.12127489 0.25882506 0.27144143 0.09205825 -0.3994434 0.22757909 -0.10581161 -0.47181118 -0.27778724 0.017747484 0.40957817 0.18651542 0.044783946 0.17184004 -0.21761978 -0.032782294 0.43845886 -0.31899172 -0.14437068 -0.08549669 -0.090006985
86 0.3213309 -0.33147255 0.28143215 0.041291904 -0.057326872 -0.08027535 -0.30853194 0.08165178 -0.74474436 0.1194798 0.08228365 -0.7011424 -0.08270615 -0.070089445 0.1293731 0.099785194 -0.09590531 0.1975952 0.09842693 0.3621237 0.56539696 0.087630205 0.30310282 -0.09543695 0.072610386 0.39921468 -0.12070916 -0.33184376 -0.107763775 0.16627415 -0.39495856 0.3124121 -0.046891075 -0.06626111 -0.22932018 0.25616515 -0.22807005 -0.10222351 -0.03509967 -0.10518733 0.18058972 0.34860706 -0.54336864 -0.23162764 0.09737562 -0.6703272 0.078765616 -0.10878438 0.25282925 0.087172076 0.03533303 -0.2337941 0.21800782 0.060630772 -0.24279624 -0.03724603 0.036055636 0.15453821 -0.004205477 0.23641479 -0.035932176 -0.14553867 0.06612293 0.20574602
87 0.47191122 -0.11798816 0.3500158 0.07987492 0.14194116 -0.2776444 -0.12600559 0.13333538 -0.7885958 0.068198815 0.23428985 -0.6204074 -0.16468503 -0.10465669 0.120994516 0.04513734 0.093352415 0.26790264 -0.073449045 0.41224828 0.38551402 0.015968712 0.40776905 -0.22831008 0.00076232053 0.43742687 -0.1517563 -0.29511857 -0.23800723 -0.078977525 -0.3364295 0.38284704 -0.1428686 -0.12458044 -0.31538 0.124815665 -0.20857082 -0.20554957 -0.17928906 -0.19251503 0.024601359 0.46553203 -0.67185694 -0.30109465 0.09617458 -0.34827834 0.048631206 -0.098402575 0.19827506 0.14308739 -0.16290122 0.061056614 0.18596126 0.0049922136 -0.16971782 0.09588038 0.12371953 0.3007104 -0.05394291 0.15788053 0.10230389 -0.21133402 0.1413949 0.27883312
76 -0.2216931 -0.20495242 -0.0866879 0.08707108 0.14796376 0.07224513 -0.12237652 -0.054785438 0.242845 -0.49036685 0.4489391 -0.11742894 -0.11431227 0.5152823 -0.07394261 0.39640135 -0.23448269 -0.2186652 0.17281601 0.280641 0.08794735 0.23693326 0.11048372 -0.045199517 0.16028582 0.18763058 0.11513186 0.15680142 -0.03139285 0.338329 -0.015705131 -0.19396943 0.08786124 -0.39781147 0.32375145 0.12001667 0.10173985 -0.13807248 -0.1830747 -0.2458245 0.0050534653 -0.29768494 -0.107811615 0.17296247 0.24866982 -0.45302495 -0.36577848 -0.1621796 0.11766567 -0.19280614 0.22682598 -0.09696814 0.33010113 0.7074922 0.23673275 -0.20348744 0.27366444 0.15780008 -0.30933177 0.65951085 -0.52114934 0.054848563 -0.004099315 0.08262592
69 0.060357116 -0.13838759 0.16515978 0.008067903 -0.51406866 -0.36333263 -0.09516143 -0.19832683 -0.2540177 0.10650852 0.34167486 -0.35286412 -0.14423974 -0.06043602 0.38360724 0.40787464 0.16559075 0.09031999 0.15915136 -0.071741745 -0.0854622 0.55420285 0.3219034 0.29033998 -0.04070989 0.28525376 -0.36230436 -0.048193738 -0.30786365 0.03774943 -0.034207482 -0.27829686 -0.5440513 0.08353846 -0.335214 0.15501931 0.5141536 0.51535773 0.40853003 -0.07835725 0.2420983 -0.08055037 0.3676717 -0.36768657 0.22502258 0.1140444 0.19665934 -0.058865353 0.4094927 0.3292014 0.24480924 -0.05195881 -0.032095518 0.39065143 0.026685702 0.34836096 0.01428415 0.037322804 0.56676346 0.8501964 0.20709154 -0.056376502 -0.48294613 -0.06804235
101 -0.40134633 0.042043474 0.356273 0.5388086 0.7066057 -0.17226046 -0.16649947 0.1799497 -0.032938782 -0.18182625 0.12222489 -0.37228978 -0.14693344 0.36091435 0.08630912 0.11875056 -0.01910704 0.45238113 0.21017314 0.5659589 0.033375386 0.22880822 0.030771485 -0.22141027 -0.41852885 -0.31224027 0.21620473 0.3181774 -0.29960585 -0.030420162 0.27534527 -0.38769677 -0.13832174 -0.02452425 -0.034708187 -0.18417068 -0.32537892 -0.4475676 -0.13208924 0.0032123637 0.041311942 -0.116333835 0.16601434 0.039670296 0.14474525 0.16241738 -0.04696855 0.22394498 -0.36732775 -0.5925698 -0.08588607 0.36464936 0.39566413 0.5048854 0.28079665 -0.04479973 -0.19040327 -0.07757507 -0.4082857 0.6597504 -0.39771333 -0.21151072 -0.2118631 0.010947802
100 -0.4229239 -0.11823922 0.29517108 0.61023647 0.5294413 -0.044613786 -0.24580652 0.07885754 -0.07035403 -0.07012581 -0.1172832 -0.4959797 -0.11806003 0.19878343 0.062871195 0.20081739 -0.06706539 0.5533247 0.17139634 0.5619786 0.0998158 0.14750375 0.07004789 -0.19859485 -0.2296333 -0.53259087 0.08232808 0.30647984 -0.25809917 0.10420278 0.2928358 -0.31864178 -0.21542467 0.06919888 -0.12422975 -0.04058165 -0.40609783 -0.23294719 -0.14519472 -0.0007430471 0.046786238 -0.078915946 0.3355904 0.08265929 0.19984785 0.22873966 -0.058251087 0.071319565 -0.5259289 -0.46406278 -0.10796295 0.2160881 0.324723 0.568258 0.10963423 -0.21621743 -0.24021804 -0.20721291 -0.17100832 0.65279806 -0.4638938 -0.21233746 -0.38094854 -0.0069553615
105 -0.2828977 -0.2187576 0.28708386 0.45027685 0.49779302 -0.115267426 -0.26075324 0.11283415 0.0075895535 -0.1413671 -0.45165166 -0.60449463 -0.39489874 0.37818253 0.020333223 0.18959138 -0.38189498 0.6178427 0.01939287 0.5753141 -0.25545663 -0.09058966 0.21897425 0.06775342 -0.09885463 -0.66752726 0.39111343 0.4340285 -0.16663235 0.07236515 0.17862423 -0.14677481 -0.026650697 -0.12844 -0.5746483 -0.022267658 -0.45252424 0.11507044 -0.25415012 -0.37765452 0.4893868 -0.07060598 0.12666102 0.024205219 0.49762392 0.098954365 -0.10895706 0.05363602 -0.35202327 -0.6110161 -0.29607496 0.06319447 0.38063088 0.5813509 0.33403966 0.051755693 -0.16782032 -0.17857549 -0.26127428 0.78620136 -0.6130649 0.13688596 -0.63531876 0.17712745
5 -0.18472356 -0.4682837 0.03164918 0.1912251 0.24103811 -0.046062168 -0.13487487 -0.052439112 -0.019753864 0.068482004 -0.34758934 0.10246138 -0.247157 -0.46066195 0.22265579 0.4528668 0.29831484 0.06650757 0.061236754 0.5521045 -0.11231396 0.3469896 0.28175378 0.32253727 0.10824586 0.022360153 -0.026301332 0.21429521 -0.14424281 0.18170443 -0.22014187 -0.025500264 -0.35023206 0.14673036 -0.44860163 0.03753236 0.39036423 -0.12892896 0.29924223 0.1066473 0.37230414 -0.044731602 0.07603687 0.29720122 0.4868505 0.16439557 0.19245975 -0.24752702 -0.015069033 -0.23017405 0.0067393016 -0.12750477 0.016215056 0.37501898 0.23408501 0.1068928 -0.11204484 -0.16497092 -0.038936697 0.42873508 0.049721498 -0.22943582 0.3008196 -0.065780304
95 -0.37520817 -0.3563726 -0.0048376294 0.17261943 0.021933636 0.16994983 -0.05793544 0.04276528 0.03905013 -0.37323096 0.16801944 -0.20094368 -0.19130535 0.5382768 -0.108678624 0.41273558 -0.24106187 0.045631964 0.1874966 0.3599072 0.26408106 0.113244094 0.1909673 -0.20481457 0.3509738 -0.011237767 0.31060034 0.24807802 -0.20660178 0.3365591 0.3530597 -0.1391546 -0.09110881 -0.43381482 0.29328373 0.22028302 0.052288655 0.03160435 -0.16408046 -0.06857553 0.31484404 -0.18217261 -0.1341009 0.052153423 0.27009708 -0.38063127 -0.027262349 -0.17866437 0.1282368 -0.08638268 0.05111221 0.21585487 0.043083023 0.6827245 -0.015998539 -0.034543805 0.33209276 0.13321027 -0.16377302 0.37478334 -0.6137424 -0.16712792 0.31749964 0.11805745
104 -0.26151177 -0.062397357 0.5992998 0.5729331 0.7509462 -0.19119483 -0.2087064 0.31338486 0.033867948 -0.14896734 -0.29999927 -0.6544241 -0.27901986 0.37085426 0.036310572 0.28576887 -0.35988408 0.88987225 -0.029147718 0.7558012 -0.20511238 0.09288863 0.18753506 -0.07036978 -0.33126238 -0.68846357 0.42736164 0.37891844 -0.32057294 0.1633592 0.21335745 -0.089611195 -0.19224234 -0.09611549 -0.4704289 -0.039570317 -0.51465523 -0.043155648 -0.34122133 -0.39578465 0.35033083 -0.053815182 0.16241193 0.038743805 0.35039267 0.082888305 -0.14437845 0.119766615 -0.4112672 -0.7582625 -0.25195268 0.14237401 0.5054936 0.62552446 0.38522562 0.14456062 -0.12854694 -0.14693299 -0.39720914 0.5542909 -0.54742 -0.062474526 -0.7400198 0.087453865
51 -0.1350994 -0.37147263 0.12635113 0.16522183 -0.103312366 0.11525814 -0.46411356 -0.22984496 -0.392591 0.03426546 -0.15011136 -0.5039138 -0.25086892 -0.23256385 0.33493322 0.044932302 -0.16984078 0.44358468 0.62934136 0.6048839 -0.0004378312 0.058537 0.27164853 -0.31996617 -0.0037836852 0.14968696 0.06458904 -0.09585006 0.098367624 0.08033027 -0.18943633 0.021685926 -0.034189284 0.06897875 -0.19069366 -0.07192933 -0.031614795 -0.4369688 0.2330873 0.10893399 0.18951513 0.10890067 -0.25088558 -0.19954613 0.3204163 -0.33827376 0.054127235 -0.39416555 0.3263715 -0.20594786 0.16228744 0.3520154 0.12725836 -0.0007135738 -0.2373303 0.06975917 -0.30826882 0.1561239 0.03362888 0.43585083 0.25875837 -0.15236524 0.2911323 0.29613024
112 -0.3305095 -0.20992573 0.25796717 0.31572458 0.44718626 0.037073217 -0.11700789 0.17985165 -0.06917395 -0.178254 -0.22132386 -0.28502527 -0.28265417 0.16170599 -0.08562766 0.1027303 0.12497993 0.40368065 0.2927424 0.38673702 0.11718619 0.23767951 0.064366855 -0.38474652 -0.07626093 -0.2761138 0.13615517 0.39420122 -0.02608803 0.17338379 0.033848953 -0.27708536 -0.25572875 -0.22041278 0.076310605 -0.31735262 -0.13135476 -0.32304776 0.03809483 0.08732708 -0.18185547 -0.14851978 0.02407342 -0.06602678 0.27236602 0.1410094 -0.046290804 -0.2698252 -0.27179682 0.069150455 -0.36925265 0.21184725 0.090093516 0.40033674 0.28481862 -0.107590534 -0.027189156 0.008272053 -0.1294912 0.5006136 -0.29935965 -0.3263074 0.109196305 -0.067840956
114 -0.29567856 -0.04283439 0.19673207 0.40162334 0.529336 -0.22935951 -0.26612082 0.1822513 0.13744392 -0.48940954 -0.39080647 -0.6452151 -0.5880171 0.93928987 -0.13824213 0.31078166 -0.46435174 1.0935086 -0.16810837 0.8130792 -0.43302578 0.053897668 0.10254817 0.11405566 -0.13154645 -0.5152042 0.81020457 0.657771 -0.23799324 0.26272967 0.15351489 0.045387544 0.02187652 -0.44825354 -0.8096449 0.12799324 -0.4240459 0.31214806 -0.42754757 -0.65696955 0.88633454 0.25144327 -0.0948534 0.030539073 0.774492 0.20357272 -0.21128201 -0.15767069 -0.05480718 -0.4774109 -0.31091443 0.09126464 0.50054175 0.5974389 0.6979082 0.441965 -0.060914166 0.038927805 -0.22387092 0.7497941 -0.42827773 0.116252124 -0.72962135 0.39390385
59 0.097816974 -0.47631088 0.17955774 0.22756143 0.26582393 -0.21300694 -0.13004972 0.054167405 0.11070795 0.13405208 -0.2606201 0.09831388 -0.02843194 -0.6189203 0.2099551 0.51111895 0.38926968 0.090678535 -0.15645394 0.500697 0.114305556 0.5715849 0.4405898 0.26910207 -0.28765675 0.40220457 -0.11251519 0.31159413 -0.2237816 0.09239142 -0.31412643 -0.09958932 -0.4119649 0.20665884 -0.40759268 0.14910533 0.50168794 -0.13003932 0.24291712 -0.11096471 0.22261392 -0.32890058 0.110394634 0.32121915 0.28384975 0.19468221 0.26346126 -0.10723745 -0.023713516 -0.3510549 0.050166447 -0.2000238 0.22920527 0.48165682 0.09977249 0.1491209 0.05069684 -0.28749916 0.017716255 0.1488097 0.12045535 -0.07715258 0.13469644 -0.022947945
77 0.039588705 -0.29883224 0.051940706 0.19087796 -0.2129683 0.103697285 -0.10003101 -0.017187575 0.10951401 -0.36108983 0.31580892 -0.1309159 -0.04452039 0.2021496 -0.078807116 0.47158617 -0.49087 -0.12690774 0.21973655 0.2904354 0.15275036 0.12519929 0.2613638 0.025630113 0.08737418 0.27025566 -0.072698936 -0.057430815 -0.09882204 0.21180995 0.19955228 -0.15582922 -0.011775186 -0.2976744 0.3717361 0.073468454 0.1843475 -0.015883867 -0.124167904 -0.26923695 0.11743045 -0.2462976 -0.1270865 0.17416199 0.39233354 -0.5205424 -0.073869325 -0.0951093 0.18743365 -0.30899408 0.2634572 -0.011540178 0.1267764 0.6041014 -0.008040457 -0.008383786 0.4077272 0.026320035 -0.121878415 0.3752443 -0.5740097 -0.037641328 -0.2022974 0.009792688
64 0.16895299 -0.21107005 0.22977875 0.01250535 -0.041720398 -0.15971483 -0.41075054 -0.35680053 -0.26651752 -0.1389096 -0.2411081 -0.40700778 -0.41846493 -0.55634207 0.4684803 0.12585762 -0.1769885 0.28497827 0.5418777 0.44644558 -0.2118077 0.09603379 0.15078628 0.119338766 0.105222456 0.11407922 -0.18762052 -0.040125396 0.36173934 0.048534032 -0.37617585 -0.047829203 -0.03420456 0.12691861 -0.40133592 -0.3243403 -0.17091815 -0.25750625 0.30441698 0.14009802 -0.07221927 0.02251479 -0.19849025 0.05651399 0.45079926 -0.41141346 0.20941736 -0.7491699 0.091222085 -0.07606318 -0.009427921 -0.30578545 0.06996407 -0.13671045 0.2343368 -0.00070429273 -0.27139136 -0.11876235 -0.058675107 0.22074236 0.42369986 -0.04690487 0.12919524 0.13135503
113 -0.26058218 -0.004071059 0.15480801 0.4330454 0.52917886 -0.2260526 -0.18583672 0.25499663 0.2835311 -0.3629582 -0.2794118 -0.5412805 -0.4611297 0.58787555 -0.08998877 0.26964414 -0.47834378 0.7498175 -0.2668425 0.41911313 -0.17524816 0.0042941305 0.07743585 0.11972113 -0.2830515 -0.5716418 0.24729899 0.441836 -0.10607377 -0.04451359 0.17309877 -0.06779755 -0.050967455 -0.11630056 -0.5583744 -0.106428064 -0.47559398 0.1501818 -0.30546662 -0.40925547 0.40879717 0.1732886 0.07409037 0.13993005 0.49883947 0.37326276 0.036592167 0.10992229 -0.2513984 -0.65969217 -0.49773747 -0.044790644 0.43381548 0.65981 0.6582423 0.25409067 -0.1030905 -0.2546639 -0.30792332 0.6352269 -0.47009894 0.15136975 -0.5967064 0.25348103
40 0.34348083 -0.33032173 0.1455109 0.070632145 0.10238834 -0.4201877 -0.3134114 -0.19824691 -0.5831061 -0.004931051 0.08031666 -0.66217494 -0.079601586 0.19547552 0.20124915 -0.04757652 0.17275 0.012179915 -0.28085336 0.19424334 0.56896895 0.1691999 0.105485514 -0.006693481 0.1543716 0.66726404 -0.42998895 -0.32322216 -0.21582372 0.10274575 -0.2901057 0.27715617 -0.14895648 -0.15328875 -0.103046745 0.37296245 -0.38649267 -0.020727213 -0.21253991 -0.18976304 0.035755377 0.4010276 -0.3440674 -0.25289994 0.12104859 -0.4122129 0.188078 -0.3304893 -0.15486635 0.15370817 0.041485783 -0.056557134 0.24440749 -0.12108939 -0.15288383 0.053538475 -0.029048052 0.2340703 0.047696274 0.30479825 -0.08980961 -0.28741264 0.08035579 0.026149534
37 0.14885995 -0.09390258 0.24457647 0.29189295 -0.080044985 0.009691358 -0.45006692 -0.24949494 -0.5322257 -0.25113657 0.058677316 -0.7239453 -0.36535072 -0.40271395 0.31827638 0.27447566 -0.16137457 0.37256727 0.358722 0.5124195 -0.007395944 0.16468957 0.31609482 0.024738094 0.22586828 0.10493448 -0.14488111 -0.59719044 -0.18002689 0.28291014 -0.26689255 0.085319296 -0.032886785 -0.11966057 -0.23315406 -0.050101023 -0.3433246 -0.10921785 -0.12453701 0.10757098 -0.22482122 0.03516633 -0.30215448 0.09559802 0.30580956 -0.50955963 0.27821288 -0.6185482 -0.07446554 0.32195303 -0.11434734 -0.056522924 0.13854906 -0.2493185 -0.24968539 0.056542743 0.10884941 0.059630398 0.4304304 0.24797384 0.39137307 0.035992123 -0.0067111813 0.5244348
108 -0.13521007 0.028531216 -0.3701376 0.18651271 -0.17044666 0.3352916 -0.1590683 -0.09179576 -0.04842189 -0.5042532 0.07929547 -0.8174641 -0.29874423 0.1250336 0.61179024 0.012317544 -0.35846597 0.006888261 -0.15973997 -0.1625485 0.610724 -0.019327413 -0.038204074 0.089838654 -0.66778004 0.3385852 -0.4812116 -0.6299421 0.076744325 -0.7143664 -0.037247606 -0.3512539 0.18303065 0.33979073 -0.30751655 0.425224 -0.31807008 0.29485083 0.05722017 0.1116437 0.21396142 0.9190068 0.36217242 -0.3365763 -0.14106277 0.3956482 0.8067433 -0.011310767 -0.27283466 -0.32461944 0.21766031 -0.068378225 0.13499287 0.3786748 0.24465775 -0.13680023 -0.09104983 -0.31317648 0.024824169 0.34781626 0.10295 -0.06644941 0.07236431 0.610983
39 -0.009115406 -0.06376311 -0.16667293 0.23667595 0.050905947 -0.1658237 -0.3836636 -0.24365021 -0.19375493 -0.55602324 -0.044174425 -0.15235072 -0.32422155 0.5175146 -0.1357902 -0.104097165 -0.24844135 -0.5778042 0.35064465 -0.15595253 0.27760816 -0.18996674 0.056164403 0.07373545 -0.04561025 0.25304565 -0.033199403 0.3945248 0.01463606 -0.37928015 -0.20453773 -0.62293 0.4175106 -0.27713102 -0.045543768 -0.313606 -0.110822216 0.074899845 0.107897535 -0.16262655 -0.119746536 -0.09681182 -0.3032763 0.1544859 0.41895851 -0.08130724 -0.053110104 -0.1653712 -0.23981337 -0.03167005 -0.52672446 -0.4433413 0.40348482 0.2964877 0.36956456 -0.26952514 -0.35259753 0.03379188 -0.45748058 0.8462287 -0.57326704 0.24684866 -0.21826427 0.19446756
9 0.027671993 -0.6247034 0.028528173 0.32158878 0.36330557 -0.1297935 -0.10850201 -0.14182796 -0.32428318 0.44907296 -0.38692158 -0.28580773 -0.10015275 -0.508717 0.30127737 0.20183218 0.43123388 0.29358998 -0.08141805 0.59127647 0.35288033 0.37203515 0.32792974 0.06429632 0.009321414 0.25739393 -0.1740376 -0.00939905 0.16911441 -0.056846816 -0.21473262 0.10411702 -0.18033592 0.46680176 -0.440465 0.05658777 0.10707832 -0.44068798 0.14284614 0.15273455 0.2576716 0.0974478 -0.03712978 0.16333033 0.37117276 -0.3276155 0.08899797 -0.15234011 -0.11870547 -0.44169554 0.19625784 -0.037217736 0.2715197 0.26594707 -8.073647e-05 -0.058111046 -0.28685346 -0.13783897 -0.12003955 0.25101823 -0.014592875 -0.16844505 0.37093717 -0.13197581
75 -0.42021364 0.3874101 -0.3725812 0.16038616 -0.27795437 0.011437653 0.028637774 -0.34938744 0.015002745 -0.59467494 0.64117265 -0.5129898 0.5064255 -0.068116955 0.20615117 0.64810693 0.31529927 0.4151778 0.026371019 0.1853105 0.31919888 -0.20580742 -0.24080122 -0.23996323 0.08654676 0.6651608 -0.35901362 0.13346888 0.3482246 -0.42077267 0.40789255 -0.46071216 0.037459917 0.38242605 -0.24417318 0.32561648 -0.14157282 0.2247151 -0.86136127 -0.36427918 -0.6747511 0.40302962 -0.2636437 0.43082362 0.43059546 0.33266127 -0.18934993 -0.6917326 0.24611895 0.1092608 -0.49445698 -0.13233666 0.27524063 0.7006387 0.23753154 -0.6606427 -0.012792752 0.73125243 0.42974836 0.3356762 -0.25742137 0.12034296 -0.3053109 0.43880597
109 -0.2701912 -0.050875794 0.058952563 0.15851209 -0.044056095 0.450117 -0.24160711 0.1762662 0.009676857 -0.47399342 -0.23512974 -0.6606226 -0.36919934 -0.3204875 0.41847593 -0.0723701 -0.50713164 -0.08516812 -0.029482722 -0.15843144 0.3887663 0.3582133 0.1868554 -0.1847866 -0.8156848 0.27914423 -0.15618193 -0.63533187 0.03391531 -0.4449385 -0.026749795 -0.50700426 -0.13960622 -0.087801754 -0.057855446 0.05099188 -0.29715145 -0.010175197 0.07613555 0.15274993 -0.07454215 0.27918303 0.5217647 -0.5780393 -0.2857465 0.36491194 0.9472403 -0.16968633 -0.31941897 -0.49064338 0.082754485 0.15888543 0.21947648 0.11276187 0.12663756 0.18852702 0.21354088 -0.66847366 -0.08229275 0.34529603 0.096336916 -0.2244791 0.28514287 0.4389932
106 -0.40302315 -0.09982488 0.28735572 0.28408796 0.67964005 -0.43984783 -0.27986416 0.18569306 0.0449124 -0.5687876 -0.78841054 -0.6791969 -0.828761 0.96002346 -0.21154214 0.12591103 -0.20123795 1.1055744 -0.32010564 1.1473799 -0.7076032 0.33595663 0.2121298 0.26959887 -0.021549404 -0.51834357 0.9710913 0.9323248 -0.3382384 0.48492482 0.10903385 0.026923403 -0.1635713 -0.7956817 -1.0577666 0.22083375 -0.39892745 0.48447177 -0.44980755 -0.86736715 1.2336497 0.12444115 0.040303316 0.21098535 1.1758418 0.12085063 0.017801125 -0.32788187 -0.18942618 -0.63933855 -0.19351426 0.045438465 0.7641713 0.50428873 0.8847117 0.62845117 -0.036861397 -0.058586687 -0.19589329 0.8893463 -0.6288611 0.1690907 -0.81212515 0.4256166
107 -0.36755446 -0.18093255 0.1035322 0.5250192 0.41389614 -0.31224963 -0.38687626 -0.09164241 0.013959433 -0.42771786 -0.7774151 -0.7102772 -0.67832184 0.8058213 -0.30039 0.42308798 -0.46222082 1.2687677 -0.41533452 1.1673746 -0.74473053 0.15751763 0.11395624 0.14944607 -0.114228524 -0.40350467 0.9253631 0.67908764 -0.254603 0.22681166 0.37478635 0.1366709 -0.017688511 -0.563542 -1.1059798 0.29200223 -0.5053557 0.50794184 -0.48103637 -0.71791995 1.1618637 0.08988769 -0.061136503 0.055929042 1.0436373 0.3425171 -0.14461398 -0.28304785 -0.14032942 -0.6780174 -0.34728214 0.14355966 0.8158306 0.62864846 0.95678717 0.74296814 0.020099685 -0.005900323 0.03348625 0.890178 -0.36160803 0.2014704 -0.7782599 0.49991205
27 -0.34550828 0.087963454 0.34476784 0.10783162 0.29149973 0.14854378 0.15370338 -0.145013 -0.021886567 -0.28437722 0.32535547 -0.49108097 -0.095265366 0.12076015 0.5203964 0.4426886 -0.30084834 0.3244464 0.27782702 0.33615047 0.28680217 -0.1116437 0.20146637 -0.1399427 0.009669882 -0.37282437 -0.002812093 0.16608614 -0.06881037 0.3334156 0.08666866 0.20636734 -0.23095112 0.12510893 -0.1712453 0.111110575 -0.40273374 0.120053284 -0.03952714 0.24546488 0.025655346 0.44178802 0.2705801 -0.5431493 -0.56337 0.12216518 0.017917708 -0.16104604 -0.07464026 -0.09999455 -0.24712187 -0.1921693 0.037324056 0.57576776 -0.051279914 -0.19861813 0.005993596 0.018231494 -0.7062632 0.19150637 0.0205843 -0.6810704 0.46710676 0.038112078
74 0.3326829 0.05870582 0.5261817 0.2568831 -0.05794292 -0.22845832 0.2974878 -0.08132176 -0.4534677 -0.25338638 0.6029789 -0.14679949 -0.3212546 -0.1537845 0.1718144 0.3777863 -0.06014132 0.14804257 0.4572005 0.3279999 0.04877199 -0.13738166 0.32661805 -0.20664507 0.001782551 0.20763566 -0.3902312 -0.14859402 -0.2094764 -0.15469415 0.34731168 0.032171912 -0.33237988 -0.1137482 0.25137493 -0.23726961 0.25758034 0.25883576 -0.24485394 -0.059541997 0.03678064 0.49854577 -0.06646747 -0.2904471 0.11042279 -0.31556967 0.24189205 -0.23038779 0.23218796 0.18803471 0.11543272 0.09161155 -0.17564863 0.39463437 0.35383055 0.106405996 0.36178538 0.35778224 -0.1594484 -0.14219306 0.09210205 -0.5862336 0.093036205 0.021618934
78 0.017706743 -0.11032547 -0.14379548 -0.07436582 0.28327376 -0.42224288 -0.0953644 -0.5100911 -0.6059633 0.0033013327 0.48496675 -0.19402567 -0.017988293 0.27474922 0.103915304 -0.31393448 0.5427404 -0.29774827 -0.1712062 0.1642094 0.314946 0.41533887 0.3104881 0.09271571 0.029295493 0.9465418 -0.20307575 -0.18816099 0.11050736 -4.8283968e-05 -0.38893068 -0.05091424 0.023542136 -0.30101025 0.049385928 0.28277284 -0.17259696 0.0024502538 -0.030067213 -0.09716173 0.28426707 0.33588552 -0.07621754 -0.5222146 0.022259174 -0.3233807 -0.21245603 -0.018022906 -0.073942706 -0.10205202 0.334509 0.09685735 0.6808009 0.16496186 0.16792233 -0.021531872 -0.073451854 0.37239367 -0.18668585 0.73149353 -0.180438 -0.2133079 0.02223311 -0.10235124
70 0.016765691 -0.016283892 -0.013233046 0.127605 -0.19347467 -0.15487118 0.49004915 -0.19608977 -0.40367466 -0.13224274 0.72339195 -0.14274028 -0.17037824 -0.021591576 0.57637024 0.58905 0.3236753 -0.2106889 0.045333687 -0.06003541 0.21089508 -0.050857626 0.5427135 0.10943845 0.08417271 0.2729082 -0.26760957 -0.12076244 -0.1248514 -0.35101697 0.3473133 -0.5022548 -0.26769656 0.23591189 -0.32996726 0.2784181 0.5625688 0.7274091 0.030752521 0.13874708 0.4148803 0.34883058 0.4875183 -0.28683573 -0.27180108 -0.07468068 0.3570159 -0.14047207 0.19272147 0.23544623 0.18776293 -0.15733883 0.08162699 0.7891318 0.3097192 -0.17195235 0.3132188 0.14668258 -0.20252043 0.32948366 -0.05217356 -0.40576097 0.045367517 -0.050226856
41 -0.6737172 0.48099056 -0.21079436 0.33255708 -0.032862816 -0.2628596 0.20097902 -0.33937964 -0.3876141 -0.66493994 0.984689 -0.5681384 0.39092535 -0.16501556 0.26038688 0.71223027 0.7180454 0.25384715 -0.124094054 0.2888455 0.2743981 -0.26574087 0.06599069 -0.60367644 0.46251434 0.47492105 -0.34988135 0.034722004 0.28486738 -0.3559527 0.4318836 -0.76469743 -0.19030724 0.5217206 -0.19309528 0.2971625 -0.43479002 0.33032677 -1.3415043 -0.3241047 -1.0009469 0.5401068 -0.070530884 0.34207928 0.3492574 0.35726032 -0.111831285 -0.89039254 0.06334439 0.57930255 -0.8863922 -0.024069676 0.36240625 0.94363105 0.2820291 -0.9403714 0.111914955 1.0434391 0.7554409 0.58604115 -0.5604218 0.19941577 -0.20638151 0.66761196
38 -0.019128028 0.0018705119 -0.02481456 0.041502874 -0.28647542 0.02971048 -0.1656596 -0.41705534 -0.25932416 -0.79481095 0.06033539 -0.39308506 -0.34110364 0.07399978 0.053259645 0.03864373 -0.447788 -0.69257843 0.46064457 -0.10549264 0.08472595 0.11318854 0.3474553 -0.24535884 0.11897402 0.37139946 0.050028555 -0.07520552 0.09593991 -0.29720545 0.2709418 -0.93494326 0.2960851 -0.60112774 0.122532815 -0.049251113 -0.353754 0.17599083 -0.1454094 -0.009745993 -0.11503862 -0.39940625 -0.021201173 -0.3671795 0.20428869 -0.15753444 0.20414354 -0.5360561 -0.3604318 -0.0029822942 -0.22496584 0.11354088 0.46876323 -0.030519875 -0.014325719 -0.11628699 0.23746826 -0.3071491 -0.21138953 0.61584854 -0.55929446 0.22318237 -0.2624187 0.311788
115 0.014512027 0.013851209 -0.01002414 -0.014402991 0.012329044 0.008457564 0.01082924 -0.0045935735 -0.008170569 -0.0071375966 -0.013021855 0.00918165 -0.005399581 0.01349036 -0.008881664 0.015050076 -0.0070345253 0.013535889 -0.008452198 -0.011732044 0.011971412 -0.015272066 -0.013721183 0.007736258 -0.015237814 0.008251777 0.0057073403 -0.010968717 0.004918212 0.0022719204 0.013503389 0.0045029093 -0.008004062 -0.00367352 0.01070323 -0.010341333 0.014523316 -0.0050031263 -0.0072637293 -0.006824488 0.004817106 -0.015385028 0.005034197 -0.007008994 0.0151060745 -0.0078551285 -0.012520587 0.005488692 0.014010366 0.0042928904 -0.0035439841 0.0054882746 -0.013939071 -0.0064693354 -0.0068548564 0.0029554293 -0.009856403 -0.0118612815 -0.010204395 0.008266648 0.004293831 0.013748212 0.0036264006 0.0082839355
