13 64
11 -0.032851547 -0.09546849 0.16870901 0.058447544 -0.006366314 -0.15655245 0.024068274 0.02858795 -0.057467204 -0.08442954 0.15448713 0.010120802 -2.6763228e-06 -0.013373428 -0.111366145 -0.049158864 -0.050452128 0.05527721 0.011349919 0.009768115 0.08643261 0.08382061 0.13740227 -0.041659314 0.019385507 0.13682802 -0.09163326 0.08750234 -0.058171935 -0.044611413 -0.018116247 -0.05834374 -0.107733205 -0.070620574 0.024714401 0.024280654 0.08385603 0.012297431 0.19448285 -0.027928723 0.017201921 0.054178953 -0.07838901 -0.124891594 0.08171869 -0.03499319 0.03727761 -0.055127565 0.0029477386 -0.0055094943 0.014398813 0.032648977 -0.095966905 0.13080862 0.13800079 -0.07750479 0.027189018 -0.13101588 -0.028794602 0.03925212 0.04576588 -0.12996505 -0.07765354 -0.010810286
1 -0.021765107 -0.06353556 0.11350157 0.044825345 0.0007669908 -0.10000586 0.019942615 0.027706869 -0.039702024 -0.06837289 0.10974865 0.009345294 0.02325855 -0.020799857 -0.07683674 -0.045245215 -0.04026186 0.044980757 0.024603002 0.031927712 0.04485602 0.062895745 0.100357056 -0.03918995 0.0033954857 0.11218659 -0.059348762 0.05859264 -0.027002528 -0.021697436 0.012161657 -0.033923157 -0.10092518 -0.058663014 0.020223154 0.02710502 0.030998884 0.018292675 0.15069824 -0.0061418284 0.029694337 0.02179972 -0.04228528 -0.072905295 0.050774593 -0.03244382 0.031315856 -0.06427821 -0.0133549245 -0.0013617969 0.029313514 0.031385742 -0.053603586 0.10510168 0.07911236 -0.056713864 0.012539445 -0.09244902 0.00022479465 -0.0004925336 0.04231309 -0.08754768 -0.06034734 0.006500725
3 -0.025096148 -0.06380459 0.14316593 0.034216546 0.0051316833 -0.12504223 0.018816499 0.020218726 -0.030227188 -0.050604556 0.12925415 0.024542833 0.025924914 -0.033194516 -0.094035365 -0.03453299 -0.048743714 0.057279266 0.027409613 0.022046065 0.062333293 0.069712065 0.11238755 -0.05036477 0.008626862 0.11771554 -0.07060016 0.07832651 -0.022342179 -0.013645947 -0.003971762 -0.03511214 -0.11025668 -0.04717077 0.013950346 0.0110188285 0.054986693 0.021850467 0.17072982 -0.024816502 0.03163125 0.045686822 -0.053199735 -0.10522338 0.0687946 -0.014533586 0.035279907 -0.06653594 -0.015796931 -0.01892293 0.035339568 0.01579922 -0.085854955 0.10939673 0.10222332 -0.07115468 0.01170313 -0.09753053 -0.015367273 0.0013807757 0.039109986 -0.110534385 -0.05692111 -0.0036302276
9 -0.019488188 -0.08854276 0.12673663 0.046187643 0.013335733 -0.122168675 -0.0009805751 0.023274098 -0.042101685 -0.05664314 0.10683011 0.007775235 0.023907866 -0.011136189 -0.08697322 -0.030460967 -0.05648596 0.054805163 0.0103437 0.019955909 0.07603145 0.06969273 0.11419816 -0.04514179 0.017707134 0.12972729 -0.08348092 0.058438014 -0.048403468 -0.0327778 -0.009197248 -0.06127747 -0.08677543 -0.06122475 0.033986222 0.027557494 0.041513216 0.02013793 0.17042863 -0.027971044 0.009148363 0.032948982 -0.061654806 -0.09617224 0.061486814 -0.020767968 0.039129503 -0.05775987 -0.012991138 -0.0131471595 0.026391147 0.032123186 -0.06670505 0.11290409 0.09924958 -0.06664424 0.0034661253 -0.09799077 -0.014003806 0.014073437 0.02500644 -0.11666198 -0.07338639 -0.009798259
12 -0.024805462 -0.07510278 0.105972104 0.0282674 0.011978141 -0.11157232 0.023870274 0.014883102 -0.04843223 -0.04065837 0.11661269 0.01822892 -0.001874626 -0.009961334 -0.067681946 -0.02513991 -0.03325285 0.04337418 0.011996346 0.03196378 0.06912936 0.06370559 0.086745046 -0.030994691 0.009241785 0.08904949 -0.0768044 0.058003273 -0.030954001 -0.03365124 -0.011845055 -0.05320336 -0.07489279 -0.0445316 0.012676705 0.027033439 0.06275246 0.006590609 0.15476727 -0.00586438 0.030308183 0.033778735 -0.032670286 -0.094803 0.043672264 -0.008966556 0.03358717 -0.05433371 0.0037893704 -0.020373207 0.02707725 0.029577095 -0.055339523 0.081586614 0.1026904 -0.045751423 0.018144926 -0.0971261 -0.0020289486 0.0136794625 0.04816374 -0.102181405 -0.064914525 0.011136926
2 -0.020674609 -0.08130434 0.14880875 0.056451753 -0.009335286 -0.11705498 0.023706421 0.02315341 -0.03877068 -0.06155604 0.12136717 0.004107836 0.0012292401 -0.026303202 -0.078734316 -0.021660436 -0.02987557 0.03755516 0.004633669 0.040961735 0.06869605 0.07777346 0.11492563 -0.04173299 0.020221688 0.12175805 -0.067630105 0.064505614 -0.042030342 -0.029556287 0.003536428 -0.048533823 -0.11714423 -0.06897474 0.01133062 0.020277465 0.056835216 0.029652014 0.17510492 -0.02451539 0.021703713 0.045462735 -0.037683807 -0.098912865 0.07186196 -0.03493668 0.03645952 -0.04608352 -0.009098123 -0.030939069 0.03638775 0.01646464 -0.07696178 0.12429638 0.096745305 -0.07231839 0.0028404216 -0.08752401 -0.024611836 0.019712951 0.02891324 -0.09790003 -0.053609245 0.0033290992
7 -0.024881128 -0.08149174 0.14532788 0.050137613 0.0017159083 -0.13378333 0.0023731845 0.015661636 -0.044486597 -0.065704115 0.13415574 0.009172251 0.022491831 -0.035107538 -0.0861188 -0.044717796 -0.054724943 0.048446234 0.0073389574 0.02221241 0.067065045 0.07883503 0.104781136 -0.03223573 0.0025304004 0.12713958 -0.080146715 0.0743764 -0.04937349 -0.021702329 -0.010628359 -0.05513628 -0.10526706 -0.04598445 0.029644866 0.012304259 0.05199403 -6.285344e-05 0.17654952 -0.0018083751 0.01652775 0.037329976 -0.04728663 -0.08505943 0.04913239 -0.025222354 0.04690863 -0.055125587 -0.0026275923 -0.02991911 0.042259477 0.012877134 -0.07765977 0.11247775 0.095654234 -0.06165859 0.012402489 -0.10849808 -0.029548783 0.031165427 0.046879824 -0.11546547 -0.054885685 0.0009162851
5 -0.009959245 -0.070052594 0.10859896 0.037821136 0.020168195 -0.09855149 0.007799813 0.001357022 -0.045835923 -0.061226312 0.0894352 -0.0027069885 0.018092861 -0.02843643 -0.06106821 -0.025983173 -0.039007682 0.03448075 0.031150473 0.03420185 0.040195335 0.06745485 0.070637114 -0.019137 0.0008910994 0.09560582 -0.049561653 0.06277318 -0.031080697 -0.0051481253 0.01015702 -0.051524892 -0.091868594 -0.052431587 0.02008166 0.0109837605 0.029363185 -0.0010069133 0.13980228 -0.010729068 0.0017451382 0.020841 -0.032637607 -0.08093617 0.05889115 -0.026349584 0.032703638 -0.057994314 0.005067796 -0.005429788 0.022573436 0.021433659 -0.07144985 0.08675503 0.07385385 -0.06455652 -0.006849804 -0.07616251 -0.005041905 0.017362222 0.017722331 -0.09191484 -0.053070776 -0.0036778306
6 -0.037758112 -0.089301325 0.11737388 0.018076714 -0.0035748568 -0.11974273 0.006403594 0.006979756 -0.051293872 -0.061872166 0.12139832 0.021742947 -0.010647052 -0.021134159 -0.075121164 -0.0514026 -0.038995966 0.050168607 0.027441856 0.0021990573 0.050636075 0.04150892 0.09695126 -0.017184686 0.016442584 0.116006024 -0.062169265 0.05285199 -0.020895276 -0.045149073 -0.018092396 -0.046496734 -0.09361214 -0.047740098 0.021240734 0.034749907 0.05727362 0.015392157 0.15015443 -0.029359497 0.03923475 0.049933188 -0.06643087 -0.08715841 0.07988859 -0.03952839 0.027383843 -0.06451069 0.010469109 -0.016534967 0.03178893 0.0063254386 -0.061363757 0.10229862 0.09897904 -0.047059122 0.0068518417 -0.10727699 -0.015615439 0.03011002 0.05100946 -0.090385556 -0.054875564 0.014733962
10 -0.041730274 -0.067896664 0.11826299 0.03754881 0.016627314 -0.11999991 0.01868256 -0.0054110535 -0.039878786 -0.07392118 0.09844623 0.025430216 -0.0024441932 -0.008940183 -0.062483933 -0.022577222 -0.054519396 0.034703996 0.03229294 0.021844625 0.054111052 0.038482405 0.10019962 -0.041014407 0.021662144 0.098528765 -0.07117262 0.057402212 -0.036556803 -0.032576334 0.0017514894 -0.042670347 -0.09298397 -0.04548262 0.032256123 0.02556303 0.055214398 0.031817947 0.1339356 -0.016376423 0.041803908 0.046421956 -0.049343172 -0.101744145 0.06258084 -0.03100332 0.051949713 -0.048830654 0.0009338169 -0.010498888 0.014900709 0.01124252 -0.0634919 0.09205467 0.10606807 -0.03316236 0.01727701 -0.087732606 -0.028781626 0.025004206 0.02751173 -0.11088301 -0.06361123 -0.012222073
4 -0.017051514 -0.085136175 0.13652846 0.019063601 0.01221142 -0.09817409 -0.0023831925 -0.008004222 -0.04469221 -0.067513466 0.10892503 -0.0032325708 -0.014647378 -0.010016946 -0.09399715 -0.051639333 -0.04664242 0.026555853 0.008974903 0.0016713062 0.057470016 0.045745544 0.10895222 -0.029460378 0.0022596784 0.11972132 -0.081632026 0.0508417 -0.0481033 -0.04282795 -0.009851256 -0.033460364 -0.09854138 -0.034909148 0.034330655 0.012674866 0.06798716 0.029275844 0.14200945 -0.006243963 0.03923673 0.02752556 -0.06429572 -0.08970462 0.06444916 -0.038523387 0.05495457 -0.061419528 -0.012037479 -0.015947264 0.011840192 0.019859161 -0.07401179 0.0988458 0.09974391 -0.047880523 0.033033926 -0.10345435 -0.023495676 0.031079205 0.052014407 -0.108708374 -0.041130915 0.014813916
8 -0.029743219 -0.061049394 0.106801525 0.019261336 -0.0032652058 -0.102660365 0.0068483404 0.0063966783 -0.02385604 -0.05426154 0.089193575 0.012629966 0.007544671 -0.0124752065 -0.075264744 -0.044172954 -0.034865398 0.043284148 0.01783267 -0.0013575162 0.03544654 0.054020196 0.073687956 -0.016166512 -0.0042536277 0.10207477 -0.068587005 0.05280836 -0.03157054 -0.03885288 -0.011255959 -0.037815645 -0.08427677 -0.036274925 0.0072080875 0.023388455 0.06294118 0.0110201435 0.11827635 -0.007824633 0.036264583 0.02167208 -0.053405978 -0.08010867 0.06732882 -0.021256417 0.018867373 -0.04505659 0.013329128 -0.025040641 0.0058537656 0.029480893 -0.069342986 0.086401984 0.08253597 -0.030116813 0.02854369 -0.081057176 -0.02321209 0.03182743 0.03500111 -0.073088855 -0.059248656 0.015903626
0 -0.03021484 -0.07995112 0.11874542 0.025234962 0.013754858 -0.10891588 0.001915887 0.008930575 -0.021469506 -0.06684658 0.105425976 -0.0016277726 -0.014266904 -0.012454433 -0.08955571 -0.031417772 -0.037995923 0.032990515 0.026364567 0.026000865 0.0670712 0.042972967 0.094839066 -0.03547174 -0.0059885797 0.11134729 -0.071304336 0.051840365 -0.037167184 -0.04293243 -0.0019163794 -0.04609732 -0.10103918 -0.022882782 0.029200483 0.037620343 0.06955794 0.02380592 0.1488166 -0.02217777 0.01924972 0.042485822 -0.045871966 -0.09620335 0.07769905 -0.032686643 0.053129647 -0.047488 -0.01107122 -0.017925184 0.0014137018 0.012191707 -0.061371613 0.10583391 0.109958775 -0.05290861 0.026916541 -0.08489284 -0.024964202 0.0077812662 0.039522596 -0.10758276 -0.04064903 -0.0070817783
