12 64
11 -0.040528674 -0.06779912 0.10313422 0.07254306 -0.0346527 -0.12903827 0.040092785 0.035387482 -0.07555906 -0.06103007 0.11181479 0.03512076 0.012082211 0.011258541 -0.040470704 -0.041212305 -0.038434714 0.05118539 -0.026799675 -0.0062765777 0.055168364 0.076513276 0.0993176 -0.016689688 0.04882201 0.0890693 -0.080946304 0.055230223 -0.059853863 -0.05203696 -0.029416787 -0.05714382 -0.039984316 -0.09738287 0.008500036 0.024832916 0.048804503 -0.003678646 0.12732486 0.005208998 0.036663257 0.027391233 -0.058443446 -0.068759486 0.015532761 -0.021044351 -0.0031164323 -0.022247026 0.03770369 -0.010251144 0.033980772 0.049833912 -0.04435723 0.080877416 0.08433076 -0.013059615 0.01773727 -0.11292587 -0.020837728 0.07300913 0.036786553 -0.068947755 -0.10533551 0.014303997
10 -0.038168423 -0.056288037 0.08133836 0.05962394 -0.021552991 -0.10067464 0.034774955 0.031856325 -0.06188651 -0.06236999 0.09528245 0.03516146 0.0286489 -0.00019771821 -0.032394495 -0.047219615 -0.03974095 0.048686497 -0.003397921 0.018784812 0.030009737 0.06229048 0.08775379 -0.023751061 0.029828293 0.09361871 -0.06780806 0.040379997 -0.036285903 -0.04047278 -0.0008205758 -0.0413777 -0.061727535 -0.08614075 0.012647343 0.035432987 0.017967487 0.011047218 0.12033899 0.020068143 0.058193557 0.008122747 -0.037487026 -0.04485051 0.008584096 -0.02732781 0.0076484326 -0.046296988 0.01734058 -0.011023155 0.04729886 0.048464052 -0.021373853 0.08150942 0.05685868 -0.005219673 0.012867037 -0.09740969 -8.956389e-05 0.035216242 0.04573367 -0.057081472 -0.09514504 0.030110173
9 -0.030994473 -0.040026113 0.08414863 0.035559244 -0.015714087 -0.09426706 0.026301116 0.020269414 -0.038815923 -0.030199135 0.08761222 0.04094933 0.02644085 -0.010204967 -0.0383807 -0.029081589 -0.03619765 0.048627142 -0.0016278136 0.0028912807 0.034545645 0.05253657 0.07655892 -0.027158124 0.027883891 0.07467869 -0.059098065 0.046012323 -0.021326676 -0.023404147 -0.014768176 -0.029079754 -0.052214894 -0.05728544 0.0023299044 0.012459352 0.031033244 0.01161098 0.104743704 -0.00019502756 0.047699116 0.024323428 -0.03900058 -0.05740342 0.019494299 -0.0050077066 0.004992878 -0.03750626 0.010567272 -0.02170376 0.042365886 0.025122182 -0.041496973 0.06393526 0.05854506 -0.014946576 0.008925 -0.0779203 -0.010951069 0.027295664 0.03280644 -0.057696596 -0.06965531 0.016627429
5 -0.023660522 -0.060498636 0.06278819 0.045430865 -0.0061745388 -0.086696155 0.0047651073 0.022609293 -0.047468167 -0.03364972 0.060222987 0.023281978 0.02618752 0.011457337 -0.029549321 -0.023576353 -0.04339554 0.044888917 -0.017715251 -0.00021792535 0.04563463 0.050004322 0.07377738 -0.02133736 0.03494462 0.08220924 -0.06851927 0.024788123 -0.04527732 -0.03911251 -0.019266265 -0.052778162 -0.025293458 -0.067392625 0.022216016 0.026984701 0.014497493 0.0084588425 0.098128885 -0.0031384856 0.022350624 0.009930318 -0.045693133 -0.044856433 0.010020543 -0.009215993 0.008084322 -0.027191417 0.012204927 -0.014238068 0.03164547 0.039985135 -0.020764453 0.06305027 0.0514924 -0.009755308 6.395614e-06 -0.073815554 -0.008828097 0.03733215 0.016386978 -0.06093682 -0.08265483 0.008427279
0 -0.037560266 -0.068284325 0.07383937 0.04558694 -0.010428051 -0.11078205 0.03878912 0.021823708 -0.07262352 -0.034430675 0.10140017 0.0415783 0.007258176 0.009994135 -0.023838436 -0.0273013 -0.032189824 0.048205107 -0.016377462 0.019677224 0.053893536 0.0669498 0.0745766 -0.015448186 0.03624422 0.071448214 -0.083214834 0.04090739 -0.04040763 -0.049446356 -0.023504604 -0.061500292 -0.034988698 -0.076601945 0.004526071 0.03394274 0.04529815 -0.0025259955 0.12626913 0.01887378 0.053847674 0.017713793 -0.028474852 -0.06573231 0.0013428415 -0.003854055 0.0069928775 -0.037769523 0.033703465 -0.02651811 0.045785915 0.049559847 -0.024109272 0.059018295 0.077777356 0.00061349274 0.014907438 -0.10191808 0.0011452746 0.04791651 0.04893499 -0.07062822 -0.10115226 0.033751763
6 -0.02850211 -0.05732553 0.09019676 0.060419425 -0.029880425 -0.08901969 0.03099901 0.021576904 -0.049226668 -0.04284968 0.07881163 0.023315666 0.005331562 -0.0027763192 -0.020228023 -0.016715197 -0.02119208 0.029786436 -0.025709195 0.021212228 0.039648313 0.06171976 0.07964983 -0.018749295 0.041279435 0.08017414 -0.059265073 0.03229606 -0.043765165 -0.03959605 -0.0073461244 -0.04401261 -0.05853335 -0.08142332 0.0014813638 0.021169255 0.030966634 0.019471643 0.10862156 0.0039668293 0.04118191 0.022354448 -0.023739522 -0.050024588 0.018621325 -0.025013013 0.0072735245 -0.016968261 0.019156434 -0.035633735 0.045935735 0.027186554 -0.032147985 0.0783909 0.05177324 -0.011494241 0.00029110757 -0.06933519 -0.022149917 0.049598068 0.02228965 -0.046337064 -0.07077986 0.024537887
3 -0.029573604 -0.052376542 0.07995969 0.04817962 -0.016794637 -0.09640618 0.00798592 0.012742069 -0.0485277 -0.042218443 0.08484879 0.02513934 0.023169992 -0.012059886 -0.026623793 -0.035892256 -0.0414442 0.036700208 -0.020179996 0.0027362236 0.03570614 0.05647985 0.06320717 -0.008764591 0.020169722 0.07782885 -0.064535104 0.0390245 -0.045610037 -0.028090194 -0.019784864 -0.04558411 -0.04375892 -0.050521556 0.018183324 0.011646721 0.024900816 -0.0096224835 0.10131099 0.023183249 0.03143001 0.014664329 -0.029824108 -0.03348234 -0.0024865835 -0.013835989 0.017351098 -0.02363522 0.022109212 -0.032045793 0.047089584 0.019058969 -0.030644743 0.061143506 0.047136657 -0.0025677423 0.008973721 -0.08185193 -0.025339741 0.054063216 0.037290446 -0.05917448 -0.062660575 0.019066436
7 -0.02243235 -0.06427971 0.07936212 0.051498264 -0.0005701531 -0.09767883 0.02019626 0.00626554 -0.06779621 -0.055678662 0.07643691 0.018416818 0.022337727 -0.008984988 -0.022216914 -0.02892539 -0.038057126 0.037498273 0.0043985327 0.019489665 0.027624175 0.06687065 0.060178418 -0.004321502 0.025746094 0.07828957 -0.05568058 0.0463178 -0.040239427 -0.021492098 -0.0029779081 -0.057857666 -0.053494748 -0.07835567 0.014055757 0.016967284 0.016427739 -0.009124795 0.11156559 0.010991165 0.023355646 0.008383266 -0.030985644 -0.054594442 0.020663695 -0.022381369 0.009855914 -0.04145418 0.03226474 -0.010359592 0.03762037 0.037140835 -0.042619627 0.0648185 0.053308643 -0.021027438 -0.0076191677 -0.08166608 -0.0041357223 0.05024093 0.020125782 -0.06397255 -0.0832579 0.016041253
8 -0.034806214 -0.05658627 0.052958943 0.022303792 -0.02147612 -0.07981174 0.013773379 0.01034188 -0.055000957 -0.034008365 0.07277424 0.034282897 0.00015044099 -0.0051513533 -0.014823761 -0.037485413 -0.023604877 0.0401494 0.0004773495 -0.008979006 0.019865915 0.028278355 0.05382775 0.0036780783 0.03360347 0.0648035 -0.039320923 0.022561956 -0.014057151 -0.03883518 -0.022388322 -0.037460804 -0.03362158 -0.057129942 0.0068192496 0.028288422 0.020014094 0.0008230036 0.08100278 -0.006936151 0.041899376 0.02583815 -0.04253987 -0.033512395 0.025396548 -0.024519034 -0.0057390914 -0.034256794 0.030876834 -0.015381688 0.042555194 0.012311176 -0.017006662 0.052197028 0.04386748 -0.0010946859 -0.00650298 -0.075943 -0.0055893078 0.04471676 0.035115793 -0.033022832 -0.060317382 0.027793933
1 -0.054800503 -0.06592462 0.10014531 0.0664224 -0.008049022 -0.1327786 0.037273824 0.0055386657 -0.070642166 -0.071121186 0.093636714 0.051952213 0.017829427 0.006125123 -0.02097055 -0.025730224 -0.058930468 0.04633521 0.00038327108 0.014803036 0.042851903 0.0578248 0.09644622 -0.028619135 0.05247436 0.09224926 -0.08539616 0.04939515 -0.052416008 -0.045776337 -0.009356979 -0.058517918 -0.061583653 -0.09078019 0.023079107 0.02992065 0.036628943 0.020432197 0.12311819 0.011666164 0.066361554 0.029669577 -0.045693155 -0.07855993 0.018769985 -0.024695659 0.024689937 -0.036075156 0.033387717 -0.022318479 0.043768905 0.037086174 -0.040924832 0.07936429 0.08374138 0.0076758484 0.010371546 -0.10066893 -0.027220853 0.06501774 0.027858585 -0.08673143 -0.111802004 0.012286745
4 -0.012390698 -0.050974607 0.07084847 0.024298698 -0.0061229877 -0.05707252 0.0050301948 -0.003139 -0.048235886 -0.038239364 0.05959468 0.008404797 -0.0012547671 0.0052568535 -0.03313864 -0.037566964 -0.030575734 0.016899878 -0.019089922 -0.009046854 0.02604558 0.034788366 0.06397051 -0.007943304 0.018428138 0.06730384 -0.057823017 0.021146538 -0.041292675 -0.034410823 -0.013936545 -0.024545947 -0.037015032 -0.044781912 0.018841624 0.004880381 0.028829888 0.012231195 0.072357394 0.01739281 0.03941668 0.001515335 -0.038978867 -0.034121837 0.0076826755 -0.021991279 0.020080496 -0.030603474 0.008546576 -0.014368242 0.023134863 0.027101276 -0.029540543 0.04757472 0.042224478 -0.0029287646 0.018850565 -0.07116991 -0.0122262165 0.045140903 0.035345074 -0.04977529 -0.04663284 0.027831523
2 -0.03829327 -0.05581144 0.08427868 0.041365206 -0.02349916 -0.10662452 0.021837132 0.016419772 -0.048347045 -0.048651434 0.08019073 0.033401072 0.024283385 0.001740094 -0.037789233 -0.045678396 -0.036240112 0.051208504 -0.009366946 -0.008292448 0.024047615 0.06693586 0.0662739 -0.0047199717 0.02080387 0.09078987 -0.07633554 0.043058388 -0.042474337 -0.04794537 -0.020273954 -0.04842817 -0.05185073 -0.07177391 -0.0009150953 0.0262518 0.043737687 2.4127592e-05 0.102138355 0.015647516 0.053746384 0.005519303 -0.04857205 -0.05585824 0.027011584 -0.014455792 -0.00606503 -0.03266705 0.03927064 -0.031235192 0.028116643 0.05095842 -0.046013378 0.07036528 0.059437107 0.0049011474 0.021969318 -0.08803722 -0.018766064 0.06214072 0.03402833 -0.048383325 -0.09640834 0.035373516
