19 64
1 -0.0375268 -0.02060569 0.4454812 0.11680916 -0.056090813 -0.32845977 -0.03839261 -0.010918561 -0.08096437 -0.2624839 0.34646544 0.05495403 0.031357486 -0.043050952 -0.18234828 -0.12668645 -0.15206403 0.07355061 0.022311054 0.14801566 0.12810233 0.11098506 0.30496615 0.003710181 -0.0063634017 0.28849113 -0.26756534 0.13524294 -0.14017352 -0.07343909 -0.1326492 -0.09899303 -0.24130706 -0.2365871 0.14420664 -0.016574152 0.03789661 0.043865025 0.37516195 0.06823291 0.0603861 0.1235605 -0.16603142 -0.4143389 0.0996819 -0.14260796 -0.044237908 -0.08287316 0.028860416 -0.030800879 0.07293798 0.13074932 -0.13100119 0.23900102 0.30096975 0.017738556 0.1186702 -0.25457233 0.031231629 0.0673735 -0.041404158 -0.23144273 -0.17371254 -0.045066558
18 -0.032583103 -0.025944864 0.34213287 0.09117135 -0.035196297 -0.2415791 -0.040165093 -0.008798679 -0.06648387 -0.23105946 0.26265702 0.03830703 0.042522606 -0.032322288 -0.14217855 -0.12105885 -0.13222955 0.054490935 0.031382915 0.12183998 0.077527955 0.07002463 0.25093675 -0.008293263 -0.0104051195 0.24884133 -0.20357397 0.09030767 -0.10504532 -0.06687233 -0.07886051 -0.06993986 -0.2139783 -0.19106923 0.13260715 0.00058843254 0.0008655926 0.048566114 0.28726086 0.07200536 0.07813671 0.07627127 -0.13401885 -0.29275873 0.075156406 -0.12905689 -0.009988893 -0.09349997 0.006492374 -0.013547498 0.06193623 0.10316924 -0.08832338 0.20151463 0.2159486 0.024978288 0.088686585 -0.20614353 0.037345897 0.039845627 -0.011295036 -0.1776776 -0.13643199 -0.019442901
5 -0.035854474 0.008350133 0.45429975 0.0927863 -0.048201233 -0.32496986 -0.037341826 -0.022450795 -0.051908202 -0.22835729 0.35697162 0.07995667 0.04779066 -0.07563625 -0.18705273 -0.114162885 -0.15468068 0.08811358 0.04571403 0.17220062 0.12589487 0.11388854 0.299153 -0.006788127 -0.020954594 0.2897906 -0.26962575 0.14378987 -0.10472156 -0.039604403 -0.12963708 -0.07928526 -0.26454163 -0.21274841 0.12912226 -0.029721458 0.030122213 0.06433149 0.4004234 0.059608832 0.07834298 0.13465717 -0.14427063 -0.44010064 0.10078735 -0.12821114 -0.052351214 -0.09971887 0.0057297926 -0.06277084 0.110157385 0.11481827 -0.13286626 0.23738116 0.29686856 0.010440739 0.116661996 -0.23976316 0.039089493 0.021442877 -0.046951056 -0.23709978 -0.1602802 -0.039430812
3 -0.028398445 -0.045779113 0.35439432 0.089580424 -0.025205111 -0.25852978 -0.066779606 -0.016882816 -0.069089465 -0.22286461 0.2568573 0.035647947 0.04233082 -0.020405337 -0.1493425 -0.11084831 -0.14862306 0.059915937 0.0152680045 0.10716051 0.103645764 0.069144376 0.26368055 -0.008609006 0.0032269787 0.26335508 -0.22717665 0.08440732 -0.12701872 -0.08074038 -0.10478166 -0.09434761 -0.19578841 -0.19476727 0.15148762 -0.0018699404 0.0045602056 0.049322315 0.29718798 0.056207236 0.060395624 0.08503466 -0.15657185 -0.31397706 0.08158338 -0.12101535 -0.005785106 -0.08543865 0.008337796 -0.022875313 0.057131957 0.10463312 -0.09678227 0.20412044 0.2329484 0.02403029 0.081527814 -0.21144098 0.027117299 0.057014305 -0.029802417 -0.20085081 -0.14600378 -0.0343465
11 -0.032081626 -0.025903571 0.3890103 0.088154875 -0.030980926 -0.29700983 -0.02657111 -0.017345633 -0.07747154 -0.21250741 0.32091784 0.05720631 0.016981091 -0.0453258 -0.15138173 -0.09603265 -0.12803699 0.06888411 0.024568757 0.17821309 0.12653309 0.11136545 0.2553972 0.0067354594 -0.020357536 0.2534062 -0.25622672 0.1191332 -0.11433903 -0.06444431 -0.11671599 -0.10564335 -0.22446384 -0.20557743 0.117947325 -0.0012193881 0.047399476 0.03807612 0.36497617 0.07649959 0.064772 0.10934823 -0.11241534 -0.38942698 0.08185916 -0.11174949 -0.035663087 -0.08919885 0.030930169 -0.05466899 0.0857487 0.1274103 -0.10545759 0.20763849 0.27887353 0.02342667 0.10780979 -0.22528979 0.047459453 0.041924234 -0.027678723 -0.22022851 -0.1651294 -0.01734133
4 -0.027615415 -0.023653474 0.41735125 0.10897193 -0.05352451 -0.29004264 -0.031229248 -0.0133612305 -0.06374604 -0.23017092 0.31229106 0.04268485 0.014394049 -0.055770338 -0.15313184 -0.09164988 -0.12135079 0.056111872 0.013831611 0.18091048 0.11852951 0.11191164 0.27306792 0.0021733544 -0.010444437 0.27328 -0.24188454 0.11556648 -0.12320688 -0.062553704 -0.10503307 -0.09484 -0.25334314 -0.22290665 0.118070975 -0.00932312 0.038441543 0.060258117 0.3622066 0.062100824 0.05670029 0.1179933 -0.11589831 -0.383381 0.10341816 -0.1367832 -0.035797413 -0.07318661 0.020766033 -0.062165525 0.0882746 0.111798145 -0.11733458 0.23687997 0.2645652 0.011117423 0.09559003 -0.20676011 0.025293754 0.050474044 -0.04990341 -0.20416884 -0.14703953 -0.024854815
9 -0.032792002 -0.036503367 0.37324136 0.0943517 -0.037169818 -0.26609325 -0.06505011 -0.025743078 -0.06865274 -0.23309821 0.28213063 0.035305638 0.039767537 -0.040534716 -0.14733599 -0.12277037 -0.14848037 0.050266027 0.008591094 0.11073718 0.094026804 0.07439223 0.25730678 0.002940726 -0.011757473 0.26177445 -0.22412524 0.09591231 -0.13169791 -0.07241866 -0.10582521 -0.08785671 -0.21520723 -0.18049741 0.14859779 -0.01755851 0.014264692 0.03244157 0.29839212 0.08413423 0.06927265 0.09040327 -0.1435483 -0.3030102 0.067612104 -0.1274061 0.0037248065 -0.080624446 0.016764106 -0.04038372 0.07159719 0.08424553 -0.10616895 0.20420884 0.22858116 0.033609387 0.092910156 -0.22001046 0.009705805 0.07532693 -0.009627407 -0.1983512 -0.12599911 -0.024138357
14 -0.02165035 -0.027073074 0.39710546 0.09823455 -0.021676743 -0.29446647 -0.039080113 -0.027977701 -0.077518925 -0.23312342 0.30200836 0.039477594 0.03584156 -0.06448302 -0.15166122 -0.09912153 -0.13516098 0.06550114 0.044155356 0.17936075 0.10314227 0.121234775 0.24267943 0.015923698 -0.029131472 0.26517367 -0.23590548 0.13065176 -0.11644542 -0.038623594 -0.09612537 -0.10745956 -0.24468695 -0.213833 0.12375205 -0.013451492 0.024089973 0.029266704 0.36097068 0.06953513 0.036688086 0.09902345 -0.115521304 -0.3818458 0.10239113 -0.12664413 -0.0345152 -0.09487557 0.03446271 -0.040632173 0.08063847 0.12360922 -0.12695046 0.2171517 0.25852945 0.0008004635 0.086327516 -0.21049859 0.04210899 0.048757706 -0.053983394 -0.2174603 -0.16016954 -0.030769315
13 -0.04386014 -0.050786525 0.35445565 0.0729762 -0.041476592 -0.26505005 -0.055910673 -0.02625468 -0.08492376 -0.23029882 0.27921486 0.049599104 0.019922687 -0.03593643 -0.13976645 -0.13063294 -0.13494945 0.06055451 0.031099651 0.09587698 0.08239768 0.054223143 0.253417 0.013424351 0.0058666063 0.25649726 -0.20668542 0.08766905 -0.10298543 -0.08686914 -0.10948304 -0.08563709 -0.20919357 -0.19302297 0.13919309 0.0027982069 0.014319513 0.040049963 0.2912043 0.054949876 0.08465036 0.101740085 -0.16103354 -0.3063747 0.09864174 -0.13734066 -0.016433446 -0.09683921 0.030785168 -0.02426243 0.070031136 0.082761124 -0.09859134 0.20133732 0.23285528 0.03149137 0.07619064 -0.22517745 0.027787242 0.0733289 -0.005246615 -0.18157674 -0.13434003 -0.012343402
10 -0.045548357 -0.030485844 0.3381652 0.08753781 -0.017750679 -0.2524107 -0.040619813 -0.034281075 -0.067609295 -0.23049249 0.24296093 0.048376776 0.026744595 -0.024060786 -0.12361308 -0.095580086 -0.14114173 0.043501526 0.035690527 0.11433534 0.08104661 0.051646996 0.24224931 -0.011605044 0.0068384632 0.22977482 -0.20483743 0.08980177 -0.112317726 -0.069427386 -0.08109397 -0.07859016 -0.20323738 -0.18134011 0.14104071 -0.0035327913 0.014773564 0.05395366 0.26491717 0.06311523 0.07928404 0.09228277 -0.13451767 -0.30532873 0.083299704 -0.121785395 0.01017597 -0.07799007 0.019477604 -0.016300745 0.047960736 0.08589888 -0.09850927 0.18466291 0.22788328 0.039581936 0.08227675 -0.19230813 0.01442164 0.06315577 -0.028892227 -0.19249512 -0.13730986 -0.03691786
2 -0.021348951 -0.052242797 0.36588833 0.07426744 -0.024491627 -0.23761041 -0.065232515 -0.037551016 -0.08084552 -0.23568287 0.26082522 0.019135328 0.0149685005 -0.02222238 -0.15531723 -0.130589 -0.1393415 0.03403633 0.008454393 0.09451713 0.08646025 0.057376266 0.26120353 0.0007795089 -0.008724656 0.2583125 -0.22072366 0.08226639 -0.13125348 -0.087204605 -0.09701483 -0.074025 -0.21200599 -0.1801635 0.15172124 -0.016394204 0.025304338 0.050234564 0.27569744 0.080385216 0.08157874 0.07480711 -0.15631832 -0.29510602 0.08262451 -0.13469344 0.01599172 -0.093763806 0.009519275 -0.020016087 0.046126775 0.09613057 -0.10971775 0.19687767 0.22670846 0.030147938 0.098711945 -0.21804146 0.020208228 0.07744069 -0.00061543693 -0.19530514 -0.11837986 -0.009158363
17 -0.03464353 -0.020439757 0.37043086 0.07953271 -0.042539597 -0.27579412 -0.038022447 -0.01630641 -0.055011168 -0.21449317 0.2793826 0.04709087 0.03179282 -0.047372002 -0.15441976 -0.11159546 -0.122499585 0.06925775 0.027881222 0.1356326 0.089057446 0.10392665 0.232837 0.013471342 -0.029710691 0.25768402 -0.23306273 0.11279532 -0.10866842 -0.06549469 -0.103634596 -0.08706125 -0.22563277 -0.19098301 0.10522942 -0.0022513862 0.045532905 0.038272217 0.31742114 0.06925574 0.06615901 0.087720156 -0.12638637 -0.34535867 0.1025533 -0.113844216 -0.041735493 -0.081583686 0.036201153 -0.052543905 0.061788276 0.12336661 -0.11835683 0.20738868 0.24198438 0.026674047 0.10575347 -0.20085782 0.025627228 0.056751102 -0.032425046 -0.18357334 -0.15447722 -0.009319476
0 -0.032635786 -0.037684437 0.39632836 0.0904927 -0.026905922 -0.29192573 -0.04857168 -0.014326965 -0.058048103 -0.236515 0.3060409 0.033380963 0.01703734 -0.04977188 -0.17090873 -0.10399389 -0.1321851 0.061060872 0.03513947 0.16934778 0.12122611 0.09748528 0.26085678 -0.0010665462 -0.032283407 0.27463368 -0.2430797 0.11604127 -0.120209605 -0.06843132 -0.10144488 -0.1012891 -0.24662215 -0.19068691 0.1349655 0.0068110614 0.04487369 0.045325857 0.3573393 0.06166372 0.045621864 0.109783545 -0.12495567 -0.37303665 0.11199493 -0.12905563 -0.012605709 -0.08668982 0.01605756 -0.042857766 0.061364092 0.112513356 -0.11469568 0.23059073 0.27444178 0.006831384 0.10397976 -0.21270548 0.030153617 0.03824949 -0.03392031 -0.2225622 -0.14312138 -0.03493453
12 -0.02188651 0.01215269 0.4051004 0.10007354 -0.04603205 -0.27742052 -0.03469309 -0.038754743 -0.060045272 -0.21683359 0.3148995 0.05596809 0.029240292 -0.059511248 -0.15794556 -0.0970689 -0.14554857 0.061074805 0.03153569 0.16438003 0.11302663 0.092380285 0.2743801 0.002492672 -0.016192468 0.2658345 -0.237706 0.10681823 -0.122885145 -0.055673365 -0.101820625 -0.08716782 -0.24966753 -0.20299722 0.12042127 -0.009636363 0.008119972 0.058835167 0.34213313 0.066562414 0.07209576 0.12678978 -0.13964103 -0.40161487 0.075232856 -0.14272736 -0.05783472 -0.08525033 0.012375825 -0.065335356 0.10336391 0.111324444 -0.09921418 0.21834949 0.26766193 0.010098903 0.10394342 -0.21084061 0.0268817 0.03649264 -0.042507455 -0.21379064 -0.13303457 -0.021168122
6 -0.025372704 -0.010093067 0.39748773 0.082968414 -0.043987416 -0.29186946 -0.052318282 -0.0067903856 -0.068037584 -0.2347747 0.2925878 0.053396255 0.022253891 -0.055608742 -0.15139033 -0.10744102 -0.13411497 0.06326986 0.022604411 0.17085312 0.112844355 0.08340792 0.2643806 -0.0048092464 -0.019222228 0.26661816 -0.24419391 0.1105912 -0.103282124 -0.06482196 -0.1173104 -0.07758005 -0.2346592 -0.20854393 0.13815154 -0.002493015 0.037546754 0.057632484 0.32558012 0.07605084 0.05945354 0.11079136 -0.12290014 -0.35821772 0.09982929 -0.11506803 -0.03545871 -0.0905922 0.022253383 -0.040051408 0.0703692 0.12294495 -0.10561751 0.2249642 0.260503 0.030467907 0.09687117 -0.19786595 0.039072514 0.035284758 -0.044643577 -0.2089506 -0.14024125 -0.027927795
7 -0.031198772 0.011284588 0.40070567 0.08625641 -0.049714494 -0.28148663 -0.04799581 -0.04045628 -0.05156335 -0.21763553 0.3043916 0.063316576 0.02469729 -0.06927062 -0.14766915 -0.10876554 -0.12957457 0.0579519 0.041031342 0.15688534 0.11373277 0.09173138 0.25192332 0.019992577 -0.016574027 0.24247007 -0.24740544 0.113064 -0.09714365 -0.036005598 -0.12727535 -0.06817115 -0.21531416 -0.18074022 0.13639648 -0.032402106 0.00509905 0.059505172 0.35440218 0.06785715 0.07031173 0.10689098 -0.10895286 -0.38986054 0.06568709 -0.13468522 -0.049930267 -0.070496544 0.007156241 -0.06640182 0.10386367 0.09707885 -0.0892028 0.19689755 0.25927395 0.028740013 0.105712876 -0.21312733 0.03825147 0.019306686 -0.049897842 -0.20527056 -0.12936515 -0.038885254
15 -0.037341807 0.00026994158 0.37434575 0.08016085 -0.028604994 -0.26210752 -0.045242533 -0.020857247 -0.04088819 -0.19577292 0.30066687 0.05876449 0.033687804 -0.055047445 -0.1574204 -0.098582074 -0.1309948 0.061541166 0.019548673 0.16149491 0.09353333 0.08202616 0.2428946 0.003970363 -0.029984504 0.24743903 -0.2361106 0.10704371 -0.115796484 -0.04396541 -0.102687515 -0.08045936 -0.22611164 -0.19165078 0.1295377 -0.011128375 0.007519509 0.042049047 0.3324977 0.06440474 0.04309593 0.11140251 -0.1333958 -0.37133047 0.08655794 -0.12530732 -0.03363154 -0.064650476 0.0093495725 -0.03368734 0.08628384 0.11839029 -0.093661934 0.18647438 0.24071597 0.028960817 0.10596009 -0.18932459 0.04439221 0.04701617 -0.056796852 -0.18879686 -0.14613816 -0.024581946
8 -0.01923477 -0.0074990443 0.3837362 0.091221444 -0.04103832 -0.2504647 -0.05692029 -0.024286771 -0.04337515 -0.23064682 0.28741416 0.032336395 0.050790302 -0.026139079 -0.14551404 -0.100415945 -0.13573787 0.04576854 0.022716882 0.13967082 0.08791743 0.07151728 0.2660051 0.0060948497 -0.013360064 0.24740398 -0.21329956 0.08883574 -0.11886538 -0.071178794 -0.111300595 -0.09228784 -0.22212031 -0.20453213 0.13414116 -0.030710816 -0.0041378266 0.036827173 0.29736808 0.076598585 0.07580165 0.09787039 -0.14203659 -0.35138106 0.078339055 -0.12691472 -0.024250511 -0.08008425 0.012352588 -0.03735022 0.060593065 0.08764569 -0.1149589 0.19954568 0.24147311 0.03955992 0.093548745 -0.21383159 0.043511078 0.046408772 -0.035272457 -0.17844036 -0.13133496 -0.038876668
16 -0.013193278 0.005584877 0.32427487 0.07502942 -0.03423322 -0.2296273 -0.037350975 -0.026320495 -0.04406287 -0.17978798 0.2633299 0.043834925 0.015933516 -0.037207462 -0.11948444 -0.07224628 -0.12784879 0.059964083 0.020494347 0.15171406 0.09961059 0.09112332 0.22349207 0.01713153 -0.02617052 0.23050554 -0.20908011 0.08995751 -0.09544575 -0.023697961 -0.1088592 -0.07413708 -0.18224798 -0.16601734 0.09474416 -0.026652727 0.03222256 0.053959675 0.30429327 0.04867709 0.03644697 0.10125951 -0.09316104 -0.33550152 0.056890532 -0.111719646 -0.045955665 -0.071687184 0.008407873 -0.05555015 0.09400145 0.07654265 -0.081581324 0.18572754 0.21846233 0.030981833 0.1040225 -0.18854776 0.020704946 0.01671936 -0.051553763 -0.18019298 -0.13047963 -0.040245373
