23 64
1 -0.0030507273 -0.048729654 0.37630838 0.07582456 -0.065279745 -0.2561786 -0.12083967 0.043979935 -0.051043198 -0.12889971 0.27105048 0.021150908 0.051485322 0.061913807 -0.18339223 0.01883129 -0.13757005 0.13396308 -0.06966248 0.20180382 0.17628855 0.015778102 0.30621517 0.01415723 -0.046866998 0.2730942 -0.3558156 -0.09867972 -0.30586287 -0.08346842 -0.12611948 -0.0112718325 -0.2015535 -0.10005285 0.305554 -0.060359266 0.18487182 0.046274114 0.32329768 0.025290452 -0.018643258 0.24802499 0.0111426525 -0.18700856 0.024312567 -0.17416176 0.048924536 -0.025299916 -0.0011577788 -0.008242971 0.1222564 0.01765517 -0.027624147 0.15229008 0.2863799 0.20865755 0.2166233 -0.0986948 -0.0453903 -0.029798945 0.00025172555 -0.33668232 -0.078981794 -0.08248754
12 -0.019444421 -0.06691566 0.31929347 0.07181621 -0.04759005 -0.23260872 -0.09224785 0.057585288 -0.053793617 -0.10271626 0.27011138 0.041238245 0.08561804 0.018682929 -0.15147534 -0.0063389633 -0.12619288 0.14293991 -0.03579754 0.20169172 0.1309415 0.03804935 0.26262084 -0.008093284 -0.04102641 0.2695482 -0.29324985 -0.06729686 -0.22143963 -0.06362509 -0.08781974 -0.03911522 -0.21438414 -0.118377835 0.25303352 -0.019736227 0.10786355 0.037268825 0.33846882 0.01689932 0.009877672 0.20013562 0.009981832 -0.15229116 0.027635695 -0.1401382 0.046684187 -0.07746752 -0.015534551 -0.014433838 0.17018329 0.019913007 -0.018086169 0.15902941 0.22920364 0.14318901 0.13356757 -0.11639835 0.0010737064 -0.045008883 0.02261829 -0.28362086 -0.10143785 -0.03976883
7 -0.020802671 -0.062195037 0.33426538 0.052767813 -0.04812907 -0.24532188 -0.08988319 0.05550888 -0.03666052 -0.07011278 0.27701125 0.058328174 0.09034429 0.008252435 -0.15836388 0.0066939685 -0.12518358 0.15214053 -0.0347101 0.18342935 0.13489102 0.036151875 0.25017807 -0.0184517 -0.036268447 0.25424436 -0.29227456 -0.055016655 -0.20454016 -0.051742587 -0.09935785 -0.036313858 -0.21215577 -0.103844665 0.24367581 -0.03327641 0.12460633 0.0363007 0.33678564 -0.0077273278 0.007362748 0.22136785 0.0067627374 -0.16703911 0.043613717 -0.11721779 0.04396341 -0.076923 -0.012807149 -0.022833519 0.17913496 0.005994561 -0.049264297 0.14391279 0.24151537 0.13015357 0.12220771 -0.10690368 -0.008614936 -0.04114141 0.01529874 -0.29065368 -0.09714834 -0.048266243
20 -0.015932662 -0.08870325 0.30510598 0.064661115 -0.03523226 -0.23823984 -0.10865551 0.06145595 -0.048673958 -0.07280104 0.2504347 0.0422548 0.09283531 0.02937363 -0.14734219 0.0105019715 -0.13285573 0.1526197 -0.048164174 0.1808171 0.14678521 0.039770845 0.24939205 -0.01515217 -0.025966594 0.26689562 -0.298046 -0.07186355 -0.2220059 -0.06875167 -0.103701316 -0.06742513 -0.18323451 -0.11951025 0.2562209 -0.012505049 0.10291392 0.03293814 0.33744708 -0.0136058 -0.016171394 0.20116667 -0.003712385 -0.15511371 0.035735752 -0.11599007 0.046028532 -0.07243552 -0.013042381 -0.016834272 0.17024018 0.02258302 -0.026090866 0.14928405 0.23123261 0.12788142 0.10593867 -0.1100656 -0.0012569141 -0.033737972 0.00085856166 -0.2905489 -0.117717154 -0.05380611
9 -0.021193279 -0.07616539 0.32750234 0.057059877 -0.043501887 -0.2522607 -0.09077071 0.048528578 -0.06322626 -0.07681891 0.2825955 0.053262413 0.06383013 0.028572101 -0.14720774 0.013083828 -0.12202169 0.14474586 -0.05164527 0.20574991 0.15618695 0.036484275 0.25370744 -0.0020160663 -0.035920344 0.2517231 -0.32069975 -0.07213972 -0.23245032 -0.07716528 -0.11244885 -0.05477896 -0.19747223 -0.10912166 0.25772774 -0.02110389 0.14290448 0.028833976 0.34684148 0.016429342 0.010016303 0.22147232 0.022237726 -0.17497231 0.021562167 -0.12305626 0.047403976 -0.06915216 0.0028240967 -0.030993687 0.17654169 0.021983597 -0.023259012 0.13757187 0.26086122 0.15927358 0.14154679 -0.118194 -0.002752536 -0.030323172 0.026362905 -0.30775437 -0.10741532 -0.036255956
21 -0.012929724 -0.07055208 0.33928677 0.07653537 -0.06308097 -0.23234294 -0.08949908 0.050696436 -0.04745184 -0.08779577 0.26356256 0.035297424 0.06014056 0.01727733 -0.1412734 0.019847415 -0.109591566 0.12645745 -0.06134714 0.20108879 0.14342305 0.04057258 0.2607124 -0.0047048004 -0.024625206 0.2596357 -0.2903429 -0.07072418 -0.23126695 -0.06809605 -0.0959907 -0.04345904 -0.21505436 -0.120837845 0.24118923 -0.03265615 0.12785742 0.046286937 0.33238095 0.002579508 -7.368038e-05 0.2190124 0.020986063 -0.1617527 0.03726047 -0.14062266 0.044688992 -0.049985092 -0.008003457 -0.04043855 0.17342643 0.0023381263 -0.034923825 0.16047719 0.23280795 0.13839646 0.12390224 -0.097312175 -0.024336476 -0.02263448 0.00488483 -0.2775911 -0.08480113 -0.04240769
13 -0.014562026 -0.06539839 0.31671274 0.06538926 -0.044735827 -0.23318504 -0.108007975 0.033919353 -0.050063286 -0.09233716 0.25629336 0.034107078 0.07149407 0.008685522 -0.14117143 -0.0018357275 -0.12933259 0.12576199 -0.05417431 0.172762 0.13808858 0.037659846 0.24123463 0.0049280827 -0.04002066 0.25145352 -0.2874321 -0.057275027 -0.22752221 -0.056096066 -0.10568607 -0.04312717 -0.19021744 -0.0884686 0.24493396 -0.04055828 0.119951956 0.021188917 0.31157115 0.026668658 -0.0042556785 0.19734856 0.007818722 -0.14441949 0.0154413385 -0.12441317 0.05449583 -0.053200155 -0.00361679 -0.03946189 0.15977818 -0.0024567123 -0.031855345 0.14265776 0.21870834 0.14221613 0.13174339 -0.10953677 -0.032198913 -0.011896463 0.018945493 -0.28074774 -0.075517796 -0.044801187
22 -0.009025709 -0.08016221 0.3073674 0.06614482 -0.025083687 -0.23025173 -0.09601489 0.036888838 -0.059376094 -0.09466277 0.24619626 0.027043596 0.082516156 0.0109622795 -0.13527629 0.011094119 -0.12090819 0.13243793 -0.024427233 0.19715793 0.12192097 0.04893297 0.22436562 0.006863896 -0.041372404 0.24785712 -0.27300078 -0.05397626 -0.21587722 -0.044629164 -0.08263779 -0.06166233 -0.20248188 -0.11601875 0.2427316 -0.030113697 0.10412416 0.0147550665 0.3258246 0.004909972 -0.02213009 0.19149122 0.01614076 -0.157342 0.04398981 -0.1277619 0.048685268 -0.074465044 0.00461294 -0.010433993 0.15690099 0.014719139 -0.044276044 0.1403292 0.22074656 0.11996997 0.104165986 -0.10126817 -0.0009457495 -0.02412566 -0.0027984246 -0.2813659 -0.10154536 -0.051198777
18 -0.029012028 -0.08309601 0.29663238 0.04451868 -0.053471733 -0.23216027 -0.0940814 0.044310506 -0.060584906 -0.07942697 0.2607417 0.05373104 0.062408578 0.010081195 -0.13128904 -0.010504125 -0.112063766 0.14192514 -0.031247346 0.16149868 0.11763943 0.020417405 0.22830717 0.011417057 -0.023568379 0.24616669 -0.26482424 -0.06620504 -0.19001424 -0.070111565 -0.10426228 -0.049414854 -0.1905826 -0.10938861 0.23302716 -0.012542695 0.108718686 0.02432594 0.31227422 -0.009927549 0.0107714655 0.2101174 -0.0063260556 -0.14284478 0.04900606 -0.13218993 0.031129327 -0.07589286 0.010368344 -0.021103518 0.17490984 -0.0020233481 -0.02645069 0.1384282 0.21997237 0.1339572 0.10125636 -0.11554698 -0.004168558 -0.014656429 0.02380644 -0.2565548 -0.094055355 -0.028527971
0 -0.006264902 -0.008964541 0.4032199 0.063551135 -0.050188508 -0.25417858 -0.13648811 -0.025496092 -0.059620295 -0.17228633 0.23728247 0.035737474 0.015608418 0.055674747 -0.17400123 0.020858409 -0.16753903 0.099224575 -0.051853556 0.20966676 0.17670952 -0.031805348 0.3401151 0.011743165 -0.04085375 0.28282073 -0.37974623 -0.11103945 -0.3216847 -0.0956547 -0.118234426 0.028999284 -0.23139414 -0.07084883 0.33160058 -0.076674275 0.19505607 0.10097103 0.2809334 0.070741564 0.046038378 0.25343853 0.010389755 -0.21588399 0.008562285 -0.20040254 0.07276983 -0.023272283 -0.010483348 -0.04527185 0.10402165 0.005137292 -0.012800503 0.16113313 0.29873562 0.2598389 0.25698358 -0.082884856 -0.082742184 -0.032509513 0.00082288875 -0.36907622 -0.038615987 -0.0724752
16 0.02153783 -0.021519188 0.40472803 0.04589178 -0.05077758 -0.22109675 -0.1579099 -0.028712409 -0.063828036 -0.16419277 0.2367926 0.0021163507 0.0016119309 0.058748104 -0.19825661 -0.0027289419 -0.15602048 0.086270295 -0.07743448 0.19057207 0.18161663 -0.026012903 0.34527385 0.026879005 -0.05999317 0.29395336 -0.38315728 -0.12077231 -0.3335321 -0.101863675 -0.12897025 0.04213979 -0.2230422 -0.05350467 0.32876682 -0.09310716 0.20472158 0.09466714 0.27770337 0.08707395 0.038809594 0.22734614 0.0010760464 -0.1951785 0.00016599879 -0.20419894 0.07637699 -0.027090821 -0.025066338 -0.049990002 0.090867735 0.010435436 -0.012603016 0.1611932 0.28148994 0.24991375 0.27640796 -0.09248269 -0.076968536 -0.031445116 0.024680303 -0.35876262 -0.009271136 -0.04826236
15 0.0023071296 -0.015183339 0.40579683 0.051087104 -0.06585692 -0.2528903 -0.14773543 -0.012139554 -0.051906537 -0.1647549 0.24492417 0.023055386 0.025661567 0.051606137 -0.19749524 -0.00562662 -0.1562756 0.114673905 -0.0634462 0.19268937 0.1707499 -0.006684857 0.33294174 0.032268018 -0.06498159 0.30481207 -0.38830414 -0.10707903 -0.32288548 -0.10579151 -0.1331569 0.027656406 -0.2333308 -0.06824293 0.30898395 -0.07554121 0.21167225 0.08338447 0.28974774 0.08046978 0.0449625 0.2320063 -0.0013220254 -0.20768368 0.020007743 -0.19457144 0.047582824 -0.02787034 3.5158715e-05 -0.06255761 0.09490188 0.025213622 -0.023840073 0.17264856 0.2876606 0.25772893 0.27423093 -0.09275144 -0.07910654 -0.026110701 0.015995309 -0.34694672 -0.042749103 -0.04486823
3 0.002662258 -0.046365302 0.32984397 0.05576125 -0.031564932 -0.21113119 -0.13478082 0.02181691 -0.02070568 -0.13125452 0.22326869 -0.0068139615 0.03312842 0.06017697 -0.17434967 0.0367077 -0.124855675 0.106992945 -0.04387225 0.22198243 0.16814773 -0.0052633616 0.28059456 0.017451994 -0.07133986 0.26045057 -0.32532853 -0.11259819 -0.28952304 -0.07725468 -0.09461891 -0.0047659487 -0.20566624 -0.05355845 0.29202685 -0.048309293 0.17554662 0.056171007 0.29487813 0.032906696 -0.022464946 0.22411998 0.035198018 -0.17264858 0.033091962 -0.17635825 0.076671526 -0.016957099 -0.02064549 -0.022553012 0.08335523 -0.002725011 -0.005451534 0.15007731 0.25783908 0.20703377 0.22132131 -0.062736735 -0.047714297 -0.063961156 -0.0021760813 -0.31806126 -0.040507913 -0.08336011
19 0.017960945 -0.0055058235 0.36868834 0.059952404 -0.056892764 -0.21493353 -0.13031118 -0.017279902 -0.054868218 -0.13859586 0.22781898 0.013664977 0.020010637 0.0505756 -0.17414142 0.0187472 -0.14964195 0.09478555 -0.06359057 0.19176652 0.16953416 -0.021818982 0.31556937 0.018133644 -0.048607435 0.26893756 -0.34175113 -0.118515864 -0.3118437 -0.09448007 -0.10267834 0.021207677 -0.22018218 -0.0633783 0.2932385 -0.064073935 0.1714497 0.07939793 0.25724944 0.065509014 0.029784856 0.23838907 0.0006810274 -0.1919149 -0.0026045293 -0.19442654 0.043460928 -0.025023345 -0.01149341 -0.052392244 0.1066137 0.011458684 -0.0039995085 0.152524 0.26765484 0.2193256 0.23786739 -0.072008796 -0.07475958 -0.03384423 0.014731733 -0.33342057 -0.015967567 -0.0468633
4 0.018010583 -0.0004230083 0.41927597 0.04861296 -0.069091566 -0.255486 -0.16323808 -0.0020740083 -0.0621037 -0.177926 0.23805867 0.023989186 0.009523239 0.05129284 -0.19025645 0.0066010877 -0.16252553 0.10386126 -0.07515566 0.22043873 0.19574437 -0.03718648 0.35810766 0.014160244 -0.05371878 0.30124727 -0.39504904 -0.12172539 -0.3209557 -0.10468496 -0.1421031 0.051985364 -0.23002028 -0.07142505 0.34122542 -0.07896186 0.21446845 0.10662333 0.27315593 0.08824726 0.035811514 0.25428674 0.011507132 -0.19989568 0.011025467 -0.19502208 0.055955715 -0.027494624 -0.013645486 -0.048418425 0.0915678 0.020745205 -0.0045037726 0.18019514 0.29685467 0.27090502 0.2734702 -0.071704306 -0.07551225 -0.051572315 0.0059909862 -0.36825866 -0.01455703 -0.063965276
14 0.0056509315 -0.007733763 0.41385037 0.056633804 -0.06551719 -0.2521894 -0.15450977 -0.018605648 -0.0514924 -0.16339278 0.25145274 0.026468195 0.019167023 0.04185226 -0.18623899 0.0035175546 -0.15284836 0.10277861 -0.05524562 0.21071328 0.1888862 -0.019910384 0.33169332 0.033121392 -0.054070268 0.28094828 -0.3910152 -0.11381355 -0.3140945 -0.08450162 -0.13959382 0.03684366 -0.2172629 -0.057718206 0.34057632 -0.089497335 0.1819691 0.09130158 0.31046695 0.073149465 0.032528646 0.24318698 0.025668528 -0.21610796 -0.005202024 -0.20760545 0.05596179 -0.017134124 -0.019343838 -0.056693815 0.1197197 0.0051961252 0.00030137133 0.15576828 0.2955027 0.25484952 0.26228693 -0.09055472 -0.065658204 -0.054235343 0.0041186763 -0.36310562 -0.024381997 -0.07275423
6 -0.020489579 -0.04619814 0.34728417 0.055743437 -0.04145862 -0.2311762 -0.12478349 0.041241694 -0.02036022 -0.09378814 0.26163015 0.034323346 0.07137775 0.047381125 -0.17494172 0.021751132 -0.13189024 0.1328851 -0.060173 0.21776982 0.135528 -0.0016496227 0.25883806 0.006716434 -0.06769051 0.25848764 -0.34468776 -0.10814337 -0.28738376 -0.0705498 -0.099928394 -0.020302989 -0.21598391 -0.09512068 0.31254682 -0.03849112 0.14226496 0.039784987 0.3179946 0.018261103 -0.02663089 0.24028657 0.015720012 -0.17696492 0.035678387 -0.16834381 0.06066721 -0.027490305 -0.009795419 0.006446291 0.14552875 0.030520318 -0.01479655 0.118801095 0.25911936 0.20989823 0.19204186 -0.067155086 -0.01737534 -0.02652573 -0.018779922 -0.31189817 -0.09264432 -0.06528143
5 0.013552757 -0.031181073 0.35435387 0.061826546 -0.04334184 -0.20963654 -0.1412806 0.016622815 -0.023265732 -0.13880105 0.24019088 -0.004843464 0.0571074 0.0706734 -0.16620974 0.03737441 -0.1309845 0.10342874 -0.056937244 0.22488888 0.15701534 -0.006188278 0.30117282 0.028001793 -0.061885227 0.25974342 -0.32575676 -0.11905475 -0.30007425 -0.08423802 -0.11472162 -0.012406621 -0.20820038 -0.084668316 0.29500464 -0.07845497 0.15513498 0.042409997 0.2852923 0.054895375 -0.0015935703 0.22629136 0.021513406 -0.18801811 0.018847557 -0.17555489 0.06356848 -0.019481132 -0.011662392 -0.02658284 0.088932976 -0.0077157286 -0.020709198 0.1439508 0.25706902 0.23251843 0.22027715 -0.078981265 -0.031058386 -0.04968572 -0.004259584 -0.30399308 -0.045789633 -0.08151355
11 0.0125115905 -0.027996667 0.30392826 0.053814705 -0.038903426 -0.19364375 -0.12078408 0.011692887 -0.0335858 -0.11555346 0.21672516 0.0069112172 0.030823598 0.062237363 -0.14012736 0.037836887 -0.1353808 0.10921576 -0.05523474 0.20687069 0.15093501 0.008115873 0.26849335 0.02976383 -0.060376246 0.25250378 -0.3086375 -0.10520534 -0.26882362 -0.05273432 -0.109478734 -0.00407158 -0.17390552 -0.06879201 0.25655758 -0.068054095 0.16872144 0.0603452 0.27633595 0.03267654 -0.01897814 0.2126736 0.033356894 -0.16872609 0.0057806564 -0.16295442 0.047848865 -0.026118629 -0.012354298 -0.031389326 0.11235096 -0.011680771 -0.0044617257 0.1407803 0.23085059 0.21244757 0.21327253 -0.07872713 -0.051162723 -0.05177738 -0.012826663 -0.29415438 -0.057980616 -0.078138635
17 -0.013794027 -0.053670064 0.36303946 0.059851993 -0.062043875 -0.24306619 -0.11635795 0.060883243 -0.033218823 -0.08667139 0.2473742 0.045115657 0.07442512 0.060994256 -0.17797993 0.023683889 -0.1277353 0.14130656 -0.059481394 0.19245562 0.1297974 0.0018374589 0.25848928 0.004832018 -0.060009636 0.2701537 -0.34454513 -0.10778819 -0.28871727 -0.09034286 -0.09224662 -0.03900579 -0.2225215 -0.091990545 0.31877226 -0.048670392 0.1541398 0.030748839 0.3269765 -0.00084083644 -0.021905627 0.24100135 0.04398735 -0.15263149 0.019221274 -0.16659234 0.06642978 -0.0446512 -0.009182538 -0.0015953289 0.17296466 0.01801417 -0.043786954 0.13326852 0.27988806 0.2031375 0.17702962 -0.091870084 -0.02323776 -0.034838207 0.0016256393 -0.3353459 -0.108559884 -0.070399076
10 -0.036366552 -0.06540585 0.35425907 0.08286016 -0.062107395 -0.2583267 -0.10186841 0.056530084 -0.042567972 -0.08503395 0.28284615 0.035824154 0.10437132 0.03340036 -0.16457166 0.022549463 -0.11690963 0.16928458 -0.03705364 0.22837263 0.12551874 0.040153213 0.2429105 -0.0038252245 -0.065047614 0.26262876 -0.35807598 -0.11688506 -0.28006798 -0.07659798 -0.11315499 -0.037188552 -0.23624347 -0.12140776 0.32689658 -0.01711475 0.15900028 0.038180467 0.3549205 -0.017606879 -0.012327488 0.24914698 0.04372665 -0.15413743 0.054935608 -0.14188464 0.039272696 -0.07042193 0.0004053037 0.012430313 0.19124618 0.030297145 -0.019999586 0.12708916 0.28577143 0.17950906 0.14275599 -0.078403056 -0.008092041 -0.042087954 -0.00712713 -0.33530983 -0.10977241 -0.0626623
2 0.0012189394 -0.045141436 0.3299876 0.055687077 -0.031825382 -0.21768841 -0.13085929 0.013816195 -0.048538268 -0.1268873 0.22272666 0.012093239 0.045849778 0.056825537 -0.16752918 0.041392833 -0.12401876 0.12001365 -0.046190973 0.22195643 0.17127313 -0.0046451045 0.30051917 0.03324211 -0.049842793 0.25520352 -0.33255032 -0.11676996 -0.3038561 -0.06764695 -0.09253926 0.01889635 -0.19842723 -0.057894167 0.29300246 -0.073263474 0.17432635 0.047596827 0.2957794 0.054709945 -0.0002878554 0.22763883 0.040150505 -0.16107829 0.014928296 -0.18593885 0.07387922 -0.0076167798 -0.007306521 -0.028980227 0.086825974 -0.0062626754 0.005674922 0.13637924 0.23902805 0.23825966 0.23607628 -0.057354975 -0.047032416 -0.06068718 0.011737942 -0.3170313 -0.038392287 -0.065350816
8 -0.00025354573 -0.085546926 0.38213292 0.046096798 -0.07248412 -0.27683666 -0.12677938 0.08017717 -0.009642017 -0.09386325 0.28115523 0.034027092 0.11279886 0.06278036 -0.17148702 0.016920462 -0.14621593 0.16707484 -0.047665298 0.20863183 0.15267846 0.0085281795 0.23199649 -0.0068371864 -0.05842508 0.24967049 -0.3616326 -0.12745205 -0.2582747 -0.059663206 -0.10450902 -0.025872773 -0.20483838 -0.11538285 0.3357299 -0.024158087 0.15905614 0.048582047 0.3329584 -0.013349348 -0.02268682 0.25851697 0.041198723 -0.15321712 0.051446408 -0.17547582 0.04705832 -0.07041454 0.020516042 0.020915857 0.17789303 0.0357276 -0.053369984 0.113568276 0.28712168 0.20793487 0.16909659 -0.07086594 -0.015023501 -0.04243821 -0.0104374075 -0.3381832 -0.12994309 -0.09167176
