44 64
39 0.23419169 -0.008841987 0.23050536 0.17411195 -0.0054556257 -0.124740176 0.12410166 0.26015058 -0.1903616 -0.014713062 0.10089564 -0.17997716 0.078015104 0.11203861 0.019036602 0.0637733 -0.082634576 0.056538664 -0.118405774 0.012696076 0.22254328 0.1821336 0.39372793 -0.02572674 0.035207395 0.17946064 0.011671662 0.06665919 -0.11273448 -0.12912159 -0.18326242 0.03741509 -0.20014223 -0.36968967 -0.098897636 -0.088861145 -0.07620345 0.16537717 0.22469793 0.044699598 -0.10717059 0.0071671307 -0.12062552 -0.19640906 -0.039005037 0.1394751 -0.05448924 -0.03745472 0.012598675 0.33098504 -0.13686267 0.124166206 0.06443653 0.32015482 0.19764076 0.18875138 0.09996631 -0.1769959 -0.003339767 -0.024993824 0.2632798 -0.114979476 0.027682204 0.06739253
9 0.18748687 0.017985957 0.12592445 0.20906526 -0.03129882 -0.11913949 0.18214291 0.32748377 -0.18868984 -0.031908568 0.04851443 -0.09240364 0.16168518 0.0085349465 0.073193595 -0.1406688 -0.08928875 0.16096233 -0.100531064 -0.17671438 0.10908733 0.13617723 0.44079563 0.022395125 0.09964351 0.22643945 0.2324151 0.22070351 0.07525273 -0.15958576 -0.18310827 -0.025695499 -0.14287633 -0.32173407 -0.24960539 -0.06206251 -0.19245529 0.23571925 0.3089726 -0.0023492966 -0.04390024 -0.05756712 -0.22225852 -0.10911965 -0.025629546 0.1690582 0.043156203 -0.10900073 -0.0587378 0.35474893 -0.023511885 0.1984954 0.12318574 0.44901416 0.16514544 0.022970576 0.06746017 -0.2527868 0.06228866 -0.036790565 0.3325351 -0.055930253 0.059967797 0.012750675
30 0.17840044 0.0074536414 0.17682119 0.18740551 -0.0003320104 -0.1567842 0.15899502 0.27702796 -0.16278604 -0.024407385 0.08474375 -0.08049815 0.13685988 -0.014025575 0.035055786 -0.094540626 -0.09537121 0.14333732 -0.0884377 -0.12107477 0.13277252 0.13501437 0.44000635 0.005093901 0.079228275 0.22266941 0.15675424 0.21273082 0.046463728 -0.14294133 -0.18360054 -0.0093369195 -0.17114274 -0.29462993 -0.21253355 -0.07849172 -0.15661071 0.21523826 0.33701515 -0.0021176015 -0.04830028 -0.035152454 -0.19909102 -0.17241816 -0.013336008 0.1591899 0.05287949 -0.095811 -0.04884512 0.32193682 -0.026959509 0.1660967 0.072046846 0.42867666 0.19132294 0.039101724 0.079695396 -0.24047324 0.03528172 -0.03434682 0.3056255 -0.096775055 0.065686315 0.019671587
34 0.15800965 -0.020080093 0.13106006 0.19089875 0.00931599 -0.15690576 0.13049088 0.31122726 -0.16046937 -0.047316857 0.05186695 -0.0911786 0.18019618 -0.012554094 0.069678985 -0.13713622 -0.11896039 0.17303379 -0.09887526 -0.16639723 0.120480485 0.119800776 0.44330928 0.05175939 0.10335997 0.25614715 0.19266413 0.22467133 0.04821328 -0.15975681 -0.20518653 -0.051177334 -0.10785067 -0.28713956 -0.21009696 -0.045512185 -0.17437997 0.2330304 0.338975 -0.04316494 -0.042989638 -0.043661643 -0.23071668 -0.11732877 -0.00046718784 0.17402907 0.10563487 -0.08926007 -0.04169348 0.320674 -0.011593753 0.18940187 0.10163279 0.44391474 0.19182663 0.029025707 0.069947556 -0.25973135 0.058156136 -0.048654035 0.291401 -0.064010054 0.06419145 -0.014682157
31 0.05410403 -0.11356567 0.4975432 0.15609708 0.16697688 -0.3615844 -0.014887276 -0.12354797 -0.096372195 -0.16269648 0.32665074 -0.12654929 -0.13340068 -0.061364025 -0.15654221 0.13366318 -0.1129913 -0.14217414 -0.072256 0.3958169 0.23313464 0.17426428 0.34255183 -0.0020276506 -0.13395813 0.21782406 -0.44596696 0.063940786 -0.32158127 -0.12803914 -0.09664474 -0.0447873 -0.47221446 -0.21495244 0.22392663 -0.040163852 -0.010869623 0.04368198 0.57870835 0.24024627 -0.074813105 -0.016310895 0.05211574 -0.5662592 -0.025395285 -0.114420354 0.17202483 0.07669456 0.05106741 0.104804434 -0.071349695 0.09803602 -0.08184441 0.25242102 0.35036737 0.26044136 0.21493785 -0.19034554 -0.07846492 0.13735108 0.10092402 -0.3801106 -0.016110262 0.12883918
3 0.061551254 -0.10122115 0.52685535 0.18798606 0.13638751 -0.3520837 0.00032779295 -0.12682398 -0.090260625 -0.16768864 0.3162587 -0.12616593 -0.14647093 -0.07727208 -0.16059531 0.13147742 -0.09685527 -0.1550601 -0.08714061 0.3889527 0.22350638 0.17774509 0.3615367 -0.01383212 -0.11884775 0.22367491 -0.42094412 0.071556546 -0.31227314 -0.13046077 -0.08449802 -0.038032867 -0.5049239 -0.2344086 0.20932822 -0.05950343 -0.03303982 0.063105956 0.5877636 0.24034436 -0.08474732 -0.01646701 0.045240596 -0.5744572 -0.013468577 -0.1418487 0.15998977 0.0915773 0.029895851 0.10184823 -0.06429842 0.089231476 -0.08552411 0.28497866 0.3312253 0.23509413 0.20302236 -0.17248593 -0.09974697 0.16082983 0.088156775 -0.3760477 -0.002250358 0.1255063
40 0.042588234 -0.106418885 0.51738083 0.17975716 0.15320401 -0.3777972 -0.028583253 -0.12962118 -0.09007679 -0.18539667 0.3311044 -0.119205266 -0.11232765 -0.09609464 -0.15982153 0.0924065 -0.13480519 -0.13405354 -0.077202104 0.35987005 0.2137349 0.171201 0.35866022 0.011303746 -0.13136269 0.24498339 -0.42372003 0.09764357 -0.31672958 -0.119177945 -0.10312326 -0.053234927 -0.48466054 -0.20055552 0.22592926 -0.0600653 -0.03914069 0.044534992 0.6024122 0.24522427 -0.080418356 -0.019420043 0.029347453 -0.55308205 -0.02893877 -0.12920003 0.19937259 0.08145367 0.03726953 0.09466784 -0.04467008 0.08391976 -0.088516675 0.2839597 0.3403469 0.23815884 0.21487597 -0.20595212 -0.10140505 0.16132563 0.102621615 -0.38774815 0.0017059868 0.107842654
24 0.053651158 -0.11917335 0.4867735 0.16378547 0.17426844 -0.36140838 -0.028217744 -0.11097147 -0.098605365 -0.194615 0.29942587 -0.13573524 -0.08653653 -0.09364268 -0.1398867 0.08711071 -0.12923402 -0.115068816 -0.0480641 0.35596198 0.1980755 0.17335957 0.34364018 0.036255177 -0.12142077 0.25071424 -0.3849775 0.1020523 -0.29722923 -0.10584773 -0.09231579 -0.06192228 -0.4634445 -0.21356873 0.21106875 -0.04814181 -0.045483302 0.0580061 0.58519846 0.21000196 -0.08336703 -0.020108985 0.018641114 -0.5342291 0.005395397 -0.121518314 0.20259568 0.060051166 0.04332599 0.11970753 -0.05307695 0.10502294 -0.084098205 0.28112653 0.3336374 0.22245927 0.19258925 -0.20308281 -0.06574039 0.1307925 0.08255139 -0.35980877 -0.0037694578 0.09202909
16 0.15166609 -0.012199153 0.16120082 0.19070895 -0.01648135 -0.16942263 0.15582293 0.2581982 -0.18614864 -0.044688974 0.091347024 -0.06759454 0.113894194 -0.03231015 0.05470362 -0.14027433 -0.08275232 0.14019711 -0.092535965 -0.14951703 0.10692985 0.11699567 0.42722538 0.0468414 0.0963657 0.22429706 0.1799634 0.22142003 0.06567958 -0.17366919 -0.19665454 -0.044064615 -0.16157025 -0.29463786 -0.21509771 -0.053575557 -0.17407928 0.20404713 0.3524808 0.005240002 -0.036487017 -0.040581662 -0.22308202 -0.1670187 -0.00083519483 0.12881881 0.06048822 -0.08957743 -0.030243512 0.31610757 -0.0071852193 0.17652431 0.0942492 0.43477398 0.18607262 0.025987312 0.0672309 -0.25881046 0.043236602 0.017194174 0.30945083 -0.07912042 0.06221705 0.026304575
12 0.03724368 -0.073705584 0.5190796 0.2161018 0.1479131 -0.38118002 0.03376224 -0.17973068 -0.10371087 -0.17545033 0.30512962 -0.06589563 -0.1703588 -0.1038626 -0.16877927 0.09134046 -0.115743004 -0.15575266 -0.07236944 0.34244466 0.1931339 0.14911248 0.3769198 -0.035588816 -0.10439374 0.201377 -0.39429617 0.12836131 -0.26373896 -0.14639394 -0.07187606 -0.06721902 -0.5220049 -0.21081638 0.19184868 -0.07039453 -0.08890369 0.055065647 0.6280727 0.28188235 -0.0801115 -0.04675995 0.013188355 -0.6281257 -0.036503643 -0.1562428 0.18267812 0.07628071 0.004860903 0.12285971 -0.052179705 0.110122085 -0.08193184 0.30586904 0.3401412 0.18727931 0.20457383 -0.19392893 -0.10782933 0.2179446 0.10299265 -0.4379133 -0.016321182 0.10649638
15 0.08250478 -0.109774426 0.5005214 0.14598435 0.15476191 -0.32266548 -0.03293168 -0.12115183 -0.10429796 -0.16768195 0.29772392 -0.15654731 -0.12542304 -0.046351876 -0.15911391 0.11457076 -0.11968349 -0.14627649 -0.07521086 0.35225528 0.22530523 0.16855292 0.3504406 0.004490989 -0.1306761 0.23498327 -0.42001092 0.05000358 -0.32533318 -0.120329164 -0.09943863 -0.021190507 -0.47026414 -0.21844661 0.22455171 -0.065143235 -0.012985265 0.07219039 0.53624403 0.23463488 -0.07608883 -0.019786334 0.025852492 -0.5314633 -0.017943894 -0.12112691 0.16465622 0.064922534 0.0303042 0.11814584 -0.08591467 0.08949793 -0.078281395 0.25765872 0.32543534 0.26132923 0.21680562 -0.18686283 -0.089394845 0.13747756 0.10746862 -0.3657706 0.0054459507 0.12618892
7 0.027420752 -0.1274697 0.5633815 0.15826808 0.17793241 -0.40996954 -0.0492905 -0.1662331 -0.06805507 -0.2096107 0.3547594 -0.13609143 -0.13357204 -0.093368284 -0.19383316 0.12252331 -0.12927136 -0.15526544 -0.055943653 0.43111616 0.22048187 0.18832786 0.35105672 0.02253575 -0.16773105 0.26530585 -0.51317644 0.07229282 -0.36530545 -0.13125575 -0.09215847 -0.04414314 -0.5345578 -0.20618379 0.26642263 -0.037356205 0.00467776 0.043039195 0.6292397 0.25787082 -0.06563568 -0.022790026 0.050987996 -0.61902905 0.008846076 -0.15875003 0.19985396 0.09789613 0.06558907 0.07766887 -0.07840102 0.10428472 -0.12081284 0.27350387 0.37131143 0.289898 0.24935095 -0.19747135 -0.10526712 0.16422318 0.07416075 -0.3988365 -0.022124773 0.13780582
36 0.06522845 -0.1091108 0.5118497 0.16402224 0.1571628 -0.3547119 -0.023412187 -0.11380025 -0.08104787 -0.17296928 0.3105711 -0.14600194 -0.13359609 -0.056978386 -0.17160954 0.13568676 -0.11539549 -0.14468168 -0.06402171 0.39118537 0.23898546 0.17333822 0.35657915 -0.010376518 -0.14318152 0.23991877 -0.4303869 0.062679954 -0.32277465 -0.13230596 -0.0875805 -0.042978194 -0.50228566 -0.21207556 0.22831818 -0.041438837 -0.014982656 0.064047456 0.5831847 0.23081167 -0.09727673 -0.009776939 0.04466728 -0.5693524 -0.0037991777 -0.12727521 0.1766406 0.08162288 0.025762092 0.115468085 -0.0921626 0.08984258 -0.07943063 0.28389627 0.3504961 0.2537946 0.21930446 -0.17911735 -0.093510084 0.1253664 0.099001154 -0.39127457 -0.001798531 0.111139275
32 0.37756935 0.16116577 0.21505491 0.3148701 -0.13492975 0.009728775 0.3494992 0.1735819 -0.29854697 0.16168563 0.01832991 -0.06702675 -0.0950329 0.13754939 -0.027015068 0.06587875 0.025185974 -0.012462982 -0.20318645 -0.12531912 0.19745688 0.18574195 0.4337912 -0.2550704 0.083001964 0.0109719755 0.1908126 0.10618871 0.05744126 -0.20339657 -0.10450571 0.04600025 -0.32299072 -0.46577188 -0.32209533 -0.22215527 -0.29807726 0.122087784 0.1830967 0.23084518 -0.20396894 -0.11139194 -0.17237283 -0.30718127 -0.18757369 0.12207318 -0.33915344 -0.10520598 -0.11694497 0.42012277 -0.16108768 0.16604984 0.120174855 0.39223015 0.055509355 -0.025325835 0.011602617 -0.09447298 -0.055446208 0.17291822 0.40286607 -0.23001179 0.02271158 0.18032959
37 0.39622265 -0.10613585 0.20635766 0.0071041174 0.07727209 -0.066167355 -0.041692734 0.6150505 -0.23103693 -0.023876676 0.069227755 -0.47993395 0.36989802 0.34406456 0.18330097 0.2929451 -0.199227 0.17211275 -0.06338685 0.17740315 0.42238015 0.27160892 0.45772734 0.06400742 0.019393204 0.36291802 -0.06802463 -0.19875723 -0.32823685 -0.054756302 -0.33175653 0.21909668 -0.10460481 -0.5701204 0.01888564 -0.017293168 0.14400722 0.35473996 -0.056365762 -0.18086974 -0.06967828 0.19791152 -0.05700383 0.05449791 0.03697553 0.37330875 -0.092317075 -0.104851015 0.1596207 0.47162193 -0.28590617 0.05280374 0.15053968 0.28318918 0.27390894 0.64658034 0.12770003 -0.16199845 0.05709782 -0.4373469 0.30152005 0.07712625 0.06023872 0.07712064
5 0.05654905 -0.06166253 0.5188046 0.1972932 0.12534927 -0.35433036 0.01766722 -0.1653109 -0.10289516 -0.15442894 0.3020249 -0.07595277 -0.16574115 -0.104156174 -0.17372544 0.07484552 -0.095413476 -0.15063885 -0.07452814 0.32521412 0.20392753 0.1589596 0.35806218 -0.021793352 -0.11572685 0.19528638 -0.3938806 0.115312204 -0.25548413 -0.13500643 -0.09394689 -0.04675321 -0.496154 -0.20111392 0.19078386 -0.08830773 -0.09597109 0.05579902 0.61802435 0.27684316 -0.08629924 -0.05485618 0.025353996 -0.6041304 -0.051400345 -0.1475293 0.1451625 0.07703727 -0.0063990215 0.10885937 -0.043245945 0.10850885 -0.06306719 0.28943253 0.32399246 0.18688206 0.20264259 -0.19060256 -0.09145138 0.18731606 0.11259088 -0.41275793 -0.0004664232 0.11539496
14 0.048381757 -0.09539857 0.47153023 0.15454933 0.15911323 -0.34068346 -0.022245793 -0.08537506 -0.07041879 -0.16089919 0.30173877 -0.115956865 -0.086557575 -0.07325046 -0.15371262 0.09624505 -0.12857406 -0.10848456 -0.076694176 0.34412938 0.19441034 0.14379884 0.35620454 0.007871728 -0.12370245 0.23847571 -0.3844292 0.08263221 -0.29966727 -0.120613866 -0.09528813 -0.035519402 -0.45010483 -0.21416594 0.20398866 -0.04224812 -0.052192558 0.05432505 0.5495512 0.20260519 -0.09007249 -0.0055182986 -0.0049248217 -0.5219664 -0.002021661 -0.1088302 0.18538204 0.079153664 0.03400683 0.14291875 -0.06417643 0.10840756 -0.07264349 0.26644936 0.31899804 0.24628103 0.20641342 -0.18101078 -0.06446255 0.12944916 0.08902807 -0.33269137 -0.0022914158 0.108999506
20 0.37919354 -0.12419625 0.21597405 0.0032894118 0.09828657 -0.057823483 -0.0657598 0.5674324 -0.18793334 -0.036808033 0.09969743 -0.49387127 0.37607646 0.35015666 0.16257896 0.3149347 -0.19757335 0.14515465 -0.04894222 0.20732112 0.40491366 0.2647794 0.43745375 0.08425399 -8.648401e-05 0.34251893 -0.087300815 -0.21964036 -0.36761707 -0.048362087 -0.3081523 0.19344649 -0.10618786 -0.54623127 0.040210716 -0.031048499 0.13360867 0.29658058 -0.051685475 -0.17267977 -0.06176925 0.19520576 -0.049450118 0.028577339 0.033133913 0.33608544 -0.07150987 -0.081092864 0.17524134 0.43788296 -0.29748502 0.012863259 0.109416574 0.24255201 0.2701057 0.6560024 0.13134743 -0.16881706 0.05856809 -0.42002892 0.2821327 0.097237356 0.05866711 0.075365864
28 0.35216588 -0.11043528 0.20326452 0.017021157 0.09791731 -0.06967061 -0.039636303 0.50456226 -0.1985909 -0.028434549 0.09733321 -0.4366786 0.3015976 0.30637965 0.15038912 0.28952062 -0.19668922 0.14046822 -0.052760568 0.20241028 0.38885328 0.2604565 0.42160994 0.07305219 -0.009149278 0.33976755 -0.1041407 -0.18336274 -0.33294392 -0.030444602 -0.28832036 0.18425298 -0.11232827 -0.49961683 0.028048618 -0.03420407 0.13999525 0.30893362 0.015968973 -0.16030432 -0.08075534 0.17441025 -0.028301904 -0.005089416 0.015908826 0.29546672 -0.06493389 -0.08236045 0.14524779 0.40340587 -0.23526923 0.01868344 0.11968154 0.25953496 0.26174635 0.59537995 0.14779533 -0.16845863 0.026056012 -0.3843168 0.26200688 0.036827877 0.04351365 0.06900626
42 0.13016526 -0.017349875 0.23832436 0.16806826 0.023727382 -0.18179536 0.100628346 0.1709864 -0.1420261 -0.05319504 0.10085545 -0.072455496 0.05730847 -0.005054464 -0.01063187 -0.048325438 -0.09363088 0.06341554 -0.092810564 -0.027813407 0.12118352 0.11677846 0.3766176 0.020810258 0.024244623 0.2218416 0.01531487 0.16278559 -0.060702093 -0.15280889 -0.1379204 -0.048050202 -0.23175862 -0.24249804 -0.075141944 -0.069859244 -0.12448829 0.15506558 0.3694612 0.050688624 -0.062375702 -0.030295223 -0.11895729 -0.226505 -0.03004207 0.06353117 0.10375091 -0.03389114 -0.034629572 0.24546386 -0.014363816 0.1421433 0.031980954 0.3596276 0.21804401 0.094406314 0.10717689 -0.22145633 0.0060393047 0.025239738 0.23301461 -0.16749428 0.025729695 0.030965907
13 0.33192325 -0.117390975 0.19914493 0.023641996 0.09056889 -0.082077615 -0.039824504 0.5436973 -0.2038964 -0.036858056 0.097362205 -0.45923862 0.3649138 0.2905465 0.16642718 0.26985404 -0.18737653 0.16783574 -0.03750589 0.1900991 0.3699214 0.27409568 0.41348997 0.08806318 -0.00070720725 0.34519386 -0.096841335 -0.18761168 -0.3418111 -0.044497102 -0.30563357 0.19419748 -0.11436508 -0.5146976 0.047562897 0.0020008362 0.15196042 0.322656 -0.0029427588 -0.190604 -0.04482899 0.18734533 -0.040939882 0.04148386 0.05258915 0.33766052 -0.05250245 -0.09217377 0.16231154 0.42946383 -0.23827375 0.047052763 0.13172297 0.25118327 0.2845129 0.5962455 0.121354505 -0.16480304 0.05288024 -0.40799564 0.27121213 0.06326029 0.0649997 0.07568657
1 0.35103294 -0.14094804 0.18193235 0.0046782414 0.11120831 -0.07577755 -0.05447787 0.58004457 -0.21275303 -0.032117594 0.08241685 -0.4660242 0.38758793 0.31185156 0.1690488 0.2815224 -0.19606498 0.18440904 -0.03837117 0.17846501 0.40402877 0.26193342 0.44870052 0.107069895 0.022771295 0.36068586 -0.067533456 -0.18900295 -0.3506168 -0.041070215 -0.29374135 0.20206597 -0.087297 -0.5107531 0.027706062 -0.012759477 0.14500019 0.32071447 -0.008936344 -0.1920584 -0.04770372 0.19464183 -0.051394824 0.065815724 0.042406317 0.33224523 -0.028553797 -0.07802919 0.16550983 0.43513426 -0.26835167 0.034701962 0.1466301 0.25978994 0.2631125 0.6314723 0.14531265 -0.16889043 0.059479885 -0.43751004 0.30057943 0.08626317 0.07051769 0.07243377
25 0.3812411 -0.11493003 0.23404868 0.01849781 0.07053014 -0.076064624 -0.027095256 0.5098588 -0.19543907 -0.011422586 0.09941418 -0.44131407 0.29903966 0.32459062 0.12683877 0.30163267 -0.17997812 0.122712545 -0.06291402 0.19795258 0.40646464 0.2599204 0.40255246 0.026152829 -0.0019713654 0.29049644 -0.114237346 -0.20644918 -0.32239696 -0.03829409 -0.2693936 0.20875436 -0.12816925 -0.52088135 0.03601455 -0.035127763 0.12436018 0.2852949 -0.021737346 -0.12790646 -0.08645054 0.16867696 -0.027572405 -0.007438927 0.0112119485 0.28460392 -0.11360141 -0.08675649 0.1607663 0.4286868 -0.27684426 0.032499157 0.10053762 0.23244275 0.24958614 0.59214973 0.12857285 -0.13433431 0.019857164 -0.3555803 0.2800632 0.024948323 0.035433352 0.0945066
4 0.34723195 -0.115272895 0.20702443 0.0038667533 0.105228074 -0.067960106 -0.042354103 0.49643135 -0.19907904 -0.023233248 0.098822646 -0.44332153 0.30826893 0.3051131 0.13800626 0.2916429 -0.18354517 0.11334272 -0.041897908 0.1929345 0.38728145 0.2589686 0.40385938 0.049732737 -0.005791821 0.324697 -0.115520544 -0.17230096 -0.350468 -0.036579415 -0.26333308 0.19155885 -0.1263748 -0.49410972 0.035130475 -0.021632686 0.117110826 0.28458259 -0.016339162 -0.15885384 -0.08033515 0.1765439 -0.047589574 -0.005535946 0.008804775 0.2967326 -0.06301713 -0.06329901 0.1442474 0.40444538 -0.26683772 0.019161316 0.09365812 0.22965063 0.2484098 0.5886417 0.12545827 -0.16576721 0.022221353 -0.3681827 0.26417142 0.062100086 0.039152842 0.09600387
19 0.16139802 -0.018690525 0.16983151 0.20659907 0.020933129 -0.18006463 0.12651862 0.21819544 -0.14883338 -0.039379735 0.082315296 -0.09368649 0.09488017 -0.045844857 0.016110737 -0.10397369 -0.065648824 0.11207699 -0.09918614 -0.074750654 0.13052318 0.124704905 0.4172569 0.037711132 0.06954422 0.1986441 0.10647163 0.19957909 0.032262128 -0.16470914 -0.16921946 -0.030726843 -0.17875558 -0.25693697 -0.18321773 -0.060587626 -0.15014537 0.17006157 0.3683749 0.059633054 -0.056281973 -0.054509908 -0.18420458 -0.21412212 -0.030725498 0.10219254 0.07052218 -0.05578642 -0.050391223 0.29451898 -0.041474726 0.16578598 0.085657835 0.4116497 0.17830117 0.041360345 0.07607484 -0.24227211 0.017567828 0.039295815 0.2741421 -0.09913814 0.06518734 0.034136824
10 0.32624626 -0.14303467 0.20754841 0.0029454594 0.11212634 -0.08160213 -0.06345775 0.5365443 -0.17856099 -0.04599654 0.08757394 -0.4497327 0.32641897 0.30397815 0.13336036 0.2712017 -0.21302465 0.1525501 -0.04856724 0.16060916 0.38457724 0.2550487 0.41608256 0.098536335 -0.0012518732 0.35964534 -0.07848477 -0.18177925 -0.3382783 -0.04326588 -0.28392944 0.16404775 -0.09658888 -0.4921792 0.046940673 -0.001634393 0.13661203 0.29342145 -0.0053820163 -0.19271794 -0.056990597 0.16557178 -0.060206585 0.037715115 0.053662807 0.3099812 -0.032999616 -0.083671875 0.16894208 0.40304706 -0.24748686 0.0193312 0.10829523 0.25530645 0.27449217 0.58489573 0.12307468 -0.18907149 0.036515217 -0.38991582 0.26784143 0.07256183 0.05964459 0.06790975
8 0.21661527 0.018015364 0.14323537 0.19930518 -0.007527882 -0.099896766 0.17516594 0.30642956 -0.18940595 -0.00460055 0.055473227 -0.13526995 0.13754207 0.037584066 0.07098907 -0.05378378 -0.08443296 0.104428306 -0.12390154 -0.13026342 0.14060637 0.15243046 0.4032125 -0.015890613 0.07086962 0.18882437 0.17135239 0.16735905 0.029499847 -0.13041402 -0.19937414 0.0149343815 -0.17014839 -0.34000003 -0.22003004 -0.07869405 -0.15280348 0.218591 0.26154414 -0.0022036317 -0.06419624 -0.047927305 -0.1661743 -0.1354905 -0.040698625 0.16848199 -0.011521513 -0.09873984 -0.016997147 0.34100732 -0.054352976 0.14262153 0.09601722 0.3924562 0.17819688 0.060359724 0.08093675 -0.21789147 0.020591766 -0.041989267 0.30328897 -0.08726963 0.0524074 0.021517046
38 0.21986313 0.00528103 0.13536431 0.17446014 -0.029759217 -0.098893225 0.15734813 0.33031553 -0.20664774 0.0109010935 0.04821382 -0.14583163 0.16364175 0.050337095 0.08723942 -0.03539461 -0.08628858 0.12313815 -0.108652055 -0.1267156 0.15803811 0.1573368 0.40811253 0.029133603 0.09416607 0.19890127 0.18013611 0.13912785 0.016447345 -0.13060434 -0.19727966 0.008947301 -0.14407352 -0.3438112 -0.20938288 -0.069001935 -0.12196105 0.22474547 0.22831753 -0.004523038 -0.050292417 -0.034516625 -0.1733034 -0.11730231 -0.018645369 0.20166898 0.009204282 -0.08059005 -0.01571155 0.34964883 -0.05360664 0.17094126 0.10044297 0.39114988 0.17326987 0.095491946 0.08491786 -0.20246862 0.055109095 -0.055466373 0.3169314 -0.058093417 0.06758461 0.02852078
41 0.17003171 -0.0033040117 0.18155645 0.20692573 -0.0085852565 -0.15881918 0.15829787 0.22541049 -0.1527784 -0.051579878 0.06742311 -0.076219656 0.11503153 -0.024296332 0.046146117 -0.08773249 -0.09397671 0.10312572 -0.109999046 -0.11660302 0.117851675 0.1471718 0.4140357 0.023731336 0.07943075 0.21761331 0.15776013 0.21596593 0.043532316 -0.16611755 -0.18095961 -0.04875797 -0.1635532 -0.28595677 -0.20440647 -0.05387825 -0.15174264 0.18777016 0.3513869 0.03123486 -0.058294747 -0.052077387 -0.1866937 -0.18578345 -0.014416556 0.13777523 0.07155534 -0.08399682 -0.04224404 0.2909909 -0.016573045 0.18793556 0.07637391 0.40909886 0.17176813 0.03269827 0.091194324 -0.23272194 0.024461374 0.0042278115 0.27553967 -0.10767374 0.05978503 0.03657496
21 0.35131776 0.14909497 0.18833089 0.29388714 -0.14230359 0.026589317 0.36114213 0.22962005 -0.3151211 0.17752622 -0.01624703 -0.043616213 -0.056508515 0.14742297 0.024345038 -0.0032013017 0.038182802 0.036071338 -0.18681754 -0.20111078 0.1685485 0.21098775 0.38327834 -0.21199721 0.09569928 0.030531771 0.2424243 0.16387393 0.12827696 -0.19811696 -0.13997827 -0.0029962733 -0.27830714 -0.45582944 -0.33096418 -0.21896677 -0.28265613 0.18174529 0.21078528 0.22313769 -0.1796133 -0.121846944 -0.1787029 -0.26405695 -0.14795707 0.1646039 -0.27802566 -0.10252367 -0.1599503 0.423389 -0.12127718 0.19704479 0.16243748 0.3877987 0.05698565 -0.03685647 0.021211289 -0.12578122 -0.012232905 0.17240255 0.40348127 -0.22768785 -0.020283828 0.11524346
23 0.36308405 0.17455855 0.1657107 0.30955136 -0.17085391 0.023668984 0.3726336 0.18041514 -0.31511328 0.19294934 -0.03294735 -0.051811565 -0.077886805 0.13443196 -0.014396142 0.005735039 0.031442493 0.0098598795 -0.2163302 -0.22603703 0.16950625 0.22289221 0.41106254 -0.2078079 0.10906313 0.012563845 0.25927165 0.16112095 0.14362857 -0.2030672 -0.15031672 -0.027885994 -0.32088873 -0.46261072 -0.35908273 -0.21598017 -0.31396556 0.16535453 0.24178551 0.2515433 -0.20417199 -0.15315674 -0.19778834 -0.305341 -0.1713611 0.15801616 -0.31615305 -0.12238443 -0.17952335 0.41728023 -0.13944583 0.22286965 0.1704481 0.40127128 0.041916262 -0.074977875 0.015381927 -0.11857008 -0.027320817 0.20902795 0.39327183 -0.25095096 -0.010450957 0.12981723
11 0.3734659 0.15415134 0.1825096 0.30069414 -0.15921472 -0.005757363 0.36519417 0.19968791 -0.3340095 0.18418625 -0.03638082 -0.06565301 -0.083366886 0.14102952 0.014850017 0.0022379644 0.04185517 0.023627976 -0.21355014 -0.1983736 0.17061365 0.22040428 0.40215066 -0.20012656 0.12050082 0.025286112 0.26215222 0.17314538 0.14234076 -0.20140858 -0.14192511 -0.03540247 -0.31450626 -0.44622496 -0.36913553 -0.21915488 -0.31172946 0.17655225 0.22620957 0.26400015 -0.1932045 -0.14329149 -0.19110297 -0.3072079 -0.17424941 0.14032139 -0.2912973 -0.12891433 -0.16468285 0.4191605 -0.13143782 0.22860877 0.17011376 0.4295685 0.05969482 -0.066887416 0.015815018 -0.13889566 -0.031968407 0.22426893 0.3940852 -0.260552 -0.024789596 0.115924515
2 0.19010639 0.007851387 0.15744628 0.16899721 -0.0072784293 -0.12655693 0.135544 0.2944116 -0.16684896 -0.028078282 0.04691459 -0.12085811 0.13397811 0.038745098 0.0695975 -0.08628673 -0.10607555 0.13737932 -0.10445776 -0.12482824 0.14364831 0.1297585 0.41215187 0.022490643 0.067152485 0.2095258 0.16769277 0.18631603 0.018592354 -0.13423981 -0.19609748 -0.014820898 -0.15113316 -0.30519617 -0.19754703 -0.07310233 -0.15476078 0.21856976 0.27883697 -0.00695424 -0.06592645 -0.020398933 -0.19335717 -0.124648556 -0.017137758 0.1763288 0.043799974 -0.08406039 -0.021404086 0.31667078 -0.06447503 0.15499078 0.094187014 0.3991973 0.18667284 0.08426557 0.060169995 -0.20867206 0.02828283 -0.034698363 0.29060426 -0.058667336 0.06517342 0.028896322
27 0.38369462 0.13965774 0.144565 0.2661942 -0.12784347 0.01634591 0.3262929 0.2492496 -0.31250414 0.15492575 -0.041224416 -0.08344547 -0.023597766 0.16628166 0.019289488 0.016409058 0.027411237 0.04831234 -0.18945505 -0.20818855 0.19310506 0.1950136 0.40278003 -0.1959927 0.10043594 0.030523598 0.2513203 0.13058871 0.09404996 -0.1835317 -0.14756003 -0.007298578 -0.27532795 -0.46128595 -0.33694643 -0.21155532 -0.28902352 0.18041268 0.19684722 0.20443861 -0.20246428 -0.097603224 -0.20301373 -0.25197548 -0.14945959 0.1725192 -0.2899529 -0.12695605 -0.14659117 0.42762765 -0.15343846 0.210856 0.1679908 0.39205498 0.07380101 -0.008437544 0.0052899905 -0.12568314 -0.0057816026 0.15272918 0.38879225 -0.20511845 -0.0014340664 0.1084923
18 0.36202943 0.13516343 0.1714997 0.27183867 -0.13852236 0.019423787 0.31845847 0.24458963 -0.30520394 0.16050008 -0.019367754 -0.10076856 -0.035283916 0.18045941 0.038049202 0.032633156 0.017121438 0.029333467 -0.19539759 -0.16283704 0.18922392 0.21601464 0.37311983 -0.18155532 0.09322163 0.050567638 0.216695 0.1161584 0.06989479 -0.18286957 -0.14993402 0.023100037 -0.25951907 -0.46301046 -0.31502813 -0.2081311 -0.23309566 0.17919852 0.16464601 0.19010136 -0.19056186 -0.08228772 -0.15206239 -0.22723845 -0.13925704 0.17886683 -0.3026109 -0.09517325 -0.10921337 0.41867393 -0.16566782 0.18541363 0.16819145 0.35828283 0.051180422 0.02783325 0.0053121382 -0.11839358 -0.010754601 0.13128768 0.38380384 -0.19078858 -0.024657888 0.1358799
17 0.20353405 -0.019075187 0.1453953 0.15746412 -0.0002687564 -0.13258745 0.12700473 0.30138338 -0.17692517 -0.040344723 0.08407229 -0.15020877 0.14437878 0.05006858 0.07127268 -0.03236662 -0.10801594 0.11574946 -0.090696126 -0.088736296 0.14149946 0.14627263 0.41167936 0.040560193 0.08058549 0.22750326 0.12565392 0.1441903 -0.018377237 -0.12141282 -0.20686035 0.0094911335 -0.14446431 -0.32845476 -0.18281804 -0.051005248 -0.13314664 0.21334597 0.26248366 -0.0077305743 -0.06565796 -0.012476932 -0.15478586 -0.13178848 -0.01524061 0.18212274 0.044353567 -0.07657686 0.005164999 0.32819018 -0.059793774 0.14763083 0.07559641 0.38529888 0.18747273 0.09786641 0.08083416 -0.21663819 0.038740195 -0.05532227 0.28301632 -0.06750665 0.07502661 0.011137624
6 0.15066387 -0.018983832 0.15847485 0.16546929 0.013203406 -0.15275139 0.10474755 0.25077814 -0.1534969 -0.03914766 0.09720008 -0.10464918 0.13874766 -0.00199989 0.05883036 -0.059434514 -0.07866517 0.112708285 -0.07945014 -0.079396434 0.123685256 0.14848785 0.38586974 0.033478454 0.07062064 0.21187721 0.11551372 0.15122712 -0.025684975 -0.14720626 -0.17714393 -0.0235133 -0.14450729 -0.2795016 -0.16188069 -0.038828574 -0.10314479 0.19896798 0.30264717 -0.0113086095 -0.048178185 -0.038547833 -0.16550876 -0.15369259 -0.010399721 0.13660003 0.058625706 -0.063425384 -0.0052899094 0.3070809 -0.059489947 0.16129397 0.08280813 0.38491008 0.19208008 0.089648254 0.0773626 -0.21504484 0.027721046 -0.01926604 0.26268098 -0.073349655 0.05868973 0.010975902
29 0.29700348 0.12394824 0.31873074 0.3244105 -0.08948444 -0.11618666 0.3153362 0.05657093 -0.22626568 0.08274993 0.11748695 -0.014850546 -0.17220983 0.046827838 -0.10586682 0.06789085 0.010632405 -0.064483 -0.20045893 0.0077986224 0.16645968 0.17593655 0.4494989 -0.26967806 0.014963685 0.017103348 0.02435295 0.1523896 0.020739878 -0.20076498 -0.07878182 0.06615817 -0.3913973 -0.40005744 -0.21243718 -0.22750595 -0.28704748 0.035456516 0.3465464 0.26913327 -0.21202986 -0.15289696 -0.11038238 -0.40444428 -0.16849254 0.03923107 -0.24068895 -0.04937055 -0.077170685 0.3836189 -0.16041046 0.1304602 0.0037837084 0.39300713 0.0915439 -0.01336953 0.04240124 -0.11753735 -0.075108185 0.2007162 0.3560023 -0.30895743 0.030240465 0.20812589
22 0.21229133 0.016960831 0.12307738 0.181356 -0.006142483 -0.12802476 0.1824548 0.3505833 -0.19637813 -0.018362926 0.053563513 -0.12093007 0.18954672 0.013889015 0.101402104 -0.109076425 -0.074163914 0.16415687 -0.09335328 -0.16147612 0.13701785 0.14009987 0.44380957 0.039380834 0.12317184 0.23104905 0.24483049 0.20821264 0.08004581 -0.155039 -0.20714328 -0.006019212 -0.11041023 -0.32939565 -0.27066368 -0.08129249 -0.16927333 0.2503833 0.25994036 -0.03829992 -0.044231575 -0.035608724 -0.21948543 -0.08725187 -0.011527677 0.20860031 0.025084795 -0.10670375 -0.022149842 0.36855596 -0.052960314 0.19432662 0.12899908 0.43658596 0.15810435 0.05299937 0.06929397 -0.224967 0.05812876 -0.06796614 0.3307039 -0.034019355 0.077794574 -0.002430075
33 0.40780973 0.1501411 0.17627552 0.27862233 -0.14627832 0.055462234 0.36737573 0.2304197 -0.32170472 0.1951281 -0.047538236 -0.06196697 -0.054677088 0.18485476 0.0050238995 0.047807988 0.043602668 0.026472991 -0.22411494 -0.19144861 0.19916904 0.22777252 0.38771707 -0.24320553 0.099469595 0.012001397 0.24294046 0.11284764 0.1111511 -0.19583914 -0.15639985 0.010342589 -0.28003496 -0.46734777 -0.35781416 -0.22847563 -0.30256742 0.15353997 0.16037975 0.23616429 -0.1957001 -0.11708471 -0.18028693 -0.27284935 -0.17318769 0.16524827 -0.33260673 -0.124658294 -0.15624087 0.42437 -0.16446742 0.18394597 0.1655911 0.37904647 0.030275105 -0.031255413 -0.016941562 -0.109688126 -0.01746571 0.16140664 0.39455706 -0.21727826 -0.031108374 0.14152083
26 0.22022432 0.0044076024 0.12541488 0.17840035 -0.0051203356 -0.08173541 0.16983584 0.30687916 -0.19920148 -0.013993978 0.02382162 -0.13891111 0.1434497 0.048202682 0.08180454 -0.0691629 -0.102069326 0.14796114 -0.09942404 -0.1366521 0.15388921 0.15084793 0.4001204 0.01899557 0.083315276 0.20567511 0.20113474 0.17258507 0.025809342 -0.13033082 -0.20252322 0.001159337 -0.10279176 -0.3319268 -0.22063701 -0.08866065 -0.16377266 0.23154895 0.2093234 -0.013496161 -0.072944745 -0.031389326 -0.20270295 -0.074161015 -0.013113138 0.20147973 0.01629295 -0.09588097 -0.041260567 0.35657302 -0.06759201 0.1692319 0.115460746 0.38128856 0.1386581 0.07133341 0.070790395 -0.21872258 0.04802105 -0.07408843 0.32038054 -0.047194377 0.07738907 0.009136209
43 0.28398317 0.10594358 0.29769617 0.3316815 -0.08877021 -0.07716394 0.32106918 0.07422468 -0.24357347 0.10764453 0.099915035 -0.009158207 -0.18354437 0.05846616 -0.10315439 0.05119513 0.035851266 -0.06489945 -0.19489846 -0.0313775 0.18091463 0.162335 0.4494452 -0.27358773 0.04650191 0.01875966 0.06783566 0.15249087 0.02907232 -0.20243058 -0.08562404 0.052075457 -0.3772918 -0.4103255 -0.25899103 -0.23901303 -0.28456527 0.04853257 0.31655264 0.25960523 -0.22560744 -0.14496702 -0.1170584 -0.40686733 -0.18310794 0.048614495 -0.25626767 -0.077143155 -0.09597635 0.3779931 -0.15079878 0.13420661 0.046611264 0.40418017 0.08487862 -0.028274177 0.044187058 -0.095724165 -0.08452787 0.23741364 0.36117473 -0.29929334 0.0041320436 0.20579013
35 0.2849119 0.11892816 0.328964 0.31154552 -0.086708605 -0.111069344 0.2968308 0.031454887 -0.23928003 0.09313732 0.11627529 -0.008133571 -0.1784365 0.05865788 -0.112896144 0.052319143 0.036881413 -0.07038749 -0.17809105 -0.031922225 0.18877675 0.17336527 0.43136507 -0.27351287 0.025443071 0.023230104 0.032381665 0.13838536 0.029616095 -0.2140069 -0.08418038 0.039241303 -0.40080345 -0.37989172 -0.21878798 -0.21511887 -0.2850336 0.0491979 0.32469636 0.28000852 -0.21738134 -0.14957952 -0.10524473 -0.43354896 -0.17860332 0.019615846 -0.25071073 -0.07162833 -0.103680864 0.3720258 -0.12516096 0.14430039 0.022938987 0.3829185 0.08474957 -0.046307553 0.04085356 -0.10063024 -0.09640902 0.24522531 0.34713137 -0.30431652 -0.0033690888 0.16754004
0 0.3137485 0.11399436 0.30929697 0.33300862 -0.0790815 -0.08596126 0.31961223 0.098355345 -0.26637265 0.08292947 0.10572228 -0.024835005 -0.16196178 0.05186343 -0.1069657 0.04773229 0.017942078 -0.052992336 -0.18530342 -0.034870982 0.19416557 0.1544504 0.44448525 -0.27466187 0.028407805 0.019761316 0.07816072 0.13767432 0.027468806 -0.21194668 -0.077747755 0.05157088 -0.35475582 -0.43039617 -0.2628476 -0.226579 -0.27139294 0.072811306 0.31712615 0.25708064 -0.20202567 -0.15712444 -0.12873031 -0.38289368 -0.16066508 0.06656473 -0.2703504 -0.078992136 -0.08059125 0.38751656 -0.15838537 0.15931785 0.032165866 0.42159566 0.10117308 -0.04466251 0.04817075 -0.10080038 -0.08364331 0.2088962 0.38861957 -0.26936683 0.0041535837 0.20187216
