14 64
4 -0.02202247 -0.093580365 0.18906985 0.13664402 -0.035364684 -0.13983215 0.10715714 0.032136504 -0.12549658 -0.11491723 0.2052991 -0.0071224384 -0.072333254 0.037539564 -0.10704491 -0.02797655 -0.04170093 0.011579657 -0.034708124 0.0599688 0.143029 0.08187197 0.22290638 -0.07704069 0.06811177 0.13709787 -0.104741745 0.052486736 -0.13167441 -0.12094416 0.03027532 -0.07833542 -0.14120139 -0.136545 0.0150766205 0.087386526 0.084880985 0.05322105 0.20765056 0.00041741043 0.06537327 0.09014396 -0.09218672 -0.1728871 0.022741666 -0.09885838 0.022069719 -0.047134742 -0.0061833314 -0.005019673 0.030672539 0.0833189 -0.032461707 0.16473441 0.19896139 -0.10038167 0.056008786 -0.16375428 -0.030377675 0.054180417 0.09516875 -0.16175798 -0.077184886 0.03276907
13 -0.026433958 -0.10238192 0.19966355 0.14610454 -0.026022311 -0.14146419 0.11614691 0.033078916 -0.13388006 -0.13733216 0.22198048 -0.005420272 -0.061549246 0.03020745 -0.114559114 -0.040887874 -0.053166486 0.01538343 -0.015356675 0.095293015 0.13876162 0.08606558 0.24492362 -0.093905866 0.059441555 0.16909169 -0.11352274 0.049129106 -0.12974557 -0.12813015 0.061699647 -0.08023551 -0.18680084 -0.15043688 0.023340033 0.11179352 0.06787594 0.0738351 0.24014293 0.01793327 0.09890877 0.08161527 -0.085092835 -0.17642307 0.021385029 -0.11909803 0.038291443 -0.08139155 -0.022899754 -0.009854123 0.05160655 0.09727049 -0.01840168 0.19373854 0.20236987 -0.104629934 0.05838244 -0.1778351 -0.014789612 0.02963821 0.11816435 -0.17772216 -0.08814766 0.055095326
6 -0.017462555 -0.05502781 0.14234516 0.07773244 -0.013636446 -0.0993492 0.07350818 0.016380984 -0.07143047 -0.06619521 0.15092042 0.011782534 -0.03268807 0.008031104 -0.084519476 -0.01809559 -0.03820616 0.019602917 -0.005113001 0.049846742 0.09499828 0.05425873 0.16069783 -0.07038521 0.039742194 0.10436075 -0.07454857 0.044423345 -0.069227755 -0.06884065 0.02782543 -0.041267235 -0.121871285 -0.08091946 0.006774167 0.05411785 0.056666404 0.051826548 0.15786862 -0.0030390131 0.06791137 0.067740925 -0.060436092 -0.1304501 0.0237561 -0.057162482 0.024238974 -0.054919213 -0.021700189 -0.016800417 0.038169388 0.047311757 -0.033507943 0.119111985 0.13830586 -0.07529731 0.036766414 -0.11100289 -0.016747836 0.011084882 0.07299215 -0.12284222 -0.04774593 0.027909927
8 -0.013817622 -0.08935319 0.14439277 0.10581665 -0.0067116427 -0.10987924 0.06439122 0.01992916 -0.096148804 -0.0852086 0.14651631 -0.0064792195 -0.041862175 0.033347175 -0.08572206 -0.013249905 -0.05181573 0.016788056 -0.023580786 0.05812812 0.12312509 0.06131974 0.18523169 -0.07416939 0.056782346 0.13132139 -0.0967466 0.027857237 -0.11004216 -0.10027405 0.029879157 -0.07787259 -0.11617145 -0.11001625 0.029568864 0.08206539 0.04792288 0.057724614 0.17838348 -0.006740803 0.052043527 0.06534507 -0.076976195 -0.14043202 0.01899103 -0.075893864 0.03157902 -0.051372424 -0.020068675 -0.013143866 0.033817265 0.07133296 -0.015805978 0.14096926 0.15518114 -0.08206935 0.031098876 -0.12508634 -0.01950939 0.028370362 0.065890476 -0.14715852 -0.07145882 0.02451044
3 -0.020092776 -0.086313464 0.14297757 0.09609945 -0.0074965255 -0.11530863 0.09263864 0.014244748 -0.11145199 -0.076459795 0.17589825 0.0048306775 -0.0649796 0.031051867 -0.07822263 -0.012887571 -0.035534445 0.011546983 -0.021995675 0.07534339 0.12708488 0.06715108 0.17438048 -0.06607375 0.050150584 0.10714872 -0.10084552 0.0366634 -0.1001342 -0.10470806 0.027648808 -0.07765629 -0.118707456 -0.10247249 0.010967697 0.08422855 0.074483514 0.044999406 0.1877335 0.015689375 0.07652746 0.071156986 -0.054640595 -0.15243524 0.005000081 -0.06773428 0.030487522 -0.05732098 -0.0049346983 -0.023470912 0.041916147 0.07371228 -0.013120175 0.12474907 0.17251155 -0.07226522 0.04704846 -0.1398698 -0.008538651 0.030284077 0.09688833 -0.14934276 -0.0709108 0.047758356
2 -0.011958327 -0.06730583 0.13797882 0.09996319 -0.028385963 -0.08363356 0.07608911 0.017526323 -0.07691791 -0.07437518 0.13149902 -0.009693827 -0.0569665 0.01635657 -0.060068864 -0.0005238426 -0.017384347 -0.0042541963 -0.029775627 0.06764618 0.096355066 0.057351746 0.15488937 -0.058785144 0.0525649 0.099986434 -0.06559552 0.025340002 -0.0879605 -0.08170844 0.036171775 -0.052883785 -0.12063749 -0.10039845 0.0044381935 0.06138063 0.052049365 0.05841868 0.14920136 -0.0020280983 0.05377911 0.065030396 -0.04038787 -0.11578852 0.0217206 -0.076510966 0.023733739 -0.027737355 -0.013713558 -0.027779762 0.037661098 0.044757444 -0.01893139 0.12655391 0.12380383 -0.07096047 0.024381155 -0.09185648 -0.027115341 0.030387841 0.056172 -0.102374196 -0.040834114 0.031994898
11 -0.019181395 -0.08022886 0.15870185 0.10421449 -0.016525377 -0.11917779 0.06372249 0.010116137 -0.09600404 -0.09113007 0.17068061 -0.004351448 -0.04214587 0.0094848955 -0.084425576 -0.029437851 -0.050867613 0.010464415 -0.026731664 0.055580534 0.1116885 0.06761601 0.17055169 -0.058812 0.038272727 0.12543026 -0.093854465 0.042885546 -0.109211266 -0.08774715 0.025099322 -0.06955265 -0.12935936 -0.08816868 0.026169136 0.06399493 0.059155405 0.034694374 0.17884663 0.021899791 0.05944488 0.06697995 -0.062429298 -0.1253596 0.0040703123 -0.07664917 0.04016816 -0.04818725 -0.009151792 -0.030128065 0.047812436 0.05063116 -0.026337076 0.13468388 0.14874019 -0.07249136 0.04239081 -0.1345902 -0.035158195 0.045896634 0.088833995 -0.14429647 -0.05095102 0.0354554
0 -0.004550449 -0.06754929 0.11236251 0.08033577 0.0053799525 -0.08312005 0.053701136 -0.0012573553 -0.08402895 -0.079123326 0.1108567 -0.014604978 -0.030557545 0.0064294366 -0.053797077 -0.011412673 -0.03315435 0.0035430738 0.003232237 0.06082345 0.071790546 0.05819206 0.11528273 -0.037078906 0.02899513 0.089307226 -0.05614995 0.036163073 -0.07573758 -0.053153872 0.03771464 -0.062476344 -0.10450016 -0.08524435 0.01716538 0.0494884 0.030623736 0.023557847 0.13614137 0.0074472297 0.029612804 0.040865816 -0.03962534 -0.10550034 0.0216751 -0.06456471 0.026071586 -0.048278224 0.0011683344 -0.0039874455 0.02611554 0.0492682 -0.028565694 0.0999803 0.10815577 -0.07053158 0.012687165 -0.09085529 -0.008168966 0.028535604 0.045130905 -0.10810535 -0.049364276 0.020518597
7 -0.027592966 -0.08678597 0.13495606 0.08132164 -0.024496196 -0.10805817 0.071074486 0.01012139 -0.10446028 -0.083942644 0.16079731 0.009271274 -0.061707545 0.015656324 -0.07076235 -0.031998917 -0.03413183 0.01771745 -0.007566295 0.043614805 0.09521518 0.04303862 0.1640612 -0.04681677 0.05594214 0.11650848 -0.07128091 0.028093742 -0.07748055 -0.09936716 0.020844618 -0.063015595 -0.12050074 -0.101281434 0.013883013 0.08081166 0.05401569 0.046624687 0.16313653 -0.00873701 0.07374707 0.07837805 -0.07595472 -0.12554245 0.03305674 -0.087103896 0.01555303 -0.059325717 0.0019899148 -0.0160768 0.047888126 0.044854913 -0.014323578 0.12914655 0.14478591 -0.068655886 0.024765339 -0.13139254 -0.01624298 0.039940313 0.085852586 -0.11712986 -0.055353682 0.045811158
5 -0.031128224 -0.06948897 0.14394161 0.10433154 -0.0040654717 -0.11351899 0.08571029 -0.0008337414 -0.094755225 -0.100085855 0.14518134 0.010097773 -0.05501553 0.026340954 -0.06403571 -0.0039542527 -0.049546186 0.0028083308 -0.0016964461 0.06814502 0.10316035 0.045620248 0.17231895 -0.072364755 0.05930078 0.104912944 -0.08325951 0.036639396 -0.096383214 -0.0886043 0.04287312 -0.06266008 -0.12805428 -0.101631634 0.02435107 0.073933266 0.05630748 0.063055374 0.15716979 0.00401206 0.07538308 0.07676129 -0.059296757 -0.14683272 0.020079821 -0.08116647 0.04189773 -0.04608108 -0.008034681 -0.011336281 0.030715566 0.052289847 -0.020809812 0.12609789 0.15855587 -0.061200783 0.036758497 -0.11596825 -0.029914642 0.03453935 0.06474486 -0.14346978 -0.065337315 0.019391447
12 -0.005944414 -0.08885077 0.1679441 0.0909217 -0.00953465 -0.095241226 0.06913123 -0.002761367 -0.10809341 -0.09559554 0.16612221 -0.016930044 -0.06835843 0.026906349 -0.098561935 -0.03613579 -0.045529064 -0.004780778 -0.029179038 0.049017742 0.11265196 0.055295803 0.19117777 -0.06455096 0.043510467 0.13002644 -0.09891735 0.03096532 -0.113624565 -0.10292787 0.03149121 -0.055155978 -0.13614944 -0.09594323 0.028357748 0.062820874 0.06928134 0.06138894 0.17245941 0.01856778 0.078503124 0.060214248 -0.07828545 -0.13851479 0.014647056 -0.09128529 0.046001505 -0.06279471 -0.022733616 -0.016768942 0.03358268 0.064677276 -0.029030086 0.1360972 0.15827508 -0.07829822 0.0553774 -0.141297 -0.023753706 0.042586718 0.097694926 -0.14878349 -0.045176163 0.050771084
10 -0.0212738 -0.060804304 0.12247256 0.07255818 -0.02199765 -0.094374046 0.06118353 0.012383811 -0.068950064 -0.07446881 0.12495801 0.0012830655 -0.0333202 0.017504724 -0.074381225 -0.0315772 -0.02990143 0.018496826 -0.010511489 0.033969242 0.0721772 0.058404606 0.13035391 -0.040157966 0.026585033 0.105749965 -0.07680832 0.033641618 -0.078072175 -0.08473956 0.021502906 -0.05226831 -0.10871974 -0.08293294 0.00023670202 0.06359102 0.060460676 0.035460163 0.13331386 0.00988978 0.06470069 0.043479394 -0.061893668 -0.111507215 0.02998698 -0.061696947 0.007522886 -0.04312527 0.0065644397 -0.023500087 0.019343514 0.064519785 -0.030622363 0.11171995 0.12093705 -0.049908057 0.044148713 -0.10392842 -0.021185374 0.038821626 0.06621352 -0.09463816 -0.061982 0.0435572
9 -0.015116401 -0.06623313 0.11029316 0.07250914 -0.0044368114 -0.07988093 0.04999579 0.013944716 -0.056670938 -0.07342026 0.11753272 -0.016391784 -0.050303277 0.015934233 -0.07123603 -0.009689115 -0.024692455 0.001513906 -0.004867722 0.060440432 0.091414206 0.040111244 0.12752728 -0.05152923 0.021393491 0.0938396 -0.063754916 0.02364262 -0.07466335 -0.07585896 0.03149785 -0.05396984 -0.10671659 -0.059722614 0.018636966 0.06951149 0.052652467 0.040773243 0.13770299 -0.002420525 0.035120532 0.055481095 -0.039780166 -0.10642718 0.028853046 -0.06472289 0.035749123 -0.034260757 -0.017246285 -0.014591912 0.013342332 0.039959025 -0.012304375 0.11160112 0.12449509 -0.065018035 0.03366168 -0.086246066 -0.019174991 0.009674417 0.058430254 -0.10881209 -0.031842813 0.016475556
1 -0.009008432 -0.056781776 0.1406675 0.102356456 -0.018871501 -0.089940615 0.08189918 9.511558e-05 -0.09436271 -0.07961859 0.1510886 -0.0044690375 -0.05207924 0.018682502 -0.07703042 -0.013000357 -0.04348285 0.0024698589 -0.015819328 0.0578956 0.102406725 0.049180407 0.17229037 -0.06501961 0.048467416 0.11161243 -0.07110762 0.023798365 -0.10362188 -0.096324794 0.047242057 -0.062019173 -0.13620992 -0.097124994 0.00789127 0.08016622 0.04185164 0.053116426 0.1466817 0.0074413535 0.07213944 0.076822646 -0.073829815 -0.13961908 0.007523088 -0.08858699 0.011811984 -0.051422272 -0.012187456 -0.025988292 0.04358477 0.06054734 -0.011327715 0.12945232 0.14702637 -0.0838752 0.035419796 -0.112562306 -0.02809144 0.03208479 0.08044608 -0.12951718 -0.03963397 0.04649352
