18 64
13 -0.06846451 0.038465835 0.40188262 0.09518911 -0.13674362 -0.2438638 -0.056218036 0.030492738 -0.031274986 -0.16681169 0.3619888 0.08962652 -0.011782698 -0.07322741 -0.19551094 -0.14100799 -0.104547866 0.02980172 -0.060679995 0.06576489 0.13880754 -0.062187217 0.3372423 -0.06273217 0.04954559 0.22224845 -0.1828474 0.040974688 -0.12572947 -0.15942441 -0.12009781 -0.019157564 -0.24094976 -0.1598189 0.17653072 0.054177865 -0.052130245 0.06138616 0.23706195 0.044406194 0.10252491 0.22677748 -0.24273726 -0.29926077 0.05584089 -0.16601294 -0.048120897 -0.0058654356 -0.04010246 -0.03241773 0.10880509 0.06110007 -0.0032579189 0.1951405 0.2564891 0.0012558392 0.07521795 -0.17151505 0.007669937 0.07171754 0.03930112 -0.14846961 0.010599829 0.014143938
12 -0.07236063 0.04630185 0.41742322 0.096731916 -0.13418676 -0.24259791 -0.061879814 0.031612936 -0.02667156 -0.18671031 0.37849534 0.096688114 0.007833312 -0.0874796 -0.20316799 -0.15870708 -0.11748861 0.032710545 -0.044503033 0.09907797 0.12659219 -0.07184212 0.35758823 -0.076318584 0.036650464 0.25164124 -0.19001855 0.03298557 -0.11842783 -0.16443059 -0.09953854 -0.012511608 -0.2861274 -0.17102166 0.19305386 0.07091937 -0.08301122 0.07945963 0.25667265 0.06709476 0.1359157 0.22264807 -0.24174818 -0.3016544 0.05327481 -0.18470679 -0.03942601 -0.03431555 -0.0590047 -0.0378225 0.13168113 0.07093248 0.013869905 0.21769005 0.2529764 0.0093499925 0.076838784 -0.17682639 0.028065164 0.045919254 0.0540876 -0.15318397 0.0103462525 0.03417399
2 -0.058223557 0.031157224 0.31509504 0.059628192 -0.0941106 -0.19133282 -0.035560854 0.016652757 -0.013416854 -0.11473249 0.2810896 0.08743339 0.007727452 -0.072516 -0.15492736 -0.10431261 -0.088215806 0.037833203 -0.023571905 0.05423049 0.0999207 -0.04255718 0.26305702 -0.06499049 0.037256673 0.18125534 -0.13939689 0.042169522 -0.07182634 -0.1054042 -0.08011375 -0.0034433445 -0.20779182 -0.112302914 0.1237846 0.036101226 -0.036984794 0.06621562 0.1992915 0.023785686 0.10579489 0.17571898 -0.17906654 -0.2361609 0.054492295 -0.116458796 -0.026873784 -0.02929417 -0.04464701 -0.040772114 0.10282845 0.03368967 -0.017593035 0.15793929 0.19407107 -0.007993289 0.051431112 -0.13166809 0.0045595746 0.031222105 0.038022283 -0.123707265 0.0053321216 0.01735844
16 -0.055710558 0.015066085 0.33077264 0.07575238 -0.0958487 -0.2048237 -0.06611088 0.02116947 -0.025004836 -0.13443221 0.28755873 0.077204116 0.007141805 -0.05750536 -0.16354413 -0.11295182 -0.10586808 0.03562055 -0.046217114 0.061557297 0.12247561 -0.054103542 0.29103965 -0.063967325 0.04600723 0.21052335 -0.1668569 0.021528438 -0.1078465 -0.13869935 -0.096412145 -0.030516136 -0.20537606 -0.13836657 0.16287196 0.05748206 -0.06128591 0.06729338 0.21249995 0.030018752 0.091376156 0.18167776 -0.20847632 -0.2510454 0.049337894 -0.1360645 -0.02813985 -0.021809237 -0.046094578 -0.036639478 0.10222469 0.056598816 0.0052371426 0.1745549 0.21022645 0.0012541171 0.049522653 -0.14248015 0.011570107 0.047602538 0.026061952 -0.13994426 -0.0056301546 0.013712168
6 -0.06272847 0.017782813 0.32495207 0.0652146 -0.09747798 -0.20845538 -0.03826072 0.01629393 -0.038839206 -0.12485561 0.30957195 0.08871936 -0.01643699 -0.059926987 -0.15200143 -0.11102611 -0.086947106 0.030384699 -0.044038367 0.077293344 0.1235859 -0.048143174 0.27538636 -0.05427705 0.040723372 0.1840718 -0.16869453 0.02972954 -0.094730854 -0.14059511 -0.0985616 -0.028260104 -0.2039458 -0.13061279 0.14285333 0.05883421 -0.034531705 0.056298535 0.2183346 0.04949297 0.11353378 0.1847767 -0.18256596 -0.25820738 0.037535153 -0.1267513 -0.030146945 -0.025105195 -0.029800043 -0.046469867 0.10884218 0.057903264 0.008405086 0.1569993 0.22261968 0.012693275 0.06295472 -0.15256332 0.021433052 0.049260348 0.052316885 -0.13760881 -0.0060887155 0.03521454
1 -0.054401863 0.021753913 0.33103064 0.083185986 -0.11321648 -0.18699197 -0.037322033 0.019840507 -0.020228501 -0.12940747 0.2822291 0.0702251 -0.014752773 -0.06827096 -0.14373979 -0.09674905 -0.07371361 0.016580539 -0.051851768 0.076489896 0.107971676 -0.041724943 0.27353385 -0.056954216 0.047736235 0.18899918 -0.14260128 0.025826618 -0.09676099 -0.12613264 -0.07841989 -0.015475919 -0.21942227 -0.13787451 0.13082339 0.045763675 -0.043467306 0.07352309 0.20355721 0.03171482 0.09783513 0.18155755 -0.17158456 -0.2365769 0.05328665 -0.14121762 -0.02915791 -0.0059313565 -0.03972979 -0.052848876 0.107458934 0.03838268 -0.003520703 0.17355041 0.19267717 -0.0027823695 0.04613572 -0.1226635 -0.0015824353 0.052290566 0.026658991 -0.112166956 0.0123740425 0.025572944
4 -0.05395818 0.02224934 0.3145171 0.073253974 -0.09673653 -0.1930518 -0.058858253 0.01064388 -0.021175183 -0.12652968 0.2810793 0.06913239 0.005595284 -0.073177665 -0.145816 -0.11162538 -0.09451547 0.02373281 -0.048731983 0.055513196 0.103901535 -0.040724374 0.25213444 -0.04629219 0.02741119 0.18465796 -0.14779471 0.032952502 -0.1017557 -0.11327164 -0.08932676 -0.021690655 -0.19838977 -0.10653714 0.14385094 0.034369644 -0.045905057 0.041406766 0.19367604 0.051717702 0.08547262 0.16762583 -0.17335927 -0.21439102 0.028899005 -0.124845594 -0.016121097 -0.011581031 -0.033743493 -0.05086698 0.10586127 0.030657645 -0.0051288893 0.1540394 0.18431515 0.006576446 0.053736117 -0.13477205 -0.008275115 0.060392853 0.04098709 -0.12526257 0.015355821 0.019133493
9 -0.04568949 0.014017612 0.30740827 0.07131503 -0.07838059 -0.18705422 -0.048050515 0.0016256381 -0.03685863 -0.13825923 0.26601693 0.061177567 0.003009961 -0.07081949 -0.13833636 -0.10371423 -0.08885354 0.02136403 -0.021438602 0.07338768 0.090848096 -0.03549487 0.24276848 -0.040744256 0.029214568 0.18043847 -0.13460323 0.03700001 -0.0918047 -0.10451498 -0.069749944 -0.029527126 -0.20744692 -0.12848814 0.13895024 0.03944715 -0.05543886 0.043091744 0.19565564 0.041285943 0.078451775 0.15880272 -0.17003746 -0.2300954 0.051688146 -0.13261823 -0.0223525 -0.029748684 -0.024836019 -0.028711373 0.09409731 0.0463956 -0.014221394 0.15347621 0.1853803 -0.008809164 0.03748888 -0.12843357 0.014126126 0.05253726 0.023680635 -0.12573454 0.00017926338 0.017382944
15 -0.061737817 0.011630965 0.29299724 0.050868798 -0.10178807 -0.18497866 -0.05213728 0.009885801 -0.034811728 -0.12498819 0.27616197 0.08016642 -0.014704977 -0.067525886 -0.1357475 -0.11922516 -0.08079426 0.031342953 -0.027843624 0.047519665 0.08876992 -0.063337974 0.24762353 -0.034023568 0.040353432 0.1816844 -0.12902865 0.019022772 -0.07329493 -0.12840854 -0.09098928 -0.018590078 -0.19553025 -0.1200903 0.13420211 0.056081682 -0.04920507 0.05112177 0.18304369 0.027260093 0.10177673 0.17703664 -0.1877058 -0.21522693 0.057267237 -0.13791825 -0.03782783 -0.029208064 -0.02148715 -0.036540538 0.10597638 0.029782768 0.00755475 0.15273152 0.1841773 0.009260675 0.03915473 -0.13707727 0.012355371 0.054873418 0.044798337 -0.104171716 0.00943322 0.034178454
0 -0.06810601 0.028869322 0.30092847 0.07155606 -0.0826724 -0.1918463 -0.03637908 -0.0006147295 -0.024677342 -0.13826427 0.25994146 0.086084425 -0.007943938 -0.05739161 -0.12739886 -0.09091823 -0.095789276 0.019150412 -0.020592688 0.0681465 0.09603536 -0.062176324 0.2560902 -0.06021362 0.047762573 0.16866039 -0.1404421 0.028398903 -0.08743669 -0.11591048 -0.071592115 -0.015398068 -0.19987507 -0.12032508 0.14351618 0.047598954 -0.046186704 0.0703869 0.17726521 0.03528597 0.105991736 0.1771426 -0.17175986 -0.23626119 0.046123628 -0.13024072 -0.0125108715 -0.015859645 -0.031733893 -0.031699795 0.091086425 0.034112785 0.0006510896 0.14826758 0.19714235 0.018022709 0.0493506 -0.12196725 -0.0016831701 0.048660025 0.022577403 -0.12892526 -0.0023276177 0.006531691
17 -0.036749963 0.010911575 0.27908304 0.04600084 -0.077762485 -0.1461668 -0.052356157 -0.004149617 -0.028150499 -0.114085145 0.23708709 0.050408714 -0.017918205 -0.050295353 -0.1381929 -0.1076788 -0.07806249 0.008224412 -0.04335623 0.038662538 0.08624394 -0.050070547 0.23283362 -0.04111467 0.02591746 0.16596599 -0.13330682 0.016398072 -0.08919308 -0.11189937 -0.07514861 -0.0042106346 -0.176986 -0.09659921 0.1294286 0.02859235 -0.031841233 0.058743432 0.15904284 0.043226205 0.09220451 0.13740335 -0.16596338 -0.19307283 0.03679936 -0.12156136 -0.009019527 -0.024240436 -0.03928265 -0.032805704 0.07961431 0.037988678 -0.0058968947 0.13313055 0.1643813 0.00595769 0.057940587 -0.122007586 0.0033351977 0.051629167 0.04324016 -0.10940806 0.019075101 0.032663666
11 -0.06255515 0.023509264 0.31218308 0.06001551 -0.10383782 -0.19496374 -0.046287373 0.011657535 -0.017985828 -0.13093175 0.2717098 0.07761596 0.0017743773 -0.063695736 -0.15461983 -0.12296534 -0.08558935 0.035271425 -0.033178248 0.045304507 0.0868857 -0.038667504 0.24960344 -0.04054378 0.024929503 0.19369575 -0.15290575 0.032621983 -0.09086762 -0.13061225 -0.086202584 -0.016766207 -0.20798108 -0.1206931 0.124474585 0.051310554 -0.030802777 0.054775465 0.18745413 0.042984743 0.10944318 0.15905112 -0.18874633 -0.2308789 0.05941245 -0.12904026 -0.040809885 -0.02163347 -0.019649865 -0.049347494 0.088450104 0.058313757 -0.013372091 0.16040401 0.19092257 0.014581346 0.065655224 -0.13421062 -4.8095804e-05 0.061874654 0.038742196 -0.108803555 -0.008853985 0.038443882
7 -0.06367774 0.038847852 0.39012387 0.0766314 -0.112318866 -0.22428216 -0.08021499 0.02072966 -0.0016243262 -0.16696037 0.3465757 0.07246894 -0.011825773 -0.082857594 -0.19950393 -0.13176715 -0.10404913 0.01826001 -0.04194627 0.101770274 0.13486332 -0.08037074 0.320775 -0.067416295 0.016728995 0.22979341 -0.17906897 0.02414593 -0.11728432 -0.15925215 -0.10043651 -0.023082871 -0.26796904 -0.12925331 0.18962756 0.07110753 -0.06323035 0.068434246 0.23752111 0.05321721 0.09906165 0.22116184 -0.21959719 -0.29519022 0.06587462 -0.16880475 -0.022954384 -0.015147652 -0.059351828 -0.045814384 0.10247257 0.052011773 0.011037178 0.20064789 0.25052112 0.0034742337 0.07510421 -0.14619888 0.015938794 0.0380667 0.03875781 -0.15349522 0.035654 0.015767066
3 -0.04902496 0.06540829 0.37248048 0.08066582 -0.118364334 -0.19956167 -0.06729392 0.0027632185 -0.014346112 -0.14713198 0.3302523 0.07883978 -0.0014042932 -0.08087278 -0.17854494 -0.12327339 -0.108951755 0.013315843 -0.04943829 0.08549294 0.11716307 -0.084484115 0.31303567 -0.06243329 0.030255461 0.21092564 -0.15992998 0.0121900765 -0.12144909 -0.15431122 -0.09020622 -0.018402355 -0.2582104 -0.13823624 0.17081183 0.06196927 -0.08775323 0.06436201 0.1968036 0.06194601 0.11431936 0.219223 -0.22934113 -0.28711584 0.037054628 -0.1681793 -0.051704474 -0.017413447 -0.049872868 -0.052511215 0.11834226 0.055671982 0.017893165 0.17956445 0.2291958 0.0038672548 0.06450765 -0.13593642 0.013114135 0.051113885 0.038969286 -0.13666607 0.043126773 0.03518983
10 -0.0551485 0.05823689 0.38763043 0.06673818 -0.12492375 -0.22590175 -0.085742146 0.029651247 -0.016906995 -0.16544844 0.329648 0.09044238 -0.004111861 -0.08519103 -0.17997774 -0.13683093 -0.10801141 0.023045445 -0.055191528 0.09730514 0.1256383 -0.09182129 0.32229513 -0.071062535 0.030341126 0.22311571 -0.18012822 0.020451082 -0.10091321 -0.1568311 -0.11747458 -0.0031365638 -0.25146553 -0.14810246 0.19270557 0.06103954 -0.06570591 0.0759413 0.20325038 0.06760887 0.11095278 0.2174001 -0.22003159 -0.27365145 0.056141965 -0.14919208 -0.04159902 -0.023902375 -0.049332798 -0.038735867 0.106509686 0.06391481 0.014065343 0.19419293 0.23514129 0.026293533 0.06561317 -0.13473321 0.025087487 0.039900042 0.030972792 -0.14188321 0.033597883 0.02315145
8 -0.067850284 0.061624307 0.40925175 0.077498876 -0.13013771 -0.23305668 -0.08218265 0.0023549034 -0.0118601695 -0.16885987 0.35460338 0.0958119 -0.0063053453 -0.09976216 -0.18851918 -0.14956279 -0.10576109 0.017001268 -0.039378118 0.089044824 0.12977329 -0.08213072 0.32249448 -0.0516169 0.03214994 0.2167967 -0.19218543 0.028593345 -0.107425295 -0.14571255 -0.12167135 -0.0030466698 -0.25382093 -0.13384393 0.20172243 0.046149705 -0.08947684 0.074963205 0.24338044 0.066477306 0.12367629 0.2167543 -0.21796322 -0.30754432 0.039045632 -0.17754203 -0.043933634 -0.009150398 -0.057731334 -0.057642147 0.13083467 0.051298074 0.02225181 0.1831365 0.24683772 0.020443058 0.07531322 -0.15779884 0.023256302 0.040428586 0.034208845 -0.14861992 0.03757219 0.019961681
14 -0.062871434 0.046531137 0.32840183 0.05994989 -0.09092983 -0.18343362 -0.06887538 0.016025187 0.0005144716 -0.12331372 0.3038494 0.079440944 0.0015006419 -0.072995424 -0.16995658 -0.11754564 -0.093864374 0.018299045 -0.053125225 0.08455803 0.094918706 -0.07652853 0.26688036 -0.05464356 0.012411665 0.1896896 -0.15961643 0.020328594 -0.1102498 -0.12753634 -0.08643947 -0.0146698635 -0.22447386 -0.123553805 0.167024 0.054908976 -0.07387707 0.048064366 0.19435997 0.05517808 0.07836463 0.19059893 -0.20647082 -0.25555566 0.04851744 -0.1441313 -0.025877275 -0.0008579007 -0.047294207 -0.022247426 0.09982903 0.06408726 0.01634892 0.14474627 0.19740982 0.021048374 0.06948162 -0.115747064 0.026606118 0.058481988 0.018701 -0.115243636 0.014289737 0.027681103
5 -0.04752427 0.051556602 0.3696152 0.07310202 -0.11207199 -0.19628155 -0.077799976 0.017105812 0.0020768465 -0.15533893 0.3253497 0.06645647 0.015503468 -0.061412938 -0.17055412 -0.11681945 -0.09698142 0.010661746 -0.048972785 0.090273775 0.10594935 -0.07922543 0.30320942 -0.052954968 0.025093326 0.19822198 -0.15322371 0.014613959 -0.11117734 -0.151974 -0.107893184 -0.030415988 -0.24033445 -0.14738761 0.17227913 0.037638474 -0.083535455 0.044047154 0.1946511 0.065613605 0.10678896 0.2013183 -0.21560858 -0.2790039 0.048847035 -0.1483668 -0.03429007 -0.013886281 -0.044015367 -0.037711907 0.09140884 0.04225497 -0.006602844 0.16885456 0.22321205 0.025452841 0.061062984 -0.14356351 0.035126455 0.04948332 0.030174196 -0.11682069 0.027141733 0.012563034
