14 64
3 -0.020950794 -0.16453809 0.24756423 0.12469418 0.00086616393 -0.19291537 0.047851972 -0.030810248 -0.14716505 -0.1362742 0.22835292 -0.021996468 -0.05385855 -0.005230971 -0.13601048 -0.05188721 -0.092347585 0.033430614 -0.008673558 0.071376964 0.14616142 0.11060843 0.22936721 -0.050825678 0.04005564 0.24279012 -0.14718968 0.054780487 -0.16862352 -0.1479622 0.038331088 -0.1519672 -0.2329282 -0.13650626 0.037608214 0.11612562 0.08172998 0.045376427 0.28342497 0.009576386 0.085431695 0.092049405 -0.12476709 -0.2136761 0.07173353 -0.13151719 0.04498313 -0.10690991 0.018454324 -0.08558689 0.07497403 0.08289983 -0.073303334 0.22598656 0.21878245 -0.124997266 0.031022476 -0.19496793 -0.061486255 0.09791189 0.11164157 -0.22324136 -0.08962907 0.08378041
12 -0.020918585 -0.14907166 0.22036596 0.10853588 0.009769271 -0.16486298 0.039656598 -0.03024162 -0.12982512 -0.13390262 0.20646094 -0.017085785 -0.03014581 -0.017759405 -0.123568766 -0.060730245 -0.09219885 0.03513293 0.0130404355 0.087352075 0.113941304 0.096850134 0.2102627 -0.053616896 0.021848802 0.24215545 -0.13155311 0.042168755 -0.13894019 -0.13047746 0.059792917 -0.13154536 -0.24375418 -0.12447578 0.0399265 0.11947807 0.049483124 0.05516061 0.26900804 0.023649132 0.104176074 0.06855833 -0.10328144 -0.18046215 0.06376342 -0.13103786 0.051174115 -0.1266194 0.0019068164 -0.08358631 0.08752456 0.079203874 -0.052501567 0.21976478 0.18228078 -0.1100036 0.024486478 -0.17713583 -0.0403792 0.06310449 0.115870096 -0.20148478 -0.08286069 0.09631862
13 -0.016826147 -0.110845834 0.19519308 0.078205675 0.010219974 -0.14348882 0.03604252 -0.028902575 -0.09195803 -0.08485796 0.17626047 0.00068934966 -0.022343842 -0.022927664 -0.108528525 -0.032114074 -0.0770022 0.035360843 0.0108702425 0.065548174 0.10549224 0.079514325 0.17784159 -0.057181887 0.02491583 0.19014835 -0.10957562 0.045931034 -0.10358939 -0.095223784 0.03834269 -0.10071971 -0.20007317 -0.08956405 0.022400727 0.08153841 0.05528011 0.052467063 0.22442733 0.0020857858 0.0871352 0.07597203 -0.08679911 -0.16995491 0.060468733 -0.087183565 0.041149426 -0.10017388 -0.0056132353 -0.0816767 0.0766647 0.049687397 -0.06308558 0.17494452 0.16108882 -0.10014282 0.01740347 -0.13779277 -0.042847916 0.044336244 0.08753223 -0.17533684 -0.058838632 0.06861138
10 -0.008358509 -0.11201646 0.14188924 0.07176424 0.017449794 -0.11390718 0.00816201 -0.020672077 -0.083900675 -0.07339215 0.12107412 -0.013938168 -0.01586667 0.0008463013 -0.08336889 -0.024534188 -0.07180772 0.029110959 -0.0046238774 0.04859081 0.0964134 0.06412625 0.14471139 -0.04147998 0.026519775 0.16689347 -0.10112554 0.019440811 -0.10623022 -0.09344416 0.025471665 -0.10521835 -0.13996522 -0.083723664 0.037387706 0.080904275 0.03077339 0.03996689 0.1811887 -0.0016363341 0.04984343 0.048110567 -0.080414794 -0.12858096 0.043126147 -0.0746908 0.036285516 -0.07566189 -0.0025863545 -0.060107555 0.053617563 0.056034006 -0.034430485 0.14447387 0.12653027 -0.07695019 0.0064826803 -0.11247637 -0.03232347 0.04594613 0.057899788 -0.14800055 -0.06384363 0.04973508
0 -0.014083547 -0.09891683 0.12693544 0.059726287 0.01602108 -0.109447755 0.03781488 -0.024469357 -0.091140084 -0.05799414 0.13540858 -0.0012185031 -0.03786683 0.00081730576 -0.0653279 -0.015182489 -0.0492527 0.020598354 -0.0023923954 0.06554863 0.09396767 0.064307034 0.12248905 -0.03252985 0.0218453 0.12747882 -0.09571016 0.024730925 -0.08880233 -0.09069434 0.02391649 -0.09882212 -0.13046637 -0.07308669 0.014981693 0.07883295 0.0524776 0.027479349 0.17413166 0.017061546 0.06836693 0.05183536 -0.05005263 -0.13310999 0.02686182 -0.06047613 0.031060401 -0.072291404 0.012676012 -0.06573807 0.05626157 0.054684665 -0.027391763 0.11714406 0.13390338 -0.06159242 0.018424306 -0.112946376 -0.019566428 0.04299394 0.077572025 -0.1379429 -0.06025707 0.06557484
5 -0.0074071847 -0.09186198 0.14625531 0.07888104 -0.0066115316 -0.09413638 0.035679866 -0.01845525 -0.07421566 -0.068377115 0.11994914 -0.015729036 -0.03926414 -0.00982155 -0.06191217 -0.0065040714 -0.037517034 0.006264713 -0.013559377 0.06782678 0.08303277 0.06408417 0.13327989 -0.03725881 0.032362577 0.13779272 -0.07472907 0.019747028 -0.0919969 -0.082450666 0.03743515 -0.08317255 -0.15197758 -0.08694119 0.011007109 0.067141995 0.04006319 0.048979226 0.16456321 0.00090000127 0.057147026 0.057467192 -0.04683627 -0.11984584 0.043950837 -0.08105082 0.029149083 -0.052982736 0.0001387793 -0.07104908 0.058940634 0.03639123 -0.035984628 0.13921311 0.111797 -0.07452736 0.003239822 -0.087688036 -0.039119586 0.046179596 0.05285295 -0.1148984 -0.03857793 0.056342967
4 -0.014666267 -0.11075225 0.16207302 0.06987406 0.008437453 -0.12699834 0.0004936267 -0.032267403 -0.08480613 -0.08739166 0.1473036 -0.015992045 -0.016315812 -0.026731448 -0.0862796 -0.047149498 -0.073452376 0.023210824 -0.0047194855 0.044731803 0.08320488 0.07072288 0.13174707 -0.022980848 0.004996397 0.17089972 -0.09892075 0.035614144 -0.10695284 -0.08181393 0.020814247 -0.09913732 -0.16030225 -0.06181326 0.039368287 0.06365841 0.04171788 0.016487524 0.18772121 0.025763037 0.054828364 0.049043253 -0.06935653 -0.11176761 0.035916306 -0.0819294 0.049747504 -0.07606443 0.008485176 -0.0769743 0.06762936 0.032182273 -0.048739914 0.14549997 0.11997576 -0.06977744 0.016138278 -0.12572359 -0.050442778 0.06668118 0.08156718 -0.14768207 -0.042270582 0.060348976
11 -0.005261619 -0.12080664 0.16140342 0.07342956 0.027188864 -0.12404769 0.013595037 -0.04181927 -0.10233775 -0.10136203 0.1373734 -0.026234027 -0.019858884 -0.023392497 -0.08302931 -0.037617315 -0.069744974 0.020201683 0.021304168 0.06617932 0.07588121 0.07944901 0.12902153 -0.020376185 0.007759552 0.17124258 -0.089240275 0.040516112 -0.103566684 -0.0764874 0.04293703 -0.11139592 -0.17507797 -0.08706036 0.03498901 0.07156235 0.032753747 0.01963302 0.19660358 0.015256439 0.047849163 0.04297372 -0.068665735 -0.13537888 0.058579456 -0.09295976 0.0440388 -0.09459241 0.015908932 -0.057085335 0.056655828 0.05114776 -0.05890821 0.15019839 0.12755144 -0.090500206 0.0012279527 -0.12239762 -0.029693453 0.05958691 0.06526968 -0.15452787 -0.058467533 0.058927428
9 -0.021511232 -0.10055036 0.117751054 0.040569294 -0.0009601411 -0.102106914 0.011222899 -0.026202193 -0.08376406 -0.06828088 0.12273285 0.0007385853 -0.033760212 -0.0155577315 -0.062304802 -0.043112136 -0.047750033 0.02748497 0.012517149 0.027183989 0.05970835 0.039337385 0.108981006 -0.00929792 0.021694617 0.13614815 -0.06594119 0.019007338 -0.06402041 -0.08262126 0.012275745 -0.08028841 -0.1272924 -0.06581831 0.021477897 0.07119531 0.03421449 0.022593582 0.14854696 -0.004693137 0.0610231 0.0549153 -0.072928 -0.099214576 0.0544312 -0.078719944 0.018749166 -0.07512927 0.019327369 -0.05178666 0.057991944 0.024222486 -0.030121436 0.118559346 0.10426475 -0.0565486 0.000303516 -0.10912394 -0.025342172 0.052992996 0.07074195 -0.1044425 -0.04228567 0.061299905
8 -0.024893042 -0.08523736 0.13546517 0.07040705 0.019472867 -0.111448124 0.03224788 -0.03988571 -0.0792882 -0.08509828 0.113278985 0.003923712 -0.029598838 -0.0036326633 -0.05689425 -0.009949501 -0.066890135 0.012287698 0.016646244 0.05789586 0.07487533 0.043898866 0.12956487 -0.042052392 0.032342035 0.13104089 -0.08235389 0.026538022 -0.089205675 -0.07765192 0.03918785 -0.08437377 -0.14466931 -0.07430342 0.031135054 0.06934848 0.036417507 0.047479745 0.15064238 0.006562588 0.070675954 0.060146805 -0.059845805 -0.13204743 0.04099375 -0.077234946 0.04536356 -0.06514523 0.006974591 -0.053062912 0.047505528 0.034582075 -0.036444813 0.123368196 0.12626489 -0.054255705 0.010999512 -0.096794516 -0.041716482 0.048372585 0.051457297 -0.13952845 -0.054906018 0.038937327
1 -0.0034432001 -0.13678181 0.19557989 0.06673079 0.01809705 -0.12250727 0.0068984986 -0.050523084 -0.10900873 -0.10624293 0.1626553 -0.031899292 -0.04436955 -0.012164565 -0.11493828 -0.060391277 -0.07893171 0.012680034 -0.0044918703 0.046270132 0.095495045 0.07044831 0.1717945 -0.032075845 0.009884837 0.20354776 -0.119285725 0.028986797 -0.12751503 -0.11115685 0.032837126 -0.10172998 -0.19423838 -0.08129474 0.04558375 0.07536801 0.058537923 0.046980735 0.21027346 0.024507113 0.08278057 0.04843491 -0.09722806 -0.14577489 0.056776162 -0.10982723 0.060619425 -0.1041032 -0.0024498384 -0.075069025 0.060627043 0.05542824 -0.060394548 0.17096396 0.14919564 -0.087632485 0.031562902 -0.15018621 -0.0452822 0.07245104 0.1006009 -0.1743684 -0.046225887 0.085907005
2 -0.017977541 -0.090431385 0.13607197 0.05109422 -1.075687e-05 -0.10916632 0.014420794 -0.025784532 -0.06744095 -0.07537737 0.11620731 -0.0077084173 -0.015926786 -0.010782566 -0.08063514 -0.04449611 -0.0536461 0.02900659 0.006306341 0.029072596 0.057968203 0.06488266 0.11007028 -0.015393344 0.0034355843 0.15007484 -0.088057116 0.030108983 -0.08539172 -0.086328626 0.020241065 -0.083466664 -0.14283918 -0.06707181 0.012253404 0.06777553 0.050371647 0.023419244 0.15129723 0.013895895 0.06576208 0.03534715 -0.07301149 -0.11358533 0.05577573 -0.07033235 0.017486222 -0.06951827 0.021500884 -0.06587761 0.03901201 0.0533022 -0.05165739 0.12796248 0.10990938 -0.053441297 0.024718096 -0.10469637 -0.037340336 0.060289662 0.06488807 -0.110325925 -0.058344193 0.06655311
6 -0.014886182 -0.11339549 0.15254323 0.06439472 0.01633035 -0.11588588 0.011334846 -0.0244205 -0.07150661 -0.08952444 0.13804264 -0.025902873 -0.037758272 -0.012772074 -0.09516101 -0.031277806 -0.058180667 0.017479459 0.011320165 0.06477851 0.09352197 0.059639517 0.13618875 -0.03517431 0.0020145795 0.16688927 -0.092877135 0.02683599 -0.09844663 -0.09467226 0.03536037 -0.09910952 -0.16896224 -0.06005308 0.033792462 0.08774273 0.05237586 0.036122657 0.19040531 0.004243712 0.050685897 0.056524772 -0.06462182 -0.13204767 0.061638527 -0.08766959 0.050769523 -0.0757699 -0.0030183804 -0.06572805 0.043001436 0.040272046 -0.04029629 0.15474536 0.13853502 -0.08220191 0.020380016 -0.11160686 -0.03903956 0.03799423 0.07399915 -0.14915758 -0.039689425 0.05165228
7 -0.0024447541 -0.080053724 0.14042668 0.07422817 0.0053139166 -0.09440414 0.030599618 -0.039631642 -0.08515687 -0.06880926 0.12610884 -0.012793859 -0.029555572 -0.011294329 -0.07264341 -0.017995317 -0.06244473 0.012192514 0.0013419031 0.05302719 0.08048867 0.052968647 0.1365727 -0.03596599 0.024145126 0.14518127 -0.07471327 0.015452193 -0.10284136 -0.089866795 0.0453209 -0.09120878 -0.1601818 -0.07659373 0.015655147 0.079597116 0.024330055 0.038649037 0.15157488 0.009296815 0.067535855 0.06339824 -0.076238275 -0.13274844 0.031281825 -0.08902391 0.016984345 -0.073070936 0.004107733 -0.07082287 0.06331218 0.045799 -0.029466666 0.13464758 0.122054584 -0.08273695 0.008224477 -0.09883903 -0.041213438 0.049514182 0.0687087 -0.13331018 -0.032917514 0.068023264
