12 64
5 -0.013104694 -0.07537341 0.107368134 0.06810181 -0.035034135 -0.10048023 0.029780557 0.04034876 -0.0797324 -0.059528526 0.09900024 0.004129443 0.00235671 0.027124973 -0.06264338 -0.051777843 -0.029192714 0.039817173 -0.04521481 -0.023985617 0.0594445 0.08023919 0.1096546 -0.014203733 0.044487704 0.09484489 -0.08148262 0.046525095 -0.0741149 -0.05783386 -0.03218199 -0.04822449 -0.028165298 -0.10384309 0.011032518 0.014447316 0.05017001 0.00068728055 0.11832503 -0.0009546551 0.016262082 0.008380264 -0.0765113 -0.0642564 0.020225229 -0.027537527 -0.008905447 -0.022512456 0.023647524 0.010251525 0.010947515 0.06993966 -0.050603874 0.08161741 0.078984275 -0.032802623 0.025770241 -0.11337766 -0.0098649645 0.07253628 0.032890745 -0.06309165 -0.095351584 0.016854357
9 -0.012108908 -0.05859449 0.08394235 0.05739438 -0.0221542 -0.07213832 0.02689718 0.036653634 -0.061807793 -0.05928481 0.08152629 0.006114933 0.020819768 0.010492664 -0.04908152 -0.051690344 -0.028724035 0.035924487 -0.018912412 0.00776593 0.03252461 0.06590622 0.09325386 -0.022192514 0.024868764 0.0941127 -0.06294058 0.033374906 -0.046712 -0.040105786 1.0250325e-05 -0.031626713 -0.052558 -0.0898181 0.012885358 0.023603989 0.016586982 0.014173912 0.11004572 0.014059489 0.035831437 -0.0076194513 -0.047347955 -0.039038748 0.011821777 -0.03218524 0.002670246 -0.043296196 0.003289237 0.006497926 0.027572703 0.062248357 -0.026966851 0.08084234 0.048614092 -0.025289504 0.016971229 -0.09144938 0.008888327 0.03137984 0.038537756 -0.049247008 -0.081048384 0.029184474
6 -0.013885691 -0.06258222 0.11682857 0.05088311 -0.02237478 -0.09862005 0.030649336 0.032430712 -0.06084466 -0.042537525 0.106536396 0.020862812 0.021944867 0.00090229517 -0.06633503 -0.044787694 -0.034819085 0.048808105 -0.022688827 -0.0029172238 0.051449444 0.07925313 0.10927212 -0.031220637 0.0335984 0.10128773 -0.07762172 0.054112516 -0.045968644 -0.035739988 -0.01822163 -0.03464474 -0.060151126 -0.08761129 0.0039924365 0.007177757 0.042516798 0.015886996 0.13455853 -0.00089099136 0.04035615 0.013352739 -0.059848767 -0.07135361 0.026225246 -0.0155876605 0.0024663957 -0.04655794 0.0043146503 -0.010262176 0.036257986 0.05368503 -0.05950695 0.0863985 0.072530136 -0.039928637 0.017564282 -0.10350738 -0.0035579416 0.039199222 0.03948203 -0.07071707 -0.08366664 0.025354888
2 -0.0064811553 -0.067797974 0.06724062 0.041052703 -0.007707495 -0.06888313 -0.0022815638 0.025675971 -0.051443186 -0.033400014 0.05182074 0.003325573 0.017451068 0.02595825 -0.047073606 -0.033249684 -0.037921727 0.038317516 -0.03201678 -0.017035995 0.049397442 0.05182342 0.083956845 -0.019531641 0.03369148 0.08881005 -0.07284943 0.017892132 -0.05702505 -0.04824275 -0.02396251 -0.04687242 -0.01604881 -0.07349283 0.023950052 0.021433363 0.01940387 0.013828176 0.091616504 -0.008154553 0.01230653 -0.0032393902 -0.06313641 -0.04422773 0.015406848 -0.014243066 0.0030166563 -0.027623232 0.003966548 -0.000501208 0.013516043 0.056838848 -0.026023805 0.06453291 0.050867945 -0.02059421 0.008851402 -0.07719764 -0.0024029138 0.04046982 0.015078943 -0.057380304 -0.079406254 0.012339606
0 -0.0136931045 -0.0768761 0.08499305 0.047732063 -0.012104617 -0.09176502 0.034833416 0.028019298 -0.07991626 -0.034780156 0.09819818 0.01486768 -0.0009790086 0.021224655 -0.043637734 -0.03486634 -0.02347811 0.03844715 -0.03470531 0.010587476 0.06168436 0.07783147 0.08710553 -0.01484623 0.03366774 0.07809706 -0.08634466 0.03845613 -0.055667523 -0.053120915 -0.024844065 -0.05675484 -0.029629951 -0.0868193 0.0049595404 0.023458349 0.049424738 -0.00036027425 0.12796026 0.016270394 0.03610357 0.0029561904 -0.040289443 -0.06597736 0.003784032 -0.009261793 0.0034704106 -0.038061008 0.022542592 -0.011593724 0.02999067 0.06802219 -0.033196826 0.06347261 0.076890595 -0.020166287 0.02161493 -0.10601033 0.00995108 0.04941864 0.047375564 -0.06975962 -0.094908744 0.036664363
1 -0.009677624 -0.07814734 0.11818904 0.074986376 -0.036054004 -0.08862132 0.03424792 0.03425944 -0.070207395 -0.054847848 0.093099326 0.0009909315 -0.00013456045 0.00996995 -0.04689836 -0.031433117 -0.018435543 0.028200913 -0.04606604 0.0141654555 0.055179346 0.085109055 0.110327184 -0.022253769 0.04714241 0.10347831 -0.07386224 0.038003687 -0.06724905 -0.05087061 -0.009933415 -0.047856685 -0.062740676 -0.1108072 0.00392027 0.015925873 0.03935973 0.023698177 0.13305801 0.0010141054 0.02989392 0.010665734 -0.044915028 -0.06123442 0.025251463 -0.036329184 0.0035464873 -0.024430241 0.011654375 -0.019733047 0.036739472 0.055172805 -0.04749432 0.098403476 0.06322856 -0.037245445 0.007564794 -0.09164251 -0.013166646 0.05934691 0.026228907 -0.056506738 -0.08220347 0.030518968
10 -0.014643222 -0.08254405 0.12075979 0.06897591 -0.025173372 -0.11001184 0.012563856 0.027240103 -0.07719832 -0.06074062 0.10975728 0.0059026824 0.019795615 0.0031796887 -0.059872888 -0.056610826 -0.04511171 0.040977553 -0.04488569 -0.0070475074 0.05753954 0.088453904 0.10589997 -0.014299132 0.03029213 0.114530526 -0.0919805 0.049528647 -0.07809079 -0.047270153 -0.026543874 -0.056403853 -0.052981626 -0.089759916 0.023093425 0.009033038 0.03983921 -0.0040128184 0.14001796 0.022164945 0.026348092 0.0035429162 -0.05958382 -0.05278911 0.0062660095 -0.027157782 0.015018394 -0.034823965 0.018006457 -0.019668266 0.040847495 0.054563038 -0.052053675 0.09083626 0.06798776 -0.028047465 0.020203857 -0.11738394 -0.019760497 0.073346905 0.04578727 -0.07870049 -0.086932585 0.028758023
3 -0.0021978435 -0.0731117 0.09210616 0.05673048 -0.0016734978 -0.083887964 0.01895164 0.01288965 -0.07616333 -0.058670383 0.076409556 -0.004239573 0.017051449 0.00021199512 -0.0399674 -0.035649534 -0.031746335 0.029994834 -0.010732538 0.015213018 0.035354197 0.07936569 0.07422314 -0.0058253203 0.024387797 0.08695846 -0.06001465 0.04603512 -0.054567628 -0.024408385 -0.0019255207 -0.055096034 -0.05242689 -0.0910909 0.014917511 0.008784185 0.019195551 -0.006201623 0.118102945 0.009769931 0.00930861 -0.0046874057 -0.04056785 -0.05673455 0.02269524 -0.028132467 0.007987838 -0.043773904 0.022006432 0.0028337054 0.025883887 0.055188075 -0.051273458 0.071960986 0.05401528 -0.040580947 -0.0022831012 -0.08741497 0.0044440473 0.050880402 0.019269725 -0.06581343 -0.08107788 0.018813713
4 -0.018529957 -0.05568858 0.047671914 0.013290801 -0.02070035 -0.056131072 0.005006743 0.010040218 -0.051552515 -0.029217904 0.05761332 0.015643448 -0.007396563 0.0051590875 -0.025285402 -0.042651046 -0.01604757 0.030738257 -0.009249371 -0.022763094 0.017831173 0.024188012 0.052009393 0.007796068 0.027201569 0.061592326 -0.036386583 0.013524273 -0.019220471 -0.041683897 -0.024561571 -0.028259357 -0.022031859 -0.052600186 0.007013719 0.02137284 0.02107742 0.0028560464 0.064306505 -0.009392978 0.030343346 0.01275135 -0.051070224 -0.02648032 0.026996642 -0.026076717 -0.0100080315 -0.031314876 0.022928322 -0.004087517 0.024592338 0.021670958 -0.017827455 0.04562537 0.03644511 -0.007252267 0.0006250053 -0.06974581 4.8553684e-05 0.0429388 0.031837773 -0.023964832 -0.0490458 0.02965059
7 -0.022640835 -0.03936987 0.056867216 0.035763808 -0.0007101662 -0.06266345 0.0187379 -4.585668e-05 -0.04297465 -0.04498479 0.040984802 0.01874693 0.0016968407 0.017099509 -0.01876228 -0.016032306 -0.033232424 0.018343806 -0.0037478767 -0.0019181705 0.025107192 0.026575834 0.062429983 -0.01841991 0.033452522 0.05184328 -0.049568914 0.022042232 -0.037456226 -0.031155985 -0.0045716157 -0.027335696 -0.027303271 -0.055894237 0.0183271 0.013609798 0.022104766 0.020839538 0.058269143 0.0012109195 0.03322045 0.010449484 -0.03809069 -0.047575887 0.014988764 -0.019399172 0.015060159 -0.019336618 0.012845706 0.0023625025 0.008029948 0.030286439 -0.02515417 0.04274738 0.049415246 0.001159115 0.011492171 -0.055882886 -0.01279236 0.038476724 0.00937037 -0.04990082 -0.06260689 0.0028564574
11 0.0031020073 -0.05638017 0.07354208 0.02193475 -0.0071637137 -0.040955123 -0.00019050736 0.00042452433 -0.051369894 -0.037254713 0.052439418 -0.009424216 -0.008330918 0.016718157 -0.046587925 -0.04396405 -0.024809612 0.010425123 -0.031639483 -0.020290297 0.02984324 0.03728895 0.07132629 -0.006680101 0.016879508 0.07110559 -0.060186625 0.015405949 -0.05101389 -0.04042182 -0.016716465 -0.019927647 -0.028931305 -0.049716633 0.019958476 -8.919165e-05 0.031658478 0.015640132 0.067362964 0.013932151 0.028819352 -0.009791948 -0.050581336 -0.032502197 0.010302991 -0.025630424 0.016165052 -0.030055834 0.0009364852 -0.0027673633 0.008692505 0.040809408 -0.032773033 0.048255604 0.040637314 -0.013199798 0.02519331 -0.07260342 -0.005961369 0.046172734 0.033758774 -0.046460565 -0.04266754 0.030346753
8 -0.013699195 -0.039098743 0.05639852 0.019724919 -0.01911657 -0.05551626 0.007364052 0.012030363 -0.02947284 -0.03091728 0.0424382 0.0071799946 0.0112509215 0.011160032 -0.038733713 -0.04050359 -0.017812036 0.030094758 -0.015499854 -0.022248726 0.01222213 0.04569035 0.04468349 0.0027506966 0.007413249 0.06500946 -0.053122066 0.022604112 -0.03494381 -0.03996258 -0.0176267 -0.026022179 -0.028137177 -0.048361212 -0.0037120143 0.013872529 0.035089523 0.0020800987 0.0565082 0.008631636 0.030619582 -0.0098775625 -0.04553364 -0.034029156 0.02517506 -0.012241534 -0.012427647 -0.020697147 0.023809327 -0.014256178 0.0013984484 0.04817543 -0.036253963 0.046100583 0.035246592 -0.00024056851 0.024520298 -0.057408188 -0.00938888 0.04560686 0.021376742 -0.022417279 -0.06136126 0.030573744
