31 64
9 0.04082941 -0.026018826 0.30619735 0.079389654 -0.15714227 -0.17590293 -0.05755311 0.17503296 -0.050251838 0.010599259 0.21431985 -0.054944713 0.15391034 -0.041105628 -0.14312683 -0.005014959 -0.10758393 0.04898974 -0.089588724 -0.005979271 0.15740159 0.087305374 0.3444953 0.070331834 0.019403117 0.3002028 -0.23432784 -0.1009547 -0.06932146 -0.15393285 -0.16747199 0.086451225 -0.32802695 -0.25693735 0.1275745 0.11046458 0.17070308 0.16873571 0.28270057 0.001505146 0.1715148 0.087724574 -0.07769231 -0.21852532 0.04291358 -0.08602154 -0.095213436 -0.03252919 0.0045790486 -0.010666828 0.15435214 0.02872214 -0.010059758 0.22351852 0.21221328 0.21678971 0.25332427 -0.15116796 -0.074471086 -0.037427604 0.12357139 -0.105432235 -0.039179306 0.11710672
21 0.013895081 -0.03585268 0.31171268 0.04740345 -0.14283739 -0.17988276 -0.07506858 0.14718892 -0.0593261 -0.05058494 0.19650848 -0.023599768 0.14900018 -0.085798435 -0.15195405 -0.07110807 -0.1200587 0.05721685 -0.01794264 -0.0015698659 0.11974712 0.062267303 0.34006733 0.05088522 0.008024141 0.33991072 -0.22136791 -0.08178772 -0.00850158 -0.14038084 -0.13496368 0.113846414 -0.3588367 -0.23001753 0.15540041 0.1287163 0.1252875 0.2089109 0.2998226 0.007924516 0.2240731 0.048446737 -0.07451123 -0.18395601 0.07863856 -0.105369724 -0.06346179 -0.101867005 -0.025531638 -0.016883498 0.17160626 0.038721215 0.006673059 0.25871482 0.1894003 0.18703434 0.2241147 -0.15769401 -0.039373968 -0.093227096 0.14167678 -0.11971179 -0.02718622 0.13455509
22 0.0090536475 -0.023975 0.3317028 0.028605973 -0.13952121 -0.19685169 -0.07816463 0.13177711 -0.050424032 -0.039063174 0.19778179 -0.0012141668 0.14910628 -0.10211758 -0.16202797 -0.065130234 -0.12934777 0.06532001 -0.0061481963 -0.01883014 0.12509392 0.057649974 0.34481773 0.04169341 0.013366259 0.33942774 -0.22404835 -0.06354919 0.010413007 -0.12852854 -0.15139505 0.12384813 -0.3613146 -0.21249638 0.1521704 0.11232165 0.14460492 0.22005641 0.3037017 -0.009826538 0.23212306 0.06329309 -0.08217846 -0.20804285 0.09921412 -0.08527018 -0.061884966 -0.10955204 -0.028805172 -0.030404324 0.17524509 0.02744949 -0.018982913 0.25788233 0.20536388 0.17557546 0.22482361 -0.15222327 -0.04908648 -0.101846136 0.13233753 -0.14068556 -0.017092822 0.12256815
14 0.014761969 -0.054888222 0.30002427 0.048696835 -0.11856495 -0.18860994 -0.08978193 0.14345315 -0.06509517 -0.03637474 0.17178334 -0.020108188 0.15081628 -0.075807534 -0.14349933 -0.060509067 -0.12936208 0.06751996 -0.022496669 -0.01959203 0.13458885 0.061055124 0.32967404 0.041310005 0.020591566 0.34247527 -0.22917047 -0.07834246 -0.01835839 -0.14944215 -0.14521472 0.08721176 -0.32668245 -0.22816114 0.1602746 0.13396502 0.122482754 0.20742302 0.29360205 -0.013709561 0.20181206 0.048005626 -0.09402431 -0.19483823 0.089317076 -0.08668956 -0.060177132 -0.09393747 -0.019215764 -0.018299395 0.1641314 0.047122374 0.0029269366 0.25611946 0.19806252 0.17049186 0.20433004 -0.15241969 -0.04536699 -0.07662548 0.119578935 -0.13834037 -0.043691732 0.11761899
26 0.06353592 -0.026994634 0.27913728 0.09296147 -0.14600454 -0.15155672 -0.030375103 0.19843496 -0.04867187 0.09133147 0.24587174 -0.08409113 0.17655149 -0.010633092 -0.1100683 0.080233835 -0.096829705 0.041208424 -0.13822092 0.054181214 0.19124767 0.12918058 0.3433508 0.07931752 0.012591686 0.28178814 -0.2554757 -0.14176226 -0.11123329 -0.16393445 -0.1765192 0.05709398 -0.34327525 -0.2941644 0.09582163 0.12803523 0.20051384 0.15232936 0.2955858 0.013990797 0.16768196 0.11378017 -0.039215397 -0.24043615 -0.0042466256 -0.04984713 -0.11175006 -0.006301898 0.02068048 -0.03338512 0.17930084 0.017680274 0.009488043 0.19159621 0.21609409 0.2709029 0.27442554 -0.14275266 -0.08074296 -0.03454213 0.13976671 -0.085731134 -0.05411219 0.15561901
30 0.062431876 -0.02248835 0.29907012 0.10149514 -0.166916 -0.13826045 -0.033906568 0.18693016 -0.03591744 0.0631315 0.22693662 -0.08489832 0.16216286 -0.021924594 -0.105174795 0.07817522 -0.08578513 0.027726514 -0.13607058 0.056729224 0.17487127 0.121053375 0.3501607 0.06745856 0.026995616 0.2917741 -0.22886501 -0.13705632 -0.10794965 -0.15253688 -0.15784256 0.06944866 -0.35558942 -0.29514942 0.09362657 0.10962096 0.17953403 0.17484504 0.28208587 -0.00061203307 0.1616871 0.11850305 -0.03683863 -0.21844892 0.019469038 -0.07265284 -0.10337247 0.002842646 0.0045379135 -0.048367087 0.1768144 -0.0014634101 -0.002074143 0.21408443 0.18789189 0.24658725 0.24776596 -0.11646095 -0.09419371 -0.03675846 0.11381087 -0.06844705 -0.030309511 0.14175963
2 0.06423497 -0.024034621 0.30509773 0.097803436 -0.16017026 -0.16234013 -0.06347522 0.19009174 -0.035359826 0.06994812 0.24795473 -0.0909862 0.19338876 -0.02849289 -0.12831509 0.06490777 -0.118625 0.041828178 -0.14444037 0.038266346 0.18519057 0.12651217 0.35830498 0.087042525 0.006868363 0.309539 -0.25400782 -0.1399908 -0.12606533 -0.15006262 -0.17981496 0.06375647 -0.36223862 -0.28102154 0.11654119 0.1053263 0.18688683 0.14469275 0.29661503 0.021201873 0.15619019 0.11655763 -0.049981385 -0.21771875 -0.0054060766 -0.06799313 -0.100270815 -0.0027685661 0.012849125 -0.04776968 0.18345036 -0.009650837 -0.0053652367 0.20978555 0.19696184 0.2730145 0.27187 -0.14326169 -0.10899755 -0.023593003 0.13517554 -0.088472694 -0.0322265 0.14329849
10 0.030861761 -0.04855517 0.32101718 0.05646534 -0.120957635 -0.19196491 -0.08159455 0.13015053 -0.07061992 -0.045168966 0.18705893 -0.03940379 0.15331501 -0.08237793 -0.14063507 -0.043962456 -0.12639713 0.052193075 -0.020744283 0.0054156035 0.12628597 0.07894992 0.32212746 0.06709174 0.007931586 0.32950312 -0.22431536 -0.07449238 -0.031407464 -0.13136435 -0.1378918 0.08400984 -0.35250378 -0.24135675 0.15742356 0.11291778 0.13434102 0.18261154 0.2988177 0.0067367656 0.1885863 0.055290233 -0.071794905 -0.20741944 0.083882935 -0.09929565 -0.062708765 -0.09196934 -0.0001813903 -0.0132005885 0.1626613 0.037981626 -0.02191749 0.24437954 0.1989597 0.18315507 0.2127077 -0.15085398 -0.0505331 -0.061197482 0.115929104 -0.13665965 -0.037306007 0.11967935
24 0.006914336 -0.049606014 0.296876 0.03065467 -0.1443042 -0.18478054 -0.07808778 0.13294917 -0.069195814 -0.028694415 0.20159581 -0.016598525 0.12965511 -0.081122436 -0.1360469 -0.057539903 -0.11613971 0.060560912 -0.023519149 -0.023520777 0.11999845 0.054993547 0.32275033 0.07305371 0.020226318 0.3278887 -0.20877075 -0.08693898 -0.0083521 -0.14786856 -0.15793675 0.09345333 -0.33940312 -0.22714196 0.1419416 0.1286813 0.13914777 0.18895853 0.28631237 -0.015076462 0.21422789 0.07288817 -0.088502355 -0.18792197 0.090877585 -0.099060185 -0.0777964 -0.09402495 0.0025732208 -0.027484315 0.1762835 0.013574125 -0.0002304554 0.24072762 0.1925894 0.1925 0.2090343 -0.16179776 -0.051648296 -0.0635239 0.13937727 -0.10901212 -0.025688559 0.1384659
15 0.0056446344 -0.02884691 0.32168373 0.052545667 -0.12982935 -0.1973011 -0.070540875 0.12516668 -0.059222586 -0.046046373 0.18298124 -0.011107712 0.14425106 -0.07514627 -0.1354989 -0.035733722 -0.13658422 0.048740685 -0.017011287 -0.0037218877 0.1283769 0.052048914 0.3427297 0.04776594 0.024471998 0.3260443 -0.23443589 -0.083035424 -0.021546813 -0.14404379 -0.14345627 0.10529643 -0.3580318 -0.23424183 0.16614453 0.123139344 0.14849238 0.22035621 0.28722548 0.00093711924 0.2276155 0.07026926 -0.07387053 -0.21787325 0.08354102 -0.09629205 -0.052056227 -0.08498895 -0.011838756 -0.018829899 0.16526575 0.028872306 -0.008163358 0.24451213 0.21472245 0.2116249 0.23349388 -0.14476813 -0.06506867 -0.072212406 0.118076645 -0.14557184 -0.036835138 0.11363762
28 0.028820788 -0.044333372 0.30282465 0.027103629 -0.12075598 -0.15465987 -0.08833111 0.10945297 -0.05862013 -0.035614893 0.17499885 -0.037513975 0.116231725 -0.07096841 -0.14875852 -0.06207155 -0.1149855 0.034647334 -0.03665335 -0.023208337 0.12018802 0.04876907 0.3164812 0.05819134 0.006383296 0.31234437 -0.21729642 -0.08380809 -0.027632775 -0.13613632 -0.14099917 0.10605776 -0.32273945 -0.19681184 0.15336387 0.09670538 0.13578558 0.19478294 0.26656574 0.009526162 0.20238705 0.04573281 -0.07951654 -0.17971036 0.07069359 -0.09944516 -0.043907933 -0.087104 -0.02424017 -0.024122223 0.14996162 0.025648711 -0.009940059 0.22489072 0.18179175 0.17866492 0.22055937 -0.14867736 -0.05210645 -0.06276306 0.13174278 -0.12368828 -0.0069124545 0.12834425
3 0.018892998 -0.03344627 0.3101212 0.048801146 -0.14338341 -0.18637401 -0.07248868 0.14868703 -0.045514237 -0.014307415 0.18701398 -0.029346932 0.15573616 -0.06787089 -0.15121457 -0.04695005 -0.114213645 0.06194683 -0.04609283 -0.021858701 0.119041406 0.07672695 0.3193398 0.06915117 0.0012845615 0.3276975 -0.23554748 -0.083970994 -0.035914388 -0.15820469 -0.1507338 0.09048105 -0.34950468 -0.23431917 0.13066207 0.123501435 0.16233848 0.1840272 0.2806628 0.0076715313 0.20884947 0.05594391 -0.084631264 -0.2085056 0.083597936 -0.08689769 -0.083636925 -0.069363035 0.007728675 -0.03000576 0.15472113 0.049196195 -0.022224208 0.23983726 0.2014624 0.20797575 0.24301733 -0.14654262 -0.06484979 -0.04307861 0.12752204 -0.11021381 -0.04798172 0.14043035
5 0.018336505 -0.04792248 0.3061961 0.049009502 -0.12476275 -0.17698216 -0.0777123 0.13791722 -0.046135966 -0.03686408 0.19060907 -0.04275042 0.12586223 -0.07778444 -0.14771852 -0.039563905 -0.11062759 0.04518899 -0.022184392 0.0056667025 0.14195955 0.067694426 0.3213518 0.0516519 -3.9089653e-05 0.3262783 -0.21725523 -0.08071383 -0.023695376 -0.14582323 -0.13981214 0.089537926 -0.34534094 -0.20942813 0.14822437 0.13227035 0.14883721 0.19701311 0.2968494 -0.009553139 0.18971129 0.064501464 -0.067237064 -0.20121452 0.090413734 -0.09214559 -0.052703395 -0.07897627 -0.021443106 -0.027297854 0.15291764 0.021787897 -0.00021411182 0.25070417 0.20556672 0.17311727 0.22074588 -0.1457867 -0.058811974 -0.085312314 0.12927192 -0.12954618 -0.012267517 0.117636934
17 0.0628848 -0.008607442 0.29997784 0.1007633 -0.15564872 -0.14882527 -0.04157347 0.17752634 -0.052334003 0.05868986 0.22583134 -0.07769025 0.18193553 -0.04346844 -0.12486857 0.041720472 -0.11173448 0.038872056 -0.10943707 0.022084128 0.16428341 0.10147863 0.3586303 0.074778736 0.015935067 0.30949873 -0.23419774 -0.13764095 -0.09830193 -0.16767891 -0.15088853 0.08141297 -0.37951097 -0.28627428 0.107121006 0.13606283 0.16685288 0.17974007 0.2798835 0.00840849 0.19189428 0.10869579 -0.07319592 -0.24200538 0.017949412 -0.08925273 -0.11988988 -0.02450419 0.009138323 -0.033058483 0.19073065 0.02325181 0.010381378 0.22454588 0.21215528 0.2366469 0.2675205 -0.13431305 -0.09171504 -0.036357015 0.13907582 -0.09563614 -0.024963345 0.16032805
29 0.015998142 -0.02006249 0.31801033 0.023729784 -0.14260413 -0.1957369 -0.09726594 0.1385494 -0.05756577 -0.05415504 0.17089993 -0.0036466403 0.1335456 -0.09019313 -0.14271268 -0.06263726 -0.123878025 0.055833805 -0.026889129 0.005324147 0.12787132 0.033401974 0.33354276 0.03923444 0.014058576 0.32680288 -0.2336175 -0.08164943 0.0030607204 -0.14054298 -0.15843782 0.12447257 -0.34058827 -0.21677616 0.17471497 0.11932763 0.14333487 0.21881382 0.2699166 0.0135888215 0.21513934 0.06360965 -0.065449454 -0.17876469 0.089971215 -0.0830411 -0.059872452 -0.099408165 -0.018810933 -0.023642931 0.15491048 0.04399026 0.0019307247 0.25001824 0.1953789 0.20201033 0.21799855 -0.1229719 -0.041927952 -0.09650368 0.113648795 -0.13810092 -0.014334683 0.11600222
1 0.010910432 -0.026178164 0.32153872 0.04601896 -0.1437066 -0.19014868 -0.08234488 0.12515303 -0.058678426 -0.040327534 0.1953288 -0.01584095 0.13391484 -0.100429475 -0.13703191 -0.06493134 -0.10868629 0.048409592 -0.01626473 -0.0065810303 0.13467512 0.058038615 0.3245447 0.06848888 0.016325593 0.3130872 -0.23223406 -0.07810376 -0.0044819987 -0.1336024 -0.16141161 0.11856592 -0.3348827 -0.21078292 0.16240668 0.11074477 0.124615625 0.20862527 0.30487436 0.006629779 0.22410922 0.056641918 -0.061159957 -0.20978014 0.06774839 -0.103427276 -0.07238177 -0.075847104 -0.017836738 -0.03809695 0.18089591 0.023751298 0.015591404 0.23808914 0.20332968 0.19296557 0.22374874 -0.15368162 -0.046097267 -0.088558175 0.12885776 -0.12612483 -0.009361062 0.12285112
12 0.068585455 -0.010477561 0.28123626 0.10367825 -0.13982597 -0.14583656 -0.058491867 0.23326033 0.007271843 0.13461547 0.2354297 -0.09216713 0.20214003 -0.0057051377 -0.15458202 0.07709654 -0.097884476 0.044765644 -0.18756624 0.042712357 0.164003 0.07625927 0.34737965 0.09315477 -0.005694974 0.27430373 -0.27168003 -0.16791816 -0.14768313 -0.17890681 -0.15279976 0.0655629 -0.36938828 -0.2947817 0.114869855 0.1283683 0.18050534 0.1250554 0.28150585 0.022584898 0.12161067 0.13522276 -0.07754903 -0.26737136 -0.010801965 -0.09749966 -0.11058676 0.051607642 0.016327633 0.01958573 0.17023228 0.03900256 0.003502947 0.17470825 0.2140024 0.3059193 0.30160028 -0.11542194 -0.09113511 0.035593886 0.104966 -0.060253922 -0.07212901 0.15185124
4 0.07149635 -0.012457578 0.2994714 0.08791803 -0.15598163 -0.14007959 -0.061219532 0.18738133 -0.01904965 0.058361426 0.2336154 -0.09468412 0.19644251 -0.007714216 -0.12171619 0.06898361 -0.10232048 0.030468749 -0.13019854 0.04959064 0.1647379 0.0995562 0.3561168 0.08193607 0.011224619 0.28578934 -0.23300694 -0.1502399 -0.110970326 -0.1615213 -0.17276996 0.060052402 -0.35714588 -0.2931928 0.11272699 0.09843817 0.16183351 0.14576167 0.26935753 0.020512559 0.16858809 0.112265065 -0.05606442 -0.23350365 0.01084427 -0.07192071 -0.103440955 -0.007137692 0.010826035 -0.029904597 0.15518491 -0.00116088 -0.013455715 0.19883382 0.19963862 0.27363005 0.26109183 -0.13119306 -0.071184546 -0.03644953 0.1190879 -0.067722104 -0.034438707 0.12985048
13 0.069819264 -0.016582368 0.31083858 0.08155513 -0.16326883 -0.15670365 -0.058035035 0.18636495 -0.046291694 0.047723025 0.24678546 -0.08737378 0.17855832 -0.023850868 -0.12103801 0.062812716 -0.14025666 0.04553823 -0.11430432 0.04330721 0.18606286 0.1332684 0.38250455 0.08885465 0.0036382752 0.35323018 -0.26082513 -0.14332518 -0.09598823 -0.1420961 -0.19611655 0.08506313 -0.37574592 -0.3064446 0.11354825 0.12249431 0.20774259 0.20659164 0.31718957 -0.013242776 0.17479259 0.11510435 -0.05361904 -0.24844445 0.020773279 -0.07643541 -0.12141866 -0.04296273 0.0015630533 -0.040591467 0.20332126 -0.005694387 0.004048145 0.24259663 0.21396685 0.2835643 0.29711857 -0.16380978 -0.10329945 -0.07516659 0.123832956 -0.1006866 -0.04884735 0.1416803
8 0.06818266 -0.016190577 0.29601043 0.09213236 -0.15401152 -0.15647024 -0.057854887 0.22646303 -0.0143089825 0.105673015 0.20180969 -0.06868994 0.18263672 -0.0027993487 -0.15684913 0.055105776 -0.09665303 0.048724525 -0.15783194 0.01022012 0.15290548 0.06700733 0.34689394 0.08857469 0.0044617658 0.29150373 -0.2605864 -0.15174682 -0.1268334 -0.19076855 -0.13970457 0.060121868 -0.36404318 -0.2678923 0.12402705 0.109871775 0.18332316 0.13167112 0.28245142 0.010578193 0.14219806 0.11774937 -0.05024825 -0.23408417 -0.014584118 -0.10195856 -0.09274483 0.018869663 0.0077122776 -0.00034978215 0.18207863 0.025610605 -0.020312876 0.20075335 0.22459449 0.28436 0.28321674 -0.13967681 -0.0909465 0.0064958744 0.12623686 -0.09196117 -0.072277784 0.14049035
11 0.042209443 -0.011098269 0.3090601 0.10460814 -0.16703875 -0.15984601 -0.037401993 0.18256995 -0.055451047 0.05909345 0.2404241 -0.08077428 0.1945287 -0.045511257 -0.12077529 0.050629776 -0.09822537 0.052497447 -0.10397962 0.044079367 0.15825355 0.13274886 0.3487678 0.0727788 0.0035865752 0.3086262 -0.26598665 -0.14683929 -0.103876345 -0.16037178 -0.18409204 0.09310364 -0.38772938 -0.3029355 0.13601425 0.13454199 0.20244531 0.18776236 0.3000422 -0.004404754 0.1920978 0.11180713 -0.043801893 -0.22244497 0.03840431 -0.05787122 -0.12356287 -0.033524152 0.009431957 -0.0204844 0.19539212 0.020841187 0.013330249 0.210435 0.22131115 0.25816736 0.2634948 -0.12563924 -0.08779419 -0.05163884 0.12899041 -0.10272796 -0.032573283 0.15538122
6 0.051502265 -0.029029772 0.26710021 0.07804996 -0.13667485 -0.14558929 -0.05082182 0.17470042 -0.04580393 0.061097782 0.21295112 -0.07169101 0.17702039 -0.024990393 -0.12141342 0.06586622 -0.090967864 0.04915622 -0.108496495 0.050581362 0.17199974 0.09813841 0.34355003 0.08133575 0.021180643 0.27457893 -0.23088084 -0.13918555 -0.10965766 -0.13577318 -0.14447857 0.08628213 -0.33669373 -0.25266537 0.112333916 0.09735724 0.17060454 0.1443422 0.2789526 0.017744897 0.16375893 0.10948288 -0.03306575 -0.19539428 0.011798154 -0.08038971 -0.08451698 -0.0014142527 0.011240946 -0.03345413 0.14966583 -0.0026635134 0.014290584 0.1877073 0.17571889 0.2607619 0.26077244 -0.10674154 -0.07821878 -0.05299707 0.13057618 -0.084819876 -0.023974724 0.13651147
16 0.07945464 -0.039937764 0.30788785 0.075345226 -0.15686947 -0.17545848 -0.07022549 0.21563505 -0.0066888523 0.069842026 0.22030771 -0.08637301 0.194117 -0.0122858 -0.14343433 0.03677107 -0.11508883 0.053839695 -0.13251512 0.014611953 0.17682579 0.07890614 0.3311541 0.07998524 0.008916224 0.28012982 -0.2617339 -0.15296988 -0.08890424 -0.15890968 -0.15907651 0.08458421 -0.3388599 -0.27653798 0.12746501 0.12547919 0.1873163 0.16178784 0.27289107 0.008747428 0.1554629 0.1139099 -0.06372075 -0.23164192 0.018862998 -0.10134237 -0.10640112 -0.009698052 0.026096663 0.0035836834 0.16369256 0.031358745 -0.02127123 0.19501245 0.2170046 0.27632573 0.27671298 -0.12895381 -0.09206102 -0.011077801 0.1211385 -0.08708148 -0.06356894 0.12683861
7 0.0666723 -0.029570336 0.31244546 0.058391087 -0.14215434 -0.15847209 -0.056313742 0.18139534 -0.06235152 0.037870333 0.23982002 -0.09246429 0.18045789 -0.03194114 -0.12302116 0.044683114 -0.13008296 0.025619738 -0.086860955 0.023554854 0.18200071 0.12694377 0.3724165 0.06593363 0.012208413 0.35107684 -0.25994352 -0.11151318 -0.0986345 -0.14486903 -0.17391488 0.101989865 -0.38177916 -0.29788122 0.11565178 0.13179019 0.17511699 0.20902306 0.29567072 -0.025377939 0.17481577 0.11321352 -0.07943711 -0.23787531 0.023139985 -0.067469105 -0.09745182 -0.038702372 -0.0083040735 -0.0189827 0.16995591 0.004810731 -0.013877924 0.22770384 0.2027116 0.2714435 0.27140185 -0.17129375 -0.09887722 -0.07592045 0.13759415 -0.078695215 -0.047021963 0.16484588
27 0.0817267 -0.033566613 0.27903914 0.112588495 -0.13723458 -0.16652225 -0.068886474 0.22773635 -0.0113595985 0.10262542 0.20927612 -0.10198509 0.18907675 -0.030787341 -0.15302841 0.04847991 -0.08530206 0.05934836 -0.15473555 0.03431076 0.18013194 0.08133561 0.36584666 0.100144185 0.011368343 0.28271294 -0.26442122 -0.1546901 -0.105919376 -0.1868359 -0.15977482 0.0835171 -0.35545453 -0.27355283 0.10001013 0.12042188 0.19080004 0.1358052 0.29265308 0.029805476 0.14928898 0.11315327 -0.06876201 -0.25525013 -0.010868816 -0.09637167 -0.110874414 0.02212289 0.004926124 0.0052484525 0.15652286 0.01229342 0.0051484196 0.21803394 0.21047004 0.28244334 0.26882577 -0.14997096 -0.101735905 0.016013265 0.13278323 -0.06094823 -0.046791043 0.15494514
19 0.04246282 -0.04629792 0.3065769 0.050047927 -0.12972996 -0.1602069 -0.073517874 0.16160603 -0.048919175 0.0057444707 0.19731303 -0.06931417 0.13750684 -0.037944034 -0.14893806 0.0150497295 -0.13645563 0.039904818 -0.065950744 -0.011742534 0.16450879 0.10261579 0.34014705 0.07552493 0.011091724 0.33510527 -0.21736534 -0.11664099 -0.063186914 -0.13976945 -0.15607622 0.08396915 -0.33902982 -0.2603698 0.13480961 0.12441184 0.16538195 0.18134573 0.2668325 -0.02408274 0.17875053 0.069372796 -0.08357693 -0.19641106 0.06201582 -0.07332478 -0.097302794 -0.06883067 0.0058843936 -0.019257868 0.15344115 0.0021921962 -0.006024334 0.22810808 0.19496328 0.22550872 0.22895871 -0.16672361 -0.086054794 -0.0667753 0.13213417 -0.0930012 -0.026035951 0.14356276
20 0.05337785 -0.015754346 0.2774038 0.10462406 -0.13700722 -0.14632581 -0.033396136 0.20118657 -0.044109028 0.0547095 0.22119206 -0.089364626 0.19114111 -0.049174387 -0.11009701 0.030967358 -0.101444304 0.029129209 -0.12333013 0.00892894 0.1473994 0.106986605 0.3290695 0.069452755 0.0014678804 0.29277125 -0.22693463 -0.117917635 -0.07399548 -0.1460314 -0.1687794 0.092524484 -0.37130007 -0.28287068 0.098595254 0.13200337 0.18194808 0.18027616 0.29080364 -0.0067052892 0.18630272 0.0878217 -0.046121243 -0.22473946 0.020229971 -0.0827002 -0.11137048 -0.028337104 0.025167532 -0.021693205 0.19042484 0.005630893 0.005472794 0.2115033 0.21891169 0.22958872 0.27680412 -0.14576158 -0.09348826 -0.04261037 0.12491079 -0.09534079 -0.045706622 0.1339339
23 0.04380427 -0.024764748 0.28848213 0.08624049 -0.15705071 -0.16283213 -0.043448724 0.18543956 -0.061234757 0.04530409 0.21678732 -0.06623409 0.18013172 -0.06340134 -0.11400882 0.022723459 -0.101524904 0.03723875 -0.09386394 0.0064758784 0.1487537 0.0978674 0.341383 0.08632506 0.023509499 0.29465017 -0.21373592 -0.11275816 -0.060054854 -0.14823101 -0.15724383 0.0882348 -0.35445794 -0.27060333 0.106047794 0.12556393 0.17676672 0.17434599 0.28339252 0.007071686 0.19100128 0.07349912 -0.05996849 -0.22802936 0.046908177 -0.060565185 -0.08240105 -0.02481142 0.0159431 -0.008829985 0.18407246 0.03820251 -0.008274535 0.23197216 0.20797963 0.22098964 0.26196384 -0.12922588 -0.05895883 -0.03783557 0.14121154 -0.093540214 -0.022154078 0.14344202
18 0.06129603 -0.036287982 0.32511866 0.09792717 -0.15064962 -0.1680533 -0.044853214 0.16787697 -0.036859095 0.016848631 0.21067654 -0.06334192 0.18078049 -0.058190998 -0.12276897 0.034862336 -0.124802634 0.03403294 -0.0968319 0.004159736 0.16431367 0.1277488 0.356386 0.07376612 0.012897447 0.33612373 -0.22693065 -0.103673145 -0.062497355 -0.16863419 -0.17369395 0.07859142 -0.34833166 -0.28306735 0.10976574 0.14037873 0.19645673 0.18201928 0.31352758 -0.006494745 0.1764503 0.0899771 -0.0661532 -0.23616959 0.047742397 -0.06607443 -0.08761321 -0.055193447 -0.0008251575 -0.026119083 0.19908336 0.031851634 -0.010160123 0.23206326 0.20343706 0.23661499 0.27889162 -0.15853703 -0.093549095 -0.06066301 0.12872171 -0.10530993 -0.033253282 0.16194451
25 0.04227118 -0.022146093 0.32432038 0.09437902 -0.14766571 -0.14857101 -0.031676855 0.19587594 -0.06341077 0.055938587 0.23230328 -0.052543484 0.17479993 -0.04416617 -0.11478434 0.01615709 -0.097396076 0.050793063 -0.079350956 0.011269998 0.15339543 0.120125234 0.3329584 0.06090379 -0.0014225456 0.31618834 -0.24869299 -0.10639747 -0.061867066 -0.16273591 -0.1638905 0.090610266 -0.36974916 -0.2961108 0.13325371 0.12412628 0.19087175 0.2005495 0.30400714 0.006818939 0.19576907 0.0875831 -0.057628244 -0.23278257 0.05053509 -0.06697122 -0.099408455 -0.025360843 -0.0078496095 -0.009593493 0.20113797 0.01979433 0.0039363904 0.21913603 0.21725383 0.24335988 0.28164005 -0.1446247 -0.07818027 -0.042322338 0.14761889 -0.11324485 -0.051221233 0.14218867
0 0.045909945 -0.019256305 0.29284456 0.055833492 -0.16298486 -0.15516648 -0.071508534 0.15271379 -0.035924803 0.040918164 0.21364313 -0.07668135 0.17073296 -0.04137159 -0.15423466 0.035426553 -0.13506581 0.032863375 -0.09085138 0.0052897544 0.16489716 0.112116665 0.35950628 0.086819045 0.010644993 0.32229075 -0.2464006 -0.13506363 -0.065858856 -0.1413522 -0.1846548 0.08178609 -0.37343472 -0.27588022 0.13711298 0.13285871 0.1777647 0.19133176 0.3042405 -0.008250427 0.17888458 0.07970021 -0.06658919 -0.22453508 0.04042533 -0.06840349 -0.104225166 -0.05420663 -0.013807556 -0.031621248 0.16428126 0.014217867 -0.002057753 0.2143797 0.1948996 0.2467472 0.2664676 -0.14019445 -0.085460424 -0.06997362 0.116583675 -0.09966244 -0.032327987 0.13940124
