16 64
2 -0.05981908 -0.09087016 0.39238283 0.15593499 -0.08436556 -0.3314706 0.00344186 -0.057319794 -0.14620003 -0.2691873 0.2755183 0.028522812 -0.037332047 -0.13157438 -0.15221116 -0.13908213 -0.11141905 0.051959224 0.08098074 0.098894924 0.13960958 0.1116039 0.24718012 -0.0033729281 0.029151507 0.2982038 -0.1866149 0.11460056 -0.123699255 -0.12419991 -0.0060009183 -0.1067415 -0.32304072 -0.15014708 0.10265887 0.1128892 0.035652094 0.06955962 0.34923348 0.036634196 0.11805931 0.12735344 -0.11945863 -0.28962553 0.11448454 -0.20498833 -0.033352677 -0.1054802 0.052622825 -0.13842696 0.11719035 0.08271427 -0.076071054 0.3054322 0.26972848 -0.113870725 0.02312046 -0.20402995 -0.08538723 0.07632989 0.06634809 -0.2498044 -0.056535296 0.052673176
5 -0.055244174 -0.07796861 0.3227882 0.13261108 -0.065143324 -0.2693196 0.009385463 -0.041410986 -0.122247376 -0.23315518 0.23455425 0.03197594 -0.0024998975 -0.11990911 -0.123972364 -0.13171448 -0.099639334 0.053733516 0.083217606 0.103545584 0.093310975 0.10253063 0.20940384 -0.011219229 0.014267069 0.26941225 -0.15546976 0.09493929 -0.08912175 -0.095030956 0.02008333 -0.08289367 -0.29716516 -0.13697001 0.084635146 0.10204192 0.005626143 0.06761733 0.31017572 0.049239572 0.1289687 0.08384912 -0.08655952 -0.22289704 0.08814606 -0.17746912 -0.017987018 -0.117275134 0.031908095 -0.117876574 0.1222757 0.07775087 -0.05423562 0.26739255 0.20292303 -0.08819383 0.016466856 -0.17818728 -0.05196588 0.0432439 0.072294354 -0.20129284 -0.06437002 0.066635124
6 -0.049617216 -0.06185756 0.3180587 0.10810478 -0.056304257 -0.26199245 0.0044352626 -0.048673067 -0.09981789 -0.19578464 0.22530968 0.041188795 -0.004222283 -0.12366101 -0.12594652 -0.10813187 -0.09665521 0.05482368 0.08104286 0.08751181 0.10014517 0.091127045 0.19780995 -0.019153705 0.015742976 0.24420913 -0.14678779 0.10000265 -0.07370527 -0.077850945 0.004663243 -0.07129324 -0.278767 -0.10834828 0.07331493 0.078915894 0.022023384 0.06693002 0.29026896 0.028616102 0.11731106 0.10085339 -0.08641574 -0.23207857 0.094556876 -0.14740309 -0.017190734 -0.10657054 0.025071898 -0.12377309 0.11512017 0.054362584 -0.07256825 0.24419048 0.20454441 -0.09371783 0.013021735 -0.15817483 -0.061390527 0.035247546 0.059629854 -0.20226254 -0.04348943 0.049930014
8 -0.043684922 -0.087444745 0.3056917 0.12256199 -0.047474038 -0.26260206 -0.017091768 -0.045021582 -0.11187015 -0.20353168 0.20479159 0.0245603 -0.0033850977 -0.10316295 -0.12115812 -0.1051604 -0.10639902 0.053773753 0.064585015 0.08878804 0.11764317 0.09430197 0.20258978 -0.015392093 0.02448657 0.26009724 -0.16470854 0.08116836 -0.10121705 -0.09668852 -0.0010326165 -0.09899513 -0.25696102 -0.12352751 0.09671046 0.09615623 0.005891177 0.06686012 0.2975238 0.026769629 0.09504219 0.08653141 -0.09369058 -0.22647807 0.08539605 -0.15412432 -0.012696797 -0.098951064 0.02529872 -0.12035097 0.108786955 0.07363304 -0.05210685 0.250845 0.2038969 -0.09071239 0.004951585 -0.16070853 -0.05858232 0.044541445 0.04493517 -0.21294793 -0.06200816 0.042913474
10 -0.05334193 -0.0845101 0.32830298 0.123696364 -0.054960333 -0.28742525 0.009890193 -0.0556216 -0.13213328 -0.21251276 0.24684416 0.037330575 -0.030235257 -0.11776305 -0.118886925 -0.10880103 -0.09549821 0.048495054 0.07324247 0.11750242 0.12968586 0.10322083 0.20413248 -0.007830959 0.019428901 0.25139225 -0.17624089 0.09546946 -0.096584015 -0.106290266 -0.0014677474 -0.10342556 -0.28217927 -0.122834384 0.08541011 0.1058788 0.031292368 0.060669165 0.32407248 0.050806772 0.12429423 0.10372192 -0.07354854 -0.25581017 0.0791216 -0.15996484 -0.016793275 -0.107594736 0.042999085 -0.1420494 0.12465321 0.076717116 -0.051346023 0.25422502 0.23612228 -0.08785384 0.018825226 -0.17983481 -0.055528138 0.047696974 0.07464985 -0.22891718 -0.05802439 0.06592791
13 -0.037049085 -0.066884354 0.2804153 0.116684265 -0.06257372 -0.21755263 0.0073176273 -0.03917017 -0.0932311 -0.17773032 0.18650596 0.016630989 -0.0255913 -0.10289223 -0.09199667 -0.078526184 -0.06581721 0.027213315 0.047284707 0.09796719 0.09539757 0.08598891 0.17377105 -0.010246189 0.025647057 0.213002 -0.12417685 0.07207735 -0.08181819 -0.07934423 0.011523569 -0.07321817 -0.24655922 -0.11307859 0.06333903 0.07569761 0.015456682 0.06688073 0.25647706 0.026272755 0.09072798 0.08741377 -0.05534848 -0.19390382 0.07898436 -0.1461822 -0.013233389 -0.07099116 0.024209397 -0.12083412 0.10496223 0.045854535 -0.049859416 0.22455941 0.16996723 -0.08292883 0.0004688569 -0.12449099 -0.06106486 0.043070287 0.040097095 -0.16415131 -0.030810583 0.047795225
14 -0.05096507 -0.079697 0.3372365 0.13194153 -0.062219635 -0.286139 -0.015495567 -0.056666575 -0.11733265 -0.21997488 0.24147105 0.027379137 -0.0075488207 -0.13460428 -0.12282843 -0.12075875 -0.10933188 0.046926122 0.062795706 0.096109875 0.11527459 0.10424714 0.19911115 -0.0027127701 0.009323963 0.26436362 -0.16610944 0.10042327 -0.107056916 -0.088591695 -0.0034946976 -0.09660878 -0.28642008 -0.10806124 0.09680571 0.08406124 0.017879138 0.046975467 0.31154 0.0561642 0.104191765 0.09966 -0.08049174 -0.22391735 0.073521875 -0.16398337 -0.004914649 -0.096544586 0.038033184 -0.14574233 0.13020702 0.052010737 -0.064083286 0.2590763 0.209563 -0.08861498 0.013790852 -0.1743273 -0.08153408 0.06495102 0.068816274 -0.22173648 -0.03872586 0.0535761
9 -0.033318993 -0.075271204 0.28117168 0.11201784 -0.03319854 -0.23662814 -0.006515375 -0.05926603 -0.11349866 -0.19996168 0.1879444 0.012552562 -0.0077046524 -0.113479845 -0.09739631 -0.093404636 -0.08911356 0.035641506 0.08078444 0.10016348 0.08618193 0.09303973 0.1599277 0.0033662468 0.009176008 0.22133493 -0.12777568 0.08864784 -0.083596125 -0.06475292 0.016995603 -0.09096583 -0.2528913 -0.11216802 0.08112795 0.07502361 0.0015309928 0.04156753 0.26680696 0.036606856 0.07706211 0.07615159 -0.06526942 -0.20677304 0.08455766 -0.14888962 -0.008933727 -0.09811778 0.039112784 -0.102278925 0.09874052 0.058050197 -0.06322691 0.22019002 0.17856717 -0.09271947 -0.0062884176 -0.13957784 -0.04868707 0.046824787 0.037375875 -0.19095734 -0.044806387 0.039965086
1 -0.058610782 -0.082461655 0.27421618 0.08697066 -0.06462157 -0.24143176 -0.0058087762 -0.054809958 -0.11611157 -0.19511512 0.202844 0.038646404 -0.034950793 -0.10583675 -0.098494284 -0.11919128 -0.08007781 0.048444323 0.07818041 0.061121773 0.07842321 0.060347907 0.17217581 0.014388547 0.02674016 0.2291747 -0.12582514 0.07100463 -0.06310435 -0.10067362 -0.0091444 -0.076056205 -0.24568371 -0.110598065 0.073255405 0.09557185 0.01854551 0.057830755 0.25308108 0.01743973 0.117305316 0.098323755 -0.09674693 -0.19942069 0.10408044 -0.16312557 -0.02983402 -0.10054468 0.05020763 -0.10972396 0.1068655 0.043296594 -0.046933033 0.2243792 0.18505387 -0.06714724 0.0019093439 -0.15776786 -0.054261737 0.06036383 0.063309364 -0.16522351 -0.043355875 0.06432506
3 -0.06601273 -0.068277545 0.30511898 0.117489934 -0.048673734 -0.2660052 0.007945963 -0.06987617 -0.112835474 -0.22354636 0.20210098 0.04417344 -0.026750898 -0.10495708 -0.099113524 -0.098491244 -0.10297833 0.038289826 0.08955312 0.09199632 0.09354766 0.06946336 0.1934182 -0.012025754 0.03176302 0.23468629 -0.14939886 0.08584606 -0.08662668 -0.09500533 0.012058087 -0.081017695 -0.27178872 -0.11825619 0.08936042 0.0941829 0.020158226 0.079302475 0.2678106 0.03297989 0.12843366 0.10332973 -0.08518138 -0.23700252 0.095694855 -0.16669278 -0.0061018076 -0.094352864 0.042103957 -0.11649278 0.10030555 0.054675158 -0.056818355 0.23777321 0.21214567 -0.06467153 0.013897677 -0.15274282 -0.072223 0.05685769 0.045544 -0.20551077 -0.056850325 0.042042248
12 -0.035735022 -0.07574616 0.28917894 0.088291496 -0.04813333 -0.21456397 -0.011423582 -0.06761071 -0.10757004 -0.19629551 0.1891256 0.012706961 -0.03721213 -0.094613485 -0.11601579 -0.116102695 -0.084918104 0.024291262 0.059746545 0.06324791 0.0841669 0.06572872 0.1820369 0.0005891616 0.011970673 0.22884573 -0.14104676 0.06852432 -0.08801406 -0.094970375 0.0024332365 -0.061790247 -0.24955934 -0.09739898 0.0826942 0.07260945 0.026646825 0.070928946 0.24369548 0.039627768 0.11546623 0.07486869 -0.09113159 -0.19998342 0.08634886 -0.1601376 -0.0032781528 -0.09715926 0.025269186 -0.10767181 0.0877692 0.05647179 -0.05823822 0.21847352 0.18246141 -0.070815586 0.026494307 -0.15094264 -0.05916801 0.05687778 0.06395523 -0.18040009 -0.028190559 0.06433362
11 -0.06164344 -0.077595405 0.32017106 0.107116975 -0.07220442 -0.27165458 -0.00045919634 -0.057938483 -0.10837473 -0.22141838 0.21518819 0.034924224 -0.018963033 -0.11095234 -0.12678865 -0.1325154 -0.09140509 0.054938097 0.07980672 0.06968332 0.083037935 0.094453394 0.18958762 0.009398147 0.010653004 0.26418892 -0.16156602 0.09025215 -0.08945707 -0.11328861 -0.0016600556 -0.08413225 -0.28496513 -0.12375866 0.068936415 0.100280315 0.036972657 0.066078424 0.2813743 0.038685933 0.13574307 0.08545329 -0.10379604 -0.2343575 0.11520661 -0.16993786 -0.035993244 -0.102784164 0.056683164 -0.13519752 0.09720215 0.07944302 -0.07342012 0.2553669 0.20808591 -0.06898104 0.029021818 -0.1678373 -0.070454046 0.0716012 0.062267087 -0.18436451 -0.06610923 0.07601665
7 -0.043126687 -0.06439726 0.29826903 0.104648896 -0.045806408 -0.24120407 -0.016384568 -0.056475308 -0.08420277 -0.20786023 0.19992872 0.009647464 -0.04825685 -0.115004145 -0.11985715 -0.08862631 -0.082307704 0.022375446 0.08267963 0.118068464 0.122626364 0.058175612 0.1847137 -0.016252989 0.0009999629 0.23093638 -0.14160746 0.070186645 -0.08263706 -0.09703769 0.0123526165 -0.07791401 -0.2756295 -0.07735388 0.09698225 0.10768947 0.022656776 0.07766091 0.27414003 0.026858093 0.08950034 0.1097814 -0.06224773 -0.23038918 0.09658696 -0.16483103 0.0007353132 -0.08370444 0.012492324 -0.126324 0.088184424 0.044100065 -0.034409046 0.24608979 0.21687041 -0.09269017 0.01660488 -0.12761268 -0.06604018 0.012685033 0.049319673 -0.21028812 -0.002597554 0.032504022
15 -0.039207194 -0.04560368 0.3409946 0.12758343 -0.065889165 -0.26601955 -0.008000313 -0.083726995 -0.11492305 -0.22741963 0.22642478 0.024052385 -0.04808094 -0.13645004 -0.122490786 -0.10173465 -0.1044869 0.023194179 0.0868687 0.119836144 0.12877604 0.060341507 0.21604985 -0.0141791925 0.01796442 0.2557646 -0.15234436 0.07171561 -0.10223624 -0.11216362 0.018444028 -0.08352846 -0.31556046 -0.10314132 0.10016633 0.11810101 0.0012034348 0.08902571 0.28334415 0.041818824 0.12379835 0.1333829 -0.08997784 -0.2670366 0.083951525 -0.19630562 -0.03234676 -0.09957539 0.025247615 -0.15505129 0.123973325 0.057414133 -0.031082125 0.27009133 0.2381779 -0.10534964 0.010958835 -0.14338788 -0.08126812 0.03194584 0.05893017 -0.23238735 0.004994572 0.059006885
0 -0.039519295 -0.047507964 0.31479692 0.10088832 -0.06417901 -0.25943133 -0.02354015 -0.047742132 -0.10382324 -0.22012976 0.19625942 0.030078951 -0.04336691 -0.122518994 -0.10984687 -0.10279012 -0.09060582 0.02992388 0.07205937 0.11646227 0.119895644 0.049429953 0.19816266 -0.019591639 0.015143474 0.23776925 -0.15366122 0.071952105 -0.07206296 -0.10160692 -0.0081999535 -0.060475867 -0.2717528 -0.103058666 0.10747932 0.10338515 0.022463607 0.08876105 0.25533977 0.04235306 0.10482095 0.11241747 -0.07083638 -0.22342347 0.09402706 -0.15526132 -0.020714981 -0.09384855 0.024627315 -0.12220219 0.09437455 0.062351618 -0.033408187 0.2528025 0.21528299 -0.0721555 0.011349073 -0.12498873 -0.059743922 0.018602822 0.042161882 -0.20855123 -0.008220449 0.040288612
4 -0.048867803 -0.047122687 0.32192943 0.10723629 -0.06655221 -0.25779298 -0.018461956 -0.074786164 -0.099479005 -0.21705575 0.20892231 0.0321011 -0.046188228 -0.13184753 -0.11078086 -0.11105058 -0.08392332 0.023291921 0.08731837 0.10421932 0.1199133 0.060598098 0.18809913 0.0028502175 0.016947035 0.22425574 -0.15953599 0.07652297 -0.07430526 -0.08896826 -0.011068494 -0.061158206 -0.2638556 -0.085627034 0.10925646 0.08737465 0.0021066081 0.08523187 0.2853153 0.039939087 0.11609457 0.10405652 -0.062132146 -0.24585798 0.075062655 -0.1767794 -0.023300871 -0.07993432 0.019432765 -0.1407865 0.11433443 0.048107497 -0.025133524 0.23545909 0.21856324 -0.07627607 0.018044434 -0.14391418 -0.060816962 0.018245494 0.04604906 -0.20843084 -0.005369527 0.038780775
