41 64
30 0.18261756 0.025242593 0.3076008 0.09770469 0.019086432 -0.26552403 0.14351177 0.14721373 -0.055721316 -0.0478135 0.22745688 -0.13369605 0.0507252 -0.019072993 -0.12828398 0.093878336 -0.13102698 0.077168204 -0.08097059 0.13866828 0.1756488 0.14717162 0.31667492 0.008879843 -0.02305709 0.1648734 -0.15563951 0.0040132985 -0.06152878 -0.057628166 -0.13097095 0.09395553 -0.39358404 -0.23725212 0.017436601 0.08067853 -0.012566567 0.16591406 0.28236932 0.06169712 0.045002516 0.15762198 -0.10713974 -0.33253354 0.04355266 -0.11885028 -0.083690375 -0.041463654 0.07330931 0.19519909 -0.039319262 0.03356359 0.01584172 0.23076217 0.2931221 0.11918779 0.14645019 -0.17669731 -0.12930073 -0.018168353 0.11508793 -0.23650825 0.06628574 -0.0065763737
20 0.21419668 0.033762924 0.27774093 0.22706662 0.048297767 -0.2535643 0.28486347 0.189447 -0.0019562782 0.025732119 0.22802304 -0.106500946 0.082528815 0.0036738762 -0.14455897 0.119531855 -0.16797216 0.12908475 -0.26303566 0.10266577 0.116021894 0.20900814 0.30668685 -0.08590402 -0.0072988495 0.19210725 -0.15312596 -0.037450053 -0.1635083 -0.08218238 -0.025561905 0.07915322 -0.34073618 -0.20323336 -0.14378011 0.09489314 0.037210144 0.18048191 0.20735088 0.0933627 0.10162724 0.1108412 -0.12668933 -0.30438745 -0.058900822 -0.12855212 -0.0862454 -0.074294105 0.100898616 0.19658208 0.096099295 0.15716287 0.016009185 0.288854 0.28444463 0.016921189 0.17150085 -0.22216143 -0.223555 0.12491168 0.14621204 -0.29050818 -0.003554166 0.031118052
24 0.20638297 0.038277082 0.27817315 0.21500216 0.050428435 -0.2540464 0.2792502 0.17806382 0.015800498 0.0516994 0.22222733 -0.08906926 0.082064904 -0.005033415 -0.15030882 0.12760444 -0.16371897 0.13493377 -0.26575834 0.078019574 0.1188515 0.20585315 0.29292765 -0.095051594 -0.0029307166 0.18093081 -0.14773972 -0.026273036 -0.15472119 -0.07213105 -0.034778524 0.07626387 -0.31929448 -0.17672175 -0.16000316 0.07309851 0.06151739 0.17482212 0.19764353 0.072498575 0.09788201 0.1189894 -0.12961724 -0.31099746 -0.047850925 -0.10171143 -0.08693589 -0.07119065 0.096389055 0.17232497 0.104943 0.14522092 -0.008769351 0.27684787 0.28534907 -0.0023995142 0.1645073 -0.21295908 -0.23325245 0.13136263 0.13483426 -0.29215288 -0.0005519383 0.022215484
13 0.20133346 0.014288362 0.2686469 0.18909527 0.061641634 -0.24743538 0.2147542 0.16529825 -0.010949749 0.026827177 0.1967188 -0.117436044 0.07856725 0.005517755 -0.1437642 0.11822008 -0.16530694 0.12271489 -0.21848063 0.0945507 0.15036519 0.18376267 0.30294722 -0.062653586 -0.0029528672 0.1918808 -0.16376969 -0.040354993 -0.15158856 -0.08193673 -0.0594046 0.060234066 -0.31834736 -0.19632629 -0.08691718 0.08475605 0.026457936 0.17735977 0.21576786 0.061342776 0.071810596 0.11589555 -0.13460904 -0.3033597 -0.03431556 -0.1106312 -0.08143005 -0.06475668 0.079069816 0.17848784 0.06269875 0.12438519 0.022384994 0.26376504 0.28038704 0.038186908 0.1509957 -0.20427245 -0.20438118 0.090070315 0.119622655 -0.27945557 0.004583405 0.011219793
27 0.22074316 0.03503862 0.26011354 0.26983625 0.06834685 -0.25873914 0.3471845 0.18531626 0.009888412 0.08264444 0.23641309 -0.0906314 0.06766476 0.023544563 -0.13680728 0.1460808 -0.1748513 0.14746231 -0.3490087 0.08702687 0.111592405 0.24107125 0.2780195 -0.10861225 0.0005654325 0.1745437 -0.16972402 -0.04556406 -0.21292111 -0.10249724 -0.019247396 0.04895275 -0.28776485 -0.1806749 -0.2124945 0.090072125 0.0860534 0.16903144 0.18005829 0.0992172 0.111325316 0.110932715 -0.12471886 -0.31358516 -0.10311807 -0.10377271 -0.09762016 -0.06601489 0.134072 0.1796069 0.14019969 0.19926123 0.014182458 0.2755199 0.30220005 -0.016449187 0.17729343 -0.24476254 -0.26374125 0.19932638 0.15468961 -0.32458588 -0.036978193 0.042770267
14 0.23226872 -0.014363497 0.25937623 0.22307326 -0.01603118 -0.29448518 0.26510096 0.22521082 -0.030684173 0.014179534 0.16214696 -0.14937086 0.06486821 0.0056650206 -0.084824145 0.21752137 -0.084310524 0.07475352 -0.2742568 0.09060281 0.17378858 0.2220265 0.31188637 -0.06820776 0.076536335 0.14551641 -0.07363184 -0.047883987 -0.13504134 -0.0769387 -0.03669432 0.044320516 -0.31242725 -0.2342555 -0.1939904 0.10638627 0.11587019 0.18687473 0.19064589 0.07208814 0.036931153 0.0880611 -0.0799945 -0.31436735 0.0022592146 -0.072861016 -0.074323095 -0.06408216 0.1300258 0.18502095 0.07379233 0.2151508 -0.01982871 0.339838 0.30004138 0.008466915 0.19780762 -0.12983717 -0.22599246 0.15177459 0.09525495 -0.27267614 0.025174629 -0.0058078943
34 0.22222452 0.041752517 0.31383374 0.26455218 0.075123094 -0.28616145 0.31937832 0.16672167 -0.007114266 0.02220722 0.2718145 -0.10902508 0.089481935 -0.02336345 -0.13510603 0.11210963 -0.20531084 0.1529138 -0.31391028 0.09059604 0.117052965 0.28187257 0.2934433 -0.08644621 -0.026910657 0.22154202 -0.16598324 0.0070867036 -0.22418472 -0.08031093 -0.06636456 0.05840544 -0.32284778 -0.18809354 -0.16964349 0.061753802 0.032452933 0.17696172 0.21430224 0.10030167 0.079753675 0.11685475 -0.1535631 -0.2889451 -0.06843165 -0.10432962 -0.0738777 -0.040671136 0.1325691 0.19388191 0.090281844 0.15230803 0.011146739 0.30132934 0.2815872 -0.00784576 0.16195661 -0.26024276 -0.28200826 0.1663952 0.16744258 -0.33286658 0.02541432 0.0036251047
37 0.12808889 -0.038392946 0.33620605 -0.15291907 -0.008870464 -0.28976384 -0.16324751 0.10671166 -0.16590539 -0.1783162 0.19805604 -0.21906415 0.060356677 -0.095530935 -0.09147109 0.07125451 -0.04608315 -0.01928939 0.32181337 0.25716352 0.2861799 0.002271393 0.36900824 0.19582157 -0.036967948 0.15512076 -0.11392892 0.013443652 0.16633786 0.009606827 -0.22220746 0.11360041 -0.5930695 -0.32193863 0.29934075 0.11760473 -0.07586684 0.18909617 0.45983455 0.021946596 0.0005997229 0.19892855 -0.020296942 -0.39459562 0.23967597 -0.12922788 -0.048738778 -0.10410971 0.0042011263 0.18183805 -0.19822454 -0.13557838 0.043418784 0.20266314 0.32549423 0.32689443 0.14100255 -0.047067106 0.07013134 -0.30404028 0.07737066 -0.13058516 0.17406575 -0.027244387
39 0.10512753 -0.03778459 0.3485325 -0.21253425 -0.024117623 -0.29278097 -0.20321345 0.10058707 -0.17500858 -0.1860212 0.23310548 -0.20676228 0.040674936 -0.10183299 -0.09998069 0.029031606 -0.046692293 -0.009730546 0.37219504 0.25494614 0.30238727 -0.04148537 0.39068413 0.22294034 -0.04676589 0.16850431 -0.13230367 0.010305044 0.2080376 -0.008566667 -0.27342343 0.14203897 -0.6189794 -0.32311457 0.35296205 0.12941575 -0.099404685 0.20838456 0.48608917 0.0022159803 0.026238305 0.2425691 -0.046069644 -0.3938609 0.2661107 -0.14944018 -0.06268251 -0.1008455 -0.010048471 0.17942221 -0.22350463 -0.19938461 0.07549505 0.18631068 0.33125177 0.3842795 0.1377167 -0.06552082 0.09045966 -0.35612366 0.107562535 -0.10323162 0.20085318 -0.013883688
9 0.20020588 0.044977967 0.28357306 0.23535141 0.067995444 -0.25868785 0.29224354 0.15659298 0.00688697 0.03432159 0.21691036 -0.09053661 0.067247346 0.0102651 -0.13108212 0.13927253 -0.18391192 0.1222857 -0.2645838 0.0997462 0.113390625 0.18918309 0.29818863 -0.09494848 0.0033235233 0.17849034 -0.16397658 -0.040908787 -0.17908628 -0.08721836 -0.02254264 0.07520833 -0.33489117 -0.19170573 -0.13457192 0.0823073 0.046943232 0.1926607 0.18500204 0.081862316 0.11171673 0.13703816 -0.1293801 -0.32361332 -0.06192254 -0.13023125 -0.07903893 -0.05739117 0.107099436 0.18922989 0.098827936 0.13587904 0.012574319 0.26636624 0.2971574 0.031049717 0.16199724 -0.21821691 -0.2514679 0.14862505 0.12932782 -0.30942154 -0.009309913 0.018777145
11 0.21117266 0.024375891 0.28547928 0.19556423 0.06233777 -0.21398222 0.23696928 0.14406484 2.295983e-07 0.037936825 0.21498753 -0.11636935 0.049000617 0.006208769 -0.16188559 0.09162475 -0.16895512 0.107683435 -0.25644538 0.07697918 0.1104983 0.16960879 0.29335624 -0.06865723 -0.021695895 0.19246085 -0.17001618 -0.05070085 -0.1731839 -0.08666656 -0.032100957 0.0893785 -0.33152255 -0.17148747 -0.10403826 0.0634301 0.045024134 0.18136594 0.18942934 0.089842096 0.101851724 0.11588052 -0.13506843 -0.2911072 -0.05656932 -0.1422472 -0.071492635 -0.066253655 0.077054255 0.17530221 0.09065469 0.11891362 0.010388013 0.2520964 0.26926997 0.023712907 0.1655103 -0.22024883 -0.22576946 0.13734229 0.14788392 -0.2841558 0.018541088 0.044935208
36 0.19384582 0.016730977 0.2755041 0.15670748 0.028078187 -0.27059585 0.21360229 0.1634845 -0.023300199 -0.004024007 0.19871143 -0.12176825 0.07458488 -0.011486477 -0.1246531 0.11665956 -0.1341829 0.10855764 -0.18210965 0.092997074 0.13749185 0.20213215 0.28391492 -0.029000936 -0.010298017 0.17924245 -0.14030983 -0.016788436 -0.11450215 -0.07513519 -0.08064848 0.069009244 -0.34177223 -0.20802633 -0.102453366 0.08740928 0.05028993 0.16791451 0.21890838 0.07447974 0.07389766 0.10146235 -0.11801319 -0.30559516 0.014143016 -0.09514705 -0.093336284 -0.06298293 0.11312574 0.17513406 0.023160417 0.1315167 -0.0020661294 0.2703527 0.2778186 0.06588408 0.17227134 -0.18338107 -0.19134149 0.08184635 0.123823784 -0.252994 0.021238344 0.018698545
1 0.10082763 -0.027194422 0.35114843 -0.205454 -0.003329861 -0.27343395 -0.21218218 0.09393046 -0.14394616 -0.19195974 0.22276148 -0.21599622 0.035997815 -0.09793607 -0.11972299 0.03334465 -0.045846544 -0.02418167 0.380496 0.28262797 0.30162504 -0.03986952 0.3776215 0.20595294 -0.07684071 0.16802418 -0.14702556 0.020381415 0.19338994 -0.0035296667 -0.25116757 0.1367374 -0.6233652 -0.29389957 0.37102556 0.12258934 -0.10267078 0.19853126 0.49167606 0.008894911 0.0065333247 0.23104279 -0.022478089 -0.39715752 0.26360363 -0.14642012 -0.035165023 -0.07693813 -0.036024556 0.16961259 -0.25136086 -0.20868817 0.06713819 0.18016945 0.32838306 0.36605635 0.13570553 -0.051274035 0.09569772 -0.3803254 0.09158373 -0.11451139 0.20498444 -0.03268084
3 0.21855402 0.06288049 0.29191962 0.22559787 0.06859033 -0.22398573 0.28189623 0.13983175 0.0044031227 0.048761707 0.23397964 -0.10054172 0.06465498 -0.0019811143 -0.15587471 0.1096031 -0.19243273 0.12962903 -0.25958782 0.10318323 0.10857616 0.19438118 0.29863325 -0.08010757 -0.027915103 0.19779111 -0.17132516 -0.040969227 -0.18702978 -0.0919452 -0.027735718 0.0780037 -0.35361174 -0.18521461 -0.12418581 0.07758642 0.0038143352 0.1806294 0.19335832 0.08751421 0.11048394 0.14343551 -0.14776373 -0.31538057 -0.07604504 -0.14865409 -0.10461985 -0.05620223 0.0885312 0.17097825 0.101070456 0.11458442 0.027433844 0.25678682 0.27738976 0.011362063 0.14662285 -0.23195635 -0.2409621 0.1227744 0.15044132 -0.29854771 0.0205991 0.044411346
19 0.110678144 -0.00448336 0.3477759 -0.19751404 -0.014732749 -0.2739868 -0.19658923 0.10322215 -0.15031436 -0.18550129 0.2051307 -0.19169499 0.040569838 -0.09260415 -0.104117386 0.03230263 -0.05803523 -0.013373561 0.3381607 0.27324486 0.29219767 -0.04415327 0.37792113 0.18336317 -0.061363686 0.16345054 -0.15512733 0.011556158 0.18876718 -0.0067115175 -0.25975686 0.15608382 -0.5924744 -0.30600795 0.3580022 0.115701325 -0.096655026 0.21191943 0.44427294 0.02191128 0.0228445 0.22965991 -0.029157063 -0.3708338 0.23957486 -0.13023342 -0.05622305 -0.08574759 -0.024549339 0.17290653 -0.23292369 -0.17978019 0.07376726 0.17489935 0.31437808 0.37764245 0.13211778 -0.045527887 0.08704018 -0.36434415 0.083074026 -0.112620756 0.1924561 -0.022379713
17 0.11772229 -0.010731678 0.35022056 -0.17244843 -0.023717135 -0.2861615 -0.17427476 0.09257222 -0.15216972 -0.17630798 0.20920435 -0.20012051 0.042088293 -0.10328439 -0.09926619 0.04572321 -0.042933617 -0.021833347 0.32998985 0.25632188 0.29802188 -0.017232278 0.37351397 0.20022589 -0.043687616 0.14474165 -0.14728834 0.013640993 0.18519473 0.0063527306 -0.25724757 0.1517741 -0.57952785 -0.293965 0.3321652 0.1025244 -0.100288734 0.20666897 0.46893492 0.02748671 0.025167134 0.20859484 -0.01500308 -0.39817813 0.21735328 -0.14026761 -0.058747124 -0.077309795 -0.020599259 0.16557103 -0.20284188 -0.16709656 0.07452036 0.17882366 0.32344893 0.35666305 0.14879034 -0.061277334 0.076639816 -0.34427488 0.08769791 -0.12612896 0.1974279 -0.028111681
38 0.17695273 0.035506755 0.2790784 0.15895244 0.060462657 -0.23541827 0.19882995 0.1539955 -0.001574422 0.025484737 0.22741358 -0.108955465 0.07046558 -0.01695809 -0.14673038 0.09856976 -0.15138853 0.10765033 -0.18910562 0.119110554 0.12456256 0.1537499 0.28914976 -0.04058981 -0.029716766 0.18169928 -0.16221987 -0.031951103 -0.1383519 -0.06930196 -0.057713285 0.08002627 -0.36005595 -0.19826429 -0.060660284 0.08579393 0.012470698 0.17307532 0.22638579 0.07115461 0.068064936 0.14052448 -0.132578 -0.3138655 -0.012804937 -0.12871581 -0.07732153 -0.047241963 0.07602306 0.18982403 0.056673646 0.1098978 0.032080293 0.23460716 0.27375537 0.07049291 0.1638903 -0.17833503 -0.18238209 0.088220246 0.11401572 -0.2496618 0.02075351 0.024917422
6 0.13639987 -0.0006183126 0.35005954 -0.13965602 -0.0024218347 -0.25909048 -0.13653556 0.103419624 -0.11981393 -0.15319555 0.22531965 -0.20203418 0.06815612 -0.06743715 -0.11330047 0.05931923 -0.06652184 -0.009337182 0.2681913 0.25942174 0.2581067 -0.004402884 0.3771178 0.17054784 -0.05854571 0.15891871 -0.1471886 -0.0016936308 0.13647276 -0.02007432 -0.23349823 0.12662685 -0.5856949 -0.30529678 0.29103416 0.0960322 -0.106089495 0.18204802 0.4328649 0.04334668 0.041370884 0.2130433 -0.041109644 -0.39781454 0.1945339 -0.14283113 -0.05641428 -0.07806433 -0.0077508516 0.17371957 -0.19827111 -0.16128904 0.04770971 0.17870465 0.31568137 0.33963627 0.13840015 -0.085033685 0.0626516 -0.29668126 0.09409122 -0.12538874 0.16689074 -0.017186774
35 0.21734455 0.031757344 0.2624783 0.21283682 0.05138833 -0.25063387 0.26208988 0.16641128 -0.00765503 0.019058304 0.2154911 -0.12173125 0.06303631 0.006474721 -0.10878601 0.1429146 -0.17246598 0.12454552 -0.25396767 0.1072115 0.13349797 0.22512692 0.28559667 -0.057555415 -0.013454228 0.19214834 -0.14193209 -0.031736646 -0.16649015 -0.059015587 -0.06598761 0.0605628 -0.30467498 -0.19926469 -0.1469318 0.07294641 0.06573855 0.19030577 0.20530528 0.067179486 0.05525518 0.11959561 -0.11102867 -0.30035204 -0.03960431 -0.102212824 -0.0898053 -0.0617874 0.11183065 0.18132779 0.083482444 0.13352329 0.017493946 0.28453562 0.27902156 0.03325581 0.17479749 -0.2071101 -0.2377452 0.11263254 0.11703549 -0.28945708 0.010173815 -0.0060003814
5 0.20298465 0.044347897 0.28554145 0.20078944 0.05151218 -0.22746566 0.2572907 0.16849235 0.0053132595 0.05596015 0.2046132 -0.083342776 0.06585809 0.0155745875 -0.15824921 0.112654544 -0.16557144 0.12305577 -0.25311726 0.07777768 0.09942148 0.17273377 0.28654978 -0.07194753 -0.021084249 0.19094333 -0.16555828 -0.04028148 -0.17393792 -0.099271506 -0.023151278 0.062188227 -0.3374924 -0.17384581 -0.105851226 0.06419639 0.033446938 0.16012461 0.19963849 0.074888974 0.09270212 0.12627468 -0.113853216 -0.29169667 -0.07287981 -0.13623093 -0.07356725 -0.05687927 0.08055558 0.17488249 0.10761649 0.118670955 -0.001972237 0.2527636 0.2845588 0.0340489 0.16175807 -0.22484846 -0.21969484 0.12138466 0.1430472 -0.29400924 -0.010085251 0.02940243
33 0.20716806 0.037046175 0.2667385 0.26385343 0.042755097 -0.26868662 0.3179704 0.17800565 -0.013658102 0.032548465 0.21836753 -0.12206932 0.08639465 -0.012371396 -0.11063568 0.14441721 -0.14900619 0.14049563 -0.28848323 0.093279086 0.10869962 0.2608741 0.26936355 -0.08881335 -0.0007512656 0.17435421 -0.14190002 -0.03499302 -0.19632138 -0.082146406 -0.0530211 0.06838667 -0.30591226 -0.20558958 -0.17008494 0.09097341 0.07933121 0.18908602 0.1782849 0.069229625 0.075538896 0.10649696 -0.118383035 -0.27359644 -0.03262689 -0.07589118 -0.101975754 -0.06434292 0.13267034 0.21053118 0.09542779 0.19434641 0.02177932 0.28554818 0.28831992 -0.011540809 0.15769987 -0.19391151 -0.25208902 0.15472119 0.13140838 -0.3063906 0.019045115 0.0098974
4 0.10716709 -0.04475253 0.32952714 -0.20594935 -0.020817667 -0.29302734 -0.20514114 0.110017926 -0.1814504 -0.19236475 0.19520363 -0.21576063 0.052504253 -0.094526745 -0.09347941 0.072267994 -0.018579783 -0.023978494 0.37588975 0.27460387 0.32500434 -0.031582277 0.39756256 0.21898861 -0.02673715 0.14348927 -0.12174534 0.010198231 0.1912487 0.010716193 -0.24656871 0.15427402 -0.59754 -0.30882397 0.3516502 0.11281229 -0.0808948 0.19367024 0.47999117 0.018902097 0.0032409097 0.22020625 -0.0046783434 -0.37395722 0.2624774 -0.13198829 -0.03354459 -0.07416737 -0.014182546 0.17909607 -0.25973496 -0.17834844 0.07569769 0.18029213 0.31166673 0.39325547 0.16489077 -0.015290356 0.09856809 -0.3791089 0.09432171 -0.107284844 0.21245138 -0.028704917
18 0.19908403 0.0069321347 0.30956784 0.09888645 0.028405432 -0.2717117 0.1427408 0.16164622 -0.023218919 -0.026621016 0.22656368 -0.1427827 0.07405891 -0.015826179 -0.13165514 0.094853096 -0.14964736 0.09571515 -0.10370406 0.13817316 0.17929286 0.13785481 0.2989308 -0.007928222 -0.025393855 0.1674085 -0.16277878 -0.03334441 -0.06647033 -0.048027735 -0.097471535 0.10275376 -0.38568923 -0.22048502 -4.9640657e-06 0.096714936 0.01576471 0.19538674 0.26004475 0.061381776 0.06589852 0.1566638 -0.099631935 -0.31681478 0.032983083 -0.136601 -0.08139947 -0.07368368 0.08637412 0.1921583 0.0016729631 0.0644273 0.01670688 0.23632021 0.29736173 0.11968691 0.16356528 -0.1612577 -0.1561673 0.0020019119 0.1230354 -0.24869436 0.049945116 -0.0018542871
23 0.1394185 -0.010314871 0.32046676 -0.13736524 0.010135547 -0.2660797 -0.10357704 0.10488727 -0.1444866 -0.14546677 0.2116437 -0.19860962 0.054751333 -0.07335148 -0.08961135 0.06672053 -0.06941598 -0.010976238 0.25361115 0.23569071 0.26702836 0.032707017 0.35207155 0.14313059 -0.048502307 0.16592368 -0.15029418 0.029939696 0.11768325 -0.0009290436 -0.22171733 0.14030254 -0.5453595 -0.2890427 0.2509729 0.10493565 -0.09091575 0.1991876 0.4095448 0.01886614 0.013585718 0.20286563 -0.04799514 -0.37054572 0.17932414 -0.113432094 -0.050020248 -0.06695236 -0.0025395777 0.18192728 -0.19487855 -0.13241488 0.04431691 0.18112803 0.29437023 0.31577396 0.13588493 -0.09234612 0.029912187 -0.2870888 0.09763976 -0.1270383 0.15510713 -0.006920625
10 0.20903584 0.024654856 0.26933318 0.19228432 0.07175357 -0.23972154 0.21811992 0.1638323 0.002351301 0.04129896 0.21004368 -0.11904697 0.064633876 -0.01749991 -0.15733093 0.094237365 -0.15042794 0.13161643 -0.21383326 0.11562211 0.13283886 0.16920789 0.30703413 -0.043707144 -0.022526199 0.18009572 -0.17534907 -0.03749055 -0.13048406 -0.085610226 -0.055480063 0.09618058 -0.34268436 -0.17669997 -0.09696475 0.07270785 0.02504059 0.16503163 0.22876224 0.093824536 0.092939414 0.12758191 -0.12430444 -0.313562 -0.052411865 -0.13431798 -0.085336246 -0.050846487 0.0695603 0.18354471 0.05664945 0.08211209 0.03176828 0.26082027 0.26867914 0.05197689 0.1401399 -0.22508354 -0.21042992 0.100949585 0.1463506 -0.25684762 0.027450904 0.039341755
7 0.19332312 0.009605669 0.26909688 0.18063119 0.057614416 -0.2413166 0.22568156 0.17003687 -0.012663261 0.0105734635 0.19903637 -0.12487557 0.05368597 0.004909396 -0.13314132 0.12861848 -0.1605934 0.10887381 -0.20985211 0.08061711 0.14127703 0.20284663 0.27939022 -0.04678144 -0.008846792 0.18548846 -0.12429771 -0.03484716 -0.14374535 -0.06860132 -0.05594773 0.063726194 -0.31132004 -0.20141476 -0.10307184 0.08378281 0.04585394 0.16561313 0.18868206 0.054656528 0.06684045 0.10148557 -0.12520139 -0.27464548 -0.006345378 -0.09490696 -0.09004588 -0.06308379 0.11037374 0.1852136 0.041905615 0.10774892 0.015309483 0.26085314 0.26951605 0.038983688 0.14309844 -0.20329264 -0.21143162 0.09285755 0.13168988 -0.255725 0.028358888 0.015208509
29 0.20666745 0.018923242 0.25010484 0.20845975 0.0440816 -0.2595571 0.2542148 0.19480044 -0.020597536 0.011058892 0.20055391 -0.14368902 0.08386532 -0.013920031 -0.099856876 0.1359641 -0.13646133 0.09235602 -0.24361573 0.07967199 0.13256961 0.20333956 0.27933538 -0.06218616 0.005011818 0.16187407 -0.10887668 -0.023321591 -0.12710035 -0.05990564 -0.06454258 0.07405504 -0.3350552 -0.21038139 -0.14712706 0.09773702 0.067303605 0.19033688 0.20570402 0.061618116 0.07369213 0.100050434 -0.09808609 -0.29481465 -0.019097207 -0.09809066 -0.08735176 -0.07582726 0.12855111 0.18602706 0.07256011 0.14101009 0.012628516 0.28246695 0.2989506 0.016730342 0.18324238 -0.18519436 -0.22287771 0.10807703 0.118414804 -0.27794206 0.019014401 -0.004693088
2 0.23204912 -0.057046752 0.23716773 0.12004729 -0.06332645 -0.3536173 0.16130583 0.25396848 -0.11686359 -0.039443173 0.12615946 -0.20041463 0.08600456 -0.027324678 -0.03453593 0.25442395 -0.025307147 0.023976667 -0.12902372 0.09748031 0.2570277 0.18682478 0.34797204 0.021077283 0.121956564 0.10187523 -0.0027774633 -0.03395976 -0.013943045 -0.04264114 -0.09722552 0.049187943 -0.34543186 -0.27445903 -0.13060686 0.13121337 0.14107105 0.18637505 0.23971313 0.065879814 -0.005343827 0.058687214 -0.04542565 -0.3496184 0.10111893 -0.010844778 -0.044174563 -0.08666468 0.13909669 0.22808853 -0.014602232 0.22468 -0.02979099 0.36880398 0.33771747 0.087898776 0.24977955 -0.05436799 -0.12666298 0.04741031 0.09819606 -0.2463826 0.09190959 -0.041847426
15 0.24557297 -0.05829648 0.23889284 0.14768247 -0.05352052 -0.34459326 0.182706 0.23278211 -0.07863179 -0.05293223 0.1054997 -0.18476994 0.08527125 -0.010481238 -0.040995292 0.26523525 -0.043297466 0.028429559 -0.1673682 0.082808554 0.2431476 0.2132161 0.33482924 -0.010401481 0.11345131 0.11754387 -0.0049310117 -0.02905285 -0.03714946 -0.062062718 -0.093567505 0.027159441 -0.3070792 -0.26397464 -0.15841122 0.14008218 0.1481687 0.17417723 0.23433028 0.06436814 -0.025078768 0.062097948 -0.052731868 -0.3356281 0.081105344 -0.011635807 -0.048536595 -0.10670946 0.13134691 0.2096083 0.0017246571 0.24220014 -0.03158495 0.35665154 0.31659213 0.0695485 0.24892102 -0.07135388 -0.1638859 0.062317736 0.07608684 -0.2571988 0.06949687 -0.030944023
32 0.120111674 -0.007127643 0.3471008 -0.11670679 0.004011326 -0.24696614 -0.09659896 0.12020023 -0.1323627 -0.12483168 0.22826469 -0.17214282 0.047865767 -0.07140633 -0.101683885 0.041177865 -0.063841745 0.0140663935 0.25739664 0.2238392 0.25089514 0.022831084 0.3427148 0.13966948 -0.06399259 0.16395146 -0.14679532 0.019701699 0.13261631 -0.013729624 -0.20985083 0.1333718 -0.55050576 -0.2966077 0.2740605 0.09792958 -0.07200009 0.20981762 0.4221846 0.031202223 0.033015594 0.1994949 -0.045567486 -0.3631644 0.19914643 -0.12682995 -0.05176918 -0.0650215 -0.015827231 0.18784831 -0.16063416 -0.13913861 0.058838528 0.17985868 0.30624405 0.3067264 0.15095532 -0.08262173 0.032203738 -0.26236227 0.11399312 -0.14668247 0.15224902 -0.021749502
28 0.10122423 -0.015396012 0.31020802 -0.196238 -0.03292579 -0.25340533 -0.19845057 0.08172418 -0.15025891 -0.16383275 0.18760987 -0.21403033 0.048846997 -0.09101779 -0.10903259 0.058928113 -0.047309503 -0.034097157 0.34392327 0.24180049 0.29261646 -0.015093919 0.36723512 0.2109517 -0.04836217 0.14547513 -0.12777261 0.0019088828 0.19155784 0.008852547 -0.25936842 0.12664299 -0.58547896 -0.30721354 0.34236273 0.120676756 -0.083311215 0.19584651 0.4553733 0.01040595 0.002807714 0.19312698 -0.02100279 -0.36679822 0.24214648 -0.10965303 -0.057761874 -0.0865288 -0.034707442 0.16075903 -0.23413144 -0.16979615 0.06657857 0.1599712 0.29443255 0.35752597 0.14714861 -0.028280856 0.08576538 -0.35611144 0.07261404 -0.09897604 0.19454631 -0.0271966
21 0.24219635 -0.049417492 0.2355285 0.1264567 -0.042246226 -0.34832817 0.17658857 0.23626877 -0.101152666 -0.024023803 0.11028459 -0.19613147 0.061065212 0.00538171 -0.047380604 0.2505881 -0.0372545 0.045495786 -0.15835622 0.1062624 0.23753442 0.2025711 0.32395428 -0.009270543 0.108103715 0.109152205 -0.025596904 -0.031646937 -0.041080974 -0.045823406 -0.08318757 0.035116617 -0.32562178 -0.24689738 -0.14138176 0.11735936 0.12144865 0.18181066 0.21268278 0.07899814 -0.01688309 0.0578084 -0.054217387 -0.33014807 0.06152233 -0.03564881 -0.058188245 -0.09903768 0.12799783 0.22544406 -0.020623516 0.22249633 -0.018925209 0.3581229 0.3207585 0.07660901 0.23372693 -0.08335585 -0.16606985 0.07708644 0.08439957 -0.27172083 0.055862036 -0.049696367
25 0.13665758 0.0024969936 0.3251662 -0.090989426 0.007372647 -0.2631118 -0.07216981 0.122555524 -0.104174905 -0.12772755 0.19822867 -0.18169601 0.048747882 -0.05347144 -0.09391383 0.046760324 -0.09259472 0.030406946 0.18096125 0.20501198 0.24771823 0.02595705 0.34648177 0.12251189 -0.05318095 0.15725856 -0.124546885 0.021245612 0.0901727 -0.01106856 -0.19948459 0.11599279 -0.5128538 -0.2644569 0.20542996 0.094715215 -0.0732012 0.20531447 0.38480118 0.027372131 0.024769971 0.20188102 -0.064779766 -0.34451416 0.16415806 -0.11110268 -0.043870427 -0.07394075 0.018051818 0.17017543 -0.1613804 -0.09994778 0.05389052 0.20444101 0.31317687 0.27781886 0.12468556 -0.07989394 -0.008058813 -0.21859881 0.10033156 -0.14102206 0.15040457 -0.00970525
16 0.26073533 -0.05223896 0.22426142 0.15474138 -0.036494665 -0.3609172 0.20358199 0.2615606 -0.092464246 -0.040901493 0.11648619 -0.1912178 0.08253702 0.007233241 -0.05405396 0.26589856 -0.02925854 0.050233897 -0.18618478 0.06994983 0.25310555 0.20839329 0.33726323 -0.037796702 0.1150251 0.09889055 -0.01580489 -0.045450516 -0.07253293 -0.052232012 -0.07502568 0.034635972 -0.31545392 -0.27078772 -0.17682892 0.11943829 0.13945596 0.18943113 0.21838564 0.07315928 -0.03400483 0.06192496 -0.07227605 -0.34104863 0.0694969 -0.015513226 -0.072708845 -0.1031855 0.14241615 0.24013457 -0.007409116 0.27201244 -0.026514955 0.37254173 0.3443024 0.060511924 0.24309102 -0.071854696 -0.17580758 0.10748554 0.08966637 -0.27748933 0.06511265 -0.0578852
22 0.23104644 0.062315296 0.3381273 0.21118133 0.05892447 -0.27610654 0.2917664 0.14820737 -0.02211002 -0.0040749544 0.28012323 -0.11206455 0.05606489 -0.0015639267 -0.12593062 0.09503964 -0.20645912 0.1217479 -0.23892884 0.14298825 0.09492802 0.24713902 0.29307228 -0.05636959 -0.056528643 0.21717092 -0.19884323 0.019310571 -0.15432537 -0.07657263 -0.09592399 0.10659385 -0.40804666 -0.23401615 -0.092132665 0.06323159 -0.028350411 0.1838394 0.28198406 0.11578054 0.08016002 0.15754543 -0.1096319 -0.337103 -0.024588091 -0.13061434 -0.09976857 -0.018698659 0.12748338 0.2185309 0.023720777 0.07446318 0.01979624 0.25811574 0.27498856 0.05474214 0.111711904 -0.2610276 -0.20770654 0.08935982 0.1629945 -0.32646358 0.02355277 0.038489047
31 0.23194876 0.036653563 0.31612992 0.1498412 0.049836524 -0.2835065 0.24597134 0.14817774 -0.032521803 -0.04098542 0.28597078 -0.12261309 0.054879554 -0.0017862666 -0.119818196 0.12746201 -0.19583355 0.09547455 -0.17743067 0.1558948 0.10540723 0.21651927 0.31112155 -0.032428976 -0.038679495 0.20419447 -0.1946242 0.0065301084 -0.12375002 -0.046352275 -0.123871386 0.10565105 -0.4232913 -0.24493465 -0.069707856 0.09561228 -0.054356363 0.17747016 0.2957357 0.11434722 0.07080876 0.15960062 -0.090142615 -0.36451146 -0.0024955315 -0.12077182 -0.067477785 -0.0371638 0.13142523 0.20137854 0.009924413 0.047481634 -0.009452895 0.2675034 0.2975806 0.057263914 0.12117314 -0.22538123 -0.18195482 0.053420722 0.13282819 -0.31142822 0.061575916 0.0034890878
8 0.20230372 0.022105662 0.30456015 0.18216085 0.058325667 -0.29394454 0.23614684 0.16740629 -0.043823473 -0.01738048 0.2659485 -0.13064912 0.090773456 -0.042729642 -0.106112115 0.11816618 -0.15394707 0.12295885 -0.1848352 0.11082709 0.14480096 0.24849239 0.31483462 -0.030584298 -0.008007437 0.20416614 -0.12936479 0.0029006358 -0.15674137 -0.07506042 -0.103518575 0.06653002 -0.36379707 -0.22800373 -0.10651613 0.09606716 0.031999167 0.21395153 0.27052188 0.057148743 0.059893653 0.12061078 -0.13816148 -0.31997678 0.014325485 -0.10250335 -0.07004181 -0.050593466 0.12184186 0.22977968 0.007886623 0.13081576 0.031383097 0.30843598 0.30764613 0.052470267 0.16515365 -0.20842528 -0.21173154 0.07702871 0.14897582 -0.28946507 0.067700095 -0.026773212
26 0.22969422 0.05230224 0.3204345 0.13995884 0.03936294 -0.28729653 0.23414432 0.13743594 -0.030417688 -0.02633364 0.24525331 -0.11465893 0.05437335 -0.02393236 -0.12784238 0.12131661 -0.17015646 0.10057835 -0.16468002 0.17347921 0.12741065 0.21331796 0.31960633 -0.037006825 -0.050149523 0.17485839 -0.19073553 0.017021593 -0.07764715 -0.057694964 -0.11804821 0.119262196 -0.42443582 -0.23170237 -0.02954973 0.066795625 -0.05368554 0.15545793 0.30376068 0.10699956 0.07210704 0.13228108 -0.10295039 -0.34368268 0.007883253 -0.12527315 -0.08742588 -0.035681993 0.102335244 0.21422337 -0.024647059 0.037942868 -0.004654305 0.25244188 0.2753592 0.10034872 0.12199435 -0.22943662 -0.15338744 -0.0018402528 0.14275323 -0.302644 0.075051785 0.031079806
12 0.19440773 0.042090256 0.30906966 0.14463684 0.072777614 -0.27377403 0.2212716 0.14504553 -0.04610534 -0.022697821 0.25069657 -0.13437496 0.08185727 -0.045361213 -0.11131129 0.09159377 -0.14320192 0.10750961 -0.13843943 0.14182031 0.14850165 0.20570801 0.30844247 -0.0056482614 -0.01718932 0.20905824 -0.13957189 0.018878914 -0.10352391 -0.06482771 -0.10198278 0.086454056 -0.36517233 -0.21209615 -0.06469561 0.05412531 -0.008476564 0.19883221 0.2477783 0.056214258 0.074095644 0.1307628 -0.123092175 -0.29226312 0.015886068 -0.101249784 -0.07556154 -0.046500836 0.099941686 0.2037069 0.00054645806 0.08974967 0.04021865 0.2598563 0.26548636 0.078832194 0.15879533 -0.19456412 -0.17735565 0.016923474 0.1436143 -0.26430726 0.06893588 -0.013997307
40 0.2542991 0.04100894 0.3449825 0.16197577 0.07604342 -0.27277446 0.27485833 0.14644386 -0.02149667 -0.0078463415 0.25835446 -0.10157123 0.06654823 -0.0041123363 -0.1564092 0.1310049 -0.19532499 0.11804208 -0.22817105 0.16556014 0.13407348 0.23691165 0.30691862 -0.068678804 -0.059110846 0.19810387 -0.22259104 -0.01025179 -0.12829342 -0.06518368 -0.120014265 0.10204843 -0.41959023 -0.21381184 -0.06944032 0.078880645 -0.053900898 0.16167636 0.28627628 0.12721196 0.10720657 0.14713989 -0.11137844 -0.3827994 -0.03026163 -0.14907663 -0.078479275 -0.047095057 0.10610627 0.18620226 0.025977189 0.05097914 -0.0006489922 0.26036423 0.29843974 0.056397285 0.1181687 -0.2549927 -0.19249356 0.04561293 0.13599566 -0.33103842 0.023975069 0.027209954
0 0.22322729 0.028207691 0.30977046 0.20840766 0.07319746 -0.26781744 0.27999768 0.1491764 -0.040499996 -0.015790982 0.23388149 -0.13882361 0.063385054 -0.027365295 -0.12405059 0.11350957 -0.18492246 0.13458046 -0.22013418 0.118615344 0.154253 0.24972755 0.30405682 -0.045911677 -0.02731158 0.20517108 -0.14055638 0.015347546 -0.16320291 -0.067242526 -0.0960967 0.07197416 -0.33552188 -0.22167407 -0.115471184 0.06174047 0.009477374 0.20838965 0.22629613 0.08069464 0.05561521 0.12232289 -0.14871998 -0.2926685 0.0010926955 -0.09428691 -0.06807824 -0.053555805 0.09844432 0.22258803 0.03001915 0.14129867 0.029857425 0.28331685 0.27690563 0.034187574 0.17500517 -0.22806378 -0.21932043 0.07135013 0.16103473 -0.30271068 0.063182265 -0.014158372
