12 64
2 -0.024487328 -0.07561296 0.16243857 0.07134877 -0.05892305 -0.13415278 0.05706413 0.060762674 -0.08816546 -0.06717005 0.16825546 0.033457004 0.02175504 -0.012286032 -0.093051195 -0.079504944 -0.030751294 0.07054115 -0.021881402 -0.01564701 0.055830166 0.10185854 0.1525205 -0.033417113 0.050256275 0.13196386 -0.07609649 0.08232502 -0.04091325 -0.043174334 -0.025696838 -0.027950102 -0.08937678 -0.12692522 -0.008147761 0.009006018 0.054972943 0.013692089 0.17968595 -0.014644257 0.05416821 0.034753438 -0.09074053 -0.08578271 0.048480615 -0.03773162 -0.01883373 -0.06459828 0.011053947 0.0042685037 0.055965934 0.057345178 -0.080974184 0.12434909 0.09417583 -0.06742094 0.017818186 -0.1494902 -6.7903755e-05 0.0517698 0.06539977 -0.07113414 -0.09887454 0.035441756
9 -0.026382407 -0.0779675 0.16498408 0.07018518 -0.052981526 -0.1268459 0.05847744 0.0635072 -0.088154756 -0.07949861 0.17431833 0.037772957 0.0412995 -0.025458168 -0.09614709 -0.09547216 -0.03775911 0.07741397 -0.0026079821 0.009475337 0.03901803 0.10364505 0.16219988 -0.044287577 0.03895975 0.15787007 -0.07640103 0.07829042 -0.026165843 -0.03939754 -0.00019103626 -0.019932954 -0.12567492 -0.13530661 -0.0038979694 0.022058293 0.03199731 0.03092391 0.20023422 -0.00015505691 0.08432041 0.019555623 -0.0812235 -0.074727826 0.048535507 -0.05035392 -0.008629909 -0.097455256 -0.0058902265 0.00021848697 0.07864212 0.06458734 -0.06974739 0.14424902 0.08006686 -0.067230806 0.014446971 -0.15503944 0.018615335 0.024670556 0.082456455 -0.0710499 -0.10502118 0.057666704
3 -0.019937307 -0.05120107 0.1423167 0.039358743 -0.036599096 -0.107145324 0.044263907 0.041994784 -0.0543247 -0.03955063 0.1418536 0.04205333 0.035365187 -0.030112144 -0.084484346 -0.062013224 -0.032372657 0.067472525 0.002172676 -0.0023623742 0.03834858 0.07976012 0.12776536 -0.043210357 0.032300994 0.1167913 -0.060733553 0.073040456 -0.009037839 -0.018312017 -0.011557987 -0.008641044 -0.099245824 -0.0891903 -0.011605696 0.00024124634 0.03968521 0.027662795 0.1584756 -0.016071513 0.06642073 0.03215341 -0.067975596 -0.07842782 0.04925509 -0.020353504 -0.006892656 -0.075701945 -0.009619525 -0.011671209 0.06376612 0.03476033 -0.07676859 0.10628982 0.07275604 -0.06187383 0.009488949 -0.11494619 0.005216276 0.01354995 0.05828653 -0.06540581 -0.071619265 0.03588294
4 -0.017421998 -0.07997749 0.1316462 0.05375601 -0.030999979 -0.1127621 0.02730446 0.049558267 -0.071533404 -0.048098713 0.1291693 0.030382264 0.0375416 -0.008354515 -0.08191986 -0.0640767 -0.04357566 0.07211622 -0.014493488 -0.0058881994 0.054356534 0.08456781 0.13757898 -0.040215172 0.044080786 0.13684785 -0.078951225 0.056980804 -0.035237826 -0.040562727 -0.018923597 -0.036878645 -0.07915155 -0.11025123 0.008362352 0.019660398 0.027273243 0.026206424 0.16861428 -0.019290172 0.04978113 0.020430673 -0.082307726 -0.072914116 0.04295839 -0.027115 -0.005199181 -0.07313684 -0.0059066 -0.0055035385 0.05991366 0.055717435 -0.059332505 0.1158515 0.07444242 -0.058710966 0.002149353 -0.12541477 0.008992154 0.027246283 0.049803678 -0.07537299 -0.09670456 0.03322652
11 -0.023873212 -0.07958179 0.13751632 0.048548397 -0.034836747 -0.12258062 0.058704887 0.048811927 -0.08805894 -0.041203562 0.16292718 0.04281344 0.017818121 -0.013090676 -0.07627277 -0.06381399 -0.02623086 0.06990309 -0.013411351 0.014559664 0.059307944 0.09696234 0.13221373 -0.034850836 0.04060901 0.11789354 -0.08384044 0.070055924 -0.024327716 -0.04294892 -0.0202711 -0.03682788 -0.08684508 -0.11068382 -0.012124161 0.020312918 0.05388396 0.015975866 0.18701543 0.00015632164 0.074311264 0.026793454 -0.059594132 -0.087294474 0.033219505 -0.019487217 -0.007113856 -0.08078188 0.008071072 -0.015853882 0.071610734 0.05936812 -0.061455395 0.10626423 0.092155784 -0.053501893 0.014978537 -0.14234951 0.021121066 0.028302653 0.078866266 -0.07772659 -0.100708425 0.055961207
7 -0.0073141204 -0.03998737 0.0906619 0.042272534 -0.0362351 -0.05433082 0.03220786 0.028071648 -0.035282962 -0.02857844 0.07606866 0.009984705 0.0024813635 -0.014236391 -0.036055524 -0.02270575 -0.0020540701 0.02310675 -0.019356376 0.014906155 0.026863983 0.054103702 0.07859669 -0.02132449 0.03056382 0.070685565 -0.031369206 0.03200513 -0.01937151 -0.02081293 0.0003954227 -0.012093959 -0.06594163 -0.070925884 -0.012161397 0.004210955 0.023998853 0.026357263 0.09535299 -0.010538069 0.03297525 0.020218687 -0.02515428 -0.04066954 0.030953486 -0.027013397 -0.0043773227 -0.025802346 -0.0028805677 -0.019823566 0.041345704 0.018506326 -0.039465856 0.0750756 0.0354044 -0.03808369 -0.0030786963 -0.0553722 -0.006238082 0.020987544 0.023683151 -0.02520026 -0.036882717 0.02682838
1 -0.019478591 -0.059050165 0.12885122 0.05090596 -0.0377845 -0.104177676 0.022424102 0.032122217 -0.05925202 -0.05036883 0.12956212 0.024171796 0.029207978 -0.028011382 -0.06720932 -0.065955244 -0.036532372 0.050817862 -0.019609043 -0.006176522 0.037460793 0.07772063 0.106158584 -0.02129728 0.022643719 0.11198794 -0.06438668 0.060936823 -0.035974212 -0.02445912 -0.01829483 -0.024542058 -0.081663065 -0.075144246 0.005745001 -0.00041447996 0.03350359 0.0036863133 0.1416136 0.0102308 0.046278257 0.020656144 -0.05599679 -0.048068427 0.022020342 -0.027718322 0.005870782 -0.05273986 0.004366353 -0.022361832 0.062162653 0.026486402 -0.060309038 0.0959033 0.057386123 -0.041265734 0.012443576 -0.11204035 -0.013683276 0.043767698 0.059406575 -0.06197885 -0.060604673 0.035142988
6 -0.009300273 -0.06808175 0.12186462 0.049313463 -0.016464576 -0.099054754 0.033957247 0.0241814 -0.075770535 -0.05824254 0.1167441 0.01693732 0.029389821 -0.026798941 -0.060294587 -0.054755654 -0.031231059 0.050607603 0.009367425 0.015321996 0.027814105 0.08538265 0.09773695 -0.017712172 0.025672631 0.10710718 -0.05095678 0.066441864 -0.024457248 -0.012719963 0.0015186692 -0.035101585 -0.09019636 -0.09858164 0.0006316922 0.004234727 0.020796437 0.004266508 0.14932251 -0.00322836 0.036265843 0.013255183 -0.051792443 -0.06794281 0.044328652 -0.03300072 -0.0010218576 -0.07315514 0.011213097 0.0004814987 0.053402618 0.042575907 -0.06968459 0.094941676 0.060098764 -0.061873548 -0.0076740305 -0.10623634 0.01284416 0.03135338 0.040580817 -0.06564149 -0.07702175 0.031356532
10 -0.027994826 -0.06722038 0.10281489 0.02668948 -0.041981794 -0.09351226 0.028523508 0.030045941 -0.0691286 -0.04465768 0.12078355 0.03619967 0.008080261 -0.020687677 -0.05491768 -0.06969471 -0.021601338 0.057579756 0.001806212 -0.016513754 0.022595862 0.051865503 0.09840615 -0.008504895 0.036921926 0.10343927 -0.043623216 0.04519421 -0.006023168 -0.038396582 -0.021574995 -0.02093694 -0.07314909 -0.08498402 -0.004319257 0.020094754 0.028953344 0.01334356 0.12680437 -0.017724153 0.06048715 0.031437095 -0.06970202 -0.049601465 0.04952996 -0.038890216 -0.016624695 -0.06611085 0.016015055 -0.007866973 0.060533803 0.022481212 -0.045788635 0.0896338 0.056576945 -0.03717699 -0.002850484 -0.11091779 0.0063803694 0.036939543 0.05978602 -0.038827933 -0.0648378 0.046441466
0 -0.03415879 -0.05542965 0.123839125 0.05208552 -0.024688603 -0.10959242 0.046402413 0.022431528 -0.06587422 -0.06323762 0.11767963 0.04320013 0.019376907 -0.012482177 -0.054223906 -0.048191182 -0.04106325 0.050218627 0.0072174235 0.0058746273 0.033150144 0.06156046 0.11787118 -0.037257973 0.04477972 0.102402546 -0.062315304 0.060232986 -0.024885386 -0.029052533 -0.002665261 -0.021460073 -0.08726641 -0.09437785 0.0056681884 0.012102803 0.034185026 0.03202265 0.13498908 -0.0059209215 0.06994497 0.03181888 -0.059854798 -0.07674683 0.03980054 -0.033381335 0.008940243 -0.060639665 0.006196941 -0.004439948 0.05100635 0.033059075 -0.05912346 0.09463947 0.07565579 -0.032817084 0.009189021 -0.10729544 -0.006123704 0.03431135 0.044190906 -0.07069537 -0.083677344 0.024232158
5 -0.007233869 -0.07075352 0.13730077 0.035373703 -0.03106818 -0.08351725 0.0255477 0.022553876 -0.07225062 -0.05398519 0.12590654 0.014070291 0.008681903 -0.012736431 -0.08191999 -0.07646755 -0.031645965 0.04140836 -0.019736672 -0.014743253 0.035925545 0.06853138 0.1251642 -0.02501644 0.027568897 0.11993994 -0.06977186 0.051315367 -0.03600665 -0.037511144 -0.0147293275 -0.011281523 -0.0870873 -0.08570807 0.0075451196 -0.0020192075 0.041690443 0.02766727 0.13956785 0.0048147556 0.0644363 0.011316429 -0.07324732 -0.05899801 0.035858005 -0.040023208 0.0091733225 -0.07126055 -0.007463133 -0.007612296 0.050327167 0.04176428 -0.06505898 0.09831427 0.06421682 -0.047353223 0.022124838 -0.121448144 0.0016622687 0.03966667 0.067753196 -0.06440217 -0.060185667 0.051092874
8 -0.019092496 -0.038068548 0.086180195 0.023109522 -0.032731283 -0.07310418 0.021943377 0.02311572 -0.03326825 -0.035579693 0.07874361 0.021296984 0.02144191 -0.0102217365 -0.054527808 -0.054522138 -0.017938374 0.045099054 -0.004295629 -0.01784795 0.010211407 0.05803833 0.066468224 -0.0068219365 0.010004866 0.08343753 -0.049241126 0.042334683 -0.01860087 -0.031037733 -0.014009692 -0.015065084 -0.060222737 -0.060209326 -0.014178513 0.009523662 0.03780223 0.0075667617 0.08784237 0.0019334266 0.048199467 0.00413263 -0.052100718 -0.04463525 0.03942405 -0.017787416 -0.017818833 -0.040641777 0.017575905 -0.01726101 0.024302479 0.040777806 -0.053171147 0.06841941 0.042602565 -0.019191232 0.020424003 -0.075354405 -0.005726529 0.035846278 0.037385624 -0.025931126 -0.06176447 0.038965195
