22 64
20 -0.027321976 0.08389531 0.4338345 0.1942219 -0.1159521 -0.14571503 -0.06057818 -0.07013565 -0.036495037 -0.12498624 0.25935265 0.006089404 -0.005495581 0.03531383 -0.19876564 0.042949423 -0.06011634 0.008659165 -0.09345892 0.19280532 0.1682515 -0.019630142 0.41121212 -0.0017897562 0.03808171 0.23043013 -0.3215816 -0.13393223 -0.39638793 -0.18760407 -0.09063691 -0.006069577 -0.28037298 -0.14764714 0.29005384 -0.051385112 0.0020306273 0.11336523 0.29092118 0.03445188 0.0884341 0.25382283 -0.087375976 -0.34844524 -0.02758172 -0.25002536 -0.031779423 0.09771961 -0.09218813 -0.08780545 0.11947134 0.04797605 0.07348117 0.15136166 0.30691814 0.12451256 0.18365116 -0.06890278 -0.033141315 -0.0024881784 -0.03977963 -0.2614445 0.04595151 -0.014359192
6 -0.021361463 0.06480172 0.37767258 0.1667029 -0.10709129 -0.12914532 -0.037378818 -0.03972276 -0.04581867 -0.11351387 0.2321325 0.02544206 0.009672314 0.027774995 -0.16895753 0.028803287 -0.062451664 0.036173776 -0.0640154 0.19973111 0.13219579 -0.0031967496 0.380662 -0.014726532 0.034032226 0.25135577 -0.2823546 -0.12045557 -0.3180896 -0.16635051 -0.056561034 -0.009167192 -0.28278738 -0.16663584 0.23482887 -0.019808687 -0.0066725784 0.13168752 0.29016855 0.02197107 0.10980685 0.21466024 -0.06610082 -0.30167955 -0.013641177 -0.22838646 -0.042463593 0.03158407 -0.089739844 -0.08673549 0.14847375 0.058497168 0.069963545 0.1777021 0.25977585 0.10636299 0.14870921 -0.07813777 -0.0055943704 -0.03813032 -0.023608852 -0.22851908 0.00056078087 0.016553683
17 -0.020727433 0.06413991 0.3903448 0.14234953 -0.108639136 -0.14502352 -0.03798831 -0.03228217 -0.028039182 -0.08439397 0.24286868 0.04457615 0.010551466 0.01757927 -0.17733988 0.037497237 -0.0627632 0.053381886 -0.06360491 0.18715201 0.14196996 0.005467801 0.3786472 -0.022147898 0.036190823 0.25490567 -0.28254873 -0.09924011 -0.28840563 -0.15270661 -0.07795227 -0.009682627 -0.27812585 -0.15630375 0.21051009 -0.035006486 0.018753309 0.13640396 0.30594927 -0.003937762 0.10724534 0.2285868 -0.068093896 -0.3216696 0.0069534965 -0.19986783 -0.04805069 0.024474869 -0.09150283 -0.10584404 0.158566 0.041524846 0.036945622 0.18279831 0.26838577 0.09412627 0.14236312 -0.08334231 -0.011458728 -0.04594488 -0.029781468 -0.23060463 -0.0054280674 0.0084541235
1 -0.014133254 0.043239 0.35597083 0.1505908 -0.08972674 -0.13116616 -0.060835846 -0.03930461 -0.03637246 -0.08777277 0.20585406 0.021554142 0.00950892 0.03601351 -0.16246255 0.04151533 -0.069657266 0.040292427 -0.076077655 0.17520566 0.14926678 -0.0015231146 0.35952738 -0.014974919 0.042155214 0.24519543 -0.28266287 -0.117811315 -0.30985206 -0.16226731 -0.07728913 -0.03245436 -0.2402522 -0.15468758 0.23124067 -0.02010309 -0.0055836183 0.124809444 0.28289843 -0.0009889706 0.07724202 0.2058371 -0.07590198 -0.30008802 -0.007371646 -0.20010534 -0.037941113 0.040451422 -0.08678069 -0.09261668 0.13712223 0.054905187 0.060158454 0.16650183 0.25283954 0.09453496 0.12864342 -0.07225302 -0.011965244 -0.027872624 -0.04583137 -0.2295981 -0.009568624 -0.0018648128
3 -0.02048407 0.049567595 0.3567577 0.14781319 -0.09512634 -0.13725212 -0.027162196 -0.04327112 -0.056075715 -0.07894471 0.23099115 0.0356308 -0.014870071 0.038594335 -0.15192112 0.051544003 -0.052862573 0.038673855 -0.075796425 0.19780871 0.15411928 0.0049473373 0.35755852 -0.009034244 0.0427015 0.22528026 -0.28921744 -0.11490398 -0.30702913 -0.16933487 -0.07768077 -0.030624704 -0.24671045 -0.1568158 0.21329087 -0.017707802 0.025491172 0.12042634 0.29249412 0.013505764 0.10209625 0.21984978 -0.05129169 -0.31494546 -0.018834598 -0.19569789 -0.045023534 0.035981633 -0.071248025 -0.1020519 0.14874198 0.057818666 0.064868234 0.15570372 0.2738097 0.107444584 0.14394325 -0.081970744 -0.004581168 -0.028401073 -0.022021616 -0.23537247 -0.012833839 0.019158306
12 -0.015490724 0.054268237 0.376431 0.162707 -0.11415239 -0.12305113 -0.03568889 -0.040395785 -0.033802643 -0.0922839 0.21728778 0.018093264 -0.011892478 0.023708886 -0.15256187 0.05155029 -0.0425321 0.02128833 -0.08425795 0.19305874 0.1396567 0.0031853917 0.36088154 -0.0110509405 0.04659307 0.23329154 -0.26607862 -0.11533969 -0.3079099 -0.16100462 -0.06422824 -0.017196124 -0.2682908 -0.16205959 0.21093269 -0.029899111 0.00820738 0.1327943 0.28002533 0.0048313737 0.09158488 0.21881802 -0.052418955 -0.2987505 -0.0014849174 -0.21483423 -0.04096474 0.055776287 -0.082217775 -0.108385354 0.14533228 0.038610436 0.05198621 0.1735201 0.24880828 0.093519315 0.12948653 -0.059402633 -0.023843184 -0.019754997 -0.041324917 -0.20919204 0.012653421 0.011326771
5 -0.032366335 0.07343022 0.40882593 0.1689985 -0.09234627 -0.14007847 -0.088220045 -0.08557749 -0.016661596 -0.11465677 0.24658951 0.0069219973 0.011425009 0.0051678345 -0.18127991 0.030003393 -0.07022418 0.003486846 -0.082931176 0.19083886 0.14988068 -0.022298176 0.3630901 0.0059503787 0.011882103 0.22375754 -0.30943078 -0.1244711 -0.36610907 -0.16046213 -0.086040795 -0.010781439 -0.2754635 -0.10421339 0.29068035 -0.05597633 -0.01611493 0.095060974 0.28505197 0.059239943 0.0886027 0.226194 -0.06250276 -0.30910087 -0.040813655 -0.23054399 0.0017261013 0.087985955 -0.09365064 -0.11265791 0.13479568 0.021590061 0.07352026 0.13548128 0.26847363 0.13126248 0.1685298 -0.062442973 -0.038519427 -0.001971746 -0.027331907 -0.25134745 0.060175043 -0.0063445927
8 -0.009397207 0.043837693 0.36566728 0.15223593 -0.08284976 -0.13468078 -0.047776286 -0.052866124 -0.051078707 -0.10602633 0.21450913 0.014290511 0.005013154 0.017450653 -0.15396748 0.038653396 -0.06279585 0.030622436 -0.054889 0.19405894 0.12733664 0.011010584 0.3397788 0.0016608948 0.028356265 0.23777463 -0.26411724 -0.0980899 -0.30142257 -0.14232942 -0.059207235 -0.0359565 -0.2651221 -0.16073449 0.22138782 -0.031342737 -0.0039993776 0.105629936 0.28716984 0.011661953 0.07144752 0.20254646 -0.058120437 -0.30366457 0.0026536616 -0.21000868 -0.035710957 0.027377805 -0.06888124 -0.08529285 0.1395607 0.050352536 0.037962403 0.16538198 0.25010398 0.08369251 0.12068005 -0.074330784 -0.006337827 -0.018620744 -0.04516679 -0.22836861 -0.0068805334 0.0027235912
21 -0.027619446 0.03605463 0.33655566 0.12563248 -0.10208319 -0.13051125 -0.046721887 -0.04427496 -0.048560385 -0.08849023 0.21747528 0.03488308 -0.013864312 0.019319676 -0.14279298 0.02194889 -0.052687913 0.040504266 -0.057374034 0.15816633 0.11984873 -0.0140863145 0.3294322 0.008427047 0.041005377 0.22871615 -0.24730179 -0.108370066 -0.26789537 -0.15865484 -0.07878451 -0.025159512 -0.24151614 -0.14687316 0.203911 -0.014074251 0.005805807 0.11002616 0.26531816 -0.004975397 0.09426856 0.21250089 -0.073548675 -0.2781909 0.010656143 -0.20509464 -0.04859438 0.025565393 -0.06002229 -0.09133983 0.14694323 0.029426578 0.054220174 0.15803735 0.23926188 0.097131416 0.115662865 -0.0829052 -0.0103036305 -0.011985963 -0.021913258 -0.19769041 -0.0011584875 0.019266602
7 -0.04243519 0.08656509 0.3927479 0.1831582 -0.07895831 -0.13145478 -0.0427816 -0.11304091 -0.04926627 -0.12944601 0.2154209 0.023847468 -0.0077882423 0.03266084 -0.15543279 0.0651407 -0.077014625 -0.0012415701 -0.053347193 0.19770987 0.14331986 -0.046975967 0.38970274 -0.020548189 0.056132488 0.20375946 -0.29992822 -0.14372766 -0.372168 -0.17359456 -0.05464166 0.008011704 -0.28445062 -0.13545671 0.2875905 -0.037598237 -0.0053711305 0.14364776 0.24316123 0.037050243 0.13203777 0.24950756 -0.07556279 -0.33161715 -0.024402184 -0.24200328 -0.006140978 0.07411484 -0.08635446 -0.08452601 0.115838096 0.031928346 0.0848895 0.12979382 0.2889952 0.13719407 0.16211785 -0.040673546 -0.04605179 -0.006399889 -0.04045385 -0.26864418 0.049353972 -0.008182955
11 -0.011647039 0.06761204 0.39209777 0.15674774 -0.08664352 -0.10360682 -0.061222132 -0.10146616 -0.05147042 -0.112795696 0.2180017 -0.0020307226 -0.01768032 0.032108784 -0.17695363 0.033444505 -0.06570928 -0.005085464 -0.07974365 0.1707127 0.14177586 -0.03435861 0.38325822 -0.0069239396 0.03686736 0.22053714 -0.2952329 -0.14380114 -0.36163884 -0.17626698 -0.067289636 0.012339874 -0.27311102 -0.12744373 0.2696002 -0.04790793 0.0025599916 0.13499923 0.24460366 0.043086354 0.12096075 0.21925887 -0.08665845 -0.30623537 -0.025853224 -0.23781861 -0.013048987 0.056564014 -0.0952772 -0.09007551 0.11634067 0.041775465 0.07210809 0.13625942 0.26684058 0.11635709 0.16766557 -0.05892767 -0.033515636 -0.0036927252 -0.016865613 -0.24828394 0.061725795 0.020284537
15 -0.023530314 0.058694 0.36127207 0.13630834 -0.10435028 -0.13316067 -0.050280057 -0.046014216 -0.02457522 -0.096778624 0.21074171 0.025564596 0.006311837 0.026406702 -0.16592804 0.02202432 -0.05790201 0.038119867 -0.06722774 0.16264421 0.11772556 0.0025767998 0.33631518 0.0042016585 0.018515011 0.23981851 -0.27534804 -0.1048371 -0.2989741 -0.16445683 -0.07472459 -0.019689279 -0.25856164 -0.14228721 0.20595494 -0.025765628 0.019334624 0.110829584 0.26229167 0.020317255 0.09996207 0.1969972 -0.07232471 -0.294398 0.00547198 -0.20083983 -0.049031127 0.04077271 -0.063209444 -0.10460939 0.124031834 0.056455098 0.038136702 0.16189107 0.24704836 0.11319775 0.15098594 -0.07237745 -0.021996034 -0.008868729 -0.030158287 -0.20421037 -0.0072529367 0.020612169
2 -0.029295951 0.06636987 0.39186847 0.1556083 -0.08234793 -0.12771834 -0.08272625 -0.072577745 0.0004740562 -0.115335524 0.23335056 -0.0051127435 -0.008309425 0.015661992 -0.18772523 0.040430237 -0.056056015 -0.0011327517 -0.0660182 0.2052574 0.15421024 -0.031293884 0.3550724 -0.003335452 0.0023296122 0.2210735 -0.29435018 -0.1263156 -0.34491277 -0.16677138 -0.072803564 -0.015166882 -0.2788166 -0.098642774 0.27797332 -0.032569993 -0.0058305096 0.10751344 0.28420115 0.036308024 0.074760064 0.22617146 -0.056750715 -0.31955045 -0.011498329 -0.22954008 0.0040802574 0.082858875 -0.10249951 -0.100077085 0.109565765 0.026294414 0.07398439 0.14603826 0.27803218 0.11397531 0.1664744 -0.05080667 -0.025865572 -0.02910684 -0.035622045 -0.24549533 0.059930287 -0.016932193
10 -0.01790409 0.09583477 0.3895643 0.18377057 -0.09428491 -0.11158338 -0.04111222 -0.10919225 -0.05576046 -0.107992865 0.22207326 0.011832733 -0.0061736633 0.02633617 -0.16711953 0.058187637 -0.0733129 0.0021077427 -0.06756206 0.1880642 0.14566632 -0.038589876 0.39316377 -0.015462883 0.050395224 0.21541761 -0.28652248 -0.15353902 -0.37813303 -0.18226732 -0.047279913 0.0030506724 -0.2936374 -0.1388589 0.26479524 -0.027228018 -0.018745657 0.13560043 0.23721659 0.035827283 0.12801352 0.25127712 -0.09222977 -0.32831767 -0.035969444 -0.24961142 -0.041002907 0.06335147 -0.087952405 -0.10020262 0.13335419 0.044231925 0.09157793 0.13962127 0.27985686 0.107678115 0.15643255 -0.041388746 -0.044312578 -0.008210801 -0.025015676 -0.2578079 0.067284435 0.020817647
14 -0.015815042 0.07402051 0.36513984 0.13314277 -0.101000525 -0.13146983 -0.06707312 -0.038725715 -0.028149707 -0.105515614 0.20330884 0.027369566 -0.0023384464 0.016946224 -0.15567143 0.029313229 -0.05961262 0.022940295 -0.07260611 0.18621048 0.13234062 -0.02945014 0.34579462 -0.013784659 0.025573023 0.22498658 -0.27231294 -0.11341063 -0.28853294 -0.15945667 -0.08081417 -0.0006721353 -0.25330317 -0.13792485 0.23928745 -0.027276643 0.004680817 0.12174736 0.24338746 0.030355962 0.088962406 0.21082054 -0.059777826 -0.28067237 -0.0051016547 -0.19369756 -0.034160204 0.044016086 -0.07942355 -0.08718346 0.12097614 0.048626646 0.059547383 0.15808 0.24814169 0.11901342 0.13798513 -0.050411083 -0.010902509 -0.030961508 -0.039309967 -0.21604529 0.024557423 0.0019376043
16 -0.032158565 0.08629699 0.3984882 0.14903301 -0.09565524 -0.13047095 -0.08941645 -0.08985132 -0.0023566468 -0.114094995 0.23151842 0.014316795 -0.0011726294 -0.0023441135 -0.17046663 0.022828054 -0.0524397 -0.005066379 -0.058799896 0.19079597 0.1442011 -0.03355064 0.34047654 0.017325426 0.013059108 0.19881132 -0.29877204 -0.12051829 -0.32280606 -0.147129 -0.09474971 0.0026670625 -0.25434962 -0.095543064 0.2860236 -0.058924157 -0.036705114 0.107742526 0.2843319 0.049064573 0.09300399 0.21169864 -0.04719369 -0.32330492 -0.037000597 -0.23148352 -0.014200601 0.09022941 -0.09958266 -0.111254014 0.13196623 0.02108243 0.08450721 0.12134641 0.26481488 0.13067794 0.16067435 -0.0582351 -0.013320445 -0.030844104 -0.043195 -0.23043491 0.06298645 -0.016806087
19 -0.03810971 0.082038455 0.36903974 0.14279243 -0.07178416 -0.11005377 -0.08276437 -0.07824383 0.00692868 -0.09333124 0.2266618 0.011689311 0.0078049507 0.009930423 -0.17711194 0.03286262 -0.058108866 -0.0031512377 -0.0759703 0.19143134 0.12303934 -0.043367688 0.32907003 0.001173917 0.0004154132 0.1968207 -0.2853758 -0.12313192 -0.33931285 -0.14785574 -0.06913834 -0.0036364526 -0.2609383 -0.10175141 0.2757103 -0.041509204 -0.033940345 0.09174358 0.25523764 0.04905312 0.06973184 0.21531318 -0.073298045 -0.3072 -0.02117273 -0.22090082 0.00034429895 0.09583389 -0.09608558 -0.07822691 0.112557046 0.040868085 0.08036065 0.10509294 0.24482414 0.13089694 0.1643549 -0.03393649 -0.011700671 -0.0023062131 -0.049774893 -0.21518216 0.04921719 -0.004047052
13 -0.019299267 0.086465925 0.41047186 0.16459686 -0.09260297 -0.11637638 -0.08860365 -0.08183692 0.0051349616 -0.122304045 0.24060301 -0.008749839 0.022088397 0.027630426 -0.177448 0.04449173 -0.055727158 -0.010219357 -0.07367377 0.20684668 0.13628511 -0.03588838 0.36822024 0.0076457993 0.011436511 0.20795636 -0.28906506 -0.13915473 -0.3572632 -0.17301542 -0.086644225 -0.018901985 -0.27970085 -0.1261868 0.28462514 -0.063712224 -0.03694705 0.0920409 0.2639773 0.05847999 0.097351976 0.22318575 -0.06767175 -0.33048522 -0.026323935 -0.23005696 -0.008595368 0.087060176 -0.095601656 -0.099269696 0.106934175 0.021252852 0.06291738 0.1291825 0.2721123 0.13970561 0.1624361 -0.056206167 -0.0059089316 -0.01783567 -0.04138512 -0.22398433 0.0615568 -0.017614348
0 -0.0052494663 0.06208889 0.33229414 0.1393577 -0.09412752 -0.11258009 -0.045767367 -0.044611007 -0.031857923 -0.08712913 0.20576644 0.019002832 -0.011055832 0.03800921 -0.13911873 0.048832055 -0.06861786 0.034773983 -0.0732442 0.18497333 0.13170925 0.004182789 0.33680734 0.003373908 0.022385826 0.23424195 -0.26089382 -0.1119885 -0.28980312 -0.13490462 -0.077748284 -0.021961205 -0.23082681 -0.14148411 0.19691244 -0.036335327 0.021945685 0.12307545 0.26555717 0.004609396 0.06907286 0.20606068 -0.048935715 -0.29016054 -0.018863263 -0.19905512 -0.047286686 0.03529593 -0.076983966 -0.097671315 0.14531238 0.030081067 0.055998623 0.16319199 0.23773552 0.1094771 0.14662507 -0.07593148 -0.02445994 -0.033094123 -0.04528287 -0.21267875 -0.0068501937 -0.006176553
4 -0.019156361 0.069164746 0.36585844 0.14248213 -0.10000582 -0.11820422 -0.050134387 -0.043442816 -0.02947719 -0.085519336 0.19583462 0.03145942 -0.0015269069 0.03788427 -0.16773523 0.039929748 -0.054878652 0.020490883 -0.07467959 0.16036335 0.11699249 -0.026160141 0.34336382 -0.004650591 0.026176319 0.22584838 -0.27010584 -0.11628645 -0.31967074 -0.16980419 -0.0541039 -0.01992703 -0.2603791 -0.12466042 0.23838212 -0.043998085 0.0015461358 0.10267144 0.2559788 0.015981158 0.08645542 0.2098611 -0.048853077 -0.27787426 -0.028156726 -0.21279478 -0.018105172 0.054582525 -0.08521663 -0.08924963 0.1389715 0.03803801 0.04269374 0.146834 0.2561506 0.116933495 0.14707176 -0.06878495 -0.019494208 -0.019219754 -0.025279047 -0.22780716 0.007891715 0.0044510714
9 -0.039963648 0.084408544 0.36182863 0.17958842 -0.092415616 -0.113919355 -0.035291508 -0.09087433 -0.048595652 -0.103288166 0.21219844 0.0056517916 0.009238555 0.014295234 -0.1533579 0.049337 -0.043891437 0.01539443 -0.05311596 0.19222729 0.11985704 -0.0132725295 0.3433634 -0.013257319 0.028996086 0.18873492 -0.28910473 -0.14494427 -0.35057843 -0.16273859 -0.06601788 0.015864987 -0.27449733 -0.1305941 0.27123797 -0.026893478 0.008868678 0.12246025 0.23820914 0.027007164 0.11511938 0.22428466 -0.054529335 -0.28226495 -0.012522832 -0.20564659 -0.033075955 0.05767119 -0.08091964 -0.07180463 0.12189202 0.045508232 0.08945709 0.11639642 0.26718694 0.10983275 0.13907906 -0.027606517 -0.029043736 -0.017030016 -0.030949295 -0.24157424 0.05829725 0.010851931
18 -0.035098817 0.07358799 0.40225318 0.18338089 -0.08266818 -0.13080537 -0.05948329 -0.09915245 -0.054042045 -0.11531717 0.22977588 0.012792397 0.005727746 0.024681741 -0.1833565 0.065225415 -0.05629948 0.012285602 -0.065795586 0.21212135 0.16563897 -0.03676247 0.40922722 -0.0009507139 0.04894702 0.2124563 -0.3162102 -0.1569389 -0.4023265 -0.17444853 -0.05429759 0.02276858 -0.28957778 -0.11951721 0.30141947 -0.052296568 -0.004757892 0.11904221 0.27758425 0.052584924 0.12106602 0.25198746 -0.061052687 -0.31617716 -0.033562753 -0.25773916 -0.0019521441 0.09538389 -0.09253119 -0.09516803 0.11187609 0.031810585 0.104142874 0.12769307 0.2778982 0.14699134 0.18499336 -0.02999746 -0.03525636 -0.02475297 -0.018310098 -0.2709898 0.07367077 0.008328731
