14 64
7 -0.063997485 -0.14667593 0.2769548 0.11580395 -0.038389314 -0.22262618 0.045661002 0.0074188723 -0.08396917 -0.15831937 0.21574351 0.0101035 -0.04974835 -0.0070808926 -0.16215293 -0.055017628 -0.08495789 0.058253333 0.019121405 0.017438289 0.13053246 0.077663146 0.26001137 -0.078009956 0.06829114 0.2539673 -0.124029614 0.07857634 -0.12276435 -0.13709158 0.014565648 -0.09852102 -0.23526044 -0.13535953 0.035246596 0.09999615 0.111440465 0.09345546 0.26661125 -0.07611381 0.07854168 0.13380933 -0.16485167 -0.22301677 0.16297252 -0.13293354 0.040318113 -0.07457734 0.0010205472 -0.050810494 0.0323506 0.0363164 -0.116245426 0.25681445 0.228358 -0.121869236 0.030513449 -0.17396945 -0.0964058 0.083540805 0.061156254 -0.19230492 -0.09124945 0.013147082
9 -0.05730005 -0.12066142 0.22749338 0.09873299 -0.029534698 -0.17832951 0.04398182 0.017277544 -0.066313356 -0.13991758 0.18395483 0.01617421 -0.02005232 -0.015214708 -0.13541606 -0.056516513 -0.074764185 0.05807782 0.032714684 0.04166787 0.09531255 0.06690929 0.22658877 -0.07982258 0.04936461 0.23268186 -0.10278447 0.0603542 -0.085494205 -0.111226566 0.03660977 -0.07398327 -0.22555037 -0.12361156 0.030490633 0.09976283 0.06920571 0.09611353 0.24136946 -0.05264516 0.093231745 0.09807494 -0.12519938 -0.17425917 0.13322717 -0.118743055 0.039314095 -0.089433186 -0.017089268 -0.04466203 0.048458643 0.03968414 -0.08042958 0.23268501 0.17638086 -0.1000555 0.021436283 -0.1469872 -0.05979794 0.037632767 0.06452492 -0.15639342 -0.08602859 0.028946541
12 -0.051524393 -0.10151144 0.21980326 0.07276177 -0.020918887 -0.1710308 0.0364044 0.00587526 -0.046590365 -0.10370276 0.17134458 0.02710377 -0.016640928 -0.02206311 -0.13203542 -0.03869456 -0.071812436 0.059207316 0.031671755 0.024671534 0.09556854 0.059097014 0.20572406 -0.07941138 0.047223855 0.20389709 -0.097038195 0.06630452 -0.06862895 -0.08998987 0.018480541 -0.06171974 -0.20201974 -0.09438073 0.020437144 0.07216619 0.080169335 0.08954305 0.21952346 -0.063146874 0.08447591 0.10537565 -0.11967877 -0.17879188 0.13162509 -0.08736023 0.03654404 -0.07907947 -0.018569488 -0.053128436 0.044425983 0.020535026 -0.09645805 0.20245516 0.1714505 -0.09766641 0.019034307 -0.12819603 -0.065442465 0.032569315 0.05191456 -0.1532241 -0.06866633 0.016700879
11 -0.05763548 -0.15060362 0.24609254 0.10116974 -0.017019667 -0.20369872 0.02315629 0.008523638 -0.0710669 -0.13450341 0.18415265 0.013747886 -0.02552985 -0.003602222 -0.15000227 -0.04362608 -0.09423787 0.067455605 0.02153656 0.029643426 0.12889111 0.06989008 0.24840122 -0.08726708 0.06540657 0.2595135 -0.12964872 0.056981876 -0.11155548 -0.13211441 0.018494938 -0.10499339 -0.22140993 -0.12863098 0.0461733 0.109123014 0.08199203 0.10460329 0.26450697 -0.07757462 0.07932725 0.114543125 -0.15265755 -0.20539491 0.15116371 -0.116079584 0.047918998 -0.086624146 -0.016502507 -0.059481807 0.0449289 0.041659612 -0.09286838 0.24914548 0.20443374 -0.11192933 0.014121938 -0.15612952 -0.07806058 0.05488142 0.05038049 -0.19089048 -0.09941078 0.016543327
6 -0.063693814 -0.14537391 0.24120918 0.09284813 -0.020852152 -0.20609587 0.051629458 0.0069472655 -0.082785 -0.124208555 0.20804547 0.02480354 -0.046722125 -0.006022524 -0.13869263 -0.040449902 -0.07414651 0.062087055 0.022005396 0.04742142 0.13010286 0.075951435 0.23450656 -0.078822196 0.060578793 0.23236069 -0.12942447 0.06482506 -0.09850574 -0.13356121 0.016504774 -0.10264983 -0.22064479 -0.12329351 0.025572427 0.10978893 0.105553016 0.09260929 0.2703303 -0.058418393 0.09978605 0.11909185 -0.12696798 -0.21274099 0.13846193 -0.10670717 0.04412989 -0.088262945 -0.0016996382 -0.06820045 0.052218217 0.042609982 -0.08916917 0.23212971 0.21598816 -0.10151388 0.026404327 -0.16519102 -0.06635505 0.054975986 0.07538804 -0.18602358 -0.098865 0.036642276
1 -0.055208053 -0.136966 0.25816646 0.1090079 -0.039555952 -0.18923262 0.044548996 0.0062867887 -0.06587655 -0.13455261 0.18878898 0.007881324 -0.04722366 -0.018057702 -0.13418283 -0.03289177 -0.06516909 0.045537192 0.011924327 0.046255324 0.11603756 0.07433266 0.23867063 -0.07887849 0.06667663 0.24027541 -0.10800294 0.05970552 -0.1039826 -0.123051 0.029309934 -0.08825255 -0.2399792 -0.13119458 0.023611035 0.094894394 0.09220268 0.108660616 0.25476047 -0.07034856 0.08583992 0.12206642 -0.12404786 -0.19745824 0.15296021 -0.12648971 0.04354442 -0.06864015 -0.011228194 -0.074444145 0.05277457 0.022978792 -0.09937849 0.24894315 0.19154726 -0.11237888 0.012074432 -0.1385306 -0.0883157 0.06250194 0.05019528 -0.16401204 -0.07392606 0.027455524
5 -0.047909345 -0.1125727 0.21242316 0.08490854 -0.022268662 -0.17117919 0.015485487 -0.005987989 -0.059601422 -0.115303315 0.16735324 0.008735691 -0.021416593 -0.025317406 -0.11709304 -0.04693717 -0.07719064 0.044540804 0.011429064 0.020279981 0.09424253 0.06188066 0.18630639 -0.054496508 0.038025457 0.20259547 -0.09905913 0.058621295 -0.095351905 -0.09319198 0.011618698 -0.07970958 -0.18920033 -0.0846769 0.03670953 0.06854612 0.07194151 0.06075341 0.2095509 -0.03651552 0.06371205 0.09531531 -0.111186735 -0.15087858 0.10518851 -0.097246885 0.046570167 -0.06292793 -0.002219099 -0.06314247 0.04925574 0.012077557 -0.08494412 0.19421192 0.15695624 -0.08465714 0.017914766 -0.13192445 -0.08180542 0.06588813 0.056948815 -0.15268777 -0.057163294 0.01988297
0 -0.04383237 -0.1339369 0.2310075 0.09323543 -0.0060631908 -0.18333475 0.027415881 -0.01790034 -0.08111558 -0.14083171 0.16999786 -0.0010101154 -0.028531827 -0.025236329 -0.12392205 -0.042807065 -0.079510316 0.04508726 0.04019968 0.040303495 0.09231867 0.07379878 0.1982243 -0.054158513 0.04414052 0.22141588 -0.09632378 0.06857521 -0.098441325 -0.09584104 0.03335261 -0.097757876 -0.22104251 -0.11631523 0.035975628 0.08120196 0.07046312 0.06987182 0.23472317 -0.052968193 0.061862554 0.09818601 -0.12179541 -0.18678679 0.14227785 -0.11839199 0.045234993 -0.086487524 0.0064477758 -0.04848967 0.040896617 0.028920904 -0.1050501 0.21617408 0.17705408 -0.11176416 0.0034749482 -0.13908473 -0.06998041 0.06679314 0.04367366 -0.17063054 -0.07704734 0.019343246
8 -0.049710613 -0.1051988 0.16124907 0.051329535 -0.025563411 -0.13935779 0.019139998 -0.0059343292 -0.06150688 -0.093809485 0.13959157 0.019740516 -0.037244882 -0.01707113 -0.089704394 -0.046002645 -0.052377548 0.04561733 0.027773537 0.0071561565 0.06732696 0.031191051 0.15412739 -0.034275062 0.046193972 0.16794975 -0.066634454 0.03724002 -0.054152317 -0.092783205 0.005361611 -0.0649089 -0.15600927 -0.082686275 0.021683441 0.076624736 0.0583697 0.060003106 0.16922945 -0.055980958 0.06921986 0.09246351 -0.108194925 -0.12974277 0.11500001 -0.09409115 0.018982861 -0.06683764 0.009491879 -0.04286031 0.044188436 0.0054106577 -0.06058932 0.1625327 0.133613 -0.068909466 0.0011650774 -0.1148947 -0.052580766 0.05218243 0.05175828 -0.109341405 -0.052972514 0.029413085
3 -0.057076223 -0.09418812 0.18335651 0.07291726 -0.0017929354 -0.15303703 0.030256415 -0.024194304 -0.051525753 -0.118791446 0.12772216 0.020683916 -0.033995535 -0.0065792864 -0.09153639 -0.02156114 -0.07484653 0.030869443 0.038137335 0.028013304 0.07721522 0.031719957 0.17152226 -0.06260921 0.049495474 0.16812454 -0.08581432 0.04850056 -0.07790605 -0.08729963 0.027539946 -0.06567341 -0.17509912 -0.08210044 0.037408367 0.07071585 0.06838127 0.083896704 0.16942161 -0.04598814 0.07736723 0.09490987 -0.10065592 -0.1614003 0.113274574 -0.09402273 0.053195782 -0.057867665 -0.0014911516 -0.040962808 0.023530077 0.011258016 -0.07622444 0.168253 0.15710345 -0.06210814 0.017672222 -0.10489323 -0.07409951 0.051935323 0.03167465 -0.14619344 -0.06438101 0.0022470742
2 -0.031547837 -0.11031161 0.19578339 0.054749977 -0.007299584 -0.12844917 0.00934494 -0.023791516 -0.058253326 -0.1084747 0.13610633 -0.006072089 -0.043685455 -0.005965474 -0.118797116 -0.05022236 -0.066293456 0.023867464 0.01154195 0.0068480372 0.08021108 0.038656354 0.17870508 -0.050716177 0.032828476 0.18578394 -0.095304556 0.039687034 -0.0879371 -0.09635591 0.0139636975 -0.055953138 -0.17326283 -0.07353681 0.039529797 0.057074517 0.0766452 0.079794824 0.17490862 -0.034984775 0.07395378 0.07378131 -0.11419491 -0.14400463 0.10898195 -0.09872372 0.05372775 -0.06959201 -0.0146230245 -0.04445166 0.023388464 0.020904813 -0.08180883 0.17098606 0.14623469 -0.07437116 0.031082654 -0.12035171 -0.06520319 0.057036728 0.055922225 -0.14052442 -0.043788612 0.029700778
13 -0.04720987 -0.0924966 0.17352699 0.05554761 -0.02181289 -0.14214759 0.019789068 -0.006388467 -0.03995927 -0.099793665 0.12548603 0.011054294 -0.020929148 -0.008865163 -0.10668031 -0.04733077 -0.056291904 0.044870462 0.022432666 0.0053151664 0.062145866 0.05233063 0.14867215 -0.038955413 0.024696628 0.1749735 -0.08888205 0.047465306 -0.07214137 -0.09446786 0.010527769 -0.063069366 -0.16361979 -0.0771147 0.013720264 0.069417395 0.0782805 0.060826086 0.16350025 -0.036188994 0.072918564 0.06820434 -0.10522966 -0.14002734 0.11651985 -0.08110883 0.021067424 -0.057733927 0.011274059 -0.052950118 0.01694704 0.0337 -0.08223691 0.16437756 0.13662754 -0.058489434 0.030107344 -0.10651939 -0.06368266 0.05799313 0.043396395 -0.11164216 -0.06835226 0.030956393
10 -0.040525045 -0.09742166 0.16661541 0.056420457 -0.004402035 -0.12988387 0.011138171 -0.006511155 -0.030950407 -0.10139289 0.12466965 -0.006993441 -0.039761275 -0.010729703 -0.10803 -0.02874387 -0.052885726 0.027237972 0.02817114 0.030331535 0.083131514 0.035122227 0.14999813 -0.05106767 0.018417466 0.16437519 -0.07775472 0.040333953 -0.07153776 -0.08675118 0.020826895 -0.06393268 -0.16503237 -0.053526666 0.032210577 0.074435405 0.073760845 0.06512453 0.17016792 -0.045741342 0.045937654 0.08184504 -0.0865811 -0.13893798 0.11414865 -0.086009204 0.049936738 -0.051266767 -0.012538561 -0.04306087 0.0106815705 0.010558827 -0.06656961 0.16538118 0.14518343 -0.07602348 0.02382629 -0.09414765 -0.06266249 0.030853929 0.040799163 -0.13031104 -0.037074104 0.0056071137
4 -0.028595142 -0.073247746 0.16206981 0.070724875 -0.019615041 -0.11642039 0.028594336 -0.017483165 -0.051667843 -0.08496374 0.12529767 0.0055799987 -0.027190853 -0.014674718 -0.09112695 -0.02456152 -0.060037088 0.028758902 0.017767781 0.020719431 0.07231926 0.035999697 0.157469 -0.050028782 0.03965549 0.15809783 -0.06291469 0.030617109 -0.07859935 -0.086738706 0.031064069 -0.0632474 -0.16683212 -0.07761598 0.01474308 0.07312043 0.042333994 0.06453022 0.14742039 -0.039601516 0.06511603 0.089536116 -0.103472166 -0.13958688 0.086014554 -0.09369118 0.013267134 -0.05727719 -0.003947677 -0.053019907 0.041682817 0.019112177 -0.055537898 0.15771958 0.13034977 -0.08321672 0.008211795 -0.092175506 -0.06313547 0.044639796 0.043927025 -0.11771137 -0.034539476 0.030473648
