50 64
19 0.27895328 -0.1128206 0.074986845 0.07443035 0.0014295807 -0.23082754 0.20981215 0.2162372 -0.21193811 0.070558675 0.07691753 -0.17510565 0.09613725 -0.0028626071 0.24494193 0.32124636 0.16390376 -0.26715276 -0.15960807 0.11926447 0.14540029 0.21970741 0.19417709 0.08181248 0.043301877 0.16441226 0.04948049 -0.048384923 0.015133077 -0.08047238 -0.24841785 -0.12953232 -0.14305739 -0.17366713 -0.24253821 0.05052407 -0.018091679 0.124647945 0.2795801 0.064017646 -0.13724469 -0.06268434 0.028026061 -0.07592395 0.123076014 0.13306995 0.029240495 0.095883936 0.02212063 0.254 -0.14011563 0.19050711 0.18555756 0.2816594 0.1786321 0.0417657 0.21637951 0.06643965 -0.03717859 0.10277696 0.04413486 -0.17657807 -0.0133378655 -0.04378757
47 0.2325411 -0.10191725 0.210042 0.103925414 0.11372291 -0.251108 -0.049795527 0.3520826 0.009703455 -0.079339564 0.12939577 -0.20274678 0.2026048 0.13565485 -0.03568469 0.2341188 -0.045619056 -0.14761452 -0.13801566 0.3007914 0.21812849 -0.08090474 0.32837504 -0.05092547 -0.14177793 0.37616995 -0.2173776 -0.24209797 -0.19629341 -0.16160662 -0.14474824 -0.053512424 -0.33635348 -0.18929084 0.12417551 0.16176775 0.0066448413 0.1518263 0.38118502 -0.04746166 -0.009907024 0.16565302 -0.028218819 -0.14132729 0.041507505 -0.1525201 -0.0066375947 0.005948149 -0.040362883 0.11984055 -0.035603024 0.047042534 0.13726963 0.284509 0.3656177 0.27810925 0.27201766 -0.10047502 -0.052681055 -0.14008194 0.019443976 -0.17868552 -0.1248429 0.09599912
42 0.23937178 -0.09499219 0.18570754 0.091154814 0.10789817 -0.2749909 -0.048894618 0.35247907 0.024700787 -0.07416764 0.13033697 -0.18544914 0.21531892 0.074717425 -0.0026966368 0.24049929 -0.029699866 -0.1760215 -0.13520296 0.284387 0.17973118 -0.099535234 0.309237 -0.017399767 -0.12554985 0.3575041 -0.1901069 -0.23281732 -0.1699958 -0.15942734 -0.12658122 -0.08394359 -0.2940858 -0.16447057 0.08019858 0.15421768 0.039947066 0.15090805 0.41943187 -0.073771454 0.0059980988 0.17270155 -0.047158476 -0.10929966 0.094990395 -0.11158619 -0.009530711 0.038622677 -0.024422234 0.08066384 -0.07010046 0.04890793 0.14453043 0.29701996 0.39775556 0.24754012 0.25080472 -0.08200417 -0.04984038 -0.121831425 -0.0077790795 -0.17222418 -0.11105641 0.09668377
15 0.21007986 -0.09354128 0.15405272 0.080274686 0.09074789 -0.2937143 -0.088331304 0.33816734 -0.011378979 -0.051323578 0.13074398 -0.22632775 0.19702704 0.12500924 0.03262894 0.2242603 -0.050728437 -0.13774084 -0.13364804 0.2664939 0.15908822 -0.06620162 0.27828303 0.020419933 -0.049564317 0.36440286 -0.1637123 -0.2145745 -0.18266469 -0.15211783 -0.12441958 -0.10351313 -0.27001655 -0.18676338 0.08507849 0.18309724 0.046967827 0.19750234 0.38036856 -0.06068506 -0.022531645 0.14195606 -0.023604205 -0.11532696 0.051130235 -0.09730066 -0.008226761 0.03652873 0.021050774 0.10388463 -0.08239832 0.11079028 0.15503128 0.30233014 0.35950744 0.24623485 0.23527484 -0.07935909 -0.06037791 -0.071659945 -0.008552964 -0.19313113 -0.12524721 0.057799365
3 0.2502766 -0.13332388 0.19708705 0.10293213 0.1314505 -0.27075228 -0.038354732 0.35372508 0.024186349 -0.07399287 0.121103145 -0.18143131 0.17727834 0.11937344 -0.019319316 0.26828972 -0.02524388 -0.17389753 -0.16400903 0.34364104 0.237102 -0.1085951 0.33297908 -0.035836723 -0.14035797 0.35588232 -0.26846594 -0.27886203 -0.21256934 -0.19082873 -0.15768127 -0.074776985 -0.28146017 -0.15971667 0.12372677 0.146565 0.034429435 0.12034202 0.40838292 -0.067133024 3.7967955e-05 0.19695748 -0.023611816 -0.13299431 0.056002658 -0.15695634 -0.011317123 0.03712879 -0.03417761 0.09212768 -0.062231626 0.0140569545 0.16485347 0.27019244 0.41739798 0.30856535 0.26222807 -0.12017359 -0.03893479 -0.15103258 -0.007833801 -0.18734077 -0.13641469 0.10630016
13 0.25586554 -0.16358273 0.25334817 0.12323038 0.13788648 -0.29356274 -0.025596 0.30976492 0.0010722184 -0.076181 0.12552342 -0.21637076 0.111143015 0.15536289 -0.017204242 0.28356934 -0.012739784 -0.14929639 -0.17766297 0.3919326 0.2440281 -0.04229171 0.3334592 -0.04584744 -0.079422325 0.40447262 -0.2737061 -0.25485846 -0.25730243 -0.18146843 -0.16486233 -0.04916417 -0.28034374 -0.1472377 0.09041161 0.09439161 -0.0048882766 0.1384977 0.32175565 -0.06763798 -0.0499225 0.20271817 0.020876717 -0.15113169 0.010142888 -0.23703058 -0.020472392 0.027141934 -0.013996954 0.13375458 -0.06784747 -0.01542117 0.14975812 0.29992327 0.33613387 0.2825145 0.22426179 -0.15735626 -0.1024583 -0.11363146 -0.026368966 -0.21312611 -0.15758847 0.031135226
21 0.22162317 -0.111111745 0.23400415 0.116942056 0.09820451 -0.31146038 -0.09576765 0.36475292 0.039195053 -0.0844028 0.16107056 -0.20187283 0.20458166 0.087567866 -0.03466613 0.24008644 -0.06741146 -0.15633518 -0.1618462 0.33535904 0.18617189 -0.10367725 0.3562963 0.01633464 -0.12041737 0.4139406 -0.2797985 -0.2653688 -0.2569137 -0.19544594 -0.120415844 -0.07661719 -0.3430845 -0.18048231 0.1612776 0.15461074 0.065847434 0.15301867 0.4538775 -0.07121806 -0.00026908363 0.21483104 -0.007908762 -0.13716428 0.0437873 -0.17990732 0.0055951346 0.04287654 -0.0052571986 0.0879579 -0.027702808 0.01971493 0.14852741 0.31455874 0.43454012 0.3424433 0.2681712 -0.1417601 -0.070193954 -0.116950415 -0.014338586 -0.21017547 -0.12456019 0.09409313
30 0.24833557 -0.11872509 0.21470281 0.111341074 0.14951566 -0.31107208 -0.11013716 0.3770295 0.027877087 -0.12211687 0.14334334 -0.2428146 0.22732067 0.126001 -0.025626665 0.24405853 -0.06815788 -0.16882163 -0.13712636 0.3612125 0.18842842 -0.1385369 0.3244907 -0.0051950547 -0.1447949 0.42586762 -0.2393382 -0.27630225 -0.24983549 -0.1773334 -0.10925766 -0.10144257 -0.34249368 -0.19096869 0.15441053 0.1833923 0.03534339 0.15675008 0.4416262 -0.08599623 -0.0069730673 0.21347709 -0.032200824 -0.12898032 0.06778058 -0.19778508 -0.01601023 0.022513857 0.0068121096 0.08338247 -0.068068564 0.04484419 0.14582969 0.3168159 0.44068742 0.3016887 0.25988483 -0.12436221 -0.062098067 -0.13525468 -0.029745843 -0.19948536 -0.15518144 0.10239019
41 0.24384592 -0.15172681 0.21606562 0.09440429 0.155799 -0.299848 -0.08010647 0.3470336 0.01853504 -0.105125315 0.13693398 -0.20994389 0.16982 0.14925526 -0.031810172 0.24086002 -0.036757648 -0.15172572 -0.14846145 0.3526469 0.21775919 -0.13327594 0.3197444 -0.040571827 -0.14397661 0.42746657 -0.2580403 -0.28318343 -0.24158245 -0.20395693 -0.16258737 -0.07931293 -0.29681468 -0.14562626 0.12866953 0.16148528 -0.005132133 0.12607983 0.36968115 -0.09668749 -0.015136543 0.2311413 -0.049299747 -0.11608435 0.054663517 -0.22961572 -0.037457116 0.011866725 -0.010163594 0.09984733 -0.06602548 -0.010033604 0.16536933 0.2969902 0.39332905 0.2940962 0.23427261 -0.15652041 -0.08276796 -0.13212486 -0.010681877 -0.18441081 -0.16580246 0.09243299
10 0.21727438 -0.11746843 0.21891573 0.114426486 0.15017311 -0.3216647 -0.103346944 0.35586005 0.048430014 -0.12057157 0.13549653 -0.20904675 0.1877979 0.14661235 -0.02426679 0.25071168 -0.07942528 -0.14950797 -0.13356224 0.37493125 0.19918995 -0.15630364 0.34017196 -0.024786064 -0.10369071 0.41274884 -0.2750514 -0.28206432 -0.25975716 -0.1939733 -0.10543286 -0.07278166 -0.30777952 -0.16465549 0.16817062 0.16914457 0.050861586 0.17892843 0.3984594 -0.092649266 0.019077184 0.23909089 -0.021624953 -0.1457191 0.040983796 -0.22175236 -0.0065085357 0.035174835 0.0010295808 0.088537745 -0.07788786 0.010020003 0.1572067 0.30280015 0.43736476 0.34184006 0.25562236 -0.14810513 -0.08283092 -0.14051226 -0.03886394 -0.21037892 -0.16749413 0.07200414
32 0.25139025 -0.108282536 0.20614384 0.09001922 0.11087706 -0.2269764 -0.063785695 0.33753362 0.030257354 -0.08660191 0.10390912 -0.19006768 0.2012089 0.09285753 -0.035324026 0.23185587 -0.042060334 -0.19636421 -0.15444571 0.2709861 0.20789361 -0.12408409 0.34056744 -0.02817476 -0.16292419 0.35747135 -0.23350927 -0.26627317 -0.1942073 -0.17884433 -0.14293267 -0.061137192 -0.3178806 -0.16821109 0.1411905 0.14359964 0.036810886 0.14299695 0.41463315 -0.058898397 0.014049315 0.16800624 -0.060175776 -0.1189963 0.08647059 -0.13439642 0.018799923 0.03485518 -0.0608735 0.08199097 -0.051749527 0.026596474 0.13669094 0.2725559 0.4038265 0.28988323 0.28178003 -0.082468614 -0.03970864 -0.13767819 0.0022267546 -0.17076182 -0.08642857 0.12941921
44 0.21309206 -0.09619101 0.19501998 0.08498645 0.06484799 -0.29360747 -0.03024185 0.32278088 -0.026849562 -0.03589671 0.1400922 -0.20692657 0.176059 0.09902021 0.025742456 0.23859091 -0.01447586 -0.14881 -0.1388096 0.25756055 0.16119024 -0.010910664 0.30454734 0.03837687 -0.06470786 0.3575747 -0.18626705 -0.19651262 -0.17746562 -0.16983658 -0.15440126 -0.074717104 -0.31448975 -0.19598716 0.052017137 0.148311 0.0635005 0.1772133 0.38018543 -0.03425677 -0.015731255 0.12901984 0.0013181964 -0.1530359 0.06369543 -0.09491915 -0.006657194 0.034701377 0.027208311 0.13727678 -0.063900486 0.09880709 0.13465148 0.3067563 0.35989165 0.2757933 0.26711693 -0.086952455 -0.064980924 -0.051265396 0.014610799 -0.19192667 -0.11005471 0.06327777
45 0.2809912 -0.15059206 0.21275817 0.09816978 0.17149663 -0.27314806 -0.041995086 0.341972 0.014316179 -0.094885565 0.11267587 -0.23778772 0.1765154 0.15197769 -0.026841559 0.27424803 -0.013409489 -0.1883106 -0.15553659 0.34951198 0.26562044 -0.08591402 0.3040175 -0.08412542 -0.17956956 0.3995712 -0.22457308 -0.25614393 -0.215144 -0.17198545 -0.18621981 -0.08214975 -0.30180272 -0.12853794 0.0916881 0.15691587 -0.029070556 0.122122 0.3576333 -0.06135221 -0.06396244 0.18453605 -0.045224097 -0.123383425 0.07103241 -0.17365214 -0.00530182 0.026324622 -0.05059895 0.11851517 -0.102555245 0.025056178 0.15964156 0.29476804 0.3651563 0.23561242 0.2634509 -0.09276453 -0.08597821 -0.14157024 -0.00020956501 -0.19778164 -0.12961213 0.07352466
6 0.24907367 -0.11289288 0.20599443 0.1069159 0.12535465 -0.27529824 -0.0427582 0.31477305 0.002727917 -0.07294313 0.12474839 -0.206458 0.16612005 0.1148493 -0.0066283834 0.25828227 -0.0323371 -0.16727969 -0.14873578 0.33453396 0.19691634 -0.083950594 0.31638634 -0.02429916 -0.108372785 0.3850796 -0.23072468 -0.25572902 -0.2328152 -0.18461117 -0.12879008 -0.072854675 -0.29976502 -0.1536567 0.09413033 0.14556135 -0.0028958675 0.14155692 0.34793538 -0.06415138 -0.01789674 0.19489238 -0.025118303 -0.12884417 0.03648805 -0.18708959 -0.028359225 0.026562335 -0.011537389 0.108785726 -0.059665523 0.027726613 0.16195579 0.29207817 0.3698244 0.2663201 0.23301737 -0.118992426 -0.07919309 -0.11080943 -0.01242633 -0.19421968 -0.12479877 0.076689325
28 0.23104809 -0.09161174 0.1898475 0.077720635 0.07810822 -0.27271178 -0.04294788 0.3301714 -0.017726647 -0.05047193 0.11560097 -0.18875964 0.16850959 0.091962926 0.019113634 0.24265723 -0.020959215 -0.15721668 -0.14604633 0.28161725 0.19409122 -0.05270874 0.30987203 -0.006389922 -0.08585853 0.34139657 -0.19490387 -0.21733086 -0.15252452 -0.1609483 -0.165341 -0.05383354 -0.2941711 -0.18437253 0.08604116 0.1489087 0.04235827 0.17139079 0.36103615 -0.03368602 -0.022966845 0.14221366 -0.0034656532 -0.12953483 0.062325485 -0.09092203 -0.0032698559 0.022845298 -0.010473088 0.13558279 -0.0601775 0.07662678 0.15137039 0.29314366 0.35132036 0.2713385 0.24948145 -0.06598985 -0.046309777 -0.10112975 0.0036579224 -0.19160521 -0.09132328 0.066135116
23 0.2309415 -0.12370211 0.22015588 0.10361675 0.116754495 -0.31568328 -0.06018962 0.316393 0.009102456 -0.09089799 0.13869987 -0.19577143 0.1455351 0.0864014 0.0054700943 0.23625083 -0.022253053 -0.1664702 -0.13483419 0.35795408 0.18383484 -0.08364194 0.31010902 0.02109431 -0.08409643 0.38339648 -0.26493883 -0.2463776 -0.2240558 -0.17970395 -0.14007053 -0.059843227 -0.26250732 -0.13446134 0.11467168 0.11948918 0.025011117 0.16156907 0.3918591 -0.066251755 -0.0083439285 0.18715827 0.01685291 -0.13140999 0.036911108 -0.20278615 -0.017910307 0.04537272 0.0020362749 0.11356249 -0.06764553 0.023087109 0.18346247 0.29876778 0.39306435 0.3001531 0.24110009 -0.14907663 -0.064262 -0.11970198 -0.03208463 -0.21140507 -0.13319813 0.042835165
35 0.26220322 -0.14570867 0.1901754 0.09428669 0.15905605 -0.2698687 -0.005259853 0.30568528 -0.010558892 -0.06404874 0.11629875 -0.19627856 0.14990114 0.1139117 0.008671131 0.27169082 0.014433157 -0.19441104 -0.16586968 0.34990728 0.20637898 -0.05755824 0.2797725 -0.04737476 -0.13699275 0.37132233 -0.22195117 -0.23286353 -0.21537663 -0.16704233 -0.17407964 -0.08185969 -0.25190604 -0.1258312 0.050276484 0.114628814 -0.04826225 0.0975464 0.32529488 -0.044641845 -0.0749674 0.16374774 -0.033981837 -0.10747002 0.06546166 -0.1667325 -0.011018815 0.05067686 -0.026796782 0.15510917 -0.1006504 0.044912264 0.18031242 0.26851955 0.31823307 0.2353073 0.24013709 -0.09156392 -0.06463621 -0.082518764 -0.027102144 -0.18704168 -0.14726509 0.05339225
0 0.23974703 -0.091220796 0.18852082 0.097443 0.09232968 -0.25229695 -0.046280444 0.330697 0.0134477625 -0.06982126 0.12281187 -0.20682772 0.20031421 0.10635161 0.017484926 0.25295097 -0.019402068 -0.1838419 -0.14305653 0.2861144 0.17175956 -0.07642504 0.31030542 0.0023149783 -0.108968206 0.33644468 -0.17767446 -0.23328203 -0.18275565 -0.17392114 -0.14597878 -0.09338073 -0.29596272 -0.18736373 0.08332675 0.13473272 0.017917618 0.13855411 0.3783036 -0.046188917 -0.010154707 0.15558432 -0.024730531 -0.12851384 0.070509635 -0.108555816 -0.00074303744 0.040935438 -0.011134342 0.111613296 -0.07558999 0.047186535 0.13870297 0.28139082 0.37478155 0.27209893 0.24459176 -0.08234127 -0.037385147 -0.09821249 -0.0074105915 -0.16437945 -0.09931426 0.07092814
14 0.2407612 -0.1081256 0.19064099 0.109265424 0.08691718 -0.2706044 -0.036669143 0.33766183 0.016237648 -0.060749598 0.124663204 -0.18503706 0.16795684 0.071463965 0.0176485 0.2708513 -0.030953756 -0.17742038 -0.15711568 0.32796502 0.17485453 -0.067048885 0.346349 0.03514507 -0.102035925 0.3747958 -0.24074268 -0.25452748 -0.20439272 -0.17916365 -0.1340096 -0.079135805 -0.2964872 -0.17770155 0.09025286 0.12885112 0.06985008 0.16208324 0.4355245 -0.073733784 -0.016838087 0.18210241 0.009526933 -0.13853516 0.06507914 -0.14522445 0.0023822745 0.044698164 -0.019162018 0.11055311 -0.03684501 0.02013033 0.172306 0.31652027 0.40761772 0.3170124 0.26576656 -0.114566594 -0.0537033 -0.11782972 -0.034494925 -0.1982837 -0.11851883 0.06622286
18 0.2179861 -0.09527935 0.1956437 0.09511427 0.08496338 -0.30439484 -0.072602555 0.36330116 0.011143189 -0.064407766 0.13308437 -0.20191815 0.18331061 0.09694377 0.002004201 0.23719355 -0.029540354 -0.16958813 -0.14953332 0.30469653 0.13055737 -0.10604899 0.31294927 0.03944341 -0.08620822 0.39303714 -0.21689887 -0.24390577 -0.2298753 -0.2025099 -0.0937395 -0.097744204 -0.31599104 -0.16478112 0.112621345 0.15742324 0.06920477 0.16703513 0.4207833 -0.07529618 -0.0046329526 0.1846887 0.012383337 -0.10407757 0.053071354 -0.15723112 0.008891412 0.050498694 0.014383072 0.10681205 -0.055781502 0.06668397 0.15262651 0.31912786 0.42176175 0.30107078 0.255562 -0.117716886 -0.057531662 -0.08880086 -0.013341011 -0.2088583 -0.13065675 0.07464358
8 0.22453056 -0.1197239 0.2282649 0.12787625 0.117104836 -0.30278754 -0.0538361 0.34240037 0.02008782 -0.08413024 0.14065532 -0.21084666 0.18548022 0.10248334 -0.025177637 0.25459704 -0.023851836 -0.15266944 -0.14712259 0.36819673 0.18108432 -0.08057499 0.32874867 -0.015458801 -0.13322893 0.40819597 -0.29001135 -0.27689803 -0.26141387 -0.20510176 -0.14462794 -0.061744686 -0.33221987 -0.16793993 0.14714886 0.15662305 0.039507907 0.14881983 0.40008414 -0.09048899 -0.014078301 0.2172262 0.000734165 -0.12521897 0.061658103 -0.19180213 -0.026521165 0.02255023 -0.0098554995 0.13118231 -0.046133064 0.024432616 0.17107056 0.29926458 0.4180972 0.3073028 0.23775688 -0.12865382 -0.07201293 -0.12758175 -0.032602794 -0.21351615 -0.14010093 0.077928625
16 0.24598135 -0.13747564 0.16818364 0.09633485 0.12556456 -0.287761 -0.018907553 0.31864712 -0.028179208 -0.06880028 0.111089274 -0.19896938 0.16517803 0.09778356 0.033191964 0.26941556 0.013540393 -0.17372243 -0.14148694 0.32501796 0.19655983 -0.058744926 0.29557672 0.0009128025 -0.082121454 0.3494159 -0.1921498 -0.23612832 -0.19540259 -0.16215542 -0.14132315 -0.07319817 -0.2503995 -0.13408136 0.050844096 0.12597299 0.014185931 0.13018897 0.364521 -0.044367753 -0.026353503 0.15847673 -0.0010882784 -0.08630991 0.06549258 -0.14751929 -0.003282279 0.05566917 -0.00017410613 0.11887184 -0.10885243 0.042508878 0.18587498 0.28923562 0.33955547 0.2497495 0.24165745 -0.079912 -0.064053684 -0.10014714 -0.0001597284 -0.19121929 -0.114884324 0.060510825
4 0.24579279 -0.1393093 0.19957133 0.07577497 0.09905927 -0.32174718 -0.042889506 0.31340796 -0.016701948 -0.059258755 0.14440657 -0.22713248 0.14994603 0.12598751 0.040555306 0.24454154 -0.015003378 -0.14743364 -0.13998532 0.32378092 0.17436911 -0.03457945 0.26224154 0.017029054 -0.054008063 0.35832873 -0.20610902 -0.22194767 -0.19469705 -0.15365504 -0.14417955 -0.0713991 -0.2460507 -0.14867102 0.057899293 0.13321175 0.028970331 0.16907595 0.32967854 -0.045580424 -0.047670797 0.16177 0.021287438 -0.11182502 0.043251522 -0.16559547 -0.01624358 0.026239723 0.042165454 0.15787926 -0.09440594 0.07455412 0.1543503 0.29051435 0.3391724 0.26126426 0.23174521 -0.1076348 -0.08052163 -0.06149713 -0.010630895 -0.21467894 -0.14260504 0.012668148
17 0.23036374 -0.12614648 0.24831124 0.09891827 0.14423846 -0.30379605 -0.10592048 0.36356038 0.045024283 -0.09086171 0.15395586 -0.223602 0.18619263 0.15165253 -0.059164852 0.25062475 -0.08358933 -0.13568653 -0.1395791 0.37921932 0.21865661 -0.12002141 0.36446002 -0.031433865 -0.12307302 0.44633672 -0.32467714 -0.27272666 -0.30024776 -0.19724531 -0.11388815 -0.040481906 -0.3477133 -0.17352086 0.1819451 0.15854506 0.038172897 0.16805114 0.3928055 -0.11061349 -0.014670821 0.25931612 -0.017671067 -0.17082982 0.008246301 -0.23242165 -0.005095235 0.026028058 -0.01739702 0.11484527 -0.04428893 -0.0074642394 0.12882039 0.29705182 0.42473269 0.37121567 0.25748333 -0.18357322 -0.08695492 -0.16044275 -0.0242318 -0.19687323 -0.16719791 0.09216751
29 0.26226667 -0.13938417 0.20566079 0.120340005 0.14191943 -0.27930766 -0.0628385 0.35159585 0.030336108 -0.07142595 0.10886451 -0.21585146 0.17972293 0.11183839 -0.034557745 0.25051686 -0.022532914 -0.14863291 -0.16131872 0.34072623 0.23941155 -0.09504627 0.3412128 -0.025825776 -0.13011704 0.37270308 -0.25903893 -0.26646325 -0.21145426 -0.18770176 -0.15938132 -0.04904055 -0.28672704 -0.15139562 0.10934343 0.13547891 0.024618812 0.12467866 0.38579985 -0.05379562 -0.023725376 0.18892029 -0.03141669 -0.1426648 0.040520553 -0.1773479 -0.01646911 0.03917857 -0.039551627 0.11982443 -0.07767397 0.00515385 0.16060063 0.29465172 0.3769837 0.29837984 0.24751493 -0.1313699 -0.072553314 -0.1244804 -0.0018854557 -0.17232692 -0.121369146 0.093825676
31 0.2509259 -0.13907248 0.1948682 0.10313078 0.13367158 -0.2822953 -0.060119033 0.36479965 0.02848831 -0.09327143 0.110818096 -0.20977545 0.17548294 0.11404086 -0.015923768 0.26379204 -0.037840415 -0.18366301 -0.15694015 0.3160683 0.20281133 -0.104294 0.31617907 -0.0067858724 -0.12967865 0.39022064 -0.22732829 -0.28297207 -0.22013453 -0.18912561 -0.12892656 -0.0889318 -0.27076685 -0.16228579 0.11096308 0.15762565 0.036581002 0.12931058 0.38543728 -0.092206754 -0.0062934007 0.18006787 -0.041159127 -0.08579528 0.08343125 -0.16676149 -0.032494154 0.036815375 -0.0035102868 0.097724564 -0.09019522 0.011272368 0.1686189 0.29839668 0.40803286 0.28918764 0.23599932 -0.13304532 -0.06741006 -0.12889543 -0.017416596 -0.17120133 -0.13333811 0.097278975
24 0.2494787 -0.1317622 0.18788782 0.112307 0.15721619 -0.26592404 -0.029665414 0.3265352 0.002580636 -0.08493249 0.11740611 -0.22602001 0.16235647 0.13622421 0.0027774088 0.24290644 -0.018815221 -0.16982639 -0.16856515 0.32312346 0.20732415 -0.071122915 0.27903077 -0.054142587 -0.1274673 0.36897796 -0.21544078 -0.2319983 -0.2093937 -0.15464298 -0.1743778 -0.060872357 -0.27195108 -0.13917406 0.071048304 0.12570217 -0.00939697 0.13113494 0.327178 -0.070324644 -0.034742706 0.1696192 -0.009766414 -0.113225564 0.028749535 -0.18816821 -0.030077346 0.015125239 -0.00097292376 0.11627148 -0.0761911 0.0033196148 0.15568458 0.27350226 0.351655 0.23764391 0.24060781 -0.13435195 -0.09029844 -0.11571205 -0.016987009 -0.1949489 -0.15082347 0.042194873
26 0.25971046 0.11793395 -0.01766847 0.012110446 -0.22113295 -0.00082247134 0.24598259 0.35020712 -0.23834725 0.2400849 0.05312046 -0.124738514 0.4102357 -0.14649488 0.29603335 0.33883137 0.12778556 -0.35476056 -0.13458426 -0.34467417 0.16833836 0.2417551 0.27019182 0.119856566 -0.051722936 -0.084427826 0.37407547 0.0078288615 0.37228188 0.054543473 -0.30530965 -0.13021752 -0.44439748 -0.47673848 -0.24446924 0.21585973 0.10063102 0.25229862 0.57353103 0.16332406 -0.008638784 -0.28159222 -0.0955332 -0.1976276 0.314051 0.66215086 0.15262362 0.11903277 -0.09700937 0.1793657 0.055103134 0.41508368 0.062971525 0.2511971 0.2658328 0.009933559 0.43939686 0.48136166 0.13832314 0.09368911 0.23524341 -0.044742443 0.28803125 0.20845583
12 0.30488047 0.10196547 0.002064066 0.023091124 -0.2386337 -0.009663982 0.3061749 0.33604625 -0.25496793 0.24765176 0.034307443 -0.11346606 0.41609088 -0.18652993 0.3453561 0.39258468 0.15567361 -0.4046146 -0.15292719 -0.3603311 0.17359757 0.3198907 0.2983237 0.13925964 -0.04341381 -0.075284734 0.40338492 0.036880884 0.41321132 0.031860266 -0.3422458 -0.15839815 -0.44918782 -0.4993607 -0.3065887 0.21557027 0.10627329 0.25898933 0.63241273 0.18670818 -0.043351054 -0.31145105 -0.07898048 -0.20947112 0.34690827 0.71721315 0.18689324 0.110903 -0.11637488 0.21471009 0.06145143 0.45045158 0.08408806 0.2775691 0.2565815 0.009194874 0.4722968 0.5053376 0.13227479 0.10721599 0.23258427 -0.06886857 0.31092122 0.2103789
38 0.2815421 0.119815886 -0.0034544212 0.012568689 -0.22175135 0.009191578 0.27834198 0.3776463 -0.2510207 0.25506043 0.05335737 -0.11288807 0.419267 -0.1459128 0.32546285 0.3548134 0.15416658 -0.37880144 -0.12662368 -0.35979536 0.16987462 0.26736063 0.26829827 0.107520595 -0.081056945 -0.08134777 0.38230917 0.023150714 0.40274897 0.043901462 -0.31923276 -0.15029778 -0.46342802 -0.5059295 -0.2505202 0.22008686 0.10118346 0.27486044 0.6249154 0.17578816 -0.022259064 -0.28965652 -0.09969921 -0.18806739 0.34913126 0.69848806 0.15942933 0.13096678 -0.12767649 0.19751278 0.052408695 0.42273936 0.084501125 0.256448 0.2849519 0.017448045 0.46488816 0.5036424 0.13768731 0.100929 0.24513954 -0.05813172 0.2858347 0.2112613
2 0.23165415 0.1655548 -0.061610598 0.010746226 -0.2792882 -0.004052469 0.20430161 0.38400972 -0.18096428 0.23238471 0.04833682 -0.10870187 0.45539522 -0.2017424 0.28412977 0.3308146 0.101113744 -0.3826668 -0.12778075 -0.38191646 0.105204076 0.19851397 0.29403976 0.18769406 -0.062428642 -0.08927216 0.36512893 -0.03101656 0.38973647 0.027481727 -0.26128015 -0.17177412 -0.48614642 -0.520712 -0.19614209 0.28009266 0.18155976 0.28383675 0.7094482 0.13188021 0.03588325 -0.27333042 -0.11133953 -0.16776614 0.36950135 0.7043078 0.13398354 0.13874702 -0.10461438 0.11752032 0.045116015 0.43292123 0.092853 0.26060912 0.35124305 0.06058975 0.45180184 0.5060533 0.16023356 0.07691682 0.19568008 -0.02868261 0.3053394 0.26172236
7 0.28109378 -0.09181219 -0.06960287 -0.0025509181 -0.08302618 -0.45497176 0.26013523 0.1429568 -0.49460885 0.20071411 0.17654419 -0.35454237 0.008287931 -0.050682932 0.6127531 0.3661846 0.29407766 -0.3046738 -0.12210758 0.13974346 -0.11153022 0.5017959 0.015926693 0.36206695 0.39739788 0.18871123 0.33720434 0.1284422 0.12076624 -0.021655474 -0.23431952 -0.269198 -0.084123306 -0.19922784 -0.6024833 0.09313013 0.035556667 0.3452902 0.23343341 0.19810766 -0.21251191 -0.26471156 0.23097117 -0.030989097 0.077166535 0.29322964 0.028163493 0.09177319 0.2900201 0.41175482 -0.28007668 0.5093743 0.3269584 0.48173895 0.053544503 -0.110840164 0.16227113 0.109444365 -0.10592294 0.4398724 0.06942768 -0.32685167 -0.022594407 -0.256365
34 0.26702473 0.14999716 0.0005021909 -0.0029354093 -0.25399044 0.0040116883 0.23865935 0.3838766 -0.2145705 0.24278215 0.037686277 -0.11578264 0.43813697 -0.16935156 0.3153627 0.33154878 0.11009556 -0.3625799 -0.13584706 -0.3899405 0.15299098 0.23514572 0.30374095 0.14829399 -0.076004654 -0.0924151 0.3961294 0.025835862 0.4000194 0.04797451 -0.2927594 -0.14726432 -0.49299666 -0.51183486 -0.23567826 0.23121502 0.122362025 0.2903697 0.65804267 0.15943266 -0.0029290111 -0.27140772 -0.1099384 -0.18974175 0.3516358 0.71900856 0.18414478 0.121278696 -0.1076752 0.16909006 0.05880073 0.42593676 0.0683819 0.27295387 0.3232712 0.053522985 0.4460624 0.5222242 0.14101946 0.09180311 0.23564407 -0.027322931 0.32119092 0.24443534
25 0.29231086 0.09439179 -0.029109238 0.005863722 -0.1793466 0.0073144166 0.26993418 0.31822968 -0.22963631 0.20967764 0.016516393 -0.09468759 0.37634608 -0.13227865 0.27815154 0.3490696 0.16379973 -0.3635678 -0.127087 -0.33091453 0.18703718 0.2387515 0.2591127 0.06498748 -0.09428947 -0.09871146 0.34197706 0.0031353936 0.35345986 0.039463483 -0.30962956 -0.14300719 -0.41275647 -0.43931872 -0.25600815 0.17676517 0.034710266 0.19869657 0.55113906 0.16878569 -0.056330457 -0.26472086 -0.11222199 -0.17702703 0.31307477 0.6260103 0.12789136 0.09938361 -0.13108392 0.1920899 0.022791635 0.3778185 0.07803953 0.22516108 0.24734682 -0.002604574 0.3932757 0.46387362 0.12925746 0.09332837 0.20788193 -0.046987522 0.2677713 0.18355007
48 0.24571419 -0.07144569 -0.07415147 0.017429588 -0.12201408 -0.46073887 0.28162315 0.12418275 -0.51791126 0.21277538 0.21248445 -0.3427686 -0.014373703 -0.0649036 0.64470357 0.33493003 0.29555982 -0.29824662 -0.121806815 0.09926245 -0.15813069 0.5525208 -0.0030322308 0.40922716 0.44154486 0.18256453 0.36090198 0.17700458 0.118591964 -0.030074691 -0.22934365 -0.26099336 -0.07311114 -0.23326589 -0.6315446 0.075022385 0.076769225 0.3664186 0.25341606 0.20288862 -0.22917522 -0.27296808 0.26846787 -0.03680861 0.08279737 0.33343983 0.018916555 0.12466766 0.33308527 0.44457418 -0.28563902 0.5393447 0.33160803 0.4706571 0.022868529 -0.11115612 0.13652736 0.10031596 -0.08892375 0.48536637 0.09276737 -0.32992178 -0.01821777 -0.26244053
1 0.32056892 -0.11812622 -0.08086548 0.007012801 -0.08920511 -0.41593614 0.3606304 0.111928746 -0.540202 0.2178656 0.17790252 -0.32624072 -0.0115337465 -0.06369735 0.6419307 0.4202379 0.34152135 -0.36024335 -0.13819249 0.09036106 -0.08439961 0.5810923 0.028548231 0.34249654 0.38264194 0.15968868 0.35380545 0.15614757 0.14697005 -0.011158122 -0.31731978 -0.26069286 -0.069788635 -0.21899796 -0.6800342 0.05841166 -0.02606586 0.3019428 0.22970113 0.2283007 -0.2727492 -0.30129346 0.2423838 -0.04778942 0.10252491 0.36453915 0.051029272 0.11413981 0.2653131 0.468621 -0.27428082 0.50144047 0.3178396 0.4616349 0.002579436 -0.17107023 0.1642662 0.14949462 -0.09109749 0.465587 0.092487514 -0.3286672 0.021046529 -0.2792231
5 0.27287394 -0.10282576 -0.06855246 0.02542055 -0.06569329 -0.41455033 0.2743492 0.15171395 -0.4582426 0.18132725 0.18105611 -0.30201316 0.046825636 -0.08201691 0.58532476 0.3660199 0.30600283 -0.32593516 -0.12657893 0.1073708 -0.09140936 0.48844814 0.03969758 0.32201254 0.33467335 0.18270673 0.31290087 0.10329326 0.08970982 -0.054597754 -0.25608438 -0.26898047 -0.072784334 -0.20091671 -0.5806115 0.095424235 0.03056355 0.30544606 0.2743917 0.15354356 -0.2089569 -0.25402322 0.18994464 -0.021506876 0.11326982 0.29749528 0.0325159 0.11696922 0.2544379 0.4103464 -0.2719307 0.4718245 0.32451734 0.45885372 0.07674424 -0.10687444 0.15766598 0.11319785 -0.08467855 0.40391374 0.07128517 -0.28728068 -0.0037712052 -0.23102938
20 0.53451806 -0.32728148 0.21496247 0.08981084 0.15372175 -0.15584382 0.6415639 -0.023012 -0.47334683 0.23355097 -0.03125291 -0.14574115 -0.115622155 0.0998706 0.31842107 0.5988309 0.41054675 -0.36577743 -0.2675346 0.20289215 0.47731417 0.6788926 0.22415154 -0.2016757 -0.038728897 0.1273698 0.010266152 0.07885714 0.09143052 -0.039249837 -0.6561984 -0.035770234 -0.081820816 -0.06921344 -0.54052997 -0.254161 -0.4426725 -0.09342084 -0.04481236 0.24912575 -0.46403024 -0.24959618 0.10280255 -0.18949841 0.032861065 0.15257263 0.06805639 0.01572934 -0.14782253 0.6408099 -0.16376951 0.08164592 0.18797462 0.21353918 -0.21637332 -0.13644356 0.20584816 0.070561394 -0.12091702 0.15145497 0.15712184 -0.316674 -0.007489868 -0.24058247
11 0.28368792 -0.09609461 -0.024265455 0.014689748 -0.046356283 -0.38553852 0.30618462 0.1418039 -0.44459283 0.1781427 0.16474958 -0.28921372 0.041719764 -0.07028098 0.53975135 0.36458826 0.29500782 -0.31468624 -0.12364027 0.12109035 -0.026966926 0.47301647 0.07382805 0.2908057 0.31355384 0.17543016 0.28168917 0.11524304 0.1253852 -0.035540562 -0.27289513 -0.21812901 -0.0912718 -0.20025378 -0.54954535 0.042826865 -0.00038339593 0.28352386 0.23505312 0.15770195 -0.20038871 -0.23427145 0.1862245 -0.04574955 0.10824694 0.2964102 0.0420328 0.102243364 0.2226083 0.40371037 -0.23912314 0.43366238 0.29629275 0.41293553 0.04583244 -0.083536 0.18365481 0.12960738 -0.073125735 0.34375438 0.07855729 -0.28168133 0.005585321 -0.22135206
22 0.5468974 -0.34382883 0.20826179 0.078635074 0.18330756 -0.1582983 0.6079324 0.021751992 -0.47918135 0.21512938 -0.024970794 -0.16757354 -0.06671222 0.10562741 0.3224716 0.61082953 0.4065003 -0.39393806 -0.27363852 0.20789564 0.48765558 0.64072716 0.21489385 -0.1838185 -0.04331189 0.16313642 0.022477856 0.032846034 0.068461314 -0.048020996 -0.66280234 -0.086770885 -0.09110787 -0.07802785 -0.542928 -0.20727135 -0.41713545 -0.06382526 -0.00822659 0.240388 -0.4276175 -0.22656162 0.087783724 -0.19524299 0.05528044 0.15258522 0.07753924 0.017891597 -0.14332655 0.5857159 -0.16844648 0.10370017 0.22321162 0.23825088 -0.15640466 -0.13894415 0.22612248 0.08907191 -0.123764895 0.15812805 0.13391057 -0.30989382 -0.045778073 -0.2324106
49 0.52127516 -0.32083014 0.18976739 0.09263665 0.15413655 -0.14639018 0.620705 -0.0019676848 -0.48876536 0.21350916 -0.031099733 -0.1686673 -0.0846887 0.06634775 0.3411092 0.5759201 0.3931084 -0.37927568 -0.2464766 0.17777792 0.4591527 0.64585036 0.20958148 -0.14739694 -0.03259922 0.14004795 0.056477413 0.07317422 0.08831495 -0.03920709 -0.63480955 -0.080105655 -0.07561463 -0.09515433 -0.54874206 -0.21647425 -0.4021061 -0.039088998 -0.013457868 0.24117704 -0.43398795 -0.24319819 0.07930346 -0.16027269 0.074896656 0.19085097 0.086869575 0.021227768 -0.14764707 0.60424066 -0.15731357 0.13653673 0.22452347 0.23300591 -0.17286201 -0.145475 0.23776346 0.09605581 -0.11100204 0.16078861 0.1613512 -0.29610613 0.0019825299 -0.23221374
27 0.46450922 -0.3398021 0.19987126 0.098043084 0.17738958 -0.18701832 0.5259812 0.026486266 -0.4159583 0.18519916 0.001142075 -0.16701728 -0.11345966 0.12490972 0.28559217 0.5397273 0.36381692 -0.3402686 -0.24183618 0.256441 0.42518973 0.5494575 0.21807034 -0.16107467 -0.0008757907 0.20443092 -0.022330595 0.02745505 -6.729405e-05 -0.06693741 -0.57621205 -0.062438555 -0.06785095 -0.055804774 -0.48619592 -0.20888543 -0.36906934 -0.054044347 -0.03206444 0.18132313 -0.41858956 -0.1561862 0.10944608 -0.16595386 0.0058940845 0.06657164 0.04521937 0.005144797 -0.10115958 0.55329126 -0.17235214 0.064067684 0.23031472 0.24423599 -0.13283774 -0.0800855 0.1970093 0.025469303 -0.14482671 0.15749224 0.107947685 -0.3117167 -0.08156909 -0.22364774
40 0.5023375 -0.3101657 0.21346502 0.078878134 0.15611158 -0.16064796 0.5645795 0.009109383 -0.44452733 0.2084877 -0.008764406 -0.15337498 -0.06438327 0.105572395 0.29584172 0.5702095 0.38839057 -0.36456034 -0.2331951 0.17030376 0.47406316 0.6044124 0.23187217 -0.18978547 -0.046252318 0.15745758 0.013733227 0.03189124 0.07570373 -0.058687177 -0.6176714 -0.05219343 -0.11092751 -0.07616212 -0.50063455 -0.19052343 -0.39207578 -0.06314202 -0.023975473 0.21676935 -0.41585705 -0.21797712 0.09318948 -0.19280894 0.037167575 0.1390767 0.058235202 -0.003190078 -0.14178176 0.58654886 -0.12341786 0.08993806 0.18647267 0.21990763 -0.16116066 -0.12816861 0.22038174 0.08486209 -0.12903978 0.14354464 0.15208001 -0.27565172 -0.02870249 -0.22808518
36 0.40776995 -0.15575716 0.03181178 0.08292416 0.1696846 -0.1933736 0.20006403 0.28485754 -0.1627416 -0.05569044 0.0147341015 -0.20443839 0.20658971 0.037910942 0.21625574 0.3487932 0.19549587 -0.38663563 -0.17889953 0.18317804 0.22899307 0.05633798 0.12513427 -0.11149216 -0.21818501 0.21161528 0.06653804 -0.15791051 0.016609147 -0.09179816 -0.30404508 -0.19299896 -0.10271338 -0.11200967 -0.26365766 0.106089205 -0.17254068 0.021506583 0.28790802 0.03540691 -0.13522479 -0.045819685 -0.11813889 0.07508153 0.2199949 0.10614343 -0.049129985 0.08767636 -0.053800322 0.1462685 -0.24898177 0.14721349 0.23369773 0.27019212 0.2038532 -0.05623519 0.21869701 0.12972291 -0.054206025 -0.004683936 0.039967995 -0.09356799 -0.08248437 0.083670646
39 0.48548537 -0.2185938 0.02478049 0.08158526 0.2146992 -0.2371735 0.29716265 0.24635401 -0.22286709 -0.043694567 -0.0097878855 -0.23040871 0.15341774 0.06937313 0.32152015 0.41985643 0.2897682 -0.43524063 -0.21885225 0.24310042 0.2595593 0.16190693 0.09231317 -0.12348001 -0.18689814 0.24923395 0.08921576 -0.13909379 0.030567495 -0.080177695 -0.3982244 -0.22634591 -0.044262942 -0.037301887 -0.3925339 0.053640503 -0.27650297 -0.0105957575 0.21044539 0.057470642 -0.21958514 -0.062794 -0.1081219 0.099154726 0.20656821 0.06870602 -0.055056244 0.10053434 -0.06881465 0.21029158 -0.32376784 0.1321262 0.30816746 0.29844943 0.12529956 -0.12828821 0.19453102 0.11365975 -0.087617755 0.0345743 0.017412685 -0.14990307 -0.11455181 0.0016000619
46 0.41974646 -0.24236394 0.061294682 0.16247301 -0.09794757 -0.24860087 0.5071754 0.22228105 -0.27372655 0.114646085 -0.02294799 -0.012311645 0.056598306 -0.3567619 0.412541 0.49785748 0.35645923 -0.5438555 -0.22417298 0.20502082 0.102338456 0.34249896 0.34405285 0.2113957 0.05663991 0.113943286 -0.05361083 -0.08866454 0.100288555 -0.19894746 -0.2864876 -0.18388686 -0.101870984 -0.15613607 -0.39764962 -0.08632855 0.009981062 0.025388287 0.5142588 0.060788132 -0.12846537 -0.12608297 0.08490201 0.0078098206 0.35545206 0.24321105 0.13407913 0.23076503 -0.07517302 0.3556442 -0.16376024 0.12794319 0.33279687 0.38649747 0.2989064 0.09769691 0.22203127 0.10112064 0.08069432 0.11935396 -0.051115777 -0.22313905 0.079608865 -0.017884785
9 0.4603292 -0.18017964 -0.022888837 0.095360145 0.2002383 -0.24018165 0.27343157 0.25348946 -0.23932071 -0.027595256 0.004059779 -0.2527109 0.21824583 0.07953456 0.32433978 0.39977053 0.26660267 -0.44977337 -0.1853952 0.22677128 0.23387407 0.12732294 0.07719612 -0.13227737 -0.22455952 0.24480715 0.12240668 -0.09907114 0.020282157 -0.08995901 -0.3907288 -0.24783836 -0.06406191 -0.0574335 -0.3656042 0.102494955 -0.29665536 -0.0054114447 0.212719 0.06748116 -0.20984076 -0.04308639 -0.13254611 0.12129011 0.22200507 0.11677059 -0.056780234 0.11676907 -0.046114527 0.21450678 -0.2946743 0.18501535 0.29799283 0.25989187 0.12281927 -0.12877859 0.19607016 0.14112096 -0.08082167 0.06351219 0.023316415 -0.1270221 -0.081212215 0.029257087
33 0.4255515 -0.15926874 -0.0042498494 0.054228883 0.14504728 -0.26272535 0.26963982 0.20778908 -0.26522288 0.0007265591 0.040037353 -0.25060806 0.17109796 0.03218392 0.33915734 0.3882429 0.2589567 -0.39389253 -0.1882472 0.17991002 0.17827445 0.18832122 0.0938535 -0.047978885 -0.087077916 0.1957587 0.14992826 -0.08468959 0.06487857 -0.05870386 -0.36629638 -0.20584431 -0.07713914 -0.105109476 -0.39007258 0.08146298 -0.22876762 0.039453004 0.22908393 0.088565364 -0.20274207 -0.09252742 -0.06610477 0.069694534 0.18842003 0.16093422 -0.042059377 0.10267096 0.0052361693 0.23257533 -0.29471695 0.22680774 0.2879215 0.28756544 0.11899608 -0.11526204 0.17992415 0.1274261 -0.08601725 0.11756295 0.044813797 -0.16914478 -0.06751125 -0.02988662
43 0.42144376 -0.20403022 0.056206584 0.15609975 -0.12813306 -0.21355343 0.5147343 0.2251321 -0.2903468 0.13240796 -0.02916701 -0.003600439 0.08089383 -0.39876315 0.45279402 0.5066564 0.3977068 -0.5621305 -0.23441677 0.14271902 0.07706279 0.37180814 0.35629618 0.25343594 0.025461026 0.07992387 -0.015612073 -0.07613591 0.13861132 -0.2224419 -0.2422802 -0.20324779 -0.12614886 -0.20245391 -0.44316366 -0.06881086 0.030086756 0.037520822 0.5805801 0.07288248 -0.099563256 -0.14879876 0.08945953 0.018391099 0.370414 0.28529266 0.1585352 0.2426545 -0.07111417 0.35720715 -0.1341458 0.14318371 0.36409345 0.39767087 0.2870045 0.09459365 0.2194333 0.1688874 0.08915527 0.14608184 -0.025356518 -0.2095234 0.083409704 0.011870378
37 0.38301906 -0.21018957 0.021246938 0.14378634 -0.09226474 -0.25766307 0.46608442 0.23285478 -0.2268385 0.107042745 -0.022294996 -0.0037468502 0.088548034 -0.3933412 0.43864977 0.47608075 0.37697864 -0.5346783 -0.22810866 0.18986855 0.018009314 0.31111193 0.30789483 0.25285542 0.04515719 0.103571795 -0.031545237 -0.082899906 0.1250723 -0.22409676 -0.21284947 -0.20929822 -0.0747633 -0.13911606 -0.39743745 -0.02866163 0.010602082 0.0394256 0.5539298 0.05758184 -0.09858678 -0.11657554 0.089550436 0.08107778 0.364798 0.22107457 0.11185724 0.22197346 -0.05611935 0.31069028 -0.17209215 0.11894481 0.36889568 0.39564255 0.31871906 0.08907306 0.16739182 0.098939545 0.089191295 0.09843584 -0.073963344 -0.17870863 0.051968746 -0.013920314
