39 64
34 0.1896045 -0.06916689 0.18682018 0.07469433 -0.05051212 -0.3225673 0.03546503 0.1408708 -0.08349376 -0.076044336 0.17201984 -0.18982203 0.05876059 0.06934602 0.016943533 0.14470607 -0.12217036 -0.023236945 -0.087106846 0.06519527 0.14663105 0.1851156 0.31587413 0.06428561 0.087497525 0.24393344 -0.17513342 -0.0012463621 -0.05286352 -0.10101588 -0.15876336 0.04199672 -0.27507314 -0.2701086 -0.044339772 0.13767707 0.1571077 0.19989087 0.33841828 0.022230962 -0.023149598 0.07216726 0.020987876 -0.29358697 0.009501555 0.0010209838 -0.054884452 -0.069504194 0.14815727 0.13902776 -0.042408064 0.109152235 -0.03720519 0.27095786 0.2547573 0.17643654 0.18439668 -0.17010848 -0.1401237 0.026505228 0.06992531 -0.24843523 -0.027052244 0.029572893
2 0.08966977 -0.15966535 0.22472815 0.05760568 -0.0084738275 -0.34575918 0.006228066 0.058985274 -0.12615567 -0.12367763 0.20536906 -0.08703028 0.09897298 0.03194809 -0.12136806 -0.020979755 -0.18477766 0.09195559 -0.030723913 0.00075857085 0.046788324 0.14610954 0.3240541 0.10705328 0.03088982 0.34401497 -0.3089375 -0.056636766 -0.1190875 -0.14662123 -0.109162726 0.06710315 -0.2888304 -0.19961968 0.07984655 0.11886718 0.2023802 0.119005404 0.37535825 0.057492092 0.13883655 0.03461902 -0.020377738 -0.18922539 -0.012092457 -0.09774832 0.00232541 -0.21408139 0.13677707 0.1269556 0.0992741 0.117280416 -0.060529 0.23081361 0.24470955 0.2263763 0.20875645 -0.30945897 -0.12227574 0.07069653 0.18305838 -0.29376265 -0.11647998 0.15812618
7 -0.035238463 -0.09653105 0.18724921 -0.002998889 0.067447506 -0.43242565 0.11947941 -0.02915752 -0.13405427 -0.084327094 0.26612562 0.061277654 0.16400225 0.027370062 -0.11169367 0.030176863 -0.23853979 0.07491365 0.030637994 -0.03649272 -0.015446426 0.2152837 0.27428135 -0.017070683 0.041227486 0.30896422 -0.3670288 0.12779522 -0.10227069 -0.14014319 -0.1459874 -0.05428843 -0.34277323 -0.27882874 0.009860892 0.21802989 0.15958428 0.11595596 0.44492397 0.007849649 0.15621294 0.024383709 -0.14618696 -0.43538868 0.08723309 0.082384765 0.016335381 -0.225803 0.17460184 0.12375257 0.05089469 0.30522394 -0.19138731 0.1489598 0.34822768 0.1456154 0.22525923 -0.29630372 -0.03914438 0.11558231 0.06739237 -0.36518872 -0.298133 0.1581904
31 0.08226626 -0.092063464 0.15486567 0.038439874 0.04013254 -0.39021295 0.06854525 0.058167428 -0.08993052 -0.07318008 0.1881741 -0.06441608 0.13096346 0.07057275 -0.027479297 0.12635653 -0.20290923 0.029185932 -0.031497836 0.038455762 0.08625608 0.21363954 0.29417247 0.0048658913 0.07599883 0.276031 -0.28121322 0.06637983 -0.06958642 -0.12281389 -0.1596412 -0.040521175 -0.28352448 -0.30164197 -0.019660382 0.20897372 0.13110365 0.16597618 0.4057131 0.0067667477 0.037097517 0.030882126 -0.07621892 -0.40075755 0.061605517 0.07033628 -0.021824894 -0.13656072 0.1663898 0.13952933 -0.031675775 0.239561 -0.10252475 0.20759995 0.29634282 0.16900873 0.19400848 -0.21506752 -0.0735573 0.057340454 0.022184722 -0.3168215 -0.19941314 0.075356245
6 0.0047799037 -0.13700758 0.14071377 0.01293984 0.077251166 -0.43283507 0.11382527 0.006445683 -0.14263514 -0.07095323 0.23944129 0.017898511 0.13705224 0.0607452 -0.07781117 0.06581287 -0.22737849 0.081585415 -0.0011233032 -0.005446766 0.036567234 0.23054758 0.26880717 0.024846684 0.052479785 0.28252336 -0.36111942 0.08721128 -0.094368674 -0.14100593 -0.15619916 -0.054493934 -0.27503726 -0.28223333 -0.0026453345 0.22479936 0.19407578 0.101083085 0.44863194 0.023491308 0.1189625 0.008602596 -0.10049262 -0.40618557 0.05672738 0.074961096 0.0010025286 -0.20370063 0.20578653 0.14503983 0.02468432 0.29001755 -0.13948525 0.1463696 0.3312003 0.19031516 0.23477888 -0.30070084 -0.046952125 0.10808415 0.08220394 -0.35615703 -0.29248407 0.15341264
12 0.34744844 0.14978148 0.51914644 0.16493711 -0.2944498 -0.19011569 -0.14126723 0.089454785 0.14425059 -0.2133373 0.11311155 -0.33805907 -0.09335262 -0.015486748 0.0042728866 0.28041115 0.0050706 -0.24615775 -0.17767969 0.3976591 0.29839894 -0.024622349 0.50805527 0.0018112622 0.11356687 0.27378422 -0.04358288 -0.20470606 -0.08125064 -0.26201367 -0.1338261 0.044972636 -0.5232757 -0.2565386 0.040169705 0.108448826 -0.03613699 0.34695002 0.18032447 0.10100051 0.027805356 0.28894603 0.112803996 -0.37861046 0.0125956135 -0.18829674 -0.1358974 0.034640685 -0.051414534 -0.19261976 -0.0399127 -0.07350846 0.06362577 0.49448213 0.26917875 0.1323872 0.03642875 0.06857201 -0.18201306 -0.17305398 -0.054829925 -0.12287201 0.41644204 0.0011073343
5 0.124732964 -0.09409297 0.35391346 0.08776513 -0.08097872 -0.33229557 -0.043641172 0.0140652405 -0.068112105 -0.17130771 0.20337829 -0.11725114 0.055219326 -0.015622261 -0.12811355 -0.0024541118 -0.14924867 0.017023206 -0.08204087 0.0678608 0.075180754 0.09247118 0.37197936 0.0954861 0.035950802 0.36619914 -0.2788555 -0.08859253 -0.14300412 -0.21543047 -0.12324764 0.050905377 -0.34866348 -0.16633208 0.12541421 0.07830837 0.15271068 0.12395485 0.32400748 0.08093955 0.14977546 0.09741885 -0.00571176 -0.18024643 -0.020382294 -0.13726479 0.0019903504 -0.1813441 0.09140153 0.017511768 0.12016649 0.059869997 -0.05580205 0.27941483 0.24472383 0.20760874 0.16610128 -0.25993803 -0.15407999 0.041984547 0.15962212 -0.28654224 0.03254792 0.15727538
11 -0.010548933 -0.12708765 0.18248452 0.019862328 0.08117991 -0.42208713 0.08324505 -0.04286259 -0.12923558 -0.1184864 0.22831436 0.0258199 0.15437329 0.027451014 -0.11286452 0.03943056 -0.24395065 0.06918716 0.032779496 0.0013594755 0.00084415055 0.20362778 0.26548478 0.018589083 0.038011424 0.3045301 -0.3579951 0.090008445 -0.11903844 -0.13585295 -0.121366926 -0.06729891 -0.32274184 -0.28467917 0.032505993 0.21469134 0.14394711 0.084967345 0.42774746 0.027423546 0.12740147 0.01573313 -0.1329318 -0.42210668 0.08962319 0.036823723 0.009556161 -0.21804123 0.18744664 0.12322207 0.032738715 0.29288268 -0.17765726 0.15006962 0.31876498 0.15445796 0.19826016 -0.28354764 -0.035406947 0.12121766 0.045276653 -0.3449262 -0.28735685 0.1563439
19 0.12690854 -0.17522486 0.2591709 0.051101442 -0.05432376 -0.32254755 -0.043255974 0.07394493 -0.13108493 -0.12974516 0.20089859 -0.13208465 0.04492292 0.025457636 -0.09762419 -0.03634486 -0.15327986 0.08062676 -0.05537279 -0.016073193 0.053605396 0.10085628 0.33463722 0.15942086 0.04318207 0.36070615 -0.26470155 -0.11012621 -0.11491925 -0.1660383 -0.13529155 0.092454575 -0.28408894 -0.1670183 0.09505025 0.08272896 0.21373332 0.13479541 0.3361897 0.0445887 0.13443384 0.073949195 0.00876959 -0.11418103 -0.023087105 -0.15328726 -0.0031099005 -0.20524392 0.14313589 0.1008166 0.13075174 0.015456791 -0.031848628 0.26990926 0.23409306 0.24018776 0.18378313 -0.3077189 -0.17468023 0.082884505 0.21483885 -0.27022016 -0.017226702 0.14508723
26 0.016687347 -0.0897404 0.18994161 0.029182604 0.048004553 -0.40411678 0.086274296 -0.011171638 -0.109523274 -0.11768917 0.21236037 -0.003829719 0.12205316 0.049190305 -0.058122534 0.080149546 -0.2253457 0.033635017 0.014683958 0.010892602 0.019696368 0.17981736 0.28784975 0.008169945 0.06436534 0.28790632 -0.31576842 0.07167752 -0.09804378 -0.14000908 -0.13731003 -0.035702728 -0.32712686 -0.2829513 0.01571395 0.20922571 0.14569679 0.15115277 0.39029092 0.021789694 0.12584382 0.04330383 -0.09592252 -0.41095477 0.07083494 0.03682642 0.010436093 -0.18054487 0.17797352 0.11995171 0.0155813275 0.23770025 -0.14274627 0.18329084 0.3289115 0.17889965 0.20589365 -0.2501751 -0.08067377 0.100014456 0.042267904 -0.3359796 -0.22275116 0.11121758
18 0.15495764 -0.13246956 0.28933316 0.05895729 -0.051266573 -0.2951382 -0.040648084 0.045417823 -0.10174752 -0.13274643 0.17859398 -0.15501548 0.040012803 0.02583724 -0.112469934 -0.0026448108 -0.14446965 0.0250735 -0.07920708 0.021882828 0.07996265 0.09931623 0.35173762 0.11915092 0.037153434 0.34080386 -0.2688827 -0.10316336 -0.13070427 -0.17681184 -0.12186983 0.08916316 -0.30630082 -0.1662887 0.09856962 0.06978443 0.19059438 0.14787872 0.31514445 0.06930379 0.12673801 0.0659468 0.0054289605 -0.15866943 -0.029694978 -0.13319273 0.005483599 -0.18196087 0.10159653 0.07888416 0.09118765 0.05169738 -0.04490603 0.2603144 0.23410036 0.22130726 0.19142008 -0.26929018 -0.15720934 0.054355998 0.18473239 -0.27542457 0.014087687 0.14923562
16 0.0032902542 -0.12431329 0.13357589 0.0058081113 0.07310177 -0.4267573 0.102860525 0.011120549 -0.12077375 -0.081351615 0.22044767 0.008773317 0.1572285 0.061920937 -0.07227584 0.059025906 -0.23555863 0.078773834 0.015210823 -0.03608526 0.006836355 0.23642342 0.24838726 0.025434636 0.042803157 0.28626826 -0.3441028 0.10633067 -0.08829929 -0.11794583 -0.15357761 -0.04726981 -0.29033333 -0.2956401 -0.028979693 0.228015 0.18193229 0.11658843 0.4265104 0.019737048 0.10609632 -0.0051297676 -0.12219826 -0.42350346 0.08918196 0.07838228 -0.011178951 -0.18704522 0.21864833 0.14779949 -0.007850556 0.29530224 -0.16865392 0.1569974 0.3193976 0.18340816 0.23817152 -0.27670136 -0.063779704 0.13347518 0.050227363 -0.32695428 -0.30514333 0.13453318
9 0.30336928 0.17150947 0.5588859 0.14095508 -0.28252047 -0.21323487 -0.14288823 0.04127894 0.14874105 -0.2513979 0.1443063 -0.3030473 -0.090965316 -0.030424591 -0.038350176 0.24069762 -0.018314976 -0.2572471 -0.1451926 0.38491115 0.26020408 -0.049163252 0.5142258 -0.026099391 0.080846876 0.3100275 -0.07998292 -0.17696895 -0.09796762 -0.30482152 -0.14023905 0.014625732 -0.58370405 -0.23665191 0.08297954 0.13843897 -0.054863326 0.34179106 0.19512253 0.103923425 0.06903284 0.29581887 0.07264936 -0.4175662 0.037052125 -0.18238823 -0.10385057 -0.007469988 -0.06406773 -0.21076047 -0.02848913 -0.037004735 0.03353389 0.49476916 0.32565698 0.11049074 0.053255863 0.047214568 -0.16467108 -0.17522395 -0.050998293 -0.17459506 0.4096154 0.014803471
28 0.36267588 0.18650427 0.562326 0.16707295 -0.31379008 -0.19055322 -0.15349835 0.05430375 0.14203827 -0.24050713 0.12458203 -0.3445558 -0.10077929 -0.02130226 -0.012618792 0.2713365 -0.021961289 -0.2686268 -0.17201166 0.39311612 0.28716037 -0.057323657 0.5392026 -0.0037107484 0.107093886 0.3017449 -0.047855478 -0.22285828 -0.10654957 -0.2983305 -0.13151444 0.041828908 -0.58337873 -0.25610042 0.060310826 0.12971547 -0.06690563 0.36013126 0.15736322 0.118752256 0.06264066 0.31946686 0.08530071 -0.4094699 -0.00026359505 -0.21704826 -0.15117317 0.006991471 -0.054354332 -0.22037548 -0.020893563 -0.07136351 0.06253121 0.5160858 0.3056854 0.121551976 0.039380096 0.062586896 -0.198616 -0.17210521 -0.04301099 -0.15107909 0.45979497 0.02365458
3 0.34069487 0.19349262 0.5818867 0.14732842 -0.31662068 -0.20671496 -0.17086498 0.06216912 0.1571224 -0.2602202 0.11601592 -0.31218547 -0.101603866 -0.03433052 -0.025604665 0.25162482 -0.012611324 -0.26007813 -0.17416307 0.4150839 0.28636715 -0.07637058 0.539727 -0.02356196 0.098396 0.30557287 -0.068364546 -0.21305466 -0.07991568 -0.31175384 -0.15300682 0.045736916 -0.5715002 -0.25180757 0.094265394 0.12249698 -0.059447914 0.35717857 0.15215683 0.12633617 0.071746044 0.31224513 0.08730119 -0.39129835 0.024403928 -0.19338652 -0.13779864 -0.0031182724 -0.068881325 -0.2223398 -0.030411616 -0.05348822 0.05858099 0.5132494 0.30258438 0.14028084 0.034572296 0.07442005 -0.16772336 -0.19643569 -0.061389722 -0.14954375 0.4507536 0.017941745
36 0.32827356 0.15650633 0.5072331 0.13519631 -0.27156535 -0.21724401 -0.14461103 0.06997011 0.12441807 -0.21944112 0.12773462 -0.31451067 -0.07857963 -0.017193772 0.0047644163 0.2445478 -0.02266356 -0.23443933 -0.14318042 0.35368618 0.27869177 -0.0228003 0.48838243 0.01823177 0.09974511 0.26850143 -0.07488572 -0.17763002 -0.065240934 -0.24231991 -0.16677628 0.053070303 -0.50901145 -0.24378507 0.059297446 0.10903347 -0.04481363 0.3475477 0.20461003 0.107534476 0.043593053 0.26600465 0.100417204 -0.40458634 -0.0013882209 -0.17250627 -0.13240726 0.011864928 -0.034424823 -0.17018439 -0.032853056 -0.054940507 0.06247539 0.4657575 0.29982832 0.15054215 0.06488007 0.03307516 -0.17109978 -0.16774274 -0.047174368 -0.15564127 0.3870646 -0.008241363
0 -0.014758776 -0.10950082 0.1562057 0.0029796981 0.0853235 -0.4251488 0.10487375 -0.0021223638 -0.121384166 -0.080141164 0.2489978 0.029003097 0.15567395 0.051987324 -0.085950844 0.057697 -0.24238203 0.06461671 0.008445042 -0.0143083595 -0.0055066454 0.21185912 0.26459908 0.0037815166 0.040689796 0.30011523 -0.35890335 0.10824382 -0.109677866 -0.12872499 -0.14561306 -0.054818287 -0.31989315 -0.30072603 0.008681222 0.2351783 0.14692427 0.11856501 0.43987152 0.015358219 0.102735564 0.019920675 -0.13908859 -0.43749794 0.08486765 0.07033371 0.014005071 -0.1892399 0.19490744 0.16239575 0.021413561 0.31130934 -0.15801226 0.14412826 0.3313192 0.17945807 0.2364058 -0.27241698 -0.044297736 0.13372777 0.039021272 -0.34775406 -0.3023384 0.1404764
33 0.37076208 0.17182942 0.54593337 0.15130943 -0.29812333 -0.18819405 -0.17032063 0.090501934 0.15935056 -0.23677132 0.12507781 -0.3645326 -0.081043355 0.004720891 0.0034276193 0.27655584 -0.008633594 -0.26192868 -0.17144686 0.3996954 0.2891874 -0.04907878 0.5247219 0.008785718 0.098133415 0.28238952 -0.038095117 -0.21769926 -0.084664345 -0.27839816 -0.15810785 0.034549188 -0.54950255 -0.26365814 0.05586447 0.10101758 -0.05968492 0.34852496 0.1594266 0.122766875 0.037855234 0.29703495 0.10040689 -0.40173697 0.006268686 -0.19026504 -0.13618757 0.017275754 -0.04875914 -0.18916081 -0.056844342 -0.086711936 0.052252255 0.5074834 0.30024406 0.1518105 0.045660194 0.057575088 -0.17693035 -0.17500584 -0.052945692 -0.12837125 0.43854102 -0.02019527
22 0.4253081 -0.3790638 -0.08302565 0.10584988 0.08913165 -0.3128311 -0.11963112 0.3860634 -0.040567137 0.04877686 -0.0015953149 -0.4118145 0.07754769 0.19030121 0.053841706 0.23905665 -0.19350402 0.23421347 -0.124807596 0.08930949 0.3904102 0.26608372 0.2866415 0.33454645 0.090714 0.18971704 -0.16339895 -0.25118414 0.036737006 0.15406618 -0.13709088 0.2621059 0.12768854 -0.17538819 -0.115338266 0.02666485 0.44112405 0.15495004 0.37551454 0.028091738 -0.23409675 -0.013607929 0.22954577 -0.034005098 -0.10736492 -0.1404525 -0.12815985 -0.033281174 0.25723574 0.3372971 -0.12596802 -0.16043879 0.15318134 0.27474934 0.029938921 0.44297913 0.25917113 -0.23736902 -0.308404 -0.027220283 0.17447957 -0.15539192 -0.05325192 -0.06606034
29 0.1459805 -0.14431843 0.24753013 0.056365736 -0.045657653 -0.31311172 -0.029321982 0.09753802 -0.11129285 -0.09587667 0.17110226 -0.13359807 0.05874599 0.053364273 -0.098651774 0.019721787 -0.15442622 0.059643105 -0.0681994 0.0021845098 0.07581904 0.11573522 0.32890368 0.13115521 0.039013572 0.33777472 -0.2690216 -0.094276 -0.1335299 -0.15278728 -0.10927641 0.075092144 -0.2894735 -0.17701717 0.08100646 0.07958598 0.20663933 0.13481233 0.34194472 0.045689594 0.087709054 0.067772664 0.034705143 -0.15545067 -0.043063544 -0.12068266 0.0020474277 -0.16370836 0.12492278 0.10914043 0.09857237 0.049049243 -0.051031727 0.25851133 0.24359146 0.24190299 0.19616279 -0.2770441 -0.16033521 0.061227664 0.1843492 -0.28114042 -0.045949563 0.123263985
21 0.12526639 -0.09375328 0.29556793 0.07873735 -0.071829826 -0.31714326 -0.012222103 0.0448741 -0.1030726 -0.13855995 0.19655283 -0.14030744 0.0613101 0.009938844 -0.08357382 0.018237673 -0.13174456 0.027228845 -0.053549226 0.05024523 0.052826025 0.11980564 0.33538854 0.096255794 0.035764318 0.3336564 -0.2712416 -0.09028559 -0.12959969 -0.18116075 -0.13777414 0.07343758 -0.35116032 -0.2003578 0.10006374 0.10641883 0.17730483 0.16587292 0.32443836 0.047545057 0.13288827 0.09004164 0.018581256 -0.18597071 -0.0030641588 -0.100734524 -0.021270905 -0.18715723 0.11615044 0.076658204 0.10512538 0.0712866 -0.04216498 0.26560032 0.27082017 0.20272325 0.16546212 -0.23831207 -0.15178373 0.044560574 0.15052783 -0.28720203 0.009343849 0.13495018
23 0.4366428 -0.3516476 -0.027076615 0.11746856 0.06330594 -0.31672296 -0.12488949 0.38288084 -0.012890642 0.023929998 -0.013039019 -0.42379823 0.07592869 0.15921743 0.05088086 0.27337247 -0.1475378 0.1925825 -0.1281654 0.1424925 0.41995752 0.23618989 0.32331124 0.30934095 0.1210085 0.17007099 -0.12075721 -0.25548756 0.0397208 0.11810243 -0.111344 0.26986265 0.07994546 -0.16820236 -0.10648251 0.031186588 0.38950136 0.15537125 0.35098264 0.047023762 -0.21429387 0.015344745 0.2385452 -0.034747545 -0.084312074 -0.15529513 -0.11896403 0.0016706305 0.24515623 0.29519424 -0.16985731 -0.16580932 0.16578001 0.29378304 0.023567393 0.4233647 0.23443492 -0.16613822 -0.2994202 -0.06979975 0.16877107 -0.1392372 0.03957551 -0.058940396
37 0.4311027 -0.37360314 -0.011290745 0.101959266 0.05607663 -0.33212355 -0.13038608 0.37124717 0.0041557136 0.01413239 -0.0042287367 -0.40635535 0.08690759 0.16366811 0.025377851 0.22935914 -0.17522123 0.21370898 -0.12328318 0.10945176 0.40647066 0.22703105 0.28934398 0.30428013 0.107952416 0.1682373 -0.15329273 -0.26499695 0.055654515 0.119882345 -0.11450612 0.2684686 0.11122673 -0.16206892 -0.08363294 0.039022554 0.4043546 0.14785545 0.33447316 0.036053006 -0.19692236 0.0083925985 0.21550122 -0.023943095 -0.077575535 -0.17109829 -0.1301397 -0.038757887 0.2555334 0.30550593 -0.14021689 -0.1416371 0.13352115 0.2652689 0.029437678 0.41958627 0.23322886 -0.19324942 -0.2970001 -0.05008608 0.16716473 -0.14525577 -0.0065419953 -0.055564683
10 0.23149182 -0.051991496 0.032614 0.02097851 0.011147665 -0.29876885 0.09008159 0.22008118 -0.14130661 0.022913376 0.16014232 -0.24898522 0.094696514 0.11783679 0.16425642 0.24081804 -0.12245399 -0.07477501 -0.055902697 0.045726836 0.16788508 0.27367046 0.23721124 0.031945862 0.09980077 0.17977434 -0.11521939 0.09246539 0.008824903 0.016278291 -0.17585485 0.048103634 -0.26362276 -0.34304458 -0.16144279 0.17996931 0.13696137 0.28302974 0.3578966 -0.02453858 -0.14474958 0.03381419 0.05443655 -0.3524014 0.006474817 0.14925945 -0.05553009 -0.0020477679 0.17826654 0.24281886 -0.13796672 0.13891383 -0.032096136 0.242978 0.23992948 0.17959368 0.18907525 -0.12182069 -0.122629054 0.005820971 0.041748393 -0.22456296 -0.091303565 -0.029304903
24 0.40071142 -0.3878775 -0.07683059 0.1200319 0.10320935 -0.32567024 -0.124622285 0.3689181 -0.022435252 0.050763644 -0.01823828 -0.38967165 0.09129314 0.14824109 0.0087668765 0.21140309 -0.16528374 0.24307653 -0.11802323 0.09225241 0.39192724 0.2409547 0.2922566 0.31737262 0.100660615 0.16546732 -0.17227079 -0.2434993 0.046520192 0.11417507 -0.11467006 0.261702 0.12715182 -0.15113796 -0.10487116 0.03518739 0.41695872 0.10846051 0.36325398 0.04811582 -0.20073165 -0.020887299 0.19337577 -0.037591323 -0.097544976 -0.13998285 -0.12302576 -0.027427351 0.23554806 0.32787472 -0.14810003 -0.14145322 0.14830303 0.2582276 0.014652235 0.41757146 0.21889961 -0.23801634 -0.2847906 -0.013274333 0.18494335 -0.12689318 -0.041835614 -0.023880828
25 0.4445722 -0.41108426 -0.05012736 0.122073464 0.08960111 -0.31815675 -0.14249709 0.40385276 -0.0061591105 0.037904356 -0.034298155 -0.44002286 0.06959237 0.18325494 0.010045598 0.2590605 -0.18827963 0.23558737 -0.13513277 0.09552512 0.44059873 0.25822574 0.30703798 0.34441483 0.10849207 0.18501393 -0.13817786 -0.29648602 0.042550873 0.13193093 -0.109191865 0.27464643 0.14435877 -0.17050415 -0.094701126 0.03134221 0.4416329 0.12476184 0.33964983 0.02380455 -0.22559479 -0.021294357 0.21836862 0.0017824351 -0.08592506 -0.16499536 -0.15189588 -0.03157556 0.26466805 0.33538806 -0.16149712 -0.18197925 0.1662672 0.2778308 0.0065137404 0.44711965 0.22563776 -0.23168717 -0.3193282 -0.04815236 0.1904717 -0.12327909 -0.005630718 -0.041036803
15 0.2715029 -0.14064674 -0.026473332 0.040472005 0.053623505 -0.31707639 0.10058068 0.33212057 -0.16114035 0.027321495 0.15318768 -0.30398497 0.10285608 0.15983135 0.22756323 0.20186335 -0.13837239 0.009877943 -0.08948945 -0.041731052 0.12629732 0.31214193 0.20908023 0.10806337 0.08799523 0.18567108 -0.08355489 0.07828346 0.06497889 0.087975234 -0.22542925 0.108334765 -0.18425448 -0.32369497 -0.20817854 0.16025959 0.24073203 0.31381056 0.40359563 -0.03799934 -0.14746441 -0.024164014 0.13954674 -0.23316792 -0.03189064 0.097597495 -0.036525 -0.06358055 0.28443018 0.31174463 -0.088805534 0.036220983 0.0009814072 0.28397408 0.269486 0.20847043 0.27164716 -0.18518479 -0.23600805 0.05464626 0.08575387 -0.27787796 -0.10590277 -0.11910229
30 0.20527829 -0.11956088 -0.05515261 0.027339514 0.037372757 -0.32751775 0.11544877 0.25351146 -0.19820482 0.07624559 0.1647431 -0.23144837 0.13436654 0.11866869 0.159456 0.22775574 -0.14366245 -0.01660532 -0.059391737 -0.02412218 0.158171 0.31320706 0.21061534 0.090658054 0.11085972 0.15261823 -0.123194836 0.084702216 0.021814954 0.059193622 -0.17292133 0.057657648 -0.20712012 -0.34873265 -0.1800268 0.18293358 0.21759005 0.23959878 0.4083753 -0.017832512 -0.1487234 -0.0330287 0.066779636 -0.32920367 0.015235146 0.181366 -0.041832615 -0.008408138 0.23582302 0.32198322 -0.1197523 0.18328546 -0.032787204 0.21466662 0.23150407 0.19342819 0.23093256 -0.14753777 -0.09443404 0.06052369 0.09388082 -0.2522569 -0.15841034 -0.018694783
14 0.18977855 -0.105709486 0.17614819 0.07077938 0.020139202 -0.39106455 0.09596625 0.11984113 -0.06323345 -0.09751886 0.15867113 -0.15126716 0.12101993 0.048201866 0.052296266 0.17110078 -0.15305237 0.003844522 -0.07410667 0.06588361 0.11538442 0.25218743 0.3207762 0.060353886 0.1012378 0.27513242 -0.17016098 0.065747894 0.017415367 -0.10934951 -0.17084078 0.030133912 -0.23368233 -0.27846673 -0.08592448 0.16025014 0.1781657 0.17890391 0.39547035 0.0064270976 -0.0048949593 0.025670253 0.01247872 -0.28809494 0.036298692 0.055266753 -0.013179427 -0.13701533 0.19681048 0.17355679 -0.0357291 0.157966 -0.062744305 0.2542314 0.22834437 0.20720702 0.22804119 -0.20471065 -0.14656718 -0.0038327042 0.06564936 -0.2913042 -0.06962238 0.063238926
17 0.29693368 -0.08480426 0.06010406 0.042493276 -0.00223254 -0.28454152 0.08512839 0.32722393 -0.13538016 0.019777056 0.15998526 -0.30514187 0.052925367 0.1662295 0.2465075 0.23917647 -0.100919984 -0.029777976 -0.07459631 0.023906335 0.14873277 0.28658623 0.23993452 0.08300458 0.095694356 0.19206874 -0.058944054 0.06539005 0.06649978 0.04741706 -0.22227426 0.09193521 -0.23075186 -0.3424985 -0.18821365 0.15271695 0.19685076 0.36029425 0.37161267 -0.0117871165 -0.15149228 0.02476531 0.14774193 -0.27423334 -0.0141325025 0.09784695 -0.03843687 -0.019936971 0.22620527 0.26881856 -0.094253 0.015985742 0.012111121 0.32823503 0.28127575 0.20368221 0.24962787 -0.12358533 -0.23266989 0.03374164 0.06837969 -0.2639501 -0.022544036 -0.13762666
27 0.23749489 -0.101654656 -0.009136174 0.035660323 0.008753296 -0.31172526 0.07602322 0.23983686 -0.13960455 0.050060425 0.14383008 -0.2651701 0.104139864 0.13002913 0.13787362 0.235579 -0.14585513 -0.020923039 -0.079796106 0.010432823 0.17534025 0.30499673 0.24059944 0.09783932 0.098779775 0.18135735 -0.12602387 0.04298787 0.028343149 0.03727631 -0.1968291 0.06065452 -0.22102962 -0.3365151 -0.15120417 0.17481695 0.20739949 0.2628454 0.40555295 -0.015542704 -0.15575558 -0.0100538125 0.085702725 -0.29864362 -6.458843e-05 0.13203523 -0.071176775 -0.024945112 0.20435084 0.27455494 -0.1277891 0.120857164 0.0002399091 0.2376861 0.21615335 0.2120293 0.22190668 -0.14080566 -0.14953989 0.025033453 0.06581354 -0.24858122 -0.106300905 -0.03750452
13 0.34588182 -0.0903887 0.02437663 0.036729638 -0.008657909 -0.29513904 0.061363276 0.3486382 -0.12106611 0.03394785 0.11116717 -0.36558336 0.033251714 0.18305258 0.26866373 0.29136372 -0.08909923 -0.039317973 -0.10643304 0.06737303 0.19524138 0.2865685 0.24307777 0.101471655 0.12400938 0.16703285 -0.016872622 0.04143854 0.084644645 0.07583196 -0.21868277 0.09199844 -0.20097248 -0.31937072 -0.22712922 0.14725098 0.19015303 0.35950348 0.33688807 -0.0068524703 -0.20213549 0.02187784 0.1769006 -0.25813764 -0.03968953 0.085145324 -0.05789711 -0.010681178 0.2375499 0.26922676 -0.14355166 0.0028562108 0.04203455 0.35369223 0.25269425 0.20945287 0.23483351 -0.095212236 -0.25704268 0.017310223 0.039505582 -0.2469984 0.0004444818 -0.1671876
4 0.30787304 -0.09216985 0.05749569 0.029252522 0.0010347171 -0.30472213 0.05562102 0.32608005 -0.115473144 -0.0042061843 0.13117525 -0.3226894 0.055830028 0.17086321 0.23749982 0.21987894 -0.124510534 -0.006927165 -0.09433142 0.022308597 0.16011463 0.26380366 0.2589447 0.10294485 0.09199288 0.19835266 -0.04927152 0.05904849 0.05745182 0.055837188 -0.22771402 0.09487163 -0.21610887 -0.30932495 -0.19157717 0.14067674 0.1873453 0.34947497 0.36547816 -0.016990066 -0.1581424 0.035098508 0.13851114 -0.23760113 -0.028160656 0.087052114 -0.02532567 -0.042360548 0.24435684 0.25408497 -0.11291397 0.007817495 0.01813019 0.3427797 0.28046042 0.22298881 0.22928333 -0.12040043 -0.25242525 0.027177555 0.064844474 -0.24650462 -0.004041281 -0.12382709
35 0.2360027 -0.0954946 0.022758253 0.031028965 0.02214468 -0.32115346 0.06345124 0.22244944 -0.13148531 0.009977932 0.14337315 -0.23170343 0.09695525 0.12179929 0.10805003 0.21840827 -0.120862156 -0.017769506 -0.061155166 0.030870175 0.18346262 0.2477833 0.24802862 0.06008885 0.090852655 0.1659608 -0.13716435 0.031856723 0.0008427064 0.009733017 -0.1621801 0.05321902 -0.23406553 -0.31997278 -0.12871477 0.15530388 0.16975941 0.23716289 0.38430354 0.0072698426 -0.13819861 0.021052156 0.058720987 -0.3233133 0.0075549963 0.102786094 -0.07011642 -0.034602102 0.18749459 0.25318378 -0.123719506 0.1404963 -0.012845171 0.23759362 0.23941779 0.20653078 0.19532292 -0.13417318 -0.11893445 0.032577526 0.067303605 -0.24773817 -0.09482212 -0.026349733
20 0.25802618 -0.12046797 0.0019784854 0.05560608 0.016401732 -0.3380349 0.09033766 0.26855585 -0.16063085 0.04521805 0.15018965 -0.2748758 0.09342985 0.14761984 0.16600196 0.22391707 -0.1406516 -0.007853425 -0.088695735 0.02101332 0.18018392 0.31383094 0.23223919 0.100492686 0.10475728 0.18826808 -0.12559624 0.06169143 0.026011286 0.03162248 -0.18301007 0.08142967 -0.20217532 -0.344095 -0.17116852 0.1538416 0.22849382 0.263838 0.41230917 -0.0025698098 -0.17108563 0.0047761486 0.10484368 -0.29151872 0.0017908268 0.12867965 -0.07706747 -0.0067120558 0.23404361 0.31052133 -0.14398059 0.12555653 0.007125197 0.24652202 0.2105821 0.23068547 0.21037076 -0.16552103 -0.1457352 0.04325565 0.09747548 -0.2600384 -0.12842682 -0.022507012
32 0.29487947 -0.14789985 0.016238136 0.03325221 0.015696757 -0.31596136 0.053191815 0.30217427 -0.13854882 -0.0022908198 0.15423091 -0.3079574 0.06018382 0.17007546 0.18798202 0.22239323 -0.14099199 0.008819076 -0.07999131 0.0062285108 0.14226012 0.2717269 0.25411704 0.13570543 0.10541429 0.21144997 -0.104805574 0.019779252 0.027481046 0.061123118 -0.21274821 0.10993994 -0.18782532 -0.3099545 -0.1795794 0.15088205 0.21777295 0.29732722 0.37885797 0.0032618036 -0.14863065 0.015300949 0.14755519 -0.24174632 -0.035071436 0.064141944 -0.030629983 -0.050901927 0.2587075 0.27377632 -0.08915381 0.017344318 -0.0021432037 0.31186205 0.25179553 0.21784434 0.24392451 -0.16591603 -0.23417735 0.05875141 0.08624014 -0.26468858 -0.042714484 -0.10584628
1 0.31617668 -0.018239377 0.12624083 0.06963949 -0.06854291 -0.27838087 0.013633301 0.2800696 -0.055185106 -0.026435416 0.145473 -0.3305304 0.034590684 0.11493757 0.22085075 0.28159586 -0.06095623 -0.09530951 -0.112717845 0.12232089 0.19575082 0.23337656 0.3048963 0.06419161 0.12367656 0.19333096 -0.017915629 0.0045744064 0.02519512 -0.02782867 -0.21300505 0.05479782 -0.27979618 -0.3213623 -0.17834404 0.16735071 0.1417946 0.36725783 0.3337872 -0.002064214 -0.14659856 0.07146577 0.13672426 -0.32037553 -0.009692097 0.05548829 -0.07084561 0.013920923 0.17854907 0.17390129 -0.13957325 0.024313262 0.04341708 0.39409018 0.27985325 0.17733963 0.18069421 -0.054983456 -0.21651186 -0.016569288 0.011878864 -0.21424586 0.09629647 -0.13657236
8 0.22830044 -0.056725547 0.21245557 0.07375748 -0.033749484 -0.36913183 0.07506975 0.13554353 -0.054936662 -0.095239684 0.16385102 -0.19315346 0.0738009 0.049237803 0.05965417 0.16606146 -0.12026679 -0.021896357 -0.100485474 0.11416224 0.110418685 0.21848089 0.34342188 0.053751316 0.087979145 0.26521632 -0.16486767 0.038230307 0.016397422 -0.1134106 -0.16603738 0.06944431 -0.28895703 -0.26741785 -0.051148716 0.11363779 0.12867601 0.20029444 0.36998865 0.026406713 -0.012234218 0.04298357 0.04218485 -0.25342453 0.013355863 0.017001024 -0.033888854 -0.09911357 0.17219952 0.1675089 -0.05285913 0.09377832 -0.050581 0.2923129 0.22312233 0.2122199 0.18611726 -0.18803932 -0.14910428 -0.026135752 0.08079351 -0.2896978 0.02074019 0.051094696
38 0.23805279 -0.05203319 0.21427377 0.06845876 -0.0070647835 -0.36596766 0.0756239 0.15483215 -0.047505707 -0.10216465 0.16299209 -0.21991211 0.09279359 0.0378683 0.086528175 0.18412755 -0.091340676 -0.036768965 -0.084234156 0.13754433 0.15057336 0.21303153 0.3445306 0.07570474 0.11658033 0.27155006 -0.11768268 0.03854577 0.036772322 -0.10634317 -0.16625933 0.060988367 -0.26154795 -0.2614209 -0.08804982 0.10360067 0.13473552 0.22977236 0.33913788 0.005318208 -0.015209898 0.056929786 0.056398556 -0.2501449 0.02280448 0.02846744 -0.034142286 -0.08785592 0.18053775 0.15174334 -0.0645523 0.10076352 -0.013994087 0.2994869 0.21104474 0.20920883 0.20257972 -0.14204636 -0.15782166 -0.05237156 0.061510276 -0.25753275 0.034243587 0.007033879
