15 64
6 0.0061097494 -0.04577398 0.30169883 0.13286683 -0.1014753 -0.2182669 0.053162146 0.07979218 -0.0840703 -0.1555445 0.17037904 -0.007611917 -0.06552792 -0.00538655 -0.14940958 -0.027185764 -0.045643423 0.034879383 -0.071945354 0.11825334 0.1736872 0.09489838 0.2655871 -0.11224481 0.039657056 0.24186714 -0.1679722 0.055622663 -0.13847102 -0.18584567 -0.0007165014 -0.06849054 -0.24551523 -0.1869883 0.009109428 0.13890928 0.15733276 0.11642582 0.18352665 0.021430029 0.070024 0.11860284 -0.10607891 -0.2135665 0.12349376 -0.06766864 -0.052731607 -0.05094473 0.023073874 -0.08878546 -0.012128037 0.16994013 -0.08111411 0.28963 0.23736897 -0.090394855 0.061494 -0.076663055 -0.073801324 0.047332775 0.03221706 -0.17219977 -0.060895476 0.06236562
2 0.002782133 -0.04247607 0.27736935 0.13051495 -0.09349999 -0.19439855 0.054080084 0.085445665 -0.07364414 -0.15147874 0.16225632 -0.0036040884 -0.04369199 -0.012085673 -0.1367773 -0.032345235 -0.04503378 0.036822226 -0.060221627 0.1424795 0.15400186 0.09242299 0.25656638 -0.1192723 0.027918497 0.24592485 -0.1607982 0.04222638 -0.120602086 -0.17501445 0.023540927 -0.0597463 -0.2570075 -0.18230012 0.010946251 0.14801614 0.1253721 0.12615195 0.19045198 0.038149178 0.092035 0.095635 -0.07985274 -0.18398646 0.10380767 -0.07079988 -0.03924342 -0.06784204 0.0031075112 -0.093522005 0.011534333 0.16830304 -0.05348579 0.28878593 0.20686664 -0.078597814 0.05670868 -0.07134569 -0.05297875 0.015620925 0.045857925 -0.15772204 -0.063667275 0.07900084
8 0.0048743063 -0.028814945 0.2521155 0.08148959 -0.062734224 -0.17275614 0.038240414 0.045649763 -0.056551546 -0.114696585 0.14131746 0.009730046 -0.03276 -0.02947217 -0.12759656 -0.025276035 -0.048224643 0.038331505 -0.024726799 0.09760711 0.121152826 0.069841586 0.211564 -0.09912328 0.022621427 0.20158872 -0.1261813 0.055880085 -0.08074215 -0.12279375 0.010520448 -0.03854269 -0.22487749 -0.13485341 0.00510543 0.09613167 0.11572028 0.10497215 0.15704761 0.010295742 0.078490585 0.09755761 -0.08504056 -0.18039863 0.1149465 -0.048397608 -0.03160565 -0.07305696 0.0036681776 -0.07687453 0.008935062 0.11802264 -0.08429642 0.23154609 0.18334818 -0.08240584 0.03912662 -0.05968539 -0.050888736 0.01351598 0.030170448 -0.14664684 -0.03975034 0.05503695
14 0.008130132 -0.059122164 0.26505774 0.12287441 -0.07649999 -0.19660969 0.0291026 0.07730114 -0.070498005 -0.12806052 0.1409344 -0.006906982 -0.041657854 0.0026904235 -0.1343398 -0.014194192 -0.05616928 0.04112667 -0.07509382 0.12246416 0.1742753 0.08941381 0.25086984 -0.1174971 0.039518666 0.24299909 -0.17395693 0.032962672 -0.13522176 -0.17808142 0.0012227291 -0.08086349 -0.22049665 -0.17309228 0.02376019 0.14192167 0.12525393 0.12100871 0.18701445 0.01846516 0.06545885 0.096743174 -0.091924585 -0.18991654 0.10164244 -0.05297649 -0.033210628 -0.054060582 0.0031497395 -0.098155685 0.004238067 0.164004 -0.055244297 0.27413958 0.20964624 -0.07847768 0.045992766 -0.06621815 -0.061279688 0.027057141 0.024394732 -0.1715718 -0.07055851 0.060187362
11 0.0014983106 -0.051525366 0.23994233 0.10254592 -0.069072165 -0.18412726 0.053431027 0.06440995 -0.07787594 -0.10866484 0.15291916 0.0042757518 -0.060854584 -0.0001075655 -0.11276872 -0.008959735 -0.034363385 0.031494312 -0.06522286 0.1310952 0.16203816 0.08660809 0.21681763 -0.09970718 0.03098385 0.19723567 -0.16101043 0.03836861 -0.11203158 -0.16491354 0.00010252764 -0.07382689 -0.20390877 -0.15193245 0.003902841 0.13101336 0.13922004 0.100131944 0.17893545 0.035761233 0.08130778 0.09416919 -0.059795376 -0.18558253 0.0826704 -0.04011051 -0.030421887 -0.054114383 0.017538857 -0.09898938 0.010478189 0.1506122 -0.04891076 0.23457645 0.20694055 -0.062392216 0.054167442 -0.07073351 -0.045066904 0.025321962 0.047179464 -0.15789759 -0.064103924 0.074663125
0 0.0066081053 -0.048725054 0.27908272 0.129184 -0.09725974 -0.18499708 0.0526977 0.07198464 -0.06631154 -0.13003588 0.14908606 -0.009384534 -0.06341876 -0.013113168 -0.119543865 -0.0049028327 -0.028701168 0.021578511 -0.07802041 0.1381297 0.15900026 0.09295441 0.2431651 -0.10923564 0.042413455 0.22673768 -0.15137587 0.037437063 -0.124635674 -0.16895281 0.014148443 -0.064735204 -0.24428 -0.17660703 0.0005559224 0.12902041 0.13539296 0.1274258 0.18210311 0.021745354 0.077498496 0.106787026 -0.06624252 -0.18633191 0.109017186 -0.066760644 -0.035886902 -0.040635217 0.008763617 -0.11299573 0.014632051 0.14228952 -0.06437238 0.2760054 0.19920182 -0.08009461 0.042675097 -0.052550238 -0.07138859 0.034649685 0.02607598 -0.14635502 -0.04801668 0.072021686
13 0.0014369453 -0.052886862 0.28090322 0.12651528 -0.08723964 -0.20504184 0.03388012 0.06713828 -0.072281286 -0.13449644 0.16681711 -0.0048738625 -0.0444686 -0.019410117 -0.1306973 -0.026476366 -0.05340974 0.03288101 -0.07904633 0.12190021 0.1639634 0.097432345 0.2398256 -0.10361818 0.026726618 0.23639058 -0.16914251 0.04780052 -0.13632837 -0.16552113 -0.00021792707 -0.07403021 -0.23518586 -0.15613045 0.018733623 0.12358954 0.13508298 0.101180375 0.19154136 0.04333149 0.073951334 0.10062314 -0.07641493 -0.17749977 0.086917445 -0.0577147 -0.02291413 -0.04866862 0.012853678 -0.114933915 0.021067988 0.14079097 -0.065691166 0.26930588 0.20385091 -0.071557276 0.054869726 -0.07694834 -0.07798005 0.046187986 0.046095356 -0.16837205 -0.052018907 0.070081614
1 0.014972624 -0.051715873 0.24302565 0.09555457 -0.044146057 -0.17236243 0.029580321 0.028548859 -0.0836747 -0.14002007 0.12479571 -0.01576702 -0.03816909 -0.0277057 -0.109398074 -0.023050474 -0.04981104 0.024022266 -0.017419972 0.115730405 0.1128882 0.08156963 0.19011942 -0.07468118 0.017389396 0.20185135 -0.12122652 0.053982817 -0.10010465 -0.119852394 0.023925843 -0.067693554 -0.22443238 -0.15163682 0.01827121 0.10072703 0.09993398 0.082922705 0.15883346 0.023290817 0.051260583 0.079647444 -0.074126706 -0.17578341 0.11488938 -0.06540466 -0.024872845 -0.07559049 0.025454406 -0.06513512 0.0009010253 0.12942626 -0.08355996 0.22901097 0.17628957 -0.08703994 0.022786789 -0.05920621 -0.044144396 0.03549835 0.015539813 -0.15262288 -0.05017767 0.053171217
7 -0.003061262 -0.055951834 0.25163108 0.0812142 -0.07588903 -0.18637986 0.030405339 0.0408548 -0.086638324 -0.13662957 0.148583 0.0071124616 -0.06104371 -0.026088953 -0.11776552 -0.04190983 -0.045364477 0.037770737 -0.026656302 0.09466706 0.12113319 0.057631776 0.21542715 -0.07680326 0.033305712 0.2198929 -0.12695524 0.04081337 -0.087240666 -0.15609385 0.0012450097 -0.05746069 -0.23089194 -0.15517886 0.013195539 0.12515877 0.11869214 0.10246615 0.1585172 0.008561972 0.08523954 0.108576275 -0.10132501 -0.17714158 0.13138494 -0.07542562 -0.044070154 -0.080318764 0.02960848 -0.07980846 0.013812911 0.12138801 -0.069263786 0.24808435 0.19225779 -0.07373903 0.029287396 -0.07451961 -0.051910207 0.040624104 0.04043698 -0.14239919 -0.044591326 0.07513421
5 -0.006647358 -0.042596273 0.28021574 0.11120469 -0.06217686 -0.20580816 0.04663825 0.036193933 -0.07998143 -0.15866281 0.14338705 0.009249867 -0.057944715 -0.014889441 -0.120779544 -0.014225793 -0.064112596 0.02621712 -0.029157182 0.1272882 0.14306144 0.06614771 0.24243763 -0.11202036 0.040037367 0.2256771 -0.153703 0.050773334 -0.11513757 -0.15930055 0.020913824 -0.061562683 -0.25316027 -0.16629775 0.024647944 0.12772901 0.13249691 0.12960477 0.16610324 0.023015965 0.094248466 0.11429176 -0.09023281 -0.21150164 0.1247024 -0.07079359 -0.019416843 -0.06983947 0.01860084 -0.08560053 -0.0017572148 0.13972615 -0.07934512 0.26427612 0.220958 -0.06943423 0.045982517 -0.06338869 -0.070953414 0.036742553 0.022241155 -0.18048453 -0.059102528 0.05454374
12 0.02143916 -0.062142856 0.3256044 0.10221887 -0.071619645 -0.20108788 0.029696971 0.0345661 -0.096841864 -0.16829161 0.16647707 -0.019560045 -0.07409517 -0.020700235 -0.16236033 -0.04631743 -0.062624864 0.019880513 -0.052514806 0.11906606 0.15584996 0.07962412 0.27281117 -0.10887771 0.024640312 0.26732218 -0.17421919 0.05018397 -0.13512868 -0.18025486 0.013025306 -0.056348287 -0.28416705 -0.17455596 0.028888123 0.123627625 0.15301664 0.13750798 0.1872139 0.035744112 0.09908219 0.10524628 -0.115015596 -0.2184107 0.13890314 -0.086492285 -0.02142996 -0.09342263 0.008601443 -0.09535624 -0.0032014525 0.16197696 -0.09946193 0.29483265 0.23224252 -0.09439445 0.06174806 -0.08447894 -0.06902394 0.046379223 0.047484845 -0.19421804 -0.040005695 0.087970994
10 -0.0023239825 -0.021984223 0.20426747 0.07222816 -0.07345017 -0.15044443 0.026176773 0.047586087 -0.03851988 -0.10580095 0.10273045 0.0012295668 -0.03292645 -0.010486733 -0.10792732 -0.03150566 -0.032907296 0.033849724 -0.03779045 0.07286047 0.096605025 0.06340391 0.16614203 -0.06805472 0.007624069 0.18010429 -0.12092692 0.034516096 -0.0855299 -0.13640599 0.00026403982 -0.04282842 -0.18490857 -0.1183506 -0.0050632823 0.10460907 0.11469038 0.08321209 0.11162727 0.023396483 0.07011967 0.06948438 -0.07741449 -0.1441142 0.10201599 -0.042953175 -0.04941533 -0.043326512 0.026733877 -0.08178529 -0.014670963 0.12725118 -0.06289342 0.20314579 0.15388939 -0.0439204 0.0524987 -0.042062707 -0.05570344 0.03407238 0.023610573 -0.10267671 -0.046869285 0.06405862
3 0.0029597355 -0.033716835 0.22314343 0.085455894 -0.065027505 -0.15877284 0.022471122 0.05720938 -0.036496725 -0.12021214 0.11724579 -0.0149316015 -0.054285374 -0.012819993 -0.121821664 -0.015127617 -0.034108892 0.022788627 -0.03725147 0.11056326 0.13302213 0.055820115 0.19294521 -0.09207037 0.0067924266 0.19476178 -0.1258059 0.031311072 -0.09506184 -0.14592926 0.01140927 -0.051347323 -0.20952082 -0.1146009 0.014129773 0.12493595 0.12132762 0.10063915 0.13954166 0.013458883 0.05204854 0.0930064 -0.06776601 -0.16160801 0.11197738 -0.053762868 -0.025143083 -0.043836463 0.0034309125 -0.08116231 -0.018196616 0.11991189 -0.052505456 0.23283517 0.18228188 -0.06920107 0.04903089 -0.037394967 -0.058925033 0.008137426 0.023707157 -0.1360765 -0.025575059 0.045470607
4 0.012242498 0.0017310928 0.15376788 0.06555336 -0.05440124 -0.09720681 0.026077943 0.0221079 -0.037049964 -0.0751502 0.077189274 -0.0031679145 -0.033052485 -0.01277687 -0.07533943 -0.0077316146 -0.032242678 0.0121701835 -0.028205058 0.066115215 0.080821745 0.030745212 0.13889167 -0.06312077 0.016188765 0.13031818 -0.07391848 0.012500676 -0.07287607 -0.10376811 0.019101016 -0.031075083 -0.1537631 -0.0903229 -0.0023082725 0.08691658 0.06320709 0.072930194 0.06800546 0.0147617385 0.05366238 0.07401121 -0.06546529 -0.11767176 0.061529778 -0.047301307 -0.045400936 -0.03565869 0.009209353 -0.06469309 0.0032764017 0.08837298 -0.030771138 0.15573736 0.11902274 -0.053147003 0.02685993 -0.019095391 -0.047509663 0.017097237 0.017985364 -0.08742847 -0.0067035453 0.050465584
9 0.008150268 -0.01024249 0.20423141 0.06919994 -0.07290638 -0.1499165 0.015023972 0.061488885 -0.047681145 -0.11074953 0.095573165 0.006081557 -0.043275803 -0.016281867 -0.0943444 -0.021249866 -0.035066042 0.02584202 -0.044919714 0.09897206 0.1139793 0.038081776 0.17934537 -0.08736001 0.018758835 0.1717747 -0.11794552 0.026146397 -0.07043846 -0.13112807 -0.0071751946 -0.026546063 -0.1771229 -0.122731976 0.019194609 0.10629898 0.106278725 0.09940743 0.09859152 0.026498796 0.058985714 0.08414864 -0.06317475 -0.13081163 0.09297231 -0.033151917 -0.041877102 -0.047246963 0.011924961 -0.06601394 -0.011105078 0.121874556 -0.041788433 0.20694548 0.15497258 -0.04061943 0.03717639 -0.02449359 -0.043218303 0.007654138 0.013974222 -0.114485554 -0.025004115 0.04750163
