12 64
9 -0.035515416 -0.057631154 0.101824656 0.07267278 -0.05738687 -0.11744618 0.043205265 0.05624395 -0.06342057 -0.051703554 0.10978186 0.031352654 0.007728465 0.0150917685 -0.05076148 -0.042980075 -0.02319883 0.054358874 -0.036248047 -0.025488706 0.05620618 0.071489185 0.10740417 -0.019210607 0.056650892 0.08506429 -0.064921856 0.052151352 -0.051741507 -0.054176964 -0.03730086 -0.041632134 -0.029584937 -0.10157907 -0.0034914932 0.022856956 0.04976806 0.0014140547 0.114803575 -0.019478112 0.022857629 0.036588266 -0.0732751 -0.0631874 0.028059684 -0.022777518 -0.025553333 -0.009095994 0.03029026 0.0016368763 0.024561554 0.04656355 -0.044551924 0.085385725 0.07957137 -0.02694302 0.015599536 -0.104794584 -0.021165218 0.066130675 0.028909946 -0.046478797 -0.09335129 0.0060904175
1 -0.038646754 -0.053887207 0.09193486 0.06697228 -0.049339056 -0.104054235 0.044053722 0.057660025 -0.058744308 -0.059639033 0.10815657 0.037038174 0.025594756 0.0036724731 -0.04741108 -0.054824665 -0.027804393 0.05897821 -0.014284238 -0.00017960608 0.036309287 0.06592052 0.107651494 -0.028246412 0.043296803 0.100432895 -0.060078397 0.043871664 -0.032202836 -0.048733883 -0.011524824 -0.03146823 -0.057986997 -0.10228727 4.402184e-05 0.03747479 0.024437161 0.016456462 0.12401169 -0.0045525334 0.051303566 0.021206345 -0.058731135 -0.047279187 0.024195548 -0.031991668 -0.016389294 -0.03785946 0.014236129 -0.00071382854 0.04377682 0.0506039 -0.026225947 0.096284874 0.061713118 -0.020945009 0.012224356 -0.103130534 -0.0011047486 0.03497929 0.044011492 -0.04123832 -0.09546612 0.025677985
4 -0.028152999 -0.03165523 0.084213816 0.037211098 -0.03383072 -0.08639857 0.03233734 0.03729781 -0.029877277 -0.02335589 0.08752082 0.03954122 0.022377964 -0.0070692026 -0.04542467 -0.028661758 -0.023337336 0.05109289 -0.008286855 -0.008810122 0.0359707 0.04974507 0.0841581 -0.030746153 0.035344947 0.07089597 -0.046862863 0.04454247 -0.014292264 -0.02519519 -0.019344743 -0.01701141 -0.046036743 -0.062754765 -0.008565691 0.011816993 0.032798514 0.017254874 0.096981935 -0.019365542 0.039208937 0.032564383 -0.048593264 -0.05536911 0.029551944 -0.0063194763 -0.012472614 -0.027425738 0.0049050627 -0.012912482 0.035882164 0.023323704 -0.04172845 0.06840239 0.056448013 -0.025792053 0.0073051406 -0.0716122 -0.010568033 0.020870585 0.026753908 -0.04061232 -0.06205263 0.010595692
2 -0.023971243 -0.05764495 0.06850993 0.050178654 -0.026603114 -0.08690958 0.012724254 0.042576198 -0.04415503 -0.030640865 0.068180725 0.025234051 0.023477368 0.015023061 -0.03974317 -0.027867185 -0.03344369 0.05231391 -0.024640132 -0.0129007995 0.049841914 0.050881628 0.08871735 -0.026051631 0.045760456 0.08605475 -0.061184037 0.025898634 -0.04007553 -0.045132738 -0.02581074 -0.04403134 -0.022338836 -0.07969955 0.012310294 0.029694593 0.017873382 0.014737272 0.09967041 -0.02295233 0.018135594 0.019917497 -0.060608905 -0.046381354 0.022045244 -0.012751437 -0.010229007 -0.021337582 0.008284798 -0.0054695266 0.028979894 0.04147619 -0.022342728 0.07370979 0.05434557 -0.021508045 -0.001324204 -0.07626442 -0.0078101503 0.03394938 0.014424676 -0.047801513 -0.08246755 0.0049421773
11 -0.028120494 -0.04635659 0.055607423 0.036801107 -0.024810571 -0.08099868 0.03926584 0.034219176 -0.049903966 -0.016041603 0.082038164 0.033973385 -0.001469265 0.013131469 -0.022918852 -0.017307386 -0.011323958 0.04025783 -0.021960665 0.0072351107 0.048497558 0.050253835 0.06513788 -0.016424399 0.037293017 0.04822015 -0.05653437 0.030061442 -0.025029194 -0.042740963 -0.025316445 -0.039183024 -0.017448416 -0.064330816 -0.008273503 0.027771784 0.041003317 0.0026120262 0.09369601 -0.0021685546 0.035871428 0.023726156 -0.027766844 -0.051894564 0.006584181 -0.00033426785 -0.010619478 -0.018310294 0.022204319 -0.015141761 0.031222694 0.037688624 -0.016104398 0.04750117 0.06260162 -0.007366691 0.011425955 -0.0750556 0.0024042393 0.031030474 0.035097487 -0.041053586 -0.07381522 0.021816727
8 -0.022567542 -0.045715522 0.08221574 0.057364423 -0.04626874 -0.073082924 0.034411684 0.036550187 -0.037921876 -0.032898735 0.072238855 0.01829623 -0.0010581524 0.0004462506 -0.024445584 -0.015246651 -0.004858838 0.028690565 -0.031131055 0.008193591 0.037366375 0.05448487 0.07909873 -0.018341824 0.045177445 0.06919276 -0.041096825 0.027611326 -0.033662356 -0.03866685 -0.011500833 -0.029495232 -0.047100224 -0.08103319 -0.010057459 0.019029967 0.030216606 0.021802125 0.0917968 -0.015058416 0.02783788 0.02828236 -0.030497938 -0.042741444 0.027260313 -0.025503533 -0.01163657 -0.004923593 0.013657837 -0.023986874 0.03575839 0.023120934 -0.029304577 0.076127924 0.04460096 -0.021752758 -0.0022454376 -0.057424366 -0.019527718 0.040913757 0.014614233 -0.023969742 -0.056707133 0.017677784
6 -0.034585793 -0.05948236 0.10215109 0.062553115 -0.039578367 -0.11441974 0.016837867 0.03223805 -0.05571045 -0.051402047 0.10575139 0.029007485 0.02309562 -0.0080641 -0.043160975 -0.0484796 -0.040254537 0.04875209 -0.030767469 -0.013639101 0.044789825 0.06770884 0.089818306 -0.013112878 0.034520503 0.095972896 -0.06988469 0.04823422 -0.052675515 -0.040255923 -0.030129742 -0.04507142 -0.047793765 -0.07331468 0.012896986 0.014566045 0.034899227 -0.0057114107 0.11764999 0.008212918 0.03139604 0.025432233 -0.054074947 -0.042813424 0.01107195 -0.02202299 0.0022822216 -0.020769492 0.02462332 -0.02561935 0.047165263 0.02660534 -0.041433867 0.08220546 0.059965625 -0.014155548 0.011887609 -0.10004385 -0.031035174 0.065828264 0.03988794 -0.0575345 -0.07528412 0.01746851
3 -0.016738752 -0.051662117 0.0708726 0.047266293 -0.010493292 -0.081347615 0.01906527 0.013444839 -0.055700168 -0.049652044 0.06519722 0.012016833 0.018237285 -0.006312046 -0.024971789 -0.02821854 -0.027431322 0.033217993 0.0014125747 0.0066445014 0.022012258 0.057753243 0.055696998 -0.0027757743 0.025136897 0.0673221 -0.0403473 0.04152634 -0.033771362 -0.018419212 -0.0048278333 -0.04388352 -0.043293662 -0.072457485 0.007721329 0.012232408 0.014446629 -0.007960838 0.0905584 -0.00077130797 0.011511174 0.0099599 -0.03598679 -0.04580039 0.025670983 -0.022951594 -0.001959754 -0.030261183 0.027282177 -8.559058e-06 0.025338033 0.03248959 -0.040852655 0.05925457 0.044536307 -0.025972039 -0.0072518946 -0.06863716 -0.0047739344 0.044467647 0.012052893 -0.046035502 -0.06845711 0.008484055
7 -0.03369754 -0.050665792 0.05180512 0.021964507 -0.03670814 -0.073896274 0.017742474 0.024255924 -0.049006794 -0.028987532 0.07459068 0.034295555 -0.00313633 -0.0029193596 -0.020915754 -0.040558573 -0.013882691 0.04337199 -0.004265272 -0.020203006 0.020013425 0.024635486 0.059882015 0.0020290068 0.038841296 0.06282742 -0.029726418 0.02073789 -0.0072432193 -0.041605 -0.0272215 -0.02734802 -0.028307602 -0.06061862 -0.001216387 0.029110296 0.02106686 0.0043511163 0.07490579 -0.021247366 0.037225217 0.032214742 -0.051728442 -0.029902741 0.03277835 -0.026360426 -0.02013155 -0.028087968 0.026881691 -0.00799847 0.03865522 0.010602559 -0.015419228 0.055639185 0.04188185 -0.008234687 -0.007009104 -0.0734878 -0.004302102 0.03978908 0.033624418 -0.018710103 -0.054341227 0.025056498
5 -0.03600634 -0.029888103 0.05669517 0.04126089 -0.011112553 -0.074775144 0.027963242 0.0067535383 -0.03637136 -0.0437491 0.05076813 0.03472044 0.005801193 0.006797626 -0.009974336 -0.010464591 -0.031740833 0.025177889 0.003241757 0.0033072045 0.023184981 0.02356299 0.061528325 -0.022075996 0.039613515 0.046772245 -0.040498294 0.027724387 -0.025375864 -0.025949322 -0.0041652923 -0.024732854 -0.033036884 -0.055002954 0.011925789 0.017205823 0.020314686 0.020329647 0.060748782 -0.0048418865 0.038578678 0.026777783 -0.03167962 -0.047263358 0.016485408 -0.01796786 0.010359065 -0.013919257 0.016434668 -0.0038843083 0.0200752 0.014958651 -0.022170044 0.045959953 0.050100505 0.004141844 0.0046295496 -0.05267328 -0.019463016 0.034784243 0.009066902 -0.044485677 -0.0611616 -0.0030298985
10 -0.014972504 -0.05418361 0.08369765 0.032300986 -0.02447668 -0.065250546 0.01054945 0.012237749 -0.05115721 -0.04321396 0.073023126 0.010205117 -0.001783439 0.0069112307 -0.04467636 -0.04792272 -0.027000563 0.024978373 -0.026161768 -0.021477235 0.02980366 0.040260356 0.08119661 -0.010064469 0.027321585 0.07920446 -0.057589885 0.02545756 -0.042814597 -0.042464297 -0.020562813 -0.020943306 -0.039885167 -0.05933714 0.013708173 0.007413264 0.033622276 0.015518981 0.08091872 0.0055730767 0.039258733 0.008732208 -0.05567394 -0.03656292 0.017925425 -0.028962042 0.0072382023 -0.028759213 0.0086670155 -0.00905576 0.023698471 0.030664425 -0.034687888 0.062150847 0.04752333 -0.011687795 0.019981567 -0.08180848 -0.014611475 0.05042774 0.03802197 -0.04362451 -0.051629934 0.028150909
0 -0.031196 -0.041778766 0.075397596 0.03616716 -0.036831506 -0.08691178 0.020351661 0.02578455 -0.034575537 -0.041420277 0.06917219 0.025552178 0.019441625 0.0028121758 -0.041513525 -0.046553805 -0.022641776 0.046516843 -0.013146997 -0.022739947 0.016773053 0.05678959 0.061537262 -0.0022550414 0.019591553 0.07954634 -0.05717235 0.037344 -0.033575755 -0.04412164 -0.022183485 -0.031337205 -0.04213587 -0.06528092 -0.009046074 0.020802753 0.040572084 0.001284075 0.07941908 0.0019373981 0.040571183 0.0075987405 -0.05400666 -0.04385408 0.03333387 -0.01644336 -0.020486861 -0.020904118 0.032825258 -0.020164428 0.016382318 0.044303432 -0.04362855 0.06553741 0.04775056 -0.0022261261 0.021359796 -0.073585704 -0.018806433 0.054699056 0.026512906 -0.025920847 -0.07742739 0.028656008
