17 64
9 -0.09382058 -0.0026685025 0.42076644 0.090358265 -0.101436965 -0.30506927 0.018084506 0.0007776769 -0.13126817 -0.22202519 0.3426999 0.13483253 -0.036747582 -0.11621892 -0.2263239 -0.19073577 -0.13985652 0.08745388 0.03233776 0.0889547 0.099538535 -0.011949313 0.35334545 -0.090470046 0.049261235 0.32837662 -0.21958801 0.09108451 -0.10543073 -0.16262448 -0.015769392 -0.0017293115 -0.3644259 -0.22935298 0.13692573 0.15570983 0.003281952 0.14728211 0.29319564 0.02260009 0.169569 0.20731169 -0.27927184 -0.34372163 0.16171128 -0.21442473 -0.08260797 -0.1255555 2.9611823e-05 -0.014801883 0.12800473 0.19020614 -0.029621718 0.28341314 0.28206393 -0.060797986 0.07586748 -0.17426962 -0.00220763 0.08030409 0.047738146 -0.21382354 -0.08794848 0.11339421
13 -0.06027059 -0.0029153198 0.2944713 0.06395639 -0.06218654 -0.19392361 0.015564141 0.009158061 -0.088425435 -0.16668794 0.24072538 0.09059644 -0.0018955716 -0.087223515 -0.16834389 -0.14954564 -0.105078444 0.06558734 0.037842058 0.08354039 0.052413616 -0.005221162 0.2629739 -0.082142174 0.021625582 0.25609338 -0.15110798 0.058455653 -0.062014602 -0.10708788 0.02032303 0.013277071 -0.2885065 -0.16917062 0.09962377 0.11723017 -0.022034705 0.12418499 0.22108163 0.028863877 0.14461006 0.12230823 -0.18889476 -0.22319564 0.1104168 -0.16101493 -0.042807348 -0.12213901 -0.027952462 -0.0037084338 0.10452339 0.1441357 -0.01164063 0.21839072 0.17848064 -0.048691988 0.0537335 -0.12665425 0.02008751 0.022335384 0.05095536 -0.14849515 -0.06630452 0.097916566
4 -0.062229976 0.00408036 0.31744903 0.051263623 -0.061349362 -0.21157043 0.012986929 0.0026660205 -0.07603998 -0.14623007 0.2548958 0.10519868 -0.0030610592 -0.09898741 -0.18199869 -0.13834009 -0.109032355 0.07406691 0.03832088 0.07375708 0.06800982 -0.0053494903 0.27051064 -0.09091455 0.026273385 0.25435415 -0.15863642 0.07262461 -0.05507894 -0.09950421 0.0030287616 0.017042888 -0.29191348 -0.15511656 0.0941028 0.10250269 -0.002920244 0.12819 0.23134016 0.011019069 0.14386688 0.1463265 -0.19798085 -0.25141433 0.12451296 -0.144309 -0.044380248 -0.11861923 -0.031290125 -0.018979277 0.10882189 0.1292939 -0.034924887 0.21706349 0.1974049 -0.059447143 0.0533548 -0.124673046 0.0072038514 0.021377593 0.044731144 -0.16401716 -0.056510124 0.087829635
6 -0.0631318 -0.01845975 0.3011345 0.061254606 -0.054117102 -0.21635589 -0.00700222 0.0030700068 -0.08863018 -0.15099652 0.23738885 0.0970119 -0.006129761 -0.08021341 -0.17358984 -0.13470802 -0.118942365 0.075775266 0.025684765 0.072302274 0.08193852 -0.010066802 0.27136573 -0.08334284 0.037430752 0.2664593 -0.17341839 0.052789632 -0.07908967 -0.12146753 -0.005307755 -0.012332085 -0.26996323 -0.17006534 0.11553726 0.12529157 -0.019234458 0.12534052 0.23334976 0.0051275613 0.123974815 0.14181446 -0.2113451 -0.2508122 0.120190464 -0.15267238 -0.046546374 -0.10918833 -0.02347382 -0.015487879 0.10461978 0.14611915 -0.011668562 0.21927501 0.19964309 -0.051780492 0.043397605 -0.12550615 0.009083623 0.036661606 0.028752858 -0.17124963 -0.075867705 0.082990654
0 -0.08665341 -0.012007391 0.31312147 0.051836513 -0.063275106 -0.24819052 0.01911988 -0.010690048 -0.1099227 -0.15170977 0.28427723 0.124693766 -0.04315577 -0.09291346 -0.16417925 -0.1391053 -0.10595523 0.07356155 0.031130126 0.097169735 0.08917367 -0.015401526 0.26116395 -0.06537329 0.03341184 0.24740845 -0.18841827 0.0631152 -0.073634155 -0.14034404 -0.017273797 -0.021413645 -0.28526884 -0.1687116 0.10508675 0.14519532 0.009411264 0.1096451 0.24965194 0.029582039 0.15321031 0.17142992 -0.2001035 -0.2867605 0.11731749 -0.15745686 -0.060418677 -0.10736053 0.010472815 -0.03490278 0.12046674 0.15329555 -0.00086329575 0.20698826 0.23625676 -0.029885085 0.060811065 -0.14112382 0.014379143 0.05719032 0.054822695 -0.17873073 -0.07881127 0.11246844
10 -0.060682558 -0.007983621 0.31445622 0.070467964 -0.07713588 -0.20172954 0.016158039 0.0014500228 -0.08375963 -0.15291223 0.24141389 0.08988926 -0.028600864 -0.09259207 -0.15829407 -0.12332678 -0.08999067 0.053901184 0.016191639 0.089431606 0.07017489 -0.0042252406 0.26521635 -0.07741654 0.040082693 0.2509011 -0.15229088 0.054464914 -0.07205186 -0.11541595 0.007745258 0.0037174427 -0.29174408 -0.17405064 0.09132622 0.112943925 -0.0061799525 0.13350195 0.22530238 0.011524304 0.13486919 0.14849341 -0.18218073 -0.2423368 0.12367871 -0.16399956 -0.048700847 -0.09363522 -0.019494213 -0.032977864 0.11212082 0.12691377 -0.019443601 0.22381228 0.18777303 -0.053082168 0.041690677 -0.10952266 -0.0030463964 0.043045472 0.031208744 -0.14551394 -0.051539302 0.09540199
5 -0.078419484 -0.009415452 0.31821597 0.06196531 -0.06873646 -0.24024154 -0.0061448053 -0.012495369 -0.09346752 -0.16122629 0.26878417 0.10592715 -0.01981051 -0.107203856 -0.1645016 -0.14757422 -0.11609738 0.06737776 0.02188551 0.0762653 0.074558824 -0.0086746095 0.25131053 -0.059204992 0.021559304 0.25661582 -0.17469648 0.06755589 -0.08288344 -0.118519954 -0.016142054 -0.013780499 -0.28531218 -0.14979725 0.113721825 0.117573224 -0.0019424031 0.09662918 0.23434827 0.036507804 0.13128132 0.15737425 -0.19595844 -0.24697164 0.10834639 -0.15866977 -0.04379283 -0.09623244 0.0031451941 -0.040808905 0.12070356 0.12481807 -0.016631244 0.21185489 0.20456392 -0.03307665 0.05477725 -0.1336127 -0.013208034 0.0687427 0.048982248 -0.170247 -0.056288805 0.09618589
8 -0.05119669 -0.01572612 0.2848297 0.058766086 -0.04118251 -0.19829394 0.004363852 -0.015869007 -0.09581357 -0.15720935 0.22171421 0.07808375 -0.008893481 -0.092402965 -0.14861289 -0.12573391 -0.101870954 0.056489132 0.043853153 0.08464482 0.05361303 0.0042188144 0.22743358 -0.05837611 0.020560268 0.2337367 -0.14193116 0.06550044 -0.0668034 -0.08985157 0.0131213665 -0.01214254 -0.26972064 -0.15893367 0.09803756 0.10026152 -0.01784677 0.09686742 0.21484515 0.021916019 0.11023879 0.12199822 -0.17333867 -0.23078184 0.11606657 -0.14961097 -0.038593058 -0.110948205 -0.004552243 -0.009871801 0.0962025 0.12890077 -0.030596113 0.19640312 0.1766816 -0.056324534 0.03286573 -0.11413057 0.012234473 0.04292843 0.026963886 -0.15544389 -0.062419083 0.081456855
2 -0.1019433 -0.021514788 0.34605274 0.049117405 -0.085839584 -0.27266446 0.0033566812 -0.016069984 -0.12132564 -0.1803793 0.30891496 0.13790083 -0.046514962 -0.11685629 -0.17956096 -0.17395024 -0.118782304 0.087409906 0.047745965 0.0764521 0.07367329 -0.034384944 0.2868044 -0.0554475 0.043775946 0.28934926 -0.18128307 0.06521968 -0.06612907 -0.15291686 -0.023476359 -0.015043987 -0.32330808 -0.18790054 0.118978314 0.15811002 -0.0046064663 0.12106888 0.26181334 0.008752731 0.16669075 0.19905691 -0.24533206 -0.29471436 0.15741584 -0.1968067 -0.076681346 -0.12477154 0.018159661 -0.032079414 0.14017886 0.14015843 -0.007445305 0.24073142 0.2414383 -0.037806444 0.046493057 -0.1575503 0.004453771 0.07628214 0.05707899 -0.17520037 -0.072801724 0.122600295
11 -0.08862596 0.012864976 0.29809666 0.059481725 -0.055018794 -0.23202094 0.014640496 -0.033994313 -0.0911361 -0.17230076 0.22989312 0.12325414 -0.026933018 -0.09094969 -0.13719359 -0.122055836 -0.119852945 0.058467794 0.054502226 0.08248104 0.05786375 -0.033917002 0.24525408 -0.06948921 0.041457858 0.23026492 -0.16197981 0.059749953 -0.067318656 -0.11653228 0.0033398499 -0.0029347406 -0.2807999 -0.15811564 0.110168055 0.12383758 -0.00901483 0.12582743 0.19592157 0.02500296 0.15602222 0.16121627 -0.19162956 -0.26661885 0.11827124 -0.16062908 -0.048108894 -0.09630147 0.009204481 -0.026629077 0.100584894 0.127164 -0.011636627 0.19689915 0.21005705 -0.014641148 0.049983054 -0.10992907 -0.012048527 0.057022944 0.022452258 -0.1677968 -0.068934605 0.080747075
14 -0.049730226 -0.013847812 0.3191526 0.046282258 -0.05769297 -0.19013086 -0.003565588 -0.019589383 -0.095596604 -0.16219077 0.24141553 0.080745175 -0.028338894 -0.08524657 -0.18131655 -0.15502219 -0.10975118 0.050098002 0.019993464 0.06152212 0.062261462 -0.016099328 0.2721247 -0.0737327 0.023189086 0.26276964 -0.16784197 0.0524171 -0.079739735 -0.11926053 0.0020204056 0.016512388 -0.2887811 -0.15659769 0.110735685 0.100543715 -0.0016550027 0.13299952 0.21428841 0.030882237 0.14963646 0.12758994 -0.20750098 -0.23739405 0.11651064 -0.16695705 -0.032343246 -0.119793855 -0.02830352 -0.017684853 0.09922295 0.13816907 -0.027372925 0.21360841 0.18999904 -0.046749603 0.06463288 -0.13197875 0.0037645763 0.0479665 0.054463975 -0.16312195 -0.046285212 0.108274266
7 -0.069391415 0.0060279425 0.26161125 0.040782005 -0.065899946 -0.19968471 0.004699521 -0.014358975 -0.06958751 -0.13907515 0.20268711 0.09594119 -0.012636497 -0.08116342 -0.13935664 -0.12890096 -0.09043937 0.06466695 0.034610055 0.05022448 0.04039431 -0.005712153 0.20066153 -0.04202367 0.015416517 0.21576256 -0.14619441 0.055841282 -0.058684506 -0.11062899 -0.010591312 -0.0044450457 -0.24336745 -0.13660742 0.07375065 0.1069092 0.008339458 0.0915105 0.17334588 0.025712885 0.13178244 0.120013714 -0.17593153 -0.2202458 0.11522082 -0.13159806 -0.06683392 -0.0853091 0.020007933 -0.036263917 0.07910807 0.12938386 -0.025946455 0.1779453 0.17163539 -0.016108304 0.055122763 -0.10162848 -0.0083226655 0.05972503 0.029881975 -0.121861115 -0.06623686 0.09359616
12 -0.084197685 -0.015682917 0.32308653 0.055713 -0.06310277 -0.24269505 -0.0012944296 -0.0069214217 -0.08323813 -0.17159738 0.27169588 0.1012965 -0.041614413 -0.10131159 -0.1814668 -0.14132294 -0.10722303 0.06668222 0.042118575 0.09719557 0.086509794 -0.022111721 0.26430103 -0.07049421 0.017808361 0.2670262 -0.17614783 0.062093202 -0.07574418 -0.13606808 -0.0051285536 -0.01571245 -0.3073322 -0.15189327 0.11604688 0.14727646 0.0076241433 0.11861708 0.24939185 0.014113724 0.13098015 0.17284499 -0.2018586 -0.27726936 0.14358066 -0.17281264 -0.043886546 -0.10136609 -0.006738745 -0.032231033 0.10243017 0.13468932 -0.009860493 0.23132564 0.23145929 -0.046415616 0.05913497 -0.12619503 -0.0031430842 0.04435327 0.042739272 -0.17924632 -0.055329077 0.090808965
3 -0.07276157 0.022415675 0.31568366 0.06382798 -0.07418082 -0.22723268 0.012995907 -0.033917923 -0.099981025 -0.16232985 0.25604656 0.11563383 -0.030512406 -0.104444034 -0.15906844 -0.13695984 -0.119394206 0.06156521 0.041259915 0.0808466 0.06630843 -0.030622166 0.26173002 -0.06492639 0.034804773 0.25141186 -0.16149014 0.051423524 -0.0818787 -0.13434197 0.0058673183 -0.0078639155 -0.30654687 -0.16589592 0.100947015 0.14096493 -0.021900706 0.12069075 0.20390749 0.028426839 0.15812965 0.17607673 -0.21816261 -0.28071332 0.113932796 -0.17965677 -0.08214538 -0.10521264 0.008215256 -0.04376724 0.12128572 0.1438891 -0.0016561263 0.21397004 0.21683447 -0.041157678 0.05051447 -0.11563639 -0.010825104 0.06125387 0.03978266 -0.16707486 -0.048090853 0.11269698
15 -0.068110935 0.017572515 0.3017357 0.044774555 -0.07300178 -0.22613806 -0.0069535063 -0.004451696 -0.090034544 -0.16715889 0.22532225 0.11318404 -0.027771764 -0.09924176 -0.14560762 -0.13668561 -0.10704749 0.062362947 0.03261828 0.08775355 0.0659113 -0.035301775 0.24707328 -0.070401564 0.02992302 0.23997511 -0.16485773 0.053457234 -0.05289087 -0.121250756 -0.017134838 0.013029827 -0.27382332 -0.16001566 0.11368156 0.12418018 -0.0012748124 0.12580669 0.18723914 0.033647966 0.14122863 0.15311003 -0.18519153 -0.23845464 0.12090804 -0.14432505 -0.063127086 -0.10287553 0.003115083 -0.025248997 0.09617166 0.14003234 -0.005399916 0.2095453 0.19830103 -0.015765341 0.047285274 -0.09880033 0.0030308703 0.03870514 0.02564481 -0.15524986 -0.049881097 0.08950306
1 -0.064270854 0.015947115 0.25733528 0.04163459 -0.06260071 -0.1869776 -0.0026091263 -0.027665375 -0.070518106 -0.13546303 0.19923814 0.09565413 -0.026213573 -0.09219943 -0.12247359 -0.121159725 -0.082336225 0.045759488 0.041221682 0.061891362 0.05593006 -0.019954083 0.19506904 -0.037606627 0.025565632 0.18551275 -0.14190383 0.04949299 -0.044687547 -0.08777152 -0.018727506 0.010984471 -0.21874307 -0.11539871 0.09708968 0.08755811 -0.019242497 0.09975472 0.18259946 0.02525894 0.12452897 0.12061612 -0.14553669 -0.21872108 0.08345442 -0.13816425 -0.055269644 -0.072267376 -0.0023006438 -0.03653987 0.09721642 0.10270014 0.0029302407 0.1572078 0.16843128 -0.017803423 0.044998728 -0.09856535 0.0024176785 0.030556994 0.023992822 -0.1294815 -0.036749408 0.07102844
16 -0.09484524 0.0033007439 0.32963613 0.053444065 -0.061557602 -0.24214974 0.0001703155 -0.012413438 -0.08677647 -0.15988375 0.28573853 0.12586239 -0.02869146 -0.107764006 -0.18239981 -0.15068918 -0.117713094 0.070828214 0.028592085 0.09738141 0.06508496 -0.032807898 0.26637664 -0.069374174 0.02044331 0.26629612 -0.18674378 0.063601315 -0.08675955 -0.12997544 -0.005182912 -0.008520749 -0.31274715 -0.17451212 0.12517054 0.14354807 -0.017960127 0.11390981 0.24337065 0.026240665 0.13369423 0.18030383 -0.22868815 -0.29149222 0.1376549 -0.17961974 -0.05631192 -0.093660876 -0.0015908664 -0.015364034 0.12025432 0.15985005 -0.0027950692 0.20978925 0.2207534 -0.027236903 0.064047106 -0.119875886 0.010935291 0.07262505 0.026596656 -0.1675892 -0.07407515 0.108167455
