16 64
0 -0.081370965 -0.12813388 0.34102657 0.122802295 -0.15900367 -0.3311561 0.041045167 0.036691103 -0.1702845 -0.15362109 0.347198 0.070649736 -0.11645366 -0.017849788 -0.19686303 -0.14525299 -0.077119425 0.09947498 -0.04477448 -0.06360277 0.23534733 0.0722486 0.3228426 -0.023779202 0.12015016 0.25553957 -0.20274998 0.083134234 -0.13966684 -0.2277921 -0.13545111 -0.103878886 -0.15612575 -0.15281679 0.055051353 0.13339446 0.14199677 0.055133432 0.31712323 -0.063142546 0.10831912 0.20713764 -0.24521062 -0.28688827 0.09777658 -0.14921194 -0.0950962 -0.047892503 0.056905665 -0.09271706 0.087797984 0.07684184 -0.048190173 0.26267335 0.33486748 -0.10990359 0.06852774 -0.2844464 -0.09411642 0.13022834 0.1352629 -0.21845375 -0.078959316 0.051865753
3 -0.055127196 -0.093835115 0.2632087 0.11500933 -0.11183389 -0.24361476 0.042407036 0.049436294 -0.1270127 -0.12366264 0.2714204 0.054289613 -0.05095408 -0.025691947 -0.15054815 -0.10989159 -0.06617135 0.08340267 -0.025216807 0.00043389224 0.17647015 0.07575491 0.26358387 -0.047331404 0.08396547 0.21684656 -0.15715185 0.06532154 -0.09849497 -0.15533298 -0.067314394 -0.075004384 -0.15181297 -0.1363292 0.046495084 0.11002147 0.07260002 0.059003014 0.2777819 -0.029659461 0.09642754 0.13680448 -0.15918225 -0.20602375 0.054935545 -0.11447743 -0.056887433 -0.06326706 0.011575922 -0.070129156 0.09637151 0.074863024 -0.020961236 0.22364703 0.2369643 -0.09646992 0.042580485 -0.21593301 -0.045300394 0.05475308 0.11037715 -0.17403598 -0.073667824 0.048143715
2 -0.05030629 -0.07514798 0.25026062 0.08664486 -0.09877114 -0.22926909 0.035782564 0.036749277 -0.100929886 -0.087147705 0.2500066 0.06388255 -0.043319874 -0.0321861 -0.14420964 -0.088112384 -0.0626995 0.08378258 -0.021324707 -0.015007353 0.16637583 0.06640643 0.23816694 -0.048998453 0.07964869 0.18878163 -0.14410874 0.07009773 -0.07775308 -0.12997945 -0.076634325 -0.06083288 -0.13409755 -0.10708134 0.03239683 0.08155969 0.08209048 0.055734962 0.24966627 -0.043166984 0.08906465 0.14074196 -0.15133752 -0.20492356 0.060849693 -0.08297886 -0.054600473 -0.055078853 0.008702921 -0.076573245 0.08939479 0.0520037 -0.04172804 0.19362678 0.2234715 -0.09293667 0.03710474 -0.18974948 -0.051903903 0.0484592 0.093559064 -0.16451575 -0.057704736 0.035925645
14 -0.053985402 -0.11554955 0.27773428 0.11756123 -0.10830544 -0.26906842 0.021456068 0.044413127 -0.13497105 -0.111746565 0.27314746 0.056419883 -0.058105353 -0.013451604 -0.1613161 -0.099375956 -0.08242327 0.09358993 -0.044233356 -0.018541628 0.21462855 0.0767884 0.283398 -0.050403778 0.10456945 0.23389195 -0.18517669 0.059978466 -0.1232127 -0.1769869 -0.096715644 -0.10238816 -0.13188921 -0.14050731 0.06211554 0.116705455 0.08231271 0.06260741 0.2948117 -0.05231056 0.08045537 0.15478982 -0.18721128 -0.23443913 0.06036109 -0.10778017 -0.060431506 -0.05324031 0.014923323 -0.085173495 0.09615654 0.07881224 -0.02444592 0.23168376 0.2644809 -0.1043022 0.036173638 -0.22620744 -0.06112334 0.0728035 0.096958466 -0.20360598 -0.08383964 0.035500716
9 -0.054038107 -0.102527514 0.244353 0.09619769 -0.097944476 -0.24356803 0.0449808 0.0361276 -0.13296932 -0.09019386 0.267235 0.059743848 -0.07416987 -0.0134614175 -0.13416146 -0.08514252 -0.055234097 0.07824209 -0.038900994 0.0018953244 0.19489767 0.07462813 0.24075851 -0.03677173 0.08858904 0.1858092 -0.1676413 0.059912555 -0.09944235 -0.1621024 -0.08809021 -0.09253748 -0.118910246 -0.12039081 0.036985535 0.107094064 0.0974979 0.045487847 0.27221245 -0.028840272 0.09216246 0.1427409 -0.14310814 -0.21882388 0.04360035 -0.08833423 -0.055204898 -0.050753932 0.027577104 -0.0865807 0.09306957 0.07183484 -0.018485146 0.19236228 0.24955499 -0.08373065 0.04390883 -0.21203445 -0.04361453 0.06595397 0.11138514 -0.18027344 -0.07539998 0.052474808
7 -0.046280786 -0.09047249 0.24563412 0.102948815 -0.11113307 -0.21350165 0.036048114 0.032936968 -0.10774459 -0.09725696 0.23292497 0.041476455 -0.0731728 -0.023711953 -0.122172534 -0.075143285 -0.042019933 0.05845887 -0.04295757 -0.00014161078 0.16673023 0.065676786 0.23042336 -0.033636376 0.08874247 0.18466805 -0.1365246 0.05027006 -0.09579033 -0.14585009 -0.069988444 -0.072168745 -0.13382226 -0.120787315 0.031873703 0.08999259 0.08175962 0.061082844 0.24069841 -0.040308777 0.07829839 0.13797614 -0.13312943 -0.19120282 0.06096801 -0.104741596 -0.052149013 -0.03071103 0.018215679 -0.0877916 0.08666226 0.047723033 -0.027242566 0.19930303 0.21207634 -0.08625284 0.028748538 -0.17446765 -0.062313847 0.06955872 0.08238061 -0.14593136 -0.04820165 0.043083526
11 -0.051965293 -0.09313345 0.250667 0.098211646 -0.10152696 -0.23739532 0.01629462 0.02605088 -0.114742935 -0.10367872 0.2526178 0.047729697 -0.054527946 -0.031655878 -0.13651995 -0.099170454 -0.06917243 0.07181116 -0.04020418 -0.020710668 0.17125809 0.06811165 0.22864449 -0.027348122 0.07316545 0.19596739 -0.15371583 0.062934615 -0.1064275 -0.14296755 -0.086150356 -0.080788046 -0.12671986 -0.09994196 0.05028478 0.084722884 0.08299894 0.03422731 0.2486987 -0.021503497 0.07499133 0.13562165 -0.1496848 -0.18685369 0.043601707 -0.09667758 -0.042452756 -0.04106365 0.024514988 -0.08808991 0.09128143 0.04601433 -0.032231886 0.19380246 0.22064623 -0.079870224 0.04101661 -0.20040897 -0.07040025 0.082645535 0.10208875 -0.17020427 -0.051291972 0.04001687
4 -0.04514269 -0.10453708 0.25359496 0.10022168 -0.08715638 -0.23941705 0.026514024 0.016917018 -0.13299406 -0.118336365 0.24629134 0.040676694 -0.058592748 -0.03107535 -0.13447331 -0.09403498 -0.06584187 0.07165877 -0.014346582 -0.0046191034 0.16441628 0.075863734 0.22739425 -0.022008792 0.07795473 0.19892293 -0.145283 0.06901442 -0.10099857 -0.13871245 -0.06999775 -0.09212804 -0.14050925 -0.1250781 0.04726208 0.09170029 0.07481197 0.036971565 0.26004267 -0.034592114 0.06912229 0.1324355 -0.15271777 -0.21065024 0.06878006 -0.108922765 -0.050873704 -0.059208836 0.033773877 -0.07010374 0.08316718 0.061878774 -0.043280855 0.20015551 0.22930388 -0.09954518 0.025172463 -0.20051992 -0.051458422 0.0782489 0.08658768 -0.17623337 -0.06707706 0.03852631
1 -0.077699244 -0.114997275 0.21838161 0.042332 -0.10867886 -0.23132078 0.007079503 -0.0035996404 -0.12883282 -0.11248363 0.24025387 0.06204402 -0.107681304 -0.019800976 -0.12748735 -0.1270172 -0.054371823 0.07565185 -0.0023010583 -0.07210261 0.13572912 0.01065552 0.20622604 0.015560022 0.0821809 0.189858 -0.12681605 0.03885691 -0.07089966 -0.18108171 -0.1060738 -0.07556445 -0.117023095 -0.09032553 0.04259763 0.11429462 0.102179855 0.03882922 0.20544149 -0.059363298 0.1046492 0.1573629 -0.19430089 -0.18916385 0.10447914 -0.12754542 -0.06869999 -0.05727436 0.06294494 -0.07203269 0.06894015 0.025280647 -0.025737647 0.1799863 0.22930682 -0.0546687 0.037039872 -0.20991112 -0.06678418 0.10919667 0.11430896 -0.13620792 -0.046627134 0.06280166
10 -0.07302679 -0.08284988 0.20282236 0.05776082 -0.07819095 -0.21104671 0.020189414 -0.014388314 -0.104944214 -0.11256848 0.19769217 0.06081797 -0.086918585 -0.009850945 -0.104409635 -0.085616566 -0.06346234 0.05493002 0.005233546 -0.041078962 0.12703249 0.010335977 0.19157417 -0.011356658 0.07942954 0.15658991 -0.12369823 0.04244267 -0.07629083 -0.14812168 -0.07479948 -0.063958324 -0.110250466 -0.0816875 0.04777832 0.09312918 0.0892302 0.05324047 0.17673899 -0.04231976 0.09823555 0.13932568 -0.15637088 -0.18904252 0.079768196 -0.10631825 -0.038566183 -0.039649643 0.045296263 -0.06103439 0.049553353 0.028016778 -0.027923198 0.1557535 0.21502748 -0.040227205 0.041250788 -0.17064713 -0.070611015 0.08895788 0.079627 -0.14483947 -0.05113198 0.030881692
12 -0.06042976 -0.11854447 0.26203254 0.050301276 -0.10433799 -0.22974084 -0.0003068289 -0.01838153 -0.13422927 -0.12861836 0.25055796 0.04065888 -0.120804265 -0.012785412 -0.1589905 -0.13810487 -0.06570477 0.056880016 -0.023001973 -0.07529704 0.15720657 0.019107135 0.23911208 0.0034857397 0.07536499 0.21083148 -0.1588976 0.041381713 -0.10584792 -0.19286288 -0.10645216 -0.067648195 -0.13459955 -0.08743453 0.05987993 0.09995952 0.11991164 0.057749756 0.21884641 -0.039473087 0.11296769 0.14806587 -0.20686498 -0.21070477 0.09546907 -0.13875206 -0.048649345 -0.058591757 0.043345522 -0.07954049 0.057263933 0.043225408 -0.040663656 0.19439945 0.25077477 -0.06386896 0.06639132 -0.22395554 -0.07964079 0.11730609 0.12434181 -0.1680523 -0.034476474 0.06857992
15 -0.07173562 -0.09666644 0.22786474 0.047255266 -0.10731616 -0.22954641 0.009119767 -0.0018928419 -0.10683543 -0.11360609 0.2237103 0.054377593 -0.088232145 -0.014901705 -0.13983051 -0.1255694 -0.05519874 0.0743888 -0.009010562 -0.07103887 0.12868588 0.032566175 0.19786204 0.010854787 0.062206406 0.19170804 -0.14422913 0.048505135 -0.08448732 -0.17702128 -0.10017869 -0.07037228 -0.12201661 -0.0863597 0.03207891 0.103562236 0.11576983 0.03899473 0.19673921 -0.03925925 0.106268376 0.13231097 -0.18637836 -0.19545706 0.101353034 -0.112051874 -0.07128132 -0.047136154 0.06327145 -0.08213974 0.046362013 0.05253873 -0.04472239 0.17868966 0.22600417 -0.045881376 0.06106348 -0.19660412 -0.07433578 0.110661976 0.10304581 -0.13336097 -0.058672924 0.06441857
6 -0.05978672 -0.095328026 0.19889559 0.045839466 -0.07876409 -0.19678724 0.0028269007 0.0009333598 -0.08618762 -0.10473046 0.20138991 0.030890532 -0.09609523 -0.013095822 -0.12919699 -0.093193054 -0.046102975 0.052284826 -0.0010636803 -0.037105348 0.13671128 0.01646894 0.1812279 -0.004167226 0.04988986 0.16619976 -0.11990569 0.037837807 -0.07681568 -0.15404366 -0.076895535 -0.06801562 -0.11508334 -0.058498155 0.04400331 0.10206755 0.10194427 0.04038382 0.18842342 -0.0474506 0.06969608 0.13213107 -0.15038387 -0.17804419 0.093750075 -0.10594577 -0.035636496 -0.037182614 0.034199134 -0.06448684 0.034016374 0.02774798 -0.027425151 0.16614051 0.21386702 -0.06058888 0.048937242 -0.16570956 -0.0658375 0.07292377 0.0895384 -0.13876851 -0.028287647 0.033612512
5 -0.047761396 -0.070237815 0.24235548 0.086438745 -0.111052155 -0.21914469 0.02741316 0.0007899977 -0.12088125 -0.10179823 0.24065182 0.05181865 -0.081698224 -0.024518501 -0.13503467 -0.097130835 -0.0658067 0.062641725 -0.024432113 -0.036760677 0.16224173 0.036012314 0.2330105 -0.020861767 0.084134765 0.18652709 -0.13605873 0.04193595 -0.10329782 -0.16668203 -0.076962404 -0.07224849 -0.13622466 -0.10206699 0.037076898 0.10596283 0.07590402 0.052386653 0.20900983 -0.036521457 0.09864625 0.15708014 -0.18014109 -0.21271273 0.056182116 -0.12074082 -0.07989319 -0.04568456 0.03397576 -0.089450024 0.083217114 0.052841365 -0.018447643 0.18952337 0.23380874 -0.08480537 0.04188958 -0.1883925 -0.07336504 0.084763005 0.10177123 -0.1598587 -0.031843618 0.05799124
13 -0.040032603 -0.05450051 0.18366608 0.045264147 -0.08553591 -0.17954771 0.0028702503 0.021780206 -0.08924873 -0.08978898 0.16854438 0.04821621 -0.06679852 -0.020664431 -0.09541382 -0.08058136 -0.04442124 0.05186325 -0.01943738 -0.01489788 0.12336333 0.013384108 0.17217223 -0.02055758 0.060040344 0.14115186 -0.11383482 0.034232546 -0.052560538 -0.12529115 -0.08027125 -0.037531473 -0.09088889 -0.07970558 0.045607477 0.07923191 0.075940356 0.04927307 0.14925607 -0.021537492 0.06993932 0.11339054 -0.12028572 -0.14208908 0.05975378 -0.0702138 -0.051508795 -0.03887653 0.027840026 -0.052487083 0.045899037 0.04527002 -0.013400771 0.14722782 0.17527217 -0.038002487 0.031093493 -0.1306791 -0.04121721 0.04927418 0.06559453 -0.118023336 -0.028160093 0.03209541
8 -0.055529747 -0.065076455 0.21761876 0.061795868 -0.09792298 -0.20529588 0.009980677 -0.0034326662 -0.09849263 -0.09913198 0.20845816 0.05507681 -0.078201585 -0.03251275 -0.11106229 -0.09855224 -0.044964686 0.052640457 -0.00676894 -0.030078342 0.14296564 0.030764136 0.18613899 5.2772593e-06 0.07049991 0.14721476 -0.13560258 0.04638653 -0.06640591 -0.12870692 -0.093395695 -0.048338603 -0.09537131 -0.072971866 0.053228274 0.07309188 0.06636646 0.04828814 0.2054377 -0.028576842 0.08691167 0.121833965 -0.12908998 -0.18747365 0.04807716 -0.10259359 -0.05915778 -0.028630799 0.027314795 -0.07841725 0.07291128 0.035567973 -0.009625901 0.15010609 0.20538448 -0.051698517 0.041811135 -0.17143363 -0.050240614 0.059096783 0.07901442 -0.13766652 -0.03098479 0.032430496
