24 64
8 0.031826142 -0.023467021 0.37303695 -0.044412192 -0.14257947 -0.24935918 -0.08315475 0.10651737 -0.0797924 -0.16528589 0.2987792 0.009776713 0.012000995 0.046607748 -0.13676491 -0.102518566 -0.09350393 0.09080463 -0.0144980615 0.15606938 0.16273113 0.003280009 0.27741984 -0.018699963 -0.048226677 0.30042225 -0.35875395 -0.0597595 -0.15948513 -0.14483744 -0.15731719 0.097998545 -0.22671005 -0.16043223 0.20131403 0.0633254 0.17100391 0.17144364 0.22099076 0.013992118 0.1154764 0.22473215 -0.055446487 -0.18403663 0.03932694 -0.14366595 -0.06532346 -0.09918967 0.02033801 -0.0062172776 0.08639056 0.09746507 -0.028232675 0.187705 0.2769347 0.24850293 0.20829728 -0.16874696 -0.007405177 -0.09473733 0.09175258 -0.16789266 -0.096620806 0.072307594
13 0.014612026 -0.026032034 0.33340713 -0.029071942 -0.12509963 -0.2301041 -0.060460467 0.10018608 -0.08647184 -0.16066198 0.28585288 0.023288647 0.043232452 0.02518466 -0.11506901 -0.104216725 -0.09420186 0.10204287 0.015439718 0.17664939 0.122965224 0.016949695 0.2617901 -0.028153557 -0.050768528 0.30949917 -0.32660142 -0.05811416 -0.13565989 -0.1364155 -0.110727936 0.081595026 -0.2583242 -0.16932066 0.17918454 0.08728696 0.1273262 0.16744335 0.23065479 0.024598805 0.14834623 0.19625126 -0.039914157 -0.15557791 0.03394302 -0.13974242 -0.0583647 -0.13284186 0.01245203 -0.018054156 0.11945353 0.096877165 -0.008802599 0.1981909 0.23942743 0.22788514 0.17260078 -0.16677257 0.010713839 -0.10892027 0.10845541 -0.1520081 -0.10981759 0.10330819
18 0.013468964 -0.01477785 0.3447675 -0.044788178 -0.119476 -0.23513544 -0.06575124 0.08550451 -0.06906081 -0.13769984 0.2810666 0.035537392 0.03801443 0.00889473 -0.12675153 -0.09444265 -0.092942186 0.103033856 0.017022723 0.15541813 0.1325698 0.010635206 0.25841564 -0.036680594 -0.045548297 0.29180288 -0.32168838 -0.043437116 -0.11853794 -0.12227311 -0.12527034 0.09277652 -0.2494988 -0.14030114 0.17239624 0.06467714 0.143093 0.1697424 0.22456142 0.011063098 0.14733005 0.20605671 -0.04500001 -0.17082831 0.047366817 -0.11633504 -0.054138277 -0.12548995 0.0044333143 -0.03250145 0.11311419 0.07776671 -0.02996138 0.18715775 0.24629305 0.20863064 0.16768287 -0.15300173 -0.0027758342 -0.110102594 0.09973455 -0.16307381 -0.084853254 0.08844394
6 0.028385112 -0.040099673 0.32965788 -0.041173667 -0.11134311 -0.23191483 -0.08944875 0.099800855 -0.07399695 -0.13825478 0.26441908 0.015881656 0.047714036 0.04505079 -0.11983864 -0.083689064 -0.10676658 0.10683705 -0.0026962985 0.16058864 0.14834057 0.008908368 0.2589026 -0.030273456 -0.042382512 0.305487 -0.34311512 -0.07245582 -0.15115471 -0.13560309 -0.13095789 0.06956838 -0.22208032 -0.160321 0.19674626 0.07872665 0.13201961 0.16768834 0.22331351 0.0038636818 0.11553043 0.20234829 -0.050770387 -0.16251726 0.036121707 -0.1274178 -0.05329394 -0.117279045 0.011112446 -0.015784806 0.10558338 0.097347185 -0.014955206 0.1828424 0.24458742 0.23204361 0.1707669 -0.15200493 0.0030023395 -0.10436645 0.08188138 -0.16790198 -0.11494519 0.07738869
2 0.028578276 -0.04549991 0.3225456 -0.049376346 -0.1161004 -0.24225724 -0.04946756 0.115987904 -0.088565566 -0.11584109 0.30480593 0.02566285 0.045958232 0.057387233 -0.10133621 -0.064866014 -0.08873891 0.11767531 -0.0023017356 0.19572149 0.15478194 0.030134818 0.24263473 -0.023348272 -0.046305012 0.28072384 -0.35183752 -0.07180984 -0.14644362 -0.1321494 -0.1293994 0.064702496 -0.22244525 -0.17736241 0.16837643 0.087769486 0.16206186 0.1523869 0.24018212 0.011366837 0.12966561 0.22212988 -0.01987255 -0.17412704 0.024113948 -0.117636785 -0.06850184 -0.12511486 0.03990394 -0.015074905 0.12253737 0.10656739 -0.017317269 0.16032761 0.26041016 0.25508493 0.18432155 -0.16242045 0.02125789 -0.108905315 0.10648469 -0.16017415 -0.14250255 0.100927435
1 0.020048348 -0.030135585 0.34011552 -0.021607647 -0.13371594 -0.22018994 -0.058965422 0.09024452 -0.07508978 -0.1404454 0.27018383 0.01581761 0.016962558 0.023787433 -0.102962695 -0.072911896 -0.07500895 0.084214486 -0.010408023 0.17573851 0.13435826 0.018476086 0.25525957 -0.024000118 -0.03349008 0.29147765 -0.31393203 -0.06300093 -0.14113522 -0.13597131 -0.11677966 0.07232269 -0.24898045 -0.1652429 0.16509978 0.07137149 0.14056435 0.17169107 0.22393598 0.009179075 0.1316486 0.20736389 -0.025819926 -0.16159299 0.042510923 -0.13625222 -0.056216743 -0.10171892 0.01428274 -0.04386852 0.11984828 0.074639626 -0.019230094 0.1953563 0.23529537 0.21438378 0.1575517 -0.14211172 -0.0107661 -0.08923142 0.0852374 -0.14432044 -0.08859267 0.093177184
7 0.015212222 -0.020944595 0.38402528 -0.04680538 -0.13209243 -0.25338563 -0.11546176 0.060166925 -0.07878933 -0.18363945 0.28728202 0.014662437 0.007953591 -0.0017991262 -0.13475084 -0.12999754 -0.109038934 0.075212546 -0.002809239 0.14741078 0.14697425 -0.009515461 0.26954275 -0.014208337 -0.06241247 0.32095706 -0.35795 -0.053785745 -0.15131472 -0.1482275 -0.1560861 0.09729473 -0.25956511 -0.118846744 0.2219055 0.061527785 0.15204647 0.17494538 0.22031166 0.048699252 0.14899004 0.2052925 -0.05155591 -0.16395743 0.033035267 -0.14422712 -0.033781137 -0.11203581 0.007332618 -0.05605347 0.10777445 0.06910816 -0.018553317 0.2044277 0.26016837 0.2411124 0.19219217 -0.16898887 -0.032891814 -0.08209845 0.11088979 -0.18346538 -0.050872277 0.09313644
23 0.03350628 -0.04096961 0.3406897 -0.037590906 -0.10599109 -0.23864803 -0.07375876 0.08726268 -0.09051332 -0.15494649 0.27980405 0.0065356297 0.04658505 0.029284751 -0.10949809 -0.08413501 -0.09855253 0.099073805 0.017477417 0.18255295 0.13038075 0.02675032 0.23835026 -0.011092974 -0.05479604 0.294605 -0.33031628 -0.054327603 -0.14823185 -0.114270136 -0.11657441 0.06668051 -0.24357028 -0.17196563 0.1868611 0.06831193 0.13479903 0.14718394 0.23041023 0.015446487 0.1081955 0.2028992 -0.033949167 -0.17116553 0.044924855 -0.13817829 -0.05672614 -0.12641089 0.034109663 -0.0059797033 0.10743544 0.09662207 -0.03577719 0.17617305 0.24439427 0.22583325 0.16561016 -0.15437596 0.009560145 -0.093085 0.081064105 -0.16461945 -0.11686918 0.08273136
12 -0.0025186848 -0.02375555 0.3764408 -0.064377956 -0.13962977 -0.24782236 -0.11849547 0.03627329 -0.09495242 -0.19995238 0.27581558 0.028353365 -0.037037555 -0.013609376 -0.13139762 -0.15392311 -0.097190656 0.06632743 0.018730238 0.12196296 0.13336447 -0.04193269 0.27783585 -0.0025121162 -0.04479079 0.32636973 -0.33693352 -0.055672754 -0.11786873 -0.17527312 -0.16910084 0.10185135 -0.26365584 -0.11678026 0.21806473 0.07840156 0.1470168 0.19584794 0.2080219 0.031167446 0.17906538 0.20695992 -0.07895729 -0.17508525 0.064693704 -0.15785743 -0.04664018 -0.12575929 0.0064014336 -0.061293855 0.1033673 0.056405276 -0.0038765853 0.22018847 0.266815 0.22785445 0.1735206 -0.18120459 -0.026863871 -0.07771308 0.11590746 -0.17063013 -0.030716581 0.10684249
21 -0.0018084057 0.004350518 0.3958632 -0.055250403 -0.12080231 -0.2469529 -0.123096555 0.013941501 -0.07729322 -0.22730312 0.24816386 0.023488155 -0.04825018 -0.010610135 -0.1334857 -0.13941985 -0.109953694 0.035543945 0.024363682 0.13670063 0.1442297 -0.057529822 0.28706753 -0.0244861 -0.048786495 0.31157544 -0.35371116 -0.047582693 -0.13031359 -0.1652771 -0.1587603 0.12293627 -0.26681852 -0.09494964 0.24376754 0.060526613 0.15249541 0.22358713 0.1885871 0.05307399 0.1821774 0.19823697 -0.0623223 -0.19517994 0.052366454 -0.15503399 -0.012736894 -0.10525378 -0.015229246 -0.059286524 0.07077345 0.05907573 -0.006783955 0.21595502 0.28154793 0.24058484 0.19688465 -0.15962057 -0.04442223 -0.08994832 0.09269308 -0.1988571 -0.013309106 0.07490083
14 0.032676805 0.018567976 0.4527015 -0.10118526 -0.13129911 -0.20936218 -0.20153458 -0.028923297 -0.06347954 -0.26248825 0.23125961 -0.023173487 -0.13324712 -0.034323543 -0.19241175 -0.2102728 -0.098039486 -0.03110192 -0.013609294 0.08655109 0.16843134 -0.104846 0.31340536 -0.006089942 -0.08216052 0.32779706 -0.376942 -0.04883771 -0.12697959 -0.19096245 -0.21592675 0.17512159 -0.25644404 -0.023386296 0.2905227 0.017237276 0.1727646 0.255035 0.16450681 0.09462121 0.18181674 0.15866978 -0.0892521 -0.1973821 0.05170777 -0.17014042 0.01621282 -0.091721244 -0.06915992 -0.08273398 0.02338834 0.05112458 -0.0032487444 0.23273896 0.2905337 0.22546887 0.24123698 -0.17208634 -0.054254778 -0.09042817 0.10837332 -0.21099794 0.09560272 0.079074875
11 0.010284279 -0.012861226 0.3640317 -0.05687831 -0.1327783 -0.23818225 -0.100208215 0.05783292 -0.069493756 -0.17933072 0.26260823 0.018051324 0.0034624902 0.010290977 -0.13679439 -0.13200533 -0.09464573 0.07864311 0.010062539 0.13136074 0.12383758 -0.006660791 0.25678542 -0.006150053 -0.06449555 0.3152905 -0.34562987 -0.05142659 -0.1375868 -0.15779252 -0.14850004 0.09758369 -0.25525126 -0.12544234 0.19177474 0.06876551 0.15818109 0.17861022 0.20129251 0.038987424 0.16118304 0.18640603 -0.062890895 -0.17467213 0.05562878 -0.14001882 -0.056410775 -0.11234144 0.016852204 -0.05309831 0.082886234 0.089342125 -0.026600894 0.2013268 0.25392312 0.24021514 0.19785732 -0.1622101 -0.023736894 -0.07982962 0.10108616 -0.15660082 -0.0688032 0.10438162
5 0.02501491 0.014366436 0.47421968 -0.103033446 -0.13472722 -0.24577138 -0.21080008 -0.0076177977 -0.04906267 -0.28386343 0.25143474 -0.026742904 -0.1315163 -0.039852172 -0.20490646 -0.20326091 -0.10004761 -0.019411147 0.010193632 0.12443295 0.19765082 -0.10733148 0.32531732 -0.018250166 -0.09531395 0.3486305 -0.40028694 -0.048639603 -0.1268173 -0.19918843 -0.21907277 0.17811012 -0.28377768 -0.019751549 0.30919987 0.04759739 0.19070807 0.27076623 0.19267873 0.08070859 0.1731076 0.18992607 -0.0772031 -0.21913776 0.07644607 -0.1769261 0.018321652 -0.09155127 -0.07000369 -0.083912075 0.012180906 0.051433608 0.002265174 0.25957173 0.3250799 0.23513053 0.25134853 -0.16550061 -0.05889552 -0.12665269 0.1058383 -0.23162746 0.09586053 0.062372677
16 0.022043038 0.008435555 0.36751884 -0.047007367 -0.12900299 -0.21501747 -0.1084727 0.026898868 -0.07788577 -0.18515547 0.25279325 0.010303309 -0.028929368 -0.004456171 -0.13181147 -0.12512672 -0.10058924 0.04580608 0.0056870095 0.13389342 0.13682275 -0.040445015 0.27352244 -0.01656044 -0.05190262 0.3040175 -0.32473832 -0.06403033 -0.14082007 -0.16277307 -0.13974331 0.103229016 -0.2624162 -0.10729663 0.20832884 0.06892652 0.13011858 0.19471124 0.1787901 0.04474541 0.16261062 0.20045838 -0.070433214 -0.18170477 0.03566554 -0.15634689 -0.048982743 -0.10815566 -0.007991025 -0.063094065 0.0918525 0.06856611 9.601274e-05 0.20529227 0.25766334 0.21214025 0.18189397 -0.15014507 -0.0340616 -0.085349634 0.10050104 -0.17390625 -0.011693093 0.098498784
3 0.024576208 0.038140543 0.45834428 -0.10104944 -0.14714251 -0.23933007 -0.20629452 -0.0046881624 -0.06270154 -0.27615783 0.22827162 -0.0028649385 -0.12825075 -0.047939572 -0.18111253 -0.20672153 -0.09824249 -0.017689168 -0.004995886 0.1118002 0.17759597 -0.11679257 0.31796643 -0.01855107 -0.07669756 0.33061504 -0.38246554 -0.046284415 -0.105598845 -0.19493407 -0.22864956 0.18585332 -0.26187262 -0.036470402 0.30062857 0.036899243 0.17613165 0.26624954 0.15655862 0.09426133 0.18132922 0.17838652 -0.07934836 -0.19637966 0.064618014 -0.1560369 -0.0027736647 -0.09282676 -0.06011961 -0.08026181 0.021141358 0.059978746 0.009361597 0.24932903 0.3009679 0.23992798 0.2300088 -0.15205032 -0.049464893 -0.11193848 0.093000695 -0.21249497 0.095497206 0.067947246
9 0.018923137 0.025384072 0.42025533 -0.0793999 -0.14005795 -0.22737049 -0.16479094 -0.0018507723 -0.05795754 -0.23060858 0.24323538 0.0043350845 -0.08733794 -0.031570796 -0.15779938 -0.1756853 -0.088912 0.004719348 0.007426049 0.113323376 0.16306902 -0.07358324 0.28126442 0.0019181764 -0.06743968 0.29762697 -0.36476502 -0.04678996 -0.11281192 -0.16133708 -0.20321546 0.15256348 -0.23611084 -0.05016366 0.26476738 0.02809243 0.14507863 0.22914161 0.19077127 0.06969542 0.16811888 0.17392437 -0.0563398 -0.20351686 0.035352655 -0.16213001 -0.021529252 -0.082117066 -0.043086536 -0.079051696 0.060603768 0.05292302 0.009138533 0.20762186 0.28236958 0.23153597 0.21696228 -0.16366702 -0.035008598 -0.107994996 0.089352794 -0.19204581 0.045086443 0.06545301
19 0.04796411 -0.025215957 0.33328965 -0.068788975 -0.116543375 -0.21893188 -0.07871075 0.14883646 -0.0367227 -0.088757955 0.31953332 0.01906137 0.07868708 0.0953486 -0.12248152 -0.046442773 -0.10671637 0.12594895 -0.036021084 0.21224032 0.13310775 0.003876065 0.23754208 -0.013525498 -0.078948244 0.29088068 -0.36656684 -0.101496905 -0.18699512 -0.111815274 -0.12706243 0.06696566 -0.22073875 -0.19704692 0.19516462 0.06697784 0.14253621 0.13557316 0.22966951 -0.005484874 0.061305437 0.2555328 -0.03842524 -0.18725483 0.024810808 -0.14910549 -0.0754911 -0.09425011 0.036610123 0.036302328 0.12761387 0.121022746 -0.029849015 0.12867391 0.24977039 0.3083756 0.22253014 -0.13644797 0.038461406 -0.09889434 0.055796105 -0.13946335 -0.1776298 0.07415904
10 0.053565253 -0.012218022 0.3269122 -0.056374397 -0.11846395 -0.19419198 -0.090408325 0.10513698 -0.03620637 -0.125072 0.27278087 -0.0021731574 0.051521484 0.07848932 -0.10710734 -0.05621727 -0.091155164 0.08338678 -0.019668136 0.17651126 0.12333131 -0.009651331 0.23806661 -0.0034742313 -0.06320609 0.26604027 -0.312253 -0.089718424 -0.15402079 -0.12823911 -0.13668352 0.05751926 -0.20936462 -0.16486767 0.17949939 0.03898138 0.12516181 0.12979746 0.18621798 0.017486371 0.09475513 0.21290317 -0.035889216 -0.17496914 0.023078782 -0.13260618 -0.061738066 -0.09553204 0.02467892 -0.0025797968 0.089724064 0.07448742 -0.039457224 0.14617439 0.23811062 0.26851287 0.18907437 -0.14451963 0.026434194 -0.097748324 0.066947885 -0.12745313 -0.110535964 0.057395466
22 0.05598314 -0.014336142 0.31551912 -0.061339684 -0.118767336 -0.20204908 -0.08592202 0.10627358 -0.050599027 -0.11829927 0.27899787 0.006360968 0.028108599 0.0804089 -0.10184615 -0.05336131 -0.109428786 0.10068015 -0.025191208 0.18644904 0.14072846 0.0042678323 0.24121708 0.0012380881 -0.070766754 0.29013842 -0.3376361 -0.0897514 -0.15849783 -0.10574954 -0.14479083 0.07128742 -0.19661267 -0.15758471 0.1744235 0.04415933 0.16095324 0.15694943 0.21098861 0.0015198062 0.0748943 0.2261475 -0.021562375 -0.17700128 0.010994712 -0.14235994 -0.07065716 -0.10215691 0.021906098 -0.0070385523 0.1190091 0.07404353 -0.021347143 0.15927953 0.24147087 0.27972093 0.21510457 -0.15350275 0.0027157704 -0.1100084 0.06048921 -0.15071656 -0.12892127 0.054340545
15 0.045273215 -0.017014515 0.33644542 -0.060408514 -0.12846588 -0.21194509 -0.07780723 0.12460881 -0.05547187 -0.10663441 0.26758236 0.026429204 0.03745246 0.0817408 -0.123440415 -0.061261255 -0.09499765 0.100781575 -0.026653623 0.16006984 0.12439974 -0.010408087 0.24098435 -0.009850858 -0.06302437 0.29021925 -0.33766496 -0.084121175 -0.16861966 -0.1361124 -0.119498976 0.061460968 -0.21980824 -0.15386237 0.19228375 0.045397457 0.14901991 0.137033 0.21124995 -0.0022478073 0.085793816 0.2253559 -0.017015655 -0.1588665 0.007779629 -0.14455205 -0.05361726 -0.09939029 0.019585399 0.0003658279 0.12606059 0.08700989 -0.043325122 0.15572804 0.25550428 0.27214238 0.20205672 -0.15603144 0.012018197 -0.099980034 0.080313385 -0.16111228 -0.13714832 0.06817686
17 0.027127976 -0.03839229 0.35923356 -0.045727383 -0.13273476 -0.25601456 -0.06646752 0.114850014 -0.08621917 -0.14155756 0.3094126 0.0032692149 0.07717482 0.0355354 -0.115175284 -0.08112856 -0.086638115 0.12862132 0.022466514 0.20660906 0.14511268 0.03245305 0.24272312 -0.033244718 -0.062825285 0.29209438 -0.38639313 -0.094279855 -0.16523023 -0.119339004 -0.1346459 0.12271251 -0.25950557 -0.18182932 0.22177805 0.093662106 0.17537685 0.18597956 0.23182587 -0.0027424612 0.135045 0.24029523 -0.016497282 -0.14961724 0.057111062 -0.1315786 -0.07733766 -0.13529497 0.03721097 0.01630163 0.11669753 0.11611571 -0.014260512 0.15796554 0.26801047 0.26915252 0.18695647 -0.12659965 0.007538583 -0.12975985 0.096992165 -0.17244141 -0.1154467 0.09955894
20 0.053038597 -0.07936312 0.3728764 -0.07324285 -0.118360445 -0.28587404 -0.07182495 0.16236435 -0.09408424 -0.13454744 0.3394603 0.006118316 0.12028572 0.07146932 -0.12752447 -0.05557265 -0.1029311 0.16350144 0.027464338 0.24675159 0.19032809 0.03527357 0.27667975 -0.030330854 -0.053497672 0.3145248 -0.41972014 -0.10855952 -0.19268662 -0.101801224 -0.10620056 0.14237984 -0.26157162 -0.20083503 0.22659677 0.09180695 0.18346326 0.18139383 0.26999307 0.0016446925 0.12747006 0.2741657 -0.0029865813 -0.15193315 0.046490252 -0.16862208 -0.06190261 -0.13106683 0.057237905 0.033350524 0.10632788 0.127104 -0.021508465 0.15319557 0.26367438 0.33519155 0.23634598 -0.12591185 0.022068772 -0.16718699 0.12146294 -0.17953163 -0.16228013 0.10735931
4 0.069042675 -0.066788755 0.3657809 -0.08086376 -0.13537641 -0.26594424 -0.0801551 0.15541573 -0.053678274 -0.129785 0.31912407 -0.002757125 0.10267016 0.08008685 -0.11513123 -0.06934037 -0.11318006 0.14076976 0.007587702 0.2016918 0.17184371 0.020754516 0.22811127 -0.032180384 -0.059787408 0.27999356 -0.3854318 -0.106628984 -0.14908777 -0.092903055 -0.123933084 0.11877205 -0.21879882 -0.19165707 0.21079691 0.08650258 0.17498036 0.18054889 0.22354133 -0.00889518 0.107421644 0.25214407 -0.014898069 -0.14992128 0.04836438 -0.15584771 -0.077752374 -0.13711007 0.06184712 0.03373787 0.109836034 0.122755416 -0.04839685 0.13796015 0.2605768 0.3009717 0.21289857 -0.12582558 0.01447455 -0.13626465 0.091973044 -0.1627822 -0.1608075 0.07194916
0 0.054644227 -0.04976347 0.36290038 -0.07935135 -0.108258694 -0.25426906 -0.08321546 0.123066224 -0.08714087 -0.14841688 0.30972397 -0.011763643 0.071624346 0.053299367 -0.11122346 -0.07651749 -0.10742766 0.103308305 0.02404804 0.19934571 0.17211968 0.022339387 0.26010647 -0.038405072 -0.05855575 0.31510732 -0.3893057 -0.06966413 -0.17103608 -0.11105338 -0.1262411 0.13107644 -0.25313193 -0.17821671 0.20416515 0.08731514 0.1587911 0.19906607 0.22128609 -0.0053946883 0.11763012 0.24730629 -0.040216852 -0.17115067 0.035578452 -0.13993998 -0.05320101 -0.11927097 0.028796695 0.01784633 0.08786967 0.10501567 -0.036239654 0.16477011 0.25733966 0.2959541 0.20817447 -0.1531458 -0.0043216087 -0.13925818 0.10369313 -0.15233901 -0.12822704 0.10342836
