12 64
5 -0.026537942 -0.04712382 0.10241425 0.03928999 -0.018357081 -0.09285548 0.027286062 -0.0057863016 -0.057317413 -0.055602312 0.081190936 0.02304341 -0.0062303757 -0.00022762537 -0.037750848 -0.034507904 -0.03289592 0.023358984 -0.008710429 -0.020770907 0.027098004 0.04641957 0.07626559 -0.007286411 0.03508585 0.064972445 -0.055640493 0.0503246 -0.04391472 -0.02976102 -0.020035604 -0.026082072 -0.04835411 -0.06262242 0.007560126 -0.0064432556 0.05158972 0.007740028 0.080715604 0.0017625331 0.03925307 0.026549323 -0.05532164 -0.06674879 0.031996027 -0.025905335 0.009466875 -0.022336727 0.029924767 -0.007308347 0.01550655 0.021158276 -0.06437006 0.05589478 0.06820277 -0.012277849 0.019119784 -0.08287159 -0.03111135 0.07108692 0.024016732 -0.05846848 -0.060253326 0.010709415
0 -0.02943108 -0.045922596 0.10206669 0.0370144 -0.007915067 -0.08551846 0.027886685 -0.006607926 -0.054446947 -0.06634459 0.084328845 0.029314741 0.015243451 -0.015063987 -0.037379954 -0.046141624 -0.042218026 0.029035615 0.013627492 0.007274987 0.009691079 0.045912206 0.08174622 -0.019429538 0.02229553 0.0863973 -0.05512673 0.04682282 -0.027750606 -0.021804716 0.007018149 -0.018038517 -0.08377438 -0.065721296 0.013296834 0.0049302587 0.027105244 0.024098117 0.0983395 0.018109588 0.06894639 0.012121375 -0.041316915 -0.05583977 0.02903084 -0.035324674 0.023413079 -0.05415785 0.0124538215 -0.012699401 0.038470093 0.02482789 -0.052490648 0.07161465 0.053415895 -0.00967812 0.015034283 -0.084585086 -0.013865125 0.041754536 0.038991462 -0.060904853 -0.064479634 0.029475532
6 -0.03703049 -0.051848948 0.1432917 0.029072408 -0.005318965 -0.120726846 0.03131231 -0.020509975 -0.05549927 -0.05551539 0.11126245 0.05007415 0.015421883 -0.02736445 -0.05404395 -0.039861992 -0.05499423 0.042570937 0.01598442 -0.0065858257 0.025751978 0.056559972 0.100701936 -0.028473455 0.034208465 0.097789325 -0.07289688 0.07135654 -0.027551256 -0.01769138 -0.011447517 -0.021682162 -0.09883099 -0.06381087 0.0070286784 -0.0137589695 0.056962855 0.029806744 0.12391221 0.0023297528 0.08199513 0.03804601 -0.05864715 -0.095811926 0.05012925 -0.021668833 0.028034938 -0.060503203 0.017561363 -0.03297213 0.04855517 0.011348685 -0.09306623 0.07926164 0.08247802 -0.020406319 0.015688429 -0.09975751 -0.033531323 0.057280447 0.038885936 -0.08880027 -0.070015594 0.025070129
9 -0.023337573 -0.062421866 0.09656337 0.031300005 0.0049324697 -0.09065915 0.0035662681 -0.013407297 -0.052280292 -0.047729444 0.0641901 0.024822656 0.014164219 -0.00014490294 -0.038510915 -0.029530149 -0.05319909 0.033228625 -0.0026243145 -0.010293297 0.031766582 0.043165136 0.08203452 -0.01948947 0.0341678 0.09048819 -0.07116476 0.036550637 -0.04514025 -0.031700976 -0.014212135 -0.039354645 -0.055287197 -0.06175266 0.025280708 0.0041841287 0.030676706 0.024059612 0.095551774 -0.0011932723 0.045847982 0.015587775 -0.057103876 -0.06620519 0.032476034 -0.021165289 0.025646053 -0.04185385 0.013680606 -0.020216405 0.029220184 0.026061406 -0.055441275 0.06532887 0.060656954 -0.010752223 0.0061283177 -0.07874117 -0.024200182 0.054381073 0.017568834 -0.075873554 -0.0714245 0.014644271
10 -0.028364813 -0.05311653 0.084043935 0.019779352 0.0031304746 -0.08719635 0.030907717 -0.016995588 -0.06013628 -0.034398377 0.08151053 0.034221094 -0.009537998 -0.0017157486 -0.023537895 -0.022358805 -0.030527297 0.024591831 -0.00040277262 0.007962758 0.03106414 0.044247128 0.06118643 -0.009362046 0.027238427 0.05583507 -0.066161744 0.04131059 -0.0296039 -0.031347014 -0.015167601 -0.035534024 -0.050026193 -0.05054458 0.0039982484 0.004965146 0.05282601 0.010690387 0.092871755 0.017172152 0.06266449 0.020148719 -0.027830841 -0.07098208 0.018623747 -0.0102833 0.021357298 -0.039957486 0.028518548 -0.027634356 0.032640774 0.024239903 -0.048252773 0.042395104 0.06952019 0.0013063797 0.017814625 -0.081098154 -0.012179515 0.0516986 0.039651804 -0.06751074 -0.06569572 0.032134075
4 -0.019251704 -0.04273417 0.09486584 0.038375124 -0.017961595 -0.06645683 0.026047712 -0.008635724 -0.038033474 -0.04002947 0.06127138 0.016896883 -0.00831484 -0.013685236 -0.01814882 -0.009769115 -0.017065244 0.010133644 -0.010227321 0.014702181 0.020447053 0.042242445 0.06609645 -0.0141768595 0.033801444 0.063198395 -0.040450595 0.032444205 -0.030669013 -0.021232137 0.0012932809 -0.0215795 -0.06963931 -0.05950748 -0.00070979685 -0.0027064485 0.034203745 0.029458974 0.08023602 -3.787555e-05 0.04511867 0.025270453 -0.020114629 -0.05351938 0.032907903 -0.029079422 0.017305462 -0.019025777 0.013479361 -0.033988513 0.035627186 0.004865264 -0.050199438 0.062794626 0.043187108 -0.014156855 -0.0006923622 -0.049004063 -0.029495686 0.047472432 0.012927833 -0.041627634 -0.03915726 0.021311486
3 -0.032243893 -0.056475103 0.122762635 0.038416926 -0.008365549 -0.11029601 0.01015725 -0.021475155 -0.056606412 -0.059072584 0.09813117 0.03076145 0.013141176 -0.026912985 -0.03820454 -0.043024138 -0.05369093 0.029067295 -0.0044737924 -0.007262907 0.02485255 0.054632463 0.07755792 -0.008758142 0.022816319 0.090725794 -0.0695789 0.05716369 -0.04637352 -0.020077478 -0.01637918 -0.034314446 -0.07879597 -0.04972183 0.02046541 -0.012186589 0.04403157 0.0052477648 0.10786735 0.023204954 0.0564458 0.025544545 -0.04419813 -0.06064512 0.022804173 -0.0263029 0.034532867 -0.03986883 0.025578877 -0.03945556 0.04902311 0.0039361143 -0.07116476 0.06886085 0.0617864 -0.007071705 0.0139411595 -0.0928379 -0.04341974 0.074523926 0.039776675 -0.07887355 -0.055432245 0.024038943
8 -0.018604599 -0.06054749 0.10501177 0.03481182 0.01176406 -0.092694625 0.015699746 -0.030644365 -0.06649618 -0.065149486 0.07186587 0.01593935 0.009977784 -0.021611338 -0.02723148 -0.030432045 -0.04437747 0.021492025 0.019224929 0.010130138 0.010973906 0.05588615 0.05986783 -0.00055609015 0.021443678 0.07855071 -0.05146993 0.05452788 -0.037567392 -0.009287846 0.0035736212 -0.041548986 -0.078414366 -0.06546407 0.016519414 -0.008341131 0.028449344 0.0040429938 0.09910104 0.012633856 0.039602257 0.012448421 -0.036786065 -0.069393866 0.040145118 -0.03219045 0.02697775 -0.05097467 0.03173794 -0.015514352 0.03224115 0.018833136 -0.07361772 0.0607958 0.055500716 -0.021905316 -0.0036157442 -0.07706478 -0.019518727 0.063237175 0.016824575 -0.073163144 -0.06340377 0.018724604
7 -0.022184884 -0.03355037 0.033128817 -0.003914075 -0.010892509 -0.04080678 0.0040022684 -0.011635771 -0.033716653 -0.021956127 0.039193712 0.022478819 -0.012301214 -0.008337028 -0.007230283 -0.027961425 -0.012425041 0.018298313 0.011397728 -0.01730281 -0.0019598375 0.0013473451 0.026490849 0.011206326 0.01972678 0.03553937 -0.013994854 0.010858978 0.0021269242 -0.022239296 -0.014398644 -0.01236224 -0.026401006 -0.025806747 0.0032066524 0.010727538 0.015696904 0.00580385 0.03438831 -0.009518559 0.035936765 0.020396626 -0.032765467 -0.021056961 0.029546881 -0.022825042 -0.0026364205 -0.027029559 0.022531621 -0.008876818 0.023492116 -0.006020425 -0.01759089 0.025385924 0.023756003 0.003048997 -0.0053848284 -0.04330227 -0.006630314 0.032844134 0.022823786 -0.013926369 -0.0235193 0.022583503
1 -0.038026284 -0.034826703 0.08344574 0.028277136 0.007776849 -0.08221799 0.025685107 -0.032120217 -0.043749373 -0.057278838 0.052720983 0.038071156 -0.0028311834 -0.0037947074 -0.012069926 -0.012657388 -0.045242902 0.014221655 0.019827912 0.0027609097 0.011146182 0.019306237 0.06310792 -0.019202862 0.03584777 0.05353142 -0.04892573 0.038028684 -0.027793912 -0.019102627 0.0027921395 -0.020320231 -0.060752086 -0.04762293 0.018178878 -0.0005526963 0.034060057 0.03134377 0.06191012 0.005820359 0.06341861 0.027998822 -0.034268115 -0.06791379 0.030705357 -0.025689479 0.033151276 -0.030168425 0.021461347 -0.01476443 0.020854335 0.0046189725 -0.05072918 0.04455894 0.059513815 0.009937155 0.0102946265 -0.057909 -0.032357115 0.05146667 0.011648868 -0.06501064 -0.056829344 0.0051311348
2 -0.012756911 -0.051655397 0.09868428 0.010303417 0.0028184142 -0.05837159 0.0032219198 -0.035720218 -0.0515629 -0.050990134 0.06106141 0.00979019 -0.013730836 -0.0036902132 -0.040433843 -0.043726135 -0.03880374 0.0054409783 -0.005941418 -0.020471841 0.012291012 0.02537259 0.070697255 -0.005620448 0.017932484 0.07344607 -0.059129536 0.029475778 -0.04067895 -0.02923432 -0.00994353 -0.010711253 -0.06197854 -0.03827878 0.02202317 -0.014859675 0.04315918 0.027189102 0.06593033 0.01886167 0.061381727 0.0065311617 -0.05024474 -0.05111354 0.027562667 -0.033658005 0.035378385 -0.04246116 0.009740529 -0.018791867 0.019421075 0.013798955 -0.0584571 0.048281603 0.049320567 -0.0014633755 0.025407705 -0.07459762 -0.026547873 0.060728375 0.036656406 -0.060846798 -0.0351145 0.03354323
11 -0.031989764 -0.045184582 0.09838912 0.016363567 -0.012016275 -0.0884437 0.015324563 -0.02112467 -0.041328065 -0.0529872 0.06671853 0.028506463 0.0068596574 -0.008177138 -0.040798463 -0.04725599 -0.03695343 0.030869642 0.0063803736 -0.023297265 0.00208285 0.045529313 0.058759026 0.0016779937 0.013691158 0.081185445 -0.06387567 0.04469397 -0.033439077 -0.03506598 -0.014143212 -0.023762546 -0.06872706 -0.05041221 -0.00019471472 0.0002116023 0.053847138 0.013876191 0.074026726 0.014991384 0.06825488 0.008108312 -0.05395807 -0.06314671 0.045641508 -0.023785265 0.0076469067 -0.03898091 0.036127698 -0.031148504 0.016349459 0.029348874 -0.07071602 0.057651382 0.05541707 0.00698295 0.02768469 -0.075858384 -0.03127555 0.06975075 0.030231185 -0.047725726 -0.066882946 0.037599683
