30 64
25 0.06293351 -0.065094195 0.30073813 0.10687645 0.021833567 -0.2054289 0.046035662 0.15178925 -0.109637916 -0.028350275 0.30305263 -0.053151984 0.115300596 -0.03061742 -0.04856385 0.054918468 -0.08326152 0.07817439 0.0044208053 0.17872037 0.18019377 0.09447804 0.28790763 0.06156408 -0.012517799 0.22530533 -0.2583277 -0.05361057 -0.12629928 -0.04069292 -0.074751295 0.15006943 -0.28272325 -0.23499085 0.089104086 0.056837864 0.19453928 0.14711295 0.33173767 -0.018889593 0.14139503 0.2087319 0.00710895 -0.3137768 -0.0055832295 -0.18124498 -0.06895459 -0.04361863 0.07836264 0.07832014 0.19614738 -0.025219936 0.024163036 0.14159217 0.27886862 0.265363 0.27177182 -0.21262975 -0.062429078 -0.07345928 0.123704486 -0.14995503 -0.10069219 0.106348306
4 0.034584235 -0.12419542 0.37556112 0.23127843 0.061959136 -0.26615715 0.16376372 0.13821125 -0.13263452 -0.06530147 0.3684057 0.026862524 0.22209659 -0.14918564 -0.051818367 0.048396274 -0.090811856 0.10729818 0.05444873 0.28661752 0.17894928 0.285454 0.24460356 -0.11508154 0.037924115 0.22325 -0.16101687 0.11938324 -0.028563345 0.011088649 0.061036374 -0.035878167 -0.34805807 -0.35889703 0.02552038 0.11951725 0.0046564457 0.062786624 0.4761765 0.033313993 0.14819928 0.12437809 0.011450342 -0.2921886 0.032748684 -0.06342789 -0.045968182 -0.18811202 0.03243398 -0.0013829948 0.28032807 0.08321689 -0.044634193 0.17570542 0.19824879 -0.050280463 0.005296471 -0.21113656 0.035684098 -0.07792395 0.109203905 -0.18887173 -0.17155349 0.1498903
29 0.04026255 -0.17815816 0.43265498 0.30348045 0.11339353 -0.31992188 0.24072391 0.16467153 -0.14296068 -0.037969895 0.41758782 0.0501708 0.29244277 -0.20310317 -0.061488297 0.097043835 -0.1021257 0.14027259 0.07048972 0.32752073 0.22666946 0.41792127 0.23867722 -0.21508473 0.06489767 0.2307316 -0.13019872 0.22177613 0.0074629565 0.057666715 0.11387183 -0.113873154 -0.38579437 -0.41857293 -0.025019811 0.13515028 -0.016360344 0.028198086 0.58664405 0.0066047073 0.12688583 0.121395096 0.02864176 -0.31093338 0.057260655 0.015122672 -0.029887492 -0.25220037 0.018561358 -0.034367334 0.3323059 0.08946203 -0.11406079 0.19267383 0.19857666 -0.20617718 -0.10057152 -0.23194405 0.032361895 -0.09378287 0.10903249 -0.24565153 -0.21803963 0.15099625
2 0.048117742 -0.17165723 0.39858893 0.27255848 0.099148974 -0.298239 0.1776768 0.15357418 -0.14684433 -0.046117947 0.3781002 0.024140682 0.2655671 -0.16139878 -0.052893333 0.08141649 -0.10842771 0.12632026 0.046504598 0.29718164 0.2260567 0.34935614 0.25251758 -0.15991355 0.06450527 0.23882708 -0.16462956 0.15207943 -0.033320367 0.018221602 0.069475986 -0.08828152 -0.3466641 -0.4002936 0.018118437 0.13679765 -0.012281476 0.048403207 0.5319753 0.011047738 0.12379973 0.12314793 0.0023893635 -0.30819947 0.039757784 -0.02530498 -0.041031625 -0.21061353 0.030999834 -0.016308289 0.29946443 0.09245096 -0.066898026 0.1842661 0.20371194 -0.11694381 -0.049947858 -0.2241175 0.027880764 -0.07627066 0.0977877 -0.22617729 -0.20339654 0.14606974
18 0.041529626 -0.15298776 0.3707441 0.2401889 0.08992028 -0.27824986 0.18874943 0.1456081 -0.14785188 -0.028594436 0.3776608 0.026483614 0.21690848 -0.14055876 -0.03899223 0.08939899 -0.08558292 0.11192869 0.04201858 0.2978976 0.21440041 0.32183146 0.22948267 -0.12513022 0.044367008 0.20673288 -0.16836663 0.13158967 -0.03254089 0.0113712 0.055997316 -0.06863202 -0.33126912 -0.36317217 0.0076095243 0.12494021 0.03968293 0.045083918 0.50546974 0.02114475 0.13509016 0.13209343 0.038339548 -0.30562845 0.023427915 -0.02894245 -0.039041292 -0.19152363 0.047261093 -0.016156476 0.29338136 0.07504302 -0.054609593 0.15820697 0.22050399 -0.065890685 -0.0029466704 -0.22318776 0.02685207 -0.07624794 0.11890906 -0.21736218 -0.18996792 0.15216003
1 0.036185604 -0.12233324 0.3903321 0.24177374 0.044436876 -0.2573848 0.16686338 0.12896125 -0.12873389 -0.052613843 0.3590787 0.02023413 0.19306771 -0.14617139 -0.037558466 0.07738216 -0.07617119 0.08804422 0.028131038 0.28385583 0.18454081 0.28524515 0.24425153 -0.10874089 0.052264463 0.21884452 -0.15261382 0.108586594 -0.041238036 0.00047400608 0.04764759 -0.048968617 -0.3515493 -0.3666805 0.018577702 0.11076681 0.023177734 0.07519312 0.46986687 0.011348955 0.13853137 0.14142507 0.021839634 -0.30397257 0.046669286 -0.064942226 -0.052013762 -0.16321164 0.039424248 -0.027235512 0.29082933 0.063531406 -0.053605035 0.18167476 0.20866121 -0.058357816 -0.0028264874 -0.19275399 0.0139212115 -0.058917705 0.085781366 -0.18854755 -0.15448296 0.14068867
15 0.036943585 -0.14484966 0.3982021 0.24881214 0.07449738 -0.28981274 0.1573569 0.13072638 -0.13673717 -0.0531433 0.3805643 0.022401407 0.2295197 -0.16554168 -0.051612504 0.06066006 -0.10151813 0.10860847 0.03531118 0.2784161 0.20144838 0.31992677 0.2324969 -0.11927463 0.035214636 0.22926424 -0.17249517 0.14233334 -0.046912618 0.022149172 0.048023187 -0.062396906 -0.34524056 -0.34856907 0.028432637 0.10445416 0.020894356 0.039516456 0.5030672 0.03356006 0.12405788 0.12986617 0.022219127 -0.2886113 0.022471048 -0.044417135 -0.030475857 -0.18148084 0.040197194 -0.031426392 0.2990041 0.059963297 -0.06700047 0.17273201 0.20316313 -0.07083568 -0.007788219 -0.22247364 0.00036837888 -0.052593783 0.10909343 -0.21796547 -0.16976224 0.14200316
26 0.043075666 -0.14183713 0.3886005 0.25287238 0.08594861 -0.27377272 0.17562936 0.1217178 -0.15006356 -0.06331103 0.36393467 0.016210623 0.22412747 -0.1575392 -0.040032648 0.080398664 -0.09741216 0.10072201 0.060756125 0.29294494 0.17909609 0.3197407 0.22479282 -0.11154025 0.03770675 0.22358267 -0.14145948 0.13939244 -0.038139313 0.025975129 0.06968568 -0.08027473 -0.35938063 -0.37573957 0.021063354 0.1108548 0.011504802 0.03798063 0.49592462 0.014116336 0.116135456 0.12550761 0.025987564 -0.3067556 0.049886394 -0.05112879 -0.04061228 -0.20084876 0.051480647 -0.0068369373 0.294997 0.070835195 -0.077188335 0.17452541 0.21109793 -0.09154978 -0.023737632 -0.21248907 0.025806434 -0.06263317 0.088072024 -0.22030559 -0.17926554 0.133405
20 0.019825527 0.035055574 0.2945207 0.00048286616 -0.08925279 -0.17650267 -0.038687177 0.049289852 -0.121846 -0.05314584 0.322217 -0.0021172129 0.01080955 -0.008407536 -0.021637047 0.005409693 -0.09039554 0.04586826 0.02011468 0.15130629 0.088674635 -0.11980939 0.33293217 0.20546484 -0.0027778533 0.22896077 -0.25302386 -0.19159722 -0.13448574 -0.13786842 -0.15589757 0.17195381 -0.31814688 -0.20425625 0.14769708 0.049687006 0.17723793 0.18460977 0.21386392 0.006943408 0.25012735 0.2848238 -0.06547439 -0.39737874 0.023948539 -0.28366467 -0.11890839 -0.014648091 0.12216418 0.061718073 0.22841635 -0.04123233 0.08019645 0.15645315 0.33771244 0.42067572 0.34095794 -0.19021042 -0.003900101 -0.019086411 0.1297856 -0.10719587 -0.014375439 0.13057849
3 0.027908567 0.013968476 0.29509425 0.04705424 -0.027818767 -0.18876675 -0.0039796312 0.063745625 -0.10695085 -0.05616793 0.2919439 -0.011896097 0.05621769 -0.014768105 -0.01941649 0.042894352 -0.102220505 0.046706982 0.02996061 0.18150632 0.116878025 -0.050966263 0.3129692 0.13338704 -0.0026910354 0.21538089 -0.25945237 -0.13759752 -0.13722827 -0.09169721 -0.10363434 0.16219461 -0.312811 -0.20715266 0.13701582 0.047577705 0.1704578 0.18455568 0.24259244 0.010774145 0.22013551 0.25342304 -0.025581243 -0.37713858 0.0049705794 -0.24120611 -0.076337256 -0.020917306 0.09746764 0.06328606 0.20551728 -0.033579826 0.057069488 0.14390543 0.31594226 0.37147132 0.31108707 -0.17732713 -0.032821175 -0.043066584 0.10779819 -0.1395261 -0.05026056 0.10483499
16 0.03917236 0.01957937 0.32592282 -0.015056174 -0.04774974 -0.16961111 -0.073098764 0.041410774 -0.08600729 -0.07291702 0.27931216 -0.024679555 0.01565112 -0.0287687 -0.07516556 -0.044657405 -0.07816529 0.033447 -0.0032025494 0.15294752 0.11529024 -0.06486508 0.29926875 0.1561279 -0.04409114 0.22431524 -0.3242856 -0.13838208 -0.13913314 -0.08893543 -0.1544434 0.22550474 -0.27462435 -0.15368138 0.17931102 0.0051214537 0.17627296 0.19812025 0.23566692 0.060306825 0.21465358 0.20159848 -0.035117052 -0.34027198 -0.0019585355 -0.25113297 -0.07661585 -0.0058323033 0.06446975 0.047206715 0.16352159 0.005119392 0.071507014 0.120611906 0.2794076 0.3992162 0.3500822 -0.17127006 -0.017634522 -0.040506937 0.1056025 -0.11462226 -0.015839897 0.13285041
11 0.00942485 0.047407802 0.3336289 -0.0068575265 -0.08117966 -0.1971128 -0.061032448 0.03221345 -0.07369671 -0.08716487 0.28936616 0.0127928285 0.02690008 -0.043594472 -0.070997074 -0.057837807 -0.075752325 0.04899692 0.0098725725 0.15561071 0.087655775 -0.05865555 0.28417885 0.15994187 -0.03805173 0.22149259 -0.31097198 -0.120974876 -0.12107551 -0.10389217 -0.16028479 0.18909998 -0.284343 -0.1769903 0.15880989 0.023441194 0.1504291 0.17840852 0.22964518 0.06828846 0.23134632 0.20197053 -0.055546034 -0.36465824 0.024363369 -0.23825578 -0.11700304 -0.008066875 0.089601174 0.020959293 0.16766772 0.038499594 0.06061751 0.13028643 0.2821403 0.3828714 0.32265463 -0.15976101 0.0013482989 -0.018045109 0.082126595 -0.09426301 -0.037564103 0.13716318
22 0.066213034 -0.0104335295 0.21151198 -0.033622947 0.0021481197 -0.13613862 -0.085619666 0.13003817 -0.05265284 -0.013992893 0.2110512 -0.10430398 0.009614099 0.056598082 -0.06356227 0.04113667 -0.07017052 0.05600593 0.004478457 0.1485434 0.14439994 -0.09391464 0.28377986 0.19554053 -0.10275032 0.23856236 -0.34782746 -0.20248808 -0.19449559 -0.07257462 -0.13506587 0.28062174 -0.2532283 -0.060060937 0.17308962 0.0079921605 0.31838536 0.21841814 0.22659835 -0.0315788 0.120659426 0.24768439 0.05944379 -0.29323605 -0.03264237 -0.28466362 -0.023640983 0.058395263 0.06366826 0.11591741 0.121824875 -0.09885649 0.09097222 0.12817462 0.31443134 0.5125132 0.47117987 -0.16816667 -0.10935564 -0.11116196 0.12426616 -0.13845015 -0.03467605 0.058003888
8 0.060004123 0.015523578 0.28983158 0.0567214 -0.03334256 -0.1660237 0.0032502324 0.07494163 -0.11566878 -0.028413327 0.305607 -0.038795814 0.07142115 -0.022806881 -0.024845915 0.045090944 -0.099421464 0.04485127 0.013319464 0.16543968 0.13058598 -0.040405415 0.32565337 0.13847484 -0.00059949595 0.2216564 -0.2386547 -0.15396908 -0.14417103 -0.103975885 -0.09657082 0.1684454 -0.3264585 -0.21963315 0.106070936 0.06650065 0.15734355 0.17795354 0.23128642 0.0076849805 0.22970593 0.26089188 -0.05242799 -0.37911475 -0.010826392 -0.25125712 -0.11587124 -0.028804827 0.10413527 0.05340612 0.22009122 -0.034612592 0.07039138 0.14868522 0.30864376 0.34887558 0.31068337 -0.18538052 -0.04118752 -0.043917224 0.13835604 -0.11873025 -0.022261504 0.14504077
28 0.026437966 0.056530487 0.33327383 -0.01467492 -0.07574539 -0.19617867 -0.07730108 0.059547834 -0.081941105 -0.08632007 0.28091055 0.0053451224 0.0153907 -0.038160935 -0.06144086 -0.03875288 -0.07934506 0.044728536 0.0018136625 0.1863587 0.11329239 -0.085592546 0.30504552 0.14986953 -0.03993246 0.22593543 -0.3283015 -0.14161445 -0.12124824 -0.097337164 -0.17157818 0.22393045 -0.2824423 -0.17275205 0.19200064 0.02205853 0.17133889 0.20706473 0.22565816 0.061633687 0.21267597 0.22580759 -0.025975928 -0.3535379 0.009961672 -0.23867817 -0.10292795 -0.004343781 0.07314668 0.047851548 0.17173518 0.02330194 0.08531541 0.13850057 0.29696062 0.41604793 0.33934847 -0.14711538 0.0009956335 -0.058695666 0.077879995 -0.11653078 -0.019508045 0.11602372
12 0.008580271 0.059507634 0.34574103 -0.010627186 -0.0799831 -0.19621186 -0.07276669 0.022089802 -0.07582559 -0.091048226 0.29286242 0.018561943 0.0076028993 -0.05629355 -0.06602702 -0.057796046 -0.06858548 0.035357334 0.01840041 0.17648785 0.1052937 -0.06936485 0.28343856 0.16601552 -0.038885504 0.20495357 -0.32990927 -0.12210751 -0.11432044 -0.07961335 -0.17431973 0.21239577 -0.26797968 -0.15422525 0.19703363 0.0006019989 0.13760363 0.19397467 0.25698033 0.070007004 0.21961263 0.20404989 -0.017876731 -0.37074044 -0.0017603844 -0.24846452 -0.10100066 0.00640719 0.06338664 0.024003627 0.18723601 0.022727745 0.08800723 0.115407065 0.29039523 0.39303347 0.3295642 -0.15878461 0.013901555 -0.052852347 0.07190933 -0.11571711 -0.017045902 0.11225704
17 0.014316835 0.041299358 0.3062682 -0.013587902 -0.047268756 -0.17504247 -0.06858503 0.05153222 -0.06351606 -0.056418665 0.28435504 0.0019492022 0.025127493 -0.032497272 -0.07379986 -0.032044947 -0.07636719 0.046055984 -0.00048370237 0.18009622 0.09679917 -0.07618098 0.28029472 0.15061481 -0.05260712 0.21432786 -0.32018712 -0.13332476 -0.14108035 -0.079679854 -0.14144734 0.20521037 -0.27713758 -0.15607706 0.18082367 0.019188186 0.15100145 0.17983866 0.23935443 0.05299804 0.18279287 0.21826272 -0.035624184 -0.35292307 0.005624897 -0.24531956 -0.08025897 0.015550141 0.06289501 0.06079044 0.17075238 0.024534106 0.08172107 0.10944245 0.27418768 0.4001322 0.33879694 -0.14282636 0.002036879 -0.034510527 0.071547605 -0.10459166 -0.038552854 0.11855385
0 0.039968446 0.045419466 0.3122905 0.039429653 -0.07186518 -0.16168687 -0.020940835 0.05372264 -0.09731752 -0.058615386 0.31616858 -0.020992028 0.05554281 -0.0062517817 -0.019931963 0.034300134 -0.09121978 0.027152898 0.010906817 0.17590883 0.08964106 -0.079171486 0.3270656 0.16492978 -0.0043999054 0.21159238 -0.22585146 -0.16722715 -0.13909462 -0.12749226 -0.13090661 0.13289927 -0.32671654 -0.23039436 0.13198608 0.036544863 0.13875844 0.1591242 0.21090089 0.026978623 0.238501 0.25821498 -0.05643008 -0.4002605 0.014609084 -0.24661875 -0.10847967 -0.021467354 0.108253144 0.050775755 0.21205953 -0.029287638 0.048523314 0.15083893 0.3242979 0.3708987 0.30539417 -0.17792313 0.009941059 -0.026583517 0.1107235 -0.10651516 -0.017012274 0.113666266
9 0.053310763 0.035037797 0.22941662 -0.011181357 -0.036825784 -0.12522888 -0.063335516 0.08603916 -0.07150131 -0.026572578 0.23180632 -0.05834191 -0.0034550321 0.049051505 -0.034263685 0.040139295 -0.09000037 0.050239272 -0.00990209 0.15560931 0.106404796 -0.07803246 0.28458557 0.19997178 -0.08309031 0.2407501 -0.31322226 -0.19126108 -0.18091175 -0.069446854 -0.15396068 0.22105664 -0.24890159 -0.112323575 0.15668128 -0.009052066 0.2745385 0.20849071 0.22083586 -0.016954856 0.13637806 0.23934852 0.040394265 -0.32059696 -0.0334791 -0.26655838 -0.06588935 0.029850107 0.07145512 0.07955635 0.18182285 -0.076360784 0.08491251 0.1362594 0.30700973 0.47208726 0.429805 -0.17337303 -0.07537952 -0.08172594 0.0876245 -0.1399023 -0.04733207 0.055593334
27 0.062057436 0.001988892 0.23278698 -0.011442145 -0.01369788 -0.13656542 -0.05769499 0.13598031 -0.071757525 0.0009840213 0.2061865 -0.06673763 0.025980303 0.060758602 -0.061290294 0.045332767 -0.07556028 0.060947277 -0.011475234 0.12632483 0.11622392 -0.07623806 0.2818095 0.17965615 -0.08539414 0.24616884 -0.33277273 -0.1827217 -0.20313965 -0.08018857 -0.114609525 0.24264908 -0.2627213 -0.08956307 0.17053683 -0.009508974 0.29067105 0.19450665 0.23392251 -0.036024284 0.12302896 0.24047232 0.06488745 -0.27769658 -0.054289225 -0.2735811 -0.028267385 0.042601593 0.063548565 0.10684544 0.16981831 -0.085676305 0.06183043 0.12549767 0.3116139 0.48469356 0.43941402 -0.1835171 -0.099193305 -0.09154116 0.12177435 -0.15350543 -0.06825415 0.06540341
7 0.040227942 0.0030762856 0.25486636 0.03322657 -0.019045347 -0.15776445 -0.023582863 0.106563486 -0.08792994 -0.020401789 0.250146 -0.06016644 0.055545267 0.0062827636 -0.042249624 0.04036862 -0.0674788 0.07067194 0.0134985875 0.17295691 0.11406156 -0.016028736 0.2667493 0.14540876 -0.07093925 0.22493583 -0.31724462 -0.15994553 -0.17121929 -0.06632214 -0.124809556 0.21761847 -0.28325143 -0.1470863 0.16366056 0.02625258 0.25668472 0.19274755 0.2568247 -0.0238661 0.15195619 0.23137562 0.048502274 -0.29457477 -0.010417422 -0.2260068 -0.06665179 -0.0020486873 0.0724993 0.09448632 0.18955296 -0.048114832 0.07392417 0.122640565 0.30639133 0.4054298 0.36154282 -0.16289783 -0.06731359 -0.08760247 0.104991615 -0.15175925 -0.054472238 0.085883476
19 0.14256825 -0.1947683 0.19133206 0.046291523 0.16193102 -0.21125013 -0.010207636 0.24530672 -0.09497643 0.045484193 0.22437528 -0.15482567 0.20652387 -0.021210141 -0.06349772 0.078511 -0.06400103 0.13256885 0.024678577 0.1735875 0.29155585 0.10104676 0.29412565 0.06442797 -0.018251924 0.21311893 -0.33438426 -0.080504276 -0.13897885 0.025381843 -0.020337697 0.33271056 -0.22520639 -0.1294771 0.05903096 0.05273482 0.25702977 0.16557845 0.33336738 -0.012173115 0.12486603 0.20235336 0.05275243 -0.20353566 -0.083609894 -0.21367998 -0.001408265 0.0075712227 0.07215326 0.13078901 0.07231605 -0.111054406 0.071086414 0.09039665 0.17786576 0.40852436 0.34887716 -0.21160999 -0.16394247 -0.14730105 0.2221208 -0.0870353 -0.09688532 0.16461167
13 0.17263961 -0.20205683 0.21248318 0.024623081 0.14563967 -0.22926137 -0.028333753 0.26456237 -0.07121486 0.042161714 0.24104977 -0.17255676 0.21833213 -0.0075159944 -0.058696635 0.06137184 -0.08706195 0.13683906 0.022013871 0.16260944 0.30440244 0.08310145 0.2809289 0.068309695 -0.02756213 0.20953873 -0.35769838 -0.102282844 -0.11457824 0.031112347 -0.041604713 0.35376304 -0.21445318 -0.13888095 0.06753889 0.06624724 0.27461883 0.19582961 0.31919247 -0.021307658 0.13020068 0.21841379 0.043859564 -0.22242051 -0.0834495 -0.2352301 -0.023256125 -0.009975467 0.09097133 0.1505404 0.083556555 -0.105788305 0.054824773 0.08713161 0.2025201 0.43906662 0.36899665 -0.22416691 -0.17459278 -0.14488706 0.22071995 -0.08544414 -0.11470297 0.15137202
5 0.18744142 -0.22031483 0.17517675 0.024051944 0.20173813 -0.21237217 -0.017933821 0.28408927 -0.09333951 0.06575739 0.22286788 -0.20665136 0.23701937 -0.009048865 -0.04927452 0.08407455 -0.0781949 0.12651622 0.029893475 0.1576553 0.32573637 0.115442224 0.2958629 0.051309396 -0.02653087 0.2304881 -0.3645615 -0.071890816 -0.1396355 0.040355526 -0.025613341 0.38612145 -0.22027 -0.13391253 0.03305852 0.07014864 0.27522868 0.20102847 0.3175854 -0.041469403 0.113725 0.21636611 0.033498954 -0.21045913 -0.113861546 -0.20957641 -0.0046320814 0.010076795 0.072081506 0.1655478 0.04786163 -0.13342696 0.059377637 0.0842845 0.17400432 0.45463413 0.3709562 -0.25182185 -0.20803213 -0.16469935 0.243679 -0.051663242 -0.11845641 0.18747152
24 0.16459228 -0.20879082 0.19255345 0.08882981 0.17609936 -0.21963735 0.004624312 0.2639848 -0.084289834 0.05692363 0.22656347 -0.17357947 0.22066556 -0.043700274 -0.060426105 0.075665064 -0.06416991 0.13714913 0.013452194 0.1751034 0.29985362 0.13275348 0.29223874 0.04518095 -0.014679417 0.2117415 -0.31648365 -0.05864703 -0.10335571 0.0168442 -0.021403614 0.30340087 -0.22804135 -0.15648256 0.023417106 0.07204297 0.25050312 0.15579778 0.3525645 -0.013149324 0.117399745 0.18851826 0.03885116 -0.22567528 -0.09010558 -0.19031218 -0.020339523 -0.019117385 0.06295819 0.13416447 0.09085375 -0.11455503 0.05749022 0.11550311 0.18198274 0.35417858 0.29952028 -0.24789844 -0.1745322 -0.12389489 0.22137763 -0.07803214 -0.10676513 0.17081954
21 0.07615695 -0.12892585 0.35448965 0.15997772 0.076030515 -0.21996857 0.089031935 0.17914937 -0.119215764 -0.025622513 0.3197686 -0.061871406 0.16530046 -0.06485581 -0.054355547 0.0906311 -0.11061073 0.08297639 0.010883603 0.19001167 0.21885762 0.20274602 0.28704372 0.0033938303 0.0049364176 0.26163572 -0.21783957 -0.014348443 -0.097119324 -0.022273066 -0.027602237 0.10276828 -0.32194874 -0.31487826 0.064886585 0.09690001 0.1603788 0.13377005 0.38693735 -0.031731386 0.16543126 0.16765234 0.0047920235 -0.2963767 0.019744096 -0.13791497 -0.08081187 -0.11655562 0.089374095 0.0492298 0.23730384 -0.030221615 0.0054642293 0.15508224 0.25713146 0.18224697 0.19104412 -0.24890132 -0.073471695 -0.09263237 0.14764473 -0.15863438 -0.12136332 0.1588628
6 0.091094196 -0.11756823 0.28872246 0.14872874 0.09154335 -0.20095995 0.08367046 0.19630603 -0.10922591 -0.010465969 0.29784325 -0.09125985 0.18999657 -0.064681254 -0.027253391 0.07627351 -0.09356287 0.07405854 -0.003083866 0.17443694 0.20138921 0.16614406 0.26797 0.0076923477 -0.014816934 0.23497818 -0.2291555 -0.016613852 -0.08807433 -0.0051968717 -0.041169833 0.15628445 -0.3154776 -0.26556322 0.043234795 0.09027165 0.18640932 0.15562642 0.37853557 -0.03872039 0.162169 0.17493834 0.03828995 -0.27993798 -0.01749255 -0.16322891 -0.061689958 -0.09549945 0.09177659 0.060075182 0.2261416 -0.059564266 0.016548743 0.13988772 0.25783646 0.20986591 0.24818507 -0.23977438 -0.09807835 -0.11126786 0.14821726 -0.15785578 -0.12426769 0.13082176
14 0.036319524 0.02827031 0.27141383 0.027047263 -0.069326065 -0.16385849 -0.015126285 0.07442379 -0.119234234 -0.029960288 0.29685345 -0.02776268 0.047899242 -0.019360268 -0.0125512965 0.035396308 -0.085274875 0.031882416 0.0075251404 0.15089336 0.10149695 -0.07700554 0.31976464 0.18320765 0.0021772075 0.20489693 -0.22664264 -0.16577882 -0.13029166 -0.10605924 -0.12358537 0.16977751 -0.30762345 -0.1995015 0.11608107 0.04486269 0.18117231 0.1738296 0.21039157 0.016737716 0.22989534 0.23865499 -0.03829067 -0.37754637 0.01179354 -0.23339236 -0.0846519 0.0007197496 0.11429987 0.07146387 0.21114713 -0.020372795 0.058052327 0.15763088 0.31563568 0.376701 0.3365885 -0.16340367 -0.0026570891 -0.028391005 0.13385724 -0.10793075 -0.0073843454 0.121288806
23 0.09512588 -0.12306518 0.3320136 0.1561813 0.06996955 -0.2192887 0.08526161 0.16709617 -0.10203073 -0.030546725 0.3033401 -0.06218609 0.18565704 -0.070962764 -0.035804663 0.09579259 -0.1067727 0.077175885 0.0057017882 0.19103917 0.21456368 0.18480885 0.29666469 0.012274462 0.0035149306 0.25736824 -0.22314598 -0.011203989 -0.08973867 -0.03245628 -0.040940877 0.1250226 -0.3037215 -0.28441197 0.0460805 0.09968821 0.18554004 0.1394608 0.3968188 -0.025787676 0.15386677 0.18788746 0.017870728 -0.30547825 0.0014784688 -0.14502081 -0.052670013 -0.107615076 0.07595164 0.052072797 0.23871592 -0.024214093 0.0055764574 0.15081626 0.24616717 0.21262883 0.2397699 -0.23782307 -0.0837168 -0.110569276 0.1450139 -0.1585472 -0.11386388 0.16125247
10 0.08670242 -0.14331143 0.32507026 0.16891488 0.100056194 -0.20037578 0.115760885 0.20723 -0.13040087 0.013896704 0.31460673 -0.060294002 0.19387889 -0.0621272 -0.026679277 0.08858896 -0.08264364 0.099051766 0.030198582 0.18822858 0.21845362 0.21755 0.25778145 -0.025572509 -0.0047737528 0.23738924 -0.22372909 0.0149982115 -0.07652422 -0.006337094 -0.0060206815 0.12301877 -0.3096691 -0.29879436 0.050532732 0.086528994 0.176113 0.1434875 0.40305206 -0.028184328 0.14958175 0.1700276 0.033469353 -0.27396524 0.002467789 -0.12655203 -0.048453197 -0.093748674 0.061266627 0.07233574 0.24017188 -0.049212806 0.0031586578 0.13461103 0.23697639 0.17734073 0.21081461 -0.23722786 -0.08494711 -0.09824902 0.17170528 -0.16910538 -0.14323194 0.14125639
