15 64
12 -0.044811565 -0.11344674 0.24540703 0.09685897 -0.078652196 -0.22066963 0.021797586 0.08577556 -0.09776033 -0.16874298 0.19902207 0.0059938026 -0.0756687 0.013771847 -0.14722328 -0.084690414 -0.05296096 0.049832836 -0.044597194 0.032201115 0.15571122 0.053695474 0.24554014 -0.07596964 0.05047415 0.21447967 -0.14793238 0.06452868 -0.10266096 -0.15838164 -0.04940251 -0.055675004 -0.15299213 -0.13551536 0.062760845 0.10607469 0.14750847 0.073400244 0.20643507 -0.016866943 0.043462846 0.10842301 -0.12809221 -0.14727738 0.1175985 -0.080072336 0.01671153 -0.048855312 0.011145878 -0.0060146973 -0.014373414 0.086310275 -0.06288935 0.23582596 0.21946031 -0.060825817 0.06301674 -0.15524644 -0.055333152 0.060695086 0.069872536 -0.16326255 -0.07521081 0.0063885343
2 -0.04260239 -0.10520901 0.22382754 0.088731304 -0.06594582 -0.19545157 0.017840767 0.08143199 -0.08994295 -0.168058 0.18468426 0.008595744 -0.05100591 0.0003997099 -0.1349343 -0.091739304 -0.05675826 0.0511198 -0.023192806 0.0545813 0.1276119 0.047694523 0.2322531 -0.07929682 0.035356607 0.22015984 -0.13505816 0.052857175 -0.08137447 -0.14234297 -0.021605324 -0.045003645 -0.1719197 -0.131077 0.06517301 0.1120077 0.110534176 0.08205585 0.20454785 -0.00051385915 0.064472154 0.08563793 -0.10763305 -0.121286295 0.1055534 -0.085514255 0.025043126 -0.07400956 -0.004859838 -0.008333873 0.0072463406 0.08550489 -0.042699397 0.23441862 0.18672627 -0.053638976 0.05279885 -0.14474882 -0.03388075 0.030076098 0.07801041 -0.15005733 -0.07289024 0.024330704
3 -0.043488182 -0.09163046 0.2337311 0.06730854 -0.058851637 -0.20102027 0.01699164 0.06867512 -0.07007197 -0.13948232 0.18643665 0.022988528 -0.05159813 -0.007140062 -0.14309745 -0.07527816 -0.05800889 0.055655356 -0.019573182 0.040046774 0.13483973 0.04330725 0.22725777 -0.08649946 0.035528343 0.20524327 -0.13714166 0.06443761 -0.069231115 -0.12954569 -0.03621073 -0.035849363 -0.16706324 -0.105773844 0.053668346 0.09110071 0.13219474 0.08494398 0.1990147 -0.015967889 0.06708704 0.102795996 -0.11030802 -0.14365101 0.11578519 -0.06119888 0.026344197 -0.068455316 -0.0082444 -0.0232325 0.0044020987 0.06699379 -0.06723954 0.21933721 0.19826463 -0.057308294 0.05626463 -0.13515122 -0.046817776 0.026522228 0.07125051 -0.15874842 -0.060183853 0.014164974
11 -0.028657323 -0.09968354 0.17551534 0.069022164 -0.040863343 -0.16239044 -0.0077870768 0.061934114 -0.06907491 -0.11823054 0.13061324 0.0032266667 -0.037107352 0.012460855 -0.1098018 -0.057858415 -0.057032295 0.04675752 -0.03271108 0.030512553 0.12305778 0.038134836 0.18879755 -0.066555925 0.039692286 0.18311492 -0.12286776 0.0340781 -0.08079644 -0.12077711 -0.034516495 -0.0560206 -0.11401547 -0.10353938 0.06409781 0.08930782 0.08810055 0.06676001 0.16585761 -0.018919684 0.029586237 0.07128113 -0.09968081 -0.10595435 0.08710625 -0.055565175 0.023333544 -0.04928194 -0.005753191 -0.013231876 0.00027417828 0.069635384 -0.036588952 0.18518929 0.15489516 -0.04640513 0.0319928 -0.11086778 -0.035663754 0.032321848 0.04192792 -0.1350652 -0.06651791 0.0042052045
4 -0.039880943 -0.097093835 0.18717587 0.056909677 -0.04339801 -0.17793965 0.0224591 0.058750328 -0.081231505 -0.118595205 0.16606015 0.016912434 -0.06940995 0.012763877 -0.11201648 -0.059568767 -0.041470904 0.041312143 -0.029719675 0.05119493 0.13431439 0.040460628 0.1890606 -0.0661709 0.031459223 0.1659687 -0.13710931 0.046205822 -0.07148771 -0.13483155 -0.039357945 -0.05158804 -0.1264049 -0.09512886 0.048061736 0.09701101 0.1321216 0.06474674 0.17955302 0.0036824567 0.062336694 0.08337223 -0.08043192 -0.12940773 0.084510475 -0.047605075 0.027336385 -0.056405645 0.007733105 -0.02458984 -0.0014428955 0.07628443 -0.03923505 0.17908885 0.18798584 -0.033197332 0.059074137 -0.12791117 -0.029008027 0.031886756 0.07587041 -0.1462481 -0.0668042 0.026130503
1 -0.018136617 -0.058770377 0.12834959 0.055556558 -0.04671005 -0.0961633 0.01465055 0.041158196 -0.04016824 -0.07740011 0.09115027 -0.003057253 -0.043723594 -0.0011791893 -0.061111648 -0.026097877 -0.0129373865 0.01374638 -0.031201445 0.036478512 0.07479137 0.030763317 0.122428134 -0.040597927 0.030954257 0.11003516 -0.065483734 0.022715027 -0.049737073 -0.07675102 -0.0118637225 -0.026488692 -0.09421639 -0.0747094 0.022480834 0.05174373 0.06711912 0.05310773 0.10791204 -0.011413307 0.02674669 0.055447105 -0.043428455 -0.06783533 0.06226813 -0.047791734 0.0123058995 -0.01691496 -0.0020865619 -0.024473522 0.008295786 0.03167999 -0.028641174 0.12799314 0.09453816 -0.033839952 0.018411614 -0.059145316 -0.03320214 0.026472062 0.026561532 -0.06833163 -0.026072355 0.012497254
10 -0.032705378 -0.08618112 0.18241334 0.06733348 -0.04935977 -0.16226728 -0.0056696087 0.04858406 -0.06450632 -0.11947371 0.14748083 0.003490467 -0.037631266 -0.011121883 -0.102790646 -0.06794736 -0.052053407 0.036195237 -0.033947483 0.028730214 0.106259815 0.0426008 0.16704755 -0.04942885 0.021315876 0.16900246 -0.11210801 0.046208475 -0.07783389 -0.10346271 -0.033942718 -0.04589494 -0.12497821 -0.0787711 0.056358192 0.068626404 0.094110094 0.0437389 0.15904486 0.0076176077 0.03536288 0.071399145 -0.08010879 -0.08823977 0.07010849 -0.057126284 0.031021 -0.041820962 0.004138563 -0.030362038 0.014045409 0.044603188 -0.045094453 0.17255142 0.14168048 -0.037248507 0.040486854 -0.11296606 -0.05141442 0.04804568 0.06064111 -0.12524034 -0.042040706 0.014072377
6 -0.020174548 -0.08964274 0.16398107 0.064040035 -0.028475361 -0.1454245 0.002214713 0.036961086 -0.07545442 -0.12134004 0.12215052 -0.0069485116 -0.034797195 -0.009405101 -0.08767014 -0.053996217 -0.043499433 0.031221181 -0.008173211 0.04407803 0.08788648 0.04760219 0.14593962 -0.03928259 0.022619797 0.15406229 -0.09103826 0.0470089 -0.06582012 -0.08564643 -0.013748639 -0.05351733 -0.12333258 -0.09607174 0.04915128 0.06641516 0.07428419 0.039402045 0.15210839 -0.0040834653 0.019926123 0.05762019 -0.07115862 -0.09629443 0.08546818 -0.060799126 0.02240787 -0.053966332 0.012261042 -0.007863775 0.003972999 0.055443995 -0.05129888 0.16037174 0.13055903 -0.05253747 0.018140834 -0.09829849 -0.027075239 0.039094515 0.036252413 -0.117134355 -0.053118587 0.008984702
5 -0.03647008 -0.08402095 0.13773718 0.037262335 -0.048335355 -0.13414808 0.0011200844 0.04100565 -0.06768548 -0.09743607 0.12447495 0.016088683 -0.05011718 -0.0051084114 -0.07838782 -0.06399395 -0.032420024 0.03991283 -0.011256003 0.014058766 0.0793547 0.016051378 0.14003128 -0.0308475 0.033591952 0.14092149 -0.07906596 0.027870193 -0.03996476 -0.10147834 -0.03446885 -0.037323333 -0.101312906 -0.079736434 0.03915905 0.07634581 0.07718228 0.045434993 0.12878963 -0.019350829 0.044588048 0.07307422 -0.08348629 -0.07822271 0.085369356 -0.05945786 0.0055100466 -0.050075337 0.014981771 -0.014460556 0.015387207 0.03385641 -0.027894706 0.14523369 0.12219995 -0.030123195 0.019319186 -0.10065953 -0.02639631 0.037599735 0.054691844 -0.08832143 -0.04176017 0.023866517
13 -0.043379687 -0.066869274 0.15509325 0.05517662 -0.02823053 -0.14472705 0.015789395 0.028436085 -0.057202738 -0.118342035 0.11297494 0.020206075 -0.050284263 0.0076679434 -0.07804739 -0.039751083 -0.049988087 0.024504988 -0.0049994867 0.03752591 0.09069164 0.013551623 0.15610108 -0.060959686 0.03603852 0.13402097 -0.09918645 0.0371158 -0.05877166 -0.09804134 -0.015623731 -0.032118328 -0.11456933 -0.07755181 0.052349966 0.071718074 0.09129348 0.07020659 0.12333941 -0.004351574 0.056617085 0.07480382 -0.07085315 -0.106010094 0.07792177 -0.05358041 0.036317308 -0.03987689 0.0034924764 -0.011425797 -0.0067338124 0.04343576 -0.03736131 0.14655985 0.145649 -0.017326945 0.040368214 -0.08861011 -0.04290559 0.03200112 0.03873069 -0.12096327 -0.051365484 -0.0001244261
8 -0.026304802 -0.101318255 0.21096912 0.05260901 -0.045878846 -0.15834524 -0.002801229 0.041507743 -0.0781089 -0.1386268 0.15521097 -0.005539221 -0.07272186 0.008387455 -0.13140227 -0.08287484 -0.05199195 0.02543263 -0.036534216 0.024788385 0.11960195 0.027950745 0.20531735 -0.06335182 0.025248311 0.19080865 -0.13437486 0.038880557 -0.08584858 -0.13457003 -0.03516175 -0.03147398 -0.14443399 -0.0893436 0.06622682 0.07812386 0.12488186 0.08071317 0.16436547 0.005274174 0.06310751 0.073077925 -0.10510784 -0.11459052 0.09530219 -0.07315933 0.04202839 -0.06159375 -0.008989345 -0.018886527 -0.008960641 0.06658977 -0.05357028 0.19203404 0.17298135 -0.03945003 0.0653616 -0.12887298 -0.04516383 0.045359813 0.07577738 -0.14505738 -0.041219525 0.02931632
14 -0.03374149 -0.06593001 0.14940871 0.040453985 -0.046326865 -0.13475232 0.0052771205 0.04081286 -0.04426207 -0.101464756 0.11177372 0.008771104 -0.03496945 0.0016190984 -0.09489103 -0.06438414 -0.034027006 0.037923705 -0.015932903 0.013512351 0.07302776 0.035903607 0.13337824 -0.036410604 0.010840034 0.14366694 -0.09866258 0.038729046 -0.055138323 -0.10161728 -0.0280263 -0.03164002 -0.11003671 -0.0716904 0.027955288 0.068202175 0.098231554 0.046341874 0.11992455 0.0019405826 0.050560225 0.050472382 -0.07809947 -0.08854422 0.08512512 -0.045368016 0.0057725846 -0.040303186 0.016167892 -0.025062967 -0.011588809 0.060946055 -0.048938125 0.14503513 0.12509532 -0.019609166 0.0499903 -0.09024448 -0.03722862 0.040784176 0.048236825 -0.08847155 -0.053336076 0.026506515
0 -0.033706594 -0.08806458 0.17358534 0.05470683 -0.037008114 -0.15151298 0.0019301047 0.05325741 -0.048711713 -0.122961506 0.13749467 -0.0056038895 -0.059715502 0.0020216596 -0.11500165 -0.055163536 -0.038692735 0.030395312 -0.013401232 0.04756118 0.11483118 0.027957465 0.16977264 -0.062032387 0.013282033 0.16506454 -0.10852742 0.038844295 -0.06593587 -0.11531351 -0.020626409 -0.042214997 -0.13490598 -0.07045395 0.053389065 0.0910839 0.10906435 0.06443135 0.16008177 -0.011610658 0.03427951 0.077162296 -0.075472824 -0.109388314 0.098713584 -0.060509454 0.03660874 -0.04533733 -0.00867509 -0.017832125 -0.0147449095 0.05223127 -0.039388902 0.17986514 0.16221745 -0.04651425 0.049105644 -0.09926042 -0.03908757 0.01650422 0.055262785 -0.12978931 -0.037809998 0.0051224073
7 -0.014690778 -0.047504902 0.13029759 0.051074296 -0.036893364 -0.10286928 0.010819824 0.02420962 -0.053152516 -0.08346124 0.102419786 0.0022046843 -0.0391601 -0.0012505938 -0.07617666 -0.03919405 -0.038927723 0.02017368 -0.017553112 0.026140079 0.07883258 0.01707813 0.1354307 -0.04558207 0.02442412 0.12239499 -0.07176593 0.01934123 -0.06052231 -0.09031814 -0.0062332354 -0.031937003 -0.107211925 -0.06760363 0.030614508 0.068664216 0.058913935 0.049899254 0.09869952 -0.002101762 0.041783348 0.065941535 -0.07459748 -0.08578338 0.05344165 -0.055770267 0.0021294921 -0.039550904 -0.0001527367 -0.023139691 0.010054763 0.04505236 -0.021905717 0.1307593 0.11387287 -0.04074778 0.027534569 -0.0727133 -0.035039727 0.02668198 0.044964794 -0.09315367 -0.021108748 0.023928627
9 -0.027177952 -0.07081239 0.17989618 0.049341187 -0.053353842 -0.16066365 -0.0057537593 0.06359731 -0.06746707 -0.12669645 0.12802564 0.014089178 -0.052800726 -0.004548287 -0.097931944 -0.06376506 -0.044620875 0.03659786 -0.027559524 0.046382293 0.109474875 0.01697552 0.17791863 -0.065597005 0.029529328 0.16532679 -0.11341159 0.036460232 -0.05221336 -0.115037166 -0.03977601 -0.024257518 -0.12388737 -0.095011435 0.061934803 0.08390773 0.10299089 0.07335951 0.13498005 0.0020131113 0.04504583 0.078390114 -0.079528555 -0.092772566 0.09095586 -0.046916235 0.016365748 -0.05392559 0.0012563841 -0.011684116 -0.005088511 0.06533436 -0.034369145 0.18009278 0.15100542 -0.025885804 0.037474096 -0.09125381 -0.03006127 0.020381115 0.04623619 -0.12196194 -0.04052712 0.012295049
