18 64
2 -0.03143396 0.0485069 0.44754174 0.1091516 -0.12043338 -0.27501172 -0.10077612 0.04468938 -0.05124772 -0.16648382 0.35827345 0.079082504 0.033711948 0.006997891 -0.24696937 -0.1469193 -0.15415679 0.04605063 -0.13781026 0.040043194 0.1813982 -0.047397632 0.39443058 -0.07125507 0.060282346 0.25442466 -0.28229204 0.028216973 -0.22909567 -0.22921659 -0.18627729 -0.07887103 -0.18826468 -0.24867386 0.2219365 0.053596325 -0.063156806 0.034117013 0.2181734 0.07824545 0.06827094 0.20615333 -0.35505295 -0.39295703 0.04170463 -0.13064153 -0.10026352 0.011320148 -0.014183463 0.0076490743 0.04004623 0.20468923 -0.027223239 0.17770877 0.3146097 0.034623954 0.11531197 -0.19297847 0.050676875 0.13883564 -0.018747903 -0.18408692 -0.07837112 0.009165642
1 -0.028340155 0.058400128 0.39338332 0.09639198 -0.09967555 -0.23313908 -0.08254704 0.043678407 -0.040458735 -0.16173542 0.31899205 0.07722421 0.04944917 -0.009788961 -0.21821643 -0.1396553 -0.14467542 0.04403679 -0.095401235 0.06912828 0.1441028 -0.049085166 0.35719952 -0.08236237 0.039141603 0.24032182 -0.24271373 0.02145522 -0.18148258 -0.19360511 -0.13230719 -0.05262829 -0.20479907 -0.22108527 0.20065427 0.06289091 -0.08111722 0.050282583 0.2000623 0.08736164 0.09053104 0.17311375 -0.29790926 -0.33617097 0.031004563 -0.124486625 -0.080077805 -0.02226247 -0.0336072 0.007674708 0.05361113 0.18663004 -0.0065216175 0.17444251 0.26650932 0.030483248 0.10028506 -0.16565527 0.06328589 0.08196926 -0.0008981553 -0.16539523 -0.064721584 0.022888532
4 -0.025739726 0.06089275 0.36962396 0.07237326 -0.08846617 -0.22104354 -0.07390036 0.033213384 -0.023229286 -0.12283589 0.29423645 0.083169505 0.046482466 -0.018736428 -0.2058532 -0.1133718 -0.13175564 0.048280813 -0.08338638 0.049657565 0.13849193 -0.042883433 0.32360408 -0.08171762 0.039561905 0.21065377 -0.21994087 0.032694347 -0.15214172 -0.16349404 -0.13294086 -0.04125726 -0.18476014 -0.1850047 0.16912454 0.03945858 -0.05455489 0.04849638 0.18308055 0.06058837 0.082577676 0.17416142 -0.27413344 -0.32358742 0.041527532 -0.09256893 -0.07525188 -0.018448103 -0.032295194 -0.006650446 0.05061878 0.15236227 -0.030884355 0.15243234 0.251479 0.017550893 0.088129714 -0.14449167 0.045393933 0.071424894 -0.0069076847 -0.15757841 -0.049788065 0.012091324
9 -0.019999098 0.0180643 0.30606234 0.07052562 -0.06501505 -0.19205625 -0.097239114 0.026295852 -0.031637404 -0.10683341 0.2350526 0.055932235 0.038728554 0.010180263 -0.17508431 -0.09816818 -0.12741229 0.041093644 -0.09963112 0.03119318 0.13669741 -0.039316922 0.2824509 -0.058740936 0.044137355 0.20078881 -0.21577865 0.0037034398 -0.16949907 -0.16810998 -0.13250773 -0.07166951 -0.12852934 -0.17389712 0.17609824 0.049586672 -0.063264705 0.035216566 0.16358012 0.04921742 0.045083884 0.13768736 -0.25800148 -0.2758611 0.027880438 -0.08758846 -0.058159843 -0.0011486979 -0.022695549 -0.0039071525 0.03717855 0.15049244 -0.0066196267 0.1299758 0.21598293 0.027962564 0.07045587 -0.13147873 0.039379258 0.09004794 -0.023089543 -0.1447205 -0.06625351 0.0067996546
3 -0.028925613 0.033527445 0.34037122 0.07129392 -0.07548319 -0.21931763 -0.07673654 0.026105525 -0.045978136 -0.113855906 0.2881573 0.076125234 0.022420058 0.006204235 -0.18320355 -0.10474502 -0.12352312 0.0383151 -0.10511627 0.058895458 0.15325771 -0.04058392 0.30239928 -0.060353916 0.04289494 0.19292556 -0.23953368 0.015204323 -0.17317487 -0.1860433 -0.14722414 -0.07369064 -0.14752948 -0.18753804 0.17718592 0.05470854 -0.04707207 0.028651306 0.18580517 0.078389235 0.074194394 0.16127053 -0.2587976 -0.31993034 0.017210526 -0.08772518 -0.06790389 -0.0042151837 -0.011024311 -0.011346711 0.047033984 0.16837458 -0.0045759412 0.12765618 0.2568192 0.042941794 0.09283361 -0.15377602 0.05641916 0.09571622 -0.0011992857 -0.16011117 -0.070274174 0.024225341
12 -0.021701906 0.031507257 0.36739394 0.08841446 -0.10063577 -0.20722587 -0.079082385 0.028970432 -0.033799183 -0.12953566 0.27780592 0.0577843 0.018617734 -0.008347297 -0.18610193 -0.10440895 -0.110944115 0.026612937 -0.11242683 0.05707428 0.13806148 -0.035141513 0.31508684 -0.05960545 0.050435826 0.2153289 -0.21806481 0.012699831 -0.17672925 -0.18220341 -0.13152622 -0.060896087 -0.1814497 -0.20487787 0.1683528 0.04575085 -0.053864542 0.0499352 0.18331416 0.060267895 0.067908525 0.16567087 -0.26167315 -0.30836937 0.046084426 -0.115603074 -0.07231227 0.006434246 -0.018767137 -0.021246955 0.051142354 0.15104048 -0.021956524 0.15954167 0.23596479 0.023643859 0.07718564 -0.13531038 0.034327812 0.105053805 -0.019570887 -0.13662198 -0.04975395 0.024732482
15 -0.027441178 0.035289343 0.35881847 0.08410405 -0.08395294 -0.22469954 -0.09934778 0.023249416 -0.035755053 -0.1302964 0.28779626 0.065533295 0.041427553 -0.0132843135 -0.19114001 -0.11923238 -0.13900223 0.03680892 -0.11040897 0.042428844 0.14296693 -0.03693522 0.30510396 -0.057299633 0.03421699 0.21386652 -0.23300213 0.022544527 -0.18531483 -0.17170201 -0.14552416 -0.068015225 -0.16236193 -0.17701563 0.19045532 0.037911415 -0.05879372 0.021186857 0.18298063 0.08288731 0.058802374 0.1597946 -0.2668663 -0.2962533 0.016403705 -0.099069804 -0.05589074 0.0020955536 -0.016728006 -0.017507868 0.054289766 0.14644866 -0.01830064 0.14272003 0.23823874 0.03660967 0.088277735 -0.15264168 0.028784126 0.110785514 -0.0050289314 -0.16057448 -0.05184091 0.013119641
0 -0.018808244 0.026267458 0.40560266 0.09187757 -0.082501136 -0.24457286 -0.10074933 0.015993569 -0.057043232 -0.16142333 0.3129129 0.05857201 0.04082448 -0.012974656 -0.21574023 -0.13260807 -0.14538698 0.03893538 -0.09666908 0.058715943 0.14320365 -0.031862333 0.33740368 -0.0520453 0.039365012 0.24440832 -0.24510165 0.029903317 -0.20066155 -0.18970911 -0.14414467 -0.08594362 -0.20063403 -0.22826575 0.20273896 0.047014385 -0.0734033 0.024654854 0.21084628 0.07679324 0.05948669 0.17087035 -0.30728313 -0.35458973 0.054461353 -0.12816565 -0.07757801 -0.018500714 -0.0063898284 0.0017482222 0.046335045 0.1826302 -0.03944894 0.16716886 0.2700656 0.017315326 0.08258742 -0.16965328 0.055020135 0.12362006 -0.02208771 -0.17422266 -0.072395965 0.019743605
13 -0.03635471 0.017863967 0.3567308 0.063019104 -0.09723877 -0.22525679 -0.09471661 0.019958641 -0.052457944 -0.13407433 0.29693913 0.07509231 0.018061161 -0.0092290165 -0.19310156 -0.13652022 -0.12519518 0.04679995 -0.09295722 0.026033618 0.12863421 -0.054889657 0.3113683 -0.03884744 0.048977822 0.22426915 -0.22025073 0.011871282 -0.1645541 -0.196104 -0.15400219 -0.06935362 -0.1703644 -0.20007946 0.17999844 0.058664426 -0.057998456 0.03019234 0.18375155 0.054488473 0.07880796 0.17460567 -0.29784924 -0.3113163 0.057089213 -0.1224107 -0.08470179 -0.016245605 0.00039317366 -0.0075495993 0.055770867 0.14893171 -0.016611114 0.150743 0.24691775 0.034701444 0.07663948 -0.16607417 0.04664643 0.11909126 0.00059320504 -0.1395021 -0.060786698 0.03486532
8 -0.038915858 0.044308577 0.32124186 0.077115744 -0.06298057 -0.20630652 -0.07385533 0.0077616824 -0.03246813 -0.13069108 0.24647582 0.0774785 0.026785834 0.0036606118 -0.15842831 -0.08768718 -0.1318133 0.026165454 -0.07838554 0.05281303 0.12647855 -0.05826055 0.28617853 -0.066407226 0.05087828 0.17819822 -0.21137924 0.015132082 -0.1618472 -0.16070375 -0.120868325 -0.057377215 -0.14870583 -0.17483501 0.18098389 0.043740746 -0.05900008 0.045682035 0.15102066 0.0646891 0.07226827 0.15873653 -0.24556026 -0.2993902 0.026041249 -0.09591532 -0.04658511 0.0039663017 -0.015108467 0.0014161097 0.035507664 0.13781756 -0.009570146 0.12109039 0.23414494 0.04963387 0.079571694 -0.1268274 0.032905355 0.0928335 -0.02634775 -0.15330565 -0.06242984 -0.0040627625
10 -0.011866484 0.020796664 0.36527562 0.062306155 -0.07982568 -0.19631317 -0.10167117 0.006157738 -0.046104655 -0.13451764 0.27574828 0.04674844 0.015219332 0.00053371664 -0.20577681 -0.13373868 -0.12833959 0.022620536 -0.109899424 0.02386624 0.13219737 -0.0466821 0.31382266 -0.04919994 0.03379129 0.22140275 -0.231805 0.010186676 -0.18526971 -0.18565893 -0.14257517 -0.053644348 -0.16831101 -0.1818613 0.18719424 0.03240046 -0.04684123 0.04161319 0.17114697 0.075918026 0.074523374 0.14539054 -0.28547642 -0.30110154 0.03815947 -0.11630393 -0.05589292 -0.014146996 -0.022670595 -0.0067710048 0.036331493 0.15706636 -0.029292837 0.14321406 0.23783384 0.030290239 0.09799933 -0.15825903 0.038632628 0.11509497 0.0024274096 -0.15294014 -0.043825425 0.033961892
16 -0.02971098 0.03483742 0.33372432 0.063415386 -0.08867616 -0.20649962 -0.08229087 0.023028975 -0.026063897 -0.1253436 0.2573043 0.063263446 0.036418308 -0.0046841647 -0.18861388 -0.12353796 -0.116235614 0.04408842 -0.087973274 0.025652392 0.11107947 -0.030022452 0.27811518 -0.042981938 0.025617376 0.20803238 -0.21549334 0.021212496 -0.16045937 -0.17549393 -0.1329231 -0.057640675 -0.1630588 -0.1780873 0.1530581 0.04680727 -0.038983498 0.028498432 0.15993057 0.06738192 0.07514391 0.13826457 -0.26440036 -0.2888858 0.050455745 -0.096762545 -0.07978188 -0.0073550777 6.800984e-05 -0.01588276 0.029757727 0.16002786 -0.032548558 0.13998458 0.22375168 0.038699843 0.09254256 -0.13966171 0.03412329 0.10655239 -0.007565874 -0.12563866 -0.066849 0.032007273
17 -0.023335254 0.02925403 0.30296543 0.06560724 -0.06539987 -0.18350226 -0.07710634 0.027213914 -0.0154298665 -0.118318066 0.2407082 0.04524843 0.018086681 -0.005867813 -0.17632405 -0.09213819 -0.10586324 0.027238106 -0.07346686 0.05642313 0.12854624 -0.041615885 0.26540038 -0.060742315 0.020538135 0.18484375 -0.19042322 0.014490322 -0.14669122 -0.15550143 -0.107422836 -0.05461872 -0.15725213 -0.14584474 0.15779701 0.05475358 -0.04040755 0.036372427 0.16142929 0.051640756 0.04711847 0.1443846 -0.22342563 -0.2700938 0.04296042 -0.09291135 -0.045457583 -0.0030851779 -0.027017258 -0.0057131657 0.024718449 0.12900038 -0.011527896 0.13699208 0.22005421 0.015269582 0.07921725 -0.11738997 0.033345602 0.063870065 -0.00818931 -0.13967748 -0.036011666 0.0036694352
6 -0.014449099 0.05900153 0.33160615 0.0799259 -0.08330239 -0.18744126 -0.072680235 0.010426891 -0.0355794 -0.11716017 0.26199892 0.062239304 0.029483847 -0.007424279 -0.17915663 -0.100676395 -0.1269899 0.02697671 -0.090613276 0.045312807 0.12774774 -0.051411845 0.29808378 -0.0633233 0.04096875 0.19393282 -0.1994413 0.0060171657 -0.17064549 -0.17192282 -0.11275773 -0.054966316 -0.17138682 -0.17795588 0.16189179 0.052255973 -0.07156287 0.040304795 0.14661455 0.06795538 0.0749667 0.1639246 -0.2664929 -0.30048662 0.018959878 -0.10932761 -0.08146145 -0.007860444 -0.020506533 -0.014315819 0.050299194 0.1498332 -0.005679597 0.13623096 0.22974476 0.018425995 0.07934373 -0.12807947 0.033880584 0.08904597 -0.006424514 -0.14342906 -0.034908887 0.026980385
7 -0.021175768 0.06487595 0.38743293 0.076008625 -0.09874848 -0.23844233 -0.100059316 0.042886548 -0.039769463 -0.15117103 0.29324278 0.08243475 0.033157084 -0.012975635 -0.2024507 -0.124557845 -0.14113107 0.03991654 -0.1054332 0.069211535 0.15492578 -0.06550582 0.34354493 -0.083096415 0.04396371 0.22522847 -0.24543 0.017273782 -0.16749074 -0.19205083 -0.15531002 -0.04389294 -0.18284345 -0.20848353 0.20647594 0.056311004 -0.059211295 0.056241535 0.17112829 0.084806494 0.077922665 0.18149205 -0.28436607 -0.32553145 0.03742007 -0.09847981 -0.0809409 -0.014599302 -0.02509711 0.0015278558 0.041216753 0.17879653 -0.00851413 0.16581124 0.26640183 0.044342574 0.091388695 -0.14012574 0.05509381 0.08014498 -0.017904678 -0.16853699 -0.048173647 0.011935053
5 -0.028692478 0.05223943 0.33289146 0.06751908 -0.08409011 -0.20220685 -0.08775935 0.00798217 -0.028522972 -0.12334908 0.25658447 0.072389886 0.024606677 -0.018177507 -0.16781488 -0.1120669 -0.11299057 0.02627706 -0.07884014 0.046094723 0.13131227 -0.047394462 0.27567968 -0.042999532 0.039652117 0.17510208 -0.2177973 0.01623688 -0.1462585 -0.15186879 -0.1422463 -0.042479135 -0.13902925 -0.159775 0.18230897 0.030208113 -0.07145964 0.040280495 0.17207427 0.07080485 0.07193178 0.14442688 -0.23178345 -0.2970985 0.013037328 -0.101819426 -0.06972304 0.007131422 -0.022022674 -0.017661348 0.05278688 0.13738006 0.002475218 0.11765075 0.22717588 0.04227554 0.08223574 -0.13482702 0.04678637 0.074162185 -0.018041985 -0.14058372 -0.040949058 0.0062550963
14 -0.03450709 0.044639 0.3204843 0.06630775 -0.06583951 -0.18980235 -0.087157875 0.026391454 -0.01643829 -0.10639864 0.2657211 0.06886455 0.034235634 -0.0039101 -0.184564 -0.10384925 -0.12008716 0.0314861 -0.10213069 0.05575946 0.11781494 -0.053900745 0.27822775 -0.058298547 0.025348378 0.1887006 -0.21610034 0.012306037 -0.17188716 -0.16038153 -0.12386526 -0.057459313 -0.15471812 -0.17620367 0.18008696 0.048784982 -0.070709184 0.025566138 0.16401578 0.06774413 0.043743685 0.1548153 -0.26217753 -0.29610357 0.032394394 -0.09895527 -0.057314686 0.014173154 -0.022979684 0.012310463 0.040381476 0.16110042 -0.0024645848 0.1134331 0.218599 0.043106623 0.089339405 -0.11940661 0.053370073 0.10131209 -0.028792804 -0.13132136 -0.061435573 0.016369548
11 -0.014527959 0.042335838 0.3235248 0.07187213 -0.07541227 -0.18111041 -0.08754385 0.022483276 -0.0160057 -0.12251742 0.25395823 0.047714904 0.04422489 0.01066288 -0.16658755 -0.091970876 -0.112178765 0.021253012 -0.09183207 0.05304638 0.11650415 -0.047178265 0.28092167 -0.049141422 0.033859864 0.17802328 -0.19265205 0.004883469 -0.16116178 -0.16810021 -0.13116358 -0.06986996 -0.14957018 -0.1819007 0.1661944 0.02820907 -0.07126554 0.0175351 0.14622001 0.072476976 0.062879145 0.14401254 -0.24581501 -0.2883266 0.027350144 -0.090925895 -0.060340393 0.001601083 -0.015065648 -0.0035736132 0.026175115 0.13200726 -0.02409456 0.12136093 0.21920593 0.043328714 0.07409601 -0.13234118 0.05548974 0.08802746 -0.017502753 -0.12079315 -0.04835831 0.0036427178
