59 64
39 0.18872967 -0.115476 0.2382428 0.04766445 -0.025789136 -0.35199374 0.08001271 0.1692152 -0.15587236 0.047893215 0.22957015 -0.1003353 0.085172854 -0.0015018634 0.14016071 0.08349518 0.003521345 -0.033574842 -0.14321002 0.11280861 0.13038377 0.19711201 0.2605651 0.042029828 0.14324799 0.21921536 -0.06498758 0.045571603 0.012384959 -0.07565299 -0.2104126 0.04913522 -0.10961473 -0.19897449 0.07670171 -0.03227234 -0.00538831 -0.058877043 0.22675954 0.011504835 -0.21048899 0.059936058 -0.17146742 -0.18605685 -0.010707434 0.03565672 -0.007945661 -0.013546591 0.04259293 0.19574569 -0.124329746 0.03517787 0.11677805 0.24601802 0.267369 0.18180318 -0.025384381 -0.21175028 -0.14138855 0.19631541 0.014616889 -0.19588988 0.009844844 0.04363034
41 -0.07088453 -0.337662 0.3431808 0.0655605 -0.08146704 -0.5317446 -0.037909858 0.29644403 -0.36965382 0.018317508 0.5636183 0.13731499 0.26099333 -0.13078697 0.02991307 -0.30036265 -0.13171278 0.31789497 -0.16042325 0.03746891 0.12694834 0.33572185 0.21536987 -0.0017223683 0.30042517 0.4592259 -0.18996377 0.1601445 -0.10972686 -0.07718357 -0.08642664 -0.2721019 -0.1103641 -0.31756935 0.088277675 0.1528966 0.054208238 -0.23014282 0.52020484 -0.10668078 -0.1946594 0.11420393 -0.25779203 -0.16919288 -0.08577372 -0.005021435 -0.05442397 -0.18222341 0.1156364 -0.19168608 0.22336902 0.22136693 -0.04281133 0.38484886 0.22282249 -0.10696607 -0.16193011 -0.42633566 -0.10085447 0.4013878 0.055834524 -0.28205517 -0.4218326 0.14880235
44 -0.045830484 -0.30562937 0.46954653 0.0075782617 -0.006933256 -0.47566468 -0.07529194 0.209048 -0.34123868 -0.04898988 0.6190265 0.1914327 0.2270194 -0.12549435 -0.035023544 -0.2653068 -0.21050403 0.31835538 -0.17598788 0.10295089 0.22426239 0.21553427 0.21015964 -0.06402801 0.21653119 0.47903886 -0.25409237 0.11418894 -0.16382217 -0.09538684 -0.04610834 -0.29297638 -0.033160284 -0.34469095 0.12709603 0.09698704 0.067888014 -0.17404401 0.48276624 -0.1602583 -0.15222697 0.19922736 -0.31846237 -0.2078791 -0.07412587 -0.040622406 0.013299548 -0.22619197 0.06530068 -0.22333269 0.26778138 0.21689601 -0.07667719 0.3521388 0.22052486 -0.123817585 -0.10122782 -0.3543122 -0.12846597 0.35477853 0.03894751 -0.3316833 -0.5020389 0.09542049
15 -0.065582626 -0.36653623 0.44540986 0.079004094 -0.053861506 -0.49917442 -0.08147857 0.25271103 -0.3447865 -0.0160815 0.61929333 0.1871383 0.27594563 -0.088370204 -0.010929404 -0.2864641 -0.25343135 0.34943962 -0.21144256 0.09644016 0.2222227 0.24821801 0.24788025 -0.07477165 0.2547099 0.5079292 -0.24883313 0.1507068 -0.17434326 -0.10618369 -0.062425345 -0.36773905 -0.030264402 -0.35805926 0.15527807 0.1157864 0.040396046 -0.23184511 0.5177007 -0.15268153 -0.15170948 0.19842128 -0.3398695 -0.21484882 -0.09237733 -0.04707013 0.031834327 -0.18808706 0.10724886 -0.25458276 0.33628458 0.23052579 -0.11144705 0.3773501 0.21690524 -0.12027243 -0.10645259 -0.40106997 -0.104494214 0.40025744 0.051768012 -0.368166 -0.49833375 0.128462
0 -0.105891526 -0.32850984 0.42717484 0.07206863 -0.0927556 -0.5379726 -0.07509498 0.22637548 -0.35756665 0.072668925 0.65342796 0.2294527 0.326 -0.05523996 0.08257274 -0.2788104 -0.29806814 0.3646369 -0.17387527 0.056648765 0.17075796 0.31971583 0.21985008 -0.06153348 0.29945338 0.49531925 -0.28518268 0.14643958 -0.20304014 -0.12589733 -0.061000504 -0.38696933 -0.09903413 -0.31426853 0.16530907 0.2427456 0.11875896 -0.16658117 0.5557971 -0.14309017 -0.20521662 0.24575774 -0.28052947 -0.289328 -0.11723156 -0.045301333 -0.013433561 -0.16335833 0.1100352 -0.25316447 0.4080171 0.2554775 -0.17497951 0.33402348 0.22256045 -0.044775717 -0.071012564 -0.461885 -0.13585101 0.44854608 0.010129852 -0.37983474 -0.49016178 0.120307535
7 -0.064164616 -0.33096972 0.4497117 0.027895717 -0.04576635 -0.5090627 -0.071065806 0.24370018 -0.42324796 -0.037320074 0.58643645 0.19723608 0.24403532 -0.14713217 0.03139239 -0.3369308 -0.21196118 0.35929546 -0.17928217 0.07430713 0.1858103 0.31630176 0.18266366 -0.057569288 0.28914678 0.4945563 -0.25971988 0.12351379 -0.18093123 -0.107259914 -0.063296676 -0.32972363 -0.08398794 -0.3422027 0.10910458 0.17602716 0.12320616 -0.12157458 0.50008565 -0.14805934 -0.19271728 0.18060498 -0.25356293 -0.20902847 -0.06584864 -0.028347032 -0.03361523 -0.21548763 0.113278985 -0.27286714 0.30008844 0.28519458 -0.09178915 0.39571366 0.19632448 -0.12686555 -0.12943704 -0.37792456 -0.1450846 0.40569383 -0.011586246 -0.32810825 -0.5115903 0.08917181
11 -0.0580873 -0.31610784 0.4129701 0.03927634 -0.053182945 -0.5270575 -0.081255525 0.22953558 -0.3640723 0.0032645694 0.60133916 0.16627283 0.2515288 -0.11994811 0.033637404 -0.27001658 -0.21104331 0.30969086 -0.17167267 0.060469594 0.16214095 0.29078162 0.21119618 -0.022004712 0.27219367 0.47677475 -0.24814256 0.12418495 -0.1828227 -0.09254437 -0.08304252 -0.2969796 -0.10403114 -0.31880355 0.13453257 0.15571804 0.08704217 -0.17385902 0.51243776 -0.11426642 -0.21206598 0.18671606 -0.26019537 -0.21376014 -0.09215219 -0.02369304 -0.014347815 -0.19000517 0.10216219 -0.21218422 0.27433297 0.21144244 -0.07434109 0.3548283 0.23414944 -0.0689672 -0.11086073 -0.39869007 -0.15124772 0.41722685 0.016312506 -0.33054438 -0.44682002 0.104424424
1 -0.10536918 -0.43011627 0.39794138 -0.007865782 0.06385991 -0.5442587 -0.1753154 0.23714882 -0.31921244 0.04357336 0.58118564 0.16619612 0.2677523 -0.10620232 0.0056556594 -0.26561934 -0.2407667 0.37383783 -0.15082397 0.034232654 0.22864549 0.26141936 0.23249955 0.02182096 0.34883165 0.5189637 -0.27978593 0.06976883 -0.23174201 -0.045458242 0.028966494 -0.29484335 -0.049196232 -0.21813694 0.17231789 0.20918182 0.06202345 -0.19807442 0.54277515 -0.2170279 -0.25288957 0.21390279 -0.29604438 -0.21098492 -0.17731038 -0.18415916 -0.016710505 -0.20176826 0.083905675 -0.2750024 0.2641978 0.11192883 -0.054455902 0.38348338 0.24917836 -0.05012954 -0.1724026 -0.48531514 -0.22875905 0.3981169 -0.00799569 -0.28792873 -0.5176202 0.10895357
32 -0.026950127 -0.29558113 0.46479836 0.08030926 -0.085765526 -0.47555432 -0.013698791 0.2163602 -0.3858853 -0.04007263 0.5773115 0.178027 0.270908 -0.11160734 0.049352445 -0.26807287 -0.23634668 0.30798972 -0.17160083 0.106387965 0.1911369 0.2896651 0.21926707 -0.062956996 0.20869851 0.46271682 -0.22912256 0.15142097 -0.12448157 -0.14340638 -0.12074639 -0.33333436 -0.08212546 -0.3814159 0.123966314 0.1302156 0.07252721 -0.14109582 0.49077976 -0.09618875 -0.11958295 0.19195351 -0.28836662 -0.22013256 -0.010438557 0.020789864 -0.0038077454 -0.17426142 0.11502985 -0.18254025 0.3230226 0.27010188 -0.12454594 0.3509544 0.18241248 -0.06435357 -0.07479086 -0.37265623 -0.07686951 0.36826062 0.069368295 -0.35167024 -0.41286537 0.1226922
17 0.31037936 -0.032248568 0.43976447 -0.08870048 0.23171173 -0.25545377 -0.08614488 -0.12262617 0.013529464 -0.018472612 0.25737262 -0.069644846 -0.061555214 0.26440734 0.19707999 0.3399093 -0.40069267 -0.1695537 -0.15769975 0.2885908 0.31828284 -0.18313369 0.4172469 -0.14671986 0.10746792 0.3857184 -0.2966824 -0.26523843 -0.30789402 -0.060848504 -0.016292129 0.070325084 -0.16034879 -0.12665367 0.32903802 0.035606336 0.009765701 0.33770174 0.07639848 -0.18483433 -0.2999248 0.41321638 -0.28550956 -0.5111651 -0.19090255 -0.41546792 0.18063563 -0.11258901 -0.11907298 0.2392573 0.017900318 -0.11878786 0.17526133 0.21282785 0.49590668 0.4725425 0.23248765 -0.11933972 -0.49699268 0.18571302 -0.27420598 -0.4893772 -0.15874927 -0.19692709
10 0.39058706 0.053534638 0.5102156 -0.12853436 0.19441894 -0.23017721 -0.049940966 -0.15037772 -0.124405876 -0.083507344 0.2531697 -0.07985304 -0.07136978 0.24158655 0.23999076 0.22459792 -0.4288742 -0.18479183 -0.18055145 0.2790625 0.270226 -0.11115818 0.33471292 -0.19798197 0.053893022 0.4048096 -0.3338467 -0.27918783 -0.30857822 -0.100043625 -0.1098337 0.068238266 -0.21996528 -0.1782361 0.3294696 0.054465227 0.107928246 0.47851947 0.023652712 -0.14068417 -0.34576386 0.37359563 -0.25709727 -0.5413611 -0.1253526 -0.33202496 0.13313085 -0.18088937 -0.108588964 0.26853967 0.021246504 0.074896336 0.14601377 0.24109565 0.47859678 0.43256468 0.2854032 -0.06446149 -0.4992475 0.23298332 -0.34039447 -0.57793105 -0.16244797 -0.25746164
49 -0.033564996 -0.2996188 0.4375718 0.044947226 -0.05581357 -0.49598205 -0.03972414 0.21731582 -0.35454372 -0.041065436 0.57250834 0.14798827 0.25520933 -0.098947026 0.0034042331 -0.26655713 -0.20627524 0.30829743 -0.18197836 0.08669831 0.19109896 0.28058255 0.20609817 -0.038145375 0.22021347 0.47052887 -0.271007 0.10779305 -0.15692827 -0.10927892 -0.10953201 -0.28530702 -0.0871006 -0.35330942 0.11793993 0.12798646 0.08029486 -0.15218177 0.49745265 -0.10833123 -0.16085589 0.17642342 -0.28465208 -0.2164883 -0.050305765 -0.007357598 -0.045538027 -0.18638459 0.10885595 -0.20240009 0.24087837 0.26691982 -0.08124827 0.3593543 0.22411771 -0.064310156 -0.09504151 -0.36871025 -0.12729695 0.3881288 0.04196203 -0.34405014 -0.45323047 0.11596448
53 0.36914 -0.0094493115 0.534209 -0.15591642 0.25039732 -0.22915395 -0.099256486 -0.14396249 -0.03662026 -0.14028294 0.38338748 -0.06777309 -0.1530338 0.22589634 0.10115876 0.2921718 -0.38264734 -0.196438 -0.21430725 0.36283293 0.35249126 -0.25850436 0.37840182 -0.19222417 0.0113693625 0.44385377 -0.3258366 -0.30420715 -0.3462093 -0.088212684 -0.0186129 0.035335667 -0.12755473 -0.23558109 0.32422575 -0.026824718 0.03733809 0.32789096 0.07129829 -0.21973658 -0.30774298 0.41673538 -0.33612224 -0.5173362 -0.16105905 -0.41076916 0.2178025 -0.22494082 -0.13645618 0.21936366 0.0068424013 -0.031036677 0.22296065 0.24617966 0.54174215 0.33692914 0.27028057 -0.024508689 -0.49118873 0.20397474 -0.28716862 -0.5593142 -0.28316346 -0.23682605
50 0.37620357 0.02665491 0.5154727 -0.112838715 0.23427144 -0.20894513 -0.05537383 -0.15776548 -0.06293541 -0.11065697 0.31080067 -0.06764749 -0.097042866 0.21537888 0.13609616 0.31644508 -0.39691532 -0.17954172 -0.18700187 0.3450771 0.3488291 -0.19508491 0.38793173 -0.17692928 0.023894422 0.39907894 -0.33134407 -0.2994942 -0.33434904 -0.10073606 -0.038633857 0.052440446 -0.15736763 -0.24471441 0.29813373 0.0018991448 0.00865174 0.38053766 0.069406055 -0.15997815 -0.26203635 0.41453564 -0.29654232 -0.50663364 -0.14439954 -0.35353643 0.14923404 -0.18218657 -0.12584503 0.23604116 0.021653594 -0.0066604028 0.2054219 0.21203402 0.47678083 0.38882056 0.25008842 -0.034577582 -0.45639518 0.16276431 -0.25537726 -0.5225763 -0.21089655 -0.20160407
2 0.6376468 0.076755665 0.527699 -0.089026034 0.10993876 -0.2753341 0.36211956 0.16579556 -0.52036506 -0.42834285 0.04075042 -0.22813113 -0.18520881 -0.26101726 0.10093882 0.08286912 0.2634927 -0.23645735 -0.22121012 0.49808046 0.3270266 0.2101593 0.20249908 -0.051435046 -0.17158361 0.16863638 -0.04252092 0.045456182 0.27850363 -0.23848267 -0.527598 0.25604153 0.022790639 -0.53978544 -0.07381135 -0.45479757 -0.005635197 0.14523448 -0.05674617 0.24949352 -0.025191883 -0.17721531 -0.1315563 -0.052073304 0.31261027 0.4573371 0.034896657 -0.20301637 0.07327108 0.4673171 -0.56705123 0.37726372 0.42573428 0.39703172 0.2187648 0.12986918 -0.0034966911 0.15311435 0.0441804 -0.09532785 0.09292156 -0.25295094 0.07340622 -0.066682704
56 0.19187005 -0.58628756 0.11632483 -0.17272985 0.48611912 -0.53849256 -0.20367725 0.34697095 0.009755668 0.33120605 -0.14917183 -0.22675547 0.024937656 -0.13644117 0.0768558 0.3735899 0.1188334 0.11716322 0.007080478 0.10744453 0.53280693 0.27751586 0.62451434 0.39014763 0.4850455 0.29510054 -0.21063472 -0.1398117 -0.038869634 0.018311355 -0.03197019 0.38820767 -0.0035063005 0.28938085 0.110101976 0.03589962 -0.13407363 0.034864612 0.3913603 -0.054996714 -0.1924507 0.06151869 -0.014370735 -0.06328646 -0.24713254 -0.3093043 0.012318607 0.073144354 -0.029689679 0.16674402 -0.46236828 -0.61914605 0.5645108 0.39071658 0.37399596 0.7507205 -0.22956158 -0.5921612 -0.37557378 -0.25793013 0.13052735 0.19858317 0.15678512 0.15651047
8 0.31715786 -0.012632424 0.50615984 -0.11122631 0.23372304 -0.2294096 -0.10539596 -0.12708977 -0.019854765 -0.062195458 0.31434432 -0.05284648 -0.032100406 0.27471623 0.16389072 0.24792945 -0.47973025 -0.12677631 -0.22674903 0.30486837 0.33258384 -0.19833495 0.35812795 -0.20212872 0.053621836 0.43233782 -0.3676443 -0.30979 -0.36015803 -0.0512952 -0.036975536 0.022443037 -0.16758189 -0.15820637 0.37398037 0.06075891 0.03370353 0.38126412 0.084157586 -0.2128827 -0.35305905 0.45007 -0.32898661 -0.5428311 -0.19593984 -0.44904062 0.14602572 -0.15233155 -0.11786003 0.19123164 0.08508485 0.009596644 0.14852552 0.2383814 0.49433842 0.4280112 0.26397985 -0.090538606 -0.5201739 0.24248125 -0.32953846 -0.5772571 -0.24418429 -0.23466665
9 0.42120513 0.100969456 0.35007346 0.44792363 -0.4087662 -0.33706674 0.42430553 0.19116567 -0.025195511 0.21032551 0.20516902 -0.22116481 0.35336813 0.18789822 0.46314827 0.37645465 -0.111461915 -0.3008586 -0.19872467 0.295299 -0.007992695 0.37700406 0.50568223 -0.09189622 -0.034004666 0.16244508 0.1297278 0.3237189 0.255265 -0.21712843 -0.5097308 -0.03038352 -0.4110486 -0.41863412 0.11323406 -0.15839915 -0.14181837 -0.07621527 0.2587189 0.3349843 -0.06843361 0.08013224 -0.2067717 -0.42581388 0.21057625 0.31885716 0.1367329 0.26999375 0.08394577 0.55086595 0.09406638 0.097818494 -0.17191266 0.19394155 0.25743634 0.48855332 0.26287848 -0.21839155 0.095088035 0.22132866 0.16062942 -0.41077277 0.5260136 0.17292136
6 0.3273437 -0.0014591176 0.48200864 -0.08060939 0.17018756 -0.23687667 -0.072895475 -0.11585373 -0.025618574 -0.08053469 0.37176016 -0.069669515 -0.042394802 0.27645117 0.1611664 0.25796992 -0.42825803 -0.14644958 -0.24553257 0.31001633 0.314079 -0.18514463 0.35900605 -0.17502363 0.040331036 0.4278489 -0.3245612 -0.27566943 -0.3182895 -0.046260245 -0.07141302 0.011695047 -0.13218571 -0.21916053 0.3261363 0.0005358498 0.03250583 0.29594898 0.11494199 -0.20552728 -0.3389038 0.42223737 -0.3309473 -0.5140742 -0.20015004 -0.39322796 0.13118337 -0.16266094 -0.104231395 0.18048485 0.077949874 -0.0061132307 0.14521642 0.24479142 0.49335673 0.36686164 0.24522285 -0.09776148 -0.48711017 0.25868902 -0.28245035 -0.569772 -0.24798645 -0.20984145
28 0.38327718 -0.019211296 0.55810654 -0.16041961 0.26544702 -0.25972623 -0.10731865 -0.119540595 -0.056763314 -0.086230606 0.32956874 -0.051517703 -0.11399315 0.2711055 0.15773539 0.30326435 -0.44792938 -0.16778535 -0.22804952 0.32815465 0.36213332 -0.2233925 0.41476345 -0.19141407 0.07058254 0.47912923 -0.36905453 -0.3300621 -0.38603204 -0.093749814 -0.015981643 0.04258234 -0.162372 -0.19568092 0.3597431 0.009869786 0.054097097 0.39484584 0.07427765 -0.2316146 -0.3544205 0.45230672 -0.3154408 -0.5491089 -0.2169947 -0.45821115 0.19302234 -0.20658478 -0.13265544 0.22781205 0.039241124 -0.036892783 0.20335586 0.27521107 0.5610935 0.4534256 0.278095 -0.094160706 -0.55664235 0.22168899 -0.3196367 -0.59061134 -0.2909963 -0.24748217
29 0.33051386 0.07485722 0.0071155047 -0.0022535948 -0.10569283 -0.44916987 0.2765286 0.17535642 -0.41277707 -0.07196829 0.05380026 -0.33745074 -0.07856782 -0.11563247 0.16225013 0.09664749 0.2854018 -0.14942391 -0.06468533 0.12951635 -0.061493788 0.38917774 0.15795153 0.16257603 0.1409238 0.049160838 -0.11316712 -0.047212 0.12179952 -0.015716217 -0.54072744 0.3006592 -0.42141342 -0.38436067 -0.08552351 -0.050245073 0.07182651 0.1982871 0.30069596 0.22895847 -0.2549911 -0.09921778 0.16487071 -0.13397126 0.18370086 0.42562068 -0.31146187 -0.14643444 0.15327309 0.43579465 -0.5024626 0.28673112 0.4456894 0.25687987 0.43513548 0.16810235 -0.2025222 -0.009401963 -0.04413958 0.17136177 -0.04058552 -0.27103156 0.16137701 -0.02815079
58 0.1268512 -0.62093735 0.093887486 -0.16529593 0.45101422 -0.53846645 -0.19338356 0.38256216 -0.04820388 0.3154479 -0.075911626 -0.17179596 0.053907625 -0.17738825 0.02140595 0.33199507 0.1608242 0.18879208 0.013092895 0.09968872 0.49731213 0.31429204 0.59696 0.3977767 0.48265535 0.2903248 -0.2005747 -0.103218116 -0.06565288 -0.0051359045 0.0011570932 0.32715052 0.010894397 0.20466554 0.06427125 0.04329578 -0.100691624 -0.048238542 0.4516592 -0.038814925 -0.1562916 0.047279425 0.007763639 0.014365864 -0.19355294 -0.22370446 0.017840335 0.047474075 0.0030248864 0.12959279 -0.44461888 -0.5626579 0.5271756 0.36764312 0.3092434 0.66201305 -0.2588426 -0.5540362 -0.28984898 -0.23707965 0.19552529 0.23370594 0.085722364 0.20877859
25 0.37745225 -0.0018099614 0.503138 -0.13240804 0.2098232 -0.23700751 -0.051801547 -0.102590084 -0.09623078 -0.13000125 0.23937275 -0.08661347 -0.05130178 0.22333656 0.1663615 0.22038624 -0.41456708 -0.123165615 -0.18850866 0.30687267 0.34670508 -0.12714685 0.31308678 -0.18574184 0.0354488 0.37149644 -0.35842335 -0.2972269 -0.2774047 -0.061297238 -0.10974434 0.071992666 -0.14828707 -0.19201282 0.3082386 0.026408192 0.072723396 0.44090787 0.051838707 -0.14349675 -0.29392597 0.3782482 -0.23140518 -0.46867892 -0.11763869 -0.32356706 0.09543453 -0.18691133 -0.068745665 0.2192119 -0.00012831955 0.07349187 0.1650979 0.24166767 0.45509702 0.41489163 0.23789524 -0.044870965 -0.46094263 0.15631711 -0.28414184 -0.54486895 -0.20470008 -0.2536752
47 0.13214952 -0.58150166 0.1436271 -0.17779045 0.46506035 -0.5063693 -0.22034018 0.32385018 -0.028010614 0.2846744 -0.009069715 -0.15848793 0.04304403 -0.12214793 0.03064615 0.32017195 0.059492614 0.15710172 0.004529315 0.10148711 0.5014336 0.24784866 0.576838 0.32683432 0.45215437 0.34655032 -0.23820442 -0.11318528 -0.12763807 -0.0015311391 0.04079098 0.2743212 0.0050085993 0.17381081 0.088906884 0.078680165 -0.10575213 0.004720586 0.41380212 -0.111251965 -0.18442476 0.11491125 -0.067030154 -0.062892124 -0.2357957 -0.2826719 0.03693341 0.014164313 -0.035855588 0.10621693 -0.36029845 -0.5440851 0.46121567 0.354453 0.3356164 0.6249835 -0.2222071 -0.56651366 -0.34647995 -0.18778743 0.13521948 0.18260002 -0.00785886 0.1746479
57 0.21706286 -0.5797562 0.11634513 -0.20528364 0.5408576 -0.50734913 -0.22659934 0.32601184 0.0034284305 0.28531054 -0.1198262 -0.23920238 -0.030878594 -0.14354938 0.028048795 0.3825805 0.15292265 0.105926 -0.009986093 0.13371201 0.5471314 0.20502374 0.6051189 0.38650692 0.4496118 0.2974129 -0.22120498 -0.19015732 -0.069868594 -0.0062959585 0.0060219388 0.4008564 0.03987463 0.24001098 0.08451606 0.013622434 -0.1047776 0.029937938 0.3615494 -0.076360136 -0.2108328 0.064536884 -0.046676345 -0.04348194 -0.24484096 -0.31346548 0.030627917 0.019850373 -0.061762705 0.19950855 -0.5221727 -0.6123013 0.605026 0.38880205 0.37555197 0.69542617 -0.24456553 -0.5310985 -0.39921305 -0.2250951 0.122918986 0.21487206 0.089357786 0.13907842
3 0.18176584 -0.5886999 0.13724506 -0.21730971 0.53511816 -0.46709046 -0.23270814 0.32459047 0.024583371 0.26897362 -0.08656508 -0.20184888 -0.062112868 -0.119324535 0.0014379452 0.38815728 0.11579671 0.098397546 -0.010564582 0.11116507 0.5351566 0.18442798 0.5915685 0.35940182 0.43327484 0.32387337 -0.17244416 -0.16974634 -0.09480223 -0.0032470047 0.06407774 0.3345756 0.070390545 0.2124235 0.08690232 0.0109226415 -0.12050204 -0.013529927 0.3133003 -0.13116294 -0.17723353 0.0556444 -0.08793214 -0.019707501 -0.23207963 -0.3322659 0.0614732 -0.0067405906 -0.046823718 0.16228427 -0.47131023 -0.6326148 0.5647512 0.36898798 0.36501488 0.64234203 -0.23065847 -0.52812505 -0.38189223 -0.23632756 0.13052893 0.23167476 0.04211974 0.15333082
43 0.21542965 -0.20505321 -0.06640742 0.05264101 -0.05140307 -0.48228434 0.14331873 0.41958994 -0.30312088 0.13040926 -0.13275462 -0.2682539 0.05946464 -0.0701389 0.2532573 -0.18252592 0.105570436 0.051534355 -0.14703366 -0.027420627 -0.013083791 0.40113068 0.21835527 0.05128544 0.35099435 0.16631839 0.062150043 0.13529788 0.21771872 0.10769909 -0.4160967 0.19293368 -0.31805247 0.07683844 -0.02509525 -0.022891201 0.081930734 0.025783377 0.110422835 0.08265052 -0.28362724 -0.13033487 0.032943696 -0.11722757 -0.04533132 0.075166516 -0.1719882 -0.048031542 0.28064534 0.12445729 -0.28709415 0.08439572 0.26408035 0.48129267 0.39605206 0.2057292 -0.15234815 -0.29557785 -0.20653535 0.19859025 -0.08676278 -0.2474483 0.20470326 -0.013630063
36 0.4145794 0.110609196 0.33337477 0.3542946 -0.30968392 -0.33851546 0.37170026 0.14841497 -0.10280953 0.2298154 0.11166652 -0.1882391 0.31825623 0.14491498 0.5041813 0.38025132 -0.16993482 -0.2594179 -0.12702325 0.25688723 0.025266511 0.40759304 0.47541276 -0.06507555 0.021779692 0.16361293 0.04616353 0.23476717 0.17988238 -0.20898402 -0.45597708 0.024539227 -0.43910176 -0.33196378 0.1162225 -0.0285351 -0.03763115 0.14448853 0.23756297 0.3072559 -0.10463322 0.099377036 -0.101696216 -0.45275837 0.2064235 0.28663033 0.111617245 0.23689829 0.06317523 0.5564463 0.09468209 0.1250805 -0.122624256 0.19435017 0.25169998 0.5600199 0.2870382 -0.1987716 0.015805861 0.1577451 0.076451026 -0.3969101 0.4964705 0.09849139
34 0.31559613 0.027459446 0.30055532 0.41199172 -0.37584847 -0.36489528 0.36174557 0.19931774 -0.059438534 0.22559918 0.18723294 -0.14097671 0.35904175 0.12251967 0.4273501 0.29268232 -0.12420365 -0.1869029 -0.15441333 0.20389223 -0.011390364 0.43527037 0.4568787 -0.05130095 0.045631535 0.18631724 0.10146634 0.33349392 0.21563776 -0.20427647 -0.43022192 -0.068766065 -0.36814502 -0.3499789 0.0761162 -0.0439443 -0.07474069 -0.07584521 0.32399788 0.2811447 -0.08519238 0.07167104 -0.15377514 -0.37167272 0.17845526 0.3008686 0.103066705 0.22718473 0.08753529 0.4300996 0.14947414 0.109885484 -0.18203855 0.19312318 0.1979314 0.4266785 0.20868415 -0.27449846 0.07386608 0.20570335 0.15215077 -0.34717637 0.43200383 0.20451878
33 0.31074366 0.034352344 0.31804368 0.42713943 -0.3815081 -0.3707755 0.37390324 0.23021401 -0.080608524 0.30939037 0.17284116 -0.13074592 0.40661672 0.15030149 0.49689114 0.29017818 -0.15685931 -0.16481608 -0.11763187 0.18993329 -0.01920987 0.49003178 0.4617386 -0.07294568 0.05731658 0.1887 0.07049391 0.34163156 0.22092931 -0.2023104 -0.44722196 -0.056071658 -0.43159816 -0.32229048 0.13068752 -0.0047043758 -0.057943504 0.005293961 0.33046824 0.30127272 -0.10087641 0.08734265 -0.13117172 -0.4105297 0.190595 0.29644436 0.08979819 0.28343883 0.07522409 0.4709439 0.19208418 0.09561212 -0.20752531 0.19384299 0.20857736 0.5131828 0.24008335 -0.30938894 0.053644046 0.21977851 0.14321041 -0.3755443 0.474646 0.17722483
12 0.37845007 0.1383815 -0.006029103 -0.02022877 -0.14962766 -0.45607534 0.28747368 0.14766996 -0.38412574 -0.016036138 0.0780857 -0.35122818 -0.092833534 -0.08375228 0.20475595 0.19264892 0.29262573 -0.24632537 -0.055346407 0.11047562 -0.10330409 0.4008702 0.19809136 0.19158772 0.14311826 0.04675326 -0.07281182 -0.037729446 0.13829534 -0.04451959 -0.56496716 0.31709212 -0.4741359 -0.4271466 -0.09149262 -0.03728311 0.072327785 0.20932771 0.29913598 0.264964 -0.3070007 -0.11578989 0.15906182 -0.19677958 0.19461991 0.4573944 -0.2864699 -0.123865485 0.115594655 0.532332 -0.5337098 0.26695323 0.44376677 0.21356502 0.44529414 0.22949398 -0.12778604 0.0054576537 -0.051775403 0.19873466 -0.06776099 -0.25687516 0.21210895 -0.03965823
52 0.2146739 -0.26075032 -0.08691726 0.03737362 -0.064857386 -0.56307715 0.13883223 0.45370144 -0.32349378 0.22194351 -0.15838179 -0.2852266 0.07020116 -0.08754055 0.28536263 -0.111749165 0.18176791 0.0693383 -0.10364563 -0.028399713 -0.012456349 0.5044229 0.2545263 0.14769037 0.43266013 0.1687196 0.061878044 0.13778012 0.2378255 0.08964064 -0.4177367 0.210807 -0.33042967 0.098082654 -0.046567015 0.011146183 0.06980693 -0.0133786425 0.17229372 0.12937133 -0.32296786 -0.16694812 0.066997975 -0.09828971 -0.040200133 0.11787529 -0.20312044 -0.011792984 0.25996906 0.17446281 -0.36225146 0.052767232 0.30111837 0.49833095 0.37843025 0.28120327 -0.2113743 -0.36133507 -0.19896765 0.21066916 -0.049774036 -0.1823545 0.24755445 0.04771983
38 0.15217976 -0.32283857 -0.0022524425 0.039880525 0.02154351 -0.49663278 0.043125674 0.4297539 -0.18778664 0.2399575 -0.13598254 -0.21215202 0.14377691 -0.045768283 0.24557482 -0.09590369 0.053457733 0.14000927 -0.105671994 -0.033815965 0.11406057 0.40306014 0.31767556 0.12363486 0.39457154 0.20884113 0.026664875 0.13272329 0.16780718 0.074471265 -0.2932931 0.1687908 -0.21864352 0.17353591 0.029913485 0.023672558 0.019618006 -0.029272974 0.19482554 0.04102499 -0.26859316 -0.061588828 -0.028401416 -0.08817061 -0.095950335 -0.012129863 -0.10492101 0.04448365 0.20444922 0.086442105 -0.2567675 -0.083350636 0.21773319 0.46331018 0.32676762 0.35406986 -0.19367966 -0.4144079 -0.22832029 0.124156326 0.00024601963 -0.10223542 0.22291797 0.08784451
51 0.3117411 0.0571616 -0.0955676 -0.051704876 -0.045876566 -0.45006922 0.17098199 0.15239069 -0.29161382 0.043086704 -0.020524364 -0.32188672 -0.10008726 -0.0037443375 0.19918793 0.20179978 0.20287612 -0.16166936 0.006674247 0.042367976 -0.0669629 0.317797 0.23301719 0.17085649 0.22186315 0.041589335 -0.11814191 -0.09259045 0.02903574 0.020558124 -0.42534086 0.3111191 -0.48666382 -0.24846712 -0.054297056 0.043503743 0.06276721 0.28384888 0.2917453 0.20337021 -0.32846338 -0.015186508 0.19228691 -0.22479099 0.09476155 0.26909754 -0.2829627 -0.106991015 0.113735504 0.45703018 -0.47479865 0.13570067 0.4259985 0.20838363 0.4904624 0.33058918 -0.14482819 -0.06778857 -0.12880135 0.16268478 -0.11072928 -0.23170306 0.1917107 -0.07168866
27 0.35702246 0.12668 0.04688665 -0.014414633 -0.073878504 -0.41944465 0.25291902 0.11425917 -0.38330537 -0.06675112 0.013212115 -0.32847154 -0.050481834 -0.028190648 0.23194498 0.13706061 0.1744626 -0.17026062 -0.06358436 0.107374325 -0.027467858 0.37949845 0.14616007 0.14857744 0.12672488 0.056797035 -0.16546822 -0.090844005 0.06779791 -0.03676177 -0.51353896 0.3035248 -0.42798582 -0.34504336 -0.054351628 0.008398218 0.09532816 0.3354457 0.2938784 0.23222838 -0.31823543 -0.03227207 0.18332398 -0.19717138 0.16333114 0.36617014 -0.33502838 -0.08970061 0.11933423 0.4674601 -0.4953963 0.29793853 0.39409646 0.22814594 0.3929119 0.28524736 -0.15812755 -0.031286098 -0.107302584 0.1691301 -0.08401147 -0.29442528 0.16107152 -0.08025011
18 0.31039885 0.11625411 0.0035902886 -0.008266599 -0.13592854 -0.4712304 0.23545475 0.11447901 -0.39273897 0.0009882126 0.09542599 -0.28496835 -0.029000668 -0.023140797 0.24838898 0.18040073 0.1377172 -0.15217444 -0.0022637655 0.077491954 -0.108538926 0.4226878 0.19852714 0.17361 0.19270228 0.07834021 -0.18809727 -0.06659802 0.011511764 -0.04006667 -0.5058996 0.25159246 -0.5262484 -0.39338714 -0.061625864 0.113139704 0.10323457 0.3444246 0.3770157 0.2573319 -0.32501957 0.013575934 0.23665936 -0.26922566 0.17130652 0.4040998 -0.3122257 -0.10360505 0.13003339 0.4673303 -0.37998223 0.28356403 0.33172807 0.19048232 0.42731097 0.28873554 -0.1208125 -0.061194927 -0.07791337 0.21491261 -0.10892155 -0.30056056 0.15968803 -0.07670141
19 0.15927024 -0.058028083 0.2427641 -0.19938606 -0.08962692 -0.5562495 0.04408028 0.337384 -0.502428 0.16103083 0.37975842 0.12805273 0.03152658 -0.27125594 0.44181246 -0.3153814 0.32365036 -0.01662099 -0.05552518 -0.13206926 -0.2561653 0.4702052 -0.05491008 0.06302717 0.3704517 0.35980156 0.22052658 0.21972494 0.15620352 -0.22700283 -0.16912936 0.012814422 -0.055189274 -0.13532281 -0.037436794 0.11438862 0.29515532 -0.19006802 -0.04289183 -0.15352868 -0.55763096 -0.2746654 -0.26282144 -0.16687351 0.014447313 0.117272615 -0.0024245577 -0.20310627 0.066925645 0.25147069 -0.24206783 0.2514547 0.14731607 0.424418 0.2437524 -0.11530697 -0.10662034 -0.256318 -0.24665615 0.54462564 -0.27767804 -0.011373184 -0.1950974 -0.054521635
21 0.3629547 0.035978667 0.37397382 0.4252184 -0.3515889 -0.3605354 0.39071402 0.20933983 -0.09209627 0.21400629 0.15668394 -0.1346826 0.38519943 0.118450165 0.45145503 0.27654958 -0.18943608 -0.15669595 -0.1733488 0.2757476 0.043150567 0.45801917 0.48180345 -0.11202603 0.0021720813 0.18837903 0.056551833 0.35414296 0.23226193 -0.21456373 -0.44814527 -0.06408526 -0.37354928 -0.34519452 0.119775034 -0.077837326 -0.10196486 -0.019135535 0.30179667 0.30746529 -0.05108812 0.07554917 -0.17303245 -0.38454983 0.1997878 0.29706267 0.11950823 0.25719303 0.09684285 0.45055038 0.16114885 0.12546985 -0.22625887 0.22931927 0.16448367 0.48318192 0.22792184 -0.2900683 0.08188657 0.1549119 0.16597654 -0.3958637 0.47005633 0.19045879
16 0.74287176 0.06189539 0.6402266 -0.16001742 0.24293934 -0.23466976 0.35937995 0.12878595 -0.49682206 -0.50404954 0.07879188 -0.24032791 -0.29552153 -0.26890755 0.068321556 0.14744902 0.26558334 -0.31698194 -0.2585217 0.61910164 0.43101373 0.07730389 0.2742913 -0.094729 -0.21678793 0.23151061 -0.004910024 0.03141104 0.2610426 -0.2584237 -0.4664747 0.2702314 0.12612565 -0.5526663 -0.07637656 -0.60977197 -0.04552872 0.14048348 -0.1835838 0.18332604 0.020772452 -0.16164269 -0.23666704 -0.0781052 0.28703064 0.3585696 0.19215707 -0.26218298 0.053588733 0.4999513 -0.61115134 0.30486387 0.5135755 0.42803246 0.26443034 0.13504179 0.09346384 0.22680113 -0.012020176 -0.15230873 0.07706951 -0.2742083 0.013721452 -0.1188288
42 0.67488116 0.026382301 0.47733805 -0.10611867 0.17087036 -0.25714454 0.34441367 0.1533701 -0.4320113 -0.36372873 0.0005481112 -0.26693892 -0.24580659 -0.20931205 0.08446626 0.2009909 0.2694041 -0.29143092 -0.22364566 0.5087347 0.3414691 0.16685735 0.2832196 -0.041719567 -0.14219144 0.16504756 -0.015582284 0.01516677 0.24529041 -0.20082761 -0.49818686 0.2911295 0.0031476761 -0.4709377 -0.07739578 -0.4924411 -0.05615926 0.118381634 -0.078185365 0.24057119 -0.019418377 -0.1590034 -0.13240805 -0.10290212 0.2592734 0.36108857 0.104837015 -0.19130787 0.062369376 0.49600536 -0.5992833 0.22113504 0.48903146 0.37857434 0.29082194 0.20061582 0.01983856 0.13853754 -0.001964432 -0.12121994 0.07726137 -0.2402879 0.10315901 -0.06153528
45 0.7835779 0.038307413 0.6082773 -0.07107756 0.17592172 -0.28932893 0.46202362 0.1945071 -0.56936747 -0.45465022 -0.011614064 -0.304973 -0.23101649 -0.32267958 0.1328418 0.15492202 0.3482917 -0.30909544 -0.24141784 0.5946127 0.41475865 0.27570695 0.287715 -0.030602518 -0.20697463 0.18333378 0.03869216 0.11299747 0.36762533 -0.28602087 -0.59829974 0.31553024 0.07892824 -0.58028764 -0.12354516 -0.6077095 -0.06476009 0.110999174 -0.10849178 0.3115444 0.0036679122 -0.26223364 -0.18664595 -0.032027375 0.3719979 0.525042 0.12326283 -0.18710001 0.067412175 0.593975 -0.6986149 0.34760302 0.5213211 0.45621622 0.21872742 0.18778948 0.02924855 0.13874088 0.06591144 -0.17616187 0.18002392 -0.2257514 0.177605 -0.041504826
48 0.15546879 -0.26909894 0.11613973 -0.080387704 -0.1060863 -0.45995513 -0.008539107 0.329407 -0.03280737 0.07281094 0.7171645 -0.032785095 -0.37888515 -0.07757339 -0.10052602 0.07454448 0.4234263 -0.25421667 -0.28208402 0.1699048 -0.08168949 -0.23414923 0.41395387 0.03455289 0.25065306 0.38308373 0.33418658 0.22809987 0.09014169 -0.0077722385 -0.03439643 0.016963912 0.02372254 -0.42190123 -0.065777496 -0.46423092 -0.16363584 -0.799794 0.106368475 -0.19403692 -0.21632458 -0.06189441 -0.50956625 -0.1419704 -0.1886436 -0.12409109 0.35447028 -0.2991441 0.0705923 0.18225825 -0.21050087 -0.2923177 0.44444403 0.324178 0.6260088 -0.26363847 -0.037809197 -0.07090003 -0.09218214 0.525905 0.066443555 -0.15520939 -0.32567856 0.2208934
46 0.20237197 -0.045024894 0.27729592 -0.23907068 -0.037208512 -0.53808135 0.029596502 0.28125915 -0.4741047 0.14623855 0.32880285 0.10368798 0.0023944234 -0.22704396 0.4173234 -0.2455198 0.29975566 -0.0365976 -0.032034528 -0.102771185 -0.17836393 0.4355314 -0.024234407 0.051250715 0.3427615 0.35149392 0.15079013 0.14987886 0.14605658 -0.22736403 -0.16675462 0.08048566 -0.07462524 -0.09838035 -0.008877171 0.11460143 0.27865642 -0.12890576 -0.08229767 -0.13438497 -0.5619311 -0.22979662 -0.21446599 -0.19432963 0.0054030586 0.07952199 -0.015911216 -0.20834494 0.037520222 0.28218392 -0.2533616 0.20419799 0.15578681 0.37929052 0.22126655 -0.042976968 -0.08465076 -0.2277267 -0.2821338 0.4704267 -0.2890555 -0.004569624 -0.18503065 -0.08767009
24 0.7603891 0.08887937 0.5965713 -0.15160683 0.21826042 -0.24433197 0.37363234 0.12519215 -0.5270436 -0.50332534 0.057205934 -0.27625686 -0.3161529 -0.26382202 0.07178877 0.1600972 0.3035203 -0.3501202 -0.23801902 0.58037066 0.38816446 0.106142364 0.23017524 -0.08483016 -0.23128766 0.18484752 -0.014545776 -0.015718393 0.25914127 -0.25691855 -0.5043563 0.3195156 0.08071122 -0.58052945 -0.0886182 -0.5675081 -0.01146731 0.16389689 -0.1518432 0.22045216 -0.03818844 -0.20287457 -0.19269189 -0.07820785 0.31627896 0.41516665 0.10583313 -0.26401094 0.050470274 0.5554323 -0.6886486 0.34116322 0.5308999 0.4216438 0.30063674 0.13035838 0.05303097 0.2350179 -0.021420162 -0.11452603 0.07624314 -0.2577003 0.039802928 -0.103545785
54 0.16838168 -0.18198009 0.33593723 0.0602131 -0.022195539 -0.3047663 0.0637139 0.16565825 -0.045308396 -0.15760046 0.5075627 -0.15198039 0.08998319 0.07824702 -0.060460567 -0.0647517 0.06747227 -0.08187572 -0.42087346 0.16467525 0.22765419 -0.114740506 0.13305636 -0.031619787 0.007770258 0.3147696 -0.041078065 -0.05667518 0.058910877 0.0413043 -0.19201815 -0.008416661 0.13427627 -0.26297164 0.1466983 -0.2666117 -0.17922391 -0.46887884 0.23364735 -0.18874364 -0.26321578 0.062197782 -0.5435396 -0.07156082 -0.1744349 -0.18462601 -0.017024605 -0.07915152 0.00088498025 -0.024804944 -0.16125551 0.07527261 0.15140665 0.35400006 0.3418628 -0.1987065 -0.15279233 -0.1595242 -0.22344221 0.42917398 0.081046194 -0.3693604 -0.21200089 0.09333716
23 0.19516756 -0.2589112 -0.13649932 0.04432171 -0.083201334 -0.54736304 0.11556585 0.44352886 -0.23663145 0.24630944 -0.11548377 -0.24827011 0.016112566 -0.06806015 0.25823563 -0.07424322 0.17455347 0.008879245 -0.06992155 -0.041958354 -0.06266542 0.40175006 0.30321527 0.13136388 0.44505504 0.17202894 0.09993782 0.14486288 0.18937875 0.0936651 -0.37284085 0.21835636 -0.32839713 0.119551845 -0.027221063 -0.018896908 0.067535 -0.07450533 0.1393522 0.08053715 -0.32505968 -0.13085014 0.037096992 -0.12684003 -0.042390905 0.07916564 -0.13335523 0.014482264 0.24594176 0.19935194 -0.34546804 -0.03725257 0.29298818 0.44334388 0.44180456 0.28491846 -0.16287366 -0.34607735 -0.18418197 0.2194837 -0.07181565 -0.14763238 0.2737556 0.058835566
40 0.33823165 0.06325221 0.29061243 0.4116945 -0.37641755 -0.3546776 0.38388854 0.1890919 -0.08900619 0.18835475 0.21656123 -0.1846682 0.33166438 0.14379707 0.40085354 0.28465536 -0.089983545 -0.2274822 -0.17270996 0.24645764 -0.0048166676 0.37726167 0.4207844 -0.07110619 -0.014680965 0.17399567 0.07642704 0.30304715 0.20548409 -0.1876675 -0.46993595 -0.046126578 -0.3666682 -0.38898504 0.0955271 -0.09499841 -0.116962954 -0.07675337 0.29549968 0.2857733 -0.09404891 0.08098736 -0.18407795 -0.349737 0.1913522 0.31005567 0.069922134 0.22451442 0.08364919 0.4689622 0.097702146 0.14951311 -0.12900363 0.18454458 0.22613297 0.37906057 0.1815658 -0.21049821 0.07558093 0.24940719 0.148337 -0.3929227 0.42800322 0.17880964
20 0.15884177 -0.20943901 0.33892167 0.03789195 -0.014456945 -0.34387058 0.031814855 0.17655665 -0.04500594 -0.14818437 0.5459917 -0.1571072 0.10652855 0.04745096 -0.082553886 -0.08856111 0.07078503 -0.055437118 -0.44399402 0.15883142 0.23450026 -0.13524897 0.15864176 -0.01806595 0.049167592 0.30859175 -0.022434989 -0.0466373 0.08325413 0.044087756 -0.18760568 0.017247146 0.17478198 -0.2671024 0.16805092 -0.27896035 -0.19335337 -0.5415878 0.23326164 -0.20627601 -0.27908024 0.053169042 -0.5808671 -0.06554792 -0.20808177 -0.18310536 -0.0062633106 -0.08098383 0.026743017 -0.040279433 -0.181084 0.06949905 0.16408546 0.3691081 0.3495865 -0.19928187 -0.18612337 -0.19899549 -0.25011063 0.4655625 0.0917571 -0.35558575 -0.2165271 0.09556748
22 0.7015367 0.047236733 0.56393677 -0.09493195 0.14912227 -0.25394738 0.37638506 0.15603329 -0.50877476 -0.39561385 0.014575475 -0.22587581 -0.2337447 -0.27570817 0.13933937 0.14414175 0.28842643 -0.28818783 -0.20387153 0.5261583 0.35141227 0.21705323 0.27093953 -0.05014762 -0.17846337 0.18365441 0.003407838 0.068850726 0.28764942 -0.27934602 -0.47882023 0.25950262 0.043926466 -0.522804 -0.101749316 -0.51556593 -0.006860704 0.12271099 -0.10084998 0.23673776 0.008765418 -0.19656257 -0.16506428 -0.08868011 0.31565475 0.4193022 0.13951188 -0.18835507 0.062095072 0.5217581 -0.57205534 0.28999075 0.4616393 0.40442386 0.22050859 0.1866152 0.049013227 0.15353143 0.025154933 -0.11159851 0.10077628 -0.22922362 0.09374569 -0.04320588
55 0.16125812 -0.5904721 0.12758614 -0.18908796 0.49001688 -0.52941895 -0.2105156 0.32331395 0.004801125 0.28289732 -0.07338542 -0.19700378 0.01945525 -0.12809862 0.029791208 0.36694604 0.09407127 0.14349122 -0.031193009 0.11751966 0.5180718 0.2460791 0.59386986 0.36764577 0.46565908 0.31689417 -0.26052317 -0.17666897 -0.09634305 0.00529052 0.0009266264 0.3299991 0.011797815 0.2171781 0.10370198 0.065533936 -0.1171647 0.037100207 0.43180832 -0.08623195 -0.20836167 0.102517426 -0.025511518 -0.04079767 -0.23363285 -0.31029174 -0.004734852 0.009025178 -0.035717558 0.13634993 -0.44194862 -0.5708181 0.5460473 0.3889865 0.3868833 0.6734601 -0.26061043 -0.5634092 -0.37363034 -0.22175205 0.11273113 0.165593 0.036961835 0.12962647
31 0.19282597 -0.26738575 0.09112351 -0.087720394 -0.110616036 -0.50438356 0.012952129 0.372256 -0.103502855 0.028755328 0.66716295 -0.060190003 -0.35142297 -0.13262697 -0.074593164 0.032562148 0.43053082 -0.2197966 -0.25786173 0.14938779 -0.0949182 -0.1313889 0.38420114 0.06380072 0.2538981 0.35590154 0.31857535 0.25492933 0.13260512 -0.0035709126 -0.09566397 0.015960462 0.012196322 -0.42539102 -0.070983 -0.4387858 -0.1438167 -0.74753404 0.1332116 -0.13569099 -0.18992375 -0.124310985 -0.45921034 -0.11512858 -0.123031974 -0.05413422 0.3032834 -0.295338 0.11533615 0.20257139 -0.25945657 -0.21531723 0.44717276 0.363215 0.61852986 -0.26763088 -0.08062098 -0.08915775 -0.06544749 0.48852947 0.07158578 -0.12877443 -0.2688467 0.20895381
35 0.16158725 -0.19828105 0.34453642 0.057090543 0.013519313 -0.28006706 0.04371673 0.16607581 -0.027694535 -0.13863005 0.40880504 -0.17638278 0.08862023 0.06888107 -0.06987644 -0.053931464 0.0363555 -0.04666319 -0.40544438 0.18861629 0.30418053 -0.081856005 0.16762635 -0.015243678 0.026424661 0.29599428 -0.09459882 -0.066326715 0.056008413 0.032113437 -0.18276978 0.04627861 0.16994102 -0.20242772 0.18786287 -0.2609745 -0.1537255 -0.3871523 0.20151523 -0.1665696 -0.24859715 0.056964315 -0.47537053 -0.057137106 -0.1986971 -0.20156686 -0.021097675 -0.04867786 -0.005643503 0.005898756 -0.1779686 0.050018333 0.15618518 0.34667742 0.31552777 -0.07873931 -0.16751198 -0.18544894 -0.23947428 0.34805912 0.0965191 -0.3337011 -0.14528798 0.058814526
37 0.1996393 -0.20142673 0.095998555 -0.0720363 -0.14046241 -0.47296247 0.038005084 0.35392755 -0.072380766 0.06051663 0.6327111 -0.08966005 -0.36343592 -0.093141064 -0.061338134 0.06403749 0.44281015 -0.25668773 -0.27246004 0.16907676 -0.12205641 -0.16624941 0.37492284 0.059959102 0.20877917 0.31970072 0.3616119 0.25851557 0.13818237 -0.018722013 -0.09554015 0.030344822 -0.016858708 -0.40425044 -0.07740861 -0.4475016 -0.14867316 -0.7397879 0.07014208 -0.13592096 -0.18838024 -0.11235564 -0.45725414 -0.12376185 -0.14591224 -0.057765044 0.3363559 -0.26968503 0.09121037 0.2222684 -0.23313902 -0.22650033 0.4348348 0.3164333 0.6145022 -0.2657336 -0.028216973 -0.063223414 -0.052586846 0.46913046 0.08209315 -0.12812746 -0.22766063 0.17774037
4 0.16886973 -0.3154129 -0.12263054 0.10117404 -0.11013865 -0.57085395 0.13446485 0.48438713 -0.22273812 0.24109419 -0.08624388 -0.274849 0.105445474 -0.060819276 0.22162747 -0.12108727 0.17839643 0.0749063 -0.14289154 -0.0693181 0.0028733367 0.4434983 0.30038315 0.11293253 0.42267418 0.19637795 0.09956808 0.18448405 0.2606479 0.125469 -0.39884853 0.19124529 -0.29689273 0.10743082 0.0009880838 -0.050498527 0.013670003 -0.17205024 0.18746105 0.07626974 -0.30053455 -0.14136866 -0.04138125 -0.083633006 -0.093813725 0.038196694 -0.16180408 0.032256313 0.28372788 0.11691329 -0.28209227 -0.03850728 0.26150775 0.5060739 0.40504724 0.2310652 -0.21836844 -0.39871326 -0.1964371 0.23730269 0.0025412084 -0.18392295 0.2730935 0.100774236
5 0.13887261 -0.093114555 0.19684468 -0.16729757 -0.11914591 -0.58795345 0.045726184 0.36093536 -0.4415673 0.25319973 0.35248947 0.08533946 0.05593703 -0.20614465 0.44140458 -0.26624772 0.3205304 -0.00806179 -0.036495674 -0.14040148 -0.24811807 0.47030082 -0.012787009 0.11787881 0.40114108 0.34333515 0.19971174 0.23938774 0.18281074 -0.17728047 -0.16907808 0.058128078 -0.11134739 -0.079674676 -0.010435387 0.12642646 0.25612283 -0.24732926 0.019236062 -0.11058659 -0.58089316 -0.24057716 -0.2393515 -0.16468032 -0.004546555 0.07802994 -0.025401149 -0.14247118 0.056494813 0.24271056 -0.22697824 0.15433693 0.12574364 0.38253063 0.2724078 -0.032034032 -0.12903664 -0.31374955 -0.24570543 0.53512716 -0.24838509 0.00029861165 -0.1249915 0.012737573
14 0.16017665 -0.091219574 0.20730706 -0.24275798 -0.046633095 -0.556984 0.0158954 0.34379527 -0.45029417 0.18940909 0.34797078 0.099791385 -0.012474725 -0.24623954 0.4028028 -0.2804036 0.31065938 -0.028134583 -0.05472781 -0.14491887 -0.23320575 0.40877494 -0.029594716 0.09194969 0.40238026 0.35464254 0.18914382 0.1642212 0.15196331 -0.1767734 -0.12195643 0.08543495 -0.08081197 -0.0905462 -0.0006721302 0.114488445 0.2647502 -0.19273919 -0.045994528 -0.17304157 -0.5807606 -0.22486672 -0.23776197 -0.1691512 -0.040154498 0.05706081 -0.017555723 -0.2085539 0.046614345 0.22442001 -0.27421707 0.14784732 0.19771229 0.393601 0.26384512 -0.06231025 -0.10511829 -0.28102344 -0.29359254 0.5138232 -0.29223925 0.0150588155 -0.21287511 -0.024114048
30 0.16097656 -0.27466655 -0.03306028 0.057290982 -0.02502851 -0.48231396 0.07154659 0.38994876 -0.19293433 0.22657824 -0.088023074 -0.21462439 0.10263883 -0.0025816206 0.24688129 -0.085809916 0.059166897 0.08631462 -0.122688286 -0.02294715 0.027527561 0.38428137 0.32051578 0.09077792 0.40480173 0.22107941 0.032394618 0.09047208 0.14312027 0.07180657 -0.31413716 0.16397555 -0.28124398 0.13406011 0.031722683 0.030587139 0.04587182 -0.040582597 0.15821587 0.052705843 -0.31090814 -0.044694375 -0.011719789 -0.16599113 -0.09826545 -0.01989124 -0.13353002 0.020498917 0.22418669 0.111903645 -0.23389629 -0.018655395 0.23158151 0.45550922 0.35856423 0.3153911 -0.1508413 -0.35855368 -0.22208647 0.19762665 -0.046229206 -0.2073219 0.20974503 0.05660295
13 0.18261945 -0.33447698 0.04154175 -0.048801284 -0.13593233 -0.5782927 0.026732974 0.42997953 -0.046026096 0.16086872 0.6814071 -0.10773502 -0.33233574 -0.16527626 -0.096294 0.10265864 0.57736343 -0.24073093 -0.25836772 0.15815328 -0.08697495 -0.108754225 0.47820085 0.15764476 0.30404183 0.3675347 0.4352179 0.3242456 0.21547909 -0.03172508 -0.060153812 0.08043861 0.022748401 -0.3919885 -0.11535903 -0.5015062 -0.19235125 -0.9487465 0.15918522 -0.11229231 -0.17430711 -0.16202429 -0.5110243 -0.04971838 -0.14173625 -0.032399006 0.35885295 -0.22663493 0.13139631 0.25497115 -0.31796753 -0.3677606 0.49267742 0.3432329 0.6238235 -0.235371 -0.12802018 -0.18474732 -0.0032901631 0.4671486 0.1805313 -0.0140707465 -0.19654946 0.3063804
26 0.16737592 -0.18553346 0.3492922 0.07423314 -0.029558403 -0.2853099 0.06169548 0.14502244 -0.042874817 -0.17073716 0.56899613 -0.17713793 0.06045781 0.09908754 -0.12532187 -0.05875455 0.06064853 -0.093279704 -0.4552556 0.20899434 0.2717159 -0.19651917 0.14851242 -0.03597642 -0.029890189 0.28417683 -0.049672585 -0.03728348 0.0681776 0.028345976 -0.19168285 0.021751013 0.20357092 -0.32754013 0.18180889 -0.35691825 -0.20482537 -0.52740633 0.20922586 -0.1921382 -0.23375091 0.06771723 -0.60182685 -0.08507026 -0.20355144 -0.16829571 0.023515074 -0.10852806 0.025424467 0.0025334046 -0.16303419 0.0766785 0.15593612 0.3557212 0.3478885 -0.22359332 -0.16939268 -0.13780357 -0.21665268 0.45785105 0.12278331 -0.39022186 -0.2055234 0.10481373
