24 64
6 -0.00923582 -0.10744312 0.3247519 0.13361394 -0.15899949 -0.33205473 0.04853165 0.19156682 -0.105995566 -0.17260435 0.3128547 0.036951907 0.056445915 0.14428608 -0.07824357 -0.0076138014 -0.12120887 0.13424182 -0.063114785 0.14100933 0.21477602 0.11811972 0.2615874 -0.021579886 0.05815231 0.23806243 -0.32413477 -0.008155533 -0.23994888 -0.08887685 -0.07364054 -0.033975717 -0.10820733 -0.25015837 0.14480199 0.061601594 0.16369022 0.083961315 0.3122934 -0.038052905 -0.0025333888 0.23070471 -0.0067582875 -0.18358889 -0.0350126 -0.19203779 -0.046150707 0.003966841 0.09609869 0.042132497 0.11631523 0.10421926 -0.057267517 0.17190427 0.28201365 0.20746154 0.19618662 -0.21129432 -0.06866762 0.010505301 0.03477069 -0.20008203 -0.29120862 -0.059365354
4 -0.023010379 -0.11282882 0.31009445 0.13435008 -0.14258797 -0.3226777 0.048273157 0.18323703 -0.10612683 -0.1911331 0.30619687 0.047098573 0.07192254 0.11349408 -0.07416738 -0.03204005 -0.12415856 0.13501708 -0.032288015 0.16082594 0.19059852 0.11360507 0.2618902 -0.03547959 0.053390987 0.25406745 -0.30026454 -0.0011309288 -0.19898713 -0.08948797 -0.04423446 -0.039057318 -0.14182556 -0.25161573 0.14029549 0.0855848 0.12036144 0.09319062 0.325792 -0.01434857 0.039201014 0.19688824 -0.004379599 -0.16863851 -0.02531652 -0.19155999 -0.029962413 -0.034899484 0.077661835 0.02853035 0.13042508 0.108002536 -0.038428586 0.19590059 0.25643364 0.1835818 0.16715117 -0.2141928 -0.04114819 -0.012092647 0.05387885 -0.19148064 -0.28483248 -0.03450107
16 -0.02454508 -0.10814134 0.31875104 0.1186282 -0.1358798 -0.33253986 0.04743471 0.1781983 -0.09325111 -0.16486536 0.30750188 0.060803253 0.07509681 0.0999163 -0.08134406 -0.016925868 -0.12425102 0.14487284 -0.027274512 0.14958395 0.1977037 0.11458266 0.25933304 -0.04616336 0.05836616 0.24739742 -0.2964801 0.013662496 -0.18275777 -0.07676124 -0.05547492 -0.03574216 -0.14193939 -0.23671116 0.12809302 0.07198466 0.1364438 0.09505745 0.32754853 -0.036651615 0.035537817 0.21353517 -0.009532853 -0.18462744 -0.006095273 -0.16597927 -0.02997525 -0.035552513 0.07447438 0.017251821 0.13161051 0.09141631 -0.0631375 0.1914598 0.26378226 0.16689247 0.15558548 -0.20421772 -0.050708093 -0.015814286 0.04478159 -0.199547 -0.2752251 -0.043780338
17 -0.020238845 -0.13481875 0.31359252 0.13555695 -0.13220839 -0.3418602 0.028996166 0.18470712 -0.109221116 -0.17864971 0.29631242 0.04767172 0.07505447 0.12423906 -0.07453054 -0.014647009 -0.13718691 0.14546421 -0.045052316 0.15485646 0.21897225 0.1167684 0.26944497 -0.042345796 0.07057553 0.26470202 -0.32013434 -0.0063744546 -0.21311726 -0.09891973 -0.06372217 -0.06387606 -0.12173576 -0.25939992 0.1545053 0.09164401 0.12393054 0.096813105 0.3378483 -0.036120296 0.018032314 0.20654617 -0.017336633 -0.18375191 -0.016978864 -0.17799449 -0.027578538 -0.028615024 0.080420166 0.021954184 0.12852037 0.11231445 -0.042708155 0.19976588 0.27053475 0.1782809 0.15187196 -0.21202423 -0.048685677 -0.0034633565 0.032439314 -0.21337402 -0.30021012 -0.051271636
3 -0.031337313 -0.12310103 0.28638408 0.10795077 -0.12510543 -0.33335754 0.056542862 0.16553785 -0.12740448 -0.1596127 0.30965215 0.0686545 0.03407894 0.122511245 -0.053201713 -0.010713127 -0.112796 0.13369939 -0.039376166 0.16810021 0.21493629 0.10073972 0.24350263 -0.027261687 0.06531315 0.21639717 -0.31200135 -0.0058132885 -0.18557589 -0.10736055 -0.07231706 -0.05903502 -0.106809035 -0.2352605 0.13270512 0.09392894 0.15342079 0.080179356 0.3215473 -0.006517341 0.05316392 0.20926847 0.011018106 -0.18784937 -0.03393412 -0.15812248 -0.02876403 -0.03518781 0.099776015 0.010905616 0.12932758 0.10739592 -0.025150388 0.16406402 0.2824712 0.19838712 0.16514231 -0.2166395 -0.029012123 -0.0032540383 0.06728645 -0.20841126 -0.2851432 -0.023126703
11 -0.019310363 -0.12149185 0.31782773 0.14162943 -0.14910465 -0.31799448 0.051861808 0.17636827 -0.10043828 -0.17390089 0.29403898 0.040181868 0.050919797 0.10599786 -0.061149463 -0.0027870855 -0.10470865 0.12203967 -0.050957486 0.16796443 0.20095111 0.119892135 0.2574124 -0.035865705 0.07089444 0.2439148 -0.28863686 -0.0034162945 -0.20022821 -0.09018362 -0.047011487 -0.048275948 -0.14349256 -0.2560536 0.12469925 0.07918591 0.13206632 0.101390235 0.32448974 -0.031681832 0.027395919 0.208913 0.0076999613 -0.17474663 -0.007913834 -0.1853448 -0.029955326 -0.0132836895 0.08092733 0.0038788915 0.1325632 0.09105266 -0.0488961 0.20043221 0.25205618 0.16605075 0.14455014 -0.18931355 -0.058429368 0.0032707753 0.03286314 -0.1831283 -0.26718858 -0.03680409
23 -0.025927525 -0.117926344 0.32206306 0.13038823 -0.13952775 -0.3396167 0.027293842 0.16287106 -0.106383145 -0.18209332 0.31243497 0.04784098 0.06541766 0.098866254 -0.072694205 -0.031204846 -0.13309057 0.1305433 -0.048102826 0.1451975 0.20233206 0.11580166 0.2522699 -0.025739279 0.05020479 0.2528237 -0.3101606 0.006666774 -0.20971821 -0.09147185 -0.07011542 -0.054561943 -0.13411766 -0.22774835 0.14711004 0.071363226 0.1348763 0.07478171 0.3251524 -0.0044214353 0.031959176 0.20392953 -0.006615057 -0.16988753 -0.03249445 -0.17465025 -0.018722996 -0.02434787 0.08723944 -0.00090042414 0.13683714 0.08688896 -0.050817546 0.19018963 0.26264653 0.18385082 0.16250724 -0.21895748 -0.06640376 0.016369194 0.057011567 -0.207047 -0.26596624 -0.036858294
18 -0.0129620405 -0.13140291 0.32018653 0.1324496 -0.124688014 -0.3371963 0.039029133 0.16010039 -0.12480848 -0.19478574 0.30072692 0.038105927 0.06366776 0.105276406 -0.06396318 -0.019142311 -0.12799844 0.12963186 -0.023996785 0.16875444 0.19674265 0.122916706 0.24676417 -0.02041361 0.05759373 0.24935369 -0.30012038 0.0072241365 -0.20366296 -0.07996112 -0.04863619 -0.06270295 -0.14089079 -0.25804237 0.14611314 0.07692324 0.12313541 0.07940349 0.33416533 -0.019408382 0.018390916 0.20052312 -3.951798e-05 -0.18733048 -0.011429156 -0.19059446 -0.026984645 -0.04026937 0.09757464 0.025196338 0.12959862 0.104854025 -0.05881128 0.19078419 0.2657019 0.16913906 0.14579311 -0.21177603 -0.04280189 0.0063854563 0.03565681 -0.21033007 -0.28654635 -0.043126248
20 -0.036659006 -0.1287828 0.28372845 0.09875203 -0.13908304 -0.3244321 0.037418175 0.16000634 -0.12250655 -0.16890402 0.29736966 0.06740748 0.035085328 0.10665551 -0.05459207 -0.032637987 -0.11334594 0.13760468 -0.026568383 0.13321006 0.18499489 0.082568295 0.23889442 -0.012670017 0.06940473 0.23362291 -0.28173345 -0.009806197 -0.16827977 -0.10493689 -0.07302142 -0.050566245 -0.11625736 -0.23412532 0.13391858 0.091883786 0.1336927 0.08203784 0.3048111 -0.03270545 0.048375912 0.2127822 -0.015516627 -0.1644179 -0.004220663 -0.17950015 -0.038259234 -0.041654 0.10056475 0.017492339 0.13578166 0.0810275 -0.032227594 0.17665441 0.25856808 0.18660714 0.14177066 -0.21490304 -0.03921889 0.009204493 0.06020124 -0.1834239 -0.26905197 -0.023609553
7 -0.0364301 -0.09482172 0.2654909 0.10623959 -0.108170114 -0.29883245 0.044649303 0.13263306 -0.09931537 -0.16465685 0.2532947 0.06383288 0.040015657 0.10777373 -0.040894456 -0.0006727468 -0.11885152 0.1117691 -0.017547341 0.14222783 0.17367063 0.07325718 0.22255524 -0.034130078 0.06476378 0.20011379 -0.2705873 -0.004719273 -0.1722784 -0.08391363 -0.049673263 -0.040015947 -0.11151445 -0.20975797 0.13388719 0.07467812 0.12511551 0.09279182 0.26449478 -0.020541344 0.04607127 0.19707966 0.0015093026 -0.1694005 -0.017545473 -0.15623426 -0.013203232 -0.023009466 0.08271274 0.0200263 0.108103804 0.07743879 -0.034609105 0.15250197 0.24783698 0.18573304 0.14280963 -0.17696178 -0.051781286 0.0014778125 0.03218494 -0.18975404 -0.25188586 -0.046431273
0 0.009190796 -0.11115614 0.3464434 0.10226918 -0.14070643 -0.30513015 0.018571032 0.14912133 -0.10823237 -0.17507747 0.3130617 0.02363401 0.043008085 0.1426167 -0.09194819 -0.026876038 -0.13594738 0.11099544 -0.06453584 0.13932979 0.21023321 0.0925275 0.2729941 -0.015197904 0.041786175 0.25540093 -0.34599522 -0.031469733 -0.2515666 -0.09790146 -0.07227212 -0.018006258 -0.13026229 -0.22887495 0.17175099 0.048497878 0.1530767 0.10734858 0.30827552 -0.0111672105 0.032191955 0.21926597 -0.0153700095 -0.19104418 -0.04848144 -0.21504016 -0.021955919 -0.018531613 0.07543057 0.024317894 0.12720512 0.1018467 -0.052565757 0.16465999 0.2804619 0.22574963 0.2165159 -0.21996962 -0.063804 0.0071520736 0.056622297 -0.21556811 -0.26357156 -0.028432054
5 -0.028318102 -0.104110524 0.29783127 0.10956004 -0.13925754 -0.31359324 0.034840487 0.15220158 -0.09031752 -0.1695123 0.27854407 0.048355814 0.05918104 0.105027065 -0.07591528 -0.03485753 -0.113943085 0.13050346 -0.035261884 0.12312373 0.1726206 0.1094054 0.229759 -0.01644592 0.042671863 0.23865639 -0.2938499 0.0012278511 -0.19029112 -0.10068654 -0.06543438 -0.045128364 -0.12899776 -0.22230417 0.11946668 0.07646955 0.14192487 0.07973299 0.2900943 -0.012750902 0.047622558 0.1828296 -0.01845347 -0.17222296 -0.004694668 -0.16512454 -0.043049153 -0.025838217 0.094906025 -0.0001533025 0.10805622 0.10471485 -0.056786224 0.17762123 0.25019112 0.18194076 0.16544384 -0.19812277 -0.057163443 0.017716434 0.0470892 -0.17554148 -0.26635325 -0.020483477
22 -0.029394746 -0.12572469 0.3160777 0.12489309 -0.13424408 -0.3351763 0.034734752 0.16951132 -0.09606021 -0.19085522 0.3076974 0.038683683 0.04192049 0.109328955 -0.08296413 -0.021820286 -0.118540786 0.12786366 -0.029660145 0.16428337 0.21342596 0.10534278 0.2587097 -0.03462395 0.04682009 0.25361192 -0.30524406 -0.0013248451 -0.19764039 -0.108003736 -0.06122436 -0.057253808 -0.14485754 -0.22586389 0.14385124 0.097309954 0.1494494 0.09307779 0.3333484 -0.024026748 0.032331258 0.21089858 -0.0030386911 -0.18939684 -0.0015074525 -0.18137091 -0.017641079 -0.029400645 0.078681305 0.00660903 0.113457 0.09219738 -0.042583067 0.2055551 0.2844411 0.17046073 0.16525708 -0.21054582 -0.05521523 -0.010624393 0.05380562 -0.2115743 -0.26209396 -0.04509347
12 0.0019336105 -0.088621944 0.31813496 0.12073022 -0.14280702 -0.301669 0.03812997 0.1471323 -0.10416515 -0.16234899 0.30168498 0.036342215 0.053159744 0.123318024 -0.07282869 -0.008151285 -0.13198814 0.1168658 -0.047824398 0.14991763 0.20198232 0.09225407 0.25858557 -0.024042575 0.052757535 0.23891371 -0.30791563 -0.028603056 -0.23158067 -0.09519035 -0.051387023 -0.035571642 -0.13801664 -0.2347274 0.14418726 0.07487013 0.12209362 0.09824882 0.29162386 -0.021089064 0.032081258 0.22883964 -0.018449556 -0.19603395 -0.045143265 -0.20522924 -0.05128164 -0.0191438 0.08237508 0.011880967 0.13764991 0.100804426 -0.03566673 0.16878884 0.27047384 0.19194949 0.17966239 -0.19602731 -0.06293368 0.0011072359 0.04493321 -0.20174137 -0.25322497 -0.026918544
19 -0.024421068 -0.11189347 0.31928688 0.10611209 -0.14685813 -0.35328898 0.030501634 0.18616663 -0.123778515 -0.19011301 0.30390388 0.070724405 0.042406823 0.116046935 -0.059459534 -0.02381633 -0.1278926 0.139441 -0.041569676 0.17359176 0.21521038 0.08200776 0.26618946 -0.037943225 0.065717146 0.24833733 -0.32463264 -0.011653452 -0.1845287 -0.11047129 -0.0822985 -0.035470907 -0.12642069 -0.2527095 0.16282764 0.09581562 0.15411666 0.10558171 0.30972254 -0.011336556 0.045870785 0.22648135 0.0025833878 -0.17609794 -0.01623064 -0.17104432 -0.035051595 -0.041149516 0.09667545 0.023983914 0.12802444 0.1104461 -0.030895554 0.19388041 0.28601134 0.2171084 0.16498038 -0.20484036 -0.038260978 -0.013726164 0.049203794 -0.21390311 -0.28059685 -0.037434988
21 -0.011890009 -0.08691349 0.3164202 0.10655159 -0.14117818 -0.3056744 0.023183703 0.13871524 -0.09312664 -0.1679795 0.28968322 0.04604682 0.04582599 0.10487494 -0.06698137 -0.025198434 -0.11596626 0.11080935 -0.034446683 0.14185652 0.19655545 0.09119278 0.23695034 -0.008051713 0.049264688 0.21812214 -0.31209213 -0.013179855 -0.19828908 -0.076212704 -0.07679596 -0.020428056 -0.11082984 -0.21016993 0.15718745 0.05027172 0.11674359 0.09707204 0.30549055 -0.014793553 0.034200158 0.20162593 0.006967307 -0.1905522 -0.045931883 -0.19184464 -0.03898861 -0.008350959 0.07353431 0.007149903 0.13371333 0.08675245 -0.030740382 0.15303668 0.26148087 0.20063794 0.17696892 -0.19959544 -0.04857608 -0.012635168 0.035417873 -0.19351034 -0.24527083 -0.044063237
1 0.0004523002 -0.0922626 0.29708952 0.09030645 -0.11887276 -0.2832732 0.022319887 0.1827583 -0.06787613 -0.120081924 0.2876879 0.037388314 0.073790245 0.14837858 -0.08081962 0.018519977 -0.12284548 0.1254005 -0.06869197 0.1651795 0.18459268 0.081537105 0.22466871 -0.01883307 0.025225885 0.22395623 -0.32824293 -0.037267007 -0.25584176 -0.059106864 -0.0425671 -0.015661357 -0.114245705 -0.22514147 0.16738084 0.05218344 0.13042015 0.08011613 0.2897766 -0.041242972 -0.039243538 0.23797034 0.0039614523 -0.1741844 -0.040866308 -0.20205782 -0.02277987 0.024435312 0.077491395 0.06784127 0.12385514 0.11165267 -0.043093126 0.11718633 0.24455109 0.24535626 0.21054049 -0.15524147 -0.047652148 0.0005576747 0.0035286194 -0.18266408 -0.2894148 -0.048457723
2 0.0015388675 -0.086872205 0.29582933 0.104771964 -0.1275677 -0.27457845 0.021260759 0.14683902 -0.076796465 -0.16074169 0.27525726 0.023216432 0.065616444 0.12629534 -0.06176148 -0.0045214756 -0.11063144 0.101674855 -0.043308515 0.1445805 0.17326818 0.08470241 0.23307149 -0.0153279565 0.041723266 0.21031256 -0.27592254 -0.02327007 -0.20233975 -0.0895416 -0.06606205 -0.04332167 -0.117808774 -0.22364351 0.13726342 0.046026543 0.11023782 0.07167446 0.26383722 -0.010917754 0.027158042 0.19521545 -0.0077411137 -0.17615871 -0.030247748 -0.16931948 -0.03100189 -0.013972645 0.07739284 0.02104004 0.10134673 0.07860637 -0.054445133 0.14900328 0.24472874 0.19670086 0.16044764 -0.18698777 -0.035910312 -0.0015499165 0.03328521 -0.16582689 -0.24011989 -0.044849075
13 0.01457777 -0.085342176 0.27880445 0.10045154 -0.13055228 -0.2762002 0.02926197 0.16375604 -0.08351854 -0.13847882 0.27283743 0.024631377 0.051436875 0.15017073 -0.05176209 0.024004612 -0.1300621 0.12541874 -0.056888543 0.15999183 0.19167465 0.10514947 0.23042446 -0.007166481 0.029070644 0.23560402 -0.3109519 -0.034458935 -0.2318087 -0.053060688 -0.067427464 -0.02262246 -0.09710787 -0.21850269 0.13345854 0.040270157 0.16039097 0.100165084 0.28477985 -0.048314415 -0.023903826 0.22523323 0.023585651 -0.17037538 -0.052126974 -0.18605256 -0.042433638 -0.0030848724 0.07726877 0.03126026 0.13342409 0.07345249 -0.0431917 0.15155071 0.2458802 0.23116001 0.2024078 -0.18394586 -0.07312137 -0.020758474 0.0102617415 -0.18863614 -0.27589974 -0.06251112
9 0.0165074 -0.09035833 0.30500054 0.0876257 -0.13757208 -0.2799884 0.028325005 0.1968265 -0.07863783 -0.11254751 0.26088822 0.03942243 0.069213726 0.17175153 -0.082622476 0.02810381 -0.1174096 0.12642822 -0.07036536 0.13736615 0.18103145 0.079437934 0.22844985 -0.013348903 0.030146789 0.23292954 -0.3281098 -0.04391792 -0.26808798 -0.073449515 -0.032502595 -0.016480308 -0.11314848 -0.21134034 0.16867283 0.030529361 0.15042672 0.07772515 0.28213167 -0.05801304 -0.038610466 0.23966339 0.03469629 -0.14698859 -0.06591868 -0.20802447 -0.017577585 0.020452863 0.075498454 0.060480185 0.13612545 0.09305447 -0.067303106 0.12582561 0.2566103 0.25556996 0.21614382 -0.17171496 -0.06353358 -0.014416304 0.022425588 -0.19876744 -0.29496905 -0.054033272
14 -0.015313086 -0.08132162 0.268535 0.11378356 -0.12913933 -0.27064088 0.044078823 0.14959757 -0.091452494 -0.1318079 0.2589102 0.025738565 0.066205814 0.10973992 -0.05375645 0.007267258 -0.09377681 0.123512626 -0.03315767 0.15025502 0.15907812 0.10844504 0.20095627 -0.023725288 0.030775765 0.20294994 -0.2940547 -0.032300137 -0.21292926 -0.06879247 -0.058883637 -0.01440134 -0.121027924 -0.21513872 0.14567307 0.06483334 0.14357959 0.08975189 0.26568875 -0.047816634 0.0061068637 0.20477514 0.02070343 -0.14202516 -0.018399062 -0.15239918 -0.04611188 -0.0152514465 0.07619273 0.04336894 0.123263046 0.09189989 -0.03274355 0.13259569 0.241135 0.18520561 0.1505334 -0.15151644 -0.05348081 -0.012711169 0.019572616 -0.17818391 -0.2409153 -0.035952106
10 -0.0009122526 -0.1107048 0.28072175 0.0951187 -0.11431725 -0.2871078 0.029183947 0.16909388 -0.0960342 -0.13174565 0.26645795 0.037372172 0.07022936 0.13302569 -0.071197614 0.021680212 -0.10701035 0.13093354 -0.044057198 0.15962917 0.19776222 0.088093854 0.23624896 -0.010491233 0.049134243 0.21362275 -0.30448472 -0.034823176 -0.2369491 -0.060814653 -0.032479506 -0.006219337 -0.109736204 -0.2056545 0.1523904 0.04485971 0.13772604 0.07462432 0.29139212 -0.028499614 -0.0046075783 0.22152269 0.024989782 -0.14674303 -0.039213464 -0.19706039 -0.013288449 0.013113727 0.08305593 0.04096495 0.107915096 0.08540014 -0.03363692 0.12995456 0.23026258 0.22914296 0.19565777 -0.15324382 -0.05206991 -0.020667048 0.03760304 -0.18828452 -0.2567411 -0.03881304
15 0.0162591 -0.111114465 0.29354617 0.081981055 -0.13323437 -0.29210484 0.022786798 0.17656802 -0.07049552 -0.1385704 0.27031755 0.027269004 0.07373347 0.14121453 -0.0638828 0.0035698293 -0.12308354 0.12644301 -0.04655171 0.13974996 0.19480464 0.08477891 0.20544729 -0.021940006 0.040996548 0.20231223 -0.30382034 -0.039054338 -0.20349066 -0.0538151 -0.04777636 -0.009252881 -0.09228286 -0.21376258 0.15171745 0.057770718 0.14063029 0.0940535 0.26770586 -0.040746745 -0.005658722 0.21662833 0.016866706 -0.14757997 -0.030474463 -0.19257994 -0.03223474 -0.010818812 0.09290625 0.048759505 0.11605585 0.09619048 -0.056829166 0.12508574 0.24133185 0.21820846 0.18452296 -0.15801074 -0.055905208 -0.0144666135 0.025314348 -0.1834014 -0.27018887 -0.056828413
8 0.00732091 -0.0952808 0.2836803 0.091112725 -0.115677916 -0.28682533 0.03690643 0.16474853 -0.102102995 -0.14548273 0.27911854 0.017842643 0.06340532 0.13065247 -0.050115883 0.0073573105 -0.11923271 0.10644939 -0.03439732 0.14461951 0.19415306 0.10883948 0.22949918 -0.028927471 0.04122842 0.23358558 -0.30742282 -0.0030222894 -0.22460903 -0.0675984 -0.057003815 -0.013284277 -0.11722929 -0.22525468 0.12608473 0.063564084 0.13264698 0.10129581 0.2704398 -0.048397258 -0.002818182 0.21941292 -0.0065698805 -0.1735194 -0.04586223 -0.16408524 -0.030721085 -0.002339327 0.075884834 0.040886875 0.10492112 0.08591473 -0.055821072 0.14785366 0.24410683 0.2153348 0.17609662 -0.19587398 -0.06744551 -0.016467934 0.034377072 -0.16460589 -0.26855 -0.029786298
