21 64
10 -0.05884697 0.0020607011 0.35452995 0.12429942 -0.12023363 -0.22425044 0.01603809 -0.014488608 -0.12564504 -0.1489143 0.34574023 0.07575379 0.009491441 -0.013228934 -0.13546889 -0.107315406 -0.11836756 0.10552027 -0.011288036 0.1434902 0.045953993 0.09289269 0.27668732 0.009383019 -0.046836857 0.3186003 -0.2737913 -0.006047139 -0.18847328 -0.15451245 -0.10521329 -0.10191647 -0.30151153 -0.18228653 0.15473448 0.02814654 0.09151367 0.061524145 0.35661846 0.040100932 0.15687102 0.1607864 -0.05436318 -0.24705215 -0.009980198 -0.14596875 -0.05539698 -0.1641389 -0.0073684156 -0.09016119 0.27003232 0.05602974 -0.031003984 0.23029503 0.29717243 0.06418359 0.10711559 -0.2804755 0.0017338148 0.024333077 0.09644975 -0.25523144 -0.13423653 0.074185885
7 -0.080445126 -0.010951992 0.3179094 0.12253967 -0.11079118 -0.22351895 0.033805646 -0.0049103308 -0.1214826 -0.13839968 0.3226303 0.09404269 0.05165721 -0.041010104 -0.12012488 -0.121585116 -0.10368858 0.12491413 0.027093856 0.13731888 0.019188436 0.111096114 0.24111798 -4.2311025e-05 -0.04062446 0.30279016 -0.2523657 0.0077997255 -0.14281826 -0.13238886 -0.07154903 -0.08987297 -0.30177897 -0.1752566 0.13647552 0.04643683 0.056365445 0.05929336 0.36349386 0.041300748 0.18809745 0.120841995 -0.032411087 -0.20452735 -0.005051539 -0.12904884 -0.05064973 -0.1809054 -0.0075359214 -0.09314659 0.27912384 0.06398321 -0.020192597 0.21919106 0.2546961 0.048243675 0.07443819 -0.26607126 0.020493718 0.0012981023 0.11234919 -0.22737686 -0.14915255 0.095985666
8 -0.0827344 -0.002600692 0.33017725 0.104852185 -0.10835191 -0.23618743 0.032466087 -0.013186394 -0.10818261 -0.11309764 0.32820094 0.10983708 0.05217001 -0.051840615 -0.12971447 -0.1108478 -0.10595654 0.13482985 0.030555246 0.118348986 0.029535154 0.11065328 0.240031 -0.0066120555 -0.03550783 0.29342875 -0.25505745 0.022255313 -0.1295658 -0.11984502 -0.08956079 -0.08120367 -0.29532757 -0.1557399 0.1259829 0.028648952 0.07691316 0.062067185 0.36411968 0.021198561 0.18805481 0.13926019 -0.04056423 -0.22480305 0.008382214 -0.106787555 -0.054242123 -0.17737633 -0.008815114 -0.10587884 0.27959365 0.04718282 -0.043834895 0.20998484 0.26646146 0.03879421 0.07317935 -0.26111346 0.006777452 2.3285815e-05 0.10601128 -0.23692068 -0.13931642 0.08559355
15 -0.0779353 -0.028345969 0.30123642 0.11488725 -0.09729324 -0.22741632 0.015327039 -0.007954713 -0.11647946 -0.11198435 0.29499245 0.09256889 0.05695562 -0.032841545 -0.11767627 -0.10423152 -0.10756251 0.1329601 0.016881894 0.11171886 0.03767494 0.11185061 0.23040159 -0.0032221081 -0.023964394 0.2950724 -0.25772154 0.0033085973 -0.14728181 -0.13407171 -0.08875669 -0.104888506 -0.26589957 -0.16754536 0.13881508 0.047391657 0.05714828 0.05687319 0.3539025 0.01554225 0.16459048 0.119464256 -0.047367558 -0.20500238 0.004504786 -0.10547746 -0.051614687 -0.1662663 -0.0041173105 -0.097570494 0.2646401 0.06458238 -0.024348319 0.20586903 0.2513875 0.037838556 0.0557024 -0.2507436 0.010622475 0.0119437985 0.08998365 -0.23180208 -0.15399532 0.0814788
20 -0.08119693 -0.023754308 0.29723608 0.10594001 -0.0987452 -0.22823025 0.040450793 -0.01304341 -0.13020247 -0.10417155 0.31766823 0.10088793 0.03185864 -0.031715386 -0.10626228 -0.100126624 -0.09044919 0.124497026 0.015805436 0.13086385 0.03999648 0.115055986 0.21794637 0.0075513 -0.030427184 0.27015567 -0.2595405 0.00834122 -0.13918059 -0.13780549 -0.09111855 -0.1056846 -0.26506948 -0.16158612 0.122011006 0.047072284 0.08106831 0.04462623 0.3588297 0.036683075 0.18271346 0.12459695 -0.021836122 -0.21462032 -0.010995137 -0.09960637 -0.05304583 -0.16833724 0.0106174825 -0.10621664 0.2715668 0.0651199 -0.02010689 0.18923706 0.26553294 0.05109668 0.070655644 -0.26188418 0.02166575 0.013562548 0.11435752 -0.23109949 -0.15312375 0.10040766
12 -0.0715927 -0.016888227 0.34035406 0.1277375 -0.12274151 -0.22032894 0.032230284 -0.013153096 -0.11689738 -0.12863031 0.31940767 0.084175326 0.022573512 -0.039404877 -0.11241041 -0.094014645 -0.090958335 0.10683133 0.0004789633 0.14644474 0.03386218 0.10973333 0.24975096 0.0022003045 -0.026383417 0.3040151 -0.25117964 -0.000859846 -0.15811236 -0.14283407 -0.07835288 -0.09841523 -0.31140387 -0.1823641 0.12829603 0.03747748 0.07493446 0.07254327 0.36180642 0.028478708 0.17859292 0.14325777 -0.025437763 -0.2194965 0.007129715 -0.13545102 -0.049360383 -0.15809831 -0.004455516 -0.11971646 0.28287873 0.04604122 -0.03311992 0.22973335 0.261206 0.044992056 0.06682401 -0.24971728 -0.0023637654 0.020668983 0.09502654 -0.22527444 -0.13130301 0.09525284
16 -0.0634281 -0.009553317 0.32757407 0.11018424 -0.1036727 -0.21786879 0.00079054636 -0.024477901 -0.11047324 -0.12968104 0.3183403 0.07788352 0.03097783 -0.039214265 -0.118528046 -0.10734331 -0.116273195 0.103444405 -0.0043951534 0.12956707 0.035742227 0.095016554 0.23712277 0.011446585 -0.049767084 0.30048865 -0.25529718 0.0015015105 -0.16527653 -0.13098316 -0.092547596 -0.098633334 -0.2886101 -0.14731272 0.14570077 0.022688 0.07192107 0.046951752 0.34166908 0.052759793 0.15930451 0.13559589 -0.035286356 -0.20555183 -0.017680522 -0.12570392 -0.03241403 -0.15760437 -0.0053987303 -0.11412331 0.2716376 0.03591296 -0.031432647 0.21104816 0.2537777 0.06081725 0.0850529 -0.25741184 -0.009274064 0.02719823 0.10350918 -0.23730986 -0.11725033 0.08300365
2 -0.056801766 -0.021210654 0.29572898 0.1067957 -0.07889168 -0.20371374 0.017153293 -0.028519748 -0.12330205 -0.1298873 0.28424764 0.06905931 0.036165953 -0.039937824 -0.1019653 -0.09460307 -0.10096463 0.10170157 0.028040633 0.13650694 0.01768071 0.10297358 0.20720156 0.015119828 -0.04151719 0.27483755 -0.2247226 0.01023325 -0.14225289 -0.110345215 -0.064091854 -0.10260318 -0.2784784 -0.16317491 0.13001196 0.029959619 0.05285937 0.04023878 0.3283755 0.035475302 0.1424512 0.1148293 -0.028508378 -0.20284845 0.007134389 -0.12112789 -0.039262123 -0.16758177 0.006933622 -0.08243527 0.24763414 0.052861594 -0.038144153 0.19471718 0.23565204 0.034300324 0.05453229 -0.23516598 0.01597058 0.018865205 0.081016205 -0.22181402 -0.1313656 0.07809389
11 -0.083375365 -0.028929232 0.28651318 0.09176932 -0.108701326 -0.21592738 0.021806967 -0.01756292 -0.12550206 -0.11401756 0.30299973 0.097701944 0.025485639 -0.041792262 -0.10148121 -0.11508426 -0.09035646 0.1227781 0.026083857 0.10205977 0.017113436 0.08722215 0.21309805 0.020795753 -0.022763874 0.2770343 -0.22527483 0.00016765158 -0.12049954 -0.13498472 -0.09029387 -0.09247242 -0.2662142 -0.15932424 0.121215075 0.04869823 0.06334673 0.04791922 0.32946244 0.014753935 0.17554086 0.1333959 -0.048708156 -0.19125922 0.017232183 -0.121694565 -0.06076549 -0.16842203 0.015106224 -0.09461462 0.26635572 0.038707472 -0.020438688 0.19527 0.23961495 0.047314327 0.052020945 -0.25177535 0.012098645 0.025053754 0.10654272 -0.20169994 -0.13232979 0.098101035
4 -0.07955789 -0.0014807502 0.31635016 0.111524805 -0.0919577 -0.2195753 0.02336495 -0.035782196 -0.11289413 -0.14074112 0.29845056 0.09669335 0.02273187 -0.025022883 -0.100609615 -0.0881311 -0.11794231 0.10038356 0.023601029 0.13821507 0.026514234 0.07663696 0.23980863 -0.0011482721 -0.028983993 0.283671 -0.24921754 -0.00093709305 -0.1528568 -0.13267569 -0.076054126 -0.09345011 -0.2892966 -0.16017166 0.14625162 0.032704003 0.06903526 0.07208475 0.32715112 0.037311837 0.18067615 0.14383113 -0.03322184 -0.22656254 -0.0039378237 -0.13022144 -0.029489322 -0.15948337 -0.0024985464 -0.09714484 0.259495 0.03833415 -0.027629867 0.20352633 0.2663077 0.072682306 0.08013232 -0.24675718 -0.0043183533 0.017904716 0.08567968 -0.2408886 -0.1363578 0.06947194
6 0.0071112975 0.025715208 0.3794873 0.07654136 -0.08615614 -0.1373573 -0.052729525 -0.065555364 -0.10146232 -0.17212161 0.33111295 0.016650863 -0.053899266 0.021469237 -0.1486163 -0.09439887 -0.15213752 0.03273908 -0.052748263 0.19533098 0.04413723 0.012975597 0.31824762 0.01501087 -0.09829151 0.35875568 -0.28000244 -0.07069205 -0.23033768 -0.17359929 -0.09944978 -0.08782257 -0.34358156 -0.15755264 0.19729233 -0.00021076415 0.0921716 0.10551441 0.3050964 0.08841813 0.14810039 0.17316023 -0.062145233 -0.26628566 -0.029451478 -0.19759394 -0.005093138 -0.18042114 -0.056738764 -0.09706715 0.25617114 0.030541798 -0.018159097 0.24556875 0.29445338 0.114092216 0.16339791 -0.26588568 0.0023168467 0.010017164 0.09006247 -0.2740387 -0.06332708 0.08145543
18 -0.08130902 -0.013392989 0.31349194 0.1024504 -0.111997716 -0.22696953 0.0226576 -0.016741857 -0.1072307 -0.12391356 0.30413863 0.09248501 0.04517686 -0.037721105 -0.12257959 -0.11935292 -0.0988394 0.12601905 0.019305421 0.10571099 0.014495928 0.11182654 0.21914296 0.015742952 -0.044230405 0.29491472 -0.25311995 0.011546252 -0.14343408 -0.1389876 -0.08887554 -0.09373618 -0.2855183 -0.16060564 0.117400475 0.03989526 0.081669174 0.049067896 0.33694708 0.035517335 0.18309878 0.1178382 -0.047806714 -0.2094923 0.01597599 -0.11414939 -0.06246787 -0.16415054 0.015300378 -0.109755516 0.2528472 0.064546905 -0.04358944 0.20655514 0.2508538 0.05681946 0.08128922 -0.25301844 0.0004441803 0.030409856 0.10153161 -0.2113809 -0.14850107 0.10066248
14 -0.0028973245 0.025514591 0.34978098 0.08057128 -0.07720095 -0.14440292 -0.046952926 -0.043164488 -0.07390119 -0.16598253 0.3146034 0.01380994 -0.050677754 0.017480211 -0.14209995 -0.06935905 -0.13789786 0.036987167 -0.034434464 0.21400753 0.056959752 0.014171133 0.29343268 0.005306908 -0.10287348 0.3376924 -0.25853452 -0.061486527 -0.21048813 -0.16332757 -0.08520603 -0.098146446 -0.33253062 -0.13998175 0.182979 0.023079982 0.09147748 0.09511234 0.30435276 0.06913875 0.11605613 0.17854354 -0.04143575 -0.26424947 -0.012302288 -0.18204106 -0.0021493505 -0.15892513 -0.055431586 -0.09344295 0.23042537 0.024169717 -0.010102348 0.24581636 0.29276735 0.09797207 0.1506009 -0.23642164 0.0011713447 -0.014520209 0.072223604 -0.26470676 -0.061180238 0.05322443
1 0.00472664 0.050210163 0.35318488 0.091960736 -0.09074272 -0.13597733 -0.0320646 -0.060602482 -0.094883166 -0.15470594 0.3213045 0.028813735 -0.039606035 0.014045027 -0.13094899 -0.07065371 -0.15024011 0.040140156 -0.040808752 0.20375748 0.043839354 0.013450784 0.30429164 0.007991231 -0.08757525 0.3383657 -0.25380585 -0.07120873 -0.22193763 -0.1667639 -0.07879287 -0.09692339 -0.34146145 -0.16077611 0.1728444 0.020538438 0.06702525 0.09708949 0.28728777 0.07765024 0.14213327 0.18811904 -0.060500775 -0.27179733 -0.03850629 -0.19275539 -0.03505018 -0.1700903 -0.047377266 -0.10434045 0.2635819 0.03285584 -0.0018263634 0.23962916 0.2871597 0.09751699 0.14337692 -0.24181071 -0.0011952762 0.0006515682 0.07874107 -0.26123813 -0.061345525 0.07914216
3 0.0039901063 0.050882515 0.39161578 0.08104113 -0.100747116 -0.16393752 -0.05702688 -0.040548228 -0.09948185 -0.1856586 0.33969092 0.036601886 -0.0499454 0.015537759 -0.14032464 -0.08541214 -0.15978996 0.045824938 -0.05192111 0.23545043 0.054079976 0.0013855963 0.33357787 0.0023564342 -0.09936781 0.3719257 -0.2904941 -0.0723915 -0.21943699 -0.18070772 -0.111981414 -0.087955765 -0.35774854 -0.17904782 0.20881712 0.017215697 0.09476764 0.1155289 0.30695352 0.092812575 0.14408946 0.19921966 -0.05229754 -0.27892336 -0.02418076 -0.18899287 -0.024436513 -0.18597728 -0.05215022 -0.09598302 0.26474303 0.041286923 -0.0050623966 0.2685452 0.31278992 0.13296308 0.15997736 -0.25415733 0.012175871 -0.01248509 0.07250669 -0.28336418 -0.070595734 0.06912912
19 -0.06035167 0.00858012 0.29312447 0.090566374 -0.09916853 -0.18979512 0.0044335597 -0.034536947 -0.0948292 -0.120040916 0.2735993 0.07922888 0.014306354 -0.040408526 -0.097967856 -0.098368436 -0.089065135 0.08551928 0.018325277 0.12041127 0.031450737 0.074030116 0.20548414 0.020043477 -0.0363125 0.24795443 -0.23086934 -0.0028011966 -0.12514634 -0.110017285 -0.090024896 -0.06841299 -0.24598753 -0.12840845 0.13659234 0.016496275 0.048689134 0.06266961 0.30854064 0.03932552 0.15659823 0.11685298 -0.018337933 -0.20484851 -0.016159544 -0.12303708 -0.046711437 -0.1346575 -0.010998879 -0.101992175 0.24365932 0.03496945 -0.009292389 0.17597179 0.23285928 0.06058027 0.076372005 -0.22351968 0.009025331 -0.0015684884 0.07778048 -0.20466238 -0.0989764 0.06709321
5 -0.015709765 0.04117309 0.3495764 0.080099836 -0.0782215 -0.14224307 -0.041831505 -0.04416953 -0.07625694 -0.1457233 0.32909673 0.03888154 -0.031384237 0.0136113735 -0.14087267 -0.07749954 -0.14367361 0.046784814 -0.04966917 0.20960668 0.03353746 0.012270387 0.28994352 0.008957953 -0.10014281 0.33378 -0.26934317 -0.06054074 -0.22067595 -0.15594694 -0.08887404 -0.09413902 -0.3305496 -0.16189362 0.18727544 0.016841497 0.06792578 0.084964 0.30302438 0.07727756 0.11868236 0.18136759 -0.06281785 -0.27171218 -0.021995956 -0.18207365 -0.0169598 -0.15060116 -0.049470097 -0.07846761 0.2528781 0.047071755 -0.0033248258 0.21991166 0.27884632 0.116984874 0.15328822 -0.23387684 0.016872758 0.012849511 0.05914373 -0.24876007 -0.08572535 0.07127883
0 -0.007585497 0.029873947 0.35079548 0.09091346 -0.09107885 -0.14930749 -0.035567373 -0.041051153 -0.07878065 -0.15967251 0.3169309 0.026556253 -0.007431634 0.017418073 -0.12366406 -0.073572226 -0.12946053 0.0469465 -0.031301033 0.19344375 0.033700075 0.030534297 0.28541517 0.0142597305 -0.08057202 0.315924 -0.24488845 -0.05550662 -0.19940296 -0.16185172 -0.09587408 -0.10593846 -0.31903085 -0.16965406 0.16896547 0.0029892891 0.061462473 0.07093587 0.2921674 0.07748048 0.14454657 0.16258445 -0.050165262 -0.25738 -0.01975466 -0.16402937 -0.023890195 -0.16065826 -0.03467316 -0.094725765 0.23549399 0.025230523 -0.027774628 0.22470509 0.2755197 0.105295524 0.12473756 -0.24629399 0.020230269 0.0036063606 0.07414452 -0.23269983 -0.08016727 0.061422814
13 -0.0006234194 0.036042526 0.32699743 0.08408543 -0.086662196 -0.14094815 -0.033524137 -0.047274414 -0.08788485 -0.15076718 0.31012893 0.030670926 -0.039438106 0.022243481 -0.11352069 -0.06522761 -0.14664064 0.054618925 -0.039259892 0.20124754 0.045892306 0.035633802 0.28379232 0.021539927 -0.09045302 0.33139324 -0.25663242 -0.059040934 -0.20052424 -0.13723232 -0.10171986 -0.09347848 -0.29877257 -0.15362282 0.15917909 0.0023662017 0.09312784 0.09585066 0.30137047 0.06424304 0.11926827 0.17078067 -0.0342131 -0.2561921 -0.036476497 -0.17214495 -0.030487418 -0.1634155 -0.04218443 -0.09970511 0.2585147 0.017003773 -0.0058730766 0.2336348 0.27136987 0.11373519 0.14992645 -0.24910602 -0.0039466475 -0.009173722 0.06265922 -0.2508926 -0.08719009 0.052743603
9 -0.06387085 -0.0042820736 0.30794 0.0986584 -0.105996944 -0.20005886 0.01809238 -0.0054224143 -0.108207904 -0.10841091 0.27955005 0.09313201 0.02544316 -0.01589986 -0.11966618 -0.09480376 -0.09680636 0.10465353 0.0024361191 0.10899723 0.015507921 0.07838984 0.22481905 0.00864828 -0.04047601 0.28680313 -0.23996094 -0.0033322764 -0.15708973 -0.14313512 -0.068048045 -0.09885992 -0.27941963 -0.14529008 0.13900036 0.02154813 0.0687524 0.044745773 0.32399836 0.027324507 0.15490213 0.12900345 -0.020352406 -0.19041069 -0.017903892 -0.1257699 -0.032755304 -0.15256386 -0.0089031495 -0.09405458 0.2657315 0.04472708 -0.04059556 0.19875003 0.2531518 0.06305396 0.07969542 -0.24833153 0.005750317 0.014418771 0.09938987 -0.22800677 -0.137669 0.081249885
17 -0.06425492 0.0018501722 0.23881812 0.097208746 -0.08589161 -0.16127487 0.025553552 -0.022130454 -0.09545087 -0.09438023 0.23904414 0.058934934 0.031235721 -0.036360487 -0.08174648 -0.07746318 -0.06583554 0.091616936 0.019582426 0.11415144 0.006472576 0.08646691 0.16610755 0.0022233836 -0.039331157 0.21438491 -0.201306 -0.013504551 -0.12237551 -0.10389914 -0.07134819 -0.0626414 -0.23370378 -0.13135351 0.11863024 0.03751378 0.06457184 0.050487265 0.25910974 0.019079395 0.13697286 0.10516455 -0.015051032 -0.15240712 0.010484685 -0.082557805 -0.05039538 -0.13661647 -0.00063942047 -0.06544592 0.21304253 0.046618417 -0.008159274 0.15005007 0.20541306 0.035335284 0.04492626 -0.17708951 0.008344598 0.006622159 0.06999537 -0.18038063 -0.09157984 0.07274925
