21 64
18 -0.015452226 0.039330736 0.406689 0.11964239 -0.10081737 -0.18919763 -0.12625924 -0.0017702475 -0.025941804 -0.17813686 0.2996717 0.006827698 -0.008742328 -0.0038485823 -0.19848506 -0.08187987 -0.14654377 0.042035256 -0.06708844 0.18715207 0.09257398 -0.013991891 0.31951648 -0.012122392 -0.085974276 0.36194417 -0.2889362 -0.06188096 -0.26205227 -0.18370008 -0.118089 -0.11237011 -0.32178012 -0.15870237 0.2745138 0.039129645 0.00919233 0.08005231 0.31622073 0.026966428 0.014519153 0.20630799 -0.113923214 -0.29278776 0.022369154 -0.19890547 -0.020734834 -0.07454453 -0.07997684 -0.056754816 0.19721495 0.06425643 0.0042840764 0.25805387 0.30884343 0.06717087 0.11721628 -0.18616785 -0.00014705758 0.007940033 -0.021394819 -0.2708564 -0.04679876 -0.014384146
17 -0.016596444 0.040262606 0.37365493 0.10524657 -0.085721985 -0.16374011 -0.12049793 -0.0015766077 -0.018128028 -0.1751513 0.27780554 0.01146007 0.00829587 -0.0140993465 -0.18459934 -0.08869159 -0.14383276 0.04296277 -0.04287534 0.19983523 0.066609524 -0.019461926 0.30015218 -0.018919434 -0.09596119 0.35813913 -0.26812056 -0.06642593 -0.22923337 -0.16726777 -0.08463256 -0.09643455 -0.3313197 -0.14775401 0.2621606 0.04942437 -0.01568164 0.09021124 0.3063967 0.040792987 0.039876048 0.1777149 -0.09241429 -0.2597077 0.016696688 -0.19791572 -0.0081413835 -0.097270496 -0.091597535 -0.057539217 0.20435105 0.06402549 0.020242343 0.25407416 0.27180308 0.070963725 0.10932053 -0.1732627 0.017569816 -0.021695407 -0.0063836277 -0.25029528 -0.04674353 0.005836865
9 -0.017910158 0.047272537 0.39731744 0.092500225 -0.08378072 -0.1806499 -0.123908825 -0.011835857 -0.00672619 -0.1545965 0.29227537 0.025672274 0.008372485 -0.023673737 -0.19799155 -0.0770575 -0.1504204 0.051704407 -0.04268631 0.18843755 0.08104288 -0.019803867 0.30920753 -0.026702289 -0.09058115 0.35778284 -0.27693442 -0.05421704 -0.2252423 -0.16140868 -0.10332367 -0.09478227 -0.335049 -0.13609254 0.25686452 0.034030702 0.00270062 0.09452221 0.31504032 0.022982176 0.041438833 0.202233 -0.10584846 -0.291295 0.031033793 -0.18181401 -0.01135567 -0.095344126 -0.093603946 -0.07341423 0.20887823 0.049846545 -0.004195342 0.2518884 0.2917368 0.061640397 0.10919053 -0.17282917 0.00432079 -0.019474665 -0.0134358 -0.26645806 -0.038587388 -0.0030879215
3 -0.011058282 0.018788354 0.36958125 0.10339831 -0.07243866 -0.17302889 -0.14335865 -0.0070640678 -0.01866764 -0.15732345 0.2594037 0.005898513 0.008494859 0.00017754307 -0.18444519 -0.070129946 -0.15482417 0.046761047 -0.061659224 0.18167245 0.09365905 -0.01982577 0.30282182 -0.022670045 -0.07850603 0.36066934 -0.28290808 -0.07465057 -0.24769163 -0.17913698 -0.10593347 -0.120801 -0.30199826 -0.14704809 0.27277896 0.05090374 -0.011802412 0.08883554 0.30338886 0.021969263 0.017514564 0.18229675 -0.11115935 -0.26955768 0.021830115 -0.18051139 -0.003829373 -0.083666906 -0.08807071 -0.06617838 0.19213833 0.0652508 0.015316246 0.2491376 0.27953064 0.06545686 0.095595084 -0.16701937 0.0050147665 -0.0044973325 -0.026365034 -0.26587713 -0.05299341 -0.009048221
14 -0.017047815 0.02593616 0.36052454 0.09364117 -0.0721074 -0.17525887 -0.11224935 -0.012430669 -0.030070238 -0.14549929 0.2824621 0.017883763 -0.0121814795 -0.0033511312 -0.1724554 -0.06490491 -0.1374903 0.041408572 -0.057633996 0.19756934 0.094939284 -0.014832165 0.28657883 -0.015705306 -0.08298114 0.32991642 -0.27834874 -0.06435542 -0.23295112 -0.17821962 -0.10410688 -0.11870713 -0.30090067 -0.13903007 0.24688563 0.053816993 0.0114165 0.075354844 0.3036897 0.041387472 0.038642436 0.1883871 -0.08990462 -0.27998385 0.0102269575 -0.16964582 -0.0088611245 -0.085925646 -0.07070621 -0.07495897 0.19571333 0.066449866 0.017799601 0.22955225 0.290349 0.072553374 0.10774243 -0.17354119 0.014154928 -0.0026328606 -0.00093313394 -0.26090646 -0.051076233 0.011656776
8 -0.01114648 0.027313476 0.36680427 0.106813274 -0.09017265 -0.15558901 -0.111746915 -0.008542985 -0.013369437 -0.1513807 0.25681418 0.0031253886 -0.013433418 -0.015212491 -0.16340534 -0.056625746 -0.12087233 0.02698508 -0.062966265 0.1916423 0.07956694 -0.012838282 0.28455237 -0.016726242 -0.070992164 0.33086714 -0.24902141 -0.06608619 -0.22608237 -0.16389354 -0.086619586 -0.101020575 -0.31275445 -0.14570966 0.23424907 0.040872995 -0.0007879552 0.0933235 0.28813165 0.023751713 0.028486712 0.18436384 -0.08187677 -0.25682834 0.028599877 -0.18542622 -0.008550956 -0.06663928 -0.07937502 -0.080493465 0.19300856 0.04518635 0.0073855817 0.24405344 0.2580635 0.057178687 0.0884578 -0.14541829 -0.0052570915 0.0005941701 -0.022985464 -0.22993045 -0.02992347 0.0044381134
0 -0.015478341 0.026135724 0.37176237 0.102581866 -0.078695275 -0.17707601 -0.13374212 -0.01646681 -0.01923891 -0.15782271 0.27479807 0.008478854 0.008150827 -0.022910789 -0.17693344 -0.07975727 -0.15014131 0.038521666 -0.061818615 0.17358227 0.0821917 -0.012152226 0.28267127 -0.011552844 -0.08838434 0.3431972 -0.26634607 -0.055588648 -0.23939088 -0.1616516 -0.10012425 -0.11094351 -0.30828908 -0.12465363 0.25503126 0.035266854 -0.003399051 0.065550886 0.29361773 0.04687508 0.025960524 0.18068762 -0.09748308 -0.25023466 0.007856648 -0.17748162 0.004017519 -0.077517495 -0.07434882 -0.08181301 0.19877347 0.043893237 0.0031590348 0.2380233 0.26438156 0.06590755 0.10049164 -0.16961342 -0.012881634 0.014102409 -0.002979519 -0.2546293 -0.032035697 0.0028235433
2 -0.004764681 0.020747697 0.36709172 0.103538424 -0.06103566 -0.16822506 -0.12592109 -0.025109723 -0.03228158 -0.17269178 0.25911945 -0.0033704417 0.005546956 -0.02006866 -0.16932054 -0.06976287 -0.14465992 0.033562444 -0.034704883 0.1966926 0.068526074 -0.0077405 0.2746441 -0.0050067827 -0.08943138 0.34065086 -0.25283512 -0.053820387 -0.23216973 -0.15054533 -0.0805012 -0.11875124 -0.3193657 -0.14685291 0.25494945 0.037000645 -0.015759416 0.06808172 0.2974046 0.03557473 0.013137407 0.17290221 -0.09002597 -0.26620123 0.028982073 -0.18877135 -0.00077386404 -0.09414204 -0.06940321 -0.057722658 0.18862511 0.05625393 -0.0047301385 0.23942295 0.26578766 0.051150884 0.0844745 -0.162254 0.010078861 0.00218386 -0.024879202 -0.25654492 -0.044500105 -0.0047665895
10 -0.023911024 0.015669735 0.33832744 0.076566555 -0.08315734 -0.16370372 -0.120470375 -0.015812367 -0.02880008 -0.1490438 0.2608436 0.020364208 -0.013290096 -0.0169518 -0.16040121 -0.08333852 -0.1284776 0.0448573 -0.03890945 0.15611562 0.065347284 -0.03164808 0.266986 0.0023264147 -0.07065243 0.32396126 -0.23743676 -0.06374362 -0.19949828 -0.16611491 -0.10182209 -0.10068493 -0.28943858 -0.13133848 0.23341963 0.04959531 -0.0033925122 0.073289804 0.27463168 0.017354922 0.03934932 0.18371736 -0.105931535 -0.24374123 0.036293905 -0.18242793 -0.01800933 -0.087542884 -0.06015931 -0.06513779 0.19083174 0.03698347 0.012529532 0.22611237 0.25447565 0.0660681 0.0838866 -0.1665329 0.006033961 0.00748742 -0.00166432 -0.22220251 -0.03676932 0.012643357
11 -0.027460702 0.03630886 0.35144392 0.09846685 -0.06428711 -0.16801535 -0.110747494 -0.028618988 -0.017790835 -0.16483922 0.2463036 0.022864567 -0.004179006 -0.006738295 -0.15554745 -0.05694214 -0.1470082 0.030792955 -0.0337922 0.1807074 0.07001879 -0.033683855 0.2786062 -0.023075474 -0.06906046 0.31772092 -0.25239035 -0.059799366 -0.22138323 -0.15805228 -0.08171575 -0.10003029 -0.30205086 -0.13233106 0.25037444 0.04164477 -0.0049390043 0.09162025 0.26859728 0.02979701 0.043162458 0.18517643 -0.09178553 -0.26552325 0.022428066 -0.17928824 0.007722402 -0.07678414 -0.073083356 -0.06110304 0.17959501 0.043073423 0.0073649227 0.22428705 0.26950547 0.077293694 0.09573998 -0.15170524 -0.0068886294 0.0014362119 -0.023540322 -0.25069526 -0.04523578 -0.012631592
1 -0.003276481 0.02534688 0.39163122 0.08835269 -0.07714101 -0.1558476 -0.14058903 -0.030248862 -0.02461376 -0.1691758 0.27385974 -0.003767495 -0.016708506 -0.008071445 -0.19377393 -0.08945323 -0.14784485 0.024683528 -0.062420424 0.17752334 0.07809696 -0.029823909 0.30601725 -0.01095679 -0.09349549 0.36004978 -0.2803073 -0.074391514 -0.24793737 -0.17963469 -0.10156913 -0.097695395 -0.32598892 -0.13341506 0.27139035 0.032307543 0.0036715188 0.09483031 0.2944736 0.043976 0.041869197 0.17970724 -0.10905493 -0.26892376 0.020397885 -0.19985178 0.006673472 -0.093504466 -0.091203004 -0.07121535 0.19366156 0.054997373 0.0040373537 0.24628186 0.2799392 0.071728475 0.117116705 -0.17697398 0.0010729997 0.004714325 -0.002000323 -0.26310465 -0.025116803 0.013737104
13 -0.020664625 0.033296667 0.3545708 0.08391502 -0.084852315 -0.16778298 -0.12008998 -0.01214173 -0.008248248 -0.15410565 0.25175244 0.014147861 0.0061130514 -0.012173812 -0.17770232 -0.08573084 -0.13184229 0.046918705 -0.045619693 0.15826654 0.058658216 -0.009351267 0.26375872 -0.001083374 -0.09283234 0.33384293 -0.26010296 -0.053894963 -0.21782129 -0.16584575 -0.09870943 -0.09839145 -0.30011958 -0.13044403 0.22814712 0.04081961 0.011635077 0.0725919 0.2738649 0.035707716 0.039495565 0.16337126 -0.10139042 -0.25438318 0.03524633 -0.1716151 -0.021873435 -0.07899818 -0.059779882 -0.073905714 0.17254783 0.06537992 -0.006765022 0.23011987 0.25783378 0.075890556 0.1103893 -0.15912871 -0.0016386638 0.010483921 -0.012446302 -0.22427014 -0.05230078 0.013498857
20 -0.015908366 0.020630984 0.35661533 0.09286992 -0.068466954 -0.16291642 -0.12724252 -0.011594437 -0.003948028 -0.16026264 0.25916275 -0.004636291 -0.01237184 -0.0126985535 -0.18248458 -0.065873854 -0.13208444 0.0317293 -0.041175436 0.18932898 0.087066464 -0.02321812 0.2773724 -0.018453907 -0.09395683 0.3347816 -0.25496802 -0.06336161 -0.22499384 -0.16798642 -0.08664234 -0.10820111 -0.312285 -0.116741545 0.24962723 0.05507498 0.006341331 0.08191951 0.2924419 0.023725946 0.01786883 0.182825 -0.08881241 -0.2620913 0.0369777 -0.18160577 0.007696107 -0.076755695 -0.08438057 -0.068908826 0.1711392 0.04567216 0.0098044695 0.2427128 0.27538362 0.053157043 0.100806355 -0.15232056 -0.0020343983 -0.01456831 -0.012476634 -0.251071 -0.025431894 -0.008543135
6 -0.0048999996 0.046382274 0.36400393 0.102410294 -0.07925153 -0.15266657 -0.11878714 -0.030500684 -0.021029396 -0.15346389 0.264512 0.005992211 -0.0029169552 -0.013844158 -0.17569678 -0.06720948 -0.14822422 0.030874664 -0.04912308 0.18077448 0.07584677 -0.029755823 0.29273376 -0.017472891 -0.081603415 0.33960968 -0.2509995 -0.07519657 -0.24029028 -0.17458092 -0.079460725 -0.10765193 -0.32485095 -0.13648544 0.243621 0.053027585 -0.01943304 0.085680634 0.27161834 0.03467451 0.041344494 0.19368061 -0.11321177 -0.27366108 0.0132196015 -0.1955255 -0.021711923 -0.087179594 -0.079053506 -0.07880107 0.19783625 0.05529483 0.01675436 0.23969777 0.2717375 0.05384715 0.097067945 -0.15579833 -0.0051691015 0.00070185424 -0.008337503 -0.24972 -0.021766419 0.014985154
12 -0.010423956 0.045196813 0.37686586 0.088889286 -0.0872548 -0.17618197 -0.13686371 -0.0018076085 -0.019826453 -0.17170514 0.2611924 0.016412154 -0.005858383 -0.017726908 -0.17388283 -0.07807361 -0.14317428 0.03881276 -0.05436534 0.19784927 0.08139108 -0.036007714 0.29609796 -0.022836315 -0.0861198 0.34622568 -0.27106518 -0.06725939 -0.21835813 -0.1724043 -0.10868751 -0.08999206 -0.31469798 -0.14428557 0.26666275 0.047424287 0.003679856 0.09524088 0.2769667 0.041583203 0.03268787 0.18997197 -0.09403166 -0.25840646 0.029116662 -0.17457913 -0.012779687 -0.08970208 -0.07901219 -0.062672034 0.18548127 0.062262148 0.014510927 0.2502521 0.27665615 0.080971144 0.10036679 -0.1512624 0.0094224345 -0.015240325 -0.021261785 -0.25242156 -0.030766508 -0.0022519
7 -0.019390848 0.050516207 0.3800429 0.09328662 -0.08950881 -0.16661637 -0.13162921 -0.031156577 -0.011316372 -0.16224784 0.267623 0.017739834 -0.00958042 -0.026771937 -0.17123061 -0.08110883 -0.13007843 0.030587006 -0.035775457 0.18680876 0.075447895 -0.025350299 0.27794683 0.0038074835 -0.08707041 0.3249687 -0.27541307 -0.06605069 -0.2181282 -0.15262151 -0.11350069 -0.08679995 -0.3021622 -0.12190618 0.27192414 0.02284937 -0.017711652 0.09222691 0.30722904 0.03186348 0.038166724 0.18057363 -0.07379462 -0.27828538 0.008171195 -0.19479811 -0.015552203 -0.072797224 -0.088709556 -0.07760975 0.20988292 0.041462515 0.024106031 0.22457212 0.2782115 0.07857908 0.10486133 -0.16583262 0.011840036 -0.023003014 -0.024457768 -0.2507415 -0.025373258 -0.010313122
4 -0.023637671 0.043662164 0.36498392 0.09073876 -0.07000049 -0.15449467 -0.13274862 -0.013827093 0.0003127806 -0.14618744 0.27283162 0.014472418 0.0028779977 -0.015198104 -0.18471791 -0.073326096 -0.1389927 0.036221597 -0.05730201 0.19655217 0.059442453 -0.030973136 0.2764073 -0.009878745 -0.102725156 0.33859062 -0.2710391 -0.06845849 -0.24084766 -0.15778972 -0.09340987 -0.10186352 -0.31748927 -0.13695274 0.26756647 0.04044245 -0.018589089 0.075459145 0.29572275 0.032095414 0.009786644 0.18793683 -0.10183582 -0.2730473 0.026276678 -0.19035496 -0.0033674978 -0.06762313 -0.08707138 -0.0499609 0.19768515 0.06432386 0.0178873 0.22046836 0.26472878 0.080336206 0.110064015 -0.1485558 0.01721838 0.0043270816 -0.035399534 -0.23993586 -0.04559674 0.0007005853
15 -0.003321056 0.041520804 0.36620268 0.09681918 -0.08001939 -0.14378303 -0.1309315 -0.014567903 0.0017784621 -0.16294567 0.25996822 -0.007840431 0.013614068 0.0019177222 -0.16785069 -0.06291905 -0.128443 0.023620479 -0.048873477 0.1901386 0.06008389 -0.025697842 0.28058127 -0.003874292 -0.09056426 0.3220696 -0.24500799 -0.07484651 -0.22836678 -0.16719541 -0.10007133 -0.1112792 -0.30726174 -0.14403921 0.2516446 0.020703817 -0.021687973 0.06714349 0.272541 0.038934994 0.030909657 0.17388858 -0.08980912 -0.26428193 0.020921934 -0.1802583 -0.0064839344 -0.076805 -0.0797469 -0.061681077 0.17519559 0.03920348 -0.0029603064 0.22533762 0.26359543 0.07904593 0.09544279 -0.16016535 0.022210212 -0.008356728 -0.022669658 -0.22434361 -0.031491507 -0.012098278
16 -0.0030826177 0.042761493 0.34364286 0.09262464 -0.07564467 -0.14681874 -0.12420455 -0.018039329 -0.010807171 -0.15213789 0.25711626 0.0038475408 -0.010598892 -0.000534806 -0.158282 -0.05748642 -0.14635403 0.039302535 -0.052222565 0.19530581 0.07286565 -0.012976884 0.2768929 0.00032941718 -0.096877374 0.33921486 -0.25842485 -0.07054956 -0.22538976 -0.14106572 -0.10369392 -0.10129679 -0.2899633 -0.12945645 0.23864223 0.024594236 0.009899639 0.08894346 0.29002616 0.024713255 0.010651542 0.18125509 -0.07424914 -0.26167113 0.0071629505 -0.1833722 -0.013444096 -0.08277545 -0.0830082 -0.07029804 0.20296332 0.03388646 0.015684152 0.23618528 0.2595086 0.08205765 0.11470829 -0.16518217 -0.0033053965 -0.018659566 -0.029906582 -0.24484839 -0.045189988 -0.016656501
19 -0.009609049 0.034277808 0.30844265 0.07290508 -0.07237241 -0.12922163 -0.102052696 0.0006294496 -0.011485969 -0.11826872 0.20090519 0.02034819 -0.0053705075 0.0035960719 -0.15323871 -0.05627484 -0.10946354 0.029189711 -0.047037113 0.13671727 0.04654329 -0.030104859 0.23282973 -0.0066744806 -0.07496906 0.285072 -0.21739365 -0.055464257 -0.19838025 -0.14651926 -0.066114925 -0.09038927 -0.26115155 -0.10137076 0.21859044 0.017131235 -0.001551405 0.05828874 0.23942009 0.017963596 0.01691992 0.15073827 -0.057973992 -0.20257078 0.002045375 -0.15887883 0.006754013 -0.06338157 -0.07314025 -0.052097347 0.17266405 0.037609927 -0.0077986047 0.19395281 0.22924143 0.06814399 0.0891464 -0.14065994 0.0048644943 -0.007127043 -0.008448724 -0.21302426 -0.04288957 -0.0031305365
5 -0.024811674 0.040027644 0.32116583 0.10169845 -0.078370266 -0.141766 -0.09902334 -0.020234108 -0.021772694 -0.13704364 0.23450059 0.0012385056 0.008787115 -0.02163774 -0.1475436 -0.062033366 -0.106411465 0.04029504 -0.03269928 0.17528868 0.047995925 -0.0028718784 0.23561959 -0.012256667 -0.08570515 0.28792563 -0.2440563 -0.07168553 -0.21087357 -0.14551924 -0.093935475 -0.08122314 -0.28633556 -0.127305 0.2416906 0.042229388 0.0074868877 0.07779168 0.25628975 0.01719195 0.03190232 0.16290759 -0.065828085 -0.21941634 0.02974132 -0.1484596 -0.021358749 -0.081802234 -0.06947289 -0.04659177 0.18183635 0.052469254 0.020310823 0.19786327 0.24837561 0.054858558 0.07370235 -0.12774152 0.007523486 -0.009961514 -0.020790257 -0.22477883 -0.02498155 0.003191748
