26 64
22 0.0013110525 -0.035917785 0.29503864 0.12164028 -0.0551722 -0.24607557 0.062337983 0.09901142 -0.06616364 -0.04501612 0.23744604 -0.0062276567 -0.041664533 0.053496726 -0.132421 0.07183748 -0.0059008813 0.15511306 0.022974681 0.26564562 0.20532572 0.12628724 0.305178 0.07583354 0.012601882 0.21855016 -0.33937937 -0.13142581 -0.16538018 -0.18202564 -0.09521774 0.032192767 -0.23145443 -0.24869964 0.06286976 0.09998665 0.21936938 0.12660824 0.31228635 -0.018217776 0.1876308 0.18942924 0.004389429 -0.3682232 0.025336616 -0.13650675 -0.22480966 -0.064413436 0.0671381 -0.02567394 0.10102103 0.06596669 0.07305726 0.19464813 0.3339304 0.24652241 0.12242029 -0.22934282 -0.024291333 -0.056101475 0.06893636 -0.09842959 -0.14625086 0.15479638
13 -0.007993086 -0.043083303 0.26586822 0.100311935 -0.041826356 -0.22499645 0.04955569 0.09872715 -0.05021245 -0.059075605 0.24103335 0.002046501 -0.022117155 0.040806957 -0.13280994 0.041852504 -0.02306929 0.15728973 0.04553673 0.26393917 0.18996133 0.10684856 0.30135483 0.055079475 0.00016873315 0.22923446 -0.3136546 -0.12547998 -0.1256567 -0.16010986 -0.07482891 0.04376946 -0.2329515 -0.22124785 0.06528655 0.111069486 0.18314175 0.13912371 0.31709892 -0.0066202544 0.20381883 0.16650273 0.001367282 -0.33121395 0.025931243 -0.14105977 -0.18848099 -0.092508405 0.036668133 -0.025700606 0.108056106 0.054681804 0.091323376 0.20146354 0.2972127 0.23131315 0.12435914 -0.22727937 -0.00439458 -0.0931524 0.09030244 -0.09464281 -0.13681643 0.14990869
8 -0.012635084 -0.039983787 0.28589538 0.08683361 -0.048321825 -0.24187866 0.045761097 0.09653172 -0.038505603 -0.036680978 0.25845897 0.020336742 -0.018541964 0.024717713 -0.15185548 0.043380056 -0.027643574 0.17393754 0.04787316 0.24261275 0.2004061 0.10729107 0.30880192 0.039095473 0.0042676134 0.23577611 -0.3131436 -0.10757315 -0.11026525 -0.1538662 -0.094097294 0.04121861 -0.23804139 -0.20328774 0.05916551 0.100135475 0.20040229 0.1426318 0.33417892 -0.036589574 0.19933093 0.19087426 -0.01286366 -0.34799325 0.04870301 -0.120623335 -0.18874906 -0.10090193 0.026127307 -0.04206242 0.121882215 0.037740197 0.06362374 0.20929472 0.31526595 0.19842806 0.114726365 -0.22721702 -0.01435887 -0.099448666 0.0877002 -0.11695072 -0.12557596 0.1344758
11 -0.004398843 -0.05652164 0.27646896 0.10365911 -0.039939012 -0.23738658 0.0301648 0.09837284 -0.051400833 -0.039663136 0.22886811 0.0018338724 -0.019894563 0.04863319 -0.14150445 0.058621608 -0.029532751 0.1681363 0.030101044 0.25403383 0.20910938 0.11007996 0.3074618 0.048657343 0.011254415 0.2443119 -0.3331703 -0.13571541 -0.14643456 -0.17677853 -0.09429566 0.015947562 -0.22446619 -0.22794428 0.0837871 0.11571092 0.18722086 0.14120802 0.3292779 -0.036075465 0.17970036 0.17885444 -0.010730887 -0.3451605 0.039251354 -0.1278569 -0.19349787 -0.088599145 0.034770127 -0.03487403 0.11463373 0.062245205 0.08368076 0.2076153 0.31685477 0.21499573 0.10484829 -0.21963364 -0.010231534 -0.085355416 0.06594653 -0.120887935 -0.14477059 0.1361995
3 -0.013658643 -0.017120432 0.27338657 0.08438243 -0.038200494 -0.23041826 0.072070874 0.06814552 -0.052545264 -0.02275453 0.2389647 0.02514686 -0.03705477 0.05492118 -0.107486114 0.07910786 0.002981904 0.14240713 0.031917665 0.29509768 0.17966789 0.11722305 0.2556718 0.0784096 -0.01035611 0.18250288 -0.34754258 -0.12639718 -0.14762704 -0.17375942 -0.08972076 0.013471548 -0.22638091 -0.22507559 0.055668943 0.09677507 0.20729059 0.11474145 0.31213602 0.019851333 0.21522278 0.17121798 0.044117466 -0.37913695 0.010014662 -0.113961145 -0.20416617 -0.066787615 0.075761475 -0.05826142 0.11351256 0.090585895 0.0762533 0.14662664 0.3269581 0.27190676 0.14226969 -0.20347811 0.016302785 -0.067398615 0.06879986 -0.10098365 -0.16464119 0.16990902
21 0.0037768208 -0.008474168 0.29938662 0.13108319 -0.06672904 -0.1986587 0.069180176 0.06588504 -0.053307533 -0.041488204 0.18657155 -0.0029113677 -0.038220532 0.023005813 -0.09301084 0.09828955 0.01689888 0.11108713 0.018267592 0.29530197 0.14509901 0.11447699 0.25896227 0.059434205 0.00923397 0.20278937 -0.2930741 -0.13531424 -0.16234872 -0.16304721 -0.040128328 0.018634465 -0.28115186 -0.24719436 0.0665221 0.085409224 0.1705797 0.13857697 0.28122088 -0.010533335 0.18202354 0.17574474 0.060217813 -0.3241101 0.03521032 -0.14327872 -0.19425954 -0.056605034 0.054388303 -0.061747365 0.1362945 0.06257294 0.056679856 0.18888131 0.2866318 0.2106582 0.076618694 -0.1467879 -0.02018985 -0.0539772 0.027814789 -0.09172634 -0.11371353 0.15657482
19 -0.008207648 -0.050496165 0.27828956 0.10298894 -0.04644471 -0.23708445 0.027295986 0.08522941 -0.049691442 -0.04717735 0.24322733 0.00019569765 -0.018885981 0.022562511 -0.13362767 0.041275654 -0.03027468 0.15395026 0.025655098 0.2404992 0.19293973 0.111362845 0.28581747 0.058120064 -0.002794682 0.23249458 -0.31262425 -0.11377381 -0.14086767 -0.15604532 -0.09139337 0.021505533 -0.22925392 -0.19798131 0.07597583 0.09489932 0.18639004 0.115651846 0.31898713 -0.010641685 0.17509083 0.17585088 -0.00028818322 -0.31586146 0.023582896 -0.1279148 -0.17207372 -0.080474935 0.040039822 -0.04942091 0.12347781 0.034019485 0.06961882 0.19942331 0.29504997 0.20867948 0.107581414 -0.22128873 -0.030365288 -0.063345075 0.084664255 -0.11411398 -0.11733671 0.13681974
24 0.003939858 -0.0075479266 0.30990958 0.12811485 -0.044383932 -0.2202395 0.06563799 0.048018586 -0.07280811 -0.055706438 0.19636077 -0.00078720914 -0.01786151 0.018538425 -0.09921804 0.09029964 0.002431612 0.12476581 0.04975443 0.31209195 0.12979698 0.12889473 0.2449417 0.08083035 -0.012251254 0.21030362 -0.3130791 -0.12715909 -0.17466 -0.15651207 -0.03767468 0.0008702199 -0.29794395 -0.25991324 0.08424956 0.08436952 0.16467533 0.112721935 0.29958186 0.0029896696 0.17981818 0.16943145 0.059940673 -0.3519517 0.03905047 -0.14747202 -0.20546986 -0.08154781 0.077486366 -0.04554128 0.13890532 0.08750375 0.04475074 0.17772692 0.30680794 0.22095542 0.07955099 -0.16248028 0.0009952072 -0.04988867 0.023139367 -0.11498594 -0.14156 0.16194504
10 -0.01703831 -0.06266364 0.2688384 0.08854575 -0.0575887 -0.2363455 0.036819156 0.08997795 -0.065854944 -0.044936653 0.243405 0.011690896 -0.040422704 0.02899468 -0.13097206 0.036456447 -0.016029803 0.16683169 0.04397673 0.2312312 0.18308829 0.09508262 0.292532 0.070439324 0.014176489 0.23910302 -0.29871655 -0.12926911 -0.11926986 -0.1785699 -0.09580562 0.021504903 -0.23413536 -0.2200098 0.06746862 0.11754772 0.18900354 0.1267532 0.3173897 -0.043103963 0.19314821 0.19118571 -0.01794962 -0.32360265 0.055746254 -0.14279208 -0.20154639 -0.099046394 0.052809224 -0.037159335 0.12882552 0.03206632 0.07925624 0.20801342 0.30523306 0.20848261 0.09013381 -0.2312889 -0.014160476 -0.06746297 0.089466915 -0.09716182 -0.12543142 0.15379167
5 -0.016068297 -0.019468606 0.2722586 0.102182984 -0.02507884 -0.22992103 0.06073202 0.05029888 -0.053211253 -0.056299288 0.20451292 0.019704344 -0.034521118 0.0486944 -0.09411545 0.08873115 -0.026571348 0.13350236 0.05209311 0.28166243 0.17333624 0.091938145 0.2728514 0.060909655 0.012534184 0.19150749 -0.3240857 -0.12978198 -0.14806199 -0.15195312 -0.065108865 0.03451651 -0.23411675 -0.22031523 0.077744834 0.08925589 0.19235186 0.14554293 0.2831896 0.00040938664 0.20844048 0.18245287 0.03190372 -0.35865566 0.021567801 -0.13767639 -0.17593051 -0.06702579 0.06234432 -0.038130857 0.10481856 0.052558176 0.07385161 0.16368699 0.31037286 0.26532635 0.122891575 -0.18642749 -0.023710677 -0.06458354 0.04660229 -0.115282655 -0.14535074 0.1336823
15 0.011915356 -0.041779637 0.2785283 0.08510567 -0.030829092 -0.20041996 0.034247745 0.058218032 -0.057747267 -0.044278946 0.21119425 -0.013274487 -0.044571705 0.045256246 -0.12543222 0.057734974 -0.018922184 0.12632929 0.023850126 0.2509074 0.1807946 0.095449194 0.28353176 0.06569391 -0.0015736357 0.21372978 -0.3200432 -0.13706627 -0.1526979 -0.1594689 -0.07680142 0.044006776 -0.22990115 -0.20514621 0.07905873 0.07919165 0.19503082 0.14074957 0.28649655 0.0002902004 0.19361739 0.16312005 0.010931248 -0.3277294 0.020884272 -0.14052328 -0.16982223 -0.08002235 0.039568745 -0.03789431 0.103554435 0.050655656 0.06941639 0.17472336 0.29279992 0.23502584 0.12530395 -0.20210616 -0.019449007 -0.06408856 0.07443709 -0.1079486 -0.112394154 0.15479171
12 -0.022455057 0.00021369723 0.29369953 0.08142588 -0.057469845 -0.23389736 0.06234563 0.057671692 -0.031907596 -0.041882288 0.22367755 0.028148195 -0.01596888 0.046018604 -0.11685599 0.056964267 -5.1064533e-05 0.14415732 0.03939979 0.2706602 0.13767569 0.12154664 0.23947524 0.0945197 -0.02678247 0.20043077 -0.3467668 -0.118655875 -0.15453984 -0.17421858 -0.08398051 0.01931295 -0.25101197 -0.23086902 0.051076215 0.08793469 0.20113558 0.1117757 0.2915971 0.026146676 0.22361244 0.15689836 0.02770784 -0.3762399 0.035812024 -0.12858836 -0.22069165 -0.059375115 0.09370511 -0.06822773 0.10296046 0.1056301 0.047577858 0.15156627 0.31111035 0.2854413 0.15341689 -0.18878265 0.0026398127 -0.041182835 0.049840506 -0.07761221 -0.17539984 0.1783858
7 -0.004020072 -0.063919 0.2596646 0.09259336 -0.029143143 -0.22563304 0.02753408 0.09959076 -0.035582446 -0.04843572 0.23261689 -0.018992048 -0.040464133 0.03368239 -0.14854215 0.050262365 -0.019675102 0.1517445 0.043776225 0.24845071 0.21402927 0.100615226 0.2968995 0.04611405 -0.0053739473 0.23405889 -0.30228764 -0.11963519 -0.1230327 -0.16581735 -0.08410497 0.028613098 -0.22678207 -0.18709975 0.067111254 0.11908556 0.19881298 0.13421047 0.32067293 -0.03613641 0.16690701 0.17738329 -0.0071814284 -0.32871512 0.04809423 -0.1267348 -0.16740799 -0.084287 0.021321492 -0.03204002 0.08895932 0.028426355 0.08136005 0.214828 0.3071721 0.19269922 0.10783153 -0.22158867 -0.024681717 -0.09664619 0.08765448 -0.10925717 -0.10608922 0.12758583
0 0.0067313933 0.011006459 0.28656203 0.12375449 -0.056225162 -0.1944251 0.068531446 0.0444801 -0.06036912 -0.035968293 0.19077837 0.003992872 -0.026938349 0.026468253 -0.09883076 0.09001366 -0.0036857105 0.1170826 0.033388212 0.28136483 0.13741313 0.10118679 0.25413084 0.06287988 -0.0005365007 0.1982795 -0.29376817 -0.1426815 -0.17118604 -0.1688677 -0.035013594 0.012540983 -0.28124133 -0.23581974 0.07001792 0.09556244 0.1548695 0.12596595 0.26219347 -0.0012690035 0.19355604 0.1810569 0.036088515 -0.33780336 0.018183611 -0.14722803 -0.21102041 -0.07273335 0.060667247 -0.057933737 0.14003427 0.07528459 0.0663741 0.17211007 0.29694092 0.21034563 0.085375845 -0.15354316 -0.016317632 -0.052420594 0.040110514 -0.1054871 -0.11208613 0.16630936
2 0.000727485 0.011606524 0.2953639 0.103265844 -0.06095368 -0.21430783 0.05225408 0.06739694 -0.057623163 -0.050579805 0.18563002 0.01669017 -0.0302598 0.026928717 -0.094761536 0.0818485 0.0013112383 0.122831695 0.028258173 0.29700774 0.14172551 0.09332069 0.25301686 0.06084898 -0.0053084027 0.19892779 -0.31437516 -0.13648355 -0.15067904 -0.16649778 -0.06268615 0.031319838 -0.26713353 -0.24163055 0.088041134 0.08918084 0.1782786 0.13418704 0.2602804 0.011194168 0.19140677 0.17493334 0.053771865 -0.32585123 0.0327453 -0.12570319 -0.20352271 -0.07182591 0.06649507 -0.045887362 0.121945135 0.08639104 0.064559236 0.17324124 0.2987612 0.24613144 0.096130945 -0.14492422 -0.00021366533 -0.065791495 0.028427644 -0.103180945 -0.1232123 0.15505333
20 -0.014319399 0.005868376 0.28863174 0.089467995 -0.053425383 -0.22254226 0.050606158 0.047363788 -0.041548036 -0.041751835 0.21419454 0.022891613 -0.02897811 0.025289133 -0.102357976 0.059849508 0.004210127 0.12599155 0.04650892 0.27203026 0.15348007 0.10636721 0.24081513 0.09131182 -0.010124146 0.1804543 -0.33218703 -0.119420834 -0.13901299 -0.15237072 -0.08913048 0.03427272 -0.23161727 -0.21269897 0.07557601 0.07357391 0.16680789 0.12156039 0.29633477 0.014910884 0.20601997 0.160036 0.044257656 -0.36544493 0.010301751 -0.13346502 -0.20871074 -0.051817134 0.06541469 -0.061337885 0.121442124 0.07399651 0.07374602 0.14454727 0.3035326 0.26228946 0.12463812 -0.18707351 0.0052631125 -0.06582527 0.04261293 -0.08724826 -0.1366652 0.1540184
18 -0.029418694 0.009256567 0.29579985 0.08204337 -0.044120047 -0.2231173 0.062375985 0.05672911 -0.026870843 -0.0274727 0.24293843 0.03774514 -0.021495763 0.045100182 -0.11809549 0.07281898 -0.0006061748 0.13572982 0.028113946 0.30592564 0.13941057 0.10246785 0.24139579 0.085156225 -0.030671973 0.18887557 -0.35378504 -0.12867725 -0.16981454 -0.16273475 -0.07480205 0.018626805 -0.2578554 -0.23588412 0.07828754 0.089871965 0.17933491 0.11119912 0.30665764 0.026262095 0.20073052 0.17910334 0.032842148 -0.39112598 0.029491374 -0.14064519 -0.20530699 -0.044661254 0.0786225 -0.046985388 0.12146275 0.113626294 0.070502125 0.12967344 0.31464377 0.29064432 0.15724704 -0.168172 0.02456763 -0.044766523 0.030431133 -0.08927673 -0.17414922 0.17033754
25 -0.01135557 0.011083625 0.31949648 0.09613353 -0.058767814 -0.22816977 0.062298648 0.05971832 -0.02662961 -0.04873941 0.24472068 0.018247874 -0.008367454 0.060816143 -0.111553244 0.083588764 0.0051031574 0.13152844 0.036571126 0.31322062 0.14498359 0.11118751 0.26217318 0.09274623 -0.021687835 0.18988077 -0.34712672 -0.14035812 -0.16956572 -0.18413617 -0.08802842 0.00611291 -0.26789078 -0.2580304 0.07294551 0.07569748 0.18175848 0.107079506 0.29961085 0.032652795 0.22848524 0.17806478 0.039622866 -0.40403256 0.028116692 -0.137271 -0.2202969 -0.058749333 0.08793882 -0.05977784 0.109011345 0.09481227 0.050176173 0.14743486 0.3338302 0.2997263 0.14571434 -0.1902622 0.029068518 -0.05617338 0.041437943 -0.08315987 -0.16755988 0.16370207
16 0.009676094 -0.02782904 0.2572302 0.09720362 -0.03492232 -0.20906709 0.04255137 0.068476364 -0.048345808 -0.04142469 0.21551327 -0.004594535 -0.041342948 0.053086493 -0.10434878 0.08147049 -0.028845979 0.14505903 0.029188303 0.27677724 0.18590559 0.111530274 0.28012538 0.077523485 -0.0060655805 0.22010674 -0.31738442 -0.13583283 -0.14712429 -0.14071755 -0.086968705 0.029021433 -0.21555765 -0.21382472 0.05772993 0.07994575 0.20385247 0.13953312 0.30243137 -0.013593267 0.17120889 0.17755781 0.028789777 -0.34517995 0.012245163 -0.13848953 -0.19333659 -0.074672155 0.04787539 -0.046712864 0.120313704 0.035947144 0.0806138 0.18647192 0.29384297 0.24989513 0.13122725 -0.20752919 -0.027332567 -0.07915754 0.050644655 -0.104984656 -0.13768892 0.1304159
14 0.002206847 0.0070784446 0.30745986 0.12151648 -0.064637125 -0.20287336 0.06777577 0.0700376 -0.0605554 -0.030415686 0.17268176 0.015690232 -0.028011208 0.037525307 -0.10968522 0.09442243 0.010227274 0.11982883 0.025793396 0.27798185 0.120633304 0.10126637 0.25016493 0.067386955 -0.007339716 0.21161528 -0.30875304 -0.13933396 -0.18350308 -0.18029596 -0.027524391 0.0069279433 -0.29434055 -0.23763081 0.09112722 0.07685482 0.16997662 0.11550088 0.27747244 -0.011209492 0.17990033 0.1762598 0.07032828 -0.31877315 0.015990928 -0.14699478 -0.19176668 -0.06668708 0.05774547 -0.04724561 0.15148586 0.07634545 0.041369822 0.17630616 0.30829266 0.23066463 0.08676215 -0.16017331 -0.010887609 -0.053758025 0.036653966 -0.11627142 -0.13634185 0.16166843
1 -0.014837644 0.00538002 0.28350765 0.13231355 -0.06324723 -0.20301585 0.07471152 0.054613255 -0.06453846 -0.037536956 0.1927654 0.0010458212 -0.016396478 0.015098465 -0.096172474 0.08320478 0.016744329 0.1319968 0.043290175 0.2891679 0.12209208 0.1239976 0.2340069 0.058994934 -0.012359212 0.19153802 -0.3103501 -0.14293915 -0.16607894 -0.16233622 -0.055020757 0.02494385 -0.28164715 -0.24040596 0.090689935 0.09885575 0.18045625 0.12850274 0.2755787 -0.016767949 0.18917778 0.17243604 0.059613068 -0.3112415 0.04218604 -0.11975314 -0.21122585 -0.08133423 0.060576104 -0.036227483 0.14256668 0.08116587 0.069824204 0.16436784 0.30291834 0.20697516 0.071489505 -0.14388162 -0.00765329 -0.061496407 0.032539155 -0.11003163 -0.11591409 0.15943083
6 -0.010539175 -0.028826691 0.27772895 0.09696141 -0.037070177 -0.22383171 0.05763098 0.06628644 -0.06027742 -0.03892788 0.21767715 0.016591188 -0.023917096 0.04189739 -0.11448059 0.0897237 0.00010024056 0.14766091 0.041527845 0.2963311 0.1803047 0.10588538 0.27878538 0.0791217 0.0045892135 0.1963502 -0.32721755 -0.13948038 -0.16593663 -0.15155785 -0.05854524 0.042128153 -0.24350803 -0.2148418 0.077799 0.079295896 0.19503658 0.120396085 0.3109212 0.0105908355 0.20087013 0.18237205 0.051454414 -0.33824727 0.024086155 -0.14867985 -0.18131019 -0.05588712 0.06564795 -0.050411027 0.107782036 0.061564624 0.08386311 0.1601923 0.29597884 0.26580176 0.13871698 -0.16848923 -0.0035619894 -0.08188322 0.065136775 -0.11073873 -0.13051149 0.15546124
23 0.0091635985 -0.045689598 0.2847662 0.07564347 -0.04853405 -0.23534623 0.04128195 0.08056032 -0.03465921 -0.04758266 0.23023665 0.0038465657 -0.021879552 0.055605106 -0.11423971 0.064826734 -0.027520917 0.14976516 0.03793008 0.26759043 0.19487454 0.09684425 0.25802937 0.065973826 -0.0003474233 0.19160536 -0.3297339 -0.14280733 -0.12920618 -0.14113033 -0.07917043 0.042888723 -0.21155837 -0.21431574 0.07891666 0.0956495 0.20221962 0.1413549 0.29427445 -0.0052054836 0.1933461 0.18171394 0.030088264 -0.33757114 0.0312504 -0.14929786 -0.19076031 -0.08122512 0.071939506 -0.03606654 0.10922151 0.06459329 0.06472766 0.1587204 0.306321 0.25742835 0.13662326 -0.1856592 -0.012454196 -0.0782944 0.06262893 -0.11021655 -0.14592203 0.13073318
4 0.036715686 -0.06454324 0.2557148 0.09750093 0.0021028214 -0.22534746 0.03193926 0.11317764 -0.070730194 -0.026411904 0.20532706 -0.055841256 -0.026413953 0.047452006 -0.11777106 0.08392324 -0.019821897 0.14131977 0.041485813 0.2563408 0.22939853 0.12934403 0.31386942 0.06580938 0.014327926 0.24370512 -0.3312286 -0.12725005 -0.15548015 -0.17127912 -0.0868261 0.05993505 -0.22647336 -0.23946187 0.042278953 0.112712786 0.19600894 0.14374371 0.28009316 -0.03841439 0.17373295 0.17845003 -0.02407259 -0.3511867 0.0025885487 -0.10886361 -0.2078723 -0.071022436 0.04207875 -0.0037044515 0.0686798 0.024466502 0.077192925 0.2056304 0.29593563 0.2630034 0.08799388 -0.26130947 -0.050472736 -0.07655865 0.09108238 -0.050193377 -0.12841943 0.1860673
17 0.040954173 -0.07345607 0.24462207 0.12569079 0.0008578072 -0.23278213 0.019428452 0.12137908 -0.05474636 -0.016866527 0.18913616 -0.058401886 -0.03165625 0.026521496 -0.13736264 0.0698911 -0.0007316384 0.16516368 0.02695573 0.26086572 0.23579706 0.114985 0.32954258 0.08240448 0.019634461 0.22534522 -0.32735994 -0.14580877 -0.1299695 -0.1874145 -0.0941182 0.06538777 -0.21460657 -0.22151925 0.038689338 0.10654392 0.21082908 0.12616386 0.29733714 -0.0109162545 0.18272775 0.16602807 -0.016929066 -0.3502737 -0.00015020651 -0.11920104 -0.21537787 -0.071091965 0.03209166 -0.0042156293 0.067974284 0.012177782 0.1001768 0.22380151 0.29342186 0.25045085 0.07617359 -0.2629697 -0.05225194 -0.058020025 0.099879935 -0.051416446 -0.103698835 0.18339899
9 0.024595885 -0.0724555 0.26027587 0.105336994 -0.0050457995 -0.21509176 0.025406463 0.114528775 -0.055460066 -0.02976881 0.18761508 -0.05095563 -0.046398893 0.05550813 -0.13861836 0.08846383 -0.0289594 0.1455186 0.02779877 0.23379053 0.22505228 0.12545699 0.30535525 0.07739667 0.013110637 0.23954247 -0.3012765 -0.1534349 -0.14822358 -0.17466442 -0.08107677 0.039169278 -0.21418627 -0.23647486 0.05806206 0.111990154 0.20363493 0.12534067 0.26600146 -0.038787503 0.17711131 0.15263723 -0.02031699 -0.32167637 0.026265014 -0.11165708 -0.21657729 -0.08345608 0.055829752 -0.010375487 0.071819454 0.016985292 0.08577846 0.20640995 0.29497534 0.24443506 0.077489726 -0.25116715 -0.04997144 -0.06773448 0.08987954 -0.061207715 -0.11151477 0.17450905
