18 64
2 -0.02058 -0.05702052 0.43464038 0.1152317 0.0022489156 -0.2563841 -0.1690721 -0.06880483 -0.033957757 -0.17004071 0.3409317 0.020904215 0.1302569 -0.08639469 -0.1948265 -0.10477155 -0.1884492 0.03901121 -0.01960649 0.12627564 0.110826544 0.014682794 0.2960904 -0.006911226 0.008236149 0.30128178 -0.21519358 0.04044437 -0.21544181 -0.11867557 -0.09287748 -0.19613603 -0.29123178 -0.21152793 0.24418397 0.011984186 -0.19973423 -0.034462076 0.34389862 0.06650762 0.026431397 0.15832755 -0.26694414 -0.380204 0.0684081 -0.1773695 0.0102503095 -0.058251783 -0.021492258 -0.06738511 0.14507434 0.07771926 -0.07916304 0.1845837 0.22773248 -0.03485546 -0.015656373 -0.19463174 0.059830096 0.1259242 -0.044380736 -0.21206553 -0.07031794 -0.0017566201
4 -0.012561445 -0.04364546 0.32581168 0.09889722 0.011832052 -0.1906783 -0.12628837 -0.042706743 -0.027487276 -0.13642856 0.26061016 0.017113186 0.12899974 -0.079133786 -0.14547062 -0.0853831 -0.1522104 0.038481016 2.6666276e-05 0.12761231 0.07674088 0.025054546 0.22877127 -0.018517138 -0.0033212572 0.24714366 -0.16403204 0.031564265 -0.1545518 -0.07523245 -0.0444359 -0.14928095 -0.24392839 -0.17005384 0.19143385 0.018668566 -0.18279767 -0.019391887 0.28699085 0.06546666 0.03029734 0.10112913 -0.18302476 -0.2747427 0.037648197 -0.13791324 0.017313408 -0.06932839 -0.034084268 -0.052498866 0.13487402 0.0694591 -0.045369092 0.15547045 0.15597898 -0.034263525 -0.02227152 -0.1495555 0.06489937 0.06455257 -0.0260476 -0.16708069 -0.06396551 0.007852757
11 -0.011033384 -0.027145457 0.30410263 0.07151657 0.012244544 -0.17749757 -0.11501091 -0.04554252 -0.008401544 -0.09733933 0.23812234 0.02883272 0.11738211 -0.0796095 -0.13959181 -0.064451426 -0.13813236 0.041369688 0.0013584043 0.099460505 0.075677104 0.018916558 0.20538744 -0.023941165 -0.00018729335 0.21295427 -0.14723207 0.03865561 -0.12719238 -0.056921877 -0.054254252 -0.12506971 -0.21636483 -0.13471265 0.16127938 -0.0010809524 -0.14746508 -0.014259508 0.25388253 0.04180974 0.028295042 0.108716615 -0.17134602 -0.26495197 0.044926845 -0.10378684 0.012274048 -0.058658537 -0.034194548 -0.059429932 0.121647954 0.04574658 -0.06278194 0.13074853 0.1491223 -0.037553724 -0.0202441 -0.126824 0.046895467 0.05494756 -0.029547233 -0.1558785 -0.045430467 -0.0014448006
13 -0.003215766 -0.053908885 0.3392602 0.102814496 0.022457238 -0.2030029 -0.15633233 -0.049073864 -0.022520471 -0.12106119 0.255215 0.013572148 0.14242479 -0.07124316 -0.15174408 -0.06846966 -0.16975836 0.04374673 -0.01846745 0.12125592 0.102326855 0.025913084 0.24090572 -0.020834219 0.009246507 0.259224 -0.18436897 0.023716748 -0.17926961 -0.0831548 -0.06774255 -0.1777935 -0.22778757 -0.17782152 0.21170543 0.012890259 -0.19788484 -0.02377498 0.29800034 0.05106866 0.005279517 0.11098533 -0.20513137 -0.30053356 0.037059985 -0.12821375 0.01587244 -0.057006158 -0.03706551 -0.06371236 0.13658388 0.0725438 -0.050879538 0.15475328 0.16757898 -0.039407257 -0.03651679 -0.14740828 0.0610869 0.076722674 -0.053634137 -0.18672004 -0.07088301 -0.010177753
14 -0.015683161 -0.054157585 0.34159327 0.083205044 0.02068226 -0.20796001 -0.13307248 -0.060539782 -0.032782003 -0.11720178 0.28336385 0.025601724 0.10788425 -0.06870755 -0.1487396 -0.07210826 -0.15240887 0.03540626 -0.01538346 0.13164349 0.10139016 0.018504158 0.23264688 -0.009772292 0.0018111125 0.23935314 -0.19041398 0.027091714 -0.16967605 -0.099448584 -0.07393622 -0.17514452 -0.23579991 -0.16849057 0.19585307 0.019546948 -0.16265795 -0.029506803 0.29968652 0.06910596 0.037232697 0.12250129 -0.19406438 -0.31860098 0.0389378 -0.12704355 0.017002318 -0.06128256 -0.01903912 -0.07323006 0.1349791 0.07294179 -0.051163 0.13993755 0.19051468 -0.020130476 -0.014125025 -0.16114865 0.06849957 0.08670671 -0.02343883 -0.18492338 -0.06874027 0.016229888
6 -0.0063670534 -0.04299325 0.33023906 0.10196051 -0.0011969511 -0.18016627 -0.120427296 -0.048476692 -0.018034859 -0.11787529 0.24475178 0.009128525 0.10314875 -0.078682184 -0.12863052 -0.054698016 -0.12931256 0.02071649 -0.022442276 0.13019495 0.0841919 0.026731383 0.21910517 -0.0133696105 0.011030938 0.22868998 -0.1535462 0.025042942 -0.15885763 -0.07602555 -0.049856804 -0.14985037 -0.23781268 -0.16930488 0.17351083 0.0068669436 -0.16440398 -0.011074057 0.2722854 0.05085964 0.018443469 0.1146555 -0.1655444 -0.27699712 0.046180077 -0.13392426 0.012985279 -0.038946893 -0.027384786 -0.075266674 0.13229352 0.05081036 -0.054704737 0.15119949 0.15094136 -0.03671949 -0.03264372 -0.12278581 0.04343695 0.080141924 -0.046269003 -0.15128174 -0.044940285 0.0048464052
17 -0.010346276 -0.04307706 0.30088383 0.085338086 0.012657712 -0.182002 -0.13165274 -0.054683946 -0.021463746 -0.11285282 0.23582964 0.011998831 0.11308554 -0.08059363 -0.12724487 -0.07207474 -0.14364734 0.029268343 -0.015761353 0.100825064 0.0760657 0.025873518 0.19133224 -0.0038660055 -0.00844208 0.21777536 -0.15432253 0.033054397 -0.1532641 -0.06298945 -0.057731513 -0.14455184 -0.20999025 -0.13032483 0.1765482 -0.0006380014 -0.15105939 -0.036490124 0.25286594 0.06724405 0.013534593 0.09698516 -0.16125889 -0.2423476 0.024420002 -0.11386205 0.025943624 -0.046693746 -0.019401455 -0.07009193 0.12527686 0.04208376 -0.054054674 0.1293255 0.13929538 -0.024662415 -0.01947634 -0.13324799 0.032370456 0.08478001 -0.023917312 -0.15903988 -0.042349827 0.0028777842
10 0.00041827268 -0.047583338 0.3079018 0.09124733 0.029777708 -0.18141095 -0.12726147 -0.06440442 -0.0352479 -0.12733182 0.23101196 0.0033387602 0.11862486 -0.082949035 -0.124198526 -0.06362366 -0.14316532 0.026226161 0.00861127 0.12602709 0.068264835 0.03226367 0.19102049 0.0006821445 -0.00547907 0.2190795 -0.14545716 0.037872437 -0.15114631 -0.053357057 -0.041021496 -0.15836331 -0.2258704 -0.15944374 0.18080445 0.0011285865 -0.17510958 -0.037827365 0.26547018 0.059022233 0.0014837092 0.094002135 -0.1636218 -0.2704691 0.043574125 -0.12664998 0.017775273 -0.06198043 -0.014503613 -0.04999013 0.12081062 0.05872841 -0.06293575 0.13228221 0.14489587 -0.043838404 -0.039487023 -0.12920843 0.05828973 0.077509336 -0.047585487 -0.1647521 -0.055785943 -0.0035885156
7 -0.03323506 -0.06242177 0.34578335 0.050031867 0.0048343944 -0.2020803 -0.15587528 -0.08063226 -0.028124243 -0.13969769 0.2800132 0.031001838 0.08334109 -0.07536441 -0.1558294 -0.106190816 -0.1533631 0.034071367 0.0058740047 0.089379735 0.06545365 -0.029263362 0.23550937 0.011752301 0.0027608145 0.2596814 -0.16843382 0.011222159 -0.14997983 -0.1207736 -0.08299026 -0.15460023 -0.25680977 -0.1600369 0.20367968 0.028289797 -0.15983891 -0.01430339 0.26734367 0.04668558 0.061979067 0.14132814 -0.23741771 -0.3071501 0.088583246 -0.1635634 0.0111995945 -0.07318503 -0.0084425 -0.06524263 0.12654492 0.042918272 -0.05673068 0.15044002 0.1840035 -0.0033921893 -0.015556779 -0.16491514 0.05490914 0.1086462 -0.015571913 -0.15847084 -0.046683766 0.029657658
3 -0.03759962 -0.04171122 0.33564755 0.061797813 0.025337663 -0.19450064 -0.13738783 -0.093854025 -0.015025124 -0.14927325 0.24679764 0.03211672 0.081644736 -0.061679136 -0.14000621 -0.07635205 -0.16070943 0.015860543 0.014568927 0.104032 0.062925436 -0.03331455 0.22795177 -0.01000151 0.004162446 0.23467425 -0.17006975 0.016010847 -0.15731078 -0.10622058 -0.05861664 -0.14270419 -0.2529415 -0.14798075 0.20439027 0.019614382 -0.14754209 0.004891599 0.23990971 0.057047106 0.06656262 0.133131 -0.2119981 -0.3110338 0.07684201 -0.15176035 0.037476342 -0.057819333 -0.015366972 -0.05838167 0.101101786 0.044204783 -0.061266717 0.13681252 0.18611555 0.011042021 -0.001433735 -0.13931711 0.03706822 0.10140362 -0.034919154 -0.17220806 -0.050914593 0.0058745565
5 -0.016748507 -0.066215284 0.38558862 0.04869901 0.020919729 -0.19255692 -0.17351459 -0.102112055 -0.023742408 -0.15584396 0.28369823 0.006845551 0.07599951 -0.06771305 -0.18727675 -0.11674812 -0.16861834 0.011475309 -0.0114641525 0.08967542 0.075669646 -0.029048748 0.26114252 0.0007275967 -0.013862514 0.28120586 -0.19954717 0.010003125 -0.18489109 -0.12951703 -0.0798143 -0.14704272 -0.279077 -0.15114762 0.22750603 0.010276149 -0.14728263 0.0024160857 0.27344364 0.07205973 0.06976424 0.12691145 -0.2501167 -0.32541782 0.084113546 -0.17360291 0.04345791 -0.07634045 -0.030671902 -0.069286756 0.10954324 0.05793849 -0.074859805 0.15809825 0.1980235 -0.0028653173 0.015353017 -0.17245719 0.04577025 0.11808948 -0.009793505 -0.18727802 -0.033671174 0.03522144
1 -0.031745076 -0.044493865 0.39435014 0.060552683 0.006500252 -0.21796407 -0.16938235 -0.093029186 -0.0042966995 -0.15882605 0.2936049 0.025092779 0.111059755 -0.0766729 -0.18487166 -0.11502839 -0.17024277 0.031227257 0.000886143 0.10153685 0.05903077 -0.015077444 0.25120556 0.010565908 -0.020140983 0.28669068 -0.20149003 0.019724328 -0.1836513 -0.13274369 -0.082501486 -0.16622406 -0.29549253 -0.17372221 0.21395387 0.020237533 -0.16579622 -0.016958205 0.27956164 0.0762474 0.07416458 0.13307907 -0.25814068 -0.3519299 0.09627127 -0.1703173 0.008657144 -0.06744263 -0.006657801 -0.08261109 0.11309258 0.07535275 -0.08334846 0.16226794 0.20120054 0.010051778 0.011005831 -0.16614845 0.05251437 0.12674877 -0.030235074 -0.16802596 -0.061467588 0.03640968
15 -0.026966114 -0.061311375 0.36668524 0.06372218 0.021405008 -0.2056869 -0.16185603 -0.079754815 -0.0048307283 -0.15494302 0.2798287 0.007275445 0.08247749 -0.072891116 -0.17936209 -0.092662826 -0.15802614 0.02073369 0.007229845 0.118793264 0.086865425 -0.019624617 0.24526355 -0.00670942 -0.019633928 0.271048 -0.18565878 0.017131781 -0.17273615 -0.12175899 -0.06702633 -0.16205274 -0.28042108 -0.14487864 0.21660273 0.0331705 -0.1479354 -0.006433453 0.28669304 0.05490275 0.04398957 0.13832197 -0.22391671 -0.32941166 0.09358981 -0.16465698 0.038414735 -0.06326107 -0.028664712 -0.070383064 0.10285315 0.052323725 -0.06464952 0.16765568 0.20525089 -0.016799733 0.0033263515 -0.15403476 0.04532171 0.09122738 -0.024495095 -0.18680426 -0.037828214 0.010255882
8 -0.0038748863 -0.00064275885 0.3842138 0.09483648 0.0052241255 -0.18803678 -0.15609989 -0.095832534 -0.008424265 -0.13735147 0.29426098 0.020253548 0.12736776 -0.08820313 -0.16210796 -0.07835295 -0.17361894 0.013236729 -0.007513765 0.1348596 0.07198268 -0.022938147 0.25928748 -0.005722441 -0.0024553635 0.2552941 -0.16898927 0.0058972132 -0.19342276 -0.107993014 -0.05739987 -0.16832107 -0.29365095 -0.18519817 0.21589404 0.013950594 -0.2326192 -0.02287831 0.26429218 0.07855181 0.05052889 0.15496905 -0.24680455 -0.35905242 0.043805845 -0.17753312 -0.012892476 -0.054638952 -0.028708633 -0.0790339 0.1470262 0.066587605 -0.048960123 0.14729711 0.18813728 -0.022187743 -0.020944085 -0.13999893 0.06477502 0.10077887 -0.048007794 -0.16949983 -0.025839942 0.021805458
9 -0.0064350013 -0.0047496036 0.32016718 0.063282244 -0.0003784613 -0.17396724 -0.14382693 -0.05279961 -0.0085381 -0.12823829 0.23228458 0.0249457 0.100721136 -0.07493751 -0.1293244 -0.07362234 -0.13817571 0.018155584 -0.009440394 0.12332586 0.065711364 -0.025674712 0.2137577 -0.011703771 -0.0040482427 0.21412311 -0.1534448 0.010943842 -0.13567914 -0.088668495 -0.070256956 -0.122383215 -0.22902857 -0.15699637 0.194372 0.011410451 -0.16895768 -0.009041043 0.21563008 0.07091906 0.035959337 0.12095295 -0.186023 -0.2757217 0.050954204 -0.123941295 -0.0022459088 -0.050283425 -0.021939358 -0.051241994 0.10531728 0.06255464 -0.040769786 0.13088578 0.15620919 0.0033789133 -0.0168899 -0.10839931 0.065260895 0.06714014 -0.047541328 -0.14106393 -0.027928522 0.0053864806
16 -0.0161873 -0.003166548 0.38587976 0.08292482 0.00022839988 -0.19941567 -0.1651744 -0.09497925 -0.002253837 -0.14670855 0.28794926 0.028837377 0.11872866 -0.0972677 -0.15367001 -0.09182318 -0.15717953 0.011360522 0.0047634267 0.13392326 0.073844425 -0.02007416 0.2405254 0.011179891 -0.004126708 0.23663868 -0.18365283 0.016395953 -0.16737173 -0.09024165 -0.08262838 -0.14912465 -0.2650642 -0.16844767 0.23132823 -0.0057322504 -0.22716637 -0.018435175 0.28325853 0.081093505 0.05096076 0.13587128 -0.21417408 -0.35364422 0.04060951 -0.17169608 -0.004808767 -0.041910056 -0.031121818 -0.07849894 0.14445446 0.05744432 -0.041860454 0.1325855 0.18649083 -0.0012926932 -0.014261712 -0.14539999 0.07646379 0.08334167 -0.056190822 -0.16425261 -0.028901918 0.0036015448
0 -0.022620415 -0.0069366945 0.35471806 0.07365056 0.017703414 -0.17679822 -0.15786411 -0.07610674 0.01144438 -0.122354455 0.28129992 0.027115632 0.12163425 -0.08025434 -0.16020207 -0.08014241 -0.15606833 0.014870656 -0.016324334 0.13605751 0.053543475 -0.029362127 0.22844836 -0.002156393 -0.018441193 0.23563454 -0.17303646 0.010757795 -0.18099603 -0.09352369 -0.062435515 -0.15349512 -0.26729888 -0.17397468 0.21839854 0.010843171 -0.21621698 -0.030800337 0.25764853 0.07608254 0.025420249 0.13957714 -0.23254104 -0.33597377 0.05753275 -0.16034795 0.0066217473 -0.032654874 -0.029296756 -0.0473602 0.12604465 0.0760873 -0.044001542 0.11844441 0.16777724 0.0048741926 -0.005877033 -0.121360086 0.07963474 0.10608621 -0.064631745 -0.144683 -0.045778062 0.014849433
12 1.3852128e-05 -0.0015566581 0.35501778 0.08242635 0.005421789 -0.16539575 -0.15424642 -0.073737085 0.013448468 -0.13716552 0.2687166 0.006056705 0.13499528 -0.06418756 -0.14161608 -0.06666471 -0.14629166 0.0044921166 -0.007932413 0.13532011 0.053489063 -0.02135453 0.23164241 0.003456547 -0.010004554 0.2193145 -0.14747885 0.004283787 -0.1686951 -0.09841506 -0.069021784 -0.16181852 -0.2576811 -0.18051483 0.20246871 -0.011283131 -0.21868886 -0.03987189 0.23583294 0.08313064 0.042343695 0.12725613 -0.2129893 -0.32566133 0.04603886 -0.14816873 -0.00017398523 -0.043045145 -0.023899617 -0.05905335 0.10976203 0.050223894 -0.06286446 0.12421568 0.16716583 0.0042543714 -0.01959407 -0.13197292 0.084945425 0.086713955 -0.053861517 -0.13185813 -0.031699494 -0.0010839638
