16 64
7 -0.03218004 -0.12852831 0.3974234 0.13395119 -0.15992734 -0.29036576 0.016520962 0.08782644 -0.21756539 -0.28945616 0.28505838 0.023715934 -0.17074476 -0.02506696 -0.16396827 -0.16786316 -0.046607945 0.022219712 -0.05367281 0.08131861 0.22739586 0.023407072 0.38692138 -0.07766957 0.1284751 0.28119168 -0.21206102 0.059652638 -0.09494845 -0.21101277 -0.09959055 -0.0021343993 -0.20752701 -0.24146597 0.15741453 0.12294101 0.1209605 0.17499708 0.3018882 0.0016843424 0.11095309 0.15173669 -0.15240216 -0.21336874 0.12102233 -0.18624955 -0.020149924 -0.090673156 -0.011173421 0.005655777 0.049623832 0.12492557 -0.00653278 0.33139783 0.30142272 -0.0752479 0.05191789 -0.22871317 -0.010720892 0.03706215 0.089869365 -0.22283953 -0.04391171 0.029758615
10 -0.024083681 -0.08935 0.27828175 0.09524392 -0.10698462 -0.1972688 0.010357103 0.068300106 -0.15085943 -0.21980204 0.20311287 0.017130068 -0.10172463 -0.026412778 -0.12035289 -0.13488539 -0.040180758 0.020662079 -0.020343494 0.07847533 0.14595181 0.015839338 0.27984884 -0.064939916 0.07660666 0.21903908 -0.14963715 0.03828927 -0.055816434 -0.14524885 -0.0476698 0.0072916355 -0.17341974 -0.1743511 0.119104534 0.09972208 0.06377161 0.1356808 0.2260992 0.016322924 0.09831538 0.090637095 -0.09936454 -0.13665743 0.08252607 -0.14215107 -0.0043338565 -0.08976402 -0.024324492 0.0077294903 0.047248904 0.097422816 0.009020717 0.24990846 0.20017804 -0.051407978 0.037692603 -0.16490324 0.009622902 -0.0006048555 0.07707525 -0.15726463 -0.035458796 0.034377065
11 -0.022085905 -0.06426485 0.24555334 0.06475045 -0.08553651 -0.17580573 0.007990282 0.049103417 -0.11190768 -0.15911399 0.17738493 0.03136767 -0.07839252 -0.032517973 -0.10921887 -0.10080948 -0.039215814 0.027593259 -0.012612893 0.05211902 0.12949042 0.012430424 0.23582658 -0.06316312 0.068326205 0.1770148 -0.12709117 0.044692423 -0.035123706 -0.10879838 -0.05292707 0.012092562 -0.14436653 -0.1296228 0.090325065 0.066058256 0.06643082 0.11604562 0.1918025 -0.0031126146 0.085650295 0.094047 -0.09039485 -0.1349353 0.078194655 -0.09869525 -0.0053965608 -0.07481303 -0.024204355 -0.0070533836 0.04543338 0.064665385 -0.014669273 0.20141518 0.17751774 -0.050759733 0.029183844 -0.13426675 -0.0026938731 -0.0042318255 0.059287217 -0.14163028 -0.022330849 0.01991178
5 -0.01860959 -0.09890931 0.25636172 0.08364256 -0.08762396 -0.1929763 -0.013779937 0.058089048 -0.13834332 -0.18637961 0.17225705 0.016063595 -0.092540875 -0.011631208 -0.114284866 -0.10983955 -0.05102691 0.02713458 -0.032665376 0.055724245 0.15883423 0.011952297 0.26486677 -0.063485056 0.08548908 0.21107325 -0.1565431 0.027057666 -0.066988915 -0.14460425 -0.06592047 -0.01384427 -0.13560799 -0.16023973 0.12348372 0.09308104 0.061279442 0.12880048 0.21171798 -0.006119188 0.07195205 0.09057221 -0.1104254 -0.14023714 0.08133945 -0.11802769 -0.0026426837 -0.07401006 -0.022776324 -0.0009873582 0.038550656 0.09137156 0.005221308 0.22926646 0.19549271 -0.049678512 0.024831165 -0.1498053 -0.0010500686 0.009566478 0.05082272 -0.16363198 -0.042229913 0.016582165
12 -0.02995328 -0.09824444 0.25072947 0.074397296 -0.09435915 -0.19694449 0.024598638 0.05080447 -0.15642789 -0.17212994 0.19823219 0.032573693 -0.13302769 -0.009196954 -0.09159826 -0.09577714 -0.022815866 0.01551462 -0.036503483 0.08005026 0.16567369 0.012867651 0.2513048 -0.053199 0.091670014 0.17511058 -0.15721932 0.029678697 -0.053524747 -0.15575138 -0.07034747 -0.015420255 -0.13348635 -0.15895222 0.09753368 0.098978534 0.09533531 0.12359407 0.21676958 0.010508962 0.10243262 0.10543634 -0.07818084 -0.155964 0.070245236 -0.11062794 -0.0064266585 -0.0697886 -0.00076010125 -0.018357994 0.049021695 0.087726444 0.013411261 0.20924914 0.21514575 -0.03215527 0.035751816 -0.15745783 0.0077468287 0.01675149 0.077128574 -0.15774205 -0.04193728 0.042426627
2 -0.029601377 -0.107604936 0.31794044 0.10993547 -0.13430491 -0.21893467 0.024798533 0.06374015 -0.16421181 -0.21475774 0.21889539 0.02375989 -0.15134743 -0.025746664 -0.10684155 -0.105234854 -0.01985341 0.0063571515 -0.051484548 0.09351295 0.18078649 0.016814148 0.30757642 -0.067620724 0.11705862 0.22250631 -0.16172482 0.031953797 -0.06864473 -0.17295551 -0.06586759 -0.004356344 -0.18569139 -0.20038047 0.11021655 0.10439962 0.09585432 0.16555953 0.24657439 -0.0055247447 0.108720124 0.13157296 -0.09338825 -0.17050509 0.10223184 -0.15381205 -0.009874603 -0.06372722 -0.013349946 -0.03012264 0.06338484 0.08157842 0.0029540227 0.27274618 0.22902718 -0.054465503 0.024677655 -0.15995161 -0.01634815 0.025839476 0.06496373 -0.16329393 -0.026855478 0.040055797
0 -0.024044758 -0.08423178 0.2600859 0.08433383 -0.09534853 -0.19316891 -0.0068559423 0.045514654 -0.1326992 -0.18282893 0.18908913 0.018697558 -0.0921762 -0.034013413 -0.10315143 -0.1129828 -0.045273498 0.016953912 -0.035536118 0.05676937 0.14300095 0.018258957 0.24120444 -0.048420433 0.06935521 0.19279274 -0.14401098 0.03969737 -0.06462005 -0.12631914 -0.06346357 -0.0067360355 -0.14540991 -0.1360531 0.11125354 0.07284126 0.068687305 0.10426678 0.20396791 0.019616634 0.07748363 0.09341576 -0.08749048 -0.12340422 0.06211199 -0.11581484 0.00524203 -0.06369866 -0.0111515 -0.020590192 0.053963363 0.0646117 -0.0036355283 0.21432793 0.18217054 -0.04015892 0.03164938 -0.14937617 -0.018718868 0.026563188 0.06845941 -0.15322706 -0.019815283 0.025799586
8 -0.012442551 -0.12645586 0.34462228 0.10451763 -0.10144993 -0.24266547 -0.008731608 0.04702585 -0.19342832 -0.26642612 0.2288938 -0.0011345521 -0.13033359 -0.04223638 -0.1413897 -0.15069331 -0.05241725 0.013156966 -0.014613748 0.09321142 0.1736101 0.02954958 0.31030786 -0.053254526 0.08301866 0.2593697 -0.17763555 0.056500614 -0.07921263 -0.15895508 -0.06128421 -0.014811167 -0.20861506 -0.20249361 0.14989962 0.099549614 0.082282595 0.14053659 0.27232665 0.015518398 0.0846235 0.10501161 -0.11796809 -0.1815228 0.11850289 -0.1699586 0.0036797018 -0.10938021 -0.00917026 0.0059898766 0.04429845 0.10992557 -0.02154814 0.28898308 0.24358079 -0.07842758 0.02841222 -0.19082788 0.0038879379 0.024959674 0.06920997 -0.20646276 -0.035220455 0.03130003
14 -0.045038704 -0.11589393 0.28978774 0.077863984 -0.12701076 -0.22601828 0.013456342 0.050715957 -0.17780674 -0.20841283 0.22545478 0.04458933 -0.15297969 -0.028269576 -0.10039473 -0.12791058 -0.02861423 0.02404672 -0.026815878 0.06479236 0.16443832 -0.007312082 0.28885812 -0.0459447 0.115280755 0.21698537 -0.15354936 0.027241727 -0.04464612 -0.17855717 -0.08303382 -0.007910957 -0.16755502 -0.1849312 0.11401516 0.11540101 0.09036979 0.14694706 0.23512912 -0.012265482 0.123013265 0.1376947 -0.114532866 -0.162412 0.10787268 -0.15359083 -0.020475673 -0.08514095 0.005628546 -0.020698043 0.07092643 0.06957667 0.0138980495 0.25287795 0.22884548 -0.038782876 0.019230103 -0.17966291 -0.0042346953 0.032015324 0.084734984 -0.15793096 -0.03236578 0.05096779
13 -0.041643478 -0.09101587 0.27794603 0.09036202 -0.09524962 -0.21158674 0.01917691 0.03437201 -0.15493432 -0.2124589 0.18917918 0.03822148 -0.13205168 -0.017767671 -0.089945935 -0.097409785 -0.043950237 0.007486835 -0.016198456 0.07925358 0.15532883 -0.0063169817 0.27428636 -0.065122165 0.10609903 0.19317508 -0.1527145 0.033660606 -0.058237657 -0.15152276 -0.05600831 -0.0033114038 -0.16264707 -0.16981831 0.12060762 0.096302174 0.08220903 0.15160707 0.20882773 0.0013015197 0.112080835 0.120803125 -0.093698524 -0.16684352 0.090479694 -0.13812296 0.0079106605 -0.07002738 -0.0066297376 -0.009273877 0.045683566 0.07215908 0.0038080607 0.23130211 0.22095433 -0.029919855 0.028850293 -0.15109326 -0.015122758 0.023297224 0.056009572 -0.17141561 -0.037004266 0.020113202
1 -0.01027581 -0.1105967 0.31200325 0.07835163 -0.102718465 -0.19640058 -0.010441712 0.03806844 -0.16678546 -0.22313829 0.20700398 0.0008207574 -0.14029366 -0.021961588 -0.13560747 -0.1423092 -0.042583954 -0.00011330418 -0.041879147 0.059148733 0.1638152 0.005746108 0.29623955 -0.055515483 0.0811983 0.23014273 -0.17153397 0.031746138 -0.07752557 -0.16345434 -0.069498464 0.008879418 -0.17541748 -0.16556388 0.13543038 0.082940646 0.09237139 0.14894617 0.2262142 0.018751469 0.10304428 0.09631403 -0.11711212 -0.15393095 0.09242229 -0.15278341 0.01183746 -0.089498 -0.024870377 -0.0058953944 0.03896045 0.09193288 -0.008873864 0.251552 0.21928447 -0.052157555 0.049485456 -0.17617498 -0.0069113504 0.02760767 0.08349007 -0.17907867 -0.013138672 0.04506053
6 -0.02758064 -0.09300115 0.27728373 0.07335244 -0.105355404 -0.20326352 -0.0014611614 0.04741939 -0.13789715 -0.20329398 0.18660665 0.01776277 -0.10740162 -0.02363287 -0.12153734 -0.1314213 -0.036329202 0.023569858 -0.02379985 0.051010128 0.1363845 0.02052567 0.25292233 -0.04234746 0.06759099 0.21467929 -0.15833709 0.040026482 -0.060859043 -0.15368998 -0.066471145 -0.0036794434 -0.16353764 -0.1584584 0.10273723 0.09133464 0.09168355 0.12336537 0.2080102 0.012184897 0.09875963 0.08703579 -0.10843987 -0.14842618 0.10260435 -0.12857361 -0.015758296 -0.07735609 0.0020275179 -0.016764922 0.029769784 0.09760053 -0.01690959 0.23509912 0.20171542 -0.03682903 0.046058647 -0.15625712 -0.009751871 0.030636104 0.06675443 -0.14725463 -0.04065449 0.043736033
3 -0.020425072 -0.1009727 0.2683338 0.07824761 -0.08684902 -0.18979828 -0.006187435 0.05152838 -0.12771825 -0.20185636 0.18654136 -0.001932056 -0.12158985 -0.023116881 -0.12401762 -0.10985324 -0.032031596 0.008530113 -0.01938232 0.07840528 0.15775923 0.009922939 0.25493422 -0.05679789 0.06135623 0.20627314 -0.14661619 0.03369346 -0.062544934 -0.14571293 -0.051974483 -0.008991776 -0.16623372 -0.13881195 0.116649725 0.09827372 0.08629536 0.12627235 0.21976282 0.0005621707 0.06984192 0.09836169 -0.08907764 -0.1475385 0.10042762 -0.13206708 0.013061825 -0.071237616 -0.022805355 -0.0069876662 0.024362363 0.07748537 -0.002714467 0.23820399 0.20878303 -0.058484886 0.038598478 -0.14454031 -0.0073279846 0.0027082544 0.06401772 -0.16480796 -0.01522002 0.019307153
15 -0.008495871 -0.053165946 0.22113915 0.07441525 -0.085071705 -0.1486546 0.008341703 0.025142465 -0.12352973 -0.15705407 0.15351437 0.014637815 -0.09266251 -0.025680754 -0.0866127 -0.08807643 -0.03764566 0.0061013377 -0.019339506 0.055180307 0.1206523 -0.0003915142 0.21836944 -0.04678143 0.069794394 0.1623361 -0.10936986 0.018979236 -0.056062996 -0.121092536 -0.035322074 -0.0017359002 -0.14142941 -0.13083063 0.085952625 0.08043096 0.043113016 0.108036056 0.15380658 0.00853814 0.08079081 0.093859084 -0.09121305 -0.12838587 0.057402004 -0.11799334 -0.023030033 -0.0645637 -0.010277619 -0.01592678 0.04628522 0.069537655 0.009540237 0.18841125 0.16498023 -0.04999412 0.020731537 -0.11527615 -0.010321075 0.0133623155 0.05465182 -0.13009672 -0.0041815434 0.03569671
4 -0.01784624 -0.081226684 0.29876468 0.07936014 -0.11556369 -0.21747638 -0.009173367 0.06459615 -0.1592171 -0.22264275 0.1951109 0.026611358 -0.12623356 -0.03437693 -0.113471225 -0.12776913 -0.041007094 0.015729647 -0.032110363 0.08389961 0.1653954 -0.00562447 0.28689468 -0.06677895 0.087784395 0.21759799 -0.16288821 0.034812126 -0.04848787 -0.15671654 -0.07741965 0.015095723 -0.16828561 -0.17621894 0.13433206 0.09884545 0.084777355 0.14975098 0.20799424 0.015697517 0.09481016 0.113625534 -0.10088932 -0.14785223 0.096509814 -0.12957542 -0.013590979 -0.085636504 -0.013718472 -0.0017443312 0.040199775 0.09691827 0.0064800484 0.25541064 0.21817844 -0.03914213 0.030577753 -0.14779434 0.002103207 0.0035678966 0.06057982 -0.17025489 -0.016753078 0.028305776
9 -0.024341367 -0.06654382 0.2635252 0.073421545 -0.101904504 -0.1865797 -0.0028647168 0.02953457 -0.1337025 -0.18771246 0.17899331 0.027791668 -0.112827495 -0.039432734 -0.09517595 -0.11519854 -0.029041085 0.0065101287 -0.013240113 0.06298922 0.1438221 0.002676828 0.23730831 -0.037562456 0.07953523 0.1711696 -0.1455732 0.033786792 -0.04141238 -0.122008644 -0.07091231 0.014040621 -0.13566417 -0.13498133 0.11849676 0.069462664 0.053379323 0.12718274 0.20484136 0.011669235 0.093133636 0.09266324 -0.07631399 -0.14902033 0.06339881 -0.12984514 -0.01468124 -0.05988681 -0.016545722 -0.019450467 0.05480502 0.06855394 0.015460404 0.20169944 0.19167842 -0.035519775 0.031025087 -0.14262831 0.0012038349 0.0009754513 0.054236054 -0.14734715 -0.009830362 0.02150223
