33 64
27 0.10491504 -0.085397705 0.3368053 0.22538255 -0.109792545 -0.26008692 -0.039791547 0.14043248 -0.03591415 -0.06963323 0.043373927 -0.15661645 0.11882336 -0.009695911 -0.061764725 0.1259592 -0.12860169 0.037689324 -0.12719923 0.088403426 0.2856033 0.18613666 0.38205588 0.055353187 0.1094987 0.21472694 -0.16957796 -0.06698894 -0.08444483 -0.13332947 -0.16888738 -0.009233255 -0.24135746 -0.2869962 0.12203703 0.11919013 0.12795532 0.1515904 0.32925 2.5912144e-05 0.050213203 0.088100135 -0.01610047 -0.20859037 -0.016803168 -0.01711143 -0.043186385 -0.06410585 0.0035722707 0.0025428785 0.069514975 0.027506838 0.04301715 0.24707714 0.23327704 0.18611471 0.07388302 -0.124418855 -0.17425513 -0.023688568 0.013818367 -0.120859645 -0.0011091589 0.09860075
9 0.04205947 -0.21385019 0.32984278 0.3427739 -0.08025722 -0.3367389 -0.013428255 0.13092579 -0.065888435 -0.10391054 0.19330713 -0.065730475 0.23977125 -0.10868151 -0.11490538 0.07785818 -0.101746246 0.10358228 -0.10050092 0.19764382 0.31154788 0.31895185 0.37046647 -0.05697744 0.17442279 0.26740512 -0.23202781 0.026576916 -0.13536811 -0.079306036 -0.065401256 -0.13976039 -0.17116442 -0.29454252 0.11950348 0.111780055 -0.028722918 0.0377432 0.5394638 0.019462848 -0.0004146691 0.025952946 0.008304136 -0.19811471 -0.0480869 -0.027792336 0.02981435 -0.06011675 -0.076717444 -0.076058626 0.18741068 0.11282927 0.0021148855 0.28501007 0.12766856 -0.076854475 -0.06727992 -0.18257423 -0.04357463 -0.036420334 0.0021983236 -0.19597264 -0.11905018 0.03436547
3 0.04219392 -0.21116853 0.3517081 0.30905208 -0.068614446 -0.34905416 -0.013308336 0.13166982 -0.06380839 -0.08541867 0.20833373 -0.044461146 0.22557276 -0.09972304 -0.122152075 0.07017447 -0.11330917 0.12246586 -0.09390242 0.18420403 0.31664854 0.3041311 0.35970297 -0.09268113 0.1699538 0.27358085 -0.23882282 0.05269349 -0.12970659 -0.060781397 -0.060348906 -0.13663192 -0.1749204 -0.2725565 0.10920955 0.09218705 -0.014205488 0.059371542 0.5238871 -0.0024910697 -0.0031530166 0.05636303 -0.012473223 -0.21087225 -0.026477199 -0.023908876 0.035395227 -0.06804915 -0.076279774 -0.08759829 0.1870518 0.101312876 -0.034223657 0.2899342 0.14793386 -0.10017333 -0.06940722 -0.17656943 -0.062031638 -0.02634403 -0.0023597642 -0.22499156 -0.13297309 0.010528542
24 0.048951764 -0.22176762 0.32786053 0.2813187 -0.059092287 -0.33491418 -0.03498279 0.1444368 -0.08195936 -0.08862717 0.15507048 -0.06625942 0.18729977 -0.046438318 -0.10381016 0.068632506 -0.12417403 0.12324857 -0.09896157 0.1633563 0.31171787 0.26565257 0.3400107 -0.08378216 0.16264401 0.28065664 -0.23876737 0.015973678 -0.14691593 -0.082843676 -0.056069233 -0.13782343 -0.16469847 -0.27152342 0.13317038 0.11370187 -0.0053774086 0.08339967 0.46032304 -0.0152117545 -0.012883502 0.05740046 -0.024110872 -0.17530312 -0.019621182 -0.04581144 0.027031511 -0.07210541 -0.049730867 -0.06220496 0.15442123 0.102424175 -0.008603013 0.28997362 0.16146456 -0.05575138 -0.06290638 -0.16277887 -0.086100854 -0.0071918783 -0.007631679 -0.22747518 -0.1475801 0.0076709054
30 0.06569966 -0.18518043 0.31195372 0.3302046 -0.0813268 -0.31917608 -0.020665605 0.096000604 -0.04882805 -0.06947203 0.1776817 -0.080161065 0.22863516 -0.11716236 -0.08996463 0.1142698 -0.09772607 0.067998536 -0.1309728 0.18947954 0.33795983 0.31872827 0.37887064 -0.00870382 0.17437907 0.22288986 -0.23031119 0.017939981 -0.11326753 -0.09464583 -0.13579665 -0.14106189 -0.14448233 -0.28656477 0.09576232 0.10491841 0.0038885227 0.029560713 0.5484827 0.038444847 0.003914326 0.02824757 0.021876836 -0.24956456 -0.07800353 0.022466473 0.021241784 -0.039788842 -0.07265599 -0.10358491 0.17929973 0.10065535 0.017195348 0.24604023 0.14043182 -0.029451445 -0.03743311 -0.17820849 -0.044609487 -0.04264865 -0.0018306312 -0.17112994 -0.07402276 0.063083835
1 0.03218348 -0.24363044 0.3368036 0.33097172 -0.07815055 -0.34598324 -0.0039245747 0.13779382 -0.08370943 -0.096070886 0.20958008 -0.04805482 0.19889615 -0.093629695 -0.10644182 0.07561208 -0.08259432 0.114917606 -0.10839862 0.20853849 0.318414 0.31432 0.33896568 -0.095874995 0.19067807 0.26843777 -0.23472422 0.045374475 -0.15664734 -0.064433664 -0.032197975 -0.1610242 -0.1533571 -0.2809127 0.10430811 0.09529062 -0.030158168 0.043858856 0.5202639 -0.00480764 -0.024180716 0.049934573 0.009436215 -0.17935807 -0.027705755 -0.047258433 0.038847078 -0.03996826 -0.06527982 -0.10164809 0.1900795 0.10535036 -0.02716195 0.29700285 0.12354036 -0.13025862 -0.10387037 -0.16691455 -0.055506427 -0.0029162543 -0.011654609 -0.21383607 -0.14533278 0.0015883886
16 0.04111751 -0.22820994 0.34216926 0.34116897 -0.07957942 -0.3588951 -0.032377824 0.11338338 -0.06238384 -0.09678011 0.20751949 -0.06345473 0.23935015 -0.12156872 -0.1158076 0.07711394 -0.11033429 0.1035614 -0.118117705 0.18458131 0.32638824 0.32934386 0.35767034 -0.05164415 0.17534412 0.26712394 -0.24195643 0.042763557 -0.14857881 -0.07176526 -0.084271975 -0.16174735 -0.15426643 -0.26971957 0.11883349 0.09353593 -0.021388758 0.013304288 0.54894024 0.026669808 -0.019982062 0.033793513 0.005677911 -0.19896962 -0.05705441 -0.018867904 0.044266403 -0.045732856 -0.06833607 -0.10810077 0.1953868 0.095625944 -0.01891218 0.28004614 0.12505503 -0.088659845 -0.07316409 -0.18892683 -0.067835525 -0.005583996 -0.00021194897 -0.21147126 -0.11281757 0.022727028
22 0.058511805 -0.2009169 0.32323393 0.28778914 -0.056197565 -0.31861988 -0.027125517 0.111132264 -0.07970597 -0.10027047 0.1520922 -0.08241959 0.19384603 -0.07989646 -0.0905659 0.07911449 -0.11331339 0.09399376 -0.08311871 0.17641248 0.28790084 0.279386 0.3279904 -0.04121032 0.14839649 0.25331378 -0.2097791 0.026662787 -0.12913878 -0.06356921 -0.061341684 -0.13135873 -0.18169789 -0.27596405 0.11796642 0.09674698 -0.005410221 0.056021266 0.4670257 0.0070137675 -0.015453711 0.043620486 -0.0021354256 -0.19215205 -0.019379614 -0.036976065 0.02551266 -0.070357025 -0.03996113 -0.05944863 0.15016884 0.091349006 -0.018675672 0.26899776 0.14511447 -0.049331937 -0.060741648 -0.15473527 -0.07320609 -0.009344523 -0.012933865 -0.2002139 -0.11278747 0.024834229
18 0.07285276 -0.11690349 0.3487772 0.08664566 -0.106579974 -0.29618692 -0.055846497 0.15791163 -0.0640043 -0.081467405 0.0018797363 -0.13441092 0.011164006 0.07232944 -0.038993623 0.08252559 -0.157941 0.08597843 -0.053279802 0.04644709 0.2310962 0.06301198 0.31224313 0.04243994 0.081102 0.24825655 -0.150327 -0.10999656 -0.033167273 -0.15738876 -0.120969616 0.013047276 -0.3154979 -0.24133144 0.14817724 0.17529176 0.18765935 0.2423973 0.19657904 -0.0487807 0.122481465 0.15212779 -0.04435836 -0.15196614 0.08290608 -0.10758126 -0.05179087 -0.15547092 0.08940871 0.03139596 0.045321155 -0.014351142 0.032715105 0.28196856 0.30914143 0.26685128 0.091037214 -0.11013766 -0.24613202 0.0179469 0.05308324 -0.16740343 -0.051720172 0.095041685
17 0.05560821 -0.12112525 0.3679952 0.08160455 -0.08462809 -0.32891682 -0.042060055 0.15283406 -0.065655224 -0.10503118 -0.008354759 -0.11626141 -0.0056225313 0.104196005 -0.030819518 0.092210814 -0.18126157 0.09175988 -0.029818567 0.065349825 0.23471321 0.042259645 0.30167136 -0.0029262893 0.087942004 0.24770676 -0.16877344 -0.09573957 -0.04477614 -0.14746696 -0.07976353 0.0048412625 -0.3292708 -0.2271669 0.16414843 0.17936711 0.19538505 0.27740023 0.1737558 -0.046708126 0.13429701 0.16781119 -0.039078448 -0.16705787 0.09240015 -0.13175422 -0.01840171 -0.1604233 0.09740837 0.03692767 0.02669476 -0.0056636045 0.013823105 0.293304 0.34303713 0.27096972 0.103510976 -0.097763106 -0.27454033 0.032382075 0.036444012 -0.22344527 -0.09648975 0.049382467
7 0.16369161 0.012450945 0.38927096 0.103586495 -0.08308306 -0.15833746 -0.07355451 0.14872941 -0.04286547 -0.06267002 -0.051418535 -0.2202524 0.018853867 0.081284106 -0.010817589 0.095588766 -0.19766463 -0.00161927 -0.14124908 0.043718107 0.23978205 0.054237448 0.39494172 0.06348591 -0.002596201 0.2561667 -0.16983058 -0.13367137 -0.06690321 -0.15973538 -0.19822384 0.12215957 -0.38109717 -0.29826117 0.17596512 0.13303386 0.22086963 0.34675545 0.17522177 0.009222375 0.12855203 0.14513816 -0.053330507 -0.18800183 0.017581686 -0.04990159 -0.051133875 -0.12753843 0.024899872 0.060297307 0.029858598 -0.018538853 0.09564368 0.25125763 0.32104856 0.39725414 0.20348276 -0.06612732 -0.278054 -0.025082583 0.045140337 -0.120329805 0.060710117 0.17939635
15 0.065179415 -0.12533624 0.3571786 0.11012836 -0.09744438 -0.30888206 -0.043665197 0.1661703 -0.060528714 -0.08634274 0.017493939 -0.12464028 0.038385402 0.07168474 -0.061617523 0.069681354 -0.15302351 0.10165888 -0.05815094 0.06285959 0.2291952 0.10357116 0.29842982 0.008193765 0.07348193 0.26198983 -0.17958795 -0.079884514 -0.06671745 -0.14463848 -0.08761603 -0.007908628 -0.30766904 -0.23949309 0.13613977 0.16277471 0.17582092 0.22429886 0.21306589 -0.030246042 0.10958988 0.12384063 -0.042207927 -0.1515438 0.076890044 -0.101885155 -0.04359259 -0.14170696 0.08127241 0.014209581 0.039259262 0.029191926 0.0038516575 0.29145682 0.29437995 0.22040744 0.08811344 -0.10956001 -0.23614733 0.031776417 0.042992707 -0.18516344 -0.09476123 0.07910879
12 0.07413774 -0.12317657 0.36257434 0.08744609 -0.08264642 -0.29874644 -0.058778834 0.16330104 -0.042612758 -0.09574242 0.009336406 -0.14373387 0.0037988261 0.083153285 -0.05782938 0.080494046 -0.1638508 0.08124312 -0.04709984 0.077410154 0.24642156 0.06182599 0.30370584 0.0011499691 0.05589857 0.25885707 -0.16754745 -0.09174294 -0.047563814 -0.14849392 -0.08961357 0.00040391425 -0.32897025 -0.21588631 0.15781032 0.18027413 0.18960692 0.25741118 0.20912611 -0.040894784 0.09993211 0.15180114 -0.03543247 -0.1652372 0.09160534 -0.11866362 -0.014789706 -0.14952418 0.06586606 0.026536126 0.025003264 1.1773194e-05 0.02056694 0.2983212 0.32478485 0.23625678 0.10828234 -0.09563769 -0.251219 0.0063621723 0.04252407 -0.20720191 -0.064432606 0.058901023
0 0.1655375 0.0107079465 0.37600923 0.14876899 -0.09587923 -0.19075356 -0.058995772 0.14929436 -0.042370085 -0.06193453 -0.032740623 -0.20148432 0.059360236 0.05333124 -0.007952969 0.13086388 -0.20004387 0.016187157 -0.13263957 0.082629286 0.27010214 0.08816393 0.41350284 0.051663708 0.036125854 0.25805023 -0.15916826 -0.12576678 -0.077757895 -0.15433224 -0.17565481 0.082655706 -0.36602557 -0.3123268 0.14792058 0.15112017 0.17604707 0.3091134 0.20850646 0.0026502004 0.10956787 0.16086073 -0.047001034 -0.20656343 -0.0074225636 -0.039967027 -0.073137514 -0.119581155 0.021247046 0.027169757 0.05560445 -0.0057945377 0.09848759 0.27049065 0.30076405 0.34620756 0.15196007 -0.06567314 -0.2640445 -0.04712175 0.032928444 -0.117948994 0.056277193 0.17393717
10 0.17570592 0.032435145 0.3806375 0.1122276 -0.09651201 -0.18752256 -0.081647374 0.1869306 -0.044195876 -0.07432431 -0.069051184 -0.21048443 0.03401525 0.072171286 0.0050590085 0.12794472 -0.20409909 0.015953748 -0.14087294 0.086072244 0.27117106 0.054300617 0.42159465 0.055693336 0.016526481 0.2626432 -0.16380556 -0.13847049 -0.05527861 -0.15665449 -0.20763795 0.13020521 -0.37066853 -0.3216628 0.17109221 0.14718251 0.2186791 0.34481877 0.16345608 0.0033686785 0.10936051 0.16752948 -0.035119526 -0.17631325 0.011923564 -0.015544667 -0.076719835 -0.12772277 0.03324933 0.06163896 0.018407779 -0.015524351 0.11056906 0.27837196 0.31646997 0.41658747 0.16917089 -0.046080258 -0.2699812 -0.06959265 0.027587485 -0.1029286 0.071331136 0.17493555
6 0.13675894 -0.026488498 0.33044574 0.29086143 -0.13484827 -0.22145113 -0.07175056 0.059654284 0.037895124 -0.050542798 0.019585611 -0.19540125 0.2032664 -0.11899825 -0.051554434 0.18581165 -0.117791146 -0.041252494 -0.15347561 0.10480121 0.31331462 0.24388522 0.446782 0.16350318 0.12232052 0.16871774 -0.16240583 -0.095532574 -0.032491557 -0.14038447 -0.280119 0.010015016 -0.23623334 -0.3052915 0.11851771 0.10634055 0.0975283 0.12245757 0.44273752 0.057496376 0.07703283 0.025733959 0.0352763 -0.30048093 -0.08406951 0.056420326 -0.052432314 -0.025125159 -0.058715634 -0.055374496 0.107180156 0.008771127 0.10026021 0.20164755 0.18374248 0.23912518 0.09989052 -0.12109553 -0.13721034 -0.09777194 -0.010153624 -0.04439747 0.12366221 0.16406575
32 0.12883253 0.0065398575 0.37676603 0.18563934 -0.08740744 -0.17698456 -0.05882248 0.1481409 -0.004628805 -0.037676074 -0.015033059 -0.19969042 0.09872505 0.019248737 -0.038864333 0.14227396 -0.17326942 -0.00278871 -0.15729126 0.08338824 0.2472643 0.121190324 0.41064233 0.08050091 0.022478947 0.24081032 -0.17884538 -0.13006102 -0.08433923 -0.16146368 -0.20627594 0.07736997 -0.36817813 -0.33365834 0.18124555 0.15072367 0.17511477 0.26596037 0.2763723 0.012597094 0.09361693 0.12129844 -0.033791974 -0.22931488 0.0036001015 -0.015763788 -0.054737702 -0.07995178 -0.0022912577 0.056710903 0.07020372 0.0131428335 0.11334971 0.22303104 0.28426072 0.35935658 0.17601818 -0.064971246 -0.22539425 -0.03492085 0.008885314 -0.09736571 0.053705465 0.18397465
31 0.16772898 -0.0090650115 0.34680995 0.28016108 -0.14018379 -0.20244083 -0.08282345 0.077620946 0.060273677 -0.05239008 0.00044973483 -0.23830378 0.21396154 -0.080808565 -0.04172486 0.20867282 -0.1342482 -0.05916306 -0.17346567 0.099711165 0.30469576 0.21891488 0.4789599 0.17991066 0.10634307 0.17446378 -0.1381639 -0.1238323 -0.027356043 -0.1763508 -0.30304217 0.011093552 -0.2808862 -0.34051085 0.11212592 0.11681544 0.12548424 0.13829899 0.40252733 0.069605015 0.09391225 0.04178069 0.009586129 -0.32012734 -0.06539222 0.064107135 -0.054063626 -0.040015597 -0.043401018 -0.028394943 0.06930519 -0.003826771 0.08731874 0.21336469 0.21010299 0.3059664 0.13482913 -0.11507653 -0.1539045 -0.085549906 -0.003995817 -0.019035362 0.1390536 0.18139876
21 0.19031759 0.052339472 0.3485634 0.09364341 -0.08767399 -0.15057671 -0.07984711 0.16027682 -0.027160745 -0.05881578 -0.08722011 -0.22916861 0.012204674 0.0997474 0.026374443 0.14513925 -0.22096254 0.008786493 -0.14042434 0.073079124 0.25875887 0.048730478 0.4093723 0.09134328 -0.0076452373 0.2554939 -0.14740078 -0.15245473 -0.055323154 -0.13719028 -0.21928519 0.13374503 -0.3589262 -0.30060616 0.14310624 0.1310747 0.2405935 0.35781977 0.14902277 -0.0077360994 0.09908454 0.1745444 -0.030975772 -0.19055864 -0.0052566295 -0.026744429 -0.08474548 -0.12629098 0.03745404 0.055436198 0.019430917 -0.04975693 0.12026485 0.26324975 0.31420726 0.45546335 0.20675956 -0.05117716 -0.29927853 -0.07022421 0.020245735 -0.0874898 0.074671745 0.17365754
5 0.10731201 -0.037578862 0.36357546 0.16633411 -0.10924361 -0.21051343 -0.03259417 0.20662871 -0.060048684 -0.029351566 -0.07615876 -0.19111517 0.0468361 0.08742348 -0.06600927 0.17971088 -0.13705188 0.04610419 -0.11722088 0.047611296 0.22950171 0.11104988 0.37917486 0.07928586 0.05585863 0.2504273 -0.15716055 -0.17772503 -0.13388897 -0.18500358 -0.1227464 0.06721459 -0.36462533 -0.3003044 0.1950052 0.13882129 0.22479138 0.22465649 0.18492459 -0.06082886 0.09816235 0.12805104 0.021233188 -0.10770684 0.018965404 -0.040674664 -0.076119326 -0.10613952 0.055333782 0.08392184 0.04562115 -0.024716582 0.0708286 0.2510274 0.3136682 0.3493974 0.10794207 -0.083767146 -0.25620574 -0.03846393 0.055086493 -0.12692407 0.023796894 0.1625259
26 0.10037199 -0.036075484 0.3669974 0.17998704 -0.101080045 -0.21354035 -0.021719132 0.2097558 -0.07983006 -0.041489474 -0.06853242 -0.22046316 0.048032 0.082890816 -0.047414556 0.18102527 -0.1354379 0.060300328 -0.0984214 0.07524898 0.23641072 0.13202676 0.3747432 0.06330937 0.046478428 0.24883442 -0.16876513 -0.19357069 -0.1362839 -0.1739704 -0.13611603 0.09764152 -0.3886766 -0.3312349 0.20886832 0.16706398 0.24509652 0.26617065 0.16713148 -0.07319598 0.115148745 0.1392352 0.011893486 -0.10141689 0.05549844 -0.026967466 -0.107802555 -0.12730235 0.07159815 0.108011894 0.03007929 -0.0202029 0.10251809 0.25524694 0.33162114 0.35171893 0.09304848 -0.06054609 -0.27139053 -0.044965427 0.04903967 -0.1281613 0.037548065 0.17106844
2 0.12043174 -0.04217676 0.35820717 0.15287164 -0.08748931 -0.21049948 -0.043801587 0.20404015 -0.070289895 -0.041474666 -0.07747622 -0.21354023 0.04503086 0.085416116 -0.0472064 0.1857467 -0.1487024 0.050882675 -0.10810022 0.07313701 0.26543728 0.10564611 0.40388238 0.08651963 0.055830576 0.24693602 -0.15648526 -0.18392769 -0.1235989 -0.16598019 -0.13566838 0.10773043 -0.37037194 -0.3051447 0.19058046 0.14665605 0.23671685 0.25843894 0.18217042 -0.041420195 0.113868736 0.14201781 0.01082753 -0.11519154 0.031625725 -0.04365825 -0.076420054 -0.10468321 0.066518635 0.08431932 0.009305206 -0.03796608 0.10839799 0.25384325 0.3080615 0.38923803 0.13398941 -0.05835203 -0.27156043 -0.058315475 0.06456196 -0.11605111 0.053890534 0.17807928
19 0.104170956 -0.108465 0.3692745 0.06426644 -0.09922364 -0.2937672 -0.062143985 0.17458513 -0.04143 -0.088289544 -0.0060202326 -0.15010025 0.018547429 0.101223834 -0.031211922 0.07573031 -0.1821803 0.08344806 -0.056761593 0.052445523 0.2454372 0.047519322 0.2918075 0.011229098 0.0609997 0.23376471 -0.16476704 -0.110210665 -0.024054026 -0.13038516 -0.1074082 0.037228987 -0.3089492 -0.23546027 0.15689175 0.17076577 0.19670697 0.28305545 0.16377515 -0.036719166 0.11743325 0.15623406 -0.03942786 -0.15064272 0.08022005 -0.11751109 -0.04287624 -0.1623824 0.094015636 0.045775197 0.025274783 0.00340355 0.016440893 0.27205718 0.32201242 0.2833344 0.12088887 -0.08198988 -0.26080394 0.009857479 0.042561498 -0.1859997 -0.0666375 0.06672457
8 0.15006678 -0.033525683 0.35083696 0.13994679 -0.07142012 -0.21394104 -0.055830363 0.16818365 -0.057308644 -0.065785415 -0.017067326 -0.19898003 0.073031805 0.051030688 -0.009762666 0.1356227 -0.18158871 0.024336118 -0.111499414 0.09245284 0.27936888 0.1209937 0.39298365 0.036993038 0.051137414 0.2622534 -0.17183775 -0.09209485 -0.08983212 -0.1286042 -0.16117544 0.07374993 -0.32726622 -0.3020498 0.13575338 0.1396384 0.16650061 0.27699628 0.22375052 -0.024297785 0.07619209 0.1461767 -0.03477914 -0.18503141 -0.008309276 -0.017268207 -0.047401834 -0.10477233 0.020735865 0.040755603 0.035753958 -0.007938069 0.06770632 0.26506603 0.27558628 0.32067072 0.117462516 -0.093738586 -0.24365729 -0.058923315 0.032022808 -0.1039044 0.017974963 0.15456536
14 0.16360804 -0.031183995 0.30635342 0.26778242 -0.1137303 -0.21236409 -0.07933214 0.10762638 0.03868188 -0.030137079 -0.034338612 -0.23714425 0.17401743 -0.08032537 -0.051930737 0.1920727 -0.11733591 -0.022375127 -0.16185851 0.09099441 0.30796996 0.20021172 0.46090725 0.17273612 0.10555709 0.17365438 -0.14352421 -0.12750995 -0.019139662 -0.17157191 -0.26859015 0.0461145 -0.2661232 -0.30397132 0.096612245 0.12805319 0.15745965 0.14544903 0.36912397 0.05751852 0.086261906 0.042354867 0.01043184 -0.27955097 -0.06401476 0.049761426 -0.0644338 -0.042345475 -0.03556712 -0.00090073736 0.049519364 -0.013923836 0.10770333 0.23070492 0.20423408 0.30073807 0.11669354 -0.118489906 -0.18566985 -0.067162745 0.017053947 -0.018206881 0.13174401 0.1912902
4 0.116354495 -0.05279915 0.35695946 0.16579661 -0.08026197 -0.20042983 -0.03970536 0.21785986 -0.06070412 -0.041990593 -0.0836635 -0.2281921 0.03135671 0.09744165 -0.06629831 0.19886327 -0.1603286 0.04273365 -0.11256166 0.051458165 0.26107982 0.1293135 0.38914618 0.082238145 0.056303367 0.2582362 -0.1350947 -0.1947683 -0.12826455 -0.16637798 -0.124975264 0.08065405 -0.35670754 -0.32763287 0.18812682 0.15760534 0.2317367 0.24011447 0.15176417 -0.06990775 0.10011898 0.11143959 -0.007228334 -0.10374189 0.0457253 -0.026168924 -0.10339469 -0.119018905 0.07547544 0.10081426 0.006222624 -0.039666586 0.09391451 0.25946584 0.30691093 0.35564086 0.09431355 -0.08685564 -0.27231613 -0.04603693 0.055020966 -0.100698724 0.043811888 0.17170195
13 0.15051009 0.019758444 0.37161404 0.15063076 -0.07752636 -0.16302456 -0.049819153 0.17219053 -0.023823133 -0.05872108 -0.035849206 -0.2256743 0.065715864 0.04937326 0.0028981236 0.106421195 -0.18764314 -0.0137160225 -0.15457071 0.04378326 0.23376152 0.083353266 0.38241985 0.059259377 -0.0024009806 0.23820361 -0.15344417 -0.115335554 -0.04119366 -0.14739272 -0.21565378 0.11242879 -0.3910536 -0.3228286 0.15837301 0.15188469 0.20822768 0.33247146 0.22058472 -0.00437894 0.12933296 0.12947975 -0.028656 -0.20591153 0.011761148 -0.042220216 -0.0681514 -0.12027786 0.036504842 0.052900124 0.05661171 -0.029762162 0.10461665 0.24189779 0.32772785 0.3674702 0.20633249 -0.075279295 -0.27229068 -0.04202722 0.024179708 -0.11742214 0.04572954 0.15706089
25 0.13857342 -0.037311368 0.30955693 0.25768796 -0.13527538 -0.22271478 -0.056543723 0.0986707 0.010587602 -0.033227395 0.011743522 -0.20313166 0.18723162 -0.08597617 -0.03638599 0.18758096 -0.12657948 -0.030185072 -0.15521555 0.08692008 0.29531997 0.21036373 0.4379103 0.15276858 0.12300545 0.17327255 -0.13079819 -0.10314732 -0.025708694 -0.14596538 -0.24741103 0.013065297 -0.25937837 -0.30604264 0.09181983 0.12809479 0.13686839 0.14106853 0.37623337 0.049006432 0.0901796 0.033290017 0.013796334 -0.28163406 -0.047997613 0.0583226 -0.037335787 -0.040336113 -0.02027098 -0.01670642 0.08730323 0.025755601 0.073835984 0.23160845 0.20671666 0.24386434 0.12017673 -0.101557516 -0.14413404 -0.06552741 0.018189073 -0.052959476 0.107762754 0.16329096
11 0.16080675 -0.026059175 0.32908934 0.28011113 -0.1355379 -0.2143196 -0.06668768 0.060458653 0.060942605 -0.05953868 -0.017254196 -0.21222697 0.20485996 -0.09904223 -0.039946266 0.21251434 -0.14323981 -0.053831536 -0.16735908 0.083558194 0.30612978 0.2361645 0.46335542 0.17072926 0.11457197 0.18523179 -0.12831658 -0.10328254 -0.0106880255 -0.17230465 -0.28970858 0.008016632 -0.2499254 -0.3170806 0.08982323 0.1411851 0.14649314 0.1344231 0.41343698 0.055091653 0.07966011 0.03613741 0.014759683 -0.30496025 -0.0595786 0.07072575 -0.043850474 -0.05713947 -0.044521373 -0.038897343 0.08739471 0.016490284 0.08821934 0.2125373 0.188298 0.2805347 0.14139473 -0.114805005 -0.17012665 -0.09570665 -0.007009015 -0.033585154 0.13072775 0.19511116
20 0.14471282 0.02349239 0.40291646 0.12408609 -0.08661949 -0.15088163 -0.04433283 0.18165322 -0.04529215 -0.035295792 -0.045614794 -0.20032237 0.029847637 0.085003465 0.003977148 0.107916504 -0.17969006 0.010380055 -0.11899299 0.04332596 0.23162785 0.07484164 0.3747336 0.056237996 -0.01056551 0.24649611 -0.16616152 -0.12849417 -0.04105587 -0.16632375 -0.19702582 0.119492784 -0.39572906 -0.33215618 0.1906899 0.14364614 0.22974612 0.35561872 0.18660314 0.00490875 0.13728164 0.14096384 -0.03764215 -0.19534114 0.03729392 -0.03425714 -0.06844933 -0.11198143 0.020900704 0.08310652 0.049502872 -0.02546909 0.1100066 0.23919107 0.33321652 0.41084403 0.21549182 -0.058724906 -0.27284396 -0.02704655 0.050417244 -0.12512888 0.03950153 0.16859627
29 0.13552733 -0.015574813 0.29910266 0.23917863 -0.1413716 -0.19842625 -0.06924234 0.07087914 0.035876412 -0.026515879 -0.019388301 -0.21677671 0.17051074 -0.06579544 -0.06039583 0.20314316 -0.13698186 -0.039178364 -0.15077408 0.075686134 0.28783885 0.21353921 0.43679228 0.16591932 0.10465715 0.1736884 -0.14147311 -0.13159639 -0.024971211 -0.15400307 -0.26701018 0.016561447 -0.27851334 -0.30933338 0.11431118 0.14034872 0.14654815 0.15085225 0.36431336 0.041653495 0.08474334 0.032371577 0.011318635 -0.27000758 -0.04736835 0.058372844 -0.066710085 -0.05387382 -0.03772922 -0.019246865 0.05710966 0.0071002464 0.09350701 0.20255648 0.19499831 0.28052095 0.12626897 -0.09185302 -0.17251961 -0.07783008 -0.002778852 -0.039499123 0.11388191 0.17348625
23 0.088978626 -0.10671687 0.35557583 0.06080771 -0.09700331 -0.30017483 -0.04969613 0.17934415 -0.07662732 -0.06490183 -0.04308685 -0.16257581 -0.025324898 0.12264422 -0.033021044 0.10906469 -0.15985025 0.08795802 -0.052554578 0.063649915 0.22918317 0.051517222 0.2971346 0.023391742 0.07439526 0.24524201 -0.14744067 -0.123508364 -0.039492562 -0.14693463 -0.08554879 0.022881294 -0.34418896 -0.2249518 0.14886397 0.17432676 0.21013966 0.27684176 0.13000184 -0.037004746 0.12453338 0.1454076 -0.028855804 -0.13779303 0.07802707 -0.12503529 -0.05022185 -0.17381461 0.10063847 0.057594188 0.009437483 -0.007164329 0.03197195 0.30178785 0.33459455 0.2929807 0.11545881 -0.091780305 -0.28575608 0.03231941 0.04869104 -0.20144902 -0.073134474 0.074632816
28 0.17891446 0.028531441 0.38506818 0.13129738 -0.09975192 -0.18946783 -0.077984504 0.17943546 -0.022309486 -0.063987516 -0.07890465 -0.23618625 0.052811783 0.07400944 0.00527194 0.13765521 -0.20899008 0.015470827 -0.14940067 0.06324649 0.28618068 0.07953821 0.43723717 0.090082414 0.01754548 0.24484748 -0.14572929 -0.12944931 -0.058651112 -0.15258364 -0.22649695 0.11343364 -0.37322226 -0.3201513 0.1538258 0.13767439 0.20938301 0.33082965 0.20705718 -0.0037955912 0.1053259 0.16168855 -0.037507042 -0.19533923 -0.00074112735 0.0006159036 -0.0664524 -0.115842216 0.035522 0.04952633 0.010292853 -0.031339362 0.11176529 0.27143958 0.32812735 0.4274658 0.16418195 -0.054891545 -0.28443882 -0.06417659 0.033354554 -0.07778449 0.08832554 0.19376338
