13 64
2 -0.068515085 -0.10900256 0.14404355 0.039557148 -0.025961438 -0.15898424 0.009473226 0.03971191 -0.033239327 -0.08699099 0.16048999 0.026772562 -0.012061583 -0.014163758 -0.10632019 -0.07130641 -0.044924024 0.067069836 0.014504035 0.017891377 0.0785647 0.055588417 0.13232715 -0.03654292 0.0033858225 0.1660291 -0.10317972 0.05354254 -0.0423227 -0.09022258 -0.020044973 -0.061415978 -0.12862794 -0.04703287 0.02664805 0.07919558 0.08938594 0.030766115 0.2002493 -0.016893782 0.06602539 0.05761294 -0.069354534 -0.09549643 0.08776937 -0.050795615 0.043085318 -0.059810366 0.0026308799 -0.047499347 0.033215474 0.021145549 -0.04843037 0.15368645 0.13189816 -0.032969456 0.042338945 -0.13399667 -0.03582278 0.026953518 0.084102996 -0.10773133 -0.076139115 0.027538776
3 -0.08572705 -0.12860772 0.16608799 0.039608378 -0.018781863 -0.17860582 0.008564883 0.045655455 -0.031551134 -0.11368445 0.19070347 0.036993586 0.0064583775 -0.032136653 -0.12678984 -0.09794914 -0.061487198 0.085587025 0.043267235 0.051136874 0.07326452 0.062120374 0.15836918 -0.05424686 -0.014520612 0.22037399 -0.12177572 0.056538455 -0.030999795 -0.101845816 0.0050021107 -0.064731814 -0.1909313 -0.053265877 0.03728785 0.11062252 0.08193807 0.053983375 0.25398907 -0.002781265 0.110667214 0.051867303 -0.06626562 -0.100056075 0.104150444 -0.07039305 0.066199444 -0.10470484 -0.0152398655 -0.064752705 0.06062299 0.028613977 -0.04210571 0.19891591 0.14034462 -0.03360825 0.048114005 -0.15813448 -0.024185745 -0.0017336074 0.11709725 -0.12801549 -0.092671104 0.054649964
11 -0.076641634 -0.10733206 0.16180314 0.018843645 -0.012522682 -0.16893415 0.0067051076 0.03097263 -0.017063798 -0.07820283 0.17655669 0.046674468 0.004669805 -0.037013363 -0.12089761 -0.07443243 -0.057298284 0.08275276 0.041010596 0.03275011 0.07451468 0.053017043 0.142509 -0.05481407 -0.00789056 0.18837342 -0.11061862 0.06184016 -0.01740469 -0.08082294 -0.010295664 -0.052295104 -0.16816247 -0.03212932 0.024627388 0.0812328 0.09065322 0.051072944 0.22752981 -0.01962528 0.099976964 0.06522296 -0.06580041 -0.11113441 0.10473573 -0.044051282 0.058072373 -0.091774456 -0.015383946 -0.069768034 0.056119826 0.009076245 -0.060467478 0.16908976 0.13766946 -0.03773683 0.04096293 -0.1369068 -0.032043394 -0.002354624 0.09858415 -0.1245228 -0.07320152 0.040216763
10 -0.07048211 -0.13042738 0.14095774 0.03131771 -0.0027908038 -0.16408262 -0.015237552 0.034662727 -0.02833163 -0.0839355 0.15025325 0.030266358 0.007696897 -0.014764755 -0.11179205 -0.070814595 -0.06730549 0.081423044 0.02476924 0.030703653 0.08592423 0.052369703 0.14235003 -0.049864046 0.00051227567 0.20035224 -0.12276517 0.04034897 -0.043026563 -0.09810404 -0.014196341 -0.07857447 -0.14230819 -0.04629028 0.046475913 0.09822289 0.07139724 0.04845204 0.22470348 -0.021233598 0.076527916 0.04924861 -0.07382808 -0.09802666 0.09399492 -0.049326703 0.061531972 -0.08389351 -0.0135066025 -0.062440585 0.048139367 0.026759299 -0.038164463 0.17103739 0.13045633 -0.03160795 0.031099424 -0.13582389 -0.028840339 0.008367084 0.08299747 -0.12946437 -0.09116568 0.0333848
1 -0.086888455 -0.1402278 0.15586425 0.02484725 -0.007637943 -0.1874679 0.013669904 0.033464797 -0.042931046 -0.08552015 0.19458587 0.045220118 -0.0178599 -0.02062405 -0.11401665 -0.07610657 -0.0532624 0.08337385 0.030387996 0.052626077 0.09603357 0.063451804 0.14389698 -0.045354888 -0.0058745723 0.19546211 -0.13637653 0.05461399 -0.034302916 -0.11221667 -0.017412366 -0.08453815 -0.16281354 -0.043673616 0.029239424 0.11022769 0.10909476 0.042310014 0.25653842 -0.0036537529 0.10934045 0.062502705 -0.055699885 -0.12022943 0.09595675 -0.047693077 0.06612499 -0.09488493 0.002403582 -0.081154875 0.059675526 0.028017823 -0.04208901 0.17429645 0.16066404 -0.023850316 0.04964408 -0.16111338 -0.023576494 0.012152171 0.119953215 -0.14006881 -0.098569 0.05911366
8 -0.05499824 -0.09571267 0.12919277 0.035302352 -0.02511087 -0.12098938 0.008768201 0.027557073 -0.018277988 -0.067905396 0.12708806 0.019063117 -0.015621693 -0.023988089 -0.07749077 -0.045060504 -0.027280333 0.04637357 0.009207261 0.04170025 0.061390072 0.047450233 0.11218648 -0.035602074 0.0055437484 0.1490274 -0.08101056 0.033797525 -0.029924005 -0.07498952 -0.0008349737 -0.050105404 -0.13591781 -0.044440195 0.015950304 0.069523185 0.068143874 0.048130587 0.17709912 -0.014901396 0.069317296 0.050002176 -0.035782233 -0.07628527 0.08142374 -0.051787708 0.04478661 -0.05098496 -0.007608984 -0.06699479 0.047597922 0.0054128263 -0.03718969 0.143914 0.09667235 -0.028945774 0.021761889 -0.093755916 -0.03433819 0.013765831 0.065599404 -0.081347495 -0.051755935 0.03778231
4 -0.06787683 -0.10695339 0.14273618 0.03125571 -0.014446626 -0.15568039 -0.010872008 0.023013426 -0.02469279 -0.08100594 0.15747184 0.028793471 0.004638832 -0.035479955 -0.09768935 -0.07405062 -0.05781954 0.06511367 0.0171661 0.027749015 0.0685027 0.053388983 0.117315955 -0.03300247 -0.012827596 0.17342277 -0.105461106 0.050125714 -0.03943044 -0.076301344 -0.015158828 -0.06239567 -0.1421812 -0.024474688 0.036857445 0.0710572 0.0743286 0.02524744 0.20217425 0.004827069 0.074556775 0.049527865 -0.051680706 -0.07625066 0.071081765 -0.046748467 0.06233786 -0.0686824 -0.0030669852 -0.0729171 0.05715238 0.0030401943 -0.04441959 0.15009443 0.11195675 -0.0221484 0.036468506 -0.1279246 -0.043198913 0.024147093 0.092682876 -0.11299989 -0.060995944 0.038068917
5 -0.06243748 -0.12294646 0.14504115 0.033518795 0.0042656637 -0.15944955 -0.0027487804 0.015302908 -0.04117504 -0.09925312 0.15064429 0.01946922 0.0041921637 -0.03477552 -0.097546756 -0.07020664 -0.056530245 0.06647081 0.04563862 0.04801962 0.060354207 0.06394722 0.114832416 -0.028674025 -0.0129636815 0.18161415 -0.09932057 0.057287432 -0.035038196 -0.0721387 0.004357598 -0.077070124 -0.16025122 -0.048952345 0.03563933 0.08086986 0.06710348 0.02690968 0.21813528 -0.005833609 0.06788979 0.042225976 -0.052410267 -0.09805905 0.09893065 -0.058591682 0.05984281 -0.089972846 0.0055841585 -0.05466713 0.047115974 0.020794913 -0.056948327 0.15991423 0.12003399 -0.041075975 0.02175228 -0.12894684 -0.023496574 0.01835773 0.078207 -0.121425755 -0.08093611 0.036634393
12 -0.07218292 -0.1102379 0.11429052 0.009027364 -0.020330673 -0.13975072 -0.0019275357 0.020340795 -0.036823887 -0.072319455 0.14530711 0.039071098 -0.017320462 -0.027311962 -0.080802195 -0.0747421 -0.039710417 0.06784979 0.034186266 0.0154871475 0.051845714 0.028579546 0.10599443 -0.018012816 0.0039020272 0.15596783 -0.080257304 0.034866642 -0.010322842 -0.08543004 -0.01902468 -0.055964276 -0.12673683 -0.035917863 0.024277218 0.084609695 0.06781267 0.03149736 0.17979886 -0.021574747 0.08407578 0.05880425 -0.06292218 -0.07475989 0.09276486 -0.05594316 0.0364599 -0.077264555 0.010169077 -0.054895863 0.05452601 -0.0012060726 -0.030528508 0.13686882 0.10670226 -0.018620491 0.019668946 -0.12345926 -0.022542655 0.020387046 0.089541495 -0.08536097 -0.062357053 0.04757496
0 -0.07724247 -0.09410809 0.123753205 0.028231714 0.00073792227 -0.14594787 0.008920629 0.008284754 -0.02463421 -0.08775599 0.12868151 0.041861475 -0.008587925 -0.018191382 -0.07547092 -0.048873775 -0.057069328 0.055292666 0.042065185 0.037302356 0.057931498 0.0290359 0.114422806 -0.043695174 0.0064874515 0.148035 -0.09313579 0.042707648 -0.02663611 -0.0748634 0.0016229172 -0.054499187 -0.1358954 -0.03413958 0.03599259 0.07782451 0.06973115 0.05006033 0.1742226 -0.010579336 0.088443205 0.057084154 -0.04849984 -0.09509049 0.08309931 -0.04971936 0.06391129 -0.066479445 -0.0009700503 -0.05212136 0.0386085 0.004121719 -0.03804704 0.13511878 0.1191505 -0.009541802 0.031080212 -0.10813048 -0.036935676 0.014053825 0.06868112 -0.111487046 -0.07235997 0.022055488
9 -0.053679246 -0.11259882 0.1414857 0.011840989 -0.0052123615 -0.12529899 -0.012106307 0.008996736 -0.029925574 -0.08150203 0.14129287 0.014020696 -0.019337837 -0.018385313 -0.10722675 -0.0792726 -0.04988994 0.048700113 0.016360462 0.01844889 0.06328134 0.037327208 0.12550046 -0.03357438 -0.0125082955 0.17176473 -0.1059688 0.034971654 -0.039404657 -0.08743397 -0.010363972 -0.04646661 -0.14118408 -0.024874702 0.039054025 0.06773483 0.08149023 0.04789485 0.18534534 0.0012263217 0.08729917 0.037541647 -0.06305831 -0.0810456 0.08197878 -0.057270568 0.06728149 -0.07925246 -0.015105665 -0.05879286 0.038012885 0.014327206 -0.04502934 0.14403746 0.112789415 -0.02297001 0.047604654 -0.12599824 -0.030986028 0.019170363 0.09575295 -0.10969948 -0.051957995 0.050553177
6 -0.06015472 -0.085766844 0.11436761 0.014922733 -0.017772034 -0.12710904 -0.0021998517 0.021616569 -0.012128331 -0.069050014 0.11743876 0.026141806 0.0063171503 -0.019156286 -0.08979332 -0.070261985 -0.03992723 0.06331067 0.024064898 0.012070923 0.040392213 0.049290325 0.091104686 -0.020913944 -0.017274642 0.15098706 -0.091669746 0.040530454 -0.026551265 -0.0772662 -0.010807914 -0.04920904 -0.12294422 -0.030408092 0.012612709 0.07006621 0.07383492 0.027846206 0.15782948 -0.00087338523 0.07742876 0.028055578 -0.05528636 -0.073726386 0.08327852 -0.038438622 0.0298887 -0.06229806 0.009609479 -0.060256425 0.027442288 0.028022788 -0.04685594 0.12802368 0.09421122 -0.010454605 0.042000733 -0.1025255 -0.02946267 0.022226967 0.072177306 -0.07592694 -0.07114787 0.046508703
7 -0.094538935 -0.15674505 0.18973048 0.034581855 -0.008420192 -0.2059958 -0.0065399115 0.03981201 -0.020461878 -0.11833612 0.20679964 0.027669426 -0.015408503 -0.03333231 -0.14920872 -0.08910601 -0.065169506 0.086785935 0.045569334 0.058765214 0.1044642 0.06333999 0.16853788 -0.057999205 -0.02263841 0.24261914 -0.14214319 0.061021768 -0.044709504 -0.121142045 -0.0052236575 -0.088266134 -0.20942661 -0.034524303 0.046861622 0.12621835 0.11565124 0.057863697 0.28731886 -0.019534554 0.09890188 0.07363521 -0.070642784 -0.13037015 0.13464482 -0.07257558 0.08848201 -0.099916354 -0.016256481 -0.08643098 0.049141377 0.016568676 -0.056603305 0.22186843 0.17677864 -0.04560922 0.054880507 -0.16444185 -0.045130294 0.002177356 0.11874335 -0.16003826 -0.08675258 0.04366833
