12 64
4 -0.05271573 -0.09995457 0.16238286 0.060985576 -0.059460662 -0.18009645 0.027488202 0.072360165 -0.082994394 -0.045312084 0.17293301 0.073355794 0.03817761 0.012519351 -0.10960699 -0.081620865 -0.070660874 0.114756055 -0.036592897 -0.06587133 0.09432424 0.08382058 0.19025588 -0.054626685 0.08517362 0.1680049 -0.11998676 0.070941955 -0.05205486 -0.08125471 -0.074088484 -0.051929887 -0.053557694 -0.1277252 0.015119185 0.03284814 0.06491395 0.03193887 0.19606376 -0.05433862 0.06654462 0.06216855 -0.1491678 -0.107234895 0.05826049 -0.016308049 -0.022261962 -0.063349746 0.008834146 -0.0102948025 0.06350412 0.057547275 -0.07333404 0.13680476 0.12543644 -0.048171178 0.01689426 -0.17537752 -0.0202738 0.06444089 0.06136444 -0.10191984 -0.1383051 0.01928659
6 -0.022712836 -0.037615526 0.05960035 0.029294552 -0.022399614 -0.06442336 0.014527091 0.03825789 -0.03374668 -0.031836107 0.071592815 0.030064557 0.031332016 0.0002901683 -0.04538652 -0.04675386 -0.032348525 0.050531257 -0.0014709032 -0.009422532 0.024679065 0.03413181 0.08232427 -0.029725011 0.02528066 0.0817556 -0.045110926 0.024718719 -0.012002818 -0.030161442 -0.0096654855 -0.013580917 -0.040499642 -0.059305765 0.010532988 0.025651187 0.005128044 0.021082282 0.08778268 -0.0095241945 0.042326573 0.010828323 -0.05354323 -0.029049272 0.017847696 -0.017014345 -0.0050283633 -0.044990227 -0.008618081 0.003202938 0.03590106 0.033126865 -0.014546818 0.06724238 0.03831282 -0.01819176 0.0069440505 -0.074397825 0.008368339 0.004394442 0.036214244 -0.036734182 -0.061940357 0.018820748
2 -0.048669636 -0.076019935 0.1514051 0.03329369 -0.0395181 -0.1567373 0.022717081 0.054520126 -0.05304568 -0.022334596 0.15566598 0.08250419 0.05084413 -0.008106625 -0.103207655 -0.066317976 -0.07027304 0.11086932 -0.01225258 -0.045899637 0.07661698 0.068764366 0.17012289 -0.065979175 0.06642938 0.15553634 -0.106870644 0.0671094 -0.02090732 -0.05588502 -0.055917367 -0.031427614 -0.07329215 -0.09545156 0.007988428 0.022896541 0.05398523 0.047134113 0.18347459 -0.050286226 0.08547872 0.05914691 -0.12272603 -0.10415793 0.059220955 -0.001380592 -0.009048068 -0.07793952 -0.011219033 -0.02818222 0.07468156 0.038088888 -0.073732145 0.1236341 0.107449114 -0.044782773 0.011761239 -0.14583364 -0.0139271235 0.02701263 0.059602994 -0.09820912 -0.113601804 0.024930635
8 -0.027548505 -0.076336876 0.088192545 0.034537006 -0.018740693 -0.10668221 -0.0058478247 0.044548128 -0.047217686 -0.01969993 0.08669236 0.042735513 0.040708017 0.014062346 -0.06734267 -0.0439445 -0.05936359 0.07966745 -0.022713723 -0.03498889 0.06642398 0.048407342 0.12214487 -0.043516934 0.055045668 0.12352839 -0.08598566 0.027923448 -0.036975767 -0.054753825 -0.04374189 -0.046896346 -0.028055951 -0.08117635 0.026302015 0.0326251 0.01862001 0.03115836 0.1300612 -0.04117727 0.035836235 0.028126638 -0.09662162 -0.06218127 0.03440543 -0.0054417048 -0.0043730265 -0.049640715 -0.008527996 -0.0115224235 0.046049185 0.0431441 -0.031898998 0.09142786 0.06966401 -0.03029509 -0.0031077173 -0.102588944 -0.0051215747 0.025707865 0.026916323 -0.07485132 -0.096719295 0.009618537
1 -0.028363295 -0.053603347 0.06636473 0.015783627 -0.015239531 -0.08712121 0.023424767 0.029713687 -0.045831375 -0.00275838 0.090203784 0.046455055 0.009769447 0.010720898 -0.04370656 -0.02845166 -0.028891617 0.056937482 -0.017122122 -0.011283247 0.05566871 0.04242006 0.083470404 -0.028740121 0.038481105 0.06954731 -0.07155182 0.029883469 -0.017214134 -0.04578865 -0.037495427 -0.033972237 -0.021286836 -0.05494358 0.00030374937 0.025186671 0.042874582 0.016230078 0.10668747 -0.01385688 0.051975403 0.027772788 -0.051737998 -0.061853897 0.0156285 0.00822095 -0.00455176 -0.040278424 0.0067734774 -0.020533517 0.040562823 0.035281733 -0.02432354 0.05333852 0.07035623 -0.011432251 0.013283266 -0.08848715 0.0049637966 0.020170065 0.045127448 -0.058204442 -0.075932495 0.026776792
0 -0.02939613 -0.060998145 0.10948647 0.041646767 -0.04153669 -0.096941724 0.022390023 0.03921403 -0.038483143 -0.02093113 0.09657106 0.04154689 0.015044833 -0.001176561 -0.055211328 -0.030200027 -0.030226283 0.057527397 -0.028970184 -0.013928142 0.055429935 0.053125292 0.11854126 -0.040894665 0.056868535 0.10718684 -0.06868638 0.033562295 -0.028535333 -0.04908626 -0.02975101 -0.027972419 -0.05823103 -0.08336651 -0.00043565623 0.020247463 0.038161404 0.04403424 0.12522684 -0.03442172 0.05422865 0.041034743 -0.067356504 -0.06563525 0.042539284 -0.016447373 -0.0058869324 -0.03339422 -0.004493969 -0.033485584 0.05382651 0.024265828 -0.043999493 0.096385844 0.06540775 -0.029950198 0.00023126352 -0.0853416 -0.019627886 0.031854656 0.029326417 -0.0526154 -0.072282374 0.023614686
9 -0.04391378 -0.08753807 0.13675697 0.048228737 -0.039359394 -0.1520984 0.0005637939 0.047209356 -0.06383794 -0.03750006 0.1449311 0.05918446 0.047821436 -0.009768302 -0.08540994 -0.073211744 -0.072940774 0.0945891 -0.03007889 -0.044187486 0.07300361 0.071271606 0.1466141 -0.040718436 0.05469718 0.15305796 -0.10484542 0.05662816 -0.04641811 -0.057443425 -0.05787215 -0.050289195 -0.058824115 -0.0872511 0.02626587 0.023169022 0.03956339 0.01770714 0.17200327 -0.02398891 0.057872124 0.04418908 -0.10891567 -0.07023892 0.03296578 -0.013126795 0.0017798054 -0.0603011 0.003235937 -0.032550063 0.075734764 0.031861994 -0.056487646 0.116139114 0.087980345 -0.032325584 0.007967726 -0.14460438 -0.025749335 0.054475814 0.060191505 -0.09362252 -0.10286931 0.024335431
7 -0.026467904 -0.076983616 0.10554661 0.037739046 -0.013133368 -0.1170665 0.008770209 0.026632732 -0.06500619 -0.04076249 0.10272324 0.038951132 0.037184298 -0.007522611 -0.06185756 -0.050277535 -0.054741018 0.07231621 0.000910265 -0.019195069 0.04683049 0.06298959 0.10795449 -0.026709614 0.044656903 0.11806534 -0.0719181 0.05071423 -0.03008826 -0.03527114 -0.02858125 -0.048489552 -0.056028586 -0.088336356 0.01774217 0.019731158 0.021946685 0.013623634 0.14010881 -0.027968839 0.03743418 0.02775827 -0.0839557 -0.07231066 0.04620933 -0.017513156 -0.002726108 -0.06376827 0.010787255 -0.006902357 0.05038214 0.037888326 -0.05626495 0.09131017 0.07155413 -0.04142298 -0.009129335 -0.109693766 -0.002042145 0.0382861 0.030735616 -0.07755899 -0.09438068 0.015864262
10 -0.04237628 -0.07685245 0.08628126 0.016890071 -0.036172632 -0.11079117 0.0055182576 0.033890687 -0.06089143 -0.026730847 0.108886376 0.05643448 0.017453484 -0.0037424145 -0.055669025 -0.06339055 -0.04371511 0.079105325 -0.004713083 -0.044304017 0.042551912 0.03318234 0.10764306 -0.018060824 0.05481869 0.11316328 -0.062540226 0.031474333 -0.010118033 -0.05685245 -0.04846199 -0.035950854 -0.040808767 -0.0768395 0.012110305 0.035137266 0.027109629 0.020333778 0.12250967 -0.041635506 0.05834122 0.04490868 -0.097311445 -0.054524653 0.04996211 -0.022775047 -0.017851079 -0.059569553 0.01445806 -0.013344399 0.06003847 0.018827436 -0.032227 0.08622782 0.0674843 -0.021784602 -0.007594418 -0.11443145 -0.0037652042 0.03966935 0.04996889 -0.05236686 -0.08216915 0.030607227
11 -0.04928659 -0.059145838 0.10534921 0.036213163 -0.017708354 -0.12204545 0.022739766 0.022671083 -0.047880843 -0.036952052 0.098051764 0.06618327 0.025555903 0.008418731 -0.054649338 -0.034844965 -0.062141247 0.06911061 -0.0026253772 -0.024919352 0.05468084 0.03724729 0.12579632 -0.051029842 0.06306178 0.106920965 -0.08436533 0.042530183 -0.028315036 -0.04968963 -0.03184914 -0.03178177 -0.051308572 -0.07821932 0.019582376 0.025012221 0.038813718 0.046668246 0.12174876 -0.03135275 0.07312419 0.04658833 -0.08597153 -0.0847242 0.040144194 -0.011056042 0.009532914 -0.048269283 0.0012288977 -0.016548673 0.045831487 0.027521575 -0.045957692 0.086114936 0.087425135 -0.010933292 0.009706795 -0.10276259 -0.021305785 0.034971707 0.031229151 -0.0830542 -0.09743601 0.007862238
5 -0.021479756 -0.06964767 0.111907996 0.016715322 -0.022410318 -0.09031315 0.00067831244 0.019578895 -0.050602667 -0.025839947 0.10000323 0.035444975 0.01358529 0.0062532155 -0.077086814 -0.05987334 -0.050014786 0.056459766 -0.026816444 -0.044057805 0.05283442 0.0401588 0.12401551 -0.035485312 0.042610113 0.116652 -0.08547633 0.03176001 -0.036059756 -0.05390127 -0.041825417 -0.019589776 -0.0486087 -0.06345254 0.020421166 0.009215492 0.043707095 0.039362896 0.11761584 -0.019419432 0.06420371 0.025395107 -0.093705736 -0.06252516 0.034647115 -0.016850675 0.009702139 -0.05569066 -0.011199994 -0.019359846 0.04306667 0.031696927 -0.049551994 0.08362047 0.070945315 -0.023345951 0.020970384 -0.10971897 -0.013802353 0.038696833 0.05192259 -0.07202037 -0.06774437 0.032810964
3 -0.047511693 -0.073380716 0.1264056 0.02917049 -0.04266122 -0.13921414 0.016214598 0.043231484 -0.048022553 -0.03222268 0.122822076 0.06390533 0.04068142 0.0029345693 -0.08783739 -0.07120571 -0.056257922 0.09587792 -0.015857635 -0.05096183 0.05183095 0.06842579 0.13244468 -0.03591337 0.04772103 0.1433105 -0.102555886 0.05328915 -0.031856824 -0.06829034 -0.05176541 -0.038369477 -0.062345747 -0.09016407 -0.00016849849 0.030711962 0.058304932 0.03155046 0.14763433 -0.02983314 0.08024043 0.033216324 -0.112010196 -0.085507035 0.059172634 -0.0084408745 -0.020552412 -0.060953286 0.014729663 -0.03297711 0.04852269 0.054065198 -0.06688273 0.108648874 0.089308225 -0.019356504 0.023431364 -0.12845682 -0.018476289 0.050506637 0.051625967 -0.06926145 -0.11621687 0.03931263
