17 64
7 -0.14014134 -0.00045470917 0.3300015 0.06983908 -0.100573525 -0.3312931 0.024058651 -0.02073705 -0.10718387 -0.17749913 0.2902593 0.17654754 -0.048427008 -0.105975166 -0.119838916 -0.14191599 -0.09883901 0.08495413 0.049137305 0.07299677 0.11322799 0.002726698 0.23312767 -0.029672893 0.06580828 0.20163746 -0.22590081 0.097269885 -0.049040545 -0.1259877 -0.086683914 -0.01984309 -0.21878184 -0.14434132 0.11908692 0.112410344 0.035364807 0.09898164 0.27726403 0.03699966 0.17682008 0.17415316 -0.14812548 -0.3044131 0.08629965 -0.13664806 -0.06889966 -0.05365795 0.05079271 -0.07882239 0.13033408 0.11393206 0.0022401758 0.18281195 0.26665485 0.030978639 0.07060586 -0.16981025 -0.018968783 0.070831515 0.039631464 -0.18617593 -0.10576327 0.060132816
13 -0.1346016 -0.010921863 0.2923609 0.061954774 -0.08073303 -0.29891667 0.03316406 -0.014263184 -0.098439224 -0.17150831 0.27110425 0.16696805 -0.021596674 -0.102037214 -0.10998423 -0.14080423 -0.09729605 0.09127699 0.07169499 0.08881347 0.086727455 0.01198111 0.21731098 -0.03878197 0.048016246 0.20782703 -0.20401332 0.08780138 -0.026911246 -0.1147474 -0.04998396 -0.019761644 -0.2328639 -0.13653226 0.10086793 0.1213477 0.021072246 0.10176245 0.27595997 0.045448456 0.19832872 0.14082119 -0.121705145 -0.26565894 0.08046781 -0.12913705 -0.049638044 -0.088071845 0.03597712 -0.07926176 0.13697886 0.108681545 0.0075690607 0.1866948 0.23359461 0.028190061 0.06260024 -0.16828251 -0.0008262968 0.036325447 0.06330032 -0.17178747 -0.114007615 0.07786713
15 -0.13789813 0.0036064226 0.3107285 0.04875019 -0.07459225 -0.3173456 0.033608135 -0.021053271 -0.0841739 -0.14872989 0.27888215 0.18779695 -0.013624701 -0.110654004 -0.12134461 -0.12633194 -0.10569817 0.10325715 0.075427726 0.07920597 0.09762483 0.01254233 0.22170442 -0.05103135 0.05289666 0.20153946 -0.21391839 0.10460968 -0.019145614 -0.10286384 -0.06532792 -0.015039599 -0.23194487 -0.12590331 0.09440496 0.10496543 0.037120897 0.105381146 0.27988935 0.02977995 0.19879788 0.16103272 -0.13232818 -0.2977033 0.09253503 -0.105330236 -0.053999178 -0.084942095 0.034595985 -0.08893257 0.13732107 0.10259901 -0.017591154 0.17846535 0.25123653 0.022689812 0.06374446 -0.16213274 -0.009928501 0.034747746 0.049861323 -0.18734308 -0.11434818 0.06516484
14 -0.12144814 -0.022544283 0.26908806 0.055190753 -0.06066922 -0.28882754 0.009974647 -0.01593475 -0.08812648 -0.14120929 0.23464128 0.15624726 -0.014625381 -0.08074052 -0.10460141 -0.111913085 -0.104903765 0.09314126 0.052041687 0.06980425 0.103711076 0.010710132 0.20569456 -0.042176597 0.05758468 0.19814964 -0.20851085 0.07599679 -0.042048797 -0.113577165 -0.06606913 -0.039650973 -0.1903582 -0.12766215 0.10626052 0.11269809 0.021927238 0.0953856 0.25723952 0.023023013 0.16086921 0.1365819 -0.12974244 -0.26261654 0.07865817 -0.10208283 -0.044369098 -0.07012404 0.033823665 -0.07781934 0.11866684 0.10711466 0.0022806807 0.16844505 0.22724146 0.025049482 0.049407914 -0.14961849 -0.009110685 0.043963917 0.03341611 -0.17818761 -0.11958833 0.053994417
6 -0.15045577 -0.024735315 0.31051335 0.053285014 -0.076536834 -0.34008 0.044153467 -0.02598991 -0.11730064 -0.1567706 0.3041327 0.19247086 -0.04641365 -0.09861232 -0.110416315 -0.13072236 -0.0986264 0.100752585 0.06501479 0.09711211 0.12012846 0.018565807 0.22333744 -0.03482529 0.06019544 0.20254211 -0.24030797 0.09761484 -0.03411808 -0.13678117 -0.07849053 -0.044386894 -0.22616354 -0.13840622 0.098648526 0.13258725 0.056337558 0.09684936 0.30785683 0.047834706 0.21560408 0.16592948 -0.1234624 -0.31449467 0.08100423 -0.11441968 -0.05404439 -0.08568829 0.058744032 -0.10494856 0.14719623 0.11916037 0.0039917985 0.17960788 0.27988628 0.039827846 0.072888635 -0.18964487 -0.002332053 0.055307824 0.0738889 -0.20218538 -0.13461606 0.08901273
1 -0.1354837 -0.02958679 0.33481336 0.067200184 -0.10697717 -0.31293237 0.018816875 -0.027063893 -0.1020471 -0.17009184 0.2897553 0.16040166 -0.06527873 -0.11960479 -0.107453294 -0.13151886 -0.08270363 0.07271885 0.039951924 0.09462707 0.111291595 0.0056655514 0.23341578 -0.027416248 0.06558562 0.22282565 -0.2121444 0.07850359 -0.043080695 -0.13471308 -0.07101708 -0.027161866 -0.25344312 -0.13893358 0.10699532 0.11946594 0.039756116 0.11709559 0.2945489 0.033822585 0.19455722 0.17605938 -0.120113775 -0.27971667 0.0975037 -0.15147625 -0.046942033 -0.06260277 0.04089538 -0.121684805 0.15913445 0.07928131 0.0042640637 0.20932557 0.24651082 0.023394203 0.051117353 -0.162375 -0.03274452 0.06687024 0.05793956 -0.1745289 -0.08028628 0.08727767
16 -0.12733915 -0.02936146 0.3006827 0.0540196 -0.08566808 -0.29951298 -0.0050287964 -0.029001921 -0.09381274 -0.1564611 0.27566618 0.14890747 -0.039098226 -0.1172611 -0.10627939 -0.13900654 -0.09866731 0.07654569 0.036876492 0.06952621 0.101252034 0.0055445125 0.20311089 -0.019138645 0.040844914 0.20975429 -0.20372896 0.08026436 -0.04595517 -0.11511165 -0.07728097 -0.031310745 -0.22123154 -0.10069214 0.11422105 0.10154735 0.035168003 0.07885846 0.26973742 0.050619137 0.16973598 0.15400733 -0.11657166 -0.23763388 0.06936449 -0.12602861 -0.027417218 -0.06494701 0.040372666 -0.1114133 0.14943466 0.064224854 0.0016162051 0.18165377 0.22219165 0.030359855 0.055414446 -0.16547003 -0.03738017 0.06996121 0.070931256 -0.17595576 -0.071320415 0.07559384
9 -0.13013881 -0.013425582 0.3077106 0.06441265 -0.057550628 -0.3206034 0.02692724 -0.038834825 -0.110503875 -0.17582853 0.26452416 0.16818039 -0.016667804 -0.111249 -0.1045575 -0.12509388 -0.10903253 0.090258375 0.085193865 0.09926035 0.08908603 0.023425423 0.20458119 -0.029207738 0.05037684 0.20227402 -0.2126715 0.10509124 -0.037282284 -0.097963214 -0.05218205 -0.040151965 -0.23420912 -0.14691347 0.109995484 0.108474195 0.017232457 0.08838955 0.28463483 0.04250912 0.1754043 0.14513057 -0.12378341 -0.30105314 0.09291477 -0.12407977 -0.05064174 -0.086828336 0.054559402 -0.075952366 0.13176277 0.1181728 -0.0162518 0.1761664 0.24695198 0.019358112 0.04849203 -0.1610423 -0.000994405 0.054683007 0.030605141 -0.19475213 -0.12780859 0.06202737
0 -0.13733181 -0.041545287 0.28474176 0.034545455 -0.092346884 -0.29704598 0.006584887 -0.031142937 -0.10894026 -0.15554556 0.27547276 0.1626599 -0.059337184 -0.11026589 -0.09846549 -0.14609677 -0.08556273 0.086423025 0.059734106 0.057782877 0.08950249 -0.012463986 0.20312522 -0.007511018 0.05824152 0.20730615 -0.18769833 0.070369475 -0.018475734 -0.13099028 -0.080820926 -0.029839277 -0.2183872 -0.11638902 0.10181174 0.12111962 0.03538216 0.09000177 0.26560113 0.022508502 0.19032547 0.16540691 -0.13343713 -0.2467188 0.09887264 -0.13943352 -0.050583914 -0.0824882 0.05364415 -0.099510394 0.15034433 0.062671065 0.009353645 0.18195158 0.22837906 0.030381922 0.042171456 -0.17400795 -0.0190953 0.06596412 0.07583088 -0.15842316 -0.081714064 0.08882019
4 -0.15063274 -0.0075304206 0.29678565 0.06255005 -0.0627596 -0.32082358 0.03746578 -0.04027365 -0.09825677 -0.17292456 0.25918 0.18599418 -0.03154467 -0.094418414 -0.09357735 -0.11237326 -0.112422846 0.086519234 0.08158379 0.08844088 0.09475492 -0.0011347986 0.21515922 -0.045064397 0.06679822 0.19121169 -0.2140281 0.09377915 -0.034397963 -0.113416076 -0.055171862 -0.030274352 -0.2245892 -0.13322604 0.10931229 0.1160564 0.03408148 0.110552244 0.26491132 0.035634328 0.20216122 0.16173992 -0.12378577 -0.29793525 0.08769386 -0.12065518 -0.036095645 -0.07346728 0.04919218 -0.08341086 0.12708822 0.09757788 -0.0045542778 0.17206405 0.25598022 0.044482674 0.06043382 -0.15872623 -0.021315444 0.05478925 0.038531322 -0.1946681 -0.12595612 0.054405276
10 -0.117743984 -0.032763503 0.3169874 0.03923076 -0.08260505 -0.2835215 -0.0023282196 -0.04716494 -0.10732082 -0.165863 0.27385938 0.14295322 -0.06584073 -0.10686131 -0.120116405 -0.15135096 -0.09474553 0.062993586 0.04064194 0.0640162 0.10101611 -0.00929019 0.22352666 -0.020084798 0.046592303 0.21620953 -0.21361542 0.069824085 -0.046959035 -0.13080366 -0.07516364 -0.0147597715 -0.23184529 -0.1098251 0.12067485 0.10183775 0.040601783 0.107992224 0.26683164 0.049290147 0.19473933 0.14984244 -0.13417204 -0.25946334 0.08172676 -0.14557791 -0.029236661 -0.08020076 0.03047359 -0.1025901 0.13994624 0.08108344 0.0017771429 0.18402298 0.23583138 0.028458958 0.06837852 -0.17296666 -0.024642328 0.06654025 0.07681818 -0.18164866 -0.06571261 0.092885226
2 -0.13723251 -0.0066825426 0.28786469 0.04733791 -0.07767441 -0.30589962 0.026582068 -0.02548178 -0.08342723 -0.15457709 0.25103733 0.17008057 -0.018082632 -0.09369776 -0.110995166 -0.1325538 -0.09552646 0.09688385 0.06610752 0.0646042 0.08002419 0.020588031 0.19292606 -0.024428794 0.041371312 0.19789815 -0.21479367 0.09332267 -0.03360453 -0.11813058 -0.0673729 -0.028801879 -0.21445309 -0.12658675 0.08538377 0.111273654 0.04546229 0.08893175 0.25569215 0.041986644 0.19195616 0.13399899 -0.12956041 -0.27849904 0.09395278 -0.10772583 -0.063040294 -0.07134608 0.059013054 -0.092985 0.1137611 0.11847605 -0.016876597 0.168552 0.23549893 0.042891763 0.07283732 -0.15643589 -0.015354233 0.06174385 0.045177586 -0.1631102 -0.12804063 0.077436924
8 -0.12841707 -0.03544039 0.2995043 0.0481049 -0.077951506 -0.2938644 0.0023092485 -0.026674336 -0.0832629 -0.16546197 0.2704859 0.13862735 -0.060529266 -0.1090344 -0.118133724 -0.12973665 -0.08566672 0.071345486 0.058637477 0.08973419 0.110941395 -0.003354921 0.20922083 -0.027442398 0.035944816 0.2125918 -0.20122124 0.07402509 -0.036887158 -0.12774494 -0.063403554 -0.031871334 -0.23716123 -0.09847527 0.11238077 0.12482829 0.04447802 0.09969893 0.28090835 0.031006167 0.17014886 0.16012594 -0.11244475 -0.26194406 0.09811345 -0.13762899 -0.025377043 -0.069689095 0.029566718 -0.10473316 0.12869765 0.07118684 0.007451853 0.19595876 0.24342497 0.016407147 0.059522077 -0.15697142 -0.026674213 0.04161542 0.0658795 -0.18185091 -0.06804466 0.06922854
5 -0.1043038 0.023916692 0.27248737 0.051058885 -0.078654915 -0.24974167 0.011115 -0.04504231 -0.08496551 -0.1368297 0.232261 0.14694506 -0.041553523 -0.10489976 -0.093291245 -0.112665266 -0.090836115 0.05689123 0.045887496 0.07527687 0.08423531 -0.021493375 0.19309664 -0.027415104 0.048890755 0.17004193 -0.17785703 0.05883923 -0.042173687 -0.10481621 -0.051399894 -0.008618587 -0.20890392 -0.10981758 0.10358604 0.102203436 -0.0039770217 0.097501494 0.21039367 0.04238964 0.1646888 0.1538139 -0.12565562 -0.25700364 0.057383735 -0.13105252 -0.06555418 -0.05431809 0.029885951 -0.086203195 0.13249353 0.09136952 0.024308313 0.14933184 0.20929988 0.022568189 0.050438482 -0.11877551 -0.01666472 0.048180617 0.03439826 -0.15465319 -0.05502595 0.07344797
12 -0.12135179 0.020436829 0.30758578 0.040751506 -0.088613965 -0.29990882 -0.005669347 -0.019988807 -0.091588624 -0.16744481 0.2477143 0.17294496 -0.044090003 -0.11703192 -0.10105616 -0.13340592 -0.09759004 0.07335457 0.048052516 0.09627122 0.09893818 -0.029007455 0.21440838 -0.039270446 0.051229175 0.19324706 -0.214425 0.0749903 -0.022196393 -0.11299618 -0.083155535 0.0055431193 -0.21657209 -0.12803742 0.13433568 0.10944367 0.019067362 0.115955815 0.23456311 0.052008178 0.1732868 0.16214053 -0.12262744 -0.2663227 0.08246024 -0.11798445 -0.05975431 -0.06446978 0.03415186 -0.07704364 0.12734197 0.10958991 0.021150362 0.1739972 0.23352934 0.04996092 0.056624647 -0.12532677 -0.003785621 0.03757496 0.02516916 -0.17339009 -0.07443892 0.06264707
3 -0.15283014 0.029291155 0.37111762 0.056918144 -0.10419632 -0.35147482 0.0030831508 -0.05593208 -0.10335639 -0.19426632 0.30541357 0.2073611 -0.05248194 -0.14745587 -0.12097548 -0.164332 -0.109455295 0.078900754 0.07665821 0.10144247 0.11505613 -0.020532824 0.24171898 -0.023211215 0.06221947 0.2103217 -0.25944528 0.09581653 -0.030281186 -0.11680162 -0.09732822 0.0060040043 -0.24806392 -0.13390951 0.15900186 0.11048762 -0.002194853 0.13276398 0.30829284 0.059487224 0.2172087 0.18153943 -0.13667095 -0.34524888 0.07543109 -0.16276334 -0.07545867 -0.060971808 0.03488446 -0.1082531 0.17023373 0.11840772 0.032213137 0.18331334 0.28092965 0.052805908 0.075677775 -0.16737813 -0.0040669795 0.04365646 0.030866483 -0.20613495 -0.08770062 0.07119543
11 -0.15245314 0.025515588 0.34113526 0.050379444 -0.079791605 -0.32411134 0.001676332 -0.0360324 -0.08440118 -0.16635256 0.29796252 0.19873117 -0.038496334 -0.12993656 -0.12917039 -0.14708541 -0.112528145 0.080629006 0.050914105 0.10894914 0.09547355 -0.028452016 0.22996975 -0.038522247 0.044472363 0.21053922 -0.24722853 0.08864939 -0.05052846 -0.115225375 -0.07633484 -0.005435735 -0.25029734 -0.14126839 0.15182415 0.12109488 -0.0027759573 0.113035366 0.2836707 0.056054693 0.17930563 0.18371543 -0.15654431 -0.32774955 0.08891446 -0.14820072 -0.058943182 -0.050096408 0.031622227 -0.074065015 0.15174396 0.13590345 0.027126774 0.16682976 0.25764868 0.055316575 0.07869212 -0.13984239 0.0035125813 0.06587745 0.015262533 -0.18798769 -0.10281959 0.07603469
