19 64
8 -0.032398853 -0.04384378 0.41779584 0.14155096 -0.07170986 -0.25090837 -0.042058963 0.0023476225 -0.06153141 -0.23628251 0.30993596 -0.012308002 -0.12638292 0.00838013 -0.22238211 -0.06793365 -0.110171616 -0.012115841 -0.055111047 0.10436938 0.21805726 -0.011454265 0.36424547 -0.058382664 0.051486265 0.25461432 -0.21776983 0.055173405 -0.21562074 -0.1601634 -0.09796292 -0.07772693 -0.22114065 -0.18541028 0.18570425 0.064799026 0.057466634 0.10983664 0.29266822 -0.038882665 -0.032849148 0.22949542 -0.23725788 -0.40267783 0.13461104 -0.21381956 -0.0035459013 0.027152663 -0.04058394 0.022688834 -0.00060656737 0.09156858 -0.049913485 0.24923775 0.34348825 -0.06568562 0.11348072 -0.1724721 -0.044186473 0.08808068 -0.057931166 -0.24411781 -0.036764853 -0.08781782
1 -0.03539725 -0.0472437 0.3654209 0.13051137 -0.058359098 -0.21569662 -0.026313748 0.026776401 -0.045375526 -0.20553097 0.28162166 0.0013958925 -0.07819573 0.00020658213 -0.19997251 -0.065639645 -0.10270025 0.006836759 -0.039360963 0.12163733 0.187161 0.0018357649 0.3411756 -0.08397892 0.042459767 0.25317755 -0.19700795 0.045909207 -0.17085978 -0.1373721 -0.05826402 -0.060707644 -0.22622417 -0.17337914 0.16121677 0.073433585 0.03227001 0.12241879 0.29236397 -0.025763616 0.0072056944 0.18477495 -0.18952261 -0.33293638 0.11148973 -0.1832223 0.01825772 -0.008362293 -0.06688726 0.010624705 0.029465947 0.08633265 -0.03050698 0.24607253 0.28543743 -0.060330853 0.0940352 -0.1584848 -0.019658534 0.03566812 -0.027039258 -0.21664046 -0.049699817 -0.057877563
12 -0.03816894 -0.042632267 0.38667655 0.119530335 -0.056470532 -0.23217139 -0.025634155 0.023520129 -0.031426948 -0.18328801 0.2946561 0.0168053 -0.07710162 -0.007015339 -0.21196951 -0.050176013 -0.10710435 0.016774286 -0.04092008 0.11210059 0.20267883 0.0040984233 0.35134646 -0.09648436 0.050096244 0.2519257 -0.20401013 0.060379423 -0.16392867 -0.12870175 -0.07460679 -0.057651397 -0.22783192 -0.16251093 0.15276122 0.056672942 0.054142613 0.12896058 0.30353537 -0.04657182 0.0071572782 0.20815349 -0.19748674 -0.35985413 0.12620622 -0.16347206 0.020140173 -0.0047025173 -0.07194586 -0.00329858 0.033314772 0.06958016 -0.056720283 0.24564162 0.30291054 -0.069835156 0.09349579 -0.15728934 -0.03328842 0.034341004 -0.034560766 -0.23123004 -0.04531208 -0.07056906
11 -0.028282426 -0.06093274 0.34446794 0.119983405 -0.043387998 -0.21203598 -0.04702845 0.020683302 -0.04121148 -0.17680685 0.2517324 -0.0009405367 -0.07393569 0.014851023 -0.19098347 -0.044417247 -0.10970683 0.011788931 -0.054195438 0.09963893 0.20103952 -0.0003875091 0.32847086 -0.08276543 0.05435555 0.24521545 -0.2026939 0.035223816 -0.17879666 -0.13889904 -0.07691386 -0.07839629 -0.18801297 -0.1629347 0.16465543 0.067044266 0.034894094 0.117146626 0.27762508 -0.04452484 -0.01490625 0.18203785 -0.19578707 -0.3278076 0.10889171 -0.15893957 0.021162197 0.0033532537 -0.063754685 0.003246656 0.021330299 0.08043357 -0.033787977 0.22914653 0.27969068 -0.058796976 0.07984479 -0.14692862 -0.029120436 0.04557521 -0.04623749 -0.22213537 -0.055001248 -0.07169309
4 -0.034495756 -0.052130226 0.3511573 0.11359107 -0.048203986 -0.22093251 -0.02250448 0.013961924 -0.052908164 -0.17488503 0.28181192 0.0086299945 -0.100813836 0.009592416 -0.18486698 -0.04293485 -0.09262281 0.0033804122 -0.051803015 0.122098416 0.20589073 0.0024364432 0.31944734 -0.07162205 0.047022052 0.22246023 -0.20732646 0.044364296 -0.17167892 -0.14304599 -0.081513055 -0.077777736 -0.19477335 -0.15933079 0.15059233 0.069292784 0.058323722 0.10620642 0.2873753 -0.024660135 0.0017017052 0.1941058 -0.17589638 -0.3496714 0.10102111 -0.15782414 0.014421941 0.004481282 -0.047431823 -0.005562757 0.02657488 0.08394009 -0.03071534 0.21639097 0.30123222 -0.048961416 0.09599215 -0.15645684 -0.019386021 0.04882639 -0.026855612 -0.2236431 -0.051230077 -0.055017933
13 -0.030611927 -0.051533125 0.37411055 0.13417643 -0.06873875 -0.21210381 -0.024012798 0.019985618 -0.03873905 -0.18600889 0.26973054 -0.0031952527 -0.09783932 -0.0031804235 -0.18355371 -0.03613186 -0.084389366 -0.0068405243 -0.06120243 0.12487178 0.19701217 0.0064690225 0.33351943 -0.079942875 0.05872055 0.23967542 -0.19072597 0.041663658 -0.17562953 -0.1375154 -0.065667175 -0.06621052 -0.2223036 -0.1742521 0.14712182 0.0611826 0.047058072 0.1286992 0.28594315 -0.039455514 -0.0027693713 0.19858502 -0.17316532 -0.33644336 0.119205974 -0.17699492 0.01705031 0.017955076 -0.059907798 -0.016152492 0.033562284 0.06688306 -0.041918803 0.24369672 0.28128532 -0.06399427 0.07885965 -0.13583513 -0.040432107 0.05271647 -0.04575853 -0.20646513 -0.034161266 -0.059833564
14 -0.03505915 -0.054131154 0.38347217 0.13117148 -0.059670705 -0.23633079 -0.046030864 0.014770366 -0.045329105 -0.19573069 0.29287082 0.0011864201 -0.078776464 -0.011503474 -0.20088097 -0.062380858 -0.11276758 0.0059935064 -0.059940957 0.108035415 0.20308293 0.009520955 0.33588427 -0.07418949 0.041295994 0.2552091 -0.21072432 0.054243434 -0.18844856 -0.13443062 -0.08246633 -0.07440572 -0.21786171 -0.15571006 0.1691395 0.055501804 0.046351347 0.10322138 0.2987476 -0.019053647 -0.008052304 0.19604644 -0.19043173 -0.3341782 0.10139118 -0.17189755 0.027663471 0.007189295 -0.056706633 -0.015007364 0.03929139 0.06699433 -0.0456869 0.24149041 0.29093188 -0.057763718 0.093149655 -0.16363993 -0.046498302 0.063974544 -0.027000599 -0.23243551 -0.037355263 -0.063960426
0 -0.01982643 -0.05980255 0.3576742 0.1143735 -0.026014933 -0.20923394 -0.04742577 -0.022567265 -0.060432706 -0.2144503 0.25404865 -0.02307848 -0.097598396 -0.0057767406 -0.18251291 -0.051556394 -0.10586783 -0.014859523 -0.017902618 0.119344816 0.17211492 -0.0046326113 0.300893 -0.04752457 0.031457353 0.23453031 -0.18021078 0.047600925 -0.1790466 -0.12118446 -0.057076205 -0.08305198 -0.22041108 -0.16025849 0.16901316 0.05558495 0.03172371 0.096160896 0.26907158 -0.02838293 -0.02651197 0.18248884 -0.18673627 -0.3463656 0.12975858 -0.19161363 0.02489906 -0.008604624 -0.038261894 0.016209988 0.009329516 0.071087375 -0.053968802 0.22170094 0.28401273 -0.06705137 0.076185435 -0.14471652 -0.02663592 0.06477521 -0.05372939 -0.22604507 -0.034786023 -0.07035265
6 -0.038256828 -0.059721462 0.33532977 0.09270334 -0.05244339 -0.20601684 -0.04525636 -0.010176852 -0.05666722 -0.19321093 0.26019996 0.0015258029 -0.10983408 -0.001903181 -0.17499924 -0.065874435 -0.0942664 -0.00030017612 -0.025276726 0.087094024 0.1658432 -0.02720805 0.2989929 -0.04069845 0.04474362 0.22896013 -0.17197026 0.03239781 -0.15422481 -0.14077921 -0.07933182 -0.06877252 -0.20022364 -0.15010147 0.15507466 0.068573385 0.041198194 0.10177387 0.2522585 -0.04283558 0.0008287865 0.19575012 -0.19918795 -0.3232914 0.13124944 -0.18802187 0.0059144916 -0.0065662246 -0.03206035 0.006246454 0.022754809 0.053611446 -0.03399701 0.21515065 0.27596894 -0.045972135 0.07733447 -0.1524012 -0.029157791 0.066888824 -0.030489253 -0.197051 -0.030539146 -0.051557783
2 -0.04251885 -0.044378527 0.35243794 0.11434824 -0.031028891 -0.21452558 -0.03452458 -0.02592621 -0.04816458 -0.2147263 0.24795441 0.001674863 -0.110486194 0.010561757 -0.17307198 -0.03884356 -0.11348786 -0.017500166 -0.019189827 0.11045405 0.17734812 -0.031056235 0.31526628 -0.06673399 0.05006199 0.22278951 -0.18777938 0.039479073 -0.17760302 -0.13483128 -0.060293768 -0.068742655 -0.21196052 -0.15208006 0.1718062 0.062832996 0.04604732 0.12369217 0.2478127 -0.034058653 0.0021162422 0.2012965 -0.19153751 -0.35463735 0.12502857 -0.18879773 0.03404895 0.006789175 -0.043254886 0.013094592 0.0029339564 0.060222607 -0.04201545 0.2159913 0.29794827 -0.038441814 0.09196438 -0.1392562 -0.045541234 0.0651342 -0.054596953 -0.2294909 -0.038663976 -0.08075726
7 -0.016839605 -0.059266053 0.36614907 0.09627852 -0.03620526 -0.18933803 -0.05622381 -0.029339397 -0.054325998 -0.20790644 0.25554493 -0.02730146 -0.12259606 0.01180761 -0.20125975 -0.06775235 -0.105900355 -0.026774462 -0.043658856 0.08736756 0.17839666 -0.026485372 0.3221425 -0.05258243 0.03229422 0.24045788 -0.1953815 0.030405503 -0.18991248 -0.14466725 -0.07295894 -0.059377167 -0.21211651 -0.14277492 0.17441247 0.048890933 0.05467373 0.119053245 0.249771 -0.023976643 -0.0026595797 0.18200982 -0.20849323 -0.34028167 0.123619586 -0.19738129 0.0338679 -0.0037835818 -0.054665137 0.0110357385 -0.0007030929 0.06861587 -0.049553785 0.21875367 0.28876716 -0.050967533 0.10672471 -0.15421332 -0.03925525 0.07335419 -0.03222917 -0.22386558 -0.016004922 -0.054958157
18 -0.03418636 -0.038332507 0.37199512 0.10647423 -0.059835102 -0.22371285 -0.05047525 -0.013197123 -0.041694604 -0.21072663 0.26504344 -0.0064231586 -0.100160316 -0.0035110344 -0.20156445 -0.07473244 -0.10253118 -0.0028120673 -0.034750253 0.092699975 0.1712151 -0.008352106 0.30742192 -0.040458564 0.024166748 0.24611518 -0.20363818 0.044818316 -0.18436521 -0.1491076 -0.082258135 -0.0703762 -0.22018217 -0.15552081 0.1587443 0.066408895 0.05258071 0.10137797 0.25825235 -0.020306384 -0.003072069 0.18785329 -0.21044852 -0.3572959 0.13396056 -0.19121298 -0.007781854 0.008223245 -0.026977899 -0.0059722187 0.002757955 0.091261424 -0.050490595 0.22719398 0.29518574 -0.041417602 0.10820597 -0.14794995 -0.040764377 0.08015598 -0.045965705 -0.20845638 -0.039339483 -0.050477374
15 -0.028085798 -0.058056496 0.34086442 0.10202543 -0.027643465 -0.19538608 -0.05116553 -0.011910383 -0.029851068 -0.20615803 0.24739687 -0.030010715 -0.11567407 0.005898515 -0.19255337 -0.04419373 -0.09482812 -0.02063134 -0.019397598 0.118610695 0.182083 -0.025106167 0.2988942 -0.058201835 0.019279653 0.229455 -0.176901 0.032904502 -0.17372169 -0.13764015 -0.05610511 -0.075381234 -0.21795803 -0.12842159 0.16645989 0.07346092 0.051240142 0.10784108 0.25776935 -0.038707357 -0.026046202 0.19056785 -0.18029866 -0.33830896 0.13785204 -0.1885156 0.038204737 0.0050748694 -0.054105956 0.010441378 -0.010622816 0.057276566 -0.03912953 0.22428824 0.2910105 -0.060739856 0.09319995 -0.13195612 -0.036250085 0.04454067 -0.04371859 -0.22029282 -0.015095482 -0.07690443
5 -0.017196253 -0.016861506 0.3647281 0.11719785 -0.057014678 -0.2020022 -0.04686524 -0.029616037 -0.05274194 -0.20128472 0.26375386 -0.010864947 -0.109621204 -0.010221606 -0.18829024 -0.05668678 -0.10850994 -0.020029495 -0.036685087 0.10679116 0.18040743 -0.028454566 0.3148786 -0.047694907 0.035382204 0.23093618 -0.18375874 0.028148467 -0.19155581 -0.14403656 -0.066124104 -0.06893405 -0.22441086 -0.15324938 0.16470876 0.07036502 0.019575361 0.10633425 0.2401603 -0.019879507 -0.008448092 0.2085841 -0.21125032 -0.36222118 0.10646059 -0.2057445 -0.016544146 0.008818816 -0.03921775 -0.007135484 0.023171544 0.08012857 -0.024320949 0.21984027 0.29327685 -0.05981497 0.09170893 -0.13378674 -0.041040473 0.069216855 -0.04734946 -0.21710046 -0.005345445 -0.050601546
3 -0.019456416 -0.017691098 0.31432855 0.08531863 -0.052954514 -0.19027215 -0.054322224 0.0037168493 -0.04235584 -0.18196729 0.21665367 0.0015500012 -0.092430495 -0.009450379 -0.15656793 -0.054895964 -0.08778823 -0.008446121 -0.03712515 0.10262155 0.159639 -0.03124836 0.2701139 -0.051035903 0.029707136 0.19903684 -0.17043163 0.030101357 -0.1394838 -0.12199684 -0.07985023 -0.042946786 -0.17743054 -0.13581927 0.15602636 0.05760978 0.037155747 0.09936149 0.20281476 -0.011377776 -0.011407057 0.17196615 -0.16385877 -0.28843096 0.104222454 -0.14927912 -0.0035717483 0.00405068 -0.03404416 0.007967384 0.005123786 0.0742226 -0.022619981 0.19446877 0.24969234 -0.027754815 0.0778355 -0.106901824 -0.021650707 0.043114416 -0.0483719 -0.18421222 -0.013107777 -0.056676783
9 -0.030717527 -0.025190769 0.3682534 0.10750092 -0.058684185 -0.2146275 -0.054258548 -0.024656432 -0.045061022 -0.20485462 0.26182428 0.00027487995 -0.107516 -0.018297646 -0.18331473 -0.0690801 -0.09590623 -0.016627673 -0.026912114 0.10332401 0.18364027 -0.019755894 0.30185315 -0.0383921 0.036561802 0.21706833 -0.20023833 0.041378897 -0.16654155 -0.12454112 -0.08916734 -0.05248334 -0.19758546 -0.13821612 0.1788281 0.04778197 0.023311604 0.11056909 0.26729003 -0.01895022 -0.004036832 0.18731523 -0.18069343 -0.35416293 0.10124952 -0.19422829 -0.0009701883 0.017344082 -0.047106676 -0.007997659 0.025876645 0.06904128 -0.022617515 0.20692663 0.2893871 -0.04260812 0.095808454 -0.14446126 -0.02894285 0.050993282 -0.050662495 -0.2148426 -0.014427712 -0.06797626
17 -0.029707799 -0.022560144 0.24372977 0.07093024 -0.020496745 -0.13652547 -0.0367452 -0.0041716336 -0.015658636 -0.12671037 0.1902396 -4.247573e-06 -0.06727387 -0.0010155028 -0.13806139 -0.03590133 -0.071529455 -0.009266912 -0.033778854 0.08765541 0.11403863 -0.023434231 0.20954171 -0.040261988 0.012525567 0.1577766 -0.13646497 0.024849538 -0.13310081 -0.089243256 -0.045029856 -0.048431847 -0.15163848 -0.107850395 0.12449341 0.046791397 0.013806382 0.06665272 0.18170345 -0.017168636 -0.025917836 0.14117844 -0.14563784 -0.24970329 0.08809264 -0.13281155 0.015601713 0.019663025 -0.036705367 0.021059733 0.009009878 0.06251291 -0.018187903 0.13591333 0.1937366 -0.024363188 0.072123036 -0.08457051 -0.010644216 0.053587113 -0.048529893 -0.14067234 -0.02779646 -0.04301192
16 -0.015278842 -0.02869571 0.3115126 0.09643486 -0.04138277 -0.16550073 -0.045238342 -0.0035714265 -0.019766178 -0.17633863 0.22757183 -0.019259652 -0.068116605 0.014931017 -0.15504715 -0.034856502 -0.082327046 -0.018040653 -0.03272322 0.10461608 0.14424682 -0.019914882 0.27147076 -0.044810846 0.02790583 0.18948255 -0.14814796 0.023650454 -0.15258875 -0.1233833 -0.06728736 -0.072224356 -0.18414596 -0.14445876 0.1394357 0.03733053 0.017253222 0.07735135 0.20933034 -0.015074873 -0.0048056915 0.16442941 -0.16622339 -0.30262324 0.10240743 -0.15363929 0.012246678 0.007490692 -0.038525455 0.0062844483 -0.002158617 0.04938649 -0.04628798 0.18354014 0.24473694 -0.029869577 0.07385701 -0.1233856 -0.010226263 0.048625268 -0.044226017 -0.16514799 -0.022802819 -0.0659578
10 -0.012740134 -0.029789764 0.28267983 0.09079209 -0.036865696 -0.16096696 -0.03925033 -0.009808564 -0.032839403 -0.164691 0.2177062 -0.013295049 -0.093633495 0.015571651 -0.14299898 -0.03069613 -0.09632146 -0.005204529 -0.03635476 0.10383663 0.15272096 -0.006022858 0.26173759 -0.03574761 0.020579511 0.20240149 -0.1584746 0.02467323 -0.14976415 -0.09690499 -0.07119298 -0.060955644 -0.16077615 -0.12736526 0.12480799 0.038323246 0.049205333 0.09758864 0.22075701 -0.029577632 -0.025637256 0.16468026 -0.14870012 -0.2928403 0.08758914 -0.15675071 0.0049876426 0.0023924932 -0.040791187 -0.00088713993 0.021689313 0.04286933 -0.027406953 0.18964168 0.23523174 -0.026420763 0.092837565 -0.12767784 -0.035645917 0.039984707 -0.050732605 -0.18023933 -0.034565188 -0.06932079
