12 64
9 -0.043974593 -0.118852764 0.16620447 0.09368791 -0.057864398 -0.17135815 0.06451092 0.034375124 -0.12517269 -0.08390232 0.14176874 0.03448452 -0.03531966 0.039965965 -0.061814878 -0.041519724 -0.031945087 0.05525501 -0.050003283 -0.03792961 0.087745905 0.097134024 0.15993594 -0.014058279 0.10695061 0.120330825 -0.10519597 0.069759816 -0.09285313 -0.094581604 -0.056469142 -0.08003443 -0.045439977 -0.16811664 0.0004756701 0.025180563 0.09684425 0.021363696 0.16481704 -0.04316634 0.040265366 0.059458096 -0.11719734 -0.13372248 0.0724752 -0.048148632 -0.022628458 -0.01812963 0.06428893 0.0013758811 0.018842889 0.070418544 -0.091111645 0.11705234 0.13992047 -0.040158767 0.013204426 -0.1539991 -0.036524855 0.13353848 0.021852393 -0.08924546 -0.14548378 0.014264786
2 -0.027354868 -0.062806785 0.08614509 0.053475697 -0.029481899 -0.08713903 0.03906044 0.02674354 -0.06809611 -0.056429483 0.082042344 0.02321026 -0.0038135264 0.015486081 -0.034531962 -0.035427567 -0.022113042 0.035888545 -0.013446166 -0.002317352 0.036067106 0.052035928 0.094522946 -0.017295184 0.05059199 0.08056731 -0.05576275 0.034013946 -0.03922242 -0.049534593 -0.011657926 -0.03606991 -0.045672536 -0.09802002 0.0043506785 0.026664892 0.03317227 0.022414224 0.10163138 -0.011777617 0.042369988 0.02105461 -0.056499112 -0.06061496 0.034026798 -0.03522101 -0.0067032767 -0.03134601 0.021733304 0.0040097022 0.024855312 0.04558013 -0.03438433 0.0764437 0.065656014 -0.019482324 0.006819026 -0.08871795 -0.0037555213 0.04964329 0.02585661 -0.046308503 -0.085260876 0.020778978
8 -0.031551674 -0.067621075 0.119264096 0.04543132 -0.030454047 -0.11519589 0.043116104 0.020257186 -0.066912904 -0.039839696 0.10377622 0.040489346 -0.006285327 0.008581472 -0.050635207 -0.026106333 -0.028380418 0.049163856 -0.01574596 -0.017687483 0.054792307 0.061324153 0.11207694 -0.026256965 0.06455246 0.08720052 -0.06964559 0.0535758 -0.037769545 -0.04794886 -0.03198651 -0.03911992 -0.05152637 -0.09783872 -0.004980832 0.0110775 0.06133591 0.02809559 0.12241657 -0.033566207 0.048068084 0.046242755 -0.07408979 -0.09727248 0.054790847 -0.01983303 -0.008977445 -0.03265587 0.024999412 -0.01177138 0.03052078 0.03531179 -0.06891359 0.081939094 0.09227292 -0.032885198 0.005863079 -0.099285156 -0.018983522 0.060700253 0.022225128 -0.06700362 -0.0895617 0.014424633
11 -0.021759592 -0.080768034 0.08602633 0.05018198 -0.017123504 -0.09616813 0.017254552 0.019501407 -0.06769134 -0.039467227 0.06484799 0.01965658 -0.005013425 0.02878968 -0.036216553 -0.017419567 -0.03328105 0.040730774 -0.02872423 -0.018084522 0.059135735 0.052299537 0.097592995 -0.018299453 0.06478388 0.08660784 -0.07220493 0.026873644 -0.057100892 -0.05855269 -0.032120697 -0.058677167 -0.021231089 -0.09791234 0.015141366 0.024845412 0.038320642 0.023478152 0.10330115 -0.03300384 0.01973341 0.026971769 -0.07273022 -0.075541414 0.040843327 -0.022015974 -0.0044953558 -0.019804412 0.024053417 -0.0043672947 0.01705915 0.04647862 -0.041701023 0.07322701 0.07554056 -0.023471912 -0.00382923 -0.08411075 -0.015292224 0.06398454 0.0029300512 -0.06348092 -0.09411223 0.005264566
10 -0.031522986 -0.081612565 0.089260906 0.045893624 -0.02303503 -0.1086183 0.05008774 0.01979284 -0.086043596 -0.032823913 0.09869129 0.03451829 -0.028356336 0.028158633 -0.028244747 -0.016373845 -0.0155986445 0.03903956 -0.029736605 -0.00043764705 0.06629469 0.062446125 0.092813544 -0.01203227 0.06511499 0.06558856 -0.07856148 0.038319085 -0.047721867 -0.06561005 -0.036844525 -0.060638297 -0.023713047 -0.09972669 -0.005110405 0.028573385 0.06752481 0.0130511075 0.11964039 -0.015058685 0.045002405 0.035919577 -0.05212754 -0.09075291 0.03046648 -0.014414532 -0.008078054 -0.023963595 0.041342095 -0.014054344 0.027082223 0.050544184 -0.040901877 0.062248755 0.09625586 -0.014297383 0.010106555 -0.10263171 -0.004688324 0.06885918 0.03199438 -0.06526853 -0.10121628 0.027013045
0 -0.018060762 -0.06309521 0.095730826 0.05551196 -0.03599594 -0.07533522 0.03671096 0.013769849 -0.05546934 -0.040355414 0.0633433 0.010597874 -0.026560199 0.0125163635 -0.020792574 -0.0042379173 -0.003956602 0.015219087 -0.033185545 0.003362293 0.04265636 0.052607965 0.08468562 -0.011830172 0.060522344 0.06717114 -0.04730519 0.026700007 -0.047513884 -0.047712404 -0.014421319 -0.038992498 -0.046120327 -0.094440006 -0.0070574507 0.012342002 0.045897838 0.03160945 0.0891033 -0.024916166 0.027301133 0.032952983 -0.0402445 -0.0667921 0.044828545 -0.034330014 -0.005540047 -0.0026887814 0.024930535 -0.021001684 0.022162233 0.025947006 -0.046637718 0.07359637 0.059944123 -0.0242203 -0.005051097 -0.059098165 -0.026189534 0.06489544 0.0009991311 -0.03574085 -0.06249727 0.015983153
1 -0.021792602 -0.057193685 0.08481021 0.043504585 -0.023523776 -0.08689718 0.013152076 0.0084906155 -0.053526625 -0.03775648 0.07482695 0.016395453 -0.003521894 0.0016555273 -0.028743096 -0.026241276 -0.02709359 0.02653894 -0.028645616 -0.014421526 0.040902533 0.04924616 0.0689643 -0.0037838435 0.036918323 0.06694198 -0.056588635 0.03479513 -0.048812166 -0.036541633 -0.02888212 -0.04147077 -0.030938268 -0.060556587 0.010371235 0.0047210306 0.039772663 -0.00022753526 0.08634763 -0.0014552157 0.02047077 0.024938406 -0.04518136 -0.048119515 0.018131409 -0.019434195 0.005469729 -0.01098881 0.026869532 -0.020663332 0.027765825 0.01841774 -0.042276897 0.056858532 0.0560081 -0.0126839895 0.0062127467 -0.07552647 -0.028954938 0.066963755 0.021690942 -0.050928146 -0.05657724 0.012191263
3 -0.018912222 -0.086339004 0.108736984 0.057615377 -0.011722092 -0.107509546 0.032248665 -0.0014501928 -0.08888874 -0.065892264 0.07762922 0.010826339 -0.011747816 0.009646273 -0.030500088 -0.022636982 -0.02772945 0.030067276 -0.0076294276 -0.0014405119 0.039103586 0.07132922 0.08473504 0.001121446 0.05623832 0.08493426 -0.060503077 0.049740706 -0.057052396 -0.04216312 -0.015226387 -0.064304814 -0.052476272 -0.11212543 0.0063797086 0.011539895 0.04414611 0.0076223044 0.11449381 -0.019614698 0.01976848 0.024012744 -0.06129518 -0.08934666 0.057341762 -0.038478553 -0.0027393247 -0.032012522 0.047142178 -0.000776969 0.01769704 0.04563827 -0.07105824 0.07680261 0.078511216 -0.03560784 -0.01016334 -0.09083294 -0.015021756 0.08443678 0.0020152903 -0.066580445 -0.09555014 0.012748652
6 -0.03312367 -0.07356916 0.07233484 0.02701913 -0.031168899 -0.088288315 0.02484651 0.009699829 -0.07251212 -0.038127497 0.07886775 0.03161845 -0.025509842 0.009528173 -0.021096194 -0.032785937 -0.015135737 0.037394185 -0.009927416 -0.02348881 0.032928303 0.030946653 0.074910894 0.005312485 0.058671176 0.06835412 -0.043085195 0.024695588 -0.024081862 -0.055171885 -0.03385549 -0.04246176 -0.029214654 -0.08266785 0.001077081 0.026775112 0.03997032 0.012581758 0.08705991 -0.031368986 0.039320596 0.040384937 -0.06489056 -0.05873583 0.049152356 -0.03437276 -0.016236844 -0.028182264 0.039897315 -0.006676056 0.03138378 0.018154439 -0.033354856 0.06080571 0.06466471 -0.013170265 -0.009206554 -0.08606247 -0.010082399 0.065930106 0.025528055 -0.035926167 -0.07007533 0.025056543
4 -0.03748173 -0.059816536 0.087403215 0.050356213 -0.011129345 -0.09730065 0.038767334 -0.0054955 -0.065626785 -0.057577055 0.06134914 0.03321712 -0.019151285 0.021056224 -0.014494261 -0.0059257275 -0.032492913 0.022778055 -0.004535375 -0.003454085 0.03842376 0.035581514 0.085364096 -0.018269094 0.06555175 0.06101787 -0.058057174 0.034830056 -0.045851305 -0.04597537 -0.013427886 -0.043320768 -0.03889105 -0.08854907 0.011591217 0.01696879 0.044990063 0.031653415 0.08127773 -0.020072103 0.043910153 0.037894145 -0.053059764 -0.083848044 0.041865695 -0.030445494 0.009744577 -0.015492378 0.033809476 -0.0032556704 0.013044239 0.027200002 -0.046952203 0.059804555 0.079235926 -0.0041008913 0.002220733 -0.07231843 -0.027140468 0.06876052 0.0007562251 -0.06280255 -0.08505549 -7.0685055e-05
7 -0.013370791 -0.08366511 0.11474321 0.039592803 -0.020050962 -0.08342837 0.020058021 -0.00720553 -0.079772465 -0.056726802 0.07610966 0.005024396 -0.03172951 0.022915427 -0.04686446 -0.03753467 -0.027047716 0.016543495 -0.033581305 -0.02856814 0.044417158 0.049382687 0.10240269 -0.005381803 0.054513935 0.08879521 -0.07337335 0.031291325 -0.0653466 -0.0605191 -0.028521687 -0.03897497 -0.044361528 -0.09110356 0.014319642 0.00270132 0.05978629 0.029341169 0.0950317 -0.011726244 0.041385043 0.020000879 -0.07608462 -0.07644834 0.045953754 -0.041861054 0.0095896665 -0.027293589 0.026194185 -0.0075142146 0.011375529 0.04072107 -0.06319573 0.07202698 0.076714955 -0.020487012 0.016446274 -0.095690526 -0.02493119 0.08700568 0.023124894 -0.06314214 -0.07170324 0.027644679
5 -0.033405844 -0.0759575 0.110965505 0.044539843 -0.03625537 -0.11153024 0.032879207 0.009276411 -0.06750687 -0.05605936 0.080175176 0.02511085 -0.011857256 0.01910481 -0.04550443 -0.039381113 -0.023178533 0.042496648 -0.021287 -0.03072543 0.034121267 0.06741476 0.0895631 0.0012666376 0.051292986 0.094811805 -0.076379426 0.044222455 -0.05542959 -0.06725746 -0.03278554 -0.05113878 -0.049558546 -0.10278283 -0.009410573 0.019924756 0.06956581 0.017589351 0.10138504 -0.017683169 0.049012974 0.022668188 -0.07860051 -0.08716961 0.06420365 -0.031252097 -0.019979306 -0.022731522 0.051817678 -0.020466374 0.008887932 0.05538565 -0.07223204 0.080774575 0.08159472 -0.011022807 0.01766039 -0.094574966 -0.02858314 0.093248345 0.016235458 -0.047007367 -0.10280393 0.03198967
