14 64
2 -0.06585162 -0.09776373 0.21394454 0.13430008 -0.057376593 -0.19147679 0.06452178 -0.0014905616 -0.09642366 -0.1700502 0.17935622 0.009079099 -0.02477083 0.0017048945 -0.106691055 -0.07635843 -0.07568746 0.04065297 0.0037376736 0.01446809 0.06816166 0.08966606 0.18841305 -0.03075259 0.039398894 0.20524772 -0.11071272 0.06511626 -0.13844573 -0.13341519 0.03171929 -0.0954467 -0.20034866 -0.13686283 0.013448575 0.099484056 0.08184531 0.039795898 0.18786955 0.01232282 0.097025044 0.07483959 -0.12854835 -0.15798505 0.08475989 -0.13046393 0.0038719866 -0.05094973 0.052461844 -0.053591345 0.028042832 0.07527122 -0.07733377 0.20265524 0.16998349 -0.054092444 0.05591221 -0.15906619 -0.090910256 0.12458848 0.07490059 -0.13111778 -0.108667195 0.05476361
12 -0.061873745 -0.082232505 0.18030354 0.1132587 -0.042821143 -0.1527999 0.056806948 -0.002448385 -0.07762031 -0.16249771 0.15146966 0.010675673 -0.00834993 -0.007105186 -0.09085915 -0.078509204 -0.07070668 0.035759 0.024552181 0.03667628 0.03856049 0.07008938 0.16728951 -0.036454413 0.021518772 0.19643678 -0.09290293 0.04711288 -0.10533009 -0.11436321 0.055341847 -0.0713454 -0.20635828 -0.120466955 0.01729373 0.10168375 0.049426973 0.054868214 0.16977201 0.025575498 0.11465912 0.04980734 -0.09929596 -0.12320846 0.07397554 -0.127812 0.016038686 -0.069900036 0.029241731 -0.048643757 0.038023885 0.06952584 -0.05088413 0.1904789 0.13206246 -0.038741462 0.049000137 -0.13544504 -0.06422986 0.081186235 0.078123376 -0.10923909 -0.09592026 0.06584576
13 -0.056386307 -0.07512911 0.1975107 0.10220799 -0.034385707 -0.17054574 0.05180882 -0.009313669 -0.07060535 -0.13189593 0.16604541 0.02461171 0.003886994 -0.019338155 -0.103651635 -0.06458783 -0.08198892 0.04945879 0.021886246 0.023280725 0.05770902 0.07878888 0.17079781 -0.045540668 0.02523633 0.19164275 -0.10090835 0.06493167 -0.10219032 -0.09843814 0.036124207 -0.07503903 -0.19962224 -0.10473379 0.0110582495 0.08018102 0.06197548 0.046031065 0.18139827 0.011219635 0.10529506 0.069005676 -0.109041445 -0.14827637 0.074557036 -0.100054696 0.013345232 -0.07084992 0.026467364 -0.06322882 0.04778298 0.056814842 -0.0768911 0.18154994 0.14715645 -0.05615286 0.043600596 -0.13752788 -0.07421929 0.080667466 0.07343315 -0.13148937 -0.089456856 0.05391764
5 -0.044176146 -0.08868436 0.16002806 0.10347472 -0.023225905 -0.15086278 0.026159968 -0.0040804734 -0.07378425 -0.12107819 0.12711456 0.0072379145 0.007056177 0.002452153 -0.08632977 -0.05440318 -0.08269306 0.04471238 0.002415046 0.016898233 0.06446448 0.07279943 0.15326911 -0.035694856 0.030502517 0.18313664 -0.10288412 0.04030365 -0.116527036 -0.10417927 0.026059577 -0.09296906 -0.15405999 -0.106837116 0.028352076 0.08617779 0.040014785 0.03632861 0.16173233 0.0077967863 0.07086313 0.048493918 -0.10668552 -0.12273505 0.056848176 -0.092464045 0.012934535 -0.05514407 0.026808435 -0.051828545 0.036036994 0.06757469 -0.05097341 0.16461053 0.1268393 -0.04662628 0.030164056 -0.12350854 -0.064975455 0.08428319 0.05163425 -0.12325982 -0.096948944 0.042028226
11 -0.05600057 -0.09110784 0.16821975 0.10096137 -0.027385136 -0.16479023 0.05696153 -0.010031532 -0.09050303 -0.12413503 0.15960166 0.018489432 -0.018174412 0.0009847508 -0.08143078 -0.056079738 -0.068687 0.04006144 0.0061991494 0.0365506 0.068419285 0.081170194 0.1502894 -0.028957102 0.026549412 0.17003965 -0.111003436 0.050560907 -0.11226843 -0.11585705 0.027712982 -0.09669883 -0.16851331 -0.107532404 0.010803243 0.094798476 0.070184596 0.029711219 0.17797936 0.028727219 0.10075805 0.05702892 -0.08868072 -0.14118397 0.052064415 -0.093126275 0.013447621 -0.061332658 0.04486507 -0.064939156 0.04280982 0.072522976 -0.051994156 0.16044505 0.15021943 -0.036425624 0.04766832 -0.14169581 -0.060133897 0.09234216 0.08150654 -0.12840347 -0.10300552 0.06626645
3 -0.048597094 -0.075033955 0.1653933 0.10132011 -0.048024118 -0.12512372 0.05254246 -0.0059828456 -0.058220886 -0.123128936 0.12000058 0.0033236283 -0.030137634 -0.007802635 -0.06359554 -0.038129956 -0.040051483 0.015636431 0.00020718828 0.03984999 0.043335438 0.063014545 0.14044373 -0.029164491 0.03462595 0.15716356 -0.073496394 0.034882195 -0.093721 -0.098878406 0.0417003 -0.063898616 -0.1763005 -0.10753558 0.0020151082 0.07659438 0.056811158 0.058943707 0.14316137 0.0058211554 0.088470206 0.057468757 -0.06832646 -0.112219214 0.07475435 -0.10775425 0.013499816 -0.033891708 0.027697189 -0.064570606 0.035739236 0.041235678 -0.052730557 0.16454025 0.11072599 -0.03712414 0.028849524 -0.09365482 -0.07209936 0.08163374 0.04660367 -0.08241043 -0.06728374 0.05304191
0 -0.055824142 -0.090625755 0.19812751 0.11822746 -0.038399067 -0.17863683 0.034123402 -0.0154873375 -0.08482956 -0.14589249 0.169624 0.009398355 0.001011501 -0.020807091 -0.094765306 -0.0749907 -0.089323394 0.040061854 7.677769e-06 0.020062158 0.061911177 0.08676894 0.1616297 -0.026056143 0.019087795 0.19931136 -0.11025818 0.0601457 -0.13117823 -0.106679186 0.028101625 -0.09513533 -0.19179212 -0.101691514 0.027006004 0.08038812 0.05820582 0.021985676 0.18290678 0.035744343 0.089490816 0.060724754 -0.10469501 -0.12667586 0.05171402 -0.11015782 0.023599457 -0.057429228 0.04104183 -0.07495056 0.054446507 0.053429056 -0.0679397 0.18201414 0.13951991 -0.044995606 0.045069683 -0.14796697 -0.09062931 0.11336838 0.081164695 -0.13581692 -0.086056754 0.058428533
10 -0.039519537 -0.08507015 0.164818 0.10180836 -0.015165331 -0.14862747 0.03817125 -0.021872373 -0.08584662 -0.13596022 0.13134228 -0.00034244626 0.001085462 -0.017895501 -0.073742606 -0.054852474 -0.071727455 0.031975243 0.025831299 0.0358074 0.041282006 0.08137122 0.12882125 -0.016975587 0.01776685 0.1669005 -0.08128318 0.05687508 -0.1039476 -0.08011962 0.042931348 -0.09052256 -0.17377776 -0.107692964 0.019233441 0.0715934 0.038485147 0.018675616 0.1608329 0.020196222 0.06635573 0.044269774 -0.08491935 -0.12397502 0.06548576 -0.10146118 0.015165956 -0.06454149 0.04307684 -0.04453408 0.036971338 0.058535993 -0.068325035 0.15590657 0.11962817 -0.055093966 0.020993158 -0.11947115 -0.057702914 0.08975157 0.050338067 -0.11754905 -0.08721929 0.04550104
7 -0.072567046 -0.10391065 0.18289651 0.094891466 -0.049584076 -0.16895069 0.047845017 -0.016999241 -0.09047356 -0.15147811 0.16215011 0.022763655 -0.032798007 -0.012836865 -0.08283576 -0.0785716 -0.06660433 0.04213638 0.025364334 0.017045422 0.04303192 0.056905862 0.16291001 -0.017050173 0.037789848 0.19831833 -0.08918135 0.04276099 -0.09664043 -0.12856776 0.03122787 -0.08473172 -0.20076025 -0.11858329 0.013919954 0.10644965 0.063530244 0.050303724 0.1732707 0.0023639663 0.11871375 0.07596819 -0.11511095 -0.13305762 0.09692447 -0.13290454 0.0069182105 -0.07030566 0.050472658 -0.064253576 0.05045317 0.045457095 -0.056573257 0.1891209 0.14272818 -0.03654338 0.032791104 -0.14480804 -0.074707426 0.10575537 0.081327304 -0.10730911 -0.091127284 0.07374579
6 -0.05867615 -0.05922931 0.13624083 0.08338553 -0.015032518 -0.1276273 0.044736493 -0.027313728 -0.057397693 -0.123254314 0.099082045 0.022638993 -0.016181674 -0.00028810508 -0.05031411 -0.03304441 -0.06547898 0.01953261 0.029164469 0.028603738 0.03284573 0.03730748 0.12220288 -0.033024676 0.03258164 0.13208099 -0.07342437 0.037174977 -0.08194749 -0.082394674 0.040418793 -0.05979586 -0.14947374 -0.084645 0.021065822 0.07033423 0.045093797 0.052098844 0.114306636 0.010415532 0.09162103 0.05444689 -0.07242886 -0.114588425 0.061252102 -0.09048118 0.02771965 -0.042220596 0.030220607 -0.04106732 0.022184951 0.036188684 -0.046775915 0.13012607 0.11339609 -0.014957754 0.031488564 -0.090554476 -0.066130854 0.07327531 0.038224578 -0.0999108 -0.07653838 0.029674795
4 -0.030953575 -0.07122409 0.14369366 0.06471908 -0.02116784 -0.09917851 0.02305139 -0.026384879 -0.062727034 -0.109739296 0.105122924 -0.005807723 -0.025697595 -0.00030905416 -0.075173646 -0.06033666 -0.054891787 0.010681836 0.00096716825 0.0060118744 0.034885652 0.043113258 0.124007195 -0.018794136 0.014217987 0.14320125 -0.07876902 0.027811285 -0.091182776 -0.08811679 0.025842499 -0.048718926 -0.14199527 -0.07217466 0.022214526 0.054067086 0.051321343 0.043028865 0.11383537 0.022483116 0.082671955 0.032847878 -0.08349475 -0.09282402 0.0524519 -0.09294486 0.026127046 -0.050227802 0.01768861 -0.042827226 0.020901127 0.04371622 -0.05025603 0.12744276 0.09899688 -0.02741637 0.044210564 -0.102722295 -0.057001587 0.07799037 0.061412 -0.09083245 -0.051282845 0.054938138
1 -0.06325804 -0.080629535 0.17901815 0.09340494 -0.045472313 -0.15869935 0.046097215 -0.01425406 -0.06465329 -0.14360692 0.13721673 0.013969723 -0.01003449 -0.00651816 -0.09123922 -0.07532686 -0.06488219 0.040819842 0.01808085 0.011719237 0.031874426 0.075532734 0.14299144 -0.017763253 0.014851485 0.18868238 -0.100025065 0.05067263 -0.10518726 -0.11769508 0.033514038 -0.07673216 -0.19126053 -0.107018754 0.0019157234 0.090231195 0.07331757 0.04246823 0.15278086 0.02125546 0.11126507 0.046676338 -0.10495674 -0.13036436 0.08867122 -0.10966482 0.0014325624 -0.05659137 0.05119321 -0.06838167 0.023814678 0.07007261 -0.073097035 0.17519733 0.1309974 -0.025945172 0.05487366 -0.12582797 -0.078314394 0.104666375 0.06671505 -0.097224854 -0.09946884 0.071053594
8 -0.043553825 -0.068583906 0.12717277 0.06833835 -0.019878473 -0.10669907 0.027611624 -0.0071720006 -0.036398336 -0.10823366 0.09991989 -0.0056560165 -0.02821564 -0.0045243977 -0.07002569 -0.037836906 -0.040671684 0.015474502 0.019500384 0.03501582 0.043482047 0.040084533 0.10953618 -0.025855688 0.0063346988 0.13452445 -0.065669 0.028633345 -0.074424066 -0.085515305 0.034912456 -0.057903618 -0.14710374 -0.060797255 0.015922874 0.0771399 0.054267142 0.042379495 0.12378411 0.0023616194 0.061970517 0.047410976 -0.059450228 -0.09785889 0.07195365 -0.08725932 0.027355934 -0.036449287 0.015053119 -0.04440578 0.010484746 0.032391816 -0.039194435 0.13649178 0.10663642 -0.034109764 0.035170726 -0.08049604 -0.05572381 0.04941301 0.046278182 -0.0861806 -0.04848265 0.032010633
9 -0.027888127 -0.044455852 0.12598374 0.08317351 -0.02676357 -0.1007483 0.038290523 -0.022615356 -0.061156686 -0.091938205 0.105265155 0.004602408 -0.0076372586 -0.00815628 -0.061138086 -0.03815267 -0.059335865 0.019958327 0.007476706 0.017734822 0.038612653 0.04653025 0.116523646 -0.023898255 0.021286245 0.12973867 -0.059627563 0.025715983 -0.09173486 -0.082330436 0.039684627 -0.06338805 -0.14265323 -0.07794982 0.0050976845 0.069998115 0.0244872 0.029244248 0.103360854 0.015933195 0.07300334 0.05188061 -0.08366423 -0.10264049 0.034739748 -0.08840226 -0.005905317 -0.04470737 0.025483033 -0.05194615 0.03803758 0.045964763 -0.034435388 0.12374087 0.09795875 -0.044220358 0.025354467 -0.087013744 -0.0588787 0.06927731 0.052504785 -0.087892696 -0.048196614 0.052281465
